word,0,1,2,3,4,5,6,7,8,9,10,11,12,13,14,15,16,17,18,19,20,21,22,23,24,25,26,27,28,29,30,31,32,33,34,35,36,37,38,39,40,41,42,43,44,45,46,47,48,49,50,51,52,53,54,55,56,57,58,59,60,61,62,63,64,65,66,67,68,69,70,71,72,73,74,75,76,77,78,79,80,81,82,83,84,85,86,87,88,89,90,91,92,93,94,95,96,97,98,99,100,101,102,103,104,105,106,107,108,109,110,111,112,113,114,115,116,117,118,119,120,121,122,123,124,125,126,127,128,129,130,131,132,133,134,135,136,137,138,139,140,141,142,143,144,145,146,147,148,149,150,151,152,153,154,155,156,157,158,159,160,161,162,163,164,165,166,167,168,169,170,171,172,173,174,175,176,177,178,179,180,181,182,183,184,185,186,187,188,189,190,191,192,193,194,195,196,197,198,199,200,201,202,203,204,205,206,207,208,209,210,211,212,213,214,215,216,217,218,219,220,221,222,223,224,225,226,227,228,229,230,231,232,233,234,235,236,237,238,239,240,241,242,243,244,245,246,247,248,249,250,251,252,253,254,255,256,257,258,259,260,261,262,263,264,265,266,267,268,269,270,271,272,273,274,275,276,277,278,279,280,281,282,283,284,285,286,287,288,289,290,291,292,293,294,295,296,297,298,299,300,301,302,303,304,305,306,307,308,309,310,311,312,313,314,315,316,317,318,319,320,321,322,323,324,325,326,327,328,329,330,331,332,333,334,335,336,337,338,339,340,341,342,343,344,345,346,347,348,349,350,351,352,353,354,355,356,357,358,359,360,361,362,363,364,365,366,367,368,369,370,371,372,373,374,375,376,377,378,379,380,381,382,383,384,385,386,387,388,389,390,391,392,393,394,395,396,397,398,399
沙发,-0.20005448162555695,-0.24533481895923615,-0.938138484954834,-0.4289626479148865,0.3840368390083313,0.18292631208896637,-0.020704150199890137,0.4567708969116211,-0.9592832922935486,-0.03476294130086899,0.5761329531669617,-1.8520500659942627,0.4677065312862396,0.7922879457473755,-0.8289282917976379,-0.02609340101480484,-1.0086784362792969,0.026275724172592163,-0.5203007459640503,-0.8812573552131653,-0.3159727156162262,-0.15760117769241333,0.9003951549530029,-0.3727068603038788,-1.4250606298446655,0.41190341114997864,0.5425506234169006,-1.1301974058151245,-0.552798330783844,-0.7156180143356323,0.031482841819524765,0.581109881401062,-2.037996530532837,-0.02169967070221901,0.144694983959198,-1.7402986288070679,-0.5780611634254456,-0.5479817986488342,0.8531695008277893,0.7286340594291687,-1.0711926221847534,0.6200256943702698,-0.03905082866549492,0.011473271995782852,-0.5144017338752747,0.1319459080696106,0.05849815532565117,0.3374802768230438,-0.7529783844947815,0.8144410252571106,0.12481711804866791,-0.43757298588752747,-0.09512954205274582,1.362966775894165,0.627288281917572,-0.2385954111814499,-0.4925355315208435,1.1766000986099243,0.04927316680550575,0.011934027075767517,0.3368610739707947,-0.7979598641395569,-0.649865984916687,1.3106884956359863,-0.5416616201400757,-0.525566816329956,0.5534284710884094,-0.19472169876098633,-0.7201352715492249,0.428365558385849,0.569102942943573,0.5129981637001038,0.005865096114575863,0.8180928826332092,-0.36963120102882385,-0.06534077972173691,0.5723452568054199,-0.6482911109924316,0.5864953994750977,-0.5486441254615784,1.0489314794540405,-0.6896069049835205,-0.48263800144195557,0.20737802982330322,-0.38837045431137085,-0.2689976096153259,-0.2793322503566742,-0.10116325318813324,-0.12333809584379196,0.6966086030006409,-1.0175811052322388,-0.047561123967170715,-0.38954609632492065,0.5218993425369263,0.15123121440410614,0.0805814191699028,0.7788193225860596,-0.25811767578125,0.7503237128257751,0.6439296007156372,-0.6341962814331055,-0.8075342178344727,0.8057945370674133,0.325147420167923,-0.8628271818161011,-1.2798622846603394,-0.21566142141819,0.6958699226379395,0.18951258063316345,0.6127819418907166,0.37249940633773804,0.8283358812332153,0.3213913142681122,1.0058338642120361,0.5261675715446472,-0.2112724334001541,-0.22439542412757874,-0.2855823338031769,-0.887778639793396,-0.5006830096244812,0.026717007160186768,0.9523861408233643,0.46023041009902954,-0.45264920592308044,0.12954996526241302,-0.9671832919120789,-0.8070418834686279,-0.7269806861877441,-0.11752928048372269,-0.30143871903419495,1.5506125688552856,0.7692552804946899,-0.4243837893009186,0.602515697479248,-1.3710907697677612,-0.4324496388435364,0.7145518660545349,-0.5067586302757263,-0.4813908636569977,0.9340255260467529,0.7762566804885864,-0.7033368945121765,-0.08199886232614517,-0.27610689401626587,-0.9667163491249084,0.7990188002586365,-0.0518730990588665,1.0891945362091064,0.4558902978897095,0.9335662722587585,0.5411699414253235,-0.6100268959999084,0.24769826233386993,1.9193906784057617,-0.3042549788951874,-0.8437288999557495,0.1724386066198349,-0.11660198122262955,0.020766865462064743,0.4243958294391632,1.457663893699646,-0.9149166345596313,-0.9466322064399719,-0.6733890771865845,0.7024513483047485,-0.12461504340171814,-0.9244961142539978,0.11847057193517685,-0.5842813849449158,-0.3852803111076355,1.1459636688232422,-0.26488199830055237,0.04309339448809624,0.5718739032745361,0.23903003334999084,0.37770798802375793,-0.5169295072555542,-0.9533845782279968,-0.045893747359514236,0.5057028532028198,-0.12578091025352478,1.143846869468689,-0.7693138718605042,0.493671715259552,0.8009120225906372,0.7605800032615662,-0.14041472971439362,-0.4543759524822235,-0.7008070349693298,0.21921415627002716,-1.3596833944320679,1.0472699403762817,0.3573576807975769,-0.8278315663337708,1.3685972690582275,0.11395326256752014,1.0073872804641724,-0.08565086871385574,-1.156595230102539,0.4191496670246124,0.9229567050933838,0.0037407211493700743,1.1672816276550293,0.0642181858420372,-0.9010535478591919,-2.106691837310791,0.46671390533447266,-0.7008429169654846,-0.359894335269928,-1.3042571544647217,1.0621554851531982,0.734890341758728,1.2527204751968384,0.21316413581371307,-0.15243494510650635,0.22666363418102264,1.0847315788269043,-0.4137009084224701,0.3616775870323181,0.30522263050079346,0.033594634383916855,-0.04544695094227791,-0.4445558190345764,0.5585017800331116,-0.7153698801994324,0.13309615850448608,0.7004550099372864,0.9780860543251038,-1.6733070611953735,0.6576225757598877,0.15058356523513794,-2.092994451522827,-1.2759982347488403,-0.32429441809654236,-0.5435532331466675,0.056924786418676376,0.37684303522109985,-1.1761226654052734,0.04300763085484505,1.2410645484924316,-0.7399500608444214,1.3671894073486328,0.8589752912521362,1.1609821319580078,1.0008189678192139,0.28534942865371704,-0.2353273183107376,0.308488667011261,-0.39895811676979065,0.1285380721092224,0.7127385139465332,0.1659412980079651,1.1570165157318115,0.9365432858467102,0.9704543352127075,0.17096726596355438,0.10191251337528229,-0.38900208473205566,-0.6474599242210388,-0.2599559426307678,1.2365893125534058,0.2935592532157898,0.22917959094047546,0.710213303565979,-0.18974336981773376,-0.821256160736084,-0.5092631578445435,-1.6223448514938354,0.5511777997016907,-0.13615098595619202,0.669639527797699,-0.8870386481285095,0.32642823457717896,-0.20187710225582123,1.0410255193710327,1.149643063545227,-0.654871940612793,0.07326412200927734,1.0591862201690674,-0.7701389193534851,0.7631295919418335,-0.35916873812675476,1.073849081993103,0.3474556505680084,0.5591006875038147,-1.2771203517913818,0.2048254907131195,2.2261695861816406,-0.5829892754554749,-0.18497422337532043,-0.07949192821979523,0.3605821430683136,0.12044775485992432,-0.46280303597450256,0.9128928184509277,-0.5757002830505371,0.5761800408363342,1.187949538230896,0.7529609203338623,-0.735530436038971,1.1532865762710571,-1.8700368404388428,0.6993876099586487,-0.07489465177059174,-0.28748613595962524,-0.5775930285453796,-0.39447349309921265,-0.543501079082489,-0.9473183155059814,0.29922300577163696,-0.377223938703537,0.4816414713859558,0.30119213461875916,-1.1836665868759155,0.15095211565494537,-0.44384273886680603,0.34277108311653137,-0.9823454022407532,-1.1261848211288452,0.6846203804016113,-0.4582587480545044,-0.4744667112827301,0.36820825934410095,-0.17307788133621216,-0.54310142993927,-0.4225490391254425,0.04373997822403908,-0.6907193064689636,0.2860501706600189,-0.29258304834365845,-0.8554762005805969,0.39060178399086,-0.7957396507263184,0.12084794789552689,0.6619581580162048,-0.6836252212524414,0.2947750687599182,-1.1880297660827637,-1.3127551078796387,-1.3485996723175049,0.4107268750667572,-0.7732217311859131,0.9606809616088867,0.6250306367874146,-0.4112966060638428,-1.0051708221435547,0.2173972725868225,-0.22229978442192078,-0.18403229117393494,0.35700759291648865,0.2023533284664154,0.11844133585691452,1.0239511728286743,0.8123289942741394,-0.2858617901802063,0.9429460167884827,0.17885331809520721,0.35895898938179016,0.29353824257850647,0.41587164998054504,0.7483754754066467,-0.26086726784706116,0.4002614915370941,-0.4840087890625,-0.29481711983680725,-0.2332175225019455,0.6166658997535706,-0.28798940777778625,-0.16206471621990204,-0.22501403093338013,-0.4423134922981262,0.17692647874355316,0.026787735521793365,0.18894127011299133,0.5177488923072815,-0.37046319246292114,0.06683474779129028,-0.22298170626163483,0.5144578218460083,0.10609257966279984,-1.201891541481018,-0.37498897314071655,-0.17395345866680145,-0.39549964666366577,-0.550446629524231,-0.14809852838516235,0.061664290726184845,-0.028091419488191605,-0.5109595656394958,1.100484013557434,0.10587389022111893,0.46025776863098145,-0.16765320301055908,0.7135374546051025,0.2572905421257019,0.12695908546447754,-1.5461766719818115,-1.1591885089874268,-0.5816091895103455,0.9637380838394165
进口国,-0.742380678653717,-0.45627543330192566,-1.1740533113479614,1.072056531906128,-0.15047559142112732,0.2611956298351288,0.5484156012535095,-0.338655561208725,-0.1990521103143692,0.23087602853775024,-0.403916597366333,0.7920060753822327,1.0263495445251465,-0.9646716117858887,-0.41721081733703613,-0.8751809000968933,-0.059734001755714417,-0.13383838534355164,-0.9552775025367737,-0.1242557242512703,0.5564976930618286,0.9442311525344849,0.6073936820030212,0.6494176387786865,0.5017005801200867,0.52541583776474,-0.17092585563659668,1.2545397281646729,-1.9171898365020752,-0.08888273686170578,-0.6532564163208008,0.024439964443445206,-0.16293008625507355,0.5270974636077881,-0.9611788988113403,-0.09795123338699341,-0.02057662047445774,-0.6433945298194885,-0.7950707674026489,-0.6100180745124817,-0.24252915382385254,0.48294275999069214,0.3589800000190735,-0.6710641980171204,-0.13508887588977814,0.3418596386909485,0.1708429604768753,-0.29363468289375305,-0.3024541437625885,-0.32956311106681824,0.838686466217041,0.36000385880470276,0.2593003809452057,-0.09627775102853775,-0.264096736907959,-0.8271185755729675,-0.8394464254379272,-0.46271049976348877,0.3509310781955719,0.1955660879611969,-0.6615523099899292,0.31065115332603455,1.1186250448226929,-0.31747618317604065,-0.09228535741567612,0.01533704437315464,-0.8814505338668823,-0.28915899991989136,0.018661942332983017,0.8515700697898865,-0.15223580598831177,-0.5985246896743774,-0.3442073464393616,0.2747447192668915,-0.7552934885025024,0.39126190543174744,1.2473503351211548,-0.7446069121360779,0.9607812762260437,-0.5053622722625732,-0.07991533726453781,0.6744982600212097,0.04666578024625778,-0.21229040622711182,0.30768483877182007,-0.02646811306476593,0.23369668424129486,0.17078691720962524,-0.2582678496837616,-0.3909398019313812,-0.4694458544254303,-0.9268480539321899,-0.011559845879673958,0.22164598107337952,1.4057177305221558,-0.9325762987136841,-0.04629456251859665,-0.4958895444869995,-0.04290911927819252,-0.3399880826473236,-0.5205264687538147,0.13550490140914917,0.13499018549919128,0.260733962059021,0.4927823543548584,-1.2691519260406494,0.5590977072715759,0.03658515214920044,0.5231399536132812,0.42174232006073,0.25970447063446045,0.15303215384483337,0.24737122654914856,-0.5643516778945923,-0.4063548445701599,-0.569865345954895,-1.0717307329177856,-1.0496268272399902,0.08709049224853516,0.20074611902236938,-0.38873451948165894,-0.40893879532814026,-0.9966023564338684,-0.31472447514533997,-0.5861746668815613,0.028764910995960236,0.10517379641532898,0.1094377413392067,0.6778927445411682,0.1587098389863968,-0.5868115425109863,0.5765153169631958,-0.5343552231788635,-0.6694899797439575,-0.007660473231226206,-1.4615435600280762,-0.6826517581939697,-0.33960193395614624,-1.366690993309021,0.09865974634885788,0.6730367541313171,-0.031186308711767197,-0.22235289216041565,0.03317399322986603,-0.30579444766044617,0.7362368106842041,0.6711093783378601,1.505137324333191,0.30183571577072144,0.65451580286026,-0.22632436454296112,-0.43866100907325745,0.6109699606895447,0.1308320015668869,-0.15394161641597748,0.8097653985023499,-0.840758740901947,-0.6195024847984314,0.5116900205612183,0.6219295263290405,0.3131903111934662,-0.07729142904281616,1.3541609048843384,0.05274677649140358,-0.6491207480430603,-0.4280633330345154,0.600907564163208,-0.12708428502082825,-0.5252746939659119,0.1362854242324829,0.045429524034261703,0.24215787649154663,0.6979422569274902,1.2041599750518799,-0.6358515024185181,0.27695590257644653,0.10372937470674515,-1.0711153745651245,-0.3657078742980957,-0.2914399802684784,-0.3114713132381439,0.47156617045402527,0.35642334818840027,-0.039181020110845566,-0.38537266850471497,0.620464563369751,1.0678927898406982,0.9864518642425537,-0.19465371966362,-0.19893740117549896,0.11960252374410629,0.3707374930381775,-0.8026276230812073,-1.6540884971618652,0.9660847783088684,-0.17645612359046936,0.1447746306657791,0.18680086731910706,0.6526680588722229,0.5770230293273926,-1.4885445833206177,-1.2811661958694458,-0.2088807225227356,-0.5277954339981079,0.5656076669692993,-0.4614810049533844,-0.0296383835375309,0.7942256331443787,-0.37125903367996216,-0.10796691477298737,0.80051589012146,-1.6295626163482666,0.8822976350784302,0.002232444239780307,-0.008468600921332836,-0.16468162834644318,-0.39147937297821045,-0.7552654147148132,1.395084261894226,-0.13290955126285553,-0.06153250113129616,0.9958578944206238,0.7414142489433289,0.20916084945201874,-0.06457781791687012,-0.10599205642938614,-0.1544763296842575,1.2375959157943726,0.17706714570522308,0.9103680849075317,-1.127567172050476,-0.3100926876068115,0.38928425312042236,-0.4157853424549103,0.9622731804847717,-0.29033684730529785,-0.33047348260879517,0.08674336969852448,-0.07768326252698898,0.9355384707450867,-0.5906567573547363,0.0676226019859314,0.3311481475830078,-0.4407362937927246,-0.09057698398828506,0.23376674950122833,-0.7258985638618469,-1.1000863313674927,0.7017427086830139,0.2205049693584442,-0.19436773657798767,-0.7274259924888611,-0.39187824726104736,0.9201370477676392,1.614550232887268,-1.2210509777069092,-0.28652361035346985,0.4213780462741852,-0.0918511375784874,-0.22900870442390442,-0.08934348076581955,0.5365669131278992,0.4416925311088562,-0.17969460785388947,0.1411445438861847,-0.4745050370693207,0.17252570390701294,-0.37296152114868164,0.18085977435112,-0.3601534962654114,-0.24956341087818146,0.07512980699539185,-0.6689231395721436,0.5885757207870483,-0.553580641746521,-0.5666810870170593,0.6170685291290283,0.8376999497413635,0.10971187055110931,0.16962867975234985,-0.8733483552932739,-0.2590523362159729,0.46792712807655334,0.4288284182548523,0.12861604988574982,-0.46753087639808655,0.6413313746452332,0.310964971780777,0.03359358385205269,-0.07527954876422882,-0.9213897585868835,0.9326883554458618,-0.170419380068779,0.6714926362037659,0.10322809964418411,-1.4996877908706665,-0.27704137563705444,-0.9931312799453735,-0.179376482963562,-0.2269773781299591,0.3814183175563812,0.8763201236724854,1.3359812498092651,0.4415179193019867,0.041948024183511734,0.29041075706481934,0.18285802006721497,0.7294417023658752,-0.25825217366218567,-0.2960663437843323,-0.32611048221588135,0.4807150959968567,0.51857590675354,0.13551703095436096,-1.168707013130188,-0.015604563057422638,1.4007669687271118,-0.6626051068305969,-1.0118473768234253,0.8825348615646362,1.4878041744232178,0.16749149560928345,-0.38083526492118835,-1.1352430582046509,-0.00755449291318655,0.7319785356521606,-0.8308877944946289,1.168658971786499,-1.6957136392593384,0.3274998962879181,-0.1250370442867279,-0.5040736794471741,0.657928466796875,0.4130070209503174,0.22316426038742065,-0.9918524622917175,-0.3612009584903717,-1.3519750833511353,0.3463689386844635,0.4388551712036133,0.1705012023448944,1.6717442274093628,-0.21970094740390778,0.9672917723655701,0.40076878666877747,1.3723849058151245,-0.8859988451004028,0.5313917994499207,-0.6638568043708801,0.03959694877266884,-0.2399044930934906,0.44998547434806824,1.2407814264297485,0.12197674065828323,-0.510796070098877,-0.28617793321609497,0.4922245740890503,0.21756212413311005,0.3195885121822357,-0.49646320939064026,-0.2722470462322235,0.2541431188583374,0.9448376297950745,0.15008167922496796,-0.12491117417812347,0.17119093239307404,0.9066116213798523,-0.14667804539203644,-0.47300779819488525,-0.6027278900146484,1.0228673219680786,0.6873093843460083,0.9596844911575317,-0.5694705843925476,0.7263495922088623,0.3186095058917999,0.37423357367515564,0.8754474520683289,0.2143772691488266,0.35959693789482117,-0.8511441946029663,0.5592796802520752,0.7513447403907776,0.6985066533088684,-0.17738424241542816,-1.0647950172424316,-0.5803529620170593,0.7004846334457397,1.4552720785140991,-0.428756445646286,0.28634998202323914,-1.2205626964569092,-0.138087660074234,-0.38032978773117065,-0.48906832933425903,0.3636498749256134,-0.1725359708070755,-0.5892836451530457,0.8182024359703064,-0.635172963142395
现实,-0.05263116955757141,-0.9318981170654297,-0.34361326694488525,0.004403541795909405,-1.1416101455688477,-0.216768279671669,-0.7049225568771362,-0.16442976891994476,0.7093276977539062,0.14374421536922455,0.27759072184562683,1.4251716136932373,1.4189809560775757,-1.40021550655365,-0.7677721381187439,0.33917421102523804,-0.1763412207365036,1.0643291473388672,0.4441315233707428,-0.5155754685401917,-0.002872730605304241,-0.21434447169303894,0.5535221099853516,-0.6303930282592773,-1.0654382705688477,0.07207177579402924,0.43005579710006714,-0.015361984260380268,-0.45421117544174194,0.32734784483909607,1.2289692163467407,-0.5133759379386902,1.451460838317871,0.2421979457139969,-0.13376669585704803,-0.0748249739408493,-0.15125954151153564,0.016728246584534645,0.31935933232307434,0.4092938005924225,0.8221171498298645,0.8741993308067322,1.0271880626678467,-0.2364082932472229,-1.1339644193649292,0.3020910620689392,-0.307533860206604,-0.23832859098911285,0.3283875584602356,0.6603485345840454,0.7209969758987427,0.12767063081264496,0.59390789270401,0.3686983287334442,0.25803661346435547,-0.3078644871711731,-0.0025028155650943518,0.29362836480140686,0.20646430552005768,0.07457171380519867,-0.43409985303878784,0.8991362452507019,0.8262296319007874,0.970221996307373,0.24176493287086487,-0.7979681491851807,-0.2201894223690033,-1.82938551902771,-0.01350407861173153,0.4966581165790558,-0.39078688621520996,0.030736630782485008,0.4914200007915497,0.5734752416610718,0.5566151142120361,-0.3653314709663391,1.4140288829803467,0.14424659311771393,-0.005778430495411158,-0.7928643226623535,-0.08257731795310974,-0.057193323969841,-0.7791016697883606,-0.4764489531517029,-0.34980618953704834,-1.4516352415084839,-0.3149230480194092,-0.6020822525024414,0.11476822197437286,0.019371403381228447,-0.4647941589355469,-0.01080810371786356,0.2525368928909302,0.4255947172641754,0.10966828465461731,0.5021407604217529,0.15834319591522217,-0.5437368154525757,1.175004243850708,-1.1332770586013794,-0.9718581438064575,0.3447182774543762,0.8148364424705505,-0.29717183113098145,-0.6414017081260681,-0.3054482042789459,0.3735101819038391,-0.12796086072921753,0.9479782581329346,-0.020201431587338448,-0.6556218266487122,0.7852450609207153,-0.0042194523848593235,0.7967563271522522,0.37359777092933655,-0.304121196269989,-1.035118579864502,-0.8391792178153992,-0.8801470994949341,-0.06593409180641174,-1.1338940858840942,1.5349007844924927,0.8500037789344788,-1.2066668272018433,1.3025939464569092,-0.012611902318894863,-0.7121441960334778,-0.8951058983802795,1.0971574783325195,-0.3085334002971649,0.20583172142505646,-0.038027774542570114,-1.1455248594284058,0.6420660614967346,-0.0010172630427405238,-0.5216302871704102,0.5104933381080627,0.7661963105201721,-0.32472312450408936,-0.7806650996208191,0.8346617221832275,-0.2702444791793823,-1.1579020023345947,-0.07694984972476959,0.4956534206867218,-0.9541083574295044,-0.1502990573644638,-1.5448954105377197,-0.078577421605587,-1.9179624319076538,-0.8328659534454346,0.8163259029388428,0.7691433429718018,-0.3101058900356293,0.43672865629196167,0.930790364742279,1.1955925226211548,-0.691548764705658,0.20831505954265594,-0.6627416014671326,-0.12375923246145248,0.281802773475647,0.16495463252067566,-0.32652226090431213,0.7572526931762695,-0.10333447903394699,0.8300657272338867,0.684878945350647,-0.770275354385376,-1.103253722190857,-0.8307381868362427,-0.9726299047470093,0.1827707439661026,-0.6030938625335693,-0.5650481581687927,0.6612076759338379,0.5303387641906738,-0.1455005258321762,0.48634520173072815,0.026318054646253586,-0.7717843055725098,-0.20570848882198334,0.06950749456882477,0.7144829034805298,-0.03466016426682472,-0.8771555423736572,0.7317818999290466,-0.426710844039917,-0.21641111373901367,-0.3417632579803467,0.03819446638226509,0.07040046155452728,0.2753017842769623,-1.3450050354003906,0.9874811172485352,0.34579798579216003,0.20412307977676392,-0.6631575226783752,0.8330110311508179,0.15116378664970398,0.8644129037857056,0.057717062532901764,-0.2803625762462616,0.2166016697883606,-0.3261735439300537,0.365349143743515,0.4304903447628021,-0.17324165999889374,-0.06165163591504097,-0.12019436061382294,0.20464985072612762,0.1480741649866104,0.5457161664962769,-0.1845448613166809,-1.1388036012649536,-0.6502532362937927,-0.40786513686180115,1.2183810472488403,0.5278034806251526,0.33374321460723877,0.6913521885871887,0.2200016975402832,-0.3645896911621094,0.6217449903488159,-0.4597505033016205,0.5022246241569519,-0.48368674516677856,1.4072226285934448,-0.534336507320404,-0.23631596565246582,-0.6233112215995789,-0.5908836722373962,0.3136066496372223,-0.00589613476768136,0.8792369365692139,-0.15868675708770752,-0.7201890349388123,-0.4945967495441437,-0.9191736578941345,0.43608972430229187,-1.041993260383606,-0.29332107305526733,0.6366247534751892,0.5363277196884155,-0.28243160247802734,-0.04950287193059921,0.12779082357883453,0.6002565622329712,1.4258215427398682,-0.6449618339538574,0.8222715854644775,-0.18866699934005737,-0.03805094584822655,1.4395074844360352,1.038478970527649,0.7695013880729675,0.25889065861701965,0.13189643621444702,0.15199123322963715,1.0149370431900024,-0.05720152705907822,-0.5616966485977173,0.6922433376312256,0.38378918170928955,0.0772537961602211,1.0904887914657593,-0.1132277324795723,-0.9947252869606018,0.5577476024627686,-0.3177933990955353,-0.25560951232910156,0.5323213338851929,0.28412336111068726,-0.3124970495700836,0.11258350312709808,0.21527057886123657,0.15391679108142853,-0.11257617175579071,-0.3733465075492859,-0.4119713604450226,-0.10239871591329575,-1.1127607822418213,0.299917995929718,0.037147004157304764,-0.7981843948364258,-0.06408534944057465,0.010739938355982304,-0.5458656549453735,0.1194460541009903,0.8603058457374573,-0.04932103306055069,0.6254560351371765,-0.7063151597976685,0.28478556871414185,0.043622106313705444,-0.9031581282615662,0.7131823897361755,-0.44214674830436707,0.33973562717437744,-0.3844285309314728,-0.15091584622859955,0.22065450251102448,-0.17681670188903809,-1.254504680633545,0.2655942440032959,-0.024875851348042488,-0.9254289269447327,-0.4139382839202881,-0.4624949097633362,-0.5311201214790344,0.13780540227890015,0.9225679039955139,-0.8854219317436218,0.26841142773628235,0.29758962988853455,-0.7123312950134277,-1.5786523818969727,-0.15833906829357147,1.2070043087005615,0.2132449746131897,0.9822987914085388,-0.5789062976837158,-0.5669344663619995,0.19742357730865479,-0.26544520258903503,0.37336838245391846,1.602639079093933,0.4157176911830902,-0.5594390034675598,0.620074450969696,-0.27110862731933594,0.7426604628562927,0.3818199932575226,-0.4760255217552185,-0.3057984411716461,0.5822983384132385,-0.4018837809562683,-0.4998043179512024,-0.05992761626839638,-0.5208525657653809,0.051515016704797745,0.3600541353225708,0.6165556311607361,-0.11324317008256912,-0.9203306436538696,-2.2521743774414062,-0.423938512802124,0.7447290420532227,-0.6836493015289307,0.3168976306915283,0.2727700173854828,-1.2597870826721191,1.2252432107925415,1.4668078422546387,-0.11427406221628189,0.35060590505599976,0.381212055683136,0.38348227739334106,-0.0023896496277302504,-1.0028358697891235,-0.36023882031440735,-0.06396358460187912,-0.7077499032020569,-0.09924142062664032,0.19374890625476837,0.0962802991271019,-0.5287720561027527,-0.2736668884754181,0.5520921945571899,0.4456307590007782,-0.33101725578308105,-0.8116413354873657,-0.9547037482261658,1.1927214860916138,0.08761997520923615,0.21321618556976318,0.9509636759757996,0.7954108119010925,-0.050509437918663025,-1.012142300605774,0.6128615140914917,-0.018975313752889633,-0.9091007709503174,-0.543930172920227,-0.12397881597280502,-1.1658788919448853,-1.0310826301574707,-0.08047978579998016,-0.05645954981446266,-0.2404082864522934,-1.413762092590332,0.7022842764854431,0.2800189256668091,-0.6572261452674866,0.716704785823822,0.6995055079460144,-0.059555698186159134,1.062230110168457,-0.23573091626167297,-0.32160449028015137
性价比,-0.23386290669441223,0.3329398036003113,-0.715099036693573,-0.6196556091308594,0.47230708599090576,0.6023274660110474,0.14082586765289307,-0.4070739150047302,0.39441564679145813,0.285023033618927,0.6495711207389832,-0.08377335965633392,0.18866978585720062,0.351723313331604,-0.20370307564735413,-0.7734842300415039,0.31147509813308716,-0.4746182858943939,0.2732336223125458,0.753129243850708,0.791317343711853,0.18922901153564453,-0.3392968475818634,-0.08061620593070984,-0.15420155227184296,0.41286367177963257,-0.7808037996292114,0.07979972660541534,-0.7451586127281189,0.8263455033302307,-0.21911287307739258,0.4264918267726898,-0.29532524943351746,0.4278058409690857,-0.11581869423389435,-0.8960415124893188,0.4513868987560272,0.5480809211730957,0.2856804132461548,-0.4122196435928345,0.7325968742370605,-0.04668326675891876,-0.00953201949596405,-0.5238924026489258,-0.4829322099685669,-0.010186770930886269,0.4136412739753723,-0.4447854459285736,0.28885552287101746,-0.28797009587287903,0.5459356307983398,0.36625930666923523,-0.19356273114681244,0.21947583556175232,-0.1107233464717865,0.7547758221626282,-0.19054871797561646,-0.03183351457118988,0.8881513476371765,-0.08046381920576096,0.5065381526947021,0.4252942204475403,0.6612678170204163,-0.31283286213874817,-0.2805665135383606,0.6556378602981567,0.4328393340110779,-0.5539215207099915,0.4110215902328491,1.0498336553573608,-0.2611537575721741,-0.184055358171463,0.6163607239723206,0.4067554175853729,0.0835307165980339,-0.10123897343873978,0.026059942319989204,-0.2750329077243805,0.17242787778377533,0.2928823232650757,0.49710753560066223,0.3007352352142334,0.4049389362335205,-1.0071593523025513,0.7109690308570862,0.17349031567573547,0.6779944896697998,-0.5250102877616882,-0.10697727650403976,-0.9028211236000061,-0.80016028881073,-0.024721289053559303,-0.8781514763832092,-0.4650675654411316,0.3261406421661377,-0.12611325085163116,0.5935839414596558,0.5525036454200745,-0.39664456248283386,0.7917133569717407,0.49475449323654175,-0.8273378610610962,0.6610809564590454,-0.32562264800071716,-0.21340429782867432,-0.4371934235095978,0.7334727048873901,0.3475513160228729,0.10886593163013458,0.27259472012519836,-0.3835744559764862,0.8374848961830139,0.8928785920143127,-0.28034356236457825,0.3650815188884735,-0.1911056935787201,0.016080256551504135,-0.23658093810081482,0.01289497222751379,-0.010642661713063717,-0.5731784105300903,-0.8055884838104248,-0.6142914891242981,-0.2222011536359787,-0.15047526359558105,-0.8718761205673218,-0.22768792510032654,0.3032466769218445,-0.0026523557025939226,-0.7639256119728088,-0.09093213081359863,0.07491010427474976,-0.22098670899868011,-0.1824306845664978,-0.6029025316238403,-0.348927766084671,-0.43501368165016174,0.48096993565559387,-0.0749010518193245,-0.42810317873954773,0.19544757902622223,0.6768750548362732,-0.5301607251167297,-0.24764783680438995,-0.7040497064590454,-0.285717248916626,-0.04369676485657692,0.2645348608493805,0.3708496391773224,0.2169485241174698,0.6762615442276001,-0.49214231967926025,0.005222435109317303,-0.2125134915113449,0.040146440267562866,0.48506981134414673,-0.04912297800183296,0.45916447043418884,0.3335115611553192,-0.2635135352611542,0.6763803958892822,0.40354326367378235,0.5597386956214905,0.13345499336719513,0.18778859078884125,-0.6759024262428284,-0.2480475753545761,0.28422248363494873,-0.48125895857810974,0.1634352207183838,-1.3420597314834595,-1.0593726634979248,-0.5284830331802368,-0.819555401802063,-0.5423813462257385,-0.433723509311676,-1.106387734413147,0.42887136340141296,-0.15939225256443024,-0.05847790464758873,-0.20036377012729645,0.17610304057598114,-0.2858694791793823,0.20454221963882446,0.07512504607439041,-0.2989417016506195,0.43974706530570984,-0.41452622413635254,0.3032175302505493,-0.41451945900917053,0.29007965326309204,1.2345657348632812,-0.032770875841379166,-0.09205837547779083,1.0737297534942627,-0.3252069354057312,0.22274184226989746,0.08218634873628616,0.24188245832920074,0.07270639389753342,-1.1019337177276611,-1.3770556449890137,-0.2839937210083008,0.10802704095840454,-0.2204546332359314,-0.2975466847419739,0.2242264449596405,-0.012457628734409809,-0.5382760763168335,-0.8882890939712524,0.6535330414772034,-0.29410606622695923,-0.545963704586029,0.7061958312988281,0.5465744137763977,-1.1890676021575928,-0.22008967399597168,0.27708733081817627,0.4139423370361328,-0.09589284658432007,-0.38193362951278687,-0.8443142771720886,0.5609791278839111,0.286849707365036,-0.33810579776763916,0.01850557141005993,-0.2815919518470764,-0.05256258323788643,-0.5861548781394958,0.2206127792596817,0.2706526815891266,0.45242512226104736,-0.46954721212387085,-0.5763816237449646,0.13497135043144226,-0.39262038469314575,-1.103292465209961,-0.1360619068145752,0.7148042321205139,0.29863014817237854,-0.8120282888412476,-0.18961027264595032,0.9229746460914612,0.3060186207294464,-0.038191381841897964,-0.10982363671064377,-0.5692304968833923,0.17271263897418976,0.6240109205245972,0.2620507776737213,0.46660953760147095,0.05531005188822746,0.037702519446611404,0.25194019079208374,0.5534029603004456,-0.6769835352897644,0.14401209354400635,-0.4858492910861969,-0.2475796639919281,-0.24300147593021393,0.5945590138435364,-0.7787986993789673,-0.48206815123558044,0.1565302163362503,-0.27950116991996765,0.6858747005462646,-0.3906252980232239,-0.5958540439605713,0.26335152983665466,-0.44368845224380493,0.6329721808433533,-0.3456611931324005,0.2915583848953247,-0.28637030720710754,-0.9447296261787415,0.40135544538497925,0.745697021484375,0.6403939127922058,0.3525727689266205,0.541756808757782,0.4540337920188904,-0.14196041226387024,1.0037516355514526,0.25075966119766235,1.1951749324798584,-0.38935819268226624,-0.04512028396129608,0.6438427567481995,0.8496196866035461,0.6801519393920898,-0.029946208000183105,-0.42812079191207886,0.2300647795200348,-0.29711997509002686,0.03697546198964119,0.4195704460144043,0.5881265997886658,-0.376259982585907,-0.47753971815109253,1.1350558996200562,1.2483758926391602,0.31227192282676697,0.8499941229820251,-0.11467107385396957,0.0890660434961319,-0.5688760876655579,-0.34854698181152344,-0.2636670172214508,-1.043444037437439,0.6273053884506226,0.22609572112560272,-0.12591010332107544,0.2194870561361313,-0.7861984372138977,-0.41062402725219727,-0.5804390907287598,1.081124186515808,0.034577012062072754,-0.13914495706558228,-0.07940410077571869,0.020620277151465416,0.19827421009540558,-0.3527510464191437,-0.27887362241744995,-0.30383577942848206,-0.5303568243980408,0.4156666398048401,0.9470192790031433,0.019908813759684563,0.5208419561386108,0.24905817210674286,-0.24512088298797607,0.20170648396015167,0.34144800901412964,0.08712378144264221,-0.6022561192512512,-0.5413420796394348,-0.8231465816497803,0.1684214025735855,0.21027040481567383,1.2341384887695312,-0.3395494222640991,0.5064756274223328,0.4261476695537567,-0.29928091168403625,0.6009336113929749,-0.23745468258857727,0.026929838582873344,-0.42370685935020447,0.5692847967147827,0.35033074021339417,0.2861645519733429,1.3762454986572266,-0.7674713730812073,0.39554038643836975,-0.6499219536781311,-0.75076824426651,-0.042300403118133545,-0.016518643125891685,-0.16889998316764832,0.4317834675312042,-0.06939893960952759,-0.1159113347530365,0.04002455994486809,0.2757185101509094,-0.029882553964853287,0.21764400601387024,-0.8997914791107178,-0.5059272050857544,1.0186142921447754,0.3416582942008972,0.10885349661111832,0.9079835414886475,-0.14895229041576385,1.2775849103927612,-0.5812414884567261,0.3548102378845215,-0.14554129540920258,0.5797728300094604,-0.14820384979248047,-0.34264570474624634,-0.0995248556137085,1.4040447473526,-0.037073805928230286,0.02456720918416977,0.09076344966888428,-0.07924112677574158,-0.2410392165184021,-0.17497171461582184,-0.4519824683666229,0.4284482002258301,0.6432846784591675,0.02731063775718212,0.5416322350502014,-0.3219766914844513,1.025098204612732,-0.32863420248031616,-0.45103102922439575,0.5568503737449646,-0.1711193323135376
经济体,1.4841763973236084,0.16427308320999146,-1.8539693355560303,1.8814046382904053,-1.0133416652679443,0.24740880727767944,0.687022864818573,-1.9248225688934326,-0.6578896045684814,-2.2505385875701904,0.4598647654056549,0.9278059005737305,-0.06294184923171997,-1.8072996139526367,0.08903291076421738,-0.1955803632736206,0.8993105888366699,0.5367729067802429,-1.1789305210113525,-1.4880757331848145,1.0830541849136353,0.22835122048854828,-1.5702476501464844,0.33675676584243774,0.02976246178150177,0.6722540855407715,-0.733045756816864,1.851785659790039,-3.4085655212402344,3.199826240539551,-0.4786290228366852,-1.725885272026062,1.7098947763442993,-0.19489529728889465,-0.06787536293268204,-0.19298520684242249,-0.600266695022583,0.1932351291179657,-0.7679627537727356,-0.8746401071548462,0.5006684064865112,0.9132217764854431,1.7145986557006836,0.12398827821016312,-0.21465851366519928,-1.3179820775985718,0.480634480714798,-0.21295641362667084,0.0420381985604763,-0.2764226198196411,1.3570255041122437,-0.9898216724395752,0.20714442431926727,0.9650841951370239,-1.4271588325500488,-1.408616304397583,-1.0471798181533813,-0.6691015362739563,1.7741864919662476,-0.7300109267234802,-1.3958405256271362,1.5345895290374756,1.1808791160583496,-0.18396899104118347,0.14283935725688934,0.8357689380645752,-0.09375111013650894,-1.088908314704895,-0.4833206832408905,0.6264106631278992,-0.7594552636146545,-0.35536301136016846,-1.2512080669403076,-0.1169809028506279,-0.49882781505584717,0.6035231351852417,1.3577896356582642,-0.5559448003768921,0.7770508527755737,0.3228236436843872,-0.8348307013511658,0.5853457450866699,0.1639554500579834,-1.8442926406860352,-0.3391040861606598,-0.9179004430770874,-0.7474666237831116,0.869996964931488,-0.20233634114265442,-1.7311549186706543,-0.6175541281700134,-0.6729491949081421,-0.10521691292524338,-0.03752356395125389,1.1127922534942627,-0.3237391412258148,0.08219518512487411,-0.5653427243232727,1.0933152437210083,-0.7736150026321411,-0.3644205629825592,1.6785560846328735,0.12918777763843536,-0.12901462614536285,1.057806372642517,-2.1036343574523926,0.48843497037887573,-0.3341376483440399,0.4975525736808777,0.9663861393928528,0.47576430439949036,0.48169103264808655,-0.1557239592075348,0.18271011114120483,-0.5535569787025452,-1.801051139831543,0.9638667106628418,-1.2205407619476318,-0.6080608367919922,-0.6237483024597168,-0.38200515508651733,-0.25218337774276733,0.8449628949165344,-0.363791286945343,-0.4842340350151062,-0.03461124747991562,0.3853299021720886,-0.8474522829055786,-1.2556544542312622,0.5052611827850342,0.8416358232498169,1.7612507343292236,-1.864172339439392,-0.22895224392414093,-0.6861336827278137,-1.2297773361206055,-1.7676873207092285,-0.5823555588722229,-0.02965713106095791,0.245213121175766,0.16986793279647827,0.694124162197113,0.7489694356918335,0.842551052570343,-0.23263004422187805,1.3341693878173828,-0.8198977708816528,-0.3207264542579651,0.3823646008968353,-0.36410149931907654,-0.6695640683174133,-0.8136848211288452,0.013582462444901466,-2.024521589279175,-0.3060362935066223,0.8986321091651917,1.4741344451904297,-0.8185719847679138,1.3934770822525024,-0.6699497699737549,0.24169489741325378,-0.499066561460495,0.5552505850791931,0.7317917943000793,0.23187202215194702,0.34473344683647156,0.036643557250499725,0.4541526436805725,-0.44542989134788513,-0.4324510097503662,0.12226137518882751,0.04765772074460983,-0.1647196114063263,0.47888320684432983,0.002520814770832658,0.9236442446708679,0.21349330246448517,0.25279808044433594,0.8731263279914856,0.688188374042511,0.5059565305709839,0.4489073157310486,1.0230493545532227,1.232254147529602,0.31228169798851013,-0.05335080996155739,0.6665749549865723,0.9105224013328552,-0.13252493739128113,0.10764589160680771,-0.13340549170970917,-0.1103086993098259,0.059283480048179626,-2.069483518600464,2.116075038909912,-0.2418777197599411,0.24868735671043396,-0.11368583887815475,1.4629592895507812,-0.10853074491024017,-0.26341158151626587,-0.7356922030448914,-0.5380914807319641,0.1626073122024536,0.6269851922988892,0.7067379355430603,-0.36855486035346985,1.5276817083358765,0.6931343674659729,-0.13162069022655487,0.5602618455886841,-1.1262850761413574,-1.0508097410202026,0.9411497712135315,-0.8405299186706543,0.012483247555792332,0.7629795074462891,-0.2725925147533417,0.07175949960947037,0.52482008934021,0.1420746147632599,0.31079256534576416,0.7493436336517334,-0.03683009743690491,-0.6773180365562439,-0.2965564727783203,-0.25811997056007385,0.9302677512168884,1.884307622909546,1.491094708442688,0.14439146220684052,-0.7690424919128418,-1.8440858125686646,-1.3777613639831543,1.0560497045516968,-0.49169278144836426,0.10974249988794327,-0.2920357286930084,-0.04303118959069252,0.8251503705978394,-1.7066888809204102,0.4547623097896576,0.6068344116210938,0.6366024613380432,-0.6239272952079773,-2.0604922771453857,-1.893319010734558,0.23430785536766052,0.9412810802459717,1.7485977411270142,1.6484315395355225,0.40276727080345154,0.3835785388946533,1.200923204421997,1.5608105659484863,-0.3841494917869568,0.671749472618103,-1.2761327028274536,-1.0811949968338013,1.790197491645813,0.3535752296447754,-0.7967941164970398,-1.1948509216308594,0.027747508138418198,0.6801902651786804,-0.45826318860054016,0.4126816689968109,-1.437996745109558,0.28953203558921814,-0.8536472916603088,-0.8954206705093384,1.5851802825927734,-0.7837399244308472,-0.5492026209831238,0.8479641675949097,-0.8390557169914246,0.8409662246704102,1.242100477218628,0.08129926770925522,0.2778867483139038,-1.056593418121338,-0.1008395180106163,2.1787261962890625,0.5758615732192993,-0.4643365144729614,-0.7784802317619324,0.591029167175293,0.5610746145248413,0.592064619064331,-0.1903550773859024,-1.4338079690933228,1.493592381477356,-0.9955239295959473,0.12770681083202362,-0.4359009861946106,-1.723800778388977,0.3132854402065277,-0.21778802573680878,0.5417094230651855,-0.9368515014648438,0.8036595582962036,0.9202719926834106,1.0792343616485596,0.13705593347549438,-0.3177770972251892,-0.17739740014076233,-1.2843071222305298,-0.23733754456043243,-2.127120018005371,1.123436689376831,-0.5565981268882751,0.23805949091911316,0.15322135388851166,0.19767965376377106,-0.6444646716117859,0.1818600594997406,1.2973272800445557,-0.15372388064861298,-1.1584742069244385,0.8670151233673096,0.6664886474609375,-0.49589768052101135,-1.4164514541625977,-1.9920295476913452,-1.3238404989242554,1.0613932609558105,1.474626898765564,0.7218317985534668,-2.6893882751464844,0.16838134825229645,0.9510097503662109,-1.1440098285675049,0.8833182454109192,-0.043461017310619354,0.9919271469116211,-0.48800209164619446,-0.08637376129627228,-1.5719728469848633,1.730184555053711,0.1725173443555832,1.2178196907043457,1.9683325290679932,-2.0479238033294678,-0.311197429895401,1.457238793373108,0.6148008704185486,-1.0587825775146484,-0.2796897888183594,-2.567814350128174,-0.7226855158805847,1.206020474433899,-0.6345659494400024,1.4696370363235474,-0.40705636143684387,0.7310413718223572,-0.4432765543460846,-0.4511846601963043,1.641834020614624,0.21800832450389862,-1.234169363975525,-1.0619248151779175,0.447878360748291,0.3519333600997925,-0.18862175941467285,-0.21746601164340973,0.33209288120269775,-0.15835751593112946,1.1308735609054565,-1.058850646018982,-0.45845484733581543,0.34011110663414,0.46919533610343933,-0.2707650065422058,-1.4282439947128296,1.0654923915863037,-0.6126353740692139,0.7067114114761353,0.5494920015335083,-1.2213923931121826,0.14285215735435486,-2.5181283950805664,0.1863381415605545,-0.34474626183509827,0.5721337199211121,0.8138391971588135,-1.2759753465652466,0.23569194972515106,0.2750263214111328,0.960096001625061,-0.6572297215461731,-0.8498561382293701,-0.14892835915088654,0.5324323177337646,-0.6859927177429199,0.4508496820926666,0.8006122708320618,-0.7688144445419312,0.33964166045188904,-1.0418927669525146,-0.43455544114112854
盈利,0.1726362407207489,0.2170850932598114,0.6390717029571533,-0.8956253528594971,-0.20298339426517487,-0.7449159622192383,-0.379621297121048,-1.8232439756393433,0.522114634513855,0.6164581179618835,0.4599619507789612,0.777082085609436,0.599915623664856,0.5827699899673462,0.12790456414222717,-0.22362340986728668,0.7114834785461426,-1.3586406707763672,1.7941391468048096,0.7632562518119812,-0.5937366485595703,0.23953184485435486,-0.6269330978393555,0.36528733372688293,0.9524332284927368,-0.05155309662222862,0.2665523886680603,0.4078695774078369,-1.4468715190887451,0.4515030086040497,0.660845160484314,-1.0333304405212402,0.41971197724342346,-0.0113357650116086,-1.1900615692138672,-0.9890989065170288,-1.0055948495864868,0.05870681256055832,-0.42743057012557983,0.5503013730049133,0.3450934588909149,0.8661301732063293,0.2675897777080536,-1.4487429857254028,-0.75389164686203,0.636461079120636,0.8449311852455139,-0.8930965065956116,0.6513063907623291,-1.047182321548462,-0.04825796186923981,0.1902928501367569,0.1266487091779709,0.16477669775485992,-0.3977499008178711,-0.4448985159397125,0.4214646518230438,-0.04668739438056946,0.9093716144561768,0.4175407886505127,-1.5935983657836914,1.2307149171829224,0.1500312238931656,-0.4445410668849945,-1.3116328716278076,0.7262533903121948,0.131113201379776,-0.490492045879364,0.4334399998188019,0.3585939109325409,-1.578698992729187,0.15799129009246826,-0.02064286731183529,0.3746778964996338,-0.5733736157417297,-1.9204058647155762,0.8827423453330994,-0.6360239386558533,0.0671602189540863,0.8760718107223511,-0.7446641325950623,0.14327068626880646,0.2295912802219391,-0.42066851258277893,0.7202885746955872,-0.8472538590431213,1.5256558656692505,-0.14065571129322052,-0.04416792094707489,-0.8197131752967834,-1.2860214710235596,-0.59172123670578,-0.2245863825082779,-0.09381024539470673,0.43763208389282227,0.299210786819458,0.9285390377044678,-0.3824465870857239,-0.19157953560352325,0.48810333013534546,0.46846845746040344,-0.3728308081626892,-0.003581262193620205,1.0866860151290894,-0.7459287047386169,-0.5433151125907898,0.6627901792526245,-0.2398800551891327,1.585189938545227,-0.1722593903541565,0.05270237848162651,0.9254566431045532,0.5202482342720032,0.18246503174304962,0.8706843256950378,0.6630248427391052,0.6099416613578796,-0.14725105464458466,-0.7363173961639404,0.21440349519252777,-1.200131893157959,-0.707410454750061,0.08405423164367676,-0.39912083745002747,-0.050323765724897385,0.27878057956695557,-0.9447377324104309,-0.3824004828929901,0.723966658115387,-0.7980616092681885,0.0834331065416336,-1.3462145328521729,-0.24612611532211304,-0.40855926275253296,-0.8506969213485718,0.2759460210800171,0.4927256405353546,0.0918944701552391,-0.5761371850967407,0.09739341586828232,0.37235522270202637,1.0579489469528198,-0.8224343061447144,0.8858059048652649,-0.46801847219467163,-1.1538406610488892,-1.0251926183700562,0.4981427490711212,-0.14132589101791382,0.4917617440223694,0.3246656060218811,0.13479602336883545,-1.22262704372406,-1.2357100248336792,-0.02330397628247738,0.5245891809463501,0.3008686900138855,0.8761206269264221,-0.01162510272115469,0.7427615523338318,0.982761025428772,-0.0771823301911354,-0.24736471474170685,0.07505570352077484,-0.43228593468666077,-0.9528918266296387,-0.06371238082647324,-0.1439541131258011,0.5415077805519104,0.6145740747451782,-0.3122730851173401,0.18028011918067932,-0.6890504360198975,0.4058784544467926,0.030761275440454483,-0.2321527600288391,0.5052825808525085,-0.4025202691555023,0.7609943747520447,-0.4361736476421356,-0.4563250243663788,-0.23584996163845062,0.3433816432952881,-0.2938041687011719,0.2918238341808319,-0.0044258954003453255,-0.030294453725218773,-1.0870282649993896,0.8663413524627686,-0.4735674560070038,0.7445785999298096,-0.8061690926551819,0.13049869239330292,-0.22984324395656586,0.15872560441493988,-0.4703676402568817,-0.10694509744644165,-0.13515211641788483,0.21440544724464417,0.9057914614677429,-0.892612636089325,-0.5636535286903381,-1.2388805150985718,0.2779446542263031,0.39921310544013977,0.7391284704208374,0.46356192231178284,0.9628235697746277,0.5624538064002991,-0.08626303821802139,0.3815300762653351,-0.4060257077217102,0.2946576774120331,0.4993622899055481,-1.7608675956726074,-0.07426472753286362,0.6615365743637085,-0.4197663366794586,0.6938324570655823,0.849838137626648,0.006252956110984087,-0.31261152029037476,1.217133641242981,0.09374044835567474,-0.29359081387519836,0.8605343103408813,-0.30560964345932007,-0.12937183678150177,-0.28808557987213135,-0.19577841460704803,-0.7958144545555115,1.1609185934066772,-0.06876876950263977,0.5032266974449158,0.734320878982544,-0.9700055718421936,-0.4063972532749176,-0.09475389868021011,0.4238373637199402,0.8306182026863098,-1.4564577341079712,-0.23215198516845703,0.4113001823425293,0.7295740842819214,0.2064070999622345,-0.09420802444219589,-0.9060277938842773,0.268358051776886,0.13471998274326324,0.6334202885627747,-0.3156299591064453,0.20703622698783875,-1.4434528350830078,-0.369939386844635,1.1710671186447144,-0.5685296654701233,0.20503924787044525,0.14976802468299866,0.19221079349517822,0.37331637740135193,0.49460259079933167,-1.5549521446228027,0.04614913836121559,0.6060917377471924,-0.14748282730579376,0.6564765572547913,0.4136982858181,-1.3217308521270752,0.04364335164427757,-0.5094666481018066,-0.7071353793144226,0.23294998705387115,-0.5002524852752686,0.5986374616622925,1.2096364498138428,-0.8275719285011292,-0.6737434267997742,0.5794711112976074,1.018973469734192,-0.9927554726600647,-0.04121362045407295,0.32573801279067993,0.5966839790344238,-0.024507790803909302,0.3971209228038788,0.07877075672149658,0.8136484026908875,1.0326255559921265,1.4821181297302246,0.2884187400341034,0.18739891052246094,-0.9762052297592163,0.8881600499153137,-0.21202099323272705,-0.7160824537277222,-0.7924087047576904,-0.09281885623931885,-0.0638301745057106,1.6609673500061035,0.6295849680900574,-0.1077507957816124,-0.23224122822284698,-0.7210187911987305,0.6603266596794128,-0.33812326192855835,0.0017148074693977833,0.8893125653266907,-1.5174765586853027,-0.28966909646987915,-0.21993836760520935,-0.2991887927055359,-0.1706792712211609,-0.4040769338607788,-1.0413823127746582,-0.3434014618396759,-0.7059245109558105,0.2083008736371994,-0.34880033135414124,-0.31965872645378113,0.3668127655982971,1.5899523496627808,1.6600569486618042,-0.8220786452293396,-0.6867146492004395,-0.8176440596580505,-0.1859879344701767,0.0669035091996193,0.588969349861145,-1.2681418657302856,1.327623724937439,0.7853108048439026,-0.4409169554710388,0.2551753520965576,-0.8006047010421753,-1.3164386749267578,1.0305893421173096,-1.0519134998321533,-0.7696650624275208,-0.49636441469192505,0.24401241540908813,0.780063807964325,-0.43132445216178894,-1.4313774108886719,-0.018539896234869957,0.47452855110168457,1.2411690950393677,-0.4840477406978607,0.37728914618492126,-0.8284866809844971,0.0783802717924118,-0.4020864963531494,0.3589279353618622,2.265007972717285,0.7415180802345276,0.7335374355316162,-0.9600334167480469,-0.7743017673492432,1.6422069072723389,0.9019043445587158,-0.11630740761756897,-0.2372131198644638,0.6375486850738525,-0.0229693204164505,0.2556881904602051,0.6856671571731567,-0.0467199832201004,1.3067638874053955,-0.5409725904464722,0.43612048029899597,-0.3751976788043976,0.33579209446907043,0.6512128114700317,1.7383750677108765,-0.41424793004989624,0.6420882344245911,-0.7598238587379456,1.0331276655197144,0.6099162697792053,0.4805869162082672,1.2663530111312866,-0.332900732755661,0.6072800755500793,0.7309620380401611,-0.012599915266036987,1.1191046237945557,-0.56392502784729,-0.7300407886505127,1.0618650913238525,0.07423344254493713,-0.6561098098754883,0.17055216431617737,-1.120073914527893,0.09020280092954636,0.09740732610225677,0.10433147102594376,-0.46035900712013245,-0.7992546558380127,0.5966278910636902,-0.39795735478401184,1.4546549320220947
故事,-1.0682499408721924,-0.33367231488227844,-0.3117976486682892,1.1008727550506592,-0.41168519854545593,-1.571067214012146,0.5772187113761902,0.7936686277389526,0.6251943707466125,-0.4198451340198517,-0.2895449995994568,0.15478040277957916,-0.052703119814395905,0.24800950288772583,0.2694477438926697,-0.39234423637390137,-1.2626948356628418,0.6545987725257874,0.6503800749778748,-0.7338913083076477,-1.2417536973953247,-0.9711211323738098,-0.0830022320151329,-0.5833224058151245,0.04380851611495018,1.1841025352478027,0.370929092168808,0.21781302988529205,-0.5318681597709656,0.897059977054596,0.06551576405763626,0.18531708419322968,0.715401828289032,-0.5890734791755676,0.180447518825531,0.6872991323471069,-1.0472867488861084,0.9090082049369812,0.7270307540893555,0.3271571695804596,0.3845326602458954,0.3301163911819458,1.543975591659546,-0.4070833921432495,-0.585969865322113,-0.5046737790107727,0.6437738537788391,-0.3816613554954529,0.4030478894710541,0.6898773908615112,0.715167760848999,-0.14517582952976227,0.18055413663387299,0.8952158093452454,1.1264199018478394,0.31845623254776,-0.06370809674263,0.526348888874054,0.08009401708841324,-0.12879963219165802,-0.49026623368263245,-0.20240338146686554,0.2538881301879883,0.7744413614273071,-0.007598150055855513,-0.5835365653038025,1.0353724956512451,-0.8972429037094116,0.1722584217786789,-0.012099312618374825,-0.48423755168914795,-0.18910092115402222,0.3314111530780792,0.8933637738227844,1.4041168689727783,0.172341451048851,0.10488294064998627,-0.34957852959632874,-0.31127575039863586,-0.41150322556495667,-0.6753578186035156,-0.22954061627388,-0.5790706276893616,0.06276200711727142,-0.5250807404518127,-0.12471790611743927,0.44043388962745667,-0.5233023166656494,-0.10509286820888519,0.40452027320861816,-1.2364885807037354,-0.09200770407915115,-0.13602979481220245,-0.23222297430038452,0.43925008177757263,1.2229682207107544,0.2842363119125366,0.5367191433906555,0.5532606244087219,-0.044456370174884796,-0.29978513717651367,1.0091118812561035,-0.25173673033714294,-0.8720272779464722,-1.2509136199951172,0.8404591679573059,-0.34796473383903503,0.1512845754623413,0.19067040085792542,-0.1997474581003189,0.3402586877346039,0.36054426431655884,-0.4100806415081024,-0.4008658528327942,0.1872541606426239,-0.7894452214241028,-0.6269207000732422,-0.6974999904632568,0.1832970827817917,-0.27118510007858276,-1.1308916807174683,1.2325594425201416,-0.2242615818977356,-0.6272409558296204,0.44282206892967224,-0.5179569125175476,0.1577710062265396,-0.4804343283176422,-0.07802842557430267,-0.11640673875808716,0.14196427166461945,0.04014649987220764,-0.5224433541297913,0.5230043530464172,0.18546929955482483,0.010392727330327034,0.2151562124490738,-0.03549974411725998,-0.19153448939323425,-0.4855104386806488,0.23398776352405548,-0.22448287904262543,-0.8252285122871399,-0.42420536279678345,0.21956376731395721,0.38999298214912415,-0.7086151838302612,-0.4831599295139313,-0.834815263748169,-1.2382032871246338,0.7559424042701721,-0.04846740886569023,0.38243889808654785,0.959038496017456,-0.22640779614448547,0.5028002262115479,0.22128593921661377,-0.595012366771698,1.078766942024231,-0.3279212415218353,0.11646591126918793,-0.3967432379722595,0.7017191648483276,0.614246666431427,0.8301410675048828,0.5468480587005615,0.7928199172019958,-0.44158700108528137,-0.45570144057273865,-1.5225142240524292,-0.7290149331092834,-0.6743198037147522,-0.2687932848930359,-0.24887625873088837,1.2700155973434448,0.645521879196167,0.30479520559310913,-0.4793962240219116,0.30268627405166626,-0.31949540972709656,-0.06692302972078323,-0.3745335638523102,-1.064612865447998,-0.3224678933620453,-0.17544710636138916,0.6597449779510498,0.7619779109954834,0.5490847826004028,0.2508687973022461,0.016661206260323524,0.5113447308540344,0.3106977343559265,0.2827848792076111,0.6222876310348511,-0.2355840653181076,-0.07658696919679642,-0.16500787436962128,-0.8596821427345276,0.19912755489349365,-0.07444507628679276,1.4200598001480103,-0.7049712538719177,0.9198464155197144,0.13571210205554962,-0.08012788742780685,-0.359531968832016,0.6596916317939758,-0.00013515635509975255,0.29994064569473267,-0.1438072770833969,0.2903069257736206,0.17132122814655304,0.43936002254486084,0.2008519023656845,-0.8727341294288635,0.02648998610675335,-0.12681452929973602,0.9157321453094482,-0.3069983124732971,0.6103664040565491,-1.8400713205337524,-0.1153193861246109,-0.5610626935958862,0.12670773267745972,0.19223588705062866,0.1478758156299591,0.39052098989486694,0.29940423369407654,-0.281357079744339,-0.6736065745353699,-0.03680466115474701,0.7518438696861267,-0.29167550802230835,-1.4777700901031494,-0.3588053286075592,-0.005525666289031506,-0.16203932464122772,-0.8318542838096619,-0.10949192196130753,0.4652443826198578,-0.2236364632844925,-0.8297412395477295,-0.5264026522636414,0.4775436222553253,-0.15401652455329895,0.5179468393325806,0.33810287714004517,-0.12214726209640503,0.23551499843597412,0.13763925433158875,1.0520808696746826,0.1072007492184639,0.07927257567644119,0.37770482897758484,0.4479396343231201,0.2723538875579834,-0.41223353147506714,-0.39674192667007446,0.284676194190979,-0.21969661116600037,0.41705605387687683,-0.5112810134887695,-0.3829600512981415,0.11619407683610916,0.9178388118743896,0.6094970107078552,0.5293651819229126,-0.3048644959926605,0.3245285749435425,0.8045727014541626,-0.32099372148513794,-0.5882568359375,0.2002941519021988,0.14514940977096558,1.4669603109359741,0.5199888944625854,-0.029999839141964912,-1.3910542726516724,-0.43927398324012756,-0.08895326405763626,0.477969765663147,-0.2920752465724945,-0.535240888595581,0.5478174686431885,1.0873444080352783,-1.3096345663070679,0.3884821832180023,0.5506869554519653,-0.7229025959968567,0.3674899637699127,1.8333526849746704,-1.0550414323806763,-0.21096816658973694,0.3641539514064789,-0.8295599222183228,0.35281476378440857,-0.7762705087661743,-1.1019318103790283,0.5138723850250244,-0.16767920553684235,0.18201546370983124,0.8188877105712891,0.15233305096626282,-0.32905060052871704,-0.8314256072044373,-1.2162671089172363,-1.0997322797775269,0.5908864736557007,-0.06425052136182785,0.24508993327617645,-0.015396619215607643,1.0172239542007446,-0.1371554732322693,0.6374014019966125,0.6912832856178284,-0.8501611351966858,-0.4018539488315582,-0.8633164167404175,0.3988434076309204,-0.600296676158905,0.6893850564956665,-0.778454065322876,-1.4034873247146606,-0.7279477715492249,0.2516818344593048,0.6088168621063232,0.4283301532268524,0.3594387471675873,-1.0496790409088135,1.608718752861023,1.1221799850463867,0.33593320846557617,1.5269745588302612,0.4666832983493805,0.1471024453639984,-0.10696461796760559,-1.571800708770752,-0.3406565487384796,-0.9703566431999207,-0.3492316007614136,0.5252025723457336,-0.2652776837348938,-0.3578585386276245,0.34603267908096313,-0.04014100879430771,-0.7977837920188904,0.8012987375259399,1.4036463499069214,-1.210283875465393,1.2013972997665405,0.22706113755702972,-1.2209887504577637,0.5102075934410095,1.3511457443237305,-0.7818870544433594,-0.19268763065338135,-1.0182651281356812,0.4785260558128357,0.11261236667633057,0.4410098195075989,0.5862935185432434,0.2679808437824249,0.5732661485671997,0.5247431993484497,0.3118516504764557,-0.8667539954185486,-0.8105552196502686,-0.010045642964541912,0.11089111864566803,-0.6934863924980164,0.2954588234424591,-0.10290750116109848,-0.12039563059806824,-0.04299759864807129,-0.41021743416786194,-0.1257856786251068,0.21766731142997742,0.594439685344696,0.3092881143093109,0.4549802243709564,-0.4062834680080414,0.30551257729530334,-1.5292655229568481,-1.3330268859863281,0.04019339382648468,-0.9167982339859009,-0.6754148602485657,0.11554259806871414,-0.019453952088952065,-0.530238687992096,-1.1971672773361206,0.11666754633188248,-0.23347748816013336,-0.7727436423301697,0.8026785254478455,-0.542476236820221,-0.037228140980005264,0.6489004492759705,0.3320845067501068,-0.05798075348138809
世界,-0.4115608036518097,-0.11102458834648132,-0.4606247544288635,0.12647606432437897,-0.5061382055282593,-0.6619746088981628,0.1282896101474762,0.6739535331726074,0.09793640673160553,-0.6820940971374512,0.17162048816680908,0.32410743832588196,0.5974740982055664,-0.25647976994514465,0.2422036975622177,-0.13128133118152618,-1.2101157903671265,1.4930261373519897,0.005227200221270323,0.1590261608362198,0.2453109323978424,0.7176810503005981,-0.25892266631126404,-0.4357288181781769,-0.23102308809757233,0.8275971412658691,0.062217243015766144,0.7214065194129944,-1.0405933856964111,0.8110775351524353,-0.5003798604011536,-0.9145027995109558,0.5405115485191345,0.06899648904800415,0.8932417035102844,-1.0669842958450317,0.014553866349160671,0.36942145228385925,0.9399946928024292,0.06213730573654175,-0.1868256777524948,0.40721359848976135,0.9301809668540955,-0.504971444606781,-0.06651129573583603,0.788538932800293,0.9885144233703613,0.6179592609405518,0.385163277387619,1.3019874095916748,0.51304692029953,-1.8713980913162231,0.06112677976489067,1.8596830368041992,0.7929556965827942,-0.5268999338150024,0.39329296350479126,0.5620084404945374,0.23748654127120972,0.10836804658174515,-1.2887499332427979,0.6605935096740723,0.08117537200450897,0.6397067904472351,-0.30664098262786865,-0.6739963889122009,-0.5109764337539673,-0.4191560447216034,0.17396511137485504,0.4342101216316223,-0.622532308101654,-0.2992503046989441,-0.0001289685897063464,0.0747319832444191,-0.08879275619983673,-0.40576642751693726,0.269654780626297,-0.6212660670280457,0.5760751366615295,-0.3394123911857605,-0.009319291450083256,-1.0393534898757935,0.27920249104499817,-1.142372727394104,-0.563617467880249,-0.7328746318817139,0.5264342427253723,0.1998390257358551,0.006900345906615257,-0.6450197100639343,-0.4403330087661743,-0.8365603685379028,-0.6172499656677246,0.20114563405513763,1.4609220027923584,-0.6437954306602478,0.40505778789520264,-0.5149234533309937,0.5454742312431335,0.19018082320690155,-0.8688992261886597,-0.3067898452281952,0.5722953081130981,-0.6798765659332275,-1.1467201709747314,-0.08251000195741653,0.39546525478363037,-0.5463340878486633,0.7914345264434814,0.9574064016342163,-0.3360549807548523,0.1312483549118042,-0.3767814338207245,-0.5861170291900635,0.37199667096138,0.050658419728279114,1.3499802350997925,-0.8744816780090332,-1.3253933191299438,-0.3626329302787781,-0.11857874691486359,1.0293145179748535,0.1441594511270523,-0.2963413894176483,0.24532291293144226,-1.3724428415298462,-0.8756651282310486,-1.3853511810302734,0.14032112061977386,1.1312050819396973,-0.055204614996910095,0.342265248298645,-0.35336199402809143,0.7692925333976746,-0.8641555309295654,-0.7774715423583984,-0.05022803321480751,-0.03168784826993942,-0.02540823630988598,0.07785910367965698,0.1614188700914383,0.1578121930360794,-0.8995818495750427,0.47147971391677856,-0.8252864480018616,-0.9468979835510254,-0.03865305706858635,-0.6984553337097168,-0.02053091488778591,-0.3262195587158203,0.01825851760804653,-0.5994701385498047,-0.03987846150994301,0.9635212421417236,1.218242883682251,-0.21392285823822021,0.21721138060092926,-0.05635124817490578,-0.19716180860996246,-0.6269070506095886,0.9421566724777222,-0.18406257033348083,1.6156705617904663,-0.5454559326171875,-0.09797503054141998,-0.3586033880710602,0.1824425458908081,-1.4078598022460938,-0.6874167323112488,0.012918139807879925,1.3129483461380005,-0.24650640785694122,-0.2719527781009674,-0.03350481018424034,0.46915295720100403,0.8504180908203125,0.8916613459587097,-0.3674061596393585,0.10953686386346817,-0.803144633769989,-0.2892271876335144,-0.700352668762207,-0.24829091131687164,0.4737468361854553,0.42283281683921814,-0.09235972166061401,1.4939513206481934,-0.2827084958553314,-0.40887147188186646,0.7196024060249329,0.07420236617326736,-0.4965166449546814,0.597478985786438,-0.2886906862258911,0.07391448318958282,-0.19898584485054016,-0.6099857091903687,0.4089950621128082,-0.4693360924720764,1.169968605041504,1.2109087705612183,-0.5640716552734375,1.7814744710922241,-0.4729020595550537,-0.11866635829210281,-0.20386086404323578,0.938694953918457,0.7345801591873169,-0.6686440110206604,0.21916548907756805,1.146521806716919,-1.07118558883667,-0.4296826720237732,-0.04480208829045296,-0.2555519640445709,-0.5082958936691284,-0.23581552505493164,0.2308414727449417,0.4329190254211426,-0.37231016159057617,-1.0161255598068237,0.36804521083831787,-1.505979299545288,0.9915556907653809,0.36960679292678833,-0.04442170634865761,-0.632233202457428,0.6042431592941284,0.6684371829032898,0.1310974657535553,-0.932511031627655,0.3850977122783661,0.28346261382102966,0.4267728626728058,0.6780169010162354,-0.6227896213531494,-0.5025515556335449,-1.0429235696792603,1.4545246362686157,0.7178468704223633,-1.3299764394760132,-0.01178046502172947,0.72654128074646,-0.10599806159734726,-0.33609962463378906,0.741122305393219,-0.07478298246860504,-0.3968930244445801,0.8414484858512878,0.17017264664173126,0.785380482673645,-0.16536301374435425,0.15446610748767853,0.7669656872749329,0.7169017791748047,0.527583122253418,0.09551815688610077,0.07536284625530243,0.0013915789313614368,-0.4976104199886322,-0.02743818238377571,-0.20216238498687744,0.6466677188873291,-0.35616767406463623,-0.24026089906692505,0.3299291431903839,-0.774909496307373,-1.2359898090362549,-0.5613781213760376,-0.33369579911231995,-0.3354909121990204,0.3589737117290497,0.5243163108825684,0.5004252195358276,-0.870801568031311,0.71168452501297,-0.38106009364128113,-0.6192627549171448,0.5375885367393494,0.03766941651701927,0.4000365734100342,-0.5928747653961182,0.718104898929596,0.7069619297981262,0.34070536494255066,-1.0076544284820557,-0.16400505602359772,-0.12033224105834961,-0.5905911922454834,0.014582359232008457,-0.7023861408233643,-0.5384184122085571,-0.357636958360672,-0.8608465790748596,0.12826384603977203,-0.5281243920326233,-0.6012612581253052,0.19231486320495605,1.2557417154312134,-1.0109522342681885,-1.3239703178405762,1.153547763824463,0.16658778488636017,-0.4282478392124176,0.4551648497581482,0.5081778764724731,-0.20480965077877045,0.46747666597366333,-0.04328903555870056,-0.5066261291503906,-1.208676815032959,0.24795874953269958,0.26301833987236023,0.5772709846496582,-1.0960534811019897,0.29022935032844543,-0.1903679221868515,-0.13803471624851227,0.2314934879541397,0.72894287109375,-0.03461422398686409,-0.31572696566581726,-0.4904383718967438,-0.2978501617908478,0.2567902207374573,1.3122754096984863,0.4704643487930298,-0.033670876175165176,-0.9938426613807678,0.3595080077648163,-0.041202694177627563,0.27087777853012085,-0.21432706713676453,-0.21819142997264862,-1.1552361249923706,0.5202297568321228,-0.04782983288168907,-1.0156850814819336,-0.6254935264587402,0.9508146047592163,1.5262142419815063,0.03317951411008835,-0.19212117791175842,0.3770817518234253,-0.2892475724220276,-0.15017390251159668,-0.5768461227416992,1.2359193563461304,-1.4229092597961426,1.0166170597076416,0.010431831702589989,-1.5157748460769653,1.9897428750991821,1.0178680419921875,0.11562377959489822,-0.909070611000061,0.491662859916687,0.5478014349937439,0.9312719702720642,0.6598473191261292,0.45298752188682556,-0.19991979002952576,-0.02873346209526062,-0.4429490566253662,-0.1564786583185196,0.1371356099843979,-0.6071591377258301,-0.6104772686958313,0.5847602486610413,0.5742341876029968,0.6027767062187195,-0.3958941698074341,0.5968753695487976,-0.7097501158714294,1.4827500581741333,0.4052157402038574,0.3711804151535034,0.19537723064422607,-0.33925479650497437,0.8263654708862305,-0.26773491501808167,0.42339661717414856,-0.10976821184158325,0.9001040458679199,0.6249843835830688,-0.8215609192848206,-0.004249573219567537,-0.3794080913066864,-0.07451768219470978,0.1460958868265152,-0.2888824939727783,-0.03825121745467186,-0.13788355886936188,-2.3023765087127686,0.3063511550426483,0.568430483341217,0.31325846910476685,1.44417142868042,-0.014083826914429665,1.1175780296325684
成员国,0.5711283087730408,-0.5390707850456238,-1.3281066417694092,-0.6663267612457275,-0.2792615592479706,0.15489810705184937,1.1156582832336426,-0.9555408954620361,-0.04823930561542511,-1.181665301322937,1.2928701639175415,1.3225924968719482,-0.3040972054004669,-1.5331677198410034,0.6416593194007874,-1.266945481300354,-1.0428276062011719,-0.21777606010437012,0.5378778576850891,-0.7023264765739441,1.251901388168335,-0.10786425322294235,-0.6811695098876953,-1.509616732597351,0.24648436903953552,0.31290268898010254,-2.0450334548950195,2.026003360748291,-2.1118860244750977,-0.9707366824150085,0.34691765904426575,-1.7079302072525024,0.8731014728546143,0.2074546366930008,-0.03628432750701904,-0.553128182888031,-0.14346943795681,1.1376506090164185,-0.1664646565914154,0.25233083963394165,0.1754765659570694,1.6246246099472046,2.878173351287842,1.6555784940719604,-0.4538017809391022,-0.6045190691947937,0.42127755284309387,-0.07355612516403198,1.0944784879684448,-0.28195181488990784,0.5583152174949646,-2.663957118988037,0.06987134367227554,0.5563978552818298,0.7661006450653076,-1.0295463800430298,-0.7093204855918884,-0.605408251285553,0.4996401369571686,-0.736789345741272,-0.7514750361442566,1.4865877628326416,0.1951676905155182,-1.2164945602416992,-1.6947518587112427,-0.34969350695610046,0.5414975881576538,0.17407551407814026,0.25383463501930237,0.17114460468292236,-1.335423231124878,0.16724245250225067,0.03056192770600319,-0.2561650574207306,0.5191981792449951,0.9829558730125427,1.314258337020874,-0.9588255882263184,0.6052455306053162,1.3798664808273315,-0.3803327977657318,-0.08046352863311768,0.8128117322921753,0.287088543176651,-0.709556519985199,0.21265843510627747,0.2444218546152115,-0.037475429475307465,-0.22324150800704956,-2.6577398777008057,-0.2795656621456146,-1.0405582189559937,-0.42882269620895386,-1.684712290763855,-1.6656171083450317,-0.4438270628452301,-0.3558655381202698,0.8976061344146729,0.050665952265262604,0.11929298937320709,-1.1986279487609863,-0.8257608413696289,-0.00021221600763965398,-1.0406076908111572,1.4463011026382446,-0.23602347075939178,0.8321148753166199,-0.8880375623703003,0.2966817617416382,-0.2901476323604584,-0.6066949963569641,0.09530225396156311,0.09714049845933914,0.18167845904827118,-0.9828392267227173,-0.6406924724578857,-1.317766547203064,-0.7080317139625549,-0.252200722694397,2.407996654510498,0.11705949157476425,-0.5302199721336365,-0.3845162093639374,0.5100821852684021,-0.5357489585876465,-0.4036634862422943,0.2062162309885025,0.5413334965705872,-1.0294594764709473,-1.0217533111572266,-0.2614173889160156,1.5729321241378784,-2.277775526046753,0.5149627327919006,-0.396007239818573,-0.453351765871048,-0.5730077624320984,0.0957191064953804,0.14026053249835968,0.8812404870986938,0.09085321426391602,1.850685477256775,0.8271828889846802,0.23484185338020325,0.8651459217071533,0.11149857938289642,-0.8201278448104858,-0.18622958660125732,0.5305734276771545,-0.4625299572944641,0.16323843598365784,-0.9500797986984253,0.7928900122642517,0.20811454951763153,-0.02738698571920395,0.8089897036552429,0.6417438387870789,-0.7540653944015503,-0.47551941871643066,-0.6783867478370667,-1.193843126296997,-2.5115065574645996,0.2790044844150543,1.3167245388031006,-1.787131667137146,0.8025425672531128,1.372005820274353,0.1520683914422989,-0.17991819977760315,1.4687286615371704,0.3969166874885559,-0.3553227186203003,0.5392635464668274,-0.8660387992858887,1.0527604818344116,-0.023287300020456314,-0.01458484586328268,-0.38325586915016174,0.496692419052124,0.13336516916751862,0.24112316966056824,-0.9912017583847046,-0.36542731523513794,-1.897229552268982,-0.8033571243286133,1.072554588317871,1.697404384613037,-0.3216090500354767,-0.021604711189866066,0.1312086582183838,0.6368458867073059,-0.677666962146759,0.6638996005058289,-1.1385878324508667,0.25234779715538025,-0.03222394362092018,-0.6734345555305481,-1.5550916194915771,2.199622392654419,-1.0267046689987183,-1.5692163705825806,0.3171902000904083,0.255948007106781,-0.7587530612945557,0.60013747215271,0.5253916382789612,-1.5915883779525757,0.9867602586746216,0.4485396146774292,-0.025738472118973732,-0.07294048368930817,-0.47932204604148865,-0.8563736081123352,-0.18880516290664673,0.5648356676101685,0.48817527294158936,1.6697019338607788,0.22907906770706177,-1.3538036346435547,-0.07875239104032516,0.47254878282546997,0.8651838898658752,0.854130208492279,0.6887769103050232,-0.00406393688172102,-0.06386114656925201,-0.27088698744773865,0.37514039874076843,0.3500070571899414,-1.4540601968765259,-0.48585793375968933,1.0698450803756714,-1.213853359222412,0.0367739237844944,1.7569822072982788,0.12848502397537231,1.0230644941329956,0.10540308058261871,1.0678631067276,0.8553153872489929,-0.17357490956783295,-0.21662205457687378,-1.441232442855835,-0.5091136693954468,-0.2201700061559677,0.8742667436599731,0.864702582359314,-0.7968696355819702,-0.05740299075841904,0.34334880113601685,-0.4889330565929413,1.0481200218200684,1.1793783903121948,-0.29928043484687805,-0.30680981278419495,-0.02643023245036602,0.2514626383781433,0.07396421581506729,-0.3131912648677826,0.3622625172138214,-0.39903005957603455,0.10427778959274292,-1.666551113128662,-0.5988739132881165,-0.8441024422645569,-0.6765719056129456,1.2616584300994873,-1.026938557624817,1.0286113023757935,-0.21213380992412567,-1.705643653869629,1.2514433860778809,-0.49986109137535095,0.5436380505561829,-0.21288616955280304,0.4399334788322449,-0.746824324131012,0.2885608375072479,-1.0604557991027832,-1.095826268196106,-0.9189786911010742,1.0982245206832886,2.438283920288086,0.6540710926055908,0.5840451121330261,-0.37897050380706787,-0.4217540919780731,0.4522708058357239,0.7287948727607727,-1.4171531200408936,1.1119731664657593,-0.06288192421197891,-0.355437308549881,0.8010135293006897,-0.6223058104515076,-0.287685751914978,0.6778332591056824,-2.1424121856689453,0.6559550166130066,0.3134702146053314,0.8213669061660767,1.0753116607666016,-0.30058154463768005,-0.3326261043548584,-0.59633868932724,-0.11380589008331299,-0.7681761980056763,0.6603450775146484,-0.5284905433654785,-0.07522929459810257,-0.8948204517364502,0.9419015049934387,0.030435215681791306,-0.7497382760047913,-1.797053575515747,0.6248477101325989,0.10761884599924088,-0.6454489827156067,-1.0016456842422485,0.5013179779052734,0.12746471166610718,0.2869206666946411,-0.5418801307678223,-0.7821593284606934,1.3833448886871338,-0.5293500423431396,0.5404672026634216,0.9348976016044617,-1.6741050481796265,-0.6102859377861023,1.2181453704833984,-0.6795063018798828,-0.4681967496871948,-0.8403424024581909,-0.021286429837346077,-0.4441867172718048,-0.36851003766059875,-0.2979544997215271,1.050761342048645,-1.106005311012268,1.6200720071792603,0.37852391600608826,-0.4074721038341522,-1.1202608346939087,1.4276847839355469,-0.24893175065517426,-1.6896772384643555,-0.5786210298538208,-0.5027796626091003,-0.0919492170214653,1.8321970701217651,-1.1987521648406982,0.34339502453804016,-1.208810567855835,-0.6006542444229126,0.32783979177474976,-0.15256443619728088,-0.6135837435722351,0.25696396827697754,-0.1140456572175026,-1.164381504058838,0.7464485764503479,-0.9569350481033325,-0.7503026723861694,-0.677829921245575,-0.12771013379096985,-1.0421102046966553,-0.33686432242393494,1.6991604566574097,1.207634449005127,0.49145394563674927,1.0785812139511108,1.1774864196777344,-1.8761149644851685,1.4089679718017578,0.07123725116252899,-0.23193536698818207,0.31389036774635315,-0.5535496473312378,0.6950648427009583,-1.2815792560577393,-0.41444337368011475,-1.0307570695877075,0.6586839556694031,0.07087963074445724,-0.6210357546806335,-1.3468575477600098,0.9553190469741821,0.11450635641813278,-0.12914612889289856,1.1009403467178345,-0.0357791930437088,0.4932340085506439,-1.523024082183838,-0.836816668510437,0.504309356212616,-0.003883050987496972,0.9817906022071838,0.7421839833259583,-0.11374390125274658
烤串,-0.7334281802177429,-0.45002424716949463,0.1747189164161682,0.9685952663421631,0.10176961123943329,0.4547768235206604,-0.9093984365463257,0.9667158126831055,-0.10572908818721771,0.4361307621002197,0.05542375147342682,-0.4276135265827179,0.13806848227977753,0.46038323640823364,0.17779895663261414,-0.1845884770154953,-0.3441338837146759,-0.14039373397827148,-0.21835657954216003,-0.3834361732006073,0.10989914834499359,0.11197951436042786,0.5738150477409363,0.03962385281920433,-0.2631922960281372,0.5483870506286621,-0.0637311115860939,0.09425649791955948,0.2213898003101349,-0.03140541911125183,-0.1726500689983368,-0.6003760695457458,-0.06504006683826447,-0.027120020240545273,-0.12104710936546326,-0.1020791307091713,0.55342036485672,-0.5220701694488525,-0.25356221199035645,0.1684338003396988,-0.6182918548583984,-0.41227850317955017,0.029550833627581596,0.3510436415672302,0.27440589666366577,-0.367077499628067,-0.22910316288471222,0.883430540561676,-0.4166824221611023,0.4945460259914398,0.8657822012901306,0.42261990904808044,-0.3754867613315582,-0.16378124058246613,0.137750506401062,0.09763646870851517,-0.1930122822523117,0.02124791592359543,0.4078415334224701,-0.3583611845970154,0.6881201863288879,-0.19819042086601257,0.16929037868976593,-0.18417581915855408,0.38842591643333435,0.4853913486003876,-0.1706562340259552,-0.8496248126029968,-0.2025001496076584,0.00033043662551790476,-0.674950897693634,0.8571235537528992,0.014568265527486801,-0.08383986353874207,0.103122279047966,-0.3645400404930115,-0.6225042939186096,0.08476562052965164,-0.13304880261421204,-0.36008837819099426,0.020116854459047318,-0.18648949265480042,0.5364431142807007,-0.198880136013031,0.43688076734542847,-0.0744028091430664,-0.28839850425720215,-0.4787850081920624,-0.4072439968585968,0.27134865522384644,-0.3022702634334564,-0.47922295331954956,-0.4497793912887573,0.6027699112892151,0.17545638978481293,-0.23014940321445465,-0.3498404026031494,-0.39315688610076904,-0.3705279231071472,-0.10758926719427109,-0.12522251904010773,-0.23301351070404053,0.18351969122886658,0.787761390209198,-0.07584712654352188,-0.018664536997675896,-0.31277769804000854,0.12204103171825409,0.17099086940288544,-0.17044956982135773,-0.23432375490665436,0.7909670472145081,-0.09513320028781891,0.24772650003433228,0.010549941100180149,0.48016059398651123,-0.1423318088054657,0.4095917046070099,0.06749101728200912,-0.24518391489982605,-0.38042235374450684,0.24657180905342102,-0.9188203811645508,0.27237579226493835,-0.04481503367424011,-0.34670183062553406,0.3773932158946991,-0.509848952293396,0.9366365671157837,-0.7624238729476929,0.3850747346878052,-0.4997577667236328,-0.2506520450115204,0.23944257199764252,-0.7559922337532043,0.13189998269081116,-0.3006848990917206,-0.18035022914409637,-0.8419751524925232,-0.13095805048942566,0.42926841974258423,0.066580630838871,0.2643141448497772,0.16146285831928253,-0.3022415041923523,0.42552950978279114,0.33666589856147766,0.05153792351484299,-0.4011194407939911,0.1406438648700714,0.22120043635368347,-0.29112932085990906,0.24387983977794647,0.8076907396316528,0.1323440670967102,0.2335941642522812,0.3785548806190491,-0.4612151086330414,0.767068088054657,-0.49815064668655396,0.17719243466854095,-0.6592111587524414,-0.9687522053718567,-0.7994687557220459,0.4241034984588623,-0.5759385228157043,0.13871006667613983,0.5487152338027954,-0.16583138704299927,0.5193161964416504,0.03444024547934532,-0.4370816946029663,-0.07589110732078552,-0.46214762330055237,-0.6126074194908142,-0.05844304338097572,-0.3549794554710388,0.03856337442994118,-0.31611642241477966,-0.5730218887329102,0.49031853675842285,0.3101617395877838,-0.24152223765850067,0.36521610617637634,-0.6427631378173828,0.4346114993095398,0.04665853828191757,-0.2936912178993225,-0.052847474813461304,-0.2712780833244324,0.26952677965164185,0.6859565377235413,-0.1522846519947052,0.030200408771634102,-0.047720566391944885,0.4281918406486511,0.6261597871780396,-0.11284918338060379,-0.13205263018608093,0.2732596695423126,0.46389836072921753,-0.08845184743404388,-0.5488271713256836,-0.2188253253698349,-0.18643994629383087,0.3284967243671417,0.15330426394939423,0.45285820960998535,0.32622501254081726,-0.0664973333477974,0.20527081191539764,0.6416075229644775,-0.0032175364904105663,-0.1927478164434433,0.3636481761932373,-0.15909360349178314,-0.08540990948677063,-0.4149712920188904,-0.39007535576820374,0.3190157115459442,-0.07669341564178467,-0.09578341990709305,0.43035393953323364,-0.8595790266990662,-0.333362877368927,-0.27338001132011414,0.22285526990890503,-0.8306164741516113,-0.03414701670408249,0.02581515908241272,-0.047213364392519,-0.02584036812186241,0.321016788482666,-0.024952810257673264,-0.459648996591568,0.07235634326934814,0.4536520540714264,-0.4050292670726776,0.10492683947086334,0.4191862642765045,-0.22711661458015442,0.3329840302467346,0.568000316619873,0.16228479146957397,0.5364575982093811,0.5091819167137146,-0.12179754674434662,-0.19400371611118317,0.08494767546653748,-0.3924349844455719,-0.3859194815158844,-0.4747631549835205,0.23261719942092896,0.8388214111328125,1.3133385181427002,-0.7413758039474487,1.0375367403030396,-0.10472129285335541,-0.01686781272292137,-0.6568310260772705,0.607204794883728,-0.034336358308792114,0.1367838829755783,-0.30400386452674866,-0.6815890669822693,0.28015169501304626,0.10084157437086105,0.10824746638536453,0.2530902326107025,0.5909835696220398,-0.30573853850364685,0.06765273958444595,-0.2882973253726959,0.1317780762910843,0.7695435285568237,-0.0024595463182777166,0.5406299829483032,0.014705889858305454,-0.3650936782360077,-0.07812359929084778,-0.3616327941417694,-0.04667402058839798,-0.14874674379825592,-0.4081943929195404,0.1642986387014389,-0.6856584548950195,-0.8091874718666077,-0.23856130242347717,0.31010928750038147,0.1529317945241928,-0.49265193939208984,0.04113622009754181,-0.0966828241944313,0.0025404407642781734,-0.22517931461334229,0.6902003288269043,0.11189324408769608,0.09912843257188797,0.040595900267362595,0.5867359042167664,0.11650121957063675,0.09731350839138031,0.2644698917865753,-0.0179717056453228,-0.04042878374457359,0.2955053150653839,-0.3128381371498108,0.18299679458141327,-0.499107301235199,-0.10388030856847763,0.21851235628128052,-0.21819643676280975,0.62031489610672,-0.663079023361206,0.14970789849758148,-0.5191428661346436,0.7033751010894775,0.03566056862473488,-0.38644644618034363,0.22047647833824158,0.4462757110595703,0.18967537581920624,-0.18104562163352966,0.06897896528244019,-0.1887776106595993,0.5720478296279907,-0.03967192769050598,-0.20861515402793884,0.18707895278930664,-0.3597848117351532,0.10408519953489304,-0.20771589875221252,-0.06338486075401306,0.33249038457870483,0.09887170791625977,0.053791165351867676,-0.13642171025276184,0.051924336701631546,0.16728699207305908,0.2020513117313385,0.22887733578681946,-0.15844374895095825,0.3126937448978424,0.9075274467468262,0.5124896764755249,-0.28489479422569275,0.2669224739074707,-0.7992205023765564,-0.061259157955646515,0.3277226984500885,0.1381799727678299,-0.15991607308387756,-0.69651198387146,-0.20602194964885712,-0.4752582013607025,-0.6228566765785217,-0.6181200742721558,-0.19112081825733185,0.5047634840011597,0.04909788817167282,0.690987765789032,-0.06362849473953247,0.585407018661499,-0.059266865253448486,0.0686248317360878,0.059646930545568466,0.4139762222766876,-0.23283253610134125,-0.09232203662395477,-0.07182902842760086,-0.5801519155502319,-0.04529299587011337,0.06506950408220291,0.6130797266960144,-0.062441032379865646,0.5912420749664307,0.07236186414957047,-0.23681581020355225,-0.32625409960746765,0.18667572736740112,-0.30679434537887573,-0.4667688012123108,0.7080978155136108,-0.1531049907207489,-0.5188329815864563,-0.9073688387870789,-0.5903717875480652,-0.21738813817501068,-0.5154141783714294,0.1325998306274414,-0.28403377532958984,0.12244728952646255,0.3743167519569397,-0.3450137674808502,-0.45698219537734985,0.5006187558174133,0.043619271367788315,-0.6482880115509033,-0.1596415638923645,-0.4974593222141266
进口商品,0.44004371762275696,0.11021218448877335,-0.6602710485458374,-0.3904934823513031,0.15020383894443512,-0.048027023673057556,-0.42745745182037354,-0.008365627378225327,0.017648769542574883,-0.09629256278276443,-0.5534025430679321,0.35814082622528076,0.8936352133750916,0.29143133759498596,-0.0934356227517128,-0.9231652021408081,0.06608133018016815,0.6405148506164551,-0.328532338142395,-0.7771353125572205,0.3244812488555908,-0.26856696605682373,0.2516512870788574,0.6687989830970764,0.6188270449638367,0.3298746645450592,-0.3216675817966461,0.8227751851081848,-1.1783777475357056,0.2258903980255127,-0.1747322827577591,-0.5384994745254517,-0.05544813722372055,-0.12144866585731506,-0.5834794640541077,-0.038596123456954956,1.2953674793243408,0.4150561988353729,-0.5361550450325012,-0.5522249937057495,0.06266368180513382,0.07172631472349167,0.5105624794960022,-0.20512627065181732,-0.8384327292442322,0.3663348853588104,0.29394111037254333,-0.3485097885131836,0.008319356478750706,-1.0407226085662842,-0.34799033403396606,0.033625971525907516,-1.1311335563659668,-0.20104822516441345,-0.25701776146888733,-0.7805154323577881,-0.4793373644351959,0.23198074102401733,0.07159939408302307,-0.059477534145116806,-0.1115586906671524,0.4417699873447418,0.5573055744171143,-0.4775918424129486,-0.862714946269989,-0.018174482509493828,-0.07129738479852676,0.15100900828838348,-0.8077138066291809,0.07368370145559311,-0.8120033144950867,-0.11834584176540375,-1.1797244548797607,0.04492555931210518,-0.8373838663101196,-0.7537644505500793,0.3928709328174591,-0.2444574385881424,0.36598819494247437,-0.24130380153656006,-0.07485365122556686,0.44879984855651855,0.58481365442276,0.5063949823379517,0.11265287548303604,0.058731790632009506,0.3274396061897278,-0.020602399483323097,-0.5193734169006348,-0.3865188956260681,-0.20009084045886993,-0.23614290356636047,-0.030000174418091774,-0.04224913939833641,0.8833678960800171,0.018522577360272408,0.8641854524612427,-0.1565229892730713,-0.7867209911346436,0.1791330873966217,0.5001727342605591,-0.3535059988498688,0.3998059034347534,0.5757061243057251,0.1465115249156952,-0.6226170063018799,0.11045625805854797,-0.08213125914335251,0.18197382986545563,-0.02419188804924488,0.5754110813140869,0.7807133197784424,0.23290124535560608,-0.7205097675323486,0.2128888964653015,0.021808091551065445,-0.1606697142124176,0.5085136294364929,0.05378437414765358,0.32525208592414856,-0.2001456916332245,-0.25370293855667114,0.16834698617458344,-0.24819421768188477,-0.0817633718252182,-0.19242814183235168,1.1092729568481445,-0.13257023692131042,0.5891414284706116,-1.2520511150360107,-0.6305201053619385,0.11069750040769577,-0.4588511288166046,-0.7719839811325073,-0.1956755369901657,-0.6108493208885193,-0.9309864640235901,-0.5156583189964294,-1.2904142141342163,-0.2060384601354599,0.35904014110565186,0.8448639512062073,-0.7556726336479187,-0.021778879687190056,0.33277222514152527,-0.12580467760562897,0.8452603220939636,0.4780030846595764,-0.4905736744403839,0.26326072216033936,0.00512142525985837,-0.49417799711227417,0.16781018674373627,-0.21828781068325043,-1.1515872478485107,0.45455092191696167,0.48654311895370483,0.048551928251981735,0.3770424425601959,0.8578478097915649,-0.2795986533164978,-0.29525575041770935,-0.23561744391918182,0.749056875705719,0.6292192935943604,-0.11769081652164459,0.14569008350372314,-0.02721908502280712,-0.926408052444458,0.11544650048017502,0.13490423560142517,0.28366759419441223,-0.5534719228744507,0.00044054919271729887,-0.037002671509981155,-0.20265120267868042,-0.27984821796417236,0.6707946062088013,-0.5575574636459351,0.07388697564601898,0.05749276280403137,0.08666147291660309,-0.12721294164657593,0.13406221568584442,0.3035776615142822,0.8218388557434082,0.32189202308654785,-0.5947247743606567,-0.25357648730278015,-0.1023324653506279,0.3234803080558777,0.6610361337661743,0.10863552242517471,-1.0947295427322388,0.6494436264038086,0.04584776237607002,0.33256569504737854,0.3854348361492157,0.1650071144104004,0.4729240834712982,-0.23528613150119781,-0.6398999691009521,-0.2416277378797531,0.21818676590919495,0.27931639552116394,-0.4483228325843811,-0.05152561143040657,1.3481173515319824,0.24403183162212372,-0.6363633871078491,0.41113126277923584,-0.4098929166793823,0.10939440876245499,-0.10626398772001266,-1.0230159759521484,0.23578810691833496,0.1282082051038742,-0.9063110947608948,0.7089747786521912,0.3478139340877533,-0.0672551617026329,0.6243084669113159,0.3697364032268524,-0.44984692335128784,-0.5322018265724182,-0.2861696481704712,0.08619749546051025,-0.31628575921058655,-0.15887828171253204,-0.1355481594800949,-0.5596811771392822,0.34241700172424316,0.39276212453842163,-0.7131798267364502,0.5514170527458191,0.00017988949548453093,-0.5855332016944885,-0.22924530506134033,-0.08734957873821259,0.7926543354988098,0.32652658224105835,-0.30761823058128357,-0.2497105747461319,0.27810564637184143,0.26195234060287476,-0.4297730028629303,-0.9803179502487183,-0.6406379342079163,1.0883339643478394,0.07992083579301834,0.1570136696100235,-0.07989481091499329,0.4443282186985016,0.847409188747406,0.376499205827713,-0.8279219269752502,-0.16743825376033783,0.8067049980163574,-0.28088659048080444,0.36247631907463074,0.29437705874443054,-0.4002736210823059,-0.1921064853668213,0.34576207399368286,0.15755553543567657,-0.2701627016067505,0.26902276277542114,-0.27745428681373596,0.8576011061668396,-0.13118477165699005,-0.6760873198509216,0.5327770709991455,-0.8487482666969299,-0.25621724128723145,0.6416289806365967,-0.2250637710094452,-0.2621045410633087,0.42560821771621704,0.055803559720516205,-0.4782027304172516,-0.24254298210144043,-1.0239530801773071,-0.7194679975509644,-0.8123202919960022,-0.2558327615261078,-0.209421306848526,1.274720549583435,0.8535972237586975,0.07283185422420502,0.3547286093235016,-0.7825209498405457,1.0120398998260498,-0.7102993130683899,-0.6082806587219238,-0.45267510414123535,-0.27380087971687317,0.9512414336204529,-0.6374640464782715,0.07702481001615524,0.9324440956115723,0.6114532351493835,0.0382743775844574,0.06733383238315582,0.38404059410095215,0.854876697063446,-0.5135879516601562,-0.6311565637588501,-0.24316422641277313,-0.6922581791877747,-0.21882905066013336,-0.16632729768753052,0.09243019670248032,-0.1515524834394455,-0.04861468821763992,-0.06092875823378563,-0.33269235491752625,0.2877812683582306,-0.5522212982177734,0.19977474212646484,0.1316394954919815,0.549623429775238,0.3438883423805237,0.2989833950996399,0.05865274369716644,-0.44991669058799744,-0.22664962708950043,0.38046157360076904,0.3000425696372986,-0.2729948163032532,0.4463041126728058,0.6224997639656067,-0.45623984932899475,0.32752224802970886,-0.5261516571044922,0.6396586298942566,-0.5826109647750854,0.4352712333202362,-0.4246520698070526,0.5550763607025146,-0.38929232954978943,0.591867208480835,0.6413748860359192,-0.04347473755478859,1.1590774059295654,0.23128977417945862,-0.31275448203086853,-0.608311653137207,-0.030084164813160896,0.15851092338562012,0.6999596357345581,-0.4328400492668152,0.49631819128990173,1.3738949298858643,-0.34966516494750977,-0.19366954267024994,-0.8545136451721191,0.06410227715969086,0.20972119271755219,0.6702373027801514,0.12122394889593124,0.19708605110645294,0.33848753571510315,-0.42734166979789734,0.34277141094207764,-0.6514941453933716,0.014992219395935535,0.33322110772132874,-0.40434789657592773,-0.8310675621032715,-0.49227800965309143,0.46054044365882874,0.46199125051498413,0.6176397204399109,-0.2259778082370758,0.09107638895511627,0.17610369622707367,-0.06807196140289307,0.5973260402679443,-0.1766124814748764,0.8195127248764038,-0.7789500951766968,-0.5711125731468201,0.5429736375808716,-0.6961771845817566,-0.491230309009552,-0.3130841553211212,-0.2595827877521515,0.11941083520650864,-0.057819265872240067,0.2825513780117035,1.0592987537384033,-1.4115266799926758,-0.04702604562044144,0.1852562129497528,0.27288785576820374,0.3401278853416443,-0.05688800290226936,0.33843088150024414,-0.585515558719635,0.7435483932495117
心愿,-0.836951494216919,0.1443159580230713,-0.45984116196632385,-0.0669984221458435,0.2238531857728958,-0.6205899119377136,-0.28298816084861755,0.2933570146560669,0.5498670935630798,0.6989117860794067,0.9935632944107056,0.39582863450050354,0.7370445132255554,-0.2921677827835083,0.8325023055076599,-0.6055616736412048,0.6899271011352539,0.01651117578148842,-0.34694600105285645,-0.032925885170698166,0.5352256894111633,-0.3602788746356964,-0.7315536737442017,-0.9660266637802124,-0.045188549906015396,0.9513781070709229,0.7652442455291748,-0.21165718138217926,-0.0067309304140508175,0.24115586280822754,-0.7350993156433105,-0.5996724367141724,0.23780053853988647,0.6500860452651978,0.13127456605434418,-0.3693986237049103,0.33748576045036316,-0.23233917355537415,0.6058663129806519,-0.48626571893692017,-0.09227702766656876,0.36455830931663513,-0.029090169817209244,-0.12162026017904282,-0.7667295336723328,-0.05787138268351555,-0.021952763199806213,1.4853657484054565,1.067322850227356,0.4243854880332947,-0.06684193760156631,0.7443938851356506,0.5190412998199463,1.0803251266479492,0.5906323790550232,0.02815680205821991,0.23683321475982666,0.11342629045248032,0.9249516129493713,0.06183282658457756,-0.8291813135147095,-0.4009960889816284,-0.5472027063369751,-0.07936754822731018,0.5794900059700012,-0.5291695594787598,0.745898425579071,0.8329772353172302,-0.6559169888496399,1.0099083185195923,-0.5731445550918579,-0.33203157782554626,-0.023157218471169472,-0.07295772433280945,-0.23077073693275452,-0.2669001817703247,1.0698405504226685,0.9400569796562195,-0.4517870545387268,-0.8101575970649719,-0.753956139087677,-0.5706592202186584,-0.19553185999393463,1.122217059135437,-1.3229568004608154,0.015274755656719208,0.0925479456782341,0.859325110912323,1.1967214345932007,0.4164764881134033,-1.0104581117630005,0.184412881731987,0.24658092856407166,0.29054129123687744,0.5675320029258728,0.0649963840842247,-0.36777356266975403,0.5159746408462524,0.4579887092113495,-0.1724468171596527,-1.0535532236099243,1.2281265258789062,-0.09053272008895874,-0.06729433685541153,0.5273822546005249,0.3929505944252014,-0.4560512900352478,-0.1724693775177002,-0.11464376002550125,0.05053505301475525,0.20098774135112762,0.04880213364958763,-0.17005513608455658,-1.1642111539840698,0.6369951367378235,-0.45251381397247314,0.678443431854248,0.359454482793808,-0.1111588403582573,-0.4960603713989258,0.16567212343215942,0.00837721861898899,0.3728786110877991,0.6751965880393982,0.0724240094423294,-0.12809064984321594,0.7367194890975952,-0.24995192885398865,0.7754064202308655,0.34619611501693726,-0.7843558192253113,0.9280109405517578,-0.8141177296638489,-0.2704133689403534,-0.8021957874298096,0.06125333905220032,0.8257808685302734,-0.6752137541770935,-0.1089162528514862,0.10086476057767868,-1.0622613430023193,0.3663904368877411,-0.2209550142288208,0.3790440559387207,-0.7497529983520508,-0.0925036370754242,-0.8375600576400757,0.0899285301566124,-0.4202025830745697,-0.23130421340465546,-0.6382899880409241,0.23214849829673767,0.5188519954681396,-0.8527880311012268,0.12170502543449402,0.02876443602144718,-0.19754129648208618,0.8530259132385254,-0.16624058783054352,-0.4977160394191742,0.4891444146633148,-0.06042099744081497,0.26903149485588074,-0.5737572312355042,0.32153216004371643,1.159023642539978,1.2829488515853882,-0.5975056290626526,-0.14666391909122467,-0.9417552947998047,0.312455415725708,-0.3218718469142914,-1.1245454549789429,0.9719471335411072,0.31343844532966614,-0.09975450485944748,-0.5447100400924683,-0.6234802007675171,0.284506618976593,0.08323211967945099,0.48388153314590454,-0.2891054153442383,-1.8819276094436646,-0.15625536441802979,0.3234420120716095,0.040194589644670486,-0.4138833284378052,-0.12115369737148285,-1.234318733215332,-0.4615198075771332,-0.5717245936393738,-1.0498225688934326,0.11405405402183533,0.7862388491630554,0.2975938022136688,-1.3234556913375854,-0.8247020840644836,-0.2588847577571869,-1.1914700269699097,0.17779722809791565,0.7187246084213257,-1.1177191734313965,0.3240119516849518,-0.5252093076705933,-1.1389981508255005,-0.5546868443489075,0.17439678311347961,0.32010090351104736,-0.9935113787651062,0.26727569103240967,-0.3516586124897003,0.6727597713470459,-0.15815947949886322,-0.4753580093383789,-0.5717999339103699,-0.5055657625198364,-0.7942631244659424,0.6613002419471741,-0.5495742559432983,-0.18342800438404083,-0.7234063148498535,0.8343383073806763,-0.8612099885940552,0.6456178426742554,-0.48842430114746094,0.6929161548614502,-0.457736998796463,1.397513508796692,-0.5201693177223206,-1.2794638872146606,-0.5083699822425842,1.028991460800171,0.4178889989852905,-1.1288725137710571,-0.4226306080818176,-1.1575441360473633,-0.28407689929008484,-1.188547968864441,0.613402783870697,1.0384440422058105,0.23918770253658295,1.5180058479309082,-0.42323049902915955,-0.4525465667247772,-0.6710777878761292,-0.3893981873989105,0.08478158712387085,0.6554346084594727,0.27646222710609436,0.7579981088638306,0.12556682527065277,0.14086773991584778,1.6031224727630615,0.34548044204711914,-0.1995946168899536,-0.8838452100753784,1.0222282409667969,0.2073841094970703,-0.44432371854782104,0.6407535076141357,0.041962917894124985,-0.6868510842323303,0.30807411670684814,-0.45248979330062866,-0.24318668246269226,1.0787044763565063,-0.457339346408844,-0.3535505533218384,0.705291211605072,-0.31033405661582947,0.2945661246776581,-0.3654025197029114,1.5916199684143066,-0.9560895562171936,0.3250803053379059,0.2565823495388031,0.8599709272384644,-0.5169693231582642,-0.06321130692958832,-0.820265531539917,0.8593773245811462,0.2547282874584198,-1.0661706924438477,0.8392655849456787,-0.3644808828830719,-0.16456252336502075,0.22050075232982635,-0.048443347215652466,1.1473368406295776,-0.8067668080329895,0.6721276044845581,-0.3935668468475342,0.44452619552612305,0.5545305609703064,0.16206669807434082,-0.3544023931026459,0.8880346417427063,-0.20233072340488434,0.3728000223636627,0.5835418701171875,-1.1026548147201538,0.7392765283584595,0.2703431248664856,0.04013777896761894,-0.18605393171310425,-1.305037498474121,1.0871975421905518,-0.344969242811203,-0.17470747232437134,-0.47831377387046814,-1.1288212537765503,-0.02459893189370632,-0.11223261803388596,-0.5329326391220093,0.2674887180328369,0.15245473384857178,0.10506325960159302,-1.4149061441421509,-0.7347572445869446,-0.14940951764583588,-0.747826337814331,-1.1541050672531128,-0.43040958046913147,0.04461110010743141,1.2195651531219482,0.031013982370495796,0.6272716522216797,0.37471529841423035,-0.7501056790351868,0.32466840744018555,0.46488869190216064,0.576131284236908,0.46282750368118286,-0.12251640856266022,-0.7108420133590698,0.3169574439525604,0.5769369006156921,-1.2157633304595947,0.8826406598091125,-0.9401459097862244,0.31790435314178467,-0.581998884677887,-0.29346978664398193,-1.1159946918487549,1.2549129724502563,0.490827351808548,-0.09243815392255783,0.686903178691864,-0.878438413143158,0.375862717628479,-0.03605719655752182,-0.23383279144763947,0.058775465935468674,1.8955762386322021,-0.2046719789505005,0.014523966237902641,-0.21321451663970947,-1.1881873607635498,0.225232794880867,-0.603361964225769,0.6328670382499695,-0.07973076403141022,0.2899971604347229,1.1579687595367432,0.8948401808738708,0.04304395988583565,-0.9157647490501404,-0.648161768913269,-0.2256508767604828,0.6552929878234863,0.15533043444156647,0.11530925333499908,0.6553294062614441,0.16726045310497284,-0.2326493263244629,0.5982125997543335,2.3049824237823486,-0.5179896950721741,0.03747345134615898,1.101815938949585,-0.7176870107650757,0.7359362840652466,0.135609433054924,-0.3585658073425293,0.3743356466293335,0.053671617060899734,-0.46446648240089417,-0.28121569752693176,-0.88922119140625,-0.7616976499557495,-0.1990717351436615,0.007532672490924597,-0.03867150843143463,0.4998760223388672,0.6069800853729248,-0.5356651544570923,-0.59295254945755,1.0865888595581055,0.8037683367729187,0.19230644404888153
