word,0,1,2,3,4,5,6,7,8,9,10,11,12,13,14,15,16,17,18,19,20,21,22,23,24,25,26,27,28,29,30,31,32,33,34,35,36,37,38,39,40,41,42,43,44,45,46,47,48,49,50,51,52,53,54,55,56,57,58,59,60,61,62,63,64,65,66,67,68,69,70,71,72,73,74,75,76,77,78,79,80,81,82,83,84,85,86,87,88,89,90,91,92,93,94,95,96,97,98,99,100,101,102,103,104,105,106,107,108,109,110,111,112,113,114,115,116,117,118,119,120,121,122,123,124,125,126,127,128,129,130,131,132,133,134,135,136,137,138,139,140,141,142,143,144,145,146,147,148,149,150,151,152,153,154,155,156,157,158,159,160,161,162,163,164,165,166,167,168,169,170,171,172,173,174,175,176,177,178,179,180,181,182,183,184,185,186,187,188,189,190,191,192,193,194,195,196,197,198,199,200,201,202,203,204,205,206,207,208,209,210,211,212,213,214,215,216,217,218,219,220,221,222,223,224,225,226,227,228,229,230,231,232,233,234,235,236,237,238,239,240,241,242,243,244,245,246,247,248,249,250,251,252,253,254,255,256,257,258,259,260,261,262,263,264,265,266,267,268,269,270,271,272,273,274,275,276,277,278,279,280,281,282,283,284,285,286,287,288,289,290,291,292,293,294,295,296,297,298,299,300,301,302,303,304,305,306,307,308,309,310,311,312,313,314,315,316,317,318,319,320,321,322,323,324,325,326,327,328,329,330,331,332,333,334,335,336,337,338,339,340,341,342,343,344,345,346,347,348,349,350,351,352,353,354,355,356,357,358,359,360,361,362,363,364,365,366,367,368,369,370,371,372,373,374,375,376,377,378,379,380,381,382,383,384,385,386,387,388,389,390,391,392,393,394,395,396,397,398,399
远远,-0.8542271852493286,0.4241882562637329,0.07188166677951813,0.25047567486763,-1.207850694656372,0.04360850900411606,-1.1692091226577759,-0.283238023519516,0.12160586565732956,-1.7991766929626465,0.11318742483854294,-0.5352669954299927,0.8002034425735474,0.27637749910354614,-0.02023840695619583,-0.8774651885032654,-0.3801543116569519,0.4781157374382019,-0.09824886173009872,-0.6133211851119995,0.8335204720497131,-0.6228895783424377,-0.46267086267471313,0.3458946943283081,-1.393163800239563,0.39583998918533325,-0.8379122614860535,0.5320131182670593,1.7385733127593994,0.5734233260154724,-0.18840906023979187,0.9708873629570007,1.133021593093872,0.17649734020233154,0.17572447657585144,-0.09018591791391373,-0.7502635717391968,-1.4717069864273071,0.24221180379390717,0.48875677585601807,0.9915908575057983,-0.014721822924911976,-0.8816856741905212,0.13463720679283142,-0.6382871866226196,-0.41874799132347107,0.7957985997200012,-0.3652516305446625,-2.016315460205078,-0.6060416102409363,-0.5902012586593628,-0.40420830249786377,-0.8980151414871216,1.5555717945098877,0.21693217754364014,-1.017675757408142,-0.06032303720712662,0.3596936762332916,1.5719144344329834,-1.7048892974853516,-1.5158298015594482,1.1199901103973389,1.535963773727417,0.042651575058698654,-0.17760641872882843,-0.5065419673919678,-0.0881226435303688,-0.5995286107063293,0.43725159764289856,1.4403517246246338,0.7488718628883362,-0.13758531212806702,0.23059462010860443,-1.0741076469421387,0.9816412329673767,-0.0011161388829350471,0.937218189239502,0.453164666891098,-1.8640178442001343,0.0801403746008873,0.15329325199127197,0.4693940579891205,-1.170351266860962,1.077201247215271,-0.4071812629699707,0.07981646060943604,0.853812575340271,1.5722746849060059,0.3199494183063507,1.3645771741867065,-1.7217519283294678,0.9326531887054443,-1.1735682487487793,-0.23885703086853027,-2.131357192993164,0.08734504878520966,-0.1214492991566658,0.7518132925033569,-1.151429295539856,1.4434280395507812,0.535790205001831,0.6899700164794922,-1.6015506982803345,0.682499349117279,0.776908814907074,0.12397389858961105,0.5339112877845764,-0.2987004816532135,1.114203929901123,-0.5516024827957153,0.4160275161266327,0.9241833686828613,0.7119278311729431,0.6919667720794678,-0.24061904847621918,0.30941158533096313,2.1068062782287598,-0.09186486899852753,-1.063628911972046,0.6670938730239868,-0.3871556520462036,0.1565161943435669,-0.8573278188705444,0.5635162591934204,-0.377732515335083,-0.8044024705886841,0.8033701777458191,-0.352740615606308,-0.49338003993034363,0.13802270591259003,-0.8137030601501465,-0.6396192312240601,0.8353026509284973,-0.9085381031036377,0.5619655251502991,0.7016074657440186,1.3110945224761963,-0.2015192210674286,1.1396726369857788,-1.0621728897094727,-3.4065675735473633,-0.8698911070823669,-0.272497296333313,-0.5369389653205872,-0.02929222583770752,-0.1634213626384735,-2.155064821243286,1.4420902729034424,-0.06794731318950653,-0.44495904445648193,-0.6793278455734253,-0.30681195855140686,-0.946915864944458,0.03639383614063263,-1.083907961845398,-1.35897696018219,0.03308487311005592,1.6830946207046509,1.8726000785827637,-0.026398876681923866,0.12030132114887238,-0.8532659411430359,0.4332582950592041,0.5732460021972656,-0.1386617124080658,-0.6263141632080078,0.2057848572731018,-1.4431898593902588,0.37623023986816406,0.29037731885910034,-0.2802145779132843,-0.6815497875213623,-0.14207856357097626,1.1377193927764893,0.6281388998031616,1.1406701803207397,-0.5510594844818115,0.16957978904247284,1.3272699117660522,0.2502594292163849,1.72807776927948,-0.3212123513221741,0.33298271894454956,-0.7420766353607178,-0.36059871315956116,0.1689077913761139,-0.14968153834342957,1.0632164478302002,0.9142725467681885,-0.8459763526916504,-0.6750931143760681,-0.9494879245758057,-0.531261146068573,1.4335079193115234,0.2154267281293869,-0.13623768091201782,1.5759258270263672,-0.31929391622543335,-0.8727591633796692,0.1883607804775238,-0.09200775623321533,0.051662180572748184,-0.19838985800743103,-0.21722672879695892,0.275739461183548,0.03454272449016571,0.7772315144538879,-0.755204975605011,-0.017340783029794693,-0.17463038861751556,0.12666134536266327,0.7108948826789856,0.3167945444583893,-0.07779823988676071,-1.311385989189148,-0.4940193295478821,-0.44623199105262756,-2.0639724731445312,-0.762266218662262,0.06072317063808441,0.3236192464828491,0.5238017439842224,0.0999845489859581,0.07992083579301834,0.9540336728096008,0.7686954140663147,0.4326903820037842,-0.7958778142929077,0.27877718210220337,-0.18783797323703766,-0.12279613316059113,1.653775691986084,0.3595082461833954,0.07988154888153076,-0.7283963561058044,-0.9253858923912048,1.4842320680618286,-0.2535414695739746,0.46552056074142456,0.025244640186429024,-0.09215112775564194,0.4834994077682495,-0.29459935426712036,0.12318256497383118,-0.05773279443383217,1.284996509552002,0.18985384702682495,0.48567360639572144,-0.7673549056053162,0.9372352957725525,-0.453361451625824,0.5047483444213867,-0.6901401281356812,-0.07787597179412842,-1.0473932027816772,0.12025810778141022,0.47604110836982727,1.1707093715667725,0.6206523776054382,0.19084741175174713,-0.8462949395179749,0.20868374407291412,0.2864622473716736,0.5019789934158325,0.22447410225868225,-0.14144854247570038,1.1800531148910522,-0.033566806465387344,-1.144479751586914,0.04182474687695503,-0.014594038017094135,-0.6165062189102173,-0.16801971197128296,-0.43771058320999146,0.06366005539894104,0.31405943632125854,-0.6511306762695312,-0.19257760047912598,-1.0596568584442139,0.9488424062728882,0.6371647715568542,0.5567945241928101,1.4864190816879272,-1.3329479694366455,0.058530308306217194,0.8861874938011169,0.12057989090681076,-0.07835204899311066,0.3474183678627014,1.2897342443466187,-1.290353775024414,-0.8630034327507019,-0.38043296337127686,-0.8078371286392212,-0.4142678678035736,0.2142331302165985,0.4470670819282532,0.6042933464050293,0.19431383907794952,1.14602530002594,-0.2857612073421478,-0.6834728121757507,0.45631662011146545,-0.7673627734184265,-0.2733674645423889,0.9845231175422668,0.6714861989021301,0.9531809687614441,0.6793421506881714,-0.10474556684494019,-0.36866575479507446,0.1547280251979828,-0.6066238880157471,-0.28429803252220154,-2.2591259479522705,-0.009435462765395641,-1.00822114944458,-1.5871453285217285,0.2250276654958725,-0.5965002775192261,1.7556464672088623,1.2249171733856201,0.6372472643852234,-0.6996392607688904,-0.07024076581001282,-0.20376841723918915,0.45033758878707886,0.10931946337223053,2.112151861190796,0.9625089764595032,-0.31351757049560547,0.93896484375,-0.13650691509246826,-1.2609058618545532,-1.5301786661148071,1.2601802349090576,-0.3329216241836548,0.9993161559104919,-1.1248489618301392,-0.6352133750915527,0.08140556514263153,0.4319952130317688,-0.5555147528648376,-0.2686808407306671,0.20349453389644623,1.1756393909454346,0.8058216571807861,0.059893637895584106,0.3054993152618408,0.3806591033935547,0.011890359222888947,0.9101935029029846,-1.0886026620864868,-0.6033877730369568,0.6234707236289978,-0.7620540857315063,0.05486296862363815,1.0119727849960327,-0.5461668372154236,1.1752017736434937,-0.8323357105255127,0.16906312108039856,0.6477206945419312,-0.25684672594070435,0.46167314052581787,-0.98515784740448,0.09117211401462555,-0.7078421115875244,-0.6133471727371216,0.0022595871705561876,-0.8189460635185242,-0.578571617603302,-0.13695625960826874,-0.06507918238639832,-0.21002502739429474,0.502780020236969,0.7939029335975647,-0.058990228921175,-0.6443759202957153,0.06942726671695709,0.5306925773620605,-0.043652672320604324,0.6654922366142273,-1.3553972244262695,1.1821889877319336,-0.5151044130325317,0.6774643659591675,0.33452141284942627,-0.6515101790428162,-1.17023766040802,-1.498223900794983,0.7229951024055481,-0.6219685077667236,-0.017877057194709778,0.26752543449401855,-0.9659627676010132,0.2145186960697174,0.2181660532951355,-0.08739081770181656,-1.4749054908752441
认识,0.29600027203559875,0.18344484269618988,-0.9830415844917297,-0.4985617697238922,-1.0462357997894287,-0.1501772105693817,1.7445805072784424,-0.25323599576950073,-1.9770506620407104,-0.2844250798225403,1.6672987937927246,-0.2891755700111389,-0.9065671563148499,-0.721667468547821,-0.4618169367313385,-1.0268394947052002,1.0883266925811768,0.9560878276824951,-0.11896900087594986,-2.0218095779418945,-0.07226425409317017,-2.1132893562316895,-0.4128909707069397,-1.1333409547805786,-0.045754849910736084,0.7821648120880127,-1.022395372390747,-1.5712380409240723,0.4827093482017517,0.485015869140625,1.3612256050109863,-0.7671704888343811,-0.9487032890319824,0.23967033624649048,1.7743855714797974,-0.2451101839542389,0.19060568511486053,0.014402960427105427,0.13770824670791626,1.8513201475143433,0.30030232667922974,-1.6661560535430908,-0.9066896438598633,-0.6301984786987305,-0.5900844931602478,1.6816692352294922,-1.3210493326187134,-3.366607427597046,-1.5509321689605713,-0.20657071471214294,-0.24835099279880524,1.2113182544708252,3.168989658355713,1.8139156103134155,1.8967756032943726,-1.982810378074646,0.9188451170921326,0.7808243036270142,3.283076524734497,0.6456117630004883,-0.7423726916313171,-1.0615448951721191,0.08596004545688629,-0.4145646393299103,-0.8189812898635864,-0.1645565927028656,-0.41441982984542847,-0.3319365382194519,0.9344583749771118,-0.20561322569847107,0.5741921663284302,-0.5904625654220581,-1.9999101161956787,-0.7713409662246704,-0.4689389765262604,1.6802468299865723,0.2546072006225586,-0.1726752072572708,0.0960560142993927,-0.7667791843414307,-1.868504285812378,-1.1176433563232422,0.37274953722953796,2.1329288482666016,-1.1928019523620605,2.09190034866333,0.8911281228065491,-0.33914434909820557,-1.0277223587036133,-2.463292121887207,0.565864622592926,1.0333261489868164,-0.9535509943962097,-0.43797212839126587,1.2074512243270874,0.48014941811561584,1.6594871282577515,1.875120997428894,-0.33857461810112,1.393714189529419,0.28369027376174927,1.0486335754394531,1.5366390943527222,-1.8167266845703125,1.6580476760864258,0.6190171241760254,0.671553373336792,2.796586513519287,-2.476118803024292,-0.30759215354919434,1.8126941919326782,-0.7983728647232056,-1.5483787059783936,-0.5491217970848083,0.6999549865722656,-0.30991366505622864,0.1677171140909195,-0.044480178505182266,1.049473762512207,0.43570753931999207,-0.6121813654899597,1.0490539073944092,1.4606271982192993,-0.8062155842781067,-2.04906964302063,-0.4979061186313629,0.4706389009952545,-0.5421479344367981,-0.22992543876171112,0.2538162171840668,-0.9112817645072937,-0.17480812966823578,-0.5443462133407593,0.862921953201294,2.879855155944824,-0.4934019148349762,0.018268300220370293,1.1410109996795654,0.1815527081489563,0.6633639931678772,-3.01767897605896,2.1115689277648926,2.2230870723724365,1.345981478691101,0.6223058104515076,-0.7388965487480164,1.105735182762146,-0.14575369656085968,0.6837079524993896,0.06176850199699402,-1.2431684732437134,0.4192046523094177,-0.5959208011627197,0.8921332955360413,-1.530887484550476,-0.7123676538467407,1.9247900247573853,0.22863171994686127,-0.0396583117544651,-0.49678894877433777,0.550670862197876,-1.3898124694824219,-0.20334935188293457,0.47070083022117615,1.0576316118240356,0.16360485553741455,0.8898316621780396,-0.7834244966506958,-0.4460480213165283,0.09050583839416504,-0.45105674862861633,1.226320743560791,-0.08535335958003998,-0.34985628724098206,1.0656883716583252,-0.682986319065094,1.2285728454589844,-0.9555566906929016,-1.547699213027954,-0.03041011467576027,-0.5357522368431091,1.8106483221054077,0.34998977184295654,0.7345874309539795,0.6262341737747192,-1.9066864252090454,0.10925239324569702,-1.6981487274169922,0.750725269317627,-0.906205952167511,0.3659053444862366,-1.3491101264953613,0.37565189599990845,-1.738604187965393,1.1262800693511963,2.6494288444519043,-1.2061810493469238,0.26196107268333435,0.24447709321975708,-0.12433672696352005,-0.33970385789871216,-0.6027128100395203,1.5404430627822876,1.8842625617980957,0.17782600224018097,1.3913823366165161,-0.13283807039260864,-0.17861519753932953,-0.7142832279205322,0.6236124038696289,0.34025606513023376,1.9527466297149658,-2.138399362564087,-0.606366753578186,-0.6325780749320984,-0.45166996121406555,0.8986386060714722,-1.100582242012024,0.6353275775909424,-1.3119244575500488,-0.5313582420349121,1.3218255043029785,-0.3426220118999481,0.062867172062397,-0.610116720199585,-0.7173358798027039,0.5330179333686829,-0.7810792922973633,-0.9981132745742798,-1.2682822942733765,-0.19662275910377502,-0.5020492076873779,1.1535711288452148,0.4540555477142334,-0.3666849136352539,0.15447629988193512,-0.8566015362739563,-2.101839780807495,-0.1838434338569641,-0.043817125260829926,0.8191649913787842,1.4233417510986328,0.24523277580738068,-1.2404849529266357,-0.012264100834727287,1.0338635444641113,-0.8883862495422363,1.0326536893844604,1.2400710582733154,1.0875262022018433,-0.9229196310043335,1.825648546218872,1.6244114637374878,1.4913902282714844,-0.14676690101623535,0.9111897349357605,-0.16512006521224976,-0.39988020062446594,0.12964805960655212,0.9374510049819946,0.006675967946648598,-0.5873652696609497,-1.1935991048812866,0.25520655512809753,-0.7992590069770813,0.5648446679115295,-1.2527132034301758,-0.7317464351654053,-2.289689064025879,-0.4654175043106079,-0.16199418902397156,-0.31956946849823,1.3413922786712646,-0.3186468183994293,0.22940146923065186,0.6027944684028625,-0.12477350980043411,-0.3681771159172058,-1.0135319232940674,-0.2582848370075226,-0.1889469474554062,1.659934639930725,-0.47728976607322693,0.3970915973186493,0.11583517491817474,0.8574550747871399,2.4966607093811035,-1.2842590808868408,-0.47128725051879883,0.923798143863678,-0.18633270263671875,0.698235034942627,-0.4639310836791992,0.00345901888795197,-0.3318312168121338,-0.008661528117954731,0.7253378629684448,0.06541528552770615,-2.5271434783935547,-0.16597212851047516,-0.5950615406036377,1.036904215812683,-1.3310145139694214,-0.5577107071876526,-1.7758703231811523,-0.13762468099594116,-1.5827628374099731,-0.5673346519470215,0.13315734267234802,-0.39860042929649353,-0.8935332894325256,-0.9986515641212463,1.659459114074707,-1.693286418914795,-1.5085042715072632,0.23569154739379883,-1.1180999279022217,0.16560499370098114,1.0350004434585571,0.45478299260139465,1.1333948373794556,1.196710467338562,0.6423106789588928,2.161252737045288,-0.7455480098724365,-1.006256103515625,0.634640634059906,-1.9358255863189697,-0.03613216057419777,-0.14039552211761475,-0.37518998980522156,-0.32527995109558105,1.379063606262207,-2.0292913913726807,0.5119360089302063,0.658277690410614,-1.3983852863311768,-0.4181309938430786,1.032207727432251,1.3228867053985596,-2.818169116973877,-1.3441747426986694,0.8716008067131042,0.004851082805544138,-0.8820142149925232,0.6728046536445618,-0.170200377702713,-0.15270863473415375,0.28173333406448364,1.1705292463302612,-0.07317861169576645,-0.5415620803833008,1.9390040636062622,0.3868342936038971,0.07535675913095474,-0.679072916507721,0.11072038114070892,1.031319499015808,-0.035126492381095886,1.1990076303482056,-0.6639684438705444,0.1674976944923401,-1.8129686117172241,-0.7185736894607544,-0.758170485496521,0.7188827395439148,-1.5807143449783325,1.0599147081375122,0.16511951386928558,1.1480435132980347,-0.14222100377082825,0.4463419020175934,0.5327754020690918,-1.7032862901687622,-0.9248340725898743,0.430141419172287,-0.6913325786590576,-0.7757967710494995,-0.7762603759765625,-0.8705154061317444,0.37478986382484436,1.0290839672088623,-0.8319532871246338,0.43240660429000854,-1.0632349252700806,0.8760881423950195,0.3507319688796997,0.2711302638053894,0.008791523054242134,-2.364311695098877,-0.10391613841056824,1.314110517501831,-0.9636251330375671,0.05693697929382324,0.2030481994152069,0.8752469420433044,2.05712628364563,-0.3906470537185669,0.8559786677360535,0.8974916934967041
重建,0.09830767661333084,-0.362358033657074,-2.6035001277923584,-0.4926129877567291,2.5895841121673584,-0.915725827217102,0.7273989319801331,2.2296481132507324,-2.264023542404175,1.2148817777633667,-0.16217011213302612,-0.8656065464019775,-0.6642922759056091,1.621636152267456,-0.823219358921051,0.2826782763004303,0.35023927688598633,-0.5889927744865417,0.6039793491363525,0.4322722256183624,-0.740731954574585,-0.6881265044212341,1.277427315711975,0.06099331006407738,0.9785680770874023,-0.9229565262794495,-1.7855702638626099,1.08281409740448,-0.35455432534217834,-1.9101988077163696,-1.6095237731933594,-0.3279016315937042,2.2257845401763916,1.2724151611328125,-2.5153825283050537,0.389079749584198,-0.4117312729358673,-0.5731678605079651,-0.35152551531791687,0.12050505727529526,0.246039018034935,-3.7121386528015137,1.656614065170288,0.1754947453737259,-1.516185998916626,0.7668691277503967,-0.24540165066719055,0.5316348075866699,-0.09404262900352478,-2.783989667892456,1.0474693775177002,-0.867729127407074,-1.568662166595459,0.17128610610961914,0.3088982403278351,0.19214370846748352,0.19823481142520905,1.777627944946289,-1.372438907623291,0.16538892686367035,0.48837968707084656,-0.4923422932624817,-1.1383943557739258,-0.7099551558494568,1.487311840057373,1.3176236152648926,0.32923805713653564,2.1347551345825195,1.1081438064575195,0.18983104825019836,0.12137842923402786,0.7018676996231079,1.1497305631637573,1.0295625925064087,-0.5740688443183899,-1.2011866569519043,-0.5930594205856323,1.5245552062988281,0.9629852175712585,-1.4629095792770386,-0.49154072999954224,-0.3536134362220764,1.10822594165802,-0.1723131239414215,0.9586625695228577,0.4053405225276947,0.7752697467803955,1.5528672933578491,0.6192793846130371,-0.5724257826805115,-0.8304539322853088,0.3659300208091736,0.5872892737388611,-0.02266531065106392,0.10881450772285461,-0.4613795280456543,0.1925063580274582,0.945103108882904,-0.7586723566055298,1.1108880043029785,0.22350537776947021,-2.0136337280273438,0.3440016806125641,0.164911687374115,1.5917115211486816,0.7310703992843628,0.5809710621833801,0.37899741530418396,-3.434523820877075,-0.32844337821006775,-0.7483101487159729,-1.3787022829055786,-1.834259033203125,-1.0628925561904907,-1.5052385330200195,1.5490940809249878,-0.4439299702644348,-0.3914044201374054,-1.301715612411499,0.3764849305152893,-0.9416211247444153,0.4945225715637207,-1.4284772872924805,0.8398603200912476,0.372738242149353,1.078569769859314,-0.18563976883888245,2.7857460975646973,-0.557517409324646,0.8236865997314453,-0.7834305167198181,0.9382784962654114,-0.5499085783958435,0.5329269170761108,-0.2647363841533661,-0.5867224335670471,-0.8908308148384094,-0.3447411060333252,-0.4455561935901642,-0.7910017967224121,0.9969033598899841,-0.9940876960754395,-0.34685713052749634,0.8129289150238037,0.8709410429000854,2.0370728969573975,1.2609165906906128,0.47421735525131226,0.7496044039726257,-1.564241886138916,-0.08074252307415009,-0.6250745058059692,-1.484006404876709,-0.363822340965271,0.40397748351097107,0.9875339865684509,2.604280471801758,0.4889543056488037,-1.005183458328247,1.6335023641586304,1.5791114568710327,-0.6102884411811829,-1.4456915855407715,0.30939364433288574,-0.6226966381072998,-2.0894033908843994,-0.07771359384059906,-0.9411789178848267,0.03545480594038963,-0.9118157625198364,-0.29907917976379395,0.7081363797187805,0.4819518029689789,-1.0867258310317993,0.7376945614814758,-0.46429702639579773,-0.9700079560279846,-1.2530097961425781,1.6472580432891846,-0.14609888195991516,-1.5557612180709839,-1.6240596771240234,-2.3724565505981445,0.2623823881149292,-0.6749494671821594,0.6165779829025269,0.4457916021347046,-0.7465221285820007,0.5500154495239258,-0.7587522864341736,-0.1498388797044754,2.2795937061309814,-0.5897265672683716,-1.5829178094863892,-1.0832202434539795,-0.4689359962940216,-0.12072989344596863,-0.8308320045471191,0.24887780845165253,-0.6641664505004883,-0.36652153730392456,1.6577574014663696,0.9830923676490784,-0.0992627888917923,0.9691323041915894,-1.839982032775879,-0.26463571190834045,-0.8080968260765076,0.2409212291240692,1.0653804540634155,-0.18306797742843628,1.6305855512619019,0.426173597574234,0.6775007843971252,0.662885308265686,-1.6197596788406372,0.4920360743999481,-0.22835348546504974,0.7334868907928467,-0.1601061075925827,-1.1321243047714233,-1.0342849493026733,-2.703263759613037,0.282842755317688,-0.4904620945453644,0.5334429740905762,-1.1399664878845215,-0.854131281375885,1.568393588066101,-1.4748992919921875,1.0735938549041748,1.354134440422058,2.2350337505340576,0.30718597769737244,-1.029009461402893,-2.0161430835723877,-0.9580962061882019,0.03424779698252678,2.376655340194702,-2.1858372688293457,-0.32426244020462036,-1.1910871267318726,-0.2464742809534073,-0.5331259965896606,0.7749037146568298,-0.8307585120201111,-1.4111621379852295,1.3441321849822998,-0.5345946550369263,-1.7737221717834473,0.7949849367141724,0.8477311730384827,1.1818196773529053,2.0934629440307617,-0.6470806002616882,2.052455425262451,0.16071444749832153,-0.5705540776252747,-2.954965114593506,-2.250765562057495,-0.7657654285430908,-1.8822858333587646,0.3895355761051178,-0.7471727132797241,-0.2142396718263626,-0.3564838767051697,1.2040420770645142,0.7046861052513123,-0.7253432273864746,-1.38556706905365,0.9274688959121704,0.3412350118160248,0.7974615097045898,-2.5144565105438232,1.4407023191452026,1.1576495170593262,-1.1475759744644165,1.7456153631210327,-0.43379688262939453,0.6738955974578857,0.656480610370636,-0.4142339825630188,-0.5447002649307251,-0.6963509321212769,2.3053085803985596,-0.05382971465587616,0.013512120582163334,1.5469180345535278,-0.5338110327720642,2.8020966053009033,-0.46749550104141235,-0.27028587460517883,-0.3320702612400055,2.4064533710479736,-0.48994380235671997,0.615236759185791,-0.025822490453720093,-0.8512808084487915,-0.9273181557655334,1.2031681537628174,-2.2015161514282227,0.29984089732170105,1.1948171854019165,-0.7987839579582214,0.11914947628974915,0.8503047823905945,-1.4546302556991577,1.3571844100952148,0.9384065866470337,-0.7849584817886353,-0.45689913630485535,0.9705125093460083,0.06666333973407745,-1.3422726392745972,-0.754912793636322,-0.35579416155815125,-0.730964183807373,0.5297930836677551,-0.798503577709198,-1.5027174949645996,-0.42644214630126953,0.39078354835510254,-0.08993341773748398,0.11972568184137344,0.40856221318244934,-0.3472660183906555,-0.35320547223091125,1.1842302083969116,0.6162689924240112,-1.6345367431640625,-0.6782665848731995,0.12139466404914856,-1.4506947994232178,-1.9750233888626099,-1.6599652767181396,1.5847584009170532,0.6043083071708679,2.4574644565582275,2.7698307037353516,0.8395819664001465,2.0896801948547363,0.5903164148330688,-0.3091966509819031,0.5167941451072693,0.6285130977630615,0.49056756496429443,0.5422806739807129,-1.52793288230896,-1.0880361795425415,1.3153560161590576,0.3084452152252197,-0.5768104791641235,-0.9982076287269592,1.0872594118118286,-0.4258463382720947,1.804518222808838,0.06441416591405869,0.34019315242767334,0.564071774482727,2.4710116386413574,-0.2632620930671692,-0.7817109227180481,0.05534740909934044,1.1056487560272217,0.46521681547164917,-0.9425100684165955,-0.8103973269462585,2.679560899734497,0.01775108464062214,0.8337985277175903,-2.191873073577881,-0.0675702765583992,1.0855212211608887,0.4218806326389313,0.5285636782646179,-0.8965049386024475,0.6403371095657349,0.5404399037361145,1.7067697048187256,-0.40513089299201965,1.1981043815612793,-1.669026255607605,-1.2609528303146362,0.5178242921829224,-1.1269625425338745,0.9144455790519714,0.2163911759853363,-0.5406110286712646,0.7649117112159729,-0.5426939725875854,-0.6809912323951721,1.4780776500701904,-0.2695872485637665,1.6119182109832764,1.3182344436645508,0.3767564296722412,-0.24602316319942474,-0.4300648272037506,1.2208012342453003,1.6853083372116089
表中,0.12056851387023926,-1.3654683828353882,0.9348506927490234,0.5140634179115295,-0.23472514748573303,0.26882684230804443,0.4117357134819031,-0.2736259996891022,0.3934110701084137,-0.01161667425185442,-0.14805123209953308,-1.4481403827667236,0.6465306878089905,0.44060811400413513,-0.016197318211197853,-0.027325980365276337,1.0904343128204346,0.3071715533733368,-0.9122154712677002,-0.8149505257606506,0.5417349338531494,-0.5514348149299622,-0.19330209493637085,-0.5937665104866028,-0.09506404399871826,-0.256570965051651,-0.7111472487449646,0.6067720651626587,-0.37725672125816345,0.25492680072784424,0.7081096172332764,-0.490014910697937,0.18367895483970642,0.14166833460330963,-0.1268862932920456,-1.0506247282028198,-0.23115767538547516,-0.913413941860199,-0.5811627507209778,-0.4264593720436096,-0.3782568871974945,0.7806376218795776,0.32948362827301025,0.8682648539543152,-0.9977346658706665,-1.199668049812317,0.8537271618843079,0.06166708841919899,1.0869297981262207,1.4055970907211304,0.0705936923623085,0.31403619050979614,-0.5658602118492126,-1.667677640914917,-0.3540521264076233,-0.20085135102272034,0.6738988757133484,0.19932563602924347,-0.04153326898813248,-0.9946950078010559,-0.5222128629684448,-0.16260214149951935,0.38557013869285583,-0.6450757384300232,0.8086737394332886,-0.006785597186535597,-0.21176080405712128,0.33005499839782715,-0.4522051215171814,0.5347592830657959,1.1400142908096313,-0.020276909694075584,-0.5559442639350891,0.2703734040260315,-0.45064666867256165,-0.2446250319480896,0.512825071811676,-0.9561830759048462,-0.2871628701686859,-0.030515499413013458,-0.2607725262641907,-0.4424383342266083,1.3424365520477295,0.7271407842636108,1.0595133304595947,-0.5938275456428528,1.4429328441619873,0.3054931163787842,-0.404400497674942,0.5525591373443604,0.5020845532417297,0.15001952648162842,0.05488501489162445,0.42187556624412537,-0.222695991396904,-0.5698601603507996,0.0707622542977333,0.8372177481651306,0.40439581871032715,0.2641894221305847,-0.22228454053401947,0.37736284732818604,-0.3480786979198456,0.6501144766807556,0.5632677674293518,0.6694707870483398,-0.17873890697956085,-0.5826379656791687,0.27893540263175964,0.5409795045852661,0.07255622744560242,0.16373147070407867,0.5084452629089355,0.412716269493103,-0.13339436054229736,0.5022990703582764,0.544327437877655,0.15064415335655212,-0.5622879266738892,-0.003061559284105897,-0.08830278366804123,0.06019957363605499,-0.34781405329704285,-0.2119496464729309,-0.4718754291534424,0.6534532904624939,0.654915452003479,-0.805123507976532,-0.48379141092300415,0.08224782347679138,-0.5245303511619568,-0.4740127623081207,-0.6446143984794617,0.253989577293396,-0.6271152496337891,0.7524279356002808,-0.3899736702442169,-0.8868345022201538,-0.42832398414611816,-0.23360402882099152,0.2574905455112457,-0.4536164104938507,1.0628201961517334,0.04818566516041756,-0.6450100541114807,0.7412092089653015,0.03418703377246857,0.061993394047021866,0.021810907870531082,-0.19787877798080444,0.28823480010032654,-0.4534211754798889,-0.5141621828079224,0.3333287537097931,0.3598656952381134,-0.04524962604045868,-0.7385278344154358,-0.4538715183734894,-0.6102464199066162,0.030959157273173332,0.17213714122772217,0.9177935719490051,-0.10647472739219666,-0.045049119740724564,0.11818279325962067,-0.2843807637691498,-0.45308008790016174,-0.9705411195755005,-0.1762029379606247,-0.23467057943344116,0.6124574542045593,-0.7693542838096619,-0.7296404838562012,0.7925365567207336,0.7068365812301636,0.7286025881767273,-0.5220018625259399,1.1133041381835938,0.07021421194076538,-0.0010013949358835816,-0.043094221502542496,-0.9556654691696167,-0.37119752168655396,0.08885116130113602,0.06925742328166962,0.3849096894264221,-1.2889798879623413,-0.16685621440410614,-0.26831358671188354,-0.15082047879695892,1.207253336906433,0.16316446661949158,-0.14870092272758484,1.3647706508636475,-0.13432350754737854,-0.030382558703422546,0.47499921917915344,-0.8765510320663452,-0.03044847398996353,-0.1154819205403328,-1.0618442296981812,0.9412877559661865,0.3796163499355316,-0.8336045742034912,-1.0833581686019897,-0.5903446078300476,0.6496951580047607,-0.09306686371564865,0.18151560425758362,0.28018492460250854,-0.41033023595809937,0.3142636716365814,-0.8844557404518127,-0.3906979262828827,-0.2715931236743927,-0.27204281091690063,-0.6364603638648987,-0.508457601070404,0.025853198021650314,-0.7887017130851746,-0.7185068130493164,0.6979773640632629,1.101280689239502,-0.0009423274314031005,-0.8856774568557739,0.4196278154850006,-0.15954749286174774,0.1872328370809555,0.3421253263950348,-1.1274006366729736,-0.3063092529773712,-0.44362008571624756,-0.2747724652290344,0.3011122941970825,-0.4223126471042633,-0.218229740858078,-0.2516952455043793,-0.7485052943229675,-0.6417527198791504,-0.40220415592193604,0.5141975283622742,-0.5234836339950562,-0.4394344985485077,-0.03249143064022064,-0.6434436440467834,-0.12132192403078079,0.2953551113605499,-0.9105666279792786,-1.4247761964797974,0.920042872428894,0.15252943336963654,0.22760014235973358,-0.3613612949848175,-0.6576220393180847,0.05967410281300545,-0.07435700297355652,0.06402827799320221,0.2983701527118683,0.024698641151189804,-1.0172221660614014,0.7176622748374939,0.30874255299568176,-0.8504040837287903,-0.24033188819885254,0.07538675516843796,-0.17641809582710266,0.21647286415100098,-0.29724541306495667,0.311286985874176,-0.1826322078704834,-0.730091392993927,0.11260421574115753,-1.2397127151489258,-0.6120320558547974,-0.15469320118427277,-0.49292758107185364,0.8572540283203125,0.004311512224376202,-0.3221956491470337,-0.019184032455086708,-0.5432410836219788,-0.21836893260478973,-0.09138163924217224,1.0120704174041748,0.8304749131202698,1.0812984704971313,-0.43087664246559143,-0.2156599909067154,0.2996971905231476,-0.2478780448436737,-0.2712922990322113,-0.1517692357301712,-0.0058121709153056145,-0.6606286764144897,0.45646217465400696,-0.060871753841638565,-0.35664623975753784,-1.2950866222381592,-0.10063286870718002,0.4153366982936859,0.4510059058666229,0.08398131281137466,0.9263321757316589,-0.8232160806655884,-1.1623096466064453,0.10201947391033173,0.06056857481598854,-0.16416828334331512,-0.4284999966621399,0.10318002849817276,-0.09169705957174301,0.6431219577789307,-0.18246614933013916,-0.4222133457660675,-0.43323054909706116,1.2332669496536255,-0.9081538319587708,0.49170351028442383,-0.3782792091369629,-0.34610262513160706,0.053697552531957626,0.38115933537483215,-0.7652812600135803,-1.1064507961273193,-0.0007685787277296185,0.3655959665775299,-0.09954829514026642,-1.2131413221359253,-0.676827609539032,-1.3006134033203125,0.7080070972442627,-1.1575403213500977,0.4354599416255951,0.11041229218244553,0.04815097153186798,-0.44121408462524414,1.0547984838485718,1.079139232635498,-0.918378472328186,0.38885697722435,-0.1909797191619873,0.03950703144073486,0.5760661363601685,-0.5121457576751709,0.9064469337463379,0.5783324837684631,0.30697202682495117,0.2737548351287842,-0.4679180383682251,-0.3793163597583771,0.5307908654212952,1.0997000932693481,0.8434672355651855,-0.36161646246910095,-0.5109958052635193,0.3234982490539551,-0.4059232473373413,0.8331482410430908,0.8328277468681335,-0.04798726364970207,0.5373148322105408,-0.29031193256378174,-0.1959928721189499,-2.068704128265381,0.9101454615592957,0.6365005970001221,-0.8534623384475708,-0.04506070539355278,0.4653289020061493,-0.3695696294307709,0.08639878034591675,-0.17122115194797516,-0.44887542724609375,0.6268013119697571,0.6968110203742981,0.32274213433265686,-0.9332574009895325,0.09209030121564865,-0.35157328844070435,0.378743052482605,0.019704410806298256,0.8085567355155945,0.16070084273815155,0.8384342789649963,0.008212280459702015,-0.8584456443786621,0.47410282492637634,0.5863296389579773,0.7323302626609802,-0.434447705745697,-0.17585305869579315,0.29430168867111206,0.4826422929763794,0.6703270077705383,0.2691618800163269,0.44618308544158936,-0.2846587002277374,0.48384401202201843,0.4004236161708832,-0.2503591477870941
微信,-0.03449355065822601,-1.705047607421875,-0.2601463794708252,-0.2514128088951111,0.14355480670928955,0.06910611689090729,0.629481852054596,-1.0513901710510254,0.3191658854484558,-0.37754926085472107,1.0590088367462158,1.2153289318084717,-0.25999611616134644,0.742697536945343,-0.8125284910202026,-1.0559532642364502,1.4446858167648315,0.9636418223381042,-0.7604053616523743,-0.6174654364585876,-0.6023606061935425,-0.2801930010318756,-0.42574581503868103,-2.0271992683410645,0.2988700866699219,-0.8542144298553467,0.6458190083503723,-0.15723928809165955,0.418809175491333,2.431683301925659,0.06867840886116028,-0.525964081287384,0.08173930644989014,0.43268102407455444,0.704002320766449,-1.3204957246780396,-0.07034257799386978,0.317312091588974,0.9803672432899475,-0.4354909658432007,-0.03271432965993881,-0.4433554410934448,0.43691858649253845,-0.699206531047821,-0.3957373797893524,0.25208160281181335,-0.14664261043071747,0.9255852103233337,-0.008337575010955334,-0.18603822588920593,-0.5258157253265381,0.9811445474624634,0.01960289664566517,0.6623619794845581,0.6598774194717407,1.1926665306091309,-0.6763908267021179,0.3051324784755707,0.7247902750968933,-0.5521027445793152,0.5598929524421692,-1.6834324598312378,-0.4947253465652466,-0.9766167998313904,0.47751864790916443,-1.7548123598098755,-0.05331786349415779,0.7786661386489868,1.774474024772644,0.7279271483421326,-1.2635986804962158,-0.5155236721038818,-1.2271076440811157,-1.2063416242599487,-0.13353246450424194,1.2403217554092407,0.09879066795110703,0.47703665494918823,-0.07061317563056946,-0.8608548641204834,-0.6421318650245667,0.4266775846481323,-0.004968165419995785,-1.3423371315002441,0.8223435282707214,0.6383140683174133,-0.21456317603588104,0.6589332222938538,0.19406753778457642,-1.0665335655212402,-0.3974570631980896,0.4990216791629791,1.7595031261444092,0.5498467683792114,-0.7907202243804932,-0.485896497964859,-0.23707328736782074,0.3270324468612671,-2.344240427017212,0.7326939702033997,-0.6370964646339417,0.4979438781738281,-0.3116474449634552,-0.057550542056560516,-0.211213618516922,2.1669764518737793,0.1737951934337616,-0.15148179233074188,0.9121429324150085,0.576488196849823,2.063405990600586,-0.4063311517238617,0.05047332122921944,1.2559080123901367,1.4265880584716797,-0.59339439868927,0.5577265620231628,-0.291337788105011,0.11151355504989624,-1.6714898347854614,0.5579827427864075,0.689014732837677,0.16937021911144257,-0.4932507276535034,-0.1279313713312149,-0.4548362195491791,-0.4918903708457947,-0.9068630933761597,0.0687788650393486,-1.5070024728775024,1.0979092121124268,-0.10309474915266037,-0.6849561929702759,0.016645727679133415,-0.5975950360298157,0.4396626949310303,0.029564084485173225,-2.987013578414917,-2.149590492248535,-0.7438814640045166,0.29941749572753906,-0.388986736536026,0.3267557621002197,-1.7692571878433228,0.9194568395614624,0.24943165481090546,-0.9082297682762146,2.0600099563598633,-0.20109154284000397,0.7782711386680603,-2.142505407333374,-0.04425511881709099,-0.6369687914848328,-0.31305384635925293,0.5760944485664368,0.7349979281425476,-1.0248689651489258,0.7197909951210022,0.6444480419158936,0.15279580652713776,-0.31912529468536377,-0.4856996536254883,-0.060987845063209534,1.2320055961608887,0.0969313532114029,0.7921867966651917,0.15738549828529358,0.4119473397731781,0.7959373593330383,1.0776046514511108,-0.24523715674877167,-0.7221357822418213,0.20362651348114014,0.280499666929245,-1.3395042419433594,0.19974438846111298,0.6395509243011475,0.007247792556881905,-1.832861065864563,-0.36722826957702637,-1.681784749031067,0.864586353302002,0.012458699755370617,0.39163535833358765,-0.08187631517648697,-1.486342191696167,0.36800187826156616,0.017647750675678253,0.8664389252662659,0.08316638320684433,-0.14616693556308746,0.8056977391242981,1.743016004562378,0.7743716835975647,-0.6007404327392578,-0.2521659731864929,0.30062058568000793,-0.14058201014995575,0.6544541120529175,-0.20805615186691284,1.4759860038757324,-0.22585251927375793,-0.38086801767349243,0.4411124885082245,0.05030518397688866,2.703275442123413,-1.319441318511963,-0.5054001808166504,0.6646721959114075,-0.21647602319717407,-1.4014283418655396,-1.2769627571105957,0.19242119789123535,0.4497935473918915,-0.28817009925842285,-0.5096535682678223,-0.26118573546409607,-0.0858316421508789,0.12430717796087265,-1.1135400533676147,1.4613771438598633,0.9769873023033142,0.3216191232204437,1.2459088563919067,0.6509915590286255,-1.2213584184646606,-0.5402171611785889,0.32645130157470703,-1.0423016548156738,-0.44965413212776184,-1.1108893156051636,0.7717499732971191,-0.09387701749801636,1.3769707679748535,0.917641818523407,-0.5258525013923645,0.117963507771492,-0.7963314652442932,-0.02528243139386177,-1.564957857131958,0.8681830763816833,-1.1422759294509888,0.19150415062904358,0.9765225052833557,-1.0916669368743896,0.2009817212820053,-0.5072879195213318,-1.1290295124053955,-1.378928780555725,1.3870983123779297,0.5011446475982666,1.1603736877441406,-0.2088550180196762,1.6093871593475342,0.7373305559158325,1.7485229969024658,0.30370867252349854,-0.110444076359272,-1.3093866109848022,-0.017116006463766098,1.169112205505371,-1.188944697380066,-0.5127764344215393,0.40740761160850525,-1.3783485889434814,0.8805474638938904,-0.07630305737257004,0.6031890511512756,0.2535305321216583,0.5325006246566772,0.1669614017009735,-0.11131563037633896,-0.9676420092582703,-0.28843656182289124,1.1418037414550781,0.781596839427948,-0.32405394315719604,1.799007773399353,-0.16447444260120392,0.5385816097259521,-0.50345379114151,0.29991135001182556,-0.3021112382411957,0.5925670266151428,-0.002527087926864624,0.12108165770769119,-0.03807437792420387,-1.207343578338623,0.5876595973968506,-0.5624367594718933,0.6639882326126099,-0.022246988490223885,0.804615318775177,-2.364701271057129,-0.7719497680664062,-0.5036240816116333,0.46055009961128235,0.7357409596443176,-0.8710446357727051,-0.5115525126457214,0.9281715154647827,-0.18634384870529175,-0.2520941495895386,-0.6609742045402527,1.0869078636169434,0.8077662587165833,-0.7649401426315308,-0.34332799911499023,-0.6048735976219177,0.2401779443025589,-0.407379150390625,0.027813931927084923,0.7528969049453735,-0.6854187250137329,-0.04269816726446152,-0.529504656791687,-1.0537264347076416,-0.16826245188713074,0.17053326964378357,-2.647582530975342,0.6888853907585144,-0.2701278030872345,-0.3802672326564789,-1.4464995861053467,0.21671414375305176,0.6246795654296875,-0.5990051031112671,0.33317965269088745,-0.04316752031445503,-0.501549482345581,-1.0250566005706787,-0.12420942634344101,0.11566358059644699,1.314231514930725,-0.4189680814743042,-0.10702712088823318,0.18211166560649872,1.0093250274658203,-0.4523501396179199,0.5174211263656616,-0.6472578644752502,0.27945518493652344,0.7990725040435791,0.4129461646080017,-0.23980891704559326,1.9007307291030884,1.1096733808517456,0.20806658267974854,1.2175382375717163,-0.2679789662361145,-1.1743717193603516,-0.06024946644902229,0.11417137831449509,0.7547661662101746,-0.23497052490711212,0.5375175476074219,1.7255998849868774,0.17965847253799438,-0.31119921803474426,0.38132596015930176,1.0869535207748413,-0.04837841913104057,-1.3292866945266724,-1.1895060539245605,-0.15472975373268127,-0.6255854964256287,0.9256573915481567,-0.09748245030641556,-2.8653104305267334,0.425139844417572,0.5983207821846008,-1.1618012189865112,-0.6286981701850891,1.4012541770935059,-1.087785243988037,0.561034083366394,0.6969320774078369,0.004138259682804346,0.35159197449684143,1.254908561706543,0.11533340811729431,1.3665632009506226,1.4258109331130981,-0.28826233744621277,1.1790311336517334,0.32503193616867065,-0.7373657822608948,-0.10092654824256897,2.163099765777588,0.4382134974002838,1.1451538801193237,-0.42657768726348877,0.9639562368392944,-1.2735058069229126,-1.4529287815093994,2.5517680644989014,-1.805743932723999,-1.8262192010879517,-0.8315050005912781,-0.31799986958503723
逐渐,-0.5770937204360962,-2.353344440460205,0.12914735078811646,-1.286307692527771,-0.3494866192340851,-0.8345037698745728,1.371474266052246,0.7740767598152161,-1.366084098815918,-0.46125882863998413,-0.5722576379776001,3.311659574508667,-0.6483252644538879,-1.2010256052017212,-2.778843879699707,1.304540991783142,1.2356153726577759,-1.6671401262283325,0.9294887781143188,-3.356290340423584,-1.7981083393096924,-0.2769484221935272,1.2865581512451172,0.5750753879547119,-0.33917236328125,-1.357890009880066,-0.39380717277526855,0.6050150394439697,0.19081608951091766,-1.3703727722167969,-2.2838799953460693,-2.924656629562378,1.174108624458313,3.58325457572937,0.31278935074806213,1.8459323644638062,-0.8624338507652283,0.7572068572044373,-0.4740799367427826,1.4442367553710938,0.8512586355209351,-1.5735361576080322,-0.49260038137435913,-0.16560544073581696,-0.49120932817459106,2.465029239654541,-0.11740094423294067,0.20487186312675476,-0.45363059639930725,-1.4129728078842163,-1.7794729471206665,-0.4542926847934723,0.19330991804599762,1.7492018938064575,-1.2086074352264404,0.5113497376441956,0.5739926695823669,1.0698822736740112,-0.4594227969646454,-0.030243797227740288,-0.5152727961540222,-1.076104998588562,0.2989410161972046,-1.5379488468170166,3.1042752265930176,-2.245100975036621,2.544576406478882,0.285940945148468,1.7035231590270996,1.3862342834472656,1.2392431497573853,0.9856783151626587,0.8629012107849121,-0.34281647205352783,0.18136495351791382,-1.361722707748413,1.374419093132019,0.014461449347436428,-1.1008390188217163,3.3739492893218994,-1.0775365829467773,0.20831726491451263,-0.18158835172653198,0.3222709000110626,-0.7315667271614075,1.0597121715545654,0.6579508185386658,-0.31547507643699646,-1.2337992191314697,-0.055183909833431244,2.7647314071655273,0.2830634117126465,-0.283514142036438,0.8889554142951965,-1.0244982242584229,0.78229159116745,0.6812745332717896,2.953023672103882,-0.713968813419342,-1.4947949647903442,0.3552972376346588,1.5127617120742798,-1.237989902496338,-0.2633844017982483,-0.2028174251317978,0.05347175896167755,1.7470415830612183,-0.0942847728729248,-0.25501197576522827,-1.330528974533081,-1.2796143293380737,-1.2871477603912354,-1.4742083549499512,-0.8657447099685669,-0.022695036605000496,1.7961421012878418,2.854830741882324,-1.7573659420013428,0.6555866003036499,-0.4747588038444519,0.02193879336118698,-0.710430920124054,-0.4875394105911255,1.972508192062378,-0.22564445436000824,-2.8198082447052,1.5770667791366577,0.5258797407150269,-0.056334901601076126,0.6216714382171631,0.5352411866188049,1.4490939378738403,-0.2507319152355194,-0.6760281324386597,-0.20848120748996735,-0.7809602618217468,1.8154491186141968,-1.1735762357711792,1.7839982509613037,-0.7478125095367432,-1.1139883995056152,-0.5007601976394653,-0.6931132674217224,0.06571085005998611,0.2635895907878876,-1.4456803798675537,-0.8361356854438782,1.5410741567611694,0.20490670204162598,-1.1434510946273804,-0.3809276223182678,-0.09508613497018814,-0.23989230394363403,-0.28804072737693787,1.1414130926132202,1.5048425197601318,-0.7587637305259705,1.7071678638458252,1.3801274299621582,1.1635985374450684,1.2062320709228516,0.7359142899513245,0.9481605887413025,-0.29839661717414856,0.10444106161594391,-0.8083416223526001,-2.0204763412475586,0.15090419352054596,-2.0176889896392822,1.8764663934707642,1.7887579202651978,-0.538378894329071,0.468607634305954,0.4461221396923065,1.4232686758041382,0.7315852046012878,0.7652050256729126,-0.04706195741891861,0.1432395875453949,0.8797329068183899,-0.4801385700702667,0.9539355039596558,-0.6826754212379456,-0.7429186701774597,-0.11963703483343124,-0.7421607375144958,-1.313525676727295,-0.067474365234375,0.4947783946990967,0.8889573216438293,-1.0949413776397705,0.9460681080818176,-0.3544958829879761,0.8352989554405212,-0.8338845372200012,-0.30047497153282166,2.459223747253418,-0.20682354271411896,-0.7958956360816956,0.9142925143241882,-1.506858229637146,0.7647256255149841,0.037473250180482864,0.581204354763031,0.5042855739593506,0.33212074637413025,-1.074120283126831,0.14951558411121368,1.278012752532959,0.8215060830116272,-0.7643062472343445,1.4021824598312378,-0.062130823731422424,1.9770249128341675,0.2728857398033142,-0.16616737842559814,0.5482826232910156,-2.9600744247436523,0.2580588459968567,-2.2887930870056152,0.25570547580718994,-0.4789775311946869,0.5778638124465942,-1.8296568393707275,0.403809130191803,-0.043141286820173264,0.5015373826026917,0.40513816475868225,-1.4740352630615234,-0.47516611218452454,-0.023271096870303154,-0.35155922174453735,1.5066944360733032,-0.3334282636642456,-1.727418303489685,1.7891883850097656,0.7296465039253235,-1.4991284608840942,0.8932194709777832,1.840418815612793,-1.185272216796875,0.807171106338501,-1.1920983791351318,-0.11735261231660843,0.8820468783378601,1.6015197038650513,0.45855167508125305,2.2332677841186523,-2.38889741897583,-0.6000341176986694,1.2123538255691528,0.12081334739923477,-1.762759804725647,1.0958207845687866,0.40848812460899353,3.1164369583129883,-0.45483362674713135,0.4960401952266693,-0.3927154242992401,-1.792363166809082,1.6710513830184937,-2.2512781620025635,0.4099920392036438,1.830420732498169,-1.4016854763031006,2.204028367996216,0.7865049839019775,-0.34025394916534424,0.3396240770816803,0.19187352061271667,2.527585506439209,0.013295240700244904,-0.028491932898759842,0.8523806929588318,2.7758967876434326,-0.5988736152648926,0.017562497407197952,2.5503759384155273,-0.7663286924362183,-0.780950665473938,-0.2837908864021301,-0.5130350589752197,1.197798252105713,-0.3561544120311737,0.08064761757850647,1.0797579288482666,2.2485501766204834,0.48128747940063477,-1.3180696964263916,0.5722379684448242,-0.6773355007171631,-0.0949883908033371,-0.02649008110165596,1.1806200742721558,-1.1035512685775757,1.6184171438217163,1.1516956090927124,-1.5611222982406616,0.3286278545856476,1.9459562301635742,-1.2300307750701904,0.854994535446167,-0.7885993123054504,-1.607118844985962,-1.646894931793213,1.3558284044265747,0.6156111359596252,0.10427489876747131,-0.3124680817127228,0.5062621235847473,0.4135344922542572,-0.6082207560539246,0.4269099533557892,0.21596218645572662,-0.8347049355506897,0.670605480670929,-0.3157697916030884,-0.07231517881155014,0.9241154193878174,1.259955883026123,-2.0819995403289795,1.3141447305679321,1.5238651037216187,0.26270750164985657,-2.9154582023620605,-1.7167305946350098,0.1613064557313919,-0.017954785376787186,0.09878826141357422,0.8830965161323547,-2.1954798698425293,0.8697104454040527,0.3447909653186798,-0.6512829065322876,0.3089611828327179,1.03883695602417,0.7047120928764343,2.004789352416992,0.275573194026947,0.6268349885940552,-0.26525676250457764,-1.7632319927215576,-0.4515703618526459,-0.7076982259750366,-0.8914655447006226,0.689297616481781,0.39034533500671387,0.6768594980239868,1.3507964611053467,0.7929692268371582,0.037588633596897125,-1.5383752584457397,-0.43190592527389526,-1.1471174955368042,1.5445857048034668,0.36824822425842285,-0.29554179310798645,0.7807936072349548,1.1962953805923462,3.697925090789795,-1.779278039932251,-1.2084009647369385,-0.8434072732925415,0.24450232088565826,-1.6901463270187378,0.6194919943809509,-0.11206082999706268,0.42266759276390076,0.46141165494918823,2.5167922973632812,-1.5779544115066528,0.00524234538897872,1.0826170444488525,-1.386395812034607,0.4075860381126404,0.0350322425365448,0.5697011351585388,0.5674453377723694,0.5529941320419312,0.039286836981773376,-0.3250811994075775,-0.948563814163208,-2.5078959465026855,-0.9645223617553711,1.1885099411010742,-1.1380618810653687,0.2661755084991455,0.46079885959625244,0.7724100947380066,0.5909472703933716,-0.13478665053844452,0.6104626059532166,2.451284408569336,-0.5882235765457153,0.5054444074630737,-1.2814427614212036,-0.27512288093566895,2.2365195751190186,0.4120108187198639,0.4741953909397125
这段话,0.0382440946996212,0.10003708302974701,0.2301989197731018,0.11491356790065765,-0.2545248568058014,0.026683444157242775,-0.3961821496486664,0.12556743621826172,-0.08410922437906265,-0.05984604358673096,0.25490835309028625,-0.1303771585226059,0.17365026473999023,-0.17524822056293488,-0.13662602007389069,-0.08775486797094345,0.01281643658876419,0.17678558826446533,0.3966793715953827,-0.19235821068286896,0.15104824304580688,0.16765613853931427,-0.3485221564769745,0.23277632892131805,0.34072789549827576,0.3374263048171997,-0.2341788113117218,0.2623913288116455,0.25219517946243286,0.028318680822849274,0.10500212013721466,0.10476265102624893,0.03075113333761692,0.06617692857980728,-0.04404209926724434,-0.24315288662910461,-0.21792206168174744,-0.02285076305270195,0.18447743356227875,-0.15488532185554504,-0.28292784094810486,0.07164685428142548,0.2452639937400818,-0.14554135501384735,0.09159991890192032,0.06103025749325752,0.13985875248908997,0.0032412258442491293,0.45638900995254517,-0.047231096774339676,-0.10162446647882462,-0.1949916034936905,0.3253084719181061,-0.05610363930463791,-0.08615899831056595,0.04849332943558693,0.4905553162097931,0.6172026991844177,0.11133337765932083,-0.21263687312602997,0.1575895994901657,-0.15595494210720062,0.22884312272071838,-0.1898185759782791,0.2691683769226074,-0.21619738638401031,-0.18384581804275513,-0.1364087015390396,0.1755009889602661,0.10654235631227493,-0.008138113655149937,0.08462526649236679,0.08428160101175308,0.15057216584682465,0.288027286529541,-0.16205550730228424,-0.21758615970611572,-0.04177561402320862,-0.451213002204895,-0.07905467599630356,-0.4996200203895569,0.10075797885656357,0.3316645622253418,0.16698390245437622,-0.26048263907432556,-0.08035445213317871,0.518121063709259,-0.0021015701349824667,-0.09901030361652374,0.0530262254178524,-0.10149965435266495,0.023101897910237312,0.4766177237033844,-0.013817337341606617,0.2276107221841812,-0.2442808300256729,0.08237788081169128,0.41147661209106445,0.04748548939824104,0.05159151926636696,-0.2581328749656677,0.37789037823677063,0.19121935963630676,-0.08418913185596466,0.45599058270454407,0.4190634489059448,-0.01331628579646349,0.001203355728648603,-0.3094489276409149,-0.24960285425186157,-0.4150709807872772,-0.045069970190525055,0.06158001720905304,0.2892013192176819,0.36087220907211304,0.350020170211792,-0.012090710923075676,0.08705402910709381,-0.24587062001228333,0.10315651446580887,-0.28034526109695435,0.08186998963356018,-0.05422121286392212,-0.19278249144554138,-0.5429674386978149,-0.26966944336891174,0.309716135263443,0.057303447276353836,-0.09833467751741409,-0.39080438017845154,-0.28673094511032104,-0.13811637461185455,0.06350520998239517,0.38896849751472473,0.09868129342794418,0.45608416199684143,0.035698503255844116,0.48450958728790283,0.31157031655311584,0.14581860601902008,0.17338784039020538,0.23314088582992554,-0.368730366230011,0.05940382555127144,0.2090386301279068,0.03949294611811638,-0.15697355568408966,0.10502304881811142,0.2342277616262436,-0.22652536630630493,0.3164224922657013,-0.15829665958881378,0.15536725521087646,0.2224351018667221,-0.28186696767807007,-0.2605518102645874,-0.24884508550167084,0.01246445532888174,-0.08650602400302887,0.47363144159317017,0.28001198172569275,0.3971548080444336,0.32896554470062256,-0.12729254364967346,-0.0005033532506786287,-0.030587375164031982,0.043927278369665146,-0.13870954513549805,0.37234121561050415,0.03555228188633919,-0.06502509117126465,-0.12974341213703156,0.11737705767154694,0.6389603614807129,0.1886797845363617,0.06357620656490326,-0.6051397919654846,-0.3822081983089447,0.08659402281045914,-0.09208516776561737,0.24718236923217773,0.18462179601192474,-0.2406904399394989,0.14981169998645782,0.33801037073135376,-0.34458041191101074,-0.2526886761188507,0.2632996439933777,0.18188782036304474,-0.4913497269153595,0.0700133666396141,-0.07713350653648376,0.17238196730613708,0.15743200480937958,-0.34168219566345215,-0.10371209681034088,0.0026538604870438576,-0.23071330785751343,-0.5039947032928467,0.021066274493932724,-0.024347839877009392,0.058501988649368286,0.06002016365528107,0.44073721766471863,-0.3023017346858978,-0.0076846894808113575,0.3631872236728668,0.19335003197193146,0.09094922244548798,0.03863268718123436,0.17772641777992249,0.051024407148361206,-0.3845236003398895,-0.1617395281791687,0.13341297209262848,-0.3584348261356354,0.14637257158756256,-0.012988081201910973,-0.13125035166740417,-0.5983375906944275,-0.43732720613479614,0.159554585814476,-0.01074051670730114,-0.2334008514881134,-0.4810768663883209,-0.19468262791633606,0.07486201077699661,-0.2665061950683594,-0.1751267910003662,-0.0749036893248558,-0.4106545150279999,-0.5025257468223572,-0.22945137321949005,0.11419861763715744,-0.4317748546600342,-0.23098435997962952,0.1468835324048996,-0.4606066346168518,-0.3914977014064789,-0.1948319673538208,0.1065114289522171,0.11614139378070831,0.04956023022532463,-0.13237102329730988,0.04327842593193054,-0.15910471975803375,-0.44035422801971436,-0.01471024751663208,-0.3431755602359772,0.40497976541519165,-0.032393135130405426,0.2371779978275299,0.13295093178749084,0.12558864057064056,-0.0017150439089164138,-0.08840268850326538,-0.17249441146850586,0.0948510691523552,-0.004662271589040756,0.05297454819083214,0.4498906135559082,-0.3195096254348755,-0.366609126329422,0.10683753341436386,0.1858554184436798,-0.021117208525538445,0.007869563065469265,0.0015810513868927956,-0.3140681982040405,0.02762763202190399,-0.268344521522522,0.16093988716602325,-0.5162142515182495,-0.35879963636398315,-0.10574938356876373,0.4403720498085022,-0.16113106906414032,0.32189279794692993,-0.06011060252785683,0.11306845396757126,0.04736662656068802,-0.17915289103984833,0.3760647773742676,0.26459968090057373,-0.013425069861114025,0.9377203583717346,-0.2157442271709442,-0.23228320479393005,0.3285137414932251,-0.17445887625217438,-0.41111642122268677,0.06271076947450638,0.13347762823104858,0.17488129436969757,-0.14713825285434723,-0.04785369336605072,0.04086034372448921,-0.0559561662375927,-0.015288203954696655,-0.3724508285522461,-0.42048895359039307,0.4533294439315796,0.023982610553503036,-0.015203802846372128,-0.3600997030735016,0.23163028061389923,0.08042459189891815,-0.22618480026721954,0.2232389748096466,0.2601894736289978,-0.1062823235988617,0.4018357992172241,0.015949413180351257,0.2534153163433075,-0.5336230993270874,0.4992784261703491,-0.14696361124515533,-0.0071954308077692986,-0.10146172344684601,-0.059598393738269806,0.32331952452659607,0.023337723687291145,0.06065128371119499,-0.7512585520744324,0.03612586483359337,0.21515712141990662,-0.420428603887558,-0.5270739197731018,0.0808149129152298,-0.5537949204444885,0.2909443974494934,0.03819028288125992,0.15171825885772705,-0.31014809012413025,-0.5702911019325256,-0.4654466211795807,0.07524507492780685,-0.26529526710510254,0.5150892734527588,0.16527661681175232,-0.37758904695510864,-0.5525076985359192,0.16032932698726654,-0.41359931230545044,0.2018098086118698,0.27621927857398987,0.137300044298172,-0.33429378271102905,0.1553158015012741,0.4119855463504791,0.31879428029060364,-0.0410357229411602,-0.10847317427396774,0.26804429292678833,-0.23121993243694305,-0.3298919200897217,0.04974256083369255,0.0655992329120636,0.2456398606300354,0.7558614611625671,-0.07141327857971191,-0.3240572512149811,-0.27461478114128113,-0.3867805004119873,0.19337154924869537,0.29802194237709045,-0.13920554518699646,0.015365292318165302,0.008850356563925743,0.15848059952259064,0.13697585463523865,-0.23680001497268677,-0.041323110461235046,-0.17497175931930542,0.005663497839123011,0.0751790702342987,-0.03099953383207321,0.43889105319976807,0.13311350345611572,0.2315869927406311,-0.13129118084907532,-0.017120325937867165,0.5789874792098999,0.2971578538417816,0.17754781246185303,-0.1468815803527832,0.3326483368873596,-0.16221900284290314,0.19578340649604797,0.09212011098861694,0.1691613644361496,0.40957096219062805,-0.01035058218985796,0.035086311399936676,-0.03210373595356941,0.46574413776397705,-0.14656732976436615,-0.21928197145462036,-0.27142956852912903,-0.14502061903476715
获取,0.6186008453369141,-1.107300043106079,0.3228411376476288,-0.1757061779499054,-0.36888572573661804,-1.4177227020263672,1.2366498708724976,1.763452410697937,-0.23076392710208893,-1.9054745435714722,-0.01702912524342537,0.6257236003875732,-0.7204528450965881,-0.45488831400871277,-3.4356226921081543,-2.18237566947937,0.1991390585899353,-0.2105710655450821,-0.06976921111345291,-1.1021862030029297,0.5098250508308411,-0.499403178691864,-2.343726634979248,0.40179023146629333,-0.4479062259197235,-0.07694260030984879,-3.5107057094573975,-0.03354853764176369,1.1472222805023193,-0.721278190612793,-1.3010550737380981,0.6696227788925171,-0.4567461311817169,0.16003544628620148,1.4164032936096191,-0.7778764367103577,-0.797132670879364,-0.5395253300666809,-1.123860478401184,0.1333926022052765,-2.1797831058502197,1.2693804502487183,-0.08141735941171646,0.3286575675010681,0.326767235994339,-0.9398694038391113,0.10531628131866455,-1.2010468244552612,0.9872885346412659,0.48703745007514954,-1.3456445932388306,1.7703255414962769,-0.8199835419654846,-0.6148930788040161,-0.23110826313495636,-0.9023823142051697,0.765500545501709,1.048840045928955,0.6611427664756775,0.22218118607997894,-1.6720367670059204,-1.1404682397842407,0.05080116540193558,-1.5594959259033203,-1.1819710731506348,0.10816139727830887,-2.409766674041748,0.6861385107040405,-0.4741683304309845,1.3625648021697998,1.0135867595672607,-0.43707072734832764,0.32795897126197815,-0.20367686450481415,0.056266073137521744,0.8466675281524658,-0.004606837872415781,-1.3850507736206055,-0.5650798678398132,-0.9619911313056946,-2.048412561416626,0.33804890513420105,0.7693925499916077,0.45801109075546265,-0.7573778033256531,1.0800654888153076,-0.34017214179039,1.357231855392456,1.2594496011734009,-1.756604790687561,-1.351261019706726,0.43609121441841125,-0.9382131695747375,0.20190833508968353,-0.860579788684845,1.60822331905365,2.0285983085632324,-1.4450551271438599,-0.07650408893823624,-0.3734787702560425,-1.2493793964385986,-0.4824891686439514,1.5356355905532837,1.1073235273361206,0.05017194151878357,1.1641920804977417,-0.24435575306415558,1.2850745916366577,-0.012971092946827412,0.5019835233688354,0.9177948832511902,-2.636397361755371,-1.3385188579559326,1.4676995277404785,-0.21324172616004944,-0.2731840908527374,-2.1445839405059814,0.4332275688648224,0.8601720333099365,-0.8849011063575745,-1.486879587173462,0.4045752286911011,-0.9332354068756104,-0.08451466262340546,-1.2838590145111084,0.29944148659706116,1.4716168642044067,0.07056509703397751,-0.24224035441875458,-1.3959614038467407,0.1776275634765625,1.3509528636932373,-0.9922574162483215,-1.1666650772094727,-0.48236799240112305,-0.8777551054954529,-1.0311421155929565,-1.2203023433685303,-1.0220832824707031,0.9209098219871521,0.583369791507721,1.6183322668075562,0.16569119691848755,-1.9726351499557495,0.24925599992275238,1.3478422164916992,-1.880887508392334,0.2117675393819809,-0.08089379966259003,-1.1753345727920532,-1.7487443685531616,-0.41965195536613464,1.4275546073913574,-1.1266382932662964,-0.0028303121216595173,0.46135973930358887,1.5230004787445068,0.1394178867340088,-1.243272066116333,-1.163029670715332,0.8996407389640808,0.2552002966403961,-0.8636538982391357,-0.5382594466209412,-0.3046431541442871,0.6957281231880188,-0.9777418375015259,0.02568335458636284,-0.12004592269659042,-0.5230907201766968,0.7066925764083862,0.5612323880195618,0.5688996315002441,-0.37610292434692383,0.009083498269319534,-0.7021240592002869,1.5036187171936035,0.26417678594589233,0.025830214843153954,0.011977937072515488,-0.7772958278656006,0.505722165107727,-2.3385016918182373,0.5557745099067688,0.20242780447006226,0.24428798258304596,-0.41152289509773254,1.7807124853134155,-0.828606128692627,-0.09193303436040878,-0.5385774970054626,0.41170763969421387,1.445064663887024,0.5797880291938782,1.3769375085830688,0.49156948924064636,1.876936674118042,1.6078011989593506,-0.2353648841381073,0.8230348229408264,-1.0591487884521484,1.3950034379959106,-0.350445419549942,0.2358018159866333,-0.6294879913330078,-0.3596842885017395,0.4754001498222351,-0.5627304315567017,-1.4299888610839844,-1.3644115924835205,-1.392353892326355,0.7863619923591614,-0.7156051993370056,0.35985225439071655,0.16755107045173645,-1.0560343265533447,-0.042024414986371994,-0.17590805888175964,0.6500443816184998,-1.327473759651184,-0.7861926555633545,1.3707168102264404,1.42634916305542,-1.113379955291748,-0.21083594858646393,0.1060333102941513,-0.03247128799557686,0.2283400148153305,0.9156937599182129,-0.08888670802116394,-1.3869644403457642,-0.6601120829582214,0.6953451633453369,0.00672645540907979,-0.1617000252008438,0.7581921219825745,-0.7402186393737793,-0.8990996479988098,-0.5759342908859253,-1.6842128038406372,0.33424484729766846,-0.3819192349910736,-0.44904467463493347,0.2565402686595917,-0.13767454028129578,1.2851279973983765,-0.7675896286964417,0.7359247803688049,-0.9237070083618164,1.169658899307251,-0.17300859093666077,0.7467601895332336,-0.24168260395526886,1.7709144353866577,-1.0693477392196655,-0.1116919070482254,-0.6602942943572998,0.6464268565177917,0.9199439883232117,-0.5635859966278076,0.2688973844051361,-0.6428406238555908,-1.5452430248260498,-0.05284295603632927,-1.2583125829696655,-1.144124984741211,-0.1890091896057129,-0.055037721991539,0.10560797154903412,-1.1549049615859985,1.2724344730377197,0.471649169921875,-0.7735998630523682,0.6300657391548157,0.41878774762153625,-0.48636820912361145,0.048532452434301376,1.7465012073516846,0.4117414057254791,-0.4182579517364502,-0.8817603588104248,0.3943993151187897,-1.0182747840881348,-1.7912278175354004,0.5231059789657593,0.8624510169029236,-0.8623901605606079,-1.5930759906768799,0.7705061435699463,-0.49021318554878235,-0.6385139226913452,-1.212805151939392,1.0613712072372437,-0.335988849401474,-0.7060135006904602,-0.5975246429443359,-0.20593944191932678,0.29194891452789307,-0.5921153426170349,0.8526999354362488,1.279179573059082,-1.0487169027328491,0.38767364621162415,0.012483383528888226,-0.4375486969947815,-1.3800023794174194,0.590206503868103,-0.659623920917511,0.43762847781181335,-0.13179361820220947,-0.5859564542770386,1.047305703163147,1.812959909439087,-1.7371442317962646,-1.3566442728042603,-0.11655101180076599,-1.6910520792007446,0.04311710596084595,-0.7338016033172607,0.25410911440849304,0.7519917488098145,0.5236073732376099,-1.0874966382980347,-0.1615859866142273,-1.2373511791229248,-0.18962040543556213,1.049815058708191,-1.0861459970474243,-0.49370139837265015,-0.9497366547584534,-0.44148731231689453,0.574681282043457,0.29216793179512024,-2.82018780708313,-0.6303876638412476,-0.09047792106866837,1.4620170593261719,1.8673964738845825,0.4971143305301666,-0.20152480900287628,1.047276496887207,0.30338120460510254,1.6437362432479858,-1.1853195428848267,-0.03850594162940979,1.5547831058502197,0.8633729815483093,-0.6754515767097473,-1.9679875373840332,-0.6997873187065125,-0.7121492624282837,0.30957430601119995,-0.5315178632736206,0.04504573345184326,-0.179183229804039,-0.2726164758205414,0.5607458353042603,-2.2194724082946777,-0.17302262783050537,-0.6049215793609619,1.3370938301086426,0.6359078884124756,0.0487804189324379,-0.7653079032897949,-1.0825366973876953,1.7149124145507812,-0.15909256041049957,1.185734510421753,-0.8039318919181824,1.117752194404602,-0.46634411811828613,0.719654381275177,1.353182315826416,1.8360425233840942,0.3315701484680176,2.450415849685669,-1.6116304397583008,-0.5890530943870544,-0.11053992807865143,0.18528755009174347,0.8945621252059937,0.6785116791725159,-0.5840614438056946,-0.29438677430152893,1.097203254699707,-0.28191298246383667,0.693351149559021,-0.27445662021636963,0.4647173285484314,-1.594246745109558,0.5782833099365234,-0.258049875497818,-0.7122809886932373,2.1379752159118652,0.6624566912651062,-0.6374903917312622,-1.8671321868896484,-0.06533659994602203,0.7724242210388184,0.3404879868030548
翻译,-1.2577300071716309,-1.3707101345062256,-0.2930395007133484,2.4163429737091064,-0.9950577020645142,-0.4853920042514801,-0.0753098726272583,1.9861390590667725,0.5674365162849426,-0.6270497441291809,1.9710851907730103,0.2583009898662567,-0.727681040763855,-1.1091567277908325,1.079024314880371,-0.4944661855697632,-0.07416582107543945,0.5169683694839478,-0.03455188497900963,0.9883708357810974,-0.26482468843460083,-1.9617515802383423,-0.7137288451194763,-0.8627101182937622,0.2642922103404999,1.5496046543121338,1.2933540344238281,0.16116486489772797,1.7997251749038696,1.8061108589172363,0.6557429432868958,1.255591869354248,-0.26605483889579773,1.2546583414077759,0.03434884175658226,0.5772544145584106,-0.036534909158945084,-0.5595248341560364,-0.5872452259063721,-2.1476147174835205,-1.085046410560608,-2.220323324203491,0.5291716456413269,-0.46308502554893494,0.1438181847333908,0.35373905301094055,1.037065029144287,-2.213200569152832,1.4656239748001099,0.8283345103263855,-0.41436415910720825,0.617658793926239,1.8259817361831665,0.050797298550605774,-0.4964180886745453,-0.8980942964553833,-0.14003247022628784,0.8955381512641907,0.21741601824760437,-0.7204334139823914,-0.2649718225002289,-0.8637324571609497,-1.4623273611068726,0.8305851221084595,1.4921092987060547,0.2654761075973511,0.3272891938686371,-0.16962550580501556,-0.016535386443138123,0.5423559546470642,-0.8332392573356628,0.3822319805622101,-1.8967111110687256,-0.14331810176372528,-0.40848907828330994,0.44943299889564514,-1.2416912317276,-0.634052038192749,0.7315562963485718,-1.6331853866577148,-0.10694101452827454,-0.8700137138366699,0.5244590044021606,-0.41198164224624634,1.1033836603164673,0.29468971490859985,1.527815818786621,-1.449337363243103,-0.10440829396247864,0.04886292666196823,-0.09171509742736816,1.6628175973892212,-0.2950364053249359,0.6103989481925964,1.6628755331039429,-1.3558011054992676,0.900136411190033,-0.5413013696670532,-0.607132077217102,-0.35434287786483765,-0.3060993254184723,-0.7541175484657288,0.2000458836555481,-0.6310433149337769,1.5458483695983887,-0.18538276851177216,1.2620071172714233,2.462815046310425,-1.3482974767684937,-0.45162233710289,-0.24474720656871796,-1.5775669813156128,-1.6954935789108276,0.5196780562400818,0.151276633143425,-0.41826391220092773,0.2255891114473343,1.1076939105987549,0.22051367163658142,0.7775680422782898,1.0627679824829102,-0.2742611765861511,-0.9838102459907532,-1.6499334573745728,-0.38867074251174927,-0.18023182451725006,-0.21715885400772095,0.692677915096283,0.5447202920913696,-0.6608809232711792,-0.7501237988471985,0.8226739764213562,-0.3612027168273926,1.4054152965545654,-0.16571339964866638,-0.024097630754113197,-0.7309056520462036,-1.7731095552444458,-0.020912351086735725,0.08723931759595871,-1.123124599456787,-0.44062551856040955,0.646327793598175,0.8621448278427124,-0.8529708981513977,2.3035099506378174,0.036036085337400436,-1.593017339706421,-1.1461161375045776,-0.04144687578082085,1.0286611318588257,-0.5120493769645691,0.2562168836593628,-0.05746033787727356,-2.2108497619628906,-0.5560903549194336,0.24003927409648895,-0.703106164932251,-1.5280749797821045,-2.32588529586792,-0.457959920167923,0.8046839237213135,-0.2560444176197052,1.5252652168273926,-1.0400283336639404,1.542006254196167,-0.09926415234804153,-1.6894279718399048,1.2542686462402344,-0.9029951691627502,-1.3385206460952759,1.5245511531829834,0.3453463017940521,1.0735574960708618,0.15453386306762695,0.050642430782318115,0.7225027084350586,0.010303697548806667,-0.6715711951255798,0.6977817416191101,-2.0334677696228027,-0.6473388075828552,0.021957259625196457,-0.7624521255493164,0.9292614459991455,-0.9666897654533386,-1.2616268396377563,-0.9573883414268494,-0.7048743963241577,-2.224749803543091,-0.24426253139972687,1.266479730606079,1.236622929573059,-2.336958169937134,-1.725970983505249,-0.25007542967796326,-0.36430859565734863,-1.157301902770996,0.7585040926933289,1.49122953414917,-1.5562916994094849,-0.04163063317537308,2.557356595993042,-0.8491203784942627,-1.0288995504379272,1.8326472043991089,0.6998183727264404,0.2852112054824829,-0.3454914391040802,1.6381821632385254,-0.20849651098251343,-1.3195719718933105,-0.5052007436752319,-0.10470150411128998,0.1882883906364441,-0.334468811750412,-1.0107430219650269,-1.1687262058258057,0.19788792729377747,-1.3839222192764282,-1.4773612022399902,1.3767104148864746,1.1393537521362305,-2.9073915481567383,-1.3263510465621948,-2.032021999359131,-0.6454347968101501,-0.2814566493034363,-0.12492086738348007,0.1663094013929367,-0.7658647298812866,0.19686377048492432,-1.3684190511703491,0.5992286801338196,-1.764899492263794,-0.06504269689321518,-1.7213698625564575,0.5499779582023621,-0.884284496307373,-0.11687822639942169,0.863641083240509,-0.02475237287580967,-0.01758139580488205,0.07100585848093033,0.9835561513900757,-0.9932654500007629,-0.3646954596042633,2.0522878170013428,-0.45093271136283875,-0.2650105953216553,-0.8183769583702087,0.19718147814273834,-0.6585922837257385,-0.4305264353752136,-0.5604509115219116,-1.0123794078826904,-1.5941007137298584,1.6766408681869507,0.6892051696777344,-1.6980633735656738,1.1658743619918823,1.3281540870666504,-0.27938106656074524,-1.6460773944854736,-0.5731340050697327,0.08081843703985214,0.64997798204422,-0.4107089042663574,-0.3170033395290375,0.04804520681500435,0.6603422164916992,1.5865116119384766,-1.4777696132659912,-0.10011668503284454,-1.6369751691818237,-0.9743819236755371,0.7040309906005859,-1.02235746383667,-0.5603148937225342,-0.2910354733467102,1.179823637008667,0.34534382820129395,1.4574475288391113,-0.04627757519483566,-0.16013436019420624,0.11846307665109634,-0.4829973876476288,-0.16267317533493042,0.36631447076797485,-1.2552820444107056,0.7119060754776001,-0.9966310262680054,-1.226824164390564,0.5367223024368286,-1.5706539154052734,0.9072179794311523,0.20702578127384186,0.4445981979370117,-0.43614742159843445,2.190631151199341,-0.8051577806472778,1.2889683246612549,-1.0427508354187012,-0.5279091596603394,-0.18094174563884735,0.9268216490745544,0.15022188425064087,-0.8800440430641174,-0.25652647018432617,-0.13930846750736237,-0.9720410704612732,1.8321977853775024,-0.0034673239570111036,0.4155522584915161,-0.3563227951526642,0.6011358499526978,1.254418969154358,0.09856455028057098,-1.490551471710205,0.5819183588027954,-0.45753002166748047,1.1469496488571167,0.8234161138534546,-0.137168750166893,-0.7288690209388733,-0.4403758645057678,-0.5730632543563843,-3.473649263381958,0.9317753911018372,-1.7169657945632935,-0.9545078873634338,0.15043503046035767,0.5638747811317444,-0.4557499587535858,-3.056755781173706,-0.024026133120059967,1.9308414459228516,-1.6785885095596313,2.025542974472046,2.6995623111724854,-0.4015956223011017,-0.8976656794548035,-0.5345225930213928,-0.5947318077087402,0.611212432384491,0.7436468005180359,1.4910881519317627,-1.4763208627700806,0.4399052560329437,2.137169361114502,0.4638183116912842,-1.6802027225494385,0.7151893377304077,0.10955597460269928,0.19158373773097992,0.06762322783470154,0.07180581241846085,-0.02582043781876564,-0.43833035230636597,0.8798356056213379,-0.564640462398529,0.596992015838623,-0.9304814338684082,1.3503261804580688,0.9526099562644958,0.6578395366668701,-1.0324859619140625,0.03743688762187958,0.8987563848495483,0.4686442017555237,0.06905711442232132,-0.7652087211608887,1.1685917377471924,1.6904809474945068,-1.5508331060409546,0.8238012194633484,0.4970772862434387,-0.1292988359928131,0.08492109924554825,0.7019317746162415,-0.19840854406356812,0.5912010073661804,0.20562295615673065,0.7243465185165405,1.7881182432174683,0.9300501346588135,0.3126947283744812,-1.1899261474609375,1.0725535154342651,-2.2167136669158936,-1.8823479413986206,1.446000099182129,1.4730557203292847,0.21552689373493195,0.020313354209065437,2.7072603702545166,0.16769789159297943,-1.2188900709152222,-0.8528445363044739,0.1548219472169876
具体,1.3371500968933105,-3.4277071952819824,-0.33377644419670105,-0.08877461403608322,-1.4900678396224976,0.08051697909832001,1.5155489444732666,1.5179922580718994,0.3779979646205902,-1.4466811418533325,0.07482567429542542,-0.3202381730079651,1.856462001800537,2.532518148422241,0.13340513408184052,0.6389689445495605,1.2792125940322876,0.2558433711528778,0.3851712644100189,-0.757180392742157,-0.33719903230667114,-1.3027347326278687,-1.5323961973190308,0.11777036637067795,0.8998501300811768,-0.9798606634140015,0.26468661427497864,2.230194091796875,1.2168292999267578,-0.7823457717895508,0.15941071510314941,0.2652604281902313,0.06859777867794037,0.7329610586166382,-0.3734505772590637,-0.1794692575931549,-0.09141839295625687,-1.5889613628387451,-1.1978378295898438,-0.6622180938720703,0.23516187071800232,0.8390153050422668,0.4441159665584564,0.35391518473625183,-0.7875715494155884,0.03592047467827797,0.10393335670232773,-0.10914362221956253,0.784537672996521,1.1048195362091064,0.41555893421173096,0.8267883062362671,-0.5062757134437561,-0.7137886881828308,-0.46047401428222656,0.012334683910012245,0.3640047013759613,0.6082409024238586,0.5693549513816833,0.07993456721305847,-1.3644444942474365,-0.4538685977458954,1.3082902431488037,-0.2594723403453827,1.7792457342147827,0.8186656832695007,0.24698923528194427,-0.23733191192150116,-0.9077571630477905,1.2930240631103516,0.6296797394752502,0.7937865257263184,0.9688152074813843,1.613194227218628,0.9028334021568298,-0.6992714405059814,0.7099195122718811,-1.4272409677505493,-1.828441858291626,1.9365243911743164,0.6994571089744568,0.2648853063583374,1.3293633460998535,1.0459506511688232,0.22887301445007324,1.9975162744522095,1.8686614036560059,1.1479549407958984,-1.491276502609253,-0.6606841683387756,0.9665030837059021,0.0825139507651329,0.5638871788978577,0.4429740607738495,0.6413970589637756,-0.5945160388946533,-1.104383945465088,1.5958387851715088,-0.6924523115158081,1.3242427110671997,0.4360349774360657,1.7468366622924805,0.9860898852348328,0.4603881537914276,1.479923129081726,0.8109192848205566,-0.8461761474609375,-0.7681776285171509,-1.0939984321594238,0.0119205042719841,-0.26505160331726074,0.8110412359237671,-0.40307968854904175,-0.11032839864492416,-0.25655877590179443,2.129486083984375,1.7637323141098022,1.109179139137268,-2.193363904953003,0.18132714927196503,-1.022747278213501,-0.030349256470799446,0.159078449010849,-0.524887204170227,1.293418288230896,-1.4976871013641357,1.6529631614685059,-0.3284996449947357,-1.132156252861023,-2.6237759590148926,0.0615387000143528,-0.9479947686195374,1.018567681312561,-0.14546148478984833,-0.6484413146972656,-0.053372930735349655,-0.4491739273071289,-1.0379353761672974,-0.02011805959045887,-0.5656595230102539,-0.2755996584892273,-1.3025025129318237,-0.028554538264870644,1.358190894126892,-0.6267906427383423,0.5694818496704102,-1.5593010187149048,0.10492794215679169,0.5084781050682068,-1.8860975503921509,-0.7189198732376099,-0.651975154876709,0.016935905441641808,0.10536614060401917,0.16044588387012482,0.7300071716308594,-0.44562163949012756,1.4091770648956299,-3.1005890369415283,-0.7005673050880432,0.09207960218191147,-0.24773505330085754,-0.9852363467216492,-0.2520943284034729,1.1798478364944458,1.1287370920181274,0.13927850127220154,0.003943508490920067,1.2241814136505127,0.7516630291938782,-0.1259215623140335,1.8142075538635254,-0.16669707000255585,1.2678601741790771,-0.04314666986465454,-1.4951591491699219,-0.17496275901794434,-0.018862135708332062,1.773157000541687,-0.9848681688308716,-1.6512256860733032,-0.17797152698040009,-2.186286449432373,-0.030768053606152534,0.07477153837680817,0.32074567675590515,-0.7039229869842529,-0.5821262001991272,0.12146097421646118,-0.49826809763908386,2.6158015727996826,-0.14960193634033203,0.7142243981361389,1.296794056892395,-0.7046352624893188,1.148267149925232,0.3365488350391388,0.20558571815490723,-0.9912395477294922,-0.48902514576911926,-1.5493884086608887,1.2585426568984985,0.1928364783525467,1.079980492591858,-1.746450424194336,-0.4976283609867096,1.1106384992599487,-1.6658574342727661,1.3773366212844849,1.784223198890686,-0.2205808311700821,0.70863276720047,-1.1422380208969116,-0.3562006652355194,-0.8107174634933472,-0.1519089788198471,-0.14948134124279022,-0.2733679711818695,-1.2664403915405273,-0.7440250515937805,-1.9158151149749756,0.032766763120889664,0.9522488117218018,-0.03182819113135338,-1.7089868783950806,1.227101445198059,-0.5220038890838623,-1.067038655281067,0.5594507455825806,-1.3716834783554077,-2.1038901805877686,-0.022220704704523087,0.014071572571992874,-0.21961817145347595,0.7220239043235779,-0.8262100219726562,-1.5856616497039795,-1.4556069374084473,0.4370446503162384,-1.1198246479034424,-1.1825705766677856,-0.5035898089408875,-0.2761443555355072,0.7498200535774231,-1.2553733587265015,1.0611004829406738,-0.5721363425254822,-0.2583986222743988,-1.7314046621322632,-0.6820816397666931,-0.6042788624763489,-0.36096739768981934,-0.047097496688365936,0.7740115523338318,-2.004487991333008,-0.2626684606075287,-0.925011157989502,1.3788996934890747,-0.5415695905685425,-2.071876049041748,-0.02467445656657219,-0.876198947429657,-1.5965821743011475,-0.014198840595781803,-0.2186421900987625,1.9064538478851318,1.7136290073394775,2.4930386543273926,-0.6696848273277283,-0.9221973419189453,1.1299991607666016,-0.3658774197101593,-0.6383333206176758,-2.1615419387817383,0.4712817072868347,-0.9980393052101135,1.5706709623336792,0.24454620480537415,-0.015825806185603142,-0.9466022849082947,0.06503869593143463,0.7147527933120728,-1.0638926029205322,2.923821210861206,0.009361919946968555,1.9675949811935425,0.8681461215019226,-0.3883940279483795,-0.27761486172676086,0.875679612159729,-1.2802406549453735,-2.0670862197875977,0.3065679371356964,0.5776162147521973,-0.2956402003765106,-0.16438457369804382,-1.8128554821014404,0.8658486008644104,-0.5153413414955139,1.969852328300476,0.22474074363708496,0.7366366386413574,0.6257687211036682,-0.4518205523490906,0.2878287732601166,-0.48752909898757935,1.3188362121582031,0.04326941817998886,1.1025751829147339,0.23265340924263,0.2833033800125122,1.019229531288147,0.8836438655853271,-0.05914125218987465,-1.2476030588150024,-0.6058292984962463,-0.43793928623199463,0.013489393517374992,-0.37846097350120544,-1.0138758420944214,1.6376374959945679,-0.7525340914726257,-2.168640613555908,-2.622539520263672,-0.22524768114089966,0.117069311439991,-0.8151506781578064,-1.6308599710464478,1.2807540893554688,0.396874338388443,0.5017561316490173,-0.38782069087028503,-1.1231772899627686,0.5366124510765076,0.5418126583099365,-0.34328165650367737,-0.2603307366371155,1.0050568580627441,1.2565386295318604,-0.44018590450286865,0.08250001072883606,-0.15838634967803955,1.3198202848434448,-1.5484310388565063,-0.29018041491508484,0.5490142703056335,-0.1266671121120453,0.15895996987819672,-0.003121346468105912,0.46311962604522705,0.5272696614265442,0.5278472900390625,0.22703494131565094,-0.7278295755386353,0.22888657450675964,0.533706784248352,0.44382643699645996,1.5096055269241333,1.9708137512207031,-0.6872231364250183,-0.32578960061073303,-1.0083788633346558,0.5855813026428223,-0.4271138608455658,1.9328497648239136,-2.325559616088867,0.3763078451156616,1.3598157167434692,-0.32109832763671875,0.018897905945777893,0.27238893508911133,-0.06673195213079453,1.179640293121338,0.8007031679153442,0.30913931131362915,-0.2583068311214447,-0.5110411047935486,-0.39915692806243896,0.6631146669387817,-1.0180163383483887,-0.19523122906684875,1.3271090984344482,0.6958150267601013,1.7477163076400757,0.8834102749824524,0.08440253883600235,1.675147294998169,-1.375740647315979,0.47801673412323,-0.35691869258880615,-1.8572722673416138,-0.30845004320144653,1.2901597023010254,1.4453094005584717,0.30034777522087097,0.7498204112052917,-1.5441399812698364,-0.8217193484306335,0.6242501139640808,-0.14168906211853027
进行,2.6569833755493164,-1.9257547855377197,-0.7632765173912048,-0.015343373641371727,1.4072203636169434,-2.370072364807129,1.5122066736221313,4.216479301452637,-2.258212089538574,0.13560453057289124,0.8401053547859192,0.3729613125324249,-2.046530246734619,-0.3397197127342224,-0.498611718416214,0.9181898832321167,2.2477030754089355,-0.5605921745300293,0.24217280745506287,-0.9983689188957214,-0.8254474401473999,0.9313212633132935,-1.6280452013015747,-1.497793436050415,2.255263090133667,0.34666532278060913,-0.7629741430282593,-1.202236533164978,1.0018366575241089,1.862351894378662,-1.1414974927902222,-0.038179781287908554,0.025915132835507393,0.7222263813018799,0.5044189095497131,-0.20936588943004608,1.531840443611145,0.610988199710846,-0.4855017066001892,1.4578046798706055,0.41042572259902954,0.0700063705444336,-0.5930109620094299,0.06400160491466522,-0.100323885679245,-0.019402289763092995,1.1749863624572754,0.4346063435077667,-0.36630213260650635,1.3474925756454468,-0.06501422077417374,2.534497022628784,0.39986512064933777,-2.1068649291992188,-1.7615835666656494,-2.2775301933288574,0.6671894192695618,0.06733045727014542,0.5646579265594482,-2.090216636657715,-0.7034592032432556,-0.42734771966934204,0.7960559725761414,0.08314389735460281,0.5600831508636475,-2.5623955726623535,-0.11045053601264954,0.3036915361881256,1.4916865825653076,1.2532739639282227,0.1786544919013977,-0.30122360587120056,1.804242491722107,-0.4611080586910248,-0.9924236536026001,-1.4355826377868652,-1.478938102722168,-2.4765625,1.728482961654663,0.5806715488433838,0.2509010434150696,-0.7241893410682678,2.0967516899108887,0.2977980971336365,-1.2988556623458862,0.8051355481147766,1.9991313219070435,4.40105676651001,0.036773812025785446,-0.3954838812351227,-0.7890945672988892,-0.22947733104228973,-1.0037437677383423,0.8751603364944458,-0.3788163959980011,-2.244966745376587,0.09761969745159149,-1.2795467376708984,0.28621843457221985,-0.1207784041762352,0.4234045147895813,0.2019813358783722,2.4497458934783936,-1.6874431371688843,-0.734600305557251,0.08095178753137589,-1.9502264261245728,0.35448208451271057,-1.5470824241638184,0.59730464220047,-0.25540339946746826,-3.244670867919922,0.6871554255485535,-0.6576259136199951,0.536780595779419,-0.12208064645528793,-0.3484567403793335,-0.4627543091773987,1.3063457012176514,-0.6172292828559875,-0.3377987742424011,-0.6153635382652283,0.19512099027633667,0.5823028087615967,0.23666130006313324,0.2541336417198181,-1.6984179019927979,0.5532450675964355,-0.7438210844993591,-1.112442135810852,2.283458709716797,-1.7292160987854004,0.17327263951301575,-1.4057204723358154,0.8590787649154663,0.1710745394229889,-1.308134913444519,-2.559285879135132,-2.3429884910583496,1.244817852973938,-1.504451036453247,0.5051552653312683,-0.02247300185263157,-0.8162401914596558,-0.3355434238910675,0.21040569245815277,1.1572601795196533,0.20430023968219757,2.2195358276367188,-0.7508651614189148,-1.4733591079711914,-0.20246408879756927,-0.918938934803009,-1.8516912460327148,1.7928062677383423,1.999218463897705,0.7602003216743469,-0.11665023118257523,0.11559230834245682,0.5825704336166382,0.4959164559841156,-0.8807777762413025,0.4890288710594177,-0.5320284366607666,-1.6098042726516724,-1.856373906135559,0.6392560005187988,-1.004233479499817,0.5616222620010376,-0.2552204728126526,0.9593102931976318,0.345124214887619,2.924389123916626,1.1339423656463623,-0.46127599477767944,-0.4788306653499603,-1.1064327955245972,-1.513823390007019,-0.0046277218498289585,0.1788530945777893,-1.7344053983688354,0.5614121556282043,-1.171679973602295,0.9024938941001892,-0.06307901442050934,-0.9215053915977478,-0.4131597876548767,-1.3682280778884888,-1.2075897455215454,-1.8129738569259644,-0.6151871085166931,-0.7795612812042236,1.3026094436645508,-0.29129981994628906,1.5219897031784058,1.2265828847885132,0.9291869401931763,0.1678950935602188,-0.3578942120075226,-0.3153221607208252,-1.3464910984039307,3.461080551147461,0.6941289901733398,-0.379489928483963,0.5075088739395142,-1.1338013410568237,-0.9039427638053894,-0.5529356598854065,1.2316462993621826,-0.25585266947746277,1.023298978805542,1.6285364627838135,-0.8335420489311218,0.49537983536720276,0.9551500678062439,-0.04183695465326309,-0.056626271456480026,0.258895605802536,-0.8469488024711609,-1.9678364992141724,0.7964195609092712,0.23862241208553314,-0.08284661173820496,-1.6650313138961792,0.5539371967315674,-0.6170651912689209,-0.860420286655426,-0.6003802418708801,0.8004150390625,-2.378973960876465,0.41004887223243713,-0.4236079454421997,1.5857113599777222,-0.3590331971645355,-2.1238503456115723,-0.5125866532325745,-0.32867640256881714,-1.1055489778518677,0.13550125062465668,0.23647376894950867,0.16539378464221954,-0.3834676742553711,0.3890548348426819,-0.293228417634964,0.7587360739707947,1.4331793785095215,-0.519242525100708,0.48022592067718506,-0.3808976113796234,1.343822717666626,0.6853079795837402,1.099563479423523,0.44559022784233093,-0.43043169379234314,0.8746079802513123,3.0120275020599365,-0.3241422176361084,1.3929933309555054,-0.07083195447921753,-0.8391831517219543,-1.2846505641937256,0.47477301955223083,-2.294501304626465,-0.8706566095352173,-1.2978219985961914,-0.49147310853004456,1.9210612773895264,-0.10899312794208527,-0.22100363671779633,-1.485316276550293,-0.054896365851163864,-0.25668779015541077,-1.0301618576049805,-0.012363323010504246,1.345346212387085,-1.1088950634002686,0.06425993144512177,-2.0757923126220703,-0.4774837791919708,-2.543511390686035,-0.7125265598297119,0.5255140662193298,-0.019082164391875267,-0.3311702609062195,1.1578235626220703,-0.9328629970550537,1.6337673664093018,0.14644522964954376,0.31468597054481506,-0.2261759340763092,-2.3125948905944824,0.5458963513374329,1.3590960502624512,0.915847659111023,0.3231734037399292,-1.1183733940124512,1.0314216613769531,-0.9983487725257874,-1.6763747930526733,2.7871811389923096,1.077194094657898,-0.16088822484016418,-0.7022913098335266,0.21990424394607544,-0.2529318928718567,0.9645320773124695,-2.742020845413208,-0.44908347725868225,-1.4373215436935425,0.927532970905304,0.5065193772315979,2.1462199687957764,0.6700388789176941,-2.195359468460083,-2.030083179473877,-1.1611111164093018,-1.9086416959762573,-0.014912155456840992,0.4727010130882263,-0.20403335988521576,-0.5445083379745483,-1.356195330619812,-1.092199683189392,-2.704533100128174,-0.5767478346824646,-0.10946512222290039,-1.9101860523223877,0.7498850226402283,1.9783201217651367,1.1891860961914062,-0.06469026952981949,-2.4726831912994385,-0.3101312518119812,0.5483265519142151,-1.5146740674972534,1.23279869556427,-0.949167013168335,1.7293871641159058,1.8846182823181152,-0.6026503443717957,0.7687239646911621,-1.4124857187271118,1.3409947156906128,-0.8921714425086975,0.18034686148166656,0.3814554810523987,-1.3573224544525146,-0.42827847599983215,0.7591450214385986,-1.1055099964141846,-0.11365898698568344,1.6246087551116943,-0.25670844316482544,0.548467218875885,-1.1996153593063354,1.5470985174179077,1.7466812133789062,0.8712513446807861,2.606990337371826,1.0411139726638794,0.2109093815088272,-0.25860217213630676,-0.4546565115451813,0.5709771513938904,0.3339371383190155,-1.6828967332839966,0.6645275950431824,0.4438977837562561,0.6310458779335022,2.547025203704834,-0.002672720467671752,0.7986793518066406,0.3643045723438263,-0.23771461844444275,0.3029356598854065,2.873082399368286,-0.3829468786716461,1.1036649942398071,-0.012835877016186714,-0.8743994235992432,0.676643431186676,-1.596052646636963,-0.7281612157821655,0.08843204379081726,1.0450071096420288,-1.606518268585205,0.09955283254384995,0.23437657952308655,-0.7267275452613831,-1.7066998481750488,-1.2342479228973389,1.2456153631210327,0.6161280870437622,-0.12015721201896667,-0.18542177975177765,-1.9287240505218506,-2.9117751121520996,0.17291831970214844,2.846527099609375,1.1108906269073486
应该,0.09233809262514114,-0.9846729636192322,-0.18921086192131042,-0.6769409775733948,0.6152620315551758,-1.9190435409545898,-0.20680895447731018,-1.030651569366455,-0.4540175795555115,-1.3719066381454468,-0.1393844187259674,-1.2144685983657837,0.6830726861953735,0.7579237222671509,-1.023385763168335,-0.4574905335903168,-0.16474999487400055,-0.3410419523715973,1.4901262521743774,-1.4462875127792358,-0.3986402451992035,-1.5345571041107178,-1.4002898931503296,-0.6074223518371582,0.32581475377082825,-1.2656981945037842,-0.4186977446079254,1.1705119609832764,1.0016433000564575,-0.8725694417953491,1.4163122177124023,0.811896562576294,0.5333901047706604,0.7965679168701172,-0.2782096564769745,0.8335358500480652,-0.5061089396476746,-0.6262540221214294,-0.34032323956489563,-0.16991889476776123,-0.863770067691803,-0.10186679661273956,1.9024134874343872,-0.99404376745224,0.007814052514731884,-0.5060458183288574,0.7552849054336548,-0.5951632857322693,0.9318311214447021,1.1443253755569458,0.7200406193733215,1.1301053762435913,-0.22278113663196564,0.18180479109287262,-0.996147632598877,-1.582388997077942,0.6996080279350281,1.8919384479522705,1.528685450553894,0.34688374400138855,-0.04398529604077339,-0.6559662222862244,1.1255605220794678,0.9377338886260986,0.5376904606819153,-0.9744262099266052,-0.8675646781921387,-0.7619031071662903,0.20409175753593445,0.04815145581960678,-0.013752985745668411,-0.9006614089012146,0.885500431060791,0.4379626512527466,1.689888834953308,-1.8440701961517334,-0.9310891628265381,0.8882902264595032,0.12752236425876617,0.4350458085536957,0.21668800711631775,0.4902856647968292,1.554941177368164,0.9102035760879517,-1.050214409828186,0.8821790814399719,0.6796801686286926,0.7907859683036804,-0.40288618206977844,0.29080554842948914,0.14951454102993011,0.4231310486793518,0.6195962429046631,0.2823641300201416,0.7671460509300232,-1.7647390365600586,0.5830851793289185,3.0061161518096924,-1.6152044534683228,1.659703254699707,-0.051446497440338135,1.4905495643615723,1.0419130325317383,0.6372878551483154,1.0070101022720337,0.49455317854881287,-0.4655653238296509,-0.2914503216743469,-1.0195122957229614,-1.1376804113388062,1.3495887517929077,1.4127440452575684,-0.5726951360702515,0.8835022449493408,0.2642616629600525,-0.2612886130809784,1.246492862701416,0.33426961302757263,0.612601101398468,0.14028815925121307,-2.25657320022583,0.26361486315727234,-0.14700672030448914,1.0210440158843994,-1.5168192386627197,-1.9875787496566772,0.12171228229999542,-0.46164873242378235,-0.30370786786079407,-0.9218342304229736,0.2910579442977905,-0.37557950615882874,0.0692037045955658,-0.20479142665863037,-0.9258190989494324,1.201629638671875,0.46077367663383484,0.9604082107543945,0.8311735987663269,0.1519896686077118,0.3787563443183899,-0.5635949969291687,-1.1677663326263428,1.3893593549728394,-0.020008571445941925,1.1278648376464844,0.5033961534500122,2.4392404556274414,0.9602165818214417,-0.9431501626968384,-1.0046736001968384,0.581326961517334,-0.7415606379508972,0.25488293170928955,0.1663113832473755,-2.341815233230591,-0.34860897064208984,0.37414854764938354,0.15757808089256287,1.416123867034912,0.6747540235519409,-0.007228013593703508,0.16607515513896942,-0.7157007455825806,-0.7829798460006714,1.1087632179260254,1.1687839031219482,0.553100049495697,0.012432670220732689,1.64774489402771,-0.21022816002368927,0.3952953815460205,-0.6286412477493286,1.011299967765808,0.6144189238548279,-1.876631259918213,-0.032807573676109314,-0.5252528786659241,0.43165069818496704,1.8147926330566406,0.33375632762908936,0.6366628408432007,-0.812995195388794,1.0505447387695312,-1.0728962421417236,0.37919360399246216,-0.25981923937797546,1.1613819599151611,-0.8338770866394043,-0.1776612102985382,1.1483780145645142,-1.1874834299087524,1.2879284620285034,0.2898232936859131,-0.043086618185043335,-0.9216423034667969,-0.3146320879459381,-0.7912566661834717,0.131870299577713,-0.6843071579933167,-1.287696123123169,0.5480709075927734,-0.9451428651809692,1.1840894222259521,-0.8917176723480225,0.18553844094276428,0.6627228856086731,-1.765742301940918,0.6237932443618774,0.7637723684310913,-0.2185201495885849,2.172358989715576,-1.2643208503723145,0.6431148052215576,0.6256975531578064,-1.003989815711975,-0.5045756697654724,-0.9473134875297546,-0.5270593166351318,-0.8700178861618042,1.2747418880462646,0.7896870970726013,1.1600581407546997,-0.8751548528671265,-0.5621598958969116,0.53800368309021,-1.0379855632781982,-0.27828457951545715,0.6950846314430237,0.6288248300552368,0.5932910442352295,-0.5975600481033325,-0.22320641577243805,0.5785433650016785,-1.339233160018921,-0.3505457639694214,0.7959271669387817,-0.11537006497383118,-0.8786831498146057,0.9114871621131897,0.505620539188385,0.6418787837028503,0.8504427671432495,0.8181366324424744,-1.2575609683990479,1.455299735069275,-1.65531587600708,1.1507834196090698,-0.44006428122520447,0.8036936521530151,-0.36305445432662964,0.23857471346855164,-0.7073902487754822,-0.26458555459976196,-0.024094603955745697,-1.0932471752166748,0.234420508146286,-0.3770904839038849,1.025070071220398,-1.4143048524856567,-0.10024354606866837,-0.9513878226280212,-0.38556694984436035,0.6553007960319519,1.5314067602157593,-0.4489899277687073,1.0583351850509644,0.7509371638298035,-0.20958968997001648,-0.8237401843070984,-1.1090108156204224,-1.1114956140518188,-0.5200448632240295,-0.31008797883987427,-0.9438957571983337,-0.18475177884101868,0.16513711214065552,-0.5142126083374023,-0.643868625164032,-1.023253321647644,-1.5117623805999756,1.6592090129852295,0.2268400937318802,0.12001355737447739,-0.03840940445661545,1.6460762023925781,2.0717110633850098,0.565610408782959,-1.006351113319397,0.40984484553337097,-1.8189877271652222,-1.495100736618042,0.0321558378636837,1.2971678972244263,-1.6227800846099854,2.11769962310791,0.2769536077976227,-0.5178190469741821,0.7392811179161072,-0.09097154438495636,-1.332931637763977,-0.1791527420282364,0.19971154630184174,-0.600156843662262,0.06864045560359955,0.39283281564712524,0.2970866560935974,-0.46294012665748596,1.2416502237319946,-0.10540164262056351,-1.2610411643981934,0.25113528966903687,-0.41550639271736145,0.16135454177856445,-0.37713462114334106,-0.7695460915565491,-0.6707598567008972,0.05888285115361214,-1.1685227155685425,-1.0615707635879517,1.9618735313415527,-1.4549472332000732,-0.2672979533672333,-2.111095905303955,-0.40698668360710144,-1.222170114517212,-0.7547538876533508,-1.9017794132232666,0.6992059350013733,-2.44047212600708,-0.7614958882331848,1.4173985719680786,-0.27203744649887085,-0.8204149007797241,-2.35050630569458,-0.7855427265167236,-0.8713844418525696,-0.7259334921836853,1.1968631744384766,-0.3654237985610962,-2.1975159645080566,-0.700890302658081,1.5308984518051147,-0.3161812722682953,1.894972562789917,2.0628554821014404,-0.3483302593231201,0.2311498522758484,-1.1416748762130737,0.40275606513023376,0.2494698315858841,0.9300962090492249,-0.45944473147392273,-0.8298023343086243,-0.7845074534416199,0.757738471031189,0.048861902207136154,1.1750065088272095,0.9996235370635986,1.3594640493392944,-1.1042975187301636,-0.5651281476020813,-0.13563750684261322,-2.6799814701080322,-0.15063461661338806,0.7786487936973572,-0.12496528774499893,-0.33821600675582886,0.4674735367298126,1.3306498527526855,-1.1432545185089111,-0.9986382126808167,-0.416513055562973,0.4837634265422821,0.6997799277305603,0.17354637384414673,0.06885474920272827,0.2742486298084259,-0.46791207790374756,0.5016452074050903,0.532590925693512,-1.3002406358718872,0.2609049081802368,-1.8109203577041626,0.6856502294540405,0.8069503307342529,1.4863636493682861,-0.2684560716152191,-0.9578027129173279,1.4153016805648804,-0.4679208993911743,-0.14514634013175964,-0.220041885972023,-0.7290560007095337,-0.5110357403755188,-0.5925278067588806,-1.2988035678863525,0.26611244678497314,0.6413723230361938,2.5148966312408447
