word,0,1,2,3,4,5,6,7,8,9,10,11,12,13,14,15,16,17,18,19,20,21,22,23,24,25,26,27,28,29,30,31,32,33,34,35,36,37,38,39,40,41,42,43,44,45,46,47,48,49,50,51,52,53,54,55,56,57,58,59,60,61,62,63,64,65,66,67,68,69,70,71,72,73,74,75,76,77,78,79,80,81,82,83,84,85,86,87,88,89,90,91,92,93,94,95,96,97,98,99,100,101,102,103,104,105,106,107,108,109,110,111,112,113,114,115,116,117,118,119,120,121,122,123,124,125,126,127,128,129,130,131,132,133,134,135,136,137,138,139,140,141,142,143,144,145,146,147,148,149,150,151,152,153,154,155,156,157,158,159,160,161,162,163,164,165,166,167,168,169,170,171,172,173,174,175,176,177,178,179,180,181,182,183,184,185,186,187,188,189,190,191,192,193,194,195,196,197,198,199,200,201,202,203,204,205,206,207,208,209,210,211,212,213,214,215,216,217,218,219,220,221,222,223,224,225,226,227,228,229,230,231,232,233,234,235,236,237,238,239,240,241,242,243,244,245,246,247,248,249,250,251,252,253,254,255,256,257,258,259,260,261,262,263,264,265,266,267,268,269,270,271,272,273,274,275,276,277,278,279,280,281,282,283,284,285,286,287,288,289,290,291,292,293,294,295,296,297,298,299,300,301,302,303,304,305,306,307,308,309,310,311,312,313,314,315,316,317,318,319,320,321,322,323,324,325,326,327,328,329,330,331,332,333,334,335,336,337,338,339,340,341,342,343,344,345,346,347,348,349,350,351,352,353,354,355,356,357,358,359,360,361,362,363,364,365,366,367,368,369,370,371,372,373,374,375,376,377,378,379,380,381,382,383,384,385,386,387,388,389,390,391,392,393,394,395,396,397,398,399
心理学,-1.1069176197052002,-0.11689350008964539,-0.920056164264679,2.297485828399658,0.51085364818573,-0.5614707469940186,-0.34997642040252686,0.9369369149208069,0.14851801097393036,-0.046970464289188385,-0.13056042790412903,-0.6049113869667053,0.04320480301976204,-0.7007737755775452,0.3112984001636505,-0.3646707832813263,1.1308541297912598,-0.058082789182662964,-0.5760489106178284,0.3193499445915222,0.44575977325439453,0.2540440559387207,0.19721455872058868,-1.069874882698059,0.5022242069244385,0.9979070425033569,-0.2694946229457855,0.16274826228618622,-1.183875560760498,0.6295090317726135,-0.6514202952384949,-1.1063332557678223,0.513768196105957,-0.7561860680580139,0.4661271572113037,-0.40029439330101013,0.8121681809425354,-0.462809294462204,-0.5974711775779724,0.7355349659919739,-0.8314793705940247,-0.2855798006057739,1.3679628372192383,0.047951020300388336,-0.4426407516002655,0.0013541518710553646,-0.8656787872314453,-1.14522123336792,1.3152467012405396,0.030042150989174843,1.0024484395980835,-0.6039505004882812,-0.895470917224884,0.9383947253227234,0.20896384119987488,0.26559439301490784,-0.6635149717330933,0.5624645948410034,0.7219651341438293,0.5383901000022888,-0.3432201147079468,0.19696880877017975,0.5547002553939819,0.18116141855716705,-0.49292275309562683,-0.1974812000989914,0.32185035943984985,-0.5972728133201599,0.39031973481178284,-0.88950115442276,-0.6398199796676636,-0.15860728919506073,0.032257042825222015,0.17250671982765198,0.377018004655838,0.328634113073349,0.18799078464508057,-0.3442285358905792,-0.1601269245147705,-0.3859558701515198,0.05158344283699989,-0.9286543130874634,-2.176748037338257,0.4055270552635193,-0.25063997507095337,-0.3708157241344452,-0.7301440834999084,0.7898038625717163,1.27840256690979,-0.5727128386497498,-0.33038926124572754,-0.8906241655349731,0.07857156544923782,-0.41393762826919556,1.0080585479736328,-0.07083805650472641,-0.22865380346775055,-0.47733309864997864,0.7175110578536987,0.6523923873901367,-0.5665768384933472,-0.5693472623825073,-0.8444891571998596,0.32415714859962463,-0.08180351555347443,-0.20187291502952576,-0.7750042080879211,0.23932281136512756,-0.5318006873130798,-0.03459860384464264,-0.43293195962905884,0.011931907385587692,0.24401278793811798,0.28663313388824463,1.013787865638733,0.11830008774995804,0.42608341574668884,-1.2520490884780884,-0.8237183690071106,0.46896085143089294,-0.9989994764328003,0.48730283975601196,0.2758047580718994,-0.015305721201002598,1.647459626197815,-0.42610475420951843,-0.2206299602985382,-0.6011975407600403,0.24770590662956238,-0.5659543871879578,0.435676246881485,0.2570182979106903,-0.653489887714386,-1.0908865928649902,0.44792935252189636,0.3728298544883728,-0.843496561050415,-0.9999495148658752,0.11996600031852722,-0.7016087174415588,-0.7511458992958069,0.6181880831718445,-0.7883166074752808,-0.6516988277435303,0.2209957391023636,0.35348808765411377,-0.8563553690910339,0.13779552280902863,-0.7731698751449585,-1.1156632900238037,-0.7855041027069092,0.4138147532939911,0.39613571763038635,1.6853240728378296,-0.8437909483909607,0.4745224118232727,0.6693664789199829,-1.1567269563674927,0.9594866633415222,0.008723380975425243,-0.4474322199821472,0.3261754810810089,-0.2867371439933777,-0.024626895785331726,1.0200364589691162,-0.02513410523533821,-0.4308414161205292,-0.6294317841529846,-0.7049461007118225,0.41294416785240173,-0.1637977957725525,0.6455468535423279,-1.3884522914886475,-0.5481793880462646,-1.3358856439590454,-0.07794796675443649,0.7150440216064453,-0.37863001227378845,0.7008324265480042,-0.5229578614234924,0.23776128888130188,-0.6167311668395996,-1.2026523351669312,0.22383640706539154,-0.5596825480461121,0.9630486369132996,0.4307005703449249,0.4131704568862915,-0.8780854344367981,-0.13892962038516998,-0.7063003778457642,0.3752717971801758,-0.4665928781032562,0.24784116446971893,0.6430477499961853,0.178534597158432,0.13827647268772125,-0.371647447347641,0.3310610055923462,0.05084015801548958,1.1332000494003296,0.05114933103322983,0.10231249779462814,0.6730890870094299,0.5418936014175415,0.06309472769498825,0.4927605986595154,-0.40147337317466736,1.3364812135696411,-0.5861735939979553,0.833147406578064,-0.846817135810852,0.41669902205467224,0.6673182845115662,-0.06580409407615662,0.4546772539615631,-0.25532883405685425,-0.8245877623558044,0.27759602665901184,0.6145724058151245,-0.8656978011131287,0.30148887634277344,-0.7733157873153687,0.9068822860717773,0.8754008412361145,-0.2110748589038849,0.37926140427589417,0.05032952502369881,-0.7620238065719604,-0.7269691824913025,-0.8687769770622253,1.1432952880859375,-0.21171852946281433,0.21527889370918274,-1.4120171070098877,-0.18784138560295105,-0.2574632465839386,0.9011181592941284,-0.04260309785604477,-0.0696871355175972,-0.765238881111145,-0.42890119552612305,-0.19014279544353485,0.9050759673118591,0.8914754390716553,0.3517129719257355,0.014887867495417595,-0.6503490805625916,1.2694154977798462,0.04472159221768379,-0.07219910621643066,0.013340297155082226,-0.23342230916023254,0.017415650188922882,0.3059785068035126,0.6191632151603699,-1.200884461402893,-0.46465012431144714,-1.2474015951156616,1.4797568321228027,-0.3159326910972595,-0.9166091084480286,-0.11123599112033844,1.3296597003936768,0.1481371819972992,-0.29928871989250183,0.37646928429603577,-0.3776524066925049,0.5489649176597595,-0.282674640417099,-0.04466073960065842,0.1370382159948349,0.008305545896291733,0.9726364612579346,-0.1348220258951187,0.43483003973960876,0.7250239253044128,0.7542997002601624,0.2701267898082733,-0.8713306784629822,-0.5681983828544617,-0.566267192363739,-0.08759720623493195,-0.6581694483757019,-0.3587661385536194,1.2659674882888794,0.7125073075294495,0.7423151135444641,-0.2208660989999771,0.776283323764801,2.072026491165161,-1.7487893104553223,0.56818026304245,0.6149511337280273,0.7318481206893921,-0.530266523361206,-0.8706356287002563,0.4116230607032776,0.25692975521087646,-0.11674938350915909,-0.7048676609992981,1.044049859046936,0.14195473492145538,-0.16808316111564636,0.24230001866817474,-1.8159204721450806,-1.216303825378418,-0.8044167160987854,0.4014240801334381,0.6154928207397461,-0.19865229725837708,0.5710822343826294,0.013562006875872612,-0.8349584341049194,1.3526028394699097,-0.1568325310945511,0.4064549207687378,1.2433644533157349,-0.2869962453842163,0.013188006356358528,-0.4645041227340698,-1.0383152961730957,0.286710262298584,-0.1093103364109993,0.03142901137471199,0.42572641372680664,0.6982088088989258,-0.025729870423674583,-0.4503621459007263,-0.05408961698412895,-0.3275418281555176,-0.5081707239151001,-0.950686514377594,-1.4911555051803589,0.8675923943519592,-0.8642433881759644,0.5895909070968628,0.8049769997596741,-1.3716069459915161,-0.43703779578208923,0.5306358933448792,1.1790374517440796,0.379078209400177,-0.20966504514217377,-1.1222254037857056,-0.2353387027978897,-0.9252748489379883,-0.42528507113456726,-0.42757606506347656,-0.07231711596250534,-0.6505689024925232,-1.7580658197402954,-0.07302721589803696,0.18264774978160858,1.0544430017471313,0.07134439796209335,-0.2746206820011139,-0.7345982193946838,1.250744342803955,0.31305041909217834,0.5265100002288818,-1.64533269405365,-1.474624752998352,-0.0764511302113533,0.2379986196756363,0.5465463995933533,0.3188539743423462,0.4026546776294708,0.9836848378181458,0.24180206656455994,0.46110665798187256,-0.595586359500885,0.24892009794712067,1.016511082649231,-0.23926573991775513,0.6972700357437134,-0.07536590099334717,1.1221791505813599,-0.6113904714584351,0.49783194065093994,0.038266681134700775,0.7400292754173279,0.8074197769165039,-1.4116489887237549,0.2328871190547943,0.6425882577896118,2.3757786750793457,0.11098264902830124,0.5590575933456421,0.1479465365409851,-0.23644481599330902,0.7842061519622803,-0.65554279088974,-0.01995202526450157,-0.08774703741073608,0.8167008757591248,-0.4363853931427002,0.8042916059494019,-0.5618659257888794,-1.4564752578735352
情况,1.066526174545288,-0.372403621673584,-0.6091024279594421,-0.39864885807037354,0.16295768320560455,-0.45869773626327515,-0.28132766485214233,-1.0024757385253906,0.06796959787607193,0.6360034942626953,0.41710877418518066,0.1327751725912094,1.0587321519851685,1.0465419292449951,0.7159628868103027,-0.4216437339782715,0.26181066036224365,0.7272719144821167,1.8351939916610718,-0.5842965245246887,0.02595837600529194,-0.7144244909286499,0.9642619490623474,1.8925576210021973,0.3985406458377838,-0.08718065917491913,0.10436446964740753,0.8031760454177856,0.07882622629404068,-0.42870286107063293,0.351328045129776,0.27444061636924744,-0.750889241695404,-0.7481245994567871,0.1089753806591034,0.27905675768852234,-0.5025176405906677,-0.45019257068634033,1.0130058526992798,0.596019983291626,1.2488168478012085,0.13615331053733826,0.5162816047668457,-1.4563770294189453,-0.7880278825759888,-0.9150652885437012,-0.7325676083564758,-2.2408792972564697,0.5475139021873474,0.24155576527118683,0.8169170022010803,1.0064246654510498,0.30589085817337036,-0.2054326981306076,0.3048240840435028,0.09809906780719757,0.07773779332637787,-0.9016754627227783,-0.7004402279853821,1.7058311700820923,0.7289031147956848,0.06352032721042633,-0.5348511934280396,-0.49545878171920776,-1.0893486738204956,-0.8343616724014282,1.3760924339294434,-0.9061328172683716,-0.8526390194892883,0.13134035468101501,0.3868687152862549,0.047864869236946106,0.033415231853723526,-0.08049100637435913,0.11111460626125336,1.6747913360595703,0.6661700010299683,-0.8358891010284424,0.3734199106693268,0.9242649078369141,-0.021700438112020493,-0.3909662067890167,-0.054930977523326874,0.05538430064916611,-0.5746694207191467,-1.9984651803970337,0.7736004590988159,-0.9072281122207642,0.36731278896331787,-0.19480782747268677,-0.1335117071866989,-0.41227686405181885,-0.23091141879558563,-1.0448575019836426,0.09230789542198181,-0.5904484987258911,0.6285360455513,-0.23702774941921234,0.9568418264389038,-0.2851731777191162,0.044180553406476974,-0.6638827919960022,-0.5407900214195251,0.6308686137199402,-0.534292995929718,-0.3804514706134796,-0.2383422702550888,-0.8029895424842834,-0.20624664425849915,-0.7659850120544434,-0.4570535719394684,-0.260506808757782,0.5656964778900146,0.13184690475463867,0.472473680973053,-0.36407262086868286,0.32967644929885864,-1.1949762105941772,0.14248403906822205,-0.509248673915863,-0.002826561452820897,-0.11614340543746948,1.1866710186004639,-0.4622001647949219,0.3769816756248474,-1.056038498878479,-0.4948587417602539,-0.515205442905426,0.5461503267288208,0.4683071970939636,-1.104297399520874,0.3916817605495453,-0.5141569972038269,0.2765817940235138,0.22827081382274628,0.7809014320373535,-0.2856590151786804,0.40769970417022705,-0.1432044506072998,-0.31995096802711487,1.1015431880950928,0.9659067392349243,0.030171971768140793,0.8542731404304504,-0.03962602838873863,-1.7205826044082642,0.13521544635295868,0.07802937924861908,0.284894198179245,-0.2563551068305969,-1.8481909036636353,0.5337054133415222,-1.4083603620529175,-0.6499449014663696,-0.3497844934463501,0.7317185997962952,0.8636546730995178,-0.8252089023590088,1.0484373569488525,-0.7572051882743835,-0.4492318034172058,0.8571522831916809,-0.12482289969921112,0.506655216217041,-0.9509540796279907,-1.0732282400131226,0.4543812870979309,0.43327459692955017,-0.9820213317871094,-0.023130882531404495,-0.4898083806037903,-0.7532570362091064,-0.9464483261108398,1.0323398113250732,0.5124326944351196,0.47843021154403687,0.5098876357078552,-0.5109856128692627,1.081825852394104,-0.9401758909225464,-0.5296497941017151,-0.8396869897842407,-0.15408751368522644,-0.18715137243270874,1.6364572048187256,-0.37913328409194946,1.8552570343017578,-0.062064286321401596,-0.3989966809749603,-0.2968071699142456,1.5476151704788208,-0.9373889565467834,0.3513525426387787,-0.08661554753780365,0.06383562833070755,0.8862711191177368,-0.28054630756378174,0.4809887409210205,-0.6616222262382507,0.6337320804595947,-0.4371042251586914,0.6682041883468628,0.35746636986732483,-1.656266450881958,0.7376771569252014,0.18764568865299225,0.6987434029579163,1.2873889207839966,-0.28147274255752563,-0.8061749935150146,0.14010366797447205,-0.5093734264373779,-0.24891160428524017,0.2961592674255371,0.7074140906333923,0.4296274483203888,0.07862675935029984,0.3660871386528015,-0.4462556838989258,-0.2571001648902893,-0.19063515961170197,-0.32783421874046326,0.6342843174934387,1.6038639545440674,0.7087869644165039,0.3877604007720947,0.7706120610237122,0.13693398237228394,0.12187515944242477,0.1926407814025879,-0.4165710508823395,0.5859009027481079,0.8203305602073669,0.33353951573371887,-0.6477118730545044,0.07494527846574783,-1.7367432117462158,-0.28556662797927856,0.271346777677536,1.374380350112915,-0.8020030856132507,0.4256019592285156,0.4637196362018585,1.5844804048538208,-0.9991039633750916,0.004408581182360649,0.3329007625579834,0.8230642080307007,0.27738189697265625,0.6361413598060608,0.5693959593772888,0.04314548894762993,1.7774479389190674,-0.049568627029657364,0.8244934678077698,1.7355610132217407,0.36688166856765747,0.4014982581138611,-1.858494758605957,0.48805853724479675,0.9199540615081787,-0.40201249718666077,0.17461873590946198,-0.21025791764259338,0.9691379070281982,-0.10219033062458038,0.260435551404953,-1.417813777923584,-0.4400600790977478,-0.4619264006614685,-1.444728136062622,0.043377045542001724,-0.15269242227077484,0.015881886705756187,-0.34191378951072693,0.3900858163833618,-1.9541103839874268,0.25801464915275574,0.3780871033668518,-2.0066514015197754,-0.4238818287849426,-0.23504334688186646,1.7163532972335815,-0.15074513852596283,0.01114301010966301,0.3956904113292694,-0.2510297894477844,-0.6229584217071533,0.6994333863258362,0.3612646460533142,0.3474425673484802,-0.0793495774269104,0.5658639073371887,0.1407509744167328,-0.10536586493253708,0.3773094415664673,-0.1943860501050949,-0.2812930941581726,1.1958847045898438,-0.467771977186203,0.6374793648719788,-0.08488082140684128,-0.8822954297065735,0.007414388004690409,-0.753218412399292,0.9053980708122253,-0.8336844444274902,0.2613096535205841,-0.7902529835700989,-0.022545835003256798,-0.8481208682060242,-0.7920998334884644,0.01275970134884119,-0.643822968006134,-0.9279627799987793,0.3208450376987457,0.6146218180656433,-0.7574260830879211,0.9097932577133179,-0.33814650774002075,0.34062469005584717,0.4746299684047699,-1.0171226263046265,-0.2696966230869293,0.742072343826294,0.5271185040473938,0.03559660539031029,-0.5466042757034302,0.05979173630475998,0.5287775993347168,1.563053846359253,-0.411668062210083,1.2865211963653564,-0.08482018858194351,0.09472300112247467,-0.6357926726341248,0.4946461319923401,0.10141223669052124,1.1776556968688965,-0.9037368297576904,-0.39834922552108765,0.026994314044713974,0.18654097616672516,0.10004594177007675,-0.5294145941734314,-0.9417189955711365,-0.423490971326828,1.713128924369812,0.24225662648677826,-1.2579667568206787,-0.26114991307258606,0.13474217057228088,-0.2950681447982788,-0.1976390928030014,0.41670894622802734,-0.1646072119474411,-0.19664283096790314,-0.8602319359779358,-0.005656200461089611,0.1431380957365036,1.0131667852401733,-0.3005131483078003,-0.7754330039024353,-0.29744237661361694,-0.32289984822273254,1.0947507619857788,-0.3384535014629364,-0.11723034828901291,-0.06260576844215393,-0.967651903629303,-0.19310376048088074,-0.5266845226287842,0.8461551666259766,-0.8618393540382385,0.2957093119621277,0.5855875611305237,-0.06069440394639969,1.721267819404602,1.3465137481689453,0.6630192399024963,-0.6582444906234741,-0.10043700039386749,-0.6502902507781982,-0.4222763180732727,0.500298798084259,-0.296058714389801,-0.38223788142204285,0.31139516830444336,0.46006298065185547,0.8470189571380615,0.5726152658462524,-0.6812298893928528,-0.3050340414047241,1.159872055053711,-0.33171647787094116,0.3584696352481842,0.3065043091773987,-0.6070044636726379,-0.2230815887451172,0.007565454114228487
货币,-0.29815351963043213,0.8667014837265015,-0.24424956738948822,-0.13986621797084808,-0.22887204587459564,-0.10830410569906235,-0.42195451259613037,-0.7739182114601135,-0.6141995787620544,-0.983016312122345,0.14297102391719818,-0.4699568748474121,0.8905773162841797,0.7884498238563538,-0.9340328574180603,0.712877631187439,0.3347032070159912,0.29793766140937805,1.3846253156661987,-0.15377672016620636,-1.061633586883545,0.7832485437393188,-0.860619068145752,-0.15815335512161255,1.058777093887329,1.2013553380966187,-1.0946307182312012,1.1488770246505737,-0.7291221618652344,0.883838951587677,1.1131747961044312,-0.8174483180046082,1.370750904083252,0.44904056191444397,-1.190472960472107,0.31612691283226013,-0.3263469934463501,0.4844669997692108,0.34230685234069824,-0.08409581333398819,1.244258999824524,0.930264413356781,0.9468541741371155,1.1151891946792603,0.014630468562245369,-0.9895288944244385,-0.12046624720096588,-1.6185381412506104,0.4613378942012787,0.6538277864456177,0.8311631679534912,-0.7545118927955627,-0.7040051221847534,0.8376064896583557,-0.06464910507202148,-1.2917271852493286,-0.2633337378501892,0.6730721592903137,1.8085715770721436,-0.8019092679023743,-1.105010747909546,-0.7241727113723755,-1.1750025749206543,-0.4122341573238373,-1.1659655570983887,0.1848571002483368,-1.1529207229614258,-0.5712897181510925,-0.6924676895141602,0.16409046947956085,-0.591948390007019,0.3438994884490967,-0.32903942465782166,0.4874534606933594,-0.9911483526229858,-0.129751056432724,-0.013409443199634552,-0.5716484189033508,0.29954421520233154,-0.7894724011421204,-0.06110606715083122,0.1731230616569519,0.6199538707733154,-0.4107052683830261,-0.15145735442638397,-0.4233625531196594,0.3631863296031952,-1.0974751710891724,0.08827277272939682,-1.8029210567474365,-0.5749483108520508,-1.9140123128890991,-0.4104274809360504,0.47244951128959656,1.0032949447631836,0.08492633700370789,0.6452579498291016,-0.9264291524887085,0.29711681604385376,-0.8769175410270691,0.14602620899677277,-0.772988498210907,-0.4394184947013855,-0.7961575388908386,1.3720343112945557,-0.8246951699256897,0.733267605304718,0.19169585406780243,-0.28336891531944275,-1.4771716594696045,0.3945194184780121,2.1325247287750244,-0.6476032137870789,0.8571597337722778,-0.02899084985256195,-1.4806008338928223,-0.29828953742980957,-1.0013505220413208,-1.1837427616119385,0.9458962082862854,0.2235231101512909,-1.8622660636901855,0.782260000705719,-0.7303345203399658,-1.070387601852417,1.1086955070495605,0.5307183861732483,0.07637006044387817,0.184149369597435,-0.4015716016292572,-0.25770989060401917,-0.4167911410331726,-1.9611068964004517,-0.9784530401229858,0.34558480978012085,0.889999508857727,-1.585516333580017,0.04404950514435768,0.17292343080043793,-1.1242707967758179,0.6901572942733765,0.5398444533348083,0.26577863097190857,0.2761949300765991,-0.4407273828983307,-0.24722693860530853,-0.9689202904701233,-0.5657881498336792,-0.6974523663520813,-0.08059762418270111,-0.2354978621006012,-0.4848391115665436,0.277361661195755,-0.11782976239919662,-0.9831969738006592,0.6329445838928223,-0.04307352378964424,-1.6919479370117188,-0.7878599166870117,-0.08313686400651932,-0.39178478717803955,-0.14442910254001617,0.5086586475372314,0.8791918158531189,-0.4145568907260895,-0.5623602867126465,-0.5353909134864807,0.5399604439735413,-2.2537364959716797,0.9693530201911926,0.6872638463973999,0.1262228935956955,0.455526739358902,-0.5066354870796204,-0.06492520123720169,0.638848602771759,0.9802300930023193,0.4504711925983429,0.5963244438171387,-0.017175719141960144,1.8009300231933594,0.6903964877128601,-0.9835448265075684,-0.27107444405555725,0.42059195041656494,0.9095741510391235,0.26173168420791626,0.9594199657440186,0.5012304782867432,0.8310679197311401,0.32667821645736694,1.3977915048599243,-0.6459620594978333,-0.628799557685852,0.06844467669725418,-0.532148003578186,1.301124095916748,0.3826185464859009,0.5140279531478882,0.8616853952407837,-1.611287236213684,0.3921804130077362,-0.22354155778884888,-0.28044167160987854,0.022159911692142487,0.03326430171728134,0.06346097588539124,-0.4529838263988495,-0.12276723235845566,0.23768973350524902,-0.13215535879135132,0.23433692753314972,-0.16564251482486725,0.2518256902694702,-0.457057386636734,1.231961727142334,0.48562103509902954,0.5350243449211121,-1.2720152139663696,0.6434460878372192,0.5629463195800781,-0.07047058641910553,0.21787911653518677,0.15055038034915924,-0.8404769897460938,-0.8198497295379639,0.08117799460887909,0.7298058271408081,-0.35501420497894287,-0.508162260055542,-0.6861264705657959,0.11374002695083618,-0.21252071857452393,-0.5529587864875793,0.9793863892555237,-0.20739641785621643,-0.12054037302732468,0.11226674914360046,0.895024299621582,0.042543429881334305,-0.8168923854827881,-0.9407544136047363,-0.041179217398166656,-0.0007806878420524299,0.7175589799880981,-0.8493568897247314,-0.13495157659053802,-0.3672402799129486,-0.5255730748176575,0.1654556542634964,0.13383956253528595,0.20558659732341766,-0.12290041148662567,0.6880660057067871,0.5852785110473633,0.3831727206707001,0.21275533735752106,0.16573196649551392,-0.7945509552955627,0.38582053780555725,0.38308578729629517,-1.5405820608139038,-0.4059808850288391,1.0259594917297363,-1.125634789466858,0.39692795276641846,-0.6246876120567322,0.31679168343544006,1.0307862758636475,0.5179081559181213,0.1645231693983078,1.1770979166030884,-1.5366482734680176,0.9170612096786499,1.513879656791687,0.5042657256126404,-0.8754374980926514,1.3018473386764526,1.309497594833374,-1.0543127059936523,-0.6958639025688171,-1.0792521238327026,0.2688414752483368,0.6041099429130554,-0.4594874680042267,0.7724817991256714,-0.34417420625686646,-0.5115432739257812,0.11204351484775543,0.48972243070602417,-0.7276411056518555,0.7351791262626648,-0.9250068068504333,0.2743348777294159,1.392928123474121,-0.2568262219429016,1.325005054473877,-0.6442794799804688,0.8023560643196106,-0.2745603322982788,-0.14367488026618958,0.8940141797065735,-0.2879282832145691,-0.798128604888916,-0.536903440952301,-0.9304860830307007,0.12236467003822327,-0.2892439067363739,-1.0744833946228027,-0.29736971855163574,-0.4518318474292755,0.13890686631202698,1.1236908435821533,-0.22427159547805786,-0.9965721368789673,-0.798546552658081,1.0025757551193237,0.5949124097824097,0.5532010197639465,0.15448017418384552,1.6195037364959717,-0.8479752540588379,0.05663331225514412,0.5396227836608887,-0.16541464626789093,-0.8336985111236572,0.6248064637184143,-0.2714286744594574,-0.2631964087486267,0.7962804436683655,0.7891227602958679,-0.03570566698908806,-0.7877290844917297,-0.9167299270629883,0.905484676361084,0.4264073669910431,-1.4428565502166748,-0.5292051434516907,0.28077417612075806,0.691627025604248,1.1488618850708008,1.1281483173370361,-0.05047253519296646,-0.6758303046226501,0.5090256929397583,0.007716395892202854,-0.7035942673683167,0.8947444558143616,-1.3057727813720703,-0.0972064957022667,-0.8547403812408447,-0.533616304397583,0.8167343139648438,0.1518162339925766,0.6056443452835083,-0.22710387408733368,-0.20381003618240356,-0.03546227887272835,0.4479774832725525,-0.20859375596046448,0.9562466740608215,0.367170512676239,-0.31320929527282715,-0.2520356774330139,-0.4852924644947052,0.08011312037706375,0.8788276314735413,-0.8538365960121155,0.8885322213172913,-0.24693149328231812,-0.22793157398700714,0.6343169212341309,-0.48060935735702515,-0.5021803379058838,1.4754019975662231,-1.0160315036773682,0.37676915526390076,0.2848680913448334,1.810416579246521,0.8023442029953003,-1.1274933815002441,-0.8446837067604065,-0.0025855295825749636,0.8159230947494507,-0.6803762912750244,-1.2449150085449219,-1.3193671703338623,0.7520152926445007,0.5398622751235962,-0.2729046046733856,1.1722934246063232,-0.6822683811187744,0.9377436637878418,0.20683063566684723,0.7826964259147644,0.5560633540153503,-0.13923078775405884,-0.055639054626226425,-0.43433111906051636,-0.6753944158554077
博弈论,-0.4047863483428955,-0.011938654817640781,-0.24019169807434082,0.3847793638706207,-0.8636716604232788,-0.14091938734054565,-0.9335059523582458,0.4681033194065094,-0.30608150362968445,-0.005485776346176863,0.2208167165517807,-0.678244411945343,-0.36680367588996887,0.2085457742214203,-0.4385204017162323,0.7289873957633972,0.03805707022547722,0.18390753865242004,0.5859736204147339,-0.3343098759651184,-0.13226555287837982,0.8769969344139099,-0.3462735116481781,0.48066988587379456,0.1693609207868576,-0.3982895314693451,-0.08598604798316956,0.8375772833824158,-0.8913339972496033,-0.4999120533466339,0.7964445948600769,-0.7543232440948486,1.349269986152649,-0.6272733807563782,0.4841499328613281,0.19561731815338135,1.3147621154785156,-0.7076683044433594,-0.393685907125473,-0.8325474262237549,-1.2929699420928955,-0.07637939602136612,0.13193176686763763,0.6180711984634399,-0.7094042301177979,-1.8062540292739868,-0.4726235568523407,0.017877593636512756,0.23621545732021332,0.25452932715415955,1.0379970073699951,-0.7251893281936646,-0.2720467448234558,0.37736594676971436,-0.9620879888534546,-0.5224901437759399,0.3121110796928406,-0.49297425150871277,-0.5096943378448486,0.37744617462158203,0.09678192436695099,0.21015103161334991,0.5414803624153137,1.0460622310638428,-0.18688318133354187,-0.17325815558433533,-0.5700557827949524,-0.1953779011964798,-0.014876237139105797,0.5556104779243469,-0.43822354078292847,-0.48917698860168457,-0.8474981188774109,-0.010904381982982159,-0.2342965006828308,0.707036018371582,0.32029953598976135,-0.23727947473526,0.8038055896759033,-0.9290857315063477,1.0340912342071533,-0.4075731337070465,-0.5001403093338013,-0.006882829125970602,-0.48497474193573,-0.6284047961235046,0.779067873954773,-0.0812959149479866,0.0013268650509417057,-0.10413723438978195,-0.645893394947052,-0.15181170403957367,0.621140718460083,0.7758674621582031,0.5654246211051941,-0.0035554002970457077,0.25972676277160645,0.9248157739639282,-0.36491987109184265,0.3279664218425751,-0.5988114476203918,-0.18742521107196808,-0.41936758160591125,-0.44242197275161743,0.12793637812137604,0.6410044431686401,0.013274643570184708,-0.481315016746521,0.17744609713554382,1.0068531036376953,0.1695324331521988,0.44126203656196594,0.7664223909378052,-0.49997514486312866,-0.20989961922168732,-0.31764858961105347,-0.04712997376918793,-0.6238771677017212,-0.21698059141635895,0.7106072902679443,-0.7603142857551575,-0.6152467131614685,-0.46089330315589905,-0.019200585782527924,0.020911721512675285,0.3452322483062744,-0.09859684854745865,0.47180795669555664,0.7403796315193176,-0.7902990579605103,0.13933870196342468,0.4237487018108368,-0.41731247305870056,-0.13158206641674042,-0.3786200284957886,0.35001686215400696,-0.9945996403694153,-0.18575139343738556,0.271933913230896,-0.24842005968093872,0.22878316044807434,0.3773517608642578,0.30302900075912476,0.15874473750591278,0.28347283601760864,-0.28655096888542175,0.18390944600105286,-0.40057337284088135,0.3214608132839203,-1.329559564590454,-0.6319062113761902,0.7295083999633789,-0.10991036146879196,0.9207099676132202,-0.4907672107219696,-0.4129890501499176,1.8555386066436768,-0.3528294861316681,0.8269980549812317,0.012697319500148296,-0.5276407599449158,0.29538416862487793,0.5708365440368652,-0.014105040580034256,0.34382644295692444,-1.5791852474212646,-0.5639062523841858,0.4604169726371765,-0.1546461135149002,-0.6441768407821655,0.5776214003562927,-0.578694760799408,-0.36509111523628235,-1.244775414466858,0.6216043829917908,1.1606218814849854,0.8709065914154053,-0.00891073327511549,-0.14323650300502777,0.2083178460597992,-0.34359854459762573,-0.5649633407592773,1.013189673423767,0.8326906561851501,-0.013229207135736942,0.27560216188430786,0.0339369922876358,-0.68172687292099,0.34137728810310364,-0.5169593095779419,-0.6331058740615845,-0.2365776151418686,0.6048497557640076,-0.49454307556152344,-0.5172134637832642,-1.848523497581482,0.06405919045209885,-0.2990051805973053,0.5794371962547302,0.3249035179615021,0.22838638722896576,-0.37471383810043335,-0.4224875569343567,0.21871799230575562,0.3723612427711487,0.37275058031082153,0.769564688205719,-0.8808357119560242,0.4944871664047241,-0.13086694478988647,0.878096878528595,-1.4824974536895752,-0.43060094118118286,1.470207691192627,-0.10491472482681274,0.19830286502838135,0.1390262097120285,0.8658430576324463,0.18974395096302032,0.7175067067146301,-0.4250597357749939,1.0791985988616943,-0.746646523475647,0.7750585079193115,0.32945218682289124,-0.35144996643066406,-0.6112361550331116,-0.30450010299682617,-0.019989006221294403,0.3933718204498291,-0.5175702571868896,0.555540919303894,-0.2536143660545349,1.1950596570968628,0.6927068829536438,-0.2533953785896301,-0.3297708034515381,1.1801270246505737,0.5792067050933838,0.584763765335083,0.07253172248601913,-0.678791880607605,0.7768622636795044,-0.13431832194328308,1.2390046119689941,-0.1147763580083847,-0.01707213558256626,0.27688324451446533,1.4368451833724976,-0.33767449855804443,0.8879902958869934,-0.23848243057727814,-0.3105015456676483,0.2724320888519287,0.8522458076477051,1.3820295333862305,0.03405052796006203,1.3304446935653687,-1.4876548051834106,0.9430509209632874,0.5184186697006226,-1.0249556303024292,0.9853997826576233,0.7630664706230164,-0.4528774619102478,0.21703816950321198,0.3839919865131378,-0.5721395611763,1.6536401510238647,-0.4507288932800293,-0.21879421174526215,0.6819252371788025,-0.12055911123752594,0.2831532657146454,0.36381131410598755,-0.7890840172767639,-1.225696325302124,0.8026174902915955,-0.8235790729522705,-0.841148316860199,-0.7764750123023987,-0.5041326880455017,0.46218329668045044,-1.790991187095642,-0.9846205115318298,0.9861667156219482,0.5149449110031128,0.7242339253425598,-0.5812684297561646,0.7178219556808472,1.2475183010101318,-0.25385886430740356,0.003745788475498557,0.2745509743690491,0.8713939189910889,-1.2066277265548706,-0.1945505142211914,1.179957389831543,-0.16193433105945587,-0.4004885256290436,-0.5436975359916687,0.8336751461029053,-0.4305781424045563,-0.6199813485145569,-0.766473650932312,-0.6985543966293335,-0.6914467215538025,-0.42475858330726624,-0.29842621088027954,0.3042207360267639,0.6060400009155273,0.49819329380989075,0.01656552217900753,-0.46686336398124695,2.176842212677002,0.004291750490665436,0.2937229573726654,1.4298348426818848,0.04848453775048256,0.19336463510990143,0.12462815642356873,-0.9084891080856323,-0.4831154942512512,-0.11661271005868912,-1.182989478111267,0.8555991649627686,0.4069763123989105,0.974733293056488,-0.5754473209381104,-0.4053805470466614,0.02425014227628708,-0.11736900359392166,-0.9483322501182556,-0.8078773021697998,0.07301284372806549,-0.6506813168525696,0.9994104504585266,0.09604350477457047,-0.6659961938858032,-0.71638023853302,0.9178119897842407,0.5819894075393677,0.38295161724090576,-0.4558756649494171,-0.1717662811279297,-0.159726083278656,0.1436205357313156,0.4465312063694,-0.8323755264282227,-0.16282638907432556,-0.21217405796051025,-0.35333147644996643,-0.08109181374311447,0.5681078433990479,0.3689720630645752,0.8521336317062378,0.23148606717586517,-0.34371843934059143,0.9857178330421448,-0.10423918813467026,-0.24945245683193207,-0.1304265558719635,-1.004513144493103,0.4534327983856201,1.2199690341949463,0.5034668445587158,0.9198005199432373,-0.25528189539909363,0.2662525475025177,-1.127610445022583,0.0625017061829567,-0.48817867040634155,-0.4645819067955017,0.818597674369812,-0.0864611566066742,-0.3992927372455597,0.0770288035273552,0.05743197724223137,0.2615220844745636,0.07568858563899994,-0.3803921341896057,-0.6758140325546265,1.0785472393035889,-1.0113036632537842,-0.9343743324279785,-0.5921741127967834,0.39333388209342957,0.5555610060691833,0.20094366371631622,-0.3044661283493042,0.36549997329711914,1.3136141300201416,-0.05019178241491318,0.5295308828353882,0.5048699975013733,0.4172133803367615,-0.9334369897842407,-0.4365658164024353,-1.0521631240844727,-0.17962542176246643
例子,0.39001643657684326,-0.5587223172187805,-0.7103252410888672,0.7111390233039856,0.05399105325341225,-0.2140880674123764,-0.17944037914276123,0.05098496749997139,0.05262816324830055,-0.31246915459632874,-0.15979942679405212,-0.03607332333922386,0.11833856999874115,0.18302187323570251,0.1460879147052765,-0.3492911756038666,-0.8451715111732483,0.30927401781082153,-0.33222001791000366,0.3919956386089325,-0.49577322602272034,0.17933449149131775,0.43697813153266907,-0.03375275805592537,0.31857940554618835,-0.33776411414146423,1.2765291929244995,0.9337047934532166,-0.6119785904884338,0.8778151273727417,-0.518776535987854,-0.6310616731643677,-0.07933902740478516,-1.5670716762542725,-0.12357459217309952,0.22542253136634827,0.676591694355011,-0.24117350578308105,0.19048316776752472,-0.472465842962265,-0.9692137241363525,0.47211018204689026,0.6213122010231018,-0.5434086322784424,0.08172145485877991,-0.5184851884841919,-0.6873709559440613,-0.33763036131858826,-0.1702846884727478,0.5147281885147095,0.26712939143180847,-0.5132212042808533,-0.40643832087516785,1.1460381746292114,0.282733291387558,-0.261435866355896,0.3076171576976776,-0.30259019136428833,0.000796334003098309,0.2731865346431732,0.3765603005886078,-0.20095673203468323,0.8281455636024475,-0.1909027099609375,0.023887058719992638,-0.7839686870574951,-0.9106757044792175,0.2594888508319855,-0.2004421353340149,0.6537672877311707,-1.0270954370498657,0.5439388751983643,-0.9540985226631165,-0.028452612459659576,-0.08656545728445053,0.18228700757026672,-0.006472231354564428,-0.5263086557388306,1.0875244140625,-0.2094992697238922,0.19255468249320984,0.21889528632164001,-0.1820024698972702,-0.5716463327407837,-0.14463530480861664,-1.0530720949172974,-0.45008406043052673,0.06942823529243469,-0.16485299170017242,-1.4633077383041382,-0.1126512885093689,-0.4244283437728882,-0.14923182129859924,-0.22121699154376984,0.03074679709970951,0.34144139289855957,0.36806267499923706,0.5065439343452454,0.09687742590904236,-0.34482207894325256,0.6954277753829956,0.27720317244529724,-0.6060576438903809,-0.059101466089487076,-0.393855482339859,-0.47801756858825684,0.3643580675125122,-0.932205855846405,-0.9761905074119568,-0.9875950217247009,0.44321537017822266,0.33002087473869324,2.0071098804473877,0.04372689500451088,1.427252173423767,-0.2637954652309418,-0.2877212166786194,-0.8480762839317322,1.0581321716308594,1.0692534446716309,-0.6086247563362122,0.39255490899086,0.6708970069885254,0.3977918326854706,1.546301245689392,-0.49757543206214905,0.22717659175395966,-0.2916259765625,-0.34385961294174194,-0.5799614787101746,0.5326309204101562,-0.8727895021438599,-0.5294064283370972,-0.20550814270973206,-0.6308907270431519,0.28794506192207336,-0.5427488684654236,-0.19200876355171204,-0.11239350587129593,0.7326387166976929,0.9766904711723328,0.8900045156478882,-0.3183586299419403,0.7832555174827576,0.5464446544647217,0.3237561881542206,-0.6648242473602295,0.6425513029098511,0.4984810948371887,-1.638175129890442,-0.6101672649383545,1.3785505294799805,-0.0559052936732769,0.4479422867298126,-0.26263293623924255,-0.27319493889808655,0.6310058236122131,0.07230812311172485,0.1588113009929657,-0.22561179101467133,0.30136725306510925,0.38328590989112854,0.3176223337650299,0.5963760018348694,-0.07960144430398941,-0.5379050970077515,0.4290647804737091,0.5138853192329407,-0.2799052894115448,-0.8406079411506653,-0.7258536219596863,-0.9532644748687744,-0.5369792580604553,-0.20618073642253876,0.006288190837949514,0.4043590724468231,-0.957341194152832,-0.46529656648635864,0.11142072081565857,-0.7531245946884155,-0.18561632931232452,-0.3282923996448517,0.5806068181991577,0.2135765701532364,0.5835126638412476,0.4042176306247711,0.6362499594688416,-0.14351944625377655,0.7637737989425659,-0.40537410974502563,0.19556134939193726,-0.7514139413833618,0.22382552921772003,-0.4615311026573181,0.2706836462020874,-0.2535026967525482,-0.8267380595207214,0.4542493522167206,0.21896512806415558,0.32318049669265747,0.10530031472444534,-0.9751392006874084,0.2282213568687439,-0.8585094213485718,-0.43443453311920166,-0.06869809329509735,0.8848517537117004,1.2323477268218994,-0.3301355242729187,-0.7797686457633972,-0.5887708067893982,-0.3532772362232208,0.047749437391757965,0.8611066937446594,0.43661537766456604,0.18121488392353058,-0.40392085909843445,0.8885452747344971,-0.694047749042511,0.15200680494308472,-0.3331952691078186,0.5076783895492554,-1.0885522365570068,0.7609602808952332,-0.8028457164764404,-1.5629948377609253,0.27644312381744385,0.21287383139133453,-0.1833985596895218,-0.7594225406646729,-0.7713212966918945,-0.11234425008296967,-0.03694635257124901,-0.23030471801757812,0.8113333582878113,-0.2640220522880554,-0.5562744736671448,-0.8841013312339783,-0.4934569001197815,0.27344539761543274,-0.4088415801525116,-0.5807263851165771,-0.17143061757087708,-0.31902381777763367,0.23155537247657776,-0.031547196209430695,-0.609472930431366,-0.11292283236980438,1.4100415706634521,0.09558746963739395,0.20220549404621124,-0.9419237375259399,0.4100017547607422,0.2638257145881653,0.5281921625137329,0.21065399050712585,0.33808568120002747,-0.28339236974716187,-0.8074200749397278,1.2513293027877808,0.3065110445022583,-0.5919584035873413,0.15241150557994843,0.030730092898011208,-0.1573125272989273,-0.014191821217536926,1.2554353475570679,0.4252378046512604,0.264595091342926,-0.5054538249969482,-1.0993555784225464,0.44111230969429016,-0.4200170338153839,0.9914040565490723,0.7352979183197021,-0.3785107433795929,-1.34420645236969,0.7565277218818665,-0.05202991142868996,-1.1377415657043457,-0.3833230435848236,-0.10330403596162796,0.18874265253543854,0.10422579944133759,-0.0701948031783104,-0.07201642543077469,-0.19786375761032104,0.059733789414167404,0.14134901762008667,0.5546481013298035,0.6951016783714294,0.6923274397850037,-1.1448452472686768,-0.4502275884151459,-0.8481968641281128,0.11274595558643341,-0.4352596402168274,0.6095984578132629,0.23615510761737823,-0.9680768251419067,0.3531208038330078,0.13088364899158478,0.21809552609920502,-0.6054883003234863,-0.46504339575767517,-0.32990580797195435,-1.3196324110031128,0.1954747438430786,-0.7117379307746887,0.10235520452260971,-0.5132444500923157,-0.5146817564964294,-0.20682179927825928,0.11726423352956772,-0.09513381123542786,0.06337196379899979,0.4227138161659241,0.06807209551334381,-0.48299214243888855,-0.5010123252868652,0.5596497654914856,0.5249553918838501,0.7926332950592041,0.7145646810531616,0.294572114944458,0.09045671671628952,0.03306270390748978,1.0208860635757446,-0.8559777736663818,0.9797884225845337,0.6110804677009583,0.11640708148479462,0.3017081320285797,-0.04080289602279663,-0.5735264420509338,-0.25582772493362427,-0.5227562189102173,0.12183420360088348,1.3697727918624878,-0.19623132050037384,0.18699321150779724,-0.500007152557373,0.5012469291687012,-0.8291015625,0.4643881320953369,0.005381028167903423,-0.6278920769691467,1.1369930505752563,-0.7806566953659058,-0.3174077570438385,0.03615494444966316,0.33303940296173096,0.4872100055217743,-0.2776002287864685,0.36078426241874695,0.1747250109910965,-0.40689411759376526,0.02728639729321003,-0.1284494400024414,0.5151801705360413,-0.12022422254085541,1.059463620185852,-0.664977490901947,-0.6090261340141296,0.9843790531158447,0.5573127269744873,0.18309636414051056,0.11489822715520859,-0.21818257868289948,-0.7990512251853943,0.43353793025016785,0.3285439908504486,-0.36230647563934326,-0.625281035900116,0.6791059374809265,0.6309283375740051,-0.25151732563972473,0.042246103286743164,0.8246258497238159,1.4430384635925293,0.08407054096460342,0.5697060227394104,-0.10866887867450714,-0.4904607832431793,0.15793870389461517,-1.5295227766036987,-0.9743831157684326,-0.35310620069503784,0.26242783665657043,1.0230028629302979,0.36171650886535645,0.2506626844406128,-0.0744282528758049,0.3181830942630768,-0.06596734374761581,1.3861243724822998,-1.094214677810669,-1.1340053081512451,-0.10270511358976364,-0.30450305342674255
经济学,-0.38835883140563965,-0.23041488230228424,0.24167850613594055,0.9224469661712646,-1.0263698101043701,0.503773033618927,-0.929167628288269,0.2827848494052887,-0.12221811711788177,-0.553691029548645,0.8653671741485596,-0.3243863880634308,0.17128747701644897,-0.6821755766868591,0.007891044020652771,-0.3426639437675476,0.7900943160057068,0.5565429925918579,-0.3087306618690491,-0.07849285006523132,-0.8255626559257507,0.8553110957145691,-0.6905947327613831,0.2641657590866089,0.42034995555877686,0.4866155982017517,-1.0412657260894775,0.6674638986587524,-1.1575603485107422,1.0489414930343628,0.3548281788825989,-1.1701626777648926,1.379267692565918,-0.652725100517273,0.44543829560279846,0.027923528105020523,-0.29471704363822937,-0.16011378169059753,-1.1547294855117798,-0.07735403627157211,0.22865314781665802,-0.2268652468919754,1.0737496614456177,-0.21042613685131073,-1.3553907871246338,-0.810840904712677,0.3328583538532257,-0.624527096748352,0.9654074311256409,0.6680423021316528,0.8976650238037109,-1.2954598665237427,-0.7238958477973938,0.5785022377967834,0.20780180394649506,-0.419192373752594,-1.3387420177459717,0.8417724967002869,-0.5552371740341187,0.3767252564430237,-1.1509101390838623,0.3942825198173523,0.9033433198928833,1.0823404788970947,-0.11643000692129135,-0.045166075229644775,-0.0554814375936985,-0.3026284873485565,0.43481072783470154,0.3712282180786133,-1.4611690044403076,-0.6326015591621399,-1.2339142560958862,0.4139311611652374,-0.8201785683631897,-0.4089169204235077,1.6297847032546997,-0.3096512258052826,0.44310855865478516,-0.715977132320404,0.24695204198360443,-0.7720578908920288,-1.629696249961853,0.24975663423538208,-0.7225564122200012,-0.4782017767429352,0.061226557940244675,-0.3298259973526001,1.1467101573944092,0.49768248200416565,-1.138932466506958,-0.9633994102478027,0.4604383409023285,0.2445867508649826,1.3878788948059082,-0.3153702914714813,0.23990069329738617,0.08794169127941132,0.8450890779495239,0.05803577974438667,-1.1889538764953613,-0.969529390335083,0.04379823058843613,0.4227382242679596,-0.17248018085956573,-0.5133002996444702,-0.12337856739759445,0.4238196313381195,-0.7653279304504395,0.28376251459121704,-0.3067745864391327,1.092606544494629,-0.535579264163971,0.07166079431772232,0.0995844230055809,-0.6472464799880981,-0.23151659965515137,-0.30984747409820557,-0.12063039094209671,0.035424936562776566,-1.3449276685714722,-0.10504813492298126,-0.9999572038650513,-0.306626558303833,0.03591775521636009,-0.2843253016471863,-0.014014417305588722,-0.6302686333656311,0.16647869348526,-0.21537566184997559,0.8094728589057922,0.23818297684192657,0.23480656743049622,-0.6582313179969788,-0.3760850429534912,-0.22732040286064148,-1.006014347076416,-0.09805548936128616,-0.6768578290939331,-0.8194591403007507,-0.8622606992721558,-0.13336551189422607,0.18201714754104614,0.4769045412540436,0.07420150190591812,-0.807811439037323,-1.1763970851898193,0.6578129529953003,0.22387917339801788,-0.32828155159950256,-0.24502843618392944,0.23030276596546173,-0.07626372575759888,1.4717518091201782,-1.0441027879714966,-0.03056713007390499,0.09187281876802444,-0.7015303373336792,0.349589079618454,-0.2907140851020813,-0.6338257789611816,1.240485429763794,-0.1595207005739212,0.4232708513736725,1.2511913776397705,-0.4300851821899414,-0.7668108940124512,-0.40232959389686584,-1.0149883031845093,0.3902123272418976,0.8151066899299622,0.13884741067886353,-0.5328717827796936,-0.6678943037986755,-1.1900540590286255,0.40761634707450867,0.8547180891036987,1.0053339004516602,-0.5307563543319702,0.03192776069045067,-0.398625910282135,0.6373882293701172,0.6231498718261719,-0.3373122811317444,-0.10036668926477432,0.6024680733680725,-0.08211509138345718,-0.17482984066009521,-0.20286493003368378,0.589490532875061,0.34220439195632935,0.5855515599250793,-1.0759097337722778,0.23599585890769958,-0.4836219251155853,-0.08053319901227951,-0.051802851259708405,0.050556693226099014,0.6868094205856323,0.7279095649719238,-0.37708526849746704,0.1622239202260971,0.6696420311927795,1.3044174909591675,0.3062986731529236,0.05769607424736023,0.17135785520076752,-0.9508453011512756,0.40205469727516174,-0.4321918487548828,0.3983517587184906,-1.504747986793518,-1.0333970785140991,0.6756924986839294,-1.4755275249481201,0.18846586346626282,0.4329182803630829,-1.1731621026992798,-0.313313752412796,-0.14229193329811096,-1.1475601196289062,-0.3325434923171997,-0.2525814175605774,1.332292914390564,-0.11229082196950912,0.33392536640167236,0.31455758213996887,0.7040687799453735,-0.8067454695701599,0.6069616079330444,-0.6237917542457581,0.340279757976532,0.22709445655345917,0.44790518283843994,-0.5489462018013,0.23340991139411926,-0.4930044114589691,1.002531886100769,-0.12295962125062943,-0.14092318713665009,0.17500218749046326,0.3764302432537079,-0.1924944818019867,1.8418926000595093,0.12942427396774292,-0.07682771235704422,-0.469882994890213,-0.29934781789779663,0.1784180849790573,-0.3686092793941498,0.05829481780529022,0.8264443278312683,-1.2592906951904297,0.13723066449165344,0.4326775372028351,0.034058429300785065,0.2166822999715805,-0.4889296591281891,-1.2142292261123657,0.5800334215164185,1.4011695384979248,-1.8539378643035889,0.210033118724823,1.044420838356018,-0.6208702325820923,0.7934552431106567,1.3199573755264282,0.5827240943908691,-0.4170832633972168,-0.666468620300293,-0.4183177947998047,0.091313935816288,-0.9708629846572876,0.15792371332645416,1.113802433013916,-0.7329273819923401,-1.020179271697998,1.082288146018982,-0.019447196274995804,-0.4593951106071472,-0.6344446539878845,-0.6644301414489746,-0.41951119899749756,-1.1484934091567993,0.21925190091133118,0.03628939762711525,0.0368516743183136,0.7932099103927612,0.21947158873081207,1.1222237348556519,-0.0026539803948253393,-0.7139051556587219,0.3818400502204895,0.03350621461868286,0.6788490414619446,-1.3901509046554565,-0.06270832568407059,1.035414457321167,-0.008894102647900581,-0.9419983625411987,-0.07404325157403946,1.2380096912384033,-0.3997802734375,-0.4226246476173401,-0.3356630504131317,-0.7882188558578491,-0.9014095664024353,-0.6419957280158997,-0.46363022923469543,0.8172093629837036,-0.024152230471372604,0.877174973487854,0.36794185638427734,0.07938989251852036,0.21810443699359894,0.664310872554779,0.06135215982794762,1.4834156036376953,0.13610123097896576,0.13722766935825348,-0.27535775303840637,-0.8432776927947998,-0.04414001852273941,0.025768660008907318,-0.9362745881080627,0.6333272457122803,0.9336965084075928,0.3224962651729584,-0.27951958775520325,1.0880459547042847,-0.13487687706947327,-1.2675491571426392,-0.669522762298584,-1.994335651397705,1.1691114902496338,-0.47408658266067505,1.0809413194656372,0.7132346630096436,-0.2485537827014923,0.24911122024059296,1.0178169012069702,0.9684473276138306,-0.5344412922859192,-0.21978312730789185,-0.9257150888442993,0.48404550552368164,-0.483470618724823,-0.4987953305244446,-1.3242050409317017,-1.4556740522384644,0.37521976232528687,-1.2820940017700195,0.7263830900192261,-1.285578727722168,-0.17856210470199585,0.10932114720344543,-0.35805583000183105,-0.05880730599164963,1.5520744323730469,0.5062093138694763,0.3393005132675171,-1.031846284866333,-0.26380112767219543,0.03304117172956467,0.731478750705719,1.1672325134277344,1.0811972618103027,-0.8866018652915955,-0.09527610242366791,-0.45645347237586975,0.02981291525065899,-0.05228688195347786,-0.44568419456481934,-0.6114744544029236,-0.9485296607017517,0.7297132015228271,0.3925832509994507,-0.23048889636993408,-1.279185175895691,0.6296041011810303,-0.1783391386270523,-0.05271162465214729,1.0584734678268433,-0.39239826798439026,0.12522301077842712,0.5562275648117065,1.015118956565857,0.3388208746910095,0.6920173764228821,0.3324141502380371,0.7892286777496338,0.973808228969574,0.689906656742096,-0.35952335596084595,0.6405657529830933,0.7678869366645813,0.03916474059224129,0.35512223839759827,-0.2776850163936615,-1.074952483177185
证据,0.5803720951080322,-0.18324153125286102,-0.49788984656333923,-0.7361746430397034,0.34958645701408386,0.8674452304840088,-1.5743900537490845,0.5437535047531128,0.31596773862838745,-0.010310288518667221,-0.9121484756469727,-0.262459397315979,1.2597160339355469,0.17671798169612885,-0.9257778525352478,0.12160730361938477,0.12946432828903198,-0.48817598819732666,0.845456063747406,0.5198278427124023,0.5166363716125488,0.9552612900733948,0.8923918008804321,0.004843545146286488,0.16958391666412354,-1.9452176094055176,0.6769031286239624,-0.9473674297332764,-1.6402833461761475,-0.19418445229530334,-0.002395112067461014,0.5770919322967529,0.4049263596534729,0.03224645555019379,-0.12486448138952255,-0.9151486158370972,0.42306438088417053,-1.4957530498504639,0.5665372610092163,-0.4389498233795166,0.8723199963569641,0.4010242819786072,0.7784256339073181,-1.701233983039856,-0.3996962308883667,0.13192778825759888,0.6481201648712158,-1.1004921197891235,1.2523216009140015,-0.0948605164885521,0.2323867231607437,-0.5026423335075378,-0.543351948261261,-0.1356453150510788,0.0297701396048069,-0.1639079749584198,-0.10357967764139175,-0.4492955505847931,-0.05699354410171509,0.7215126156806946,0.5509045720100403,1.2788569927215576,0.5694678425788879,-0.47309359908103943,-0.7809411287307739,-1.8856322765350342,-0.025264481082558632,-0.1451389193534851,1.4740679264068604,-0.06866449117660522,-0.481100469827652,0.6707333922386169,-0.3895498216152191,0.20290322601795197,-0.14057855308055878,0.7137395739555359,0.2664681673049927,-0.329228937625885,1.2175546884536743,0.7194412350654602,0.5209352374076843,-0.2942470610141754,-0.12297684699296951,-0.2718976140022278,-0.09645939618349075,-1.1605020761489868,0.24368296563625336,0.4076730012893677,-0.18953384459018707,-0.11578402668237686,0.08060804754495621,0.28643620014190674,-0.017160670831799507,-0.9347461462020874,-0.07011237740516663,-0.08593472093343735,-1.0062849521636963,-1.3148455619812012,0.7337192296981812,0.8161861896514893,-0.05466962605714798,0.21664273738861084,0.07023947685956955,-0.025520678609609604,0.31143295764923096,1.1032311916351318,-0.03899849206209183,0.007430678233504295,-0.19905024766921997,-0.17126402258872986,0.14587384462356567,-0.5763218402862549,0.623866856098175,0.7392606735229492,0.7832006216049194,1.0529749393463135,-0.42408323287963867,-0.16241410374641418,-0.15073199570178986,-0.07073575258255005,0.03051220253109932,-0.22997818887233734,0.7147620320320129,0.024799024686217308,0.5196924805641174,0.7559071779251099,-0.12328688055276871,0.2899044454097748,0.3361930549144745,-0.3364715874195099,0.40693292021751404,0.6174831390380859,-0.8897354602813721,-0.35782313346862793,-1.4264867305755615,-0.7814000248908997,-1.0903700590133667,-0.05438156798481941,-0.31211355328559875,-0.6196304559707642,-0.39230042695999146,0.8732856512069702,-0.15150763094425201,0.3887655436992645,0.2877071499824524,-1.1240625381469727,-0.058327872306108475,-0.5491753220558167,0.9778965711593628,-0.4817514419555664,-0.13894781470298767,0.9242088794708252,-0.2301412969827652,1.0456902980804443,1.4384173154830933,1.00186026096344,-1.1269611120224,0.3414217531681061,0.14375314116477966,-0.7012159824371338,0.3233398497104645,0.9391816258430481,0.020839285105466843,-0.5192210078239441,-0.6309004426002502,-1.3443045616149902,-0.3791629672050476,-0.5171967148780823,-0.3078222870826721,-0.3846708834171295,-0.6806678175926208,-0.2343396544456482,0.13064369559288025,-0.05188508704304695,0.6745984554290771,0.3218122124671936,1.1216100454330444,-1.1026064157485962,1.1510200500488281,-0.47680529952049255,0.5580909252166748,-0.9700731635093689,-0.9315451383590698,0.5360671281814575,1.3267381191253662,-0.04251861572265625,0.6396951675415039,0.8222272992134094,0.14173905551433563,0.07118639349937439,2.2033193111419678,-0.29380810260772705,-0.3739642798900604,1.0429672002792358,0.2929430603981018,-0.30496490001678467,-0.41555389761924744,0.5892789363861084,0.25639623403549194,0.15564218163490295,-0.4419427812099457,0.9121799468994141,0.6148359775543213,-0.2787509262561798,0.8213403224945068,0.6201454997062683,0.09927822649478912,1.6885929107666016,-0.5561828017234802,-0.3657371997833252,0.268164724111557,-0.2603027820587158,0.7113118767738342,0.5846371650695801,-0.5189096331596375,0.8811290264129639,0.6126447916030884,0.1818821132183075,0.18253423273563385,0.6814826726913452,-0.9317758679389954,-0.8977051377296448,0.26898735761642456,-0.6475314497947693,-0.9630312323570251,-0.8288623690605164,-0.25777846574783325,0.5164256691932678,-1.0241262912750244,-1.436879277229309,-2.4746193885803223,0.5296499729156494,1.1023274660110474,0.37163087725639343,-0.9889606237411499,-0.5353044867515564,-0.5886067748069763,-0.5092418193817139,-0.30321604013442993,-0.2497795671224594,-1.1420084238052368,-0.8603736758232117,-0.24697504937648773,0.1319124698638916,0.25518834590911865,0.7392084002494812,0.2215585708618164,-0.3149712383747101,1.7621562480926514,-0.051166631281375885,0.35299432277679443,-0.46473342180252075,-0.1406538188457489,-0.6092831492424011,0.7784297466278076,0.5057685375213623,1.8053317070007324,-0.5792699456214905,-0.2994674742221832,0.9673539400100708,0.4911685883998871,-0.023901009932160378,-1.4576140642166138,-0.28059640526771545,2.2568414211273193,1.1795599460601807,1.3414175510406494,-1.0484066009521484,1.2087708711624146,-0.04437188431620598,-0.19881592690944672,1.1324881315231323,-0.5933740735054016,0.2326716184616089,-0.554298996925354,-2.0613174438476562,-1.5525329113006592,-0.34469541907310486,-0.6970592737197876,0.052320320159196854,0.44349968433380127,-0.8306581974029541,0.07512066513299942,1.3262269496917725,0.8770351409912109,0.28196293115615845,0.26645800471305847,1.0950336456298828,0.12836511433124542,0.32995301485061646,0.7353596687316895,-0.6665487885475159,0.13660189509391785,0.6894461512565613,-0.5222195982933044,0.30017346143722534,-0.3447900414466858,-0.17066815495491028,1.3377658128738403,-0.9089818596839905,1.2856502532958984,0.5058656930923462,0.2861018776893616,-0.9011130332946777,-0.2534560561180115,-0.746598482131958,-1.2058762311935425,1.3453819751739502,0.04505953937768936,-1.1632905006408691,-1.5351516008377075,-0.04595312103629112,0.2901029586791992,-0.07485414296388626,0.2681445777416229,-0.13934749364852905,-0.119522824883461,-0.10767905414104462,0.43169477581977844,-0.31888753175735474,1.495576024055481,0.5209633708000183,0.05602766200900078,0.1532037854194641,-0.7205256819725037,-0.1798950880765915,-0.2721420228481293,0.41230520606040955,-0.10907036811113358,-0.08697337657213211,-0.08269106596708298,0.08799482882022858,0.7897233963012695,-0.6778604388237,-0.37912696599960327,-0.2659747898578644,-0.37624192237854004,-0.29651620984077454,-0.08519415557384491,-0.17867495119571686,1.9236868619918823,0.5772000551223755,0.7546270489692688,-0.22878409922122955,1.4949322938919067,0.5564514994621277,-1.5817891359329224,0.8013278245925903,-1.1388622522354126,-0.42535215616226196,0.3078620433807373,-0.3533388674259186,-0.47190579771995544,-0.02708054892718792,-0.1945073902606964,0.6809244155883789,-0.10432861745357513,-1.5690762996673584,0.37983617186546326,0.9084968566894531,0.03278951719403267,0.2679111957550049,-0.4690396189689636,-0.05972696468234062,1.2205415964126587,-0.6433583498001099,-0.36279362440109253,0.009354701265692711,0.5997129082679749,0.2662343978881836,1.1289362907409668,-0.5332714319229126,0.2565651834011078,-0.8233820796012878,0.02742418646812439,0.6224021911621094,-0.2947104275226593,-0.8891422152519226,1.423292875289917,-0.46979576349258423,0.9271541237831116,-0.9818173050880432,-1.2784065008163452,-0.5579630136489868,-1.0864328145980835,-0.5079078078269958,-0.6731998324394226,-0.17823241651058197,1.3212053775787354,-1.5199416875839233,-0.13920257985591888,-1.3281526565551758,-1.0966018438339233,1.0427440404891968,0.7553710341453552,0.029789932072162628,0.33937427401542664,-0.3185412585735321,-1.2289907932281494,-0.3526085615158081
社会学,-1.155907154083252,-0.2893194556236267,-0.7018986940383911,1.5755107402801514,-0.3472490608692169,0.22560369968414307,-0.6654964685440063,0.23754695057868958,0.0766480565071106,-0.38515999913215637,-0.27728819847106934,-0.20807136595249176,0.5565781593322754,-0.22706234455108643,-0.04786418378353119,0.029345717281103134,1.7954334020614624,-0.07537977397441864,-0.9803072214126587,-0.061079706996679306,0.7898123264312744,0.598874032497406,-0.21445120871067047,-0.3068345785140991,0.7836281657218933,0.7481421828269958,-0.40785515308380127,-1.0638587474822998,-0.8532164096832275,1.1045050621032715,-0.40796974301338196,-0.2771128714084625,0.7311949133872986,0.3800225257873535,0.6167962551116943,-0.3380524814128876,-0.03299427032470703,-0.6730994582176208,-1.0264017581939697,0.06240123510360718,0.21269471943378448,0.2926974594593048,1.7408665418624878,0.43442240357398987,0.2231120765209198,-0.7871422171592712,-1.83027184009552,-0.9292169213294983,0.7584453225135803,-0.1579771339893341,0.6672924160957336,-0.32615649700164795,-0.6888045072555542,1.438454270362854,-0.09367077052593231,-0.5850527882575989,-0.11687755584716797,0.5432335138320923,0.7365149259567261,0.5202451944351196,-0.6433115005493164,0.20861685276031494,0.7787533402442932,0.7145869731903076,0.32463452219963074,0.19831736385822296,0.35368311405181885,-0.26048544049263,1.392844557762146,-0.5628868937492371,-0.4577127695083618,-0.0916171446442604,-0.54010009765625,0.35764646530151367,-0.12124770134687424,0.36742308735847473,0.8104625344276428,-0.26031622290611267,-0.2511114776134491,0.2568073868751526,0.9381096363067627,-1.2422940731048584,-1.2555161714553833,-0.29062220454216003,-0.4968036711215973,-0.586704671382904,-0.26680463552474976,0.47801053524017334,0.9853028655052185,-0.3149068355560303,-0.612895131111145,-0.4176957905292511,-0.20524172484874725,-0.32079175114631653,0.3327368199825287,0.012016813270747662,-0.53780597448349,0.02631857432425022,0.18372295796871185,0.47701165080070496,-1.3450719118118286,-0.7605743408203125,-0.854137122631073,0.09948580712080002,0.39599576592445374,-0.7767751812934875,-0.2167384922504425,0.1469089835882187,-0.4297018349170685,-0.3735906183719635,-0.18402907252311707,0.6983294486999512,-0.19821372628211975,0.5962151288986206,-0.15927864611148834,-0.013408718630671501,-0.44130730628967285,-1.8193787336349487,-1.465479850769043,0.18217051029205322,-0.5466590523719788,0.40412572026252747,-0.008369377814233303,-0.2764956057071686,0.7151919603347778,-0.6898658871650696,-0.3216994106769562,-0.9416455626487732,-0.10593586415052414,-0.4664009213447571,0.4555548429489136,-0.5333898663520813,-0.07271367311477661,-0.6522449254989624,0.6540346145629883,0.4127100706100464,0.045336659997701645,-0.04880409315228462,0.04520150646567345,0.13694141805171967,-0.4235008955001831,0.19177253544330597,-1.2662545442581177,-0.2168838083744049,0.7558191418647766,0.26917073130607605,-0.9385430812835693,-0.559939444065094,0.17709967494010925,-0.9893274903297424,-0.6797675490379333,1.1086400747299194,0.5548450350761414,1.6127175092697144,-0.38158801198005676,-0.4306909143924713,-0.031880807131528854,-0.8051607012748718,0.5575525760650635,0.07157890498638153,-0.9209018349647522,-0.1607160121202469,0.31353533267974854,-0.09049542993307114,1.107351541519165,-0.08298593014478683,-1.4184035062789917,-0.8183932900428772,-1.3190902471542358,0.42467543482780457,0.10776657611131668,0.03757249191403389,-0.9844093918800354,-1.2032033205032349,-1.4475971460342407,1.371455430984497,1.1486029624938965,-0.04564506933093071,-0.12037783861160278,-0.07767713814973831,-0.10840621590614319,-0.32002806663513184,-0.2893518805503845,-0.24039532244205475,-0.740426778793335,0.3321726322174072,-0.28409191966056824,0.23304444551467896,-0.7117181420326233,-0.47888973355293274,0.1791890263557434,-0.2191573679447174,-1.1807178258895874,0.054718319326639175,0.11855069547891617,0.8856579661369324,0.4110201597213745,-0.6676565408706665,0.30965128540992737,0.05853879824280739,0.4160400629043579,0.6773998737335205,0.12529043853282928,1.161339521408081,-0.15303470194339752,-0.2239275872707367,-0.43701598048210144,-0.27177000045776367,0.6781929731369019,-0.021379686892032623,0.8714101910591125,-2.1275534629821777,-0.014670397154986858,0.6527044773101807,-0.573943018913269,0.6634417772293091,0.44710206985473633,-0.2747860252857208,-0.3134804666042328,0.27153825759887695,-0.22393086552619934,0.024094723165035248,-0.3916674852371216,0.5490601658821106,0.16644100844860077,0.36786267161369324,0.4426729381084442,0.2854260206222534,-1.3517937660217285,-0.005858270451426506,-0.8312805891036987,0.3328014314174652,0.11937275528907776,0.49798592925071716,-0.9402031302452087,-0.1298547089099884,-0.30415305495262146,0.7218546867370605,0.6382334232330322,-0.7264273762702942,-0.7732873558998108,-0.27321693301200867,-0.09254623204469681,1.2424644231796265,0.5780831575393677,0.4012180268764496,-0.8194955587387085,0.10879535973072052,0.07274910807609558,-0.36090797185897827,-0.2936640977859497,0.8240817785263062,-0.11481387913227081,0.46908584237098694,-0.11009952425956726,1.3499399423599243,-0.5758402347564697,0.6225541234016418,-0.9675294756889343,0.6849938035011292,0.4373995363712311,-1.2567195892333984,0.23774805665016174,1.0379042625427246,-0.01271864864975214,0.6594309210777283,1.1192599534988403,0.3748038709163666,-0.3916046619415283,0.04436790570616722,-0.30409809947013855,-0.2771117091178894,-0.5559968948364258,-0.37084707617759705,0.32960349321365356,0.14271235466003418,0.2493600696325302,0.30712398886680603,-0.4044519364833832,-0.6982579231262207,-0.6109449863433838,-0.8958158493041992,-0.6631394028663635,-1.2244431972503662,-0.45595312118530273,0.16698454320430756,0.44230735301971436,0.5454407930374146,0.4108973443508148,0.9120310544967651,1.5063023567199707,-0.9397067427635193,0.5547301173210144,-0.5936098694801331,0.6985238194465637,-1.1149526834487915,-0.9234731793403625,0.9471688866615295,0.6595563888549805,-0.40007954835891724,-0.3245794177055359,1.497738242149353,-0.046859052032232285,-1.0024242401123047,0.029357030987739563,-1.7443252801895142,-1.2808490991592407,-0.2418806552886963,0.39528608322143555,0.8262915015220642,0.11730027943849564,1.4035333395004272,0.019188545644283295,-0.07340438663959503,1.372695803642273,0.8942780494689941,0.642011284828186,0.9176105260848999,-0.40955424308776855,-0.03668942674994469,-0.4549025297164917,-0.6503064036369324,-0.1123768761754036,-0.24922306835651398,-0.3724442422389984,-0.01476304978132248,0.8934371471405029,0.5132887363433838,-0.8994885087013245,0.1614571064710617,-0.2964710295200348,-0.3750248849391937,-0.12026297301054001,-1.2127758264541626,0.25835347175598145,0.050641097128391266,0.04751143231987953,0.38811513781547546,-0.5407930016517639,-0.08183318376541138,0.5552210211753845,1.2767966985702515,0.7588639855384827,-0.06493094563484192,-0.8892874717712402,0.6796458959579468,-0.6818707585334778,-0.6879479289054871,-0.3684629797935486,-0.24260291457176208,0.12822271883487701,-1.0702909231185913,0.33812615275382996,-0.4757516086101532,0.4067365825176239,0.1554722785949707,-0.09264828264713287,-1.0583877563476562,1.1410143375396729,0.22434978187084198,0.3103445768356323,-1.151948094367981,-1.673237681388855,-0.7715060114860535,0.33197012543678284,0.6968042254447937,1.3800311088562012,0.27938157320022583,0.5791804790496826,-0.08431481570005417,-0.45756015181541443,-0.25949200987815857,-0.35048210620880127,0.7878201007843018,-0.7735311985015869,0.7279261350631714,0.41895151138305664,0.7363343238830566,-0.5602067112922668,0.40681421756744385,0.23438940942287445,1.1297892332077026,1.100870132446289,-0.4274045526981354,-0.23464590311050415,0.2925126850605011,1.4071898460388184,0.8115602135658264,0.12277070432901382,0.0016888671088963747,0.15850943326950073,0.5969152450561523,-0.4258934259414673,-0.6965050101280212,-0.012196779251098633,1.309069037437439,-0.13112898170948029,1.0951581001281738,-0.3947492837905884,-1.5265346765518188
学问,-0.37783682346343994,-0.1743752807378769,0.5192325711250305,0.13422474265098572,0.4389064610004425,1.0649248361587524,1.100888967514038,1.0306652784347534,-0.41492244601249695,-0.042986828833818436,-0.09050855040550232,0.20808379352092743,-0.24930645525455475,-0.4510404169559479,0.36282798647880554,-0.7663028240203857,1.116024374961853,-0.6089754700660706,0.545905590057373,0.8694968819618225,-0.4328711926937103,1.207247018814087,-0.6667823195457458,-0.01083085685968399,0.3196730613708496,-0.6251514554023743,-0.5333418250083923,-0.2538224458694458,-0.9372237920761108,0.942389726638794,-0.3816814422607422,-1.1768401861190796,0.37116146087646484,0.5158454775810242,0.10709591209888458,-0.06920167803764343,0.7370304465293884,-0.8908683657646179,-0.3873419761657715,-0.2293928563594818,-0.48374035954475403,0.385096937417984,1.4560531377792358,-0.5051494836807251,0.6006814241409302,0.18815869092941284,0.02847883850336075,-1.3746788501739502,0.07249937951564789,-0.009515597485005856,0.6961293816566467,0.49075135588645935,0.04150361940264702,0.04397336766123772,-0.18365375697612762,0.48090845346450806,0.1614142209291458,0.6061168909072876,0.6018185615539551,-0.13254910707473755,0.18303528428077698,0.4611984193325043,0.105473093688488,0.6487607359886169,0.3211885690689087,0.20173148810863495,-0.931972086429596,0.20539595186710358,-0.8116827011108398,1.2347954511642456,0.22537238895893097,0.4389945864677429,-0.6777401566505432,0.3309863209724426,-0.16185887157917023,-0.17698822915554047,0.7782620191574097,-1.6523643732070923,-0.16027380526065826,-0.3608373999595642,0.396769642829895,-0.6327967643737793,-0.09977081418037415,-0.17534737288951874,0.09857043623924255,-0.4777771532535553,-0.34672555327415466,0.5054239630699158,1.0275354385375977,-0.14245067536830902,-0.572819173336029,-0.36535975337028503,-0.5855308175086975,-0.28890419006347656,-0.15986007452011108,0.13006196916103363,-0.016677629202604294,-0.8277323842048645,-0.4973267912864685,0.7288793921470642,-0.049635130912065506,0.022563058882951736,0.8956471681594849,-0.9138019680976868,-0.5026227831840515,-0.1524791419506073,-0.7398636341094971,0.13928012549877167,0.0126113872975111,0.1536587029695511,0.6568268537521362,1.3487513065338135,-0.39057818055152893,-0.5423479676246643,0.5228509902954102,0.32678261399269104,-0.21678441762924194,-0.34593626856803894,-0.996063232421875,-0.9293213486671448,0.1793394833803177,0.014885964803397655,0.03303677961230278,-0.27937060594558716,1.4909430742263794,-0.8078346848487854,-0.18633688986301422,1.099022626876831,-0.2530164420604706,0.5197322368621826,0.48601940274238586,-0.4487333595752716,-0.21997466683387756,0.002487489953637123,0.6608456969261169,-0.3675139248371124,0.10326269268989563,0.008874556049704552,-0.14264756441116333,-1.7655220031738281,-0.3567333519458771,0.31111249327659607,-0.3280625641345978,0.4195108115673065,-0.08189771324396133,0.6355831027030945,-0.2919907569885254,0.3633093535900116,-0.8600212335586548,-0.900816798210144,0.26195281744003296,0.3659624755382538,0.38145914673805237,0.11255830526351929,0.4099408686161041,0.719271719455719,0.4575408697128296,-0.18268641829490662,0.544276237487793,0.1878390908241272,0.06807456910610199,0.8518619537353516,0.07534283399581909,0.3871893584728241,0.29812952876091003,0.4987022280693054,0.39638400077819824,-0.6433534622192383,-0.2839835286140442,0.4516685903072357,-0.2879278063774109,0.3600173890590668,0.19826769828796387,-0.06555500626564026,-0.6249141097068787,0.1621224284172058,-0.30279162526130676,-0.4562183618545532,-0.002512300619855523,0.028111742809414864,-0.7119927406311035,1.0883967876434326,-0.5914105176925659,0.2796851396560669,0.1533956080675125,-0.00833363737910986,1.8164112567901611,-0.5892738699913025,-0.793053388595581,0.21276286244392395,0.5294981598854065,0.40430548787117004,-0.03937789425253868,-0.42314475774765015,-0.328706830739975,0.17297306656837463,-0.5749108791351318,-0.3226807415485382,-1.0135815143585205,-0.15334203839302063,1.3317146301269531,-0.20310279726982117,0.06073165684938431,0.07824627310037613,0.5280959010124207,-0.2859022617340088,-0.08309974521398544,1.6933298110961914,-0.17980508506298065,-0.07952164858579636,-0.3668765127658844,0.004529270809143782,-0.6782926321029663,0.12059298902750015,-1.0309184789657593,-0.7457076907157898,-0.1707429736852646,0.672849714756012,0.4081574082374573,-0.08725609630346298,-0.7477851510047913,-0.8600229620933533,0.5335415005683899,0.1665741354227066,-0.5660542845726013,1.0061336755752563,0.756979763507843,0.5658206343650818,-0.3826030492782593,-1.1417038440704346,0.4442034363746643,0.6243406534194946,0.9353873133659363,-0.404268741607666,-0.5568232536315918,0.12846693396568298,-1.2076270580291748,0.2294035702943802,0.4589698016643524,-0.8039693832397461,-0.7041196823120117,-0.830341637134552,0.4306468665599823,-0.0876682922244072,-0.33673685789108276,0.8360949158668518,-0.4393126368522644,0.21705609560012817,0.4378858208656311,-0.09720253199338913,-0.14382286369800568,-0.2815137505531311,-0.2908385097980499,-0.06498579680919647,0.8332538604736328,0.93356853723526,1.3795939683914185,1.003851294517517,-0.4789927303791046,0.48020508885383606,0.5197305679321289,-0.6699691414833069,-0.3132038116455078,-0.35227471590042114,-0.2628677189350128,0.22369828820228577,-0.4243798553943634,0.03524129465222359,0.9824013113975525,0.5666816830635071,0.4157460927963257,-0.42594972252845764,-1.1538771390914917,0.6722512245178223,-0.3950839638710022,-0.12345148622989655,-0.06836538016796112,-0.039618879556655884,-0.5613152384757996,-1.3790581226348877,0.06582261621952057,-0.42089468240737915,-0.8729599714279175,0.2616477310657501,-0.15212176740169525,-0.23568736016750336,-0.1841096729040146,0.5448922514915466,0.6081787347793579,-0.4286901652812958,0.9251943826675415,-0.14666210114955902,-0.06570655852556229,-0.016938526183366776,-0.31241926550865173,0.31030094623565674,0.09425269812345505,-0.6447857618331909,0.15803660452365875,0.4612573981285095,-0.25840798020362854,0.361489862203598,-0.5860995650291443,-0.32648295164108276,0.3885268568992615,-0.32057493925094604,-0.5446789860725403,-0.24427755177021027,0.3829883933067322,0.7737987637519836,-0.5582435727119446,0.24479226768016815,1.3750101327896118,-0.30313950777053833,0.9381438493728638,-0.5864741802215576,-0.177908256649971,0.9954050183296204,-1.45030677318573,-0.177944153547287,0.3984140157699585,0.3361300230026245,-0.07945339381694794,-1.4088170528411865,0.4632260203361511,0.046426791697740555,0.9611772894859314,0.3910897374153137,0.2550542950630188,-0.8196026086807251,-0.23044216632843018,0.40184053778648376,0.06513886153697968,-0.7146247625350952,-0.8543264865875244,0.015037545002996922,1.956345796585083,-0.6517959833145142,0.02221669629216194,-0.12303341180086136,-0.13003607094287872,0.06669127196073532,0.08227533847093582,-0.6196942329406738,0.27894142270088196,1.2042287588119507,0.18014201521873474,-0.2042272388935089,-0.5443233847618103,-0.5025633573532104,0.5203117728233337,-1.3449907302856445,0.1608717441558838,0.16349910199642181,0.2160411924123764,0.1415177583694458,0.00012969814997632056,0.08972999453544617,0.3596782386302948,0.15994150936603546,-0.048428479582071304,-0.8613881468772888,-0.80122309923172,0.7374443411827087,0.13305550813674927,-0.7853502631187439,0.13579604029655457,0.5900577306747437,-0.5235583186149597,0.6295546293258667,0.37465813755989075,-0.881403386592865,-0.24279344081878662,0.9972160458564758,0.17768681049346924,-1.0028411149978638,1.1164661645889282,0.23374933004379272,-0.0041701775044202805,0.722064197063446,0.7292124629020691,0.1571706086397171,0.24547192454338074,-0.16060078144073486,-0.3209802806377411,-0.7314567565917969,0.16241705417633057,-0.22658216953277588,-0.46093690395355225,-0.06599847972393036,0.09916556626558304,0.20475123822689056,0.38628146052360535,-1.0981905460357666,-0.2525644898414612,0.3086187243461609,0.7640490531921387,-0.9824830889701843,0.4378978908061981,-2.0735981464385986
地球,0.07715688645839691,-0.12038881331682205,0.8795028328895569,-0.7214704751968384,-0.3079088032245636,-0.1443556249141693,0.18491986393928528,1.580345630645752,0.3125460147857666,-0.37881046533584595,-0.15097512304782867,-0.5331081748008728,1.5333408117294312,-0.19556477665901184,1.0144078731536865,0.5343901515007019,-0.6943214535713196,0.8167284727096558,0.11473795771598816,-1.1468950510025024,0.9384357929229736,0.6087093949317932,0.9464035630226135,-0.6079078912734985,-0.9132658839225769,0.5342664122581482,-0.4799641966819763,0.8255501389503479,-0.6082976460456848,-0.2697193920612335,0.3550686538219452,-0.7317326068878174,1.6267142295837402,0.14466851949691772,0.880200982093811,-0.4848189353942871,-0.7324494123458862,-0.6787421703338623,0.4692203104496002,-0.5909778475761414,-0.44840186834335327,1.0469911098480225,0.8674350380897522,-1.0800608396530151,-0.0568118616938591,1.3363802433013916,1.0317668914794922,-0.07249048352241516,0.9909229874610901,-0.6032567620277405,0.3223438262939453,-0.5349909067153931,-0.23866894841194153,0.9471609592437744,0.7254043817520142,-0.26968255639076233,-1.3502922058105469,1.0905358791351318,-0.5755351781845093,0.6704366207122803,-0.8689184188842773,0.6415736675262451,0.9850272536277771,0.9246945381164551,-0.9392597675323486,-0.42736172676086426,-0.1462174952030182,-0.09420547634363174,0.4071902632713318,-0.19770941138267517,-1.1855239868164062,-0.5240186452865601,0.19297575950622559,-0.28914952278137207,0.9356753826141357,-0.2612621486186981,0.12731404602527618,0.6786244511604309,-0.03964047133922577,-1.2335774898529053,-0.19211922585964203,0.7461585998535156,-0.2956322729587555,-1.1252139806747437,-0.6176919341087341,0.5831547379493713,0.9249221086502075,-0.4694942831993103,0.5710786581039429,-1.2993988990783691,-0.08811251074075699,0.8540048599243164,-0.8211244940757751,-0.35027042031288147,1.0263161659240723,-1.7349514961242676,0.26442357897758484,-0.6559279561042786,0.5801680088043213,0.480485200881958,0.24374157190322876,-0.18342214822769165,0.46595272421836853,-0.23469465970993042,-0.3672136664390564,-0.048243001103401184,0.2041667401790619,0.5039385557174683,-0.6321073770523071,0.0905366763472557,-0.5193532109260559,0.012987738475203514,-0.2728694677352905,0.5805827379226685,1.73835289478302,0.5310686826705933,-0.4800478219985962,-0.6805509924888611,-1.493355393409729,-0.7268140316009521,-1.3596211671829224,1.3232982158660889,0.8274458050727844,-1.095139980316162,0.516512393951416,-0.516680121421814,-0.2713286578655243,-0.44112998247146606,0.023005999624729156,0.7389318943023682,0.29418596625328064,-0.5415810942649841,0.35834431648254395,0.8891522288322449,0.07001274824142456,-0.27844470739364624,0.5665836930274963,0.8333719968795776,0.4956195652484894,0.298528254032135,1.002986192703247,-0.08106281608343124,0.24958154559135437,-0.637121856212616,-0.5308135151863098,-0.5898730754852295,-0.5079016089439392,0.3109348714351654,1.0834250450134277,-0.8381214737892151,-0.014943648129701614,-0.5155857801437378,0.03574531525373459,0.804158091545105,1.2123851776123047,-0.41372132301330566,0.3732747435569763,0.27188840508461,0.29965880513191223,-0.07218388468027115,0.9739169478416443,0.25881022214889526,0.8828613758087158,-0.16468031704425812,-0.956026554107666,-1.7570667266845703,0.40916797518730164,-0.8016310334205627,-0.23972555994987488,-0.30934539437294006,0.982995331287384,-0.3820677399635315,0.8141457438468933,-0.49679356813430786,1.4027578830718994,-0.12179440259933472,0.7227432131767273,-0.1696239709854126,-0.3084348440170288,-0.6774618625640869,-0.6540899872779846,-0.7071873545646667,-0.2831847071647644,-0.4233548045158386,-0.17522640526294708,0.28663355112075806,-0.5518331527709961,-1.2147709131240845,-0.39929044246673584,0.5501694679260254,0.011981481686234474,-0.7674486041069031,-0.2562313973903656,-0.7737309336662292,-0.7038218975067139,-1.0860587358474731,-0.5254635214805603,-0.834881067276001,0.47143152356147766,1.1936646699905396,0.5473132133483887,0.24411217868328094,0.057271286845207214,-0.2482955902814865,-0.05162949115037918,-0.28281369805336,1.0847833156585693,-0.746391773223877,-0.6068548560142517,0.5011658668518066,0.334685355424881,-0.4048061668872833,-0.7999616861343384,0.34397080540657043,-0.16817036271095276,-1.1031049489974976,-0.5096186399459839,0.3535502254962921,0.5342700481414795,-0.0062038591131567955,-0.6410375833511353,-0.0823792815208435,-1.95488440990448,0.3430883288383484,-0.4078509211540222,-0.5595842599868774,0.39743074774742126,0.18270286917686462,-0.24685104191303253,-1.2309600114822388,-1.7846583127975464,0.14055556058883667,0.7270654439926147,0.5239633917808533,0.08098863065242767,0.7032192349433899,0.22294795513153076,0.12544652819633484,0.7390243411064148,0.782450795173645,-0.4081062078475952,0.3687378168106079,-0.08004630357027054,-0.4212738573551178,0.29005661606788635,-0.3566303551197052,0.33246538043022156,0.2167101949453354,0.40762484073638916,-0.5044043064117432,0.7263849973678589,0.5990586876869202,-0.6221619844436646,0.902089536190033,1.05479097366333,-0.026330692693591118,0.11847911030054092,-0.14008282124996185,0.004161116201430559,0.2719765901565552,-0.46943387389183044,-0.34243813157081604,0.44195109605789185,-0.4632475674152374,-0.03480425849556923,0.5561350584030151,0.1091126948595047,-0.601382315158844,-0.4949561357498169,-0.1525021195411682,0.31747913360595703,-0.022940224036574364,0.6894761919975281,0.02953910455107689,0.1088324785232544,0.5159057378768921,-0.13116049766540527,0.48725247383117676,-0.4132077097892761,0.9330645799636841,0.9413257241249084,0.7532649040222168,0.7096310257911682,0.5007847547531128,0.5703262686729431,-0.31430333852767944,-0.7421734929084778,-0.11992113292217255,-0.6875898241996765,0.6904745697975159,-0.17310506105422974,-0.10949241369962692,0.9382860660552979,0.3004801869392395,0.15381093323230743,0.2835070490837097,-0.649726390838623,-1.2281765937805176,0.9514381289482117,-0.3442702889442444,-0.4148789942264557,1.0027951002120972,-0.49427443742752075,0.8225358128547668,-1.016292929649353,-0.4052945673465729,-1.128740668296814,0.3334226906299591,-0.4339677095413208,-1.0019806623458862,-1.3325833082199097,0.9025055766105652,0.317021906375885,0.586747944355011,0.15076899528503418,0.6817857027053833,-0.36440420150756836,-1.6635380983352661,-0.33225157856941223,0.6018646359443665,-0.045173872262239456,0.06159799546003342,-1.065401554107666,-0.012512695044279099,0.3348197937011719,1.1081254482269287,0.790173351764679,-0.09970797598361969,-0.22681814432144165,0.1438683420419693,0.12642516195774078,0.7865850925445557,-0.024327129125595093,-0.563720703125,-0.5807548761367798,0.35834839940071106,0.017237020656466484,-0.5303268432617188,-0.5651500821113586,0.6076127290725708,1.3020942211151123,0.8591340780258179,0.23770444095134735,-0.5942734479904175,-1.4461406469345093,-0.6431126594543457,-1.3528372049331665,0.17577537894248962,-0.9934907555580139,0.37105193734169006,-0.19875819981098175,-0.7859763503074646,1.4552417993545532,1.2371368408203125,0.41388827562332153,-0.3464573919773102,0.04497654736042023,-0.38902029395103455,0.15550284087657928,-0.7923149466514587,-0.6954154968261719,0.2514680325984955,-0.4106823801994324,0.5880457162857056,-0.03786221146583557,0.12559545040130615,-0.3316120207309723,-0.5114997625350952,1.0843472480773926,0.23165155947208405,0.5118638277053833,0.26037654280662537,0.5119199156761169,-0.08249172568321228,0.07999943941831589,-0.6072675585746765,0.7491675019264221,0.37412768602371216,0.15177501738071442,0.09971281886100769,-1.2234117984771729,0.10579947382211685,-0.7869459986686707,0.3534414768218994,-0.6009374260902405,-1.6425060033798218,-0.1460462361574173,0.028111698105931282,0.741590678691864,0.08570574223995209,0.1621529906988144,0.8050647974014282,0.18377304077148438,-0.9007131457328796,0.5087947845458984,0.4241340160369873,0.2683574855327606,1.5727348327636719,-0.6173064708709717,0.7967321872711182
电影,0.1655644029378891,-0.7928091883659363,0.10577215999364853,1.411988615989685,0.05490358546376228,-0.21233953535556793,-0.05888957157731056,0.16679154336452484,-0.20366695523262024,-0.871149480342865,-0.0404239259660244,0.03668760508298874,-0.6474414467811584,-0.6792583465576172,1.2202346324920654,-0.2595785856246948,-0.6399909853935242,0.014982952736318111,-0.18238551914691925,-0.9705569744110107,0.24671250581741333,-0.8688346743583679,-0.9794107675552368,-0.2080647349357605,-0.08031081408262253,0.9426679015159607,0.3407321572303772,0.9514753818511963,-0.9977505207061768,0.2002267688512802,-0.4716108441352844,0.2713806629180908,1.3829765319824219,-0.3952995538711548,0.563076913356781,-0.8860558867454529,0.6092300415039062,0.15849235653877258,-0.26212483644485474,-0.43874281644821167,-0.27500611543655396,0.5086761713027954,-0.06574946641921997,-0.16342948377132416,-1.2779154777526855,0.0024853358045220375,0.7783927917480469,-0.25324055552482605,0.3990477919578552,0.6342147588729858,0.5101442337036133,0.8894298672676086,-0.05418844893574715,0.8007245063781738,-0.24403807520866394,0.10562967509031296,0.16201302409172058,0.6673668026924133,-0.35538333654403687,-0.7441942691802979,0.01402343064546585,-0.6242350935935974,-0.11787188798189163,1.4787615537643433,-0.785709023475647,-0.2692835032939911,0.6347610950469971,-0.9402443766593933,-0.18366248905658722,-0.11438854783773422,-0.7407658696174622,0.8668836355209351,1.3668452501296997,0.19206486642360687,-0.26501351594924927,0.2625117897987366,-0.30847251415252686,-0.06176915764808655,0.6453637480735779,-0.35469669103622437,0.4472402334213257,-0.8152992725372314,-0.43789142370224,-0.3234879672527313,-0.14830009639263153,0.40550941228866577,0.6970672607421875,-0.7915855646133423,0.9390753507614136,-0.24002718925476074,-0.28833869099617004,-0.545356035232544,-0.5982450246810913,-0.5975179672241211,1.0276564359664917,-0.6451990008354187,-0.09897151589393616,-0.32859840989112854,0.2297060489654541,0.0008386451518163085,-0.5143758654594421,-0.9788174033164978,0.10080470144748688,-0.05225994065403938,-1.2545084953308105,-0.6048864722251892,-0.2874038815498352,0.40442633628845215,1.236917495727539,0.8228272795677185,0.7893176674842834,0.8407726287841797,0.5338033437728882,0.18386825919151306,0.37912577390670776,0.23840190470218658,-0.01258022990077734,-0.8084039092063904,-0.32753095030784607,0.4650003910064697,-0.9867346882820129,-0.3510383367538452,0.1307990700006485,0.5762986540794373,1.008321762084961,-0.2242128998041153,-0.0008179678698070347,-0.5583381056785583,-0.6849642395973206,0.5461565852165222,0.42781201004981995,-0.6833756566047668,0.2789444625377655,-0.4225231111049652,0.3167489767074585,-0.4498319625854492,-0.3995034098625183,0.27351143956184387,0.11682403087615967,-0.5961365103721619,0.8343151211738586,0.1128607988357544,-0.6211018562316895,0.6169832944869995,-0.02372417040169239,-0.3386285603046417,-0.29225027561187744,0.2723406255245209,-0.2900095283985138,-1.21063232421875,-0.012911824509501457,-0.47296759486198425,0.3988575339317322,0.45048782229423523,1.052580714225769,0.23634488880634308,0.6118065714836121,0.007652926258742809,-0.23920375108718872,0.24424287676811218,-0.44124463200569153,-0.4421890079975128,0.40742868185043335,-0.48553797602653503,1.8026483058929443,-0.9381322860717773,0.5087139010429382,0.2599048912525177,-0.8373465538024902,-0.1514631062746048,-0.6275843977928162,-0.776904821395874,0.2335050255060196,-0.7245875597000122,-0.6270117163658142,0.7037954926490784,-0.5314303040504456,-0.844026505947113,0.7125739455223083,-0.7436277270317078,0.7313067317008972,0.8118440508842468,-0.5810011029243469,-0.47297725081443787,1.025131106376648,0.4406576156616211,-0.8579146862030029,0.37694957852363586,0.13397596776485443,0.048197370022535324,-0.11056994646787643,-1.0453609228134155,-0.20159687101840973,0.26161569356918335,0.23286743462085724,0.26510486006736755,-0.9262068271636963,0.28718867897987366,-0.16497235000133514,-0.34345200657844543,0.6831241250038147,0.4158390462398529,1.0512170791625977,0.3738914132118225,-0.9236945509910583,-0.6172063946723938,-0.5578295588493347,0.3641713857650757,0.8338148593902588,-0.4230313301086426,0.1501077115535736,0.27418261766433716,1.377344012260437,0.24567271769046783,0.026865258812904358,-0.9604604840278625,-0.14658790826797485,0.2647016942501068,0.5432080626487732,0.10040181875228882,-0.7213524580001831,-0.5929506421089172,-0.18876324594020844,0.4010060727596283,0.12276589870452881,-0.14048469066619873,-0.16879676282405853,-0.216313898563385,0.6360858082771301,-0.16934694349765778,-0.36684709787368774,0.8094800710678101,-0.21548353135585785,-0.4567513167858124,0.09248347580432892,-0.07838456332683563,-0.3974063992500305,-0.2892255187034607,-0.30024781823158264,0.16586481034755707,-0.5508809089660645,0.4449840784072876,0.021824609488248825,0.8131313323974609,0.36687490344047546,0.2723334729671478,-0.1334606409072876,-0.5076520442962646,-0.12192493677139282,0.1454230099916458,0.25318095088005066,-0.8803889155387878,-0.5869144797325134,-0.10503558814525604,-0.16612109541893005,0.29254406690597534,0.7268924713134766,-0.9661011099815369,0.08934386819601059,0.5584415197372437,-0.9017745852470398,-0.624722957611084,0.5887411832809448,0.07069788128137589,0.42688480019569397,0.8015767335891724,-0.449064165353775,-1.2599012851715088,0.22775056958198547,0.1481216698884964,-0.20670899748802185,-0.9124844074249268,-0.5754808783531189,-0.5397127866744995,1.1432985067367554,0.947208046913147,-0.10384748876094818,-0.004214481916278601,-0.27548202872276306,-0.5019819736480713,-0.5271122455596924,0.4321618676185608,0.5864856839179993,-0.7600573301315308,0.9331005811691284,0.5246147513389587,0.5446182489395142,-0.048402246087789536,-0.5481868982315063,0.27765557169914246,0.4290723204612732,-0.9093330502510071,0.011802968569099903,-0.13989828526973724,-0.8561179637908936,0.33311134576797485,-0.4228365123271942,-0.42791748046875,0.2281120866537094,0.2749963402748108,-0.8133638501167297,0.3245254456996918,-0.5484464764595032,0.12593601644039154,-0.15249596536159515,-1.4476773738861084,-0.8029605746269226,0.30952152609825134,-0.5447797179222107,-0.30503538250923157,0.1261635422706604,-0.33275875449180603,-0.8620463013648987,0.6499279141426086,-0.23715095221996307,-0.46335193514823914,-0.29922470450401306,-0.2891720235347748,0.07722441107034683,-1.2047607898712158,1.715311884880066,-0.24832220375537872,-0.2010963410139084,-0.2963360846042633,-0.20289696753025055,0.629980206489563,0.6263617873191833,-0.25531333684921265,-0.42553335428237915,1.3362890481948853,0.8560758233070374,-0.23070040345191956,0.7769359350204468,0.443917840719223,-0.5067427158355713,-0.7202345728874207,-1.4151010513305664,-0.5289040207862854,0.21650806069374084,-0.19905084371566772,-0.4631686508655548,0.2742001414299011,-0.3158705532550812,-0.7673810720443726,-0.6078276038169861,-0.42961814999580383,-0.24736954271793365,1.0591590404510498,-0.528523325920105,1.0800455808639526,1.0290141105651855,-0.2747410535812378,0.8050511479377747,0.563707172870636,0.5974282026290894,-0.5402916073799133,-0.7385107278823853,0.9580696821212769,-0.23809227347373962,0.2502896189689636,0.21739262342453003,-0.7615619897842407,-0.6354613304138184,0.5431079864501953,-0.3283000886440277,-0.5887315273284912,0.24870644509792328,-0.13130490481853485,0.2101430743932724,-0.5091021060943604,-0.3843413293361664,0.7119818925857544,0.7596966028213501,0.004961085505783558,-0.9747185111045837,1.4354573488235474,-1.522856593132019,0.5413551330566406,-0.22069694101810455,-0.030285775661468506,-1.5206098556518555,-0.014521697536110878,-0.2893013060092926,-1.185715913772583,0.03983226791024208,0.5558226704597473,-0.009828396141529083,-0.05278557538986206,-0.3995243012905121,-0.5708125233650208,-0.6480537056922913,-0.6097741723060608,-0.37010422348976135,0.002508840523660183,0.8235368728637695,0.18159787356853485,0.47682785987854004,0.9162891507148743,0.7757166624069214,-0.1307583600282669
邻座,1.5529921054840088,-0.17402012646198273,1.56998610496521,-0.4233557879924774,0.9472198486328125,1.0249242782592773,-1.387073040008545,0.5300211906433105,1.6154210567474365,-1.198316216468811,0.6189294457435608,0.2317570596933365,0.6978177428245544,-0.8573726415634155,-1.4906342029571533,-1.1419501304626465,0.5811528563499451,2.911275625228882,-2.0909688472747803,0.25883200764656067,1.2302953004837036,0.464346706867218,0.4759572446346283,0.038243673741817474,0.10195496678352356,1.125748872756958,-0.05537538602948189,0.8796764016151428,-0.040173474699258804,-0.256130576133728,0.7114969491958618,0.10730793327093124,0.1704319417476654,0.4776619076728821,1.5596104860305786,-0.7407049536705017,-1.6331076622009277,1.4984050989151,-0.07495003193616867,-0.9397844672203064,-2.129606246948242,0.8033531308174133,-1.1967962980270386,-0.872058093547821,0.3265787661075592,1.1291927099227905,-0.452422559261322,-0.8178384900093079,2.887641191482544,-1.0346534252166748,-2.3637099266052246,0.7055240273475647,-0.7558003067970276,-0.6928013563156128,-0.8335133194923401,0.7749267220497131,0.010858818888664246,-0.24864889681339264,1.1878154277801514,-0.4802462160587311,0.3400130867958069,0.08441542088985443,-1.1393369436264038,0.3546302616596222,-1.1090915203094482,-0.13261516392230988,-0.13928452134132385,-0.10205856710672379,-0.19427216053009033,2.811950206756592,-0.6389783024787903,-1.3100751638412476,0.6078119874000549,-0.2578236758708954,-1.136010766029358,1.1152859926223755,-0.7724772691726685,0.159438818693161,2.7428953647613525,-1.436344027519226,-1.4754347801208496,-0.7346771359443665,1.4774924516677856,1.2763572931289673,-0.5227735042572021,-1.114016056060791,0.34444499015808105,-0.6995733976364136,0.4732944369316101,-0.6851481199264526,-1.2734073400497437,-1.0397448539733887,-0.49497315287590027,-2.173060655593872,0.0650702640414238,-1.5599898099899292,-0.3087851405143738,1.842936396598816,-0.23061423003673553,-0.19830718636512756,0.5463102459907532,1.0868940353393555,0.8409594893455505,-0.20946085453033447,-0.8456617593765259,0.9108851552009583,-1.0053596496582031,-0.24300070106983185,0.6435370445251465,1.0129345655441284,0.6525498032569885,0.04111943766474724,0.2861287593841553,-0.5878912806510925,-1.2344712018966675,-0.7007700800895691,1.5290770530700684,1.9140253067016602,0.06070986017584801,-0.2925513684749603,-1.7708852291107178,1.3433090448379517,-1.6979327201843262,-2.071945905685425,-0.9922792911529541,-0.3531898260116577,0.6324259638786316,-0.5862647891044617,2.111140489578247,-0.42269593477249146,-0.3432108163833618,0.6541467308998108,0.34275147318840027,-0.03166214004158974,1.0228512287139893,0.42320823669433594,0.7025238871574402,0.594030499458313,-0.3591350317001343,-2.2279672622680664,0.8654889464378357,1.546982765197754,0.5259239673614502,0.192567378282547,0.2346375435590744,-0.2044447362422943,-0.722831130027771,-0.6708912253379822,0.5629629492759705,0.9225188493728638,-1.59537935256958,2.053560972213745,0.934467077255249,0.8230683207511902,-0.5062122941017151,0.5243141651153564,-0.40124425292015076,0.720775306224823,-1.5633388757705688,-1.1672406196594238,0.8600492477416992,0.4164694547653198,-0.6241649985313416,-0.12908710539340973,-0.9116166830062866,0.4398694634437561,0.47494611144065857,1.3377410173416138,-1.0994951725006104,0.7672686576843262,0.3466005325317383,-0.39703670144081116,-1.101960301399231,-1.4268733263015747,1.4136854410171509,-0.44446754455566406,-2.3791306018829346,-1.7959638833999634,-0.23649393022060394,-1.8354185819625854,0.7086869478225708,-1.2263743877410889,-0.5925135612487793,-0.7184150218963623,0.5050798058509827,0.9243656396865845,-1.256492018699646,0.29853036999702454,-1.288016438484192,0.16789092123508453,-0.2960279583930969,-0.44825443625450134,0.16784237325191498,-0.24618157744407654,-1.3109369277954102,0.142875537276268,-1.4026063680648804,1.5844990015029907,-1.5415620803833008,0.3010116517543793,-0.2565018832683563,0.7336474061012268,-1.3317798376083374,-0.8873711824417114,0.05573703721165657,-0.5709136128425598,-0.8307349681854248,-0.8065550923347473,0.6998411417007446,-0.10166753828525543,-0.0025515526067465544,-0.019208308309316635,1.078143835067749,-0.5040926933288574,-0.5715479254722595,-0.44227340817451477,-1.2652281522750854,0.23319678008556366,-0.28381580114364624,0.23393195867538452,0.2166404128074646,0.12247870862483978,0.17162556946277618,0.26258015632629395,-1.4535871744155884,0.5607627630233765,0.13154715299606323,0.3697483539581299,-0.5057417154312134,1.3348941802978516,1.9015438556671143,-0.7634425163269043,-0.22020402550697327,0.8668798208236694,-0.6767608523368835,-0.4642006456851959,1.0650554895401,0.26722097396850586,-0.3146156668663025,-0.6491404175758362,0.06889607012271881,-0.6865408420562744,-0.4657355546951294,1.0188038349151611,1.9409170150756836,0.0037085977382957935,-0.2566174566745758,0.8832098841667175,-1.3363938331604004,-0.8466843962669373,0.534925103187561,-0.02134234830737114,0.06526485830545425,1.2026140689849854,0.7976688146591187,-0.6109429597854614,-0.04592661187052727,-0.3640606999397278,1.0834800004959106,0.8180646300315857,-0.19026051461696625,-1.830767273902893,-0.26472678780555725,0.5211865305900574,0.7938265800476074,0.5477390885353088,0.26896560192108154,-1.8336471319198608,0.40658241510391235,-0.07084863632917404,0.7222043871879578,-0.8741807341575623,-0.005606126040220261,3.401703357696533,-0.9539095163345337,0.363496869802475,-1.624854326248169,-0.020522046834230423,0.8792950510978699,0.702979564666748,-0.7718082666397095,1.0227175951004028,1.454819917678833,-0.20395150780677795,0.6310164332389832,-0.6232115626335144,0.631801962852478,1.0516966581344604,-0.7308306694030762,-1.217546820640564,1.7493833303451538,0.9964373707771301,1.2883988618850708,-1.1254440546035767,-1.7753632068634033,1.266614317893982,1.409975290298462,0.6730475425720215,1.5159064531326294,-0.7730128765106201,0.4551502466201782,-1.6166837215423584,0.48382341861724854,0.25306347012519836,0.05245443806052208,1.2379692792892456,0.2764061987400055,-0.8010785579681396,1.400469183921814,1.306784987449646,0.6791229844093323,0.48060035705566406,1.7850134372711182,0.9545711278915405,-0.9837290048599243,0.5017649531364441,-1.7881526947021484,-0.4205152690410614,-1.09162175655365,0.06755100935697556,-0.37516313791275024,0.947664737701416,0.05706414952874184,0.6727762818336487,-0.8704150915145874,1.3700867891311646,-0.25860756635665894,0.18936695158481598,0.63265061378479,-0.4555246829986572,-0.9243999123573303,0.41980817914009094,-0.28084951639175415,-0.6088094711303711,-1.475989580154419,0.5230387449264526,1.2353471517562866,0.4615628719329834,2.023573160171509,-0.08591800183057785,-1.3594595193862915,0.07139164209365845,0.9086363911628723,-0.14523184299468994,-0.5245367288589478,0.7132866978645325,-0.10306626558303833,-0.8515490889549255,-0.16127048432826996,-0.33552587032318115,-0.3308529555797577,-1.1581882238388062,-0.948612630367279,0.5395894050598145,-0.02510392665863037,0.47294119000434875,-0.40688103437423706,0.25399866700172424,0.5857747197151184,1.190369963645935,-0.6025071740150452,0.2266940474510193,2.3421316146850586,-0.08819815516471863,-0.09597164392471313,-0.7928875684738159,-0.6570405960083008,-0.4146624207496643,0.04778020456433296,-1.5552884340286255,-0.9712412357330322,1.179534912109375,-1.0046257972717285,0.20803958177566528,1.0921860933303833,-0.44157683849334717,-1.4222766160964966,0.06875019520521164,1.023337721824646,-0.8755927681922913,-1.635721206665039,0.10719294846057892,0.39470115303993225,0.3346725106239319,0.010667107068002224,-0.5531036853790283,-0.46791893243789673,-0.19775325059890747,0.44582921266555786,-0.51549232006073,-1.5661733150482178,-1.0551066398620605,1.0706795454025269,-1.0542322397232056,0.6258462071418762,-0.3982478976249695,1.3655043840408325,1.1473997831344604,0.6507017016410828,0.7833570241928101
