word,0,1,2,3,4,5,6,7,8,9,10,11,12,13,14,15,16,17,18,19,20,21,22,23,24,25,26,27,28,29,30,31,32,33,34,35,36,37,38,39,40,41,42,43,44,45,46,47,48,49,50,51,52,53,54,55,56,57,58,59,60,61,62,63,64,65,66,67,68,69,70,71,72,73,74,75,76,77,78,79,80,81,82,83,84,85,86,87,88,89,90,91,92,93,94,95,96,97,98,99,100,101,102,103,104,105,106,107,108,109,110,111,112,113,114,115,116,117,118,119,120,121,122,123,124,125,126,127,128,129,130,131,132,133,134,135,136,137,138,139,140,141,142,143,144,145,146,147,148,149,150,151,152,153,154,155,156,157,158,159,160,161,162,163,164,165,166,167,168,169,170,171,172,173,174,175,176,177,178,179,180,181,182,183,184,185,186,187,188,189,190,191,192,193,194,195,196,197,198,199,200,201,202,203,204,205,206,207,208,209,210,211,212,213,214,215,216,217,218,219,220,221,222,223,224,225,226,227,228,229,230,231,232,233,234,235,236,237,238,239,240,241,242,243,244,245,246,247,248,249,250,251,252,253,254,255,256,257,258,259,260,261,262,263,264,265,266,267,268,269,270,271,272,273,274,275,276,277,278,279,280,281,282,283,284,285,286,287,288,289,290,291,292,293,294,295,296,297,298,299,300,301,302,303,304,305,306,307,308,309,310,311,312,313,314,315,316,317,318,319,320,321,322,323,324,325,326,327,328,329,330,331,332,333,334,335,336,337,338,339,340,341,342,343,344,345,346,347,348,349,350,351,352,353,354,355,356,357,358,359,360,361,362,363,364,365,366,367,368,369,370,371,372,373,374,375,376,377,378,379,380,381,382,383,384,385,386,387,388,389,390,391,392,393,394,395,396,397,398,399
储藏室,-0.7113118171691895,-0.6908345222473145,-0.16323906183242798,0.2592977285385132,-0.22712013125419617,-0.20260366797447205,0.3279404938220978,1.4305446147918701,-0.1851421445608139,-0.8541052341461182,-0.23721791803836823,-0.201961949467659,1.2238003015518188,0.3438969552516937,-1.1224784851074219,0.4254840314388275,-0.17706158757209778,-0.10126324743032455,-0.8056415915489197,0.034117747098207474,-0.6942746639251709,-1.0260802507400513,-0.4466688930988312,0.2124301642179489,-0.673936665058136,0.3237910568714142,-0.12496324628591537,-0.3340896666049957,-0.10061481595039368,-0.8103698492050171,-0.8607845306396484,-0.7504409551620483,0.37097135186195374,-0.3665676414966583,0.3946928381919861,-0.4190409481525421,-0.20826993882656097,-2.055372476577759,0.7192205190658569,-0.02139563299715519,0.23090937733650208,-0.25404176115989685,0.17601259052753448,-0.07309087365865707,0.4420986473560333,0.3321093022823334,-0.7577508687973022,-0.35453736782073975,-1.0539095401763916,-0.08299805968999863,0.6384018659591675,-0.6627676486968994,0.6069775223731995,0.1093764677643776,0.013780735433101654,-0.782860517501831,-0.014419585466384888,-0.02499162219464779,0.3962661623954773,-0.9317580461502075,0.979684591293335,-0.678474485874176,-0.4214077293872833,0.5965003371238708,0.3014144003391266,0.9973597526550293,-0.22115546464920044,0.18250851333141327,-0.5148591995239258,0.5509078502655029,0.26836156845092773,0.2357446551322937,-0.37485554814338684,0.6026938557624817,0.5155846476554871,0.06408905982971191,-0.7016432285308838,1.1186805963516235,0.680786669254303,-0.599520206451416,-0.34527936577796936,-1.3556698560714722,0.40845730900764465,-1.0828981399536133,-0.1475060135126114,-1.4784519672393799,-0.9301803112030029,-0.7561739683151245,-1.6447547674179077,0.5518344640731812,0.16688629984855652,-0.03859088197350502,0.5354050993919373,0.21087680757045746,0.30629920959472656,-0.7892851233482361,1.177724003791809,-0.3255348801612854,0.6547639966011047,0.253846675157547,-0.39303693175315857,0.2538982331752777,0.9933508634567261,-1.480488896369934,0.1306363344192505,-0.205161452293396,-0.07492174953222275,0.9916524291038513,0.10975875705480576,0.37296062707901,0.9674152135848999,0.2893640100955963,0.17499849200248718,0.5707706212997437,-0.20995841920375824,0.1111069843173027,-0.29806873202323914,0.3467862010002136,-1.0541871786117554,-0.198256716132164,-0.570777952671051,-0.2891992926597595,-0.08614936470985413,-1.0790787935256958,0.9460790157318115,0.2245134562253952,-0.5918241143226624,-1.1663703918457031,-0.7143254280090332,0.24540624022483826,0.27643173933029175,0.7990495562553406,0.03536144271492958,-0.6524882912635803,-0.6943855285644531,0.7512833476066589,1.1029233932495117,0.28725844621658325,-0.04889964684844017,-0.6592624187469482,0.45674628019332886,0.5695805549621582,0.5285119414329529,-0.8916162848472595,0.2525888681411743,-0.3859512209892273,0.687549352645874,0.7273971438407898,-0.37755081057548523,-0.12547674775123596,0.7033319473266602,-0.09639348834753036,-0.7627952098846436,0.7409918308258057,0.3310818374156952,-0.26789161562919617,0.1734420210123062,-0.7055887579917908,1.486372470855713,-0.3911918103694916,-0.7359994649887085,0.3007265627384186,-0.4908023476600647,0.5799088478088379,0.06389401853084564,0.16124755144119263,-0.8492893576622009,0.3125131130218506,0.01743518002331257,-0.35714221000671387,1.0272964239120483,-1.7306737899780273,0.331113338470459,0.3859257400035858,0.22080722451210022,0.791300892829895,0.026520688086748123,-0.6587239503860474,0.3773622512817383,-0.04519880563020706,-0.36778056621551514,0.17482934892177582,0.32474398612976074,0.3987462520599365,0.7191177606582642,0.025055477395653725,-0.6943552494049072,0.8847895860671997,-0.19890066981315613,0.27623751759529114,-0.09243562072515488,0.12159755825996399,-0.197254940867424,0.6691461801528931,0.04343119636178017,-0.20296670496463776,0.1727937012910843,0.32072174549102783,-0.1518138200044632,0.44340062141418457,0.3627554774284363,-1.2014821767807007,0.28004828095436096,-0.24753886461257935,0.6269612312316895,-1.5634596347808838,0.20087485015392303,1.0207394361495972,1.0737597942352295,-0.6587246060371399,-0.7804354429244995,-0.5833702683448792,-0.963318943977356,0.2606804072856903,-1.0184985399246216,-0.827724814414978,0.7076646089553833,0.5081124901771545,-0.06190373748540878,-0.29227596521377563,0.745440661907196,0.06846020370721817,-0.2685907185077667,-0.43132880330085754,-1.2834968566894531,1.772233009338379,0.36126255989074707,0.2492975890636444,-1.0067752599716187,0.34798914194107056,-1.5008991956710815,0.719512403011322,0.5255959630012512,-0.33002281188964844,0.8525310158729553,-0.5660576224327087,0.1215517446398735,0.25448229908943176,-0.321094274520874,-0.6081613898277283,-1.074629306793213,-0.2849308252334595,-0.24604760110378265,1.2800816297531128,0.6142764091491699,0.6563761830329895,0.5179936289787292,0.18285462260246277,0.7592814564704895,1.014682650566101,0.2970570921897888,0.04653634876012802,0.22237876057624817,0.8325205445289612,0.33565977215766907,-0.47821807861328125,-0.25042474269866943,0.09679731726646423,0.38380956649780273,-0.25426962971687317,-0.17097719013690948,-0.39820194244384766,1.132607102394104,0.1277608573436737,0.0947711393237114,-0.2119978666305542,-0.2453998327255249,-0.09819167852401733,0.4426133632659912,-0.27878159284591675,-0.46460869908332825,-0.6368353962898254,-0.3949066996574402,-0.448510080575943,-0.8337553143501282,-0.06874430924654007,-0.40020987391471863,0.45057645440101624,0.6348958015441895,-0.4486730694770813,0.45301008224487305,0.08412754535675049,0.00787312537431717,0.42038053274154663,-0.002943805418908596,-0.0013010456459596753,-1.1754553318023682,0.015857217833399773,-0.35318344831466675,-0.13180924952030182,0.8237133622169495,0.39803051948547363,-0.21822530031204224,0.23048022389411926,0.4979463517665863,1.0231373310089111,-0.9172264337539673,-0.01900581456720829,-0.4299030900001526,-0.5972739458084106,1.7914384603500366,-0.3988567292690277,0.09330044686794281,0.3575737774372101,0.3743163049221039,-0.6078928112983704,-0.09671150892972946,0.17795012891292572,-0.358747273683548,-1.288121223449707,0.49640774726867676,0.717313826084137,0.8452157974243164,-0.2851383090019226,1.038434624671936,0.2529691457748413,0.411454439163208,-0.1013684943318367,-0.5613425374031067,0.3932844400405884,0.07865618914365768,0.30843687057495117,-0.1891069859266281,0.19480259716510773,-0.4861101806163788,0.4026188254356384,0.07765667140483856,0.20987650752067566,0.9341443181037903,0.38669416308403015,-0.1009601578116417,0.9550591707229614,-0.20519325137138367,0.373169481754303,-0.2492765635251999,-0.8521141409873962,-0.17071199417114258,-0.5538814067840576,0.1607247292995453,-0.3154696226119995,1.105277419090271,0.02644140087068081,0.2473045289516449,1.0110926628112793,-0.203687846660614,-0.5421536564826965,-0.3467646837234497,-0.47022345662117004,0.7058430910110474,0.22889630496501923,-0.1404748409986496,0.7400060892105103,0.8899126052856445,-0.30233797430992126,-0.3311684727668762,0.3215823173522949,-0.173948734998703,-0.004326555412262678,0.12177085131406784,1.445583462715149,0.5009169578552246,-0.4177205562591553,-0.550897479057312,0.16578155755996704,0.5699843168258667,0.5646933913230896,0.5193196535110474,-0.5497382879257202,0.38841551542282104,-0.5074971318244934,-0.6964888572692871,0.732284426689148,0.2957359254360199,0.12264055013656616,-0.1563149094581604,-0.9660218954086304,0.5567455291748047,1.0234283208847046,0.4268888831138611,-0.05013935640454292,0.11248880624771118,0.5182574987411499,0.05813542380928993,-0.04940435290336609,-0.4284262955188751,0.6902870535850525,-0.3368462026119232,-0.07351183891296387,-0.3373567759990692,-0.07718756049871445,0.5368311405181885,0.9099976420402527,-0.7452035546302795,1.0448490381240845,0.21238362789154053,0.30147480964660645,-0.4891694188117981,-0.7861425280570984,-0.8634320497512817,0.3195074498653412
死角,0.7285059690475464,-1.3826470375061035,0.3725466728210449,-0.8882068395614624,-0.8273058533668518,0.7683115601539612,-0.6443122029304504,-0.2922905683517456,0.05996108800172806,-0.5515773296356201,-0.255193293094635,0.5725816488265991,-0.7229834198951721,-0.8891127705574036,-0.01639612577855587,0.7952712178230286,0.6001147627830505,0.6101773977279663,0.23578748106956482,-0.1675659567117691,0.9349167346954346,-0.16483871638774872,0.3511623740196228,-0.2358016073703766,0.11702921241521835,1.7360445261001587,-0.41263294219970703,0.1504945456981659,-0.6592147350311279,-0.3304719626903534,-0.2179132103919983,0.6189963817596436,0.9014493227005005,-0.8018750548362732,0.2824332118034363,-0.6190356016159058,-0.2705940902233124,-1.0022101402282715,0.624921441078186,-0.13640891015529633,-0.45259034633636475,-0.09061507880687714,-0.2329404652118683,-1.1205412149429321,-0.5321398973464966,0.37216779589653015,-0.2846561372280121,0.16883790493011475,-0.2542835474014282,1.2435122728347778,-0.9594626426696777,-0.5112075209617615,-1.309906005859375,0.07971825450658798,-0.09598933160305023,0.12546639144420624,0.37087154388427734,-0.04229314252734184,0.37543347477912903,-0.5749624967575073,0.42048192024230957,0.021461162716150284,-0.5616783499717712,-0.2641257047653198,0.24684694409370422,-0.28316983580589294,-0.5121720433235168,-0.9211826324462891,-1.3545087575912476,-0.5693073272705078,0.3404560685157776,0.9703149795532227,1.1680653095245361,-0.06107962131500244,0.4201233983039856,-0.14474640786647797,0.018485108390450478,-0.6830880045890808,0.7899503111839294,-0.941680371761322,0.27407506108283997,-0.3065662682056427,-0.37734803557395935,-0.11961006373167038,0.5769214630126953,0.8298740983009338,-0.040685299783945084,-0.5748340487480164,-0.07370327413082123,-0.9987161755561829,-0.7896345257759094,0.28109392523765564,0.4280175566673279,-0.04987780377268791,-0.6411547660827637,0.07909286767244339,-0.2506157159805298,-0.5423968434333801,0.31408149003982544,-0.42107683420181274,0.8181403279304504,-0.24211572110652924,0.4556501507759094,-0.26875120401382446,-0.7380654811859131,0.7846438884735107,-0.24614039063453674,-0.3375105559825897,-1.0734788179397583,-0.5257413387298584,-0.2822420597076416,-0.8040189743041992,-0.41967514157295227,-0.08919714391231537,-0.44450050592422485,1.9804691076278687,-0.44799524545669556,-0.7440420389175415,0.13362832367420197,0.1716359406709671,0.8633721470832825,0.48524487018585205,0.46507444977760315,-0.7803676128387451,0.2707197070121765,0.3773840367794037,-0.6745580434799194,-1.169832706451416,0.524338960647583,-0.005084323696792126,-0.30484336614608765,0.9515435695648193,0.498532772064209,0.783588707447052,0.13759846985340118,0.030832111835479736,0.25240233540534973,0.32661500573158264,-0.6770907044410706,0.06709366291761398,-0.0037481391336768866,-0.18090589344501495,-0.46473032236099243,-0.3016645014286041,0.09345418214797974,-1.5574578046798706,1.2332483530044556,-0.551257848739624,0.17503561079502106,-0.43086811900138855,-0.03899175673723221,1.2162253856658936,-0.5577279925346375,1.4581985473632812,1.1917966604232788,0.9870970845222473,0.6073286533355713,-0.25827211141586304,0.4291127026081085,-0.6288555860519409,-0.7574453949928284,-0.8477087616920471,-1.162561058998108,-0.4499220848083496,0.6735668778419495,0.004294395446777344,0.4775296449661255,-0.2609984874725342,-0.48605507612228394,0.5957497954368591,-0.5714035630226135,-0.472796231508255,0.17308412492275238,0.3146035671234131,-0.1762930452823639,-0.7023019790649414,-1.2194372415542603,0.21305164694786072,1.4849669933319092,-1.3600170612335205,-0.5487369894981384,0.5974565148353577,0.3941207230091095,-0.4231829047203064,0.6563762426376343,-0.15232987701892853,1.141465663909912,-0.020910166203975677,-0.7188406586647034,0.747036337852478,1.2994146347045898,-0.5649149417877197,0.2240225225687027,0.04687651991844177,0.5864929556846619,0.8690263032913208,0.248567134141922,-0.03533788025379181,0.44762757420539856,-0.709089457988739,0.7464630007743835,-1.4016598463058472,1.187208890914917,-0.3613998293876648,0.8547314405441284,1.3453322649002075,0.4502650499343872,1.0608569383621216,-0.7010875940322876,1.243284821510315,-0.33913660049438477,-0.7197132110595703,-0.5962364077568054,0.5151276588439941,0.10683044046163559,0.0504118949174881,-0.5494425296783447,0.5815965533256531,0.5116285681724548,-0.5240334868431091,0.5742464065551758,0.3417382538318634,0.6375595331192017,-0.625186026096344,0.14270001649856567,-0.07132238894701004,0.42478835582733154,-1.0464534759521484,0.04110701009631157,0.3815130591392517,-1.793842077255249,0.432025671005249,1.0636039972305298,-0.05534220114350319,-0.8358700275421143,-0.05537720397114754,0.6754534244537354,0.16507674753665924,-0.8448100686073303,0.006107788998633623,-0.0324445515871048,0.28751134872436523,-0.8561222553253174,0.5137022733688354,-0.2848736345767975,0.2586694359779358,0.18733865022659302,-0.46821796894073486,0.5995187759399414,0.015570851042866707,0.5384659767150879,0.14390765130519867,0.7960691452026367,-0.5891648530960083,0.5735475420951843,-0.8394255638122559,0.5995149612426758,-0.942245602607727,1.092809796333313,1.0559824705123901,-0.08263058215379715,0.4133204221725464,-0.497398316860199,-0.18289650976657867,0.1671145260334015,0.07963348180055618,0.7022095918655396,-0.34851640462875366,0.9257760047912598,-0.9863713979721069,0.9958329796791077,0.023349730297923088,-0.16110534965991974,0.802424967288971,0.19814027845859528,-0.7866572737693787,0.7311539053916931,-0.8844768404960632,0.32056400179862976,-0.0278554055839777,0.5732905864715576,0.08880595862865448,-0.28702303767204285,-0.481194406747818,-0.39574772119522095,0.5185211300849915,-0.12469029426574707,-0.07163839787244797,1.027719259262085,-0.34493693709373474,0.26930922269821167,-0.4761171340942383,-0.6324196457862854,0.5092651844024658,-0.30635952949523926,1.054917335510254,-0.13892072439193726,1.5895274877548218,1.7971478700637817,-0.4600216746330261,-1.196371078491211,0.5225602984428406,0.4111085534095764,-0.5391469597816467,-0.4214667081832886,-1.261482834815979,-1.2267497777938843,-0.13766956329345703,0.4604399800300598,-0.24335977435112,0.024800071492791176,-0.5021523237228394,-1.0963377952575684,0.03572244942188263,-0.27835023403167725,-0.29509350657463074,0.6508743762969971,0.1070290058851242,-0.2691735327243805,-0.3141573369503021,1.5631943941116333,-0.473822683095932,-1.2602983713150024,0.27994033694267273,-0.9954507946968079,0.018664544448256493,1.1413220167160034,0.7158697247505188,0.701886773109436,-1.075305461883545,0.5559817552566528,0.19405397772789001,-0.15217478573322296,-0.34756848216056824,-0.3689694404602051,0.1508484035730362,-0.3837454617023468,-0.996837854385376,-0.3503556251525879,-0.6210154294967651,0.3564983308315277,0.14660798013210297,-0.38407307863235474,0.12400152534246445,0.2194659262895584,-0.6403642296791077,-0.8766053318977356,0.5586199164390564,-0.21845319867134094,-0.9501367807388306,-1.104264736175537,-0.3444221019744873,1.0542277097702026,-0.36054709553718567,-0.5259208679199219,0.8906318545341492,0.8136343359947205,0.0977286696434021,-0.5752395391464233,0.7236234545707703,0.1574815958738327,0.2155781090259552,-1.8389337062835693,1.0097160339355469,-0.5716714859008789,1.0924456119537354,0.9960792064666748,-0.9383041262626648,0.9146796464920044,-0.7287794351577759,0.8922150731086731,0.4438357949256897,0.2720347046852112,0.11936373263597488,1.071838140487671,-0.7749828100204468,-1.1926207542419434,-0.7564537525177002,-0.047626640647649765,0.4080452024936676,1.3317657709121704,-1.3369001150131226,0.06906428188085556,0.3262290358543396,-0.2765533924102783,-0.5137609839439392,0.5618644952774048,-0.7969902157783508,0.12872005999088287,0.1067453920841217,0.057237546890974045,0.1614619493484497,-0.47142043709754944,0.30167102813720703,0.34576502442359924,-0.20464946329593658,-0.5165089964866638,0.20775799453258514,-0.35166579484939575,2.0521907806396484
方案,0.27015775442123413,0.4318026602268219,-0.7576934099197388,-0.16169485449790955,0.08118045330047607,0.4745462238788605,0.18706901371479034,0.432882696390152,0.7586897611618042,0.3349508047103882,0.17396704852581024,0.7628384232521057,0.942693829536438,-0.051986560225486755,-0.39243873953819275,0.14372052252292633,-0.7010851502418518,1.7355800867080688,1.1696568727493286,-0.11529470980167389,-0.8167378306388855,0.22097373008728027,-0.3673921823501587,0.9425464272499084,1.1747872829437256,-0.7778986692428589,-0.013765676878392696,-0.35941237211227417,-1.6600122451782227,0.9907860159873962,0.2754327058792114,-0.3588676452636719,0.34233030676841736,0.6247921586036682,-0.4764777719974518,-0.017778512090444565,-0.9504557251930237,0.2782270610332489,-0.7803874015808105,-0.4369105100631714,0.9551792740821838,-0.3946830928325653,1.9670825004577637,-0.8185745477676392,-1.2935898303985596,-0.7342438697814941,0.21817263960838318,-0.2611089050769806,1.3624004125595093,1.1366792917251587,0.5111438632011414,0.6735191941261292,-0.046683862805366516,0.21281006932258606,0.38881292939186096,-0.1494346410036087,0.7865792512893677,-0.5521364808082581,0.4773269295692444,-0.07200691103935242,-0.3199325203895569,0.3662474751472473,0.2597736120223999,-0.46282216906547546,-0.48492905497550964,0.05512790009379387,-0.42330265045166016,-0.1724064201116562,-0.49111083149909973,1.8369332551956177,-1.0977343320846558,1.2229185104370117,0.18850332498550415,-0.4065917730331421,0.06973884254693985,-0.5244818329811096,0.7677578926086426,-0.7423319816589355,-0.10672573745250702,-0.10287182778120041,0.09592050313949585,0.40545526146888733,-0.19811639189720154,0.2746448218822479,-1.538012146949768,-0.5227121114730835,0.5495234727859497,-0.9240635633468628,-0.31021904945373535,-1.0047733783721924,-0.3711622953414917,-0.8247308731079102,-0.3236944079399109,-0.16103702783584595,0.047468334436416626,0.6804746985435486,0.7043337225914001,0.35032373666763306,-0.14452703297138214,0.16788756847381592,0.7623957395553589,0.01930779404938221,-0.9742315411567688,-0.49936890602111816,0.06927483528852463,0.14890462160110474,-0.058071691542863846,-0.2703091502189636,0.09356825053691864,0.6161911487579346,-0.3837510645389557,-1.085684061050415,-0.30341941118240356,-0.1320980042219162,-0.16591116786003113,-0.6423013210296631,-0.6043907403945923,-0.6798326969146729,0.5216996669769287,-0.48857828974723816,-0.9148523211479187,-1.0778663158416748,0.17241579294204712,0.7359596490859985,0.1779268980026245,0.5619872212409973,-0.14851810038089752,-0.5634576082229614,-0.8361232876777649,-0.5568439364433289,-0.34476006031036377,0.2293003350496292,-0.9582650065422058,0.24049635231494904,-0.3815726041793823,1.162629246711731,0.6174441576004028,0.6492877006530762,-1.2443593740463257,-0.34170952439308167,1.283333659172058,0.7411814332008362,-0.07790977507829666,0.9721081852912903,-0.8607326149940491,0.43399277329444885,0.33640801906585693,0.7198501229286194,0.19114179909229279,-0.7664026618003845,-0.12006694823503494,0.43209925293922424,0.08918419480323792,0.2220994532108307,-1.1425514221191406,0.2808746099472046,0.4321554899215698,0.36543652415275574,0.1407756805419922,0.3283750116825104,0.2628616392612457,0.9667616486549377,-0.2712065577507019,-0.6712543368339539,-1.0677282810211182,-1.1219202280044556,0.10089977085590363,0.37938401103019714,-0.2254345864057541,0.19455429911613464,0.22281408309936523,-0.30681130290031433,0.2071661651134491,0.2332276552915573,0.024250365793704987,0.5117016434669495,0.2212573140859604,-0.496112197637558,0.9142953753471375,0.7793005704879761,-0.3540061116218567,0.8918147683143616,-1.0525530576705933,0.578120231628418,-0.0055319322273135185,1.0576733350753784,1.1369061470031738,-0.39013734459877014,-0.5596740245819092,-0.4723415970802307,0.1991792917251587,-1.451452374458313,-0.2544485032558441,0.2804211676120758,0.8328986167907715,0.00023662067542318255,-0.4967101514339447,-0.018286174163222313,0.3857696056365967,-0.26745161414146423,0.03383532166481018,-0.06774045526981354,0.26805904507637024,-2.0005416870117188,0.17345421016216278,0.09613655507564545,0.01607602834701538,1.1524659395217896,0.1766965687274933,-1.79112708568573,-0.28948113322257996,0.6866396069526672,-0.4298951029777527,0.580833911895752,0.13847552239894867,0.06183432787656784,-0.11481600254774094,-0.17279395461082458,-1.2610079050064087,0.8128411769866943,0.16859593987464905,0.2918471693992615,0.45041871070861816,0.05052647739648819,-0.32585954666137695,-0.08041147887706757,0.3767355978488922,0.4420972168445587,0.09184938669204712,0.5309801697731018,-0.17111755907535553,0.9378600716590881,-0.4592944085597992,0.48211348056793213,0.8086856007575989,0.29917117953300476,-0.5061957240104675,-0.5100931525230408,0.11905872076749802,0.21603605151176453,0.3803783059120178,-0.7703588008880615,-0.39361482858657837,0.08455736935138702,0.958874523639679,0.048701703548431396,0.6905336976051331,-0.20420712232589722,-0.10317260026931763,0.0326167456805706,-0.7571901082992554,-0.10359940677881241,0.15172389149665833,-0.23796045780181885,0.6301650404930115,0.8769861459732056,-0.20463310182094574,0.5678885579109192,-0.43983194231987,1.415076732635498,-0.5982450842857361,0.037889186292886734,0.14104589819908142,0.5620753169059753,0.4768528342247009,0.49778836965560913,0.008324715308845043,0.18588152527809143,-0.39951303601264954,0.2990640103816986,0.12011607736349106,0.7069093585014343,-0.7185721397399902,-1.1545183658599854,0.06466265022754669,0.6494000554084778,-0.2529105842113495,0.026453349739313126,0.16399049758911133,-1.3284627199172974,-0.4593077003955841,0.0309425201267004,0.974271833896637,0.31891465187072754,-0.43613728880882263,0.3258567750453949,0.4640548527240753,-0.2923819124698639,-0.534648597240448,0.6038417816162109,0.42684945464134216,-0.08516538143157959,0.047148142009973526,0.29089710116386414,-1.5647900104522705,-0.015527673065662384,-0.6905551552772522,-0.1856245994567871,0.1252451390028,-0.21461424231529236,-0.334314227104187,1.2270697355270386,-0.11850666999816895,1.288424015045166,-1.468512773513794,-0.5567389130592346,-0.5598956942558289,-0.4743959307670593,-0.4928916394710541,-0.850541353225708,-1.2019625902175903,-0.40397772192955017,-1.2154775857925415,0.013175363652408123,0.49873876571655273,-0.4369078278541565,0.15360981225967407,0.35811498761177063,0.5166419148445129,0.17867112159729004,-0.5576862692832947,0.6654477715492249,1.4126815795898438,0.6549422740936279,0.601210355758667,0.05881921947002411,-0.052522674202919006,0.40558063983917236,0.21328222751617432,-0.3636471629142761,0.753545343875885,-0.37554359436035156,-0.030597105622291565,0.00805069599300623,0.4626995027065277,-0.6737927794456482,0.8316527009010315,-0.005981201771646738,-0.6637886762619019,0.7256443500518799,1.0513173341751099,-0.19376516342163086,0.01148221455514431,-0.05510379374027252,0.4368995726108551,-0.6765198111534119,-0.6464402675628662,0.4096970856189728,-0.3421662747859955,-0.2204769402742386,-0.5703667402267456,-0.7487980127334595,1.0121713876724243,-0.032348278909921646,0.7067477107048035,0.4109330475330353,0.9098593592643738,-0.5841867327690125,0.5621323585510254,0.345607727766037,0.6705952882766724,0.3487359583377838,-1.1162846088409424,-0.09186453372240067,0.26436465978622437,-0.046366069465875626,0.21805383265018463,0.07693568617105484,-0.9729094505310059,0.03355005010962486,-0.5193774104118347,0.1555921882390976,0.6347717642784119,-1.0752519369125366,0.8488861322402954,-0.18701893091201782,-0.59329754114151,0.23530763387680054,-0.6222299337387085,-0.6947457790374756,0.16768833994865417,-0.09935598075389862,0.9942718148231506,-0.006909615825861692,0.08712878823280334,-1.060390591621399,-0.7095670104026794,-0.0941852405667305,-0.1401105374097824,0.4392736554145813,-0.5007765889167786,-0.07455185800790787,-0.4815152883529663,0.04560787230730057,0.9206641316413879,1.0555797815322876,-0.372505784034729,1.1083389520645142,-0.3821702301502228,-0.7742393612861633
障碍物,0.3402523994445801,-0.13845540583133698,-0.16311071813106537,-1.80372953414917,-0.27334263920783997,0.4184461534023285,0.25191831588745117,-0.3405747711658478,-0.24872441589832306,0.23175206780433655,-0.5815415382385254,0.44986119866371155,-0.35302862524986267,-0.6194607019424438,0.9808478951454163,-0.8519893288612366,-1.8773176670074463,1.9696468114852905,0.24253317713737488,-0.9135284423828125,0.47695526480674744,-0.4782786965370178,0.9138621091842651,-0.44834956526756287,0.13702262938022614,0.6151265501976013,-0.7165470123291016,-0.22736045718193054,-0.6251931190490723,0.0949607864022255,0.19697324931621552,0.20995040237903595,1.4745222330093384,-0.8463031053543091,0.07143089175224304,-1.0671221017837524,-0.7945416569709778,-1.6074784994125366,-0.41142237186431885,-0.7662764191627502,0.7821065187454224,0.31914854049682617,-0.5168021321296692,-0.10295996814966202,0.9908207058906555,-0.04562759771943092,-0.8378608226776123,0.43413665890693665,-0.04607773199677467,0.4731418490409851,-0.41171175241470337,-0.6740288734436035,-0.5437502861022949,-0.4039958417415619,0.4290446639060974,-0.4626751244068146,-1.3346227407455444,-0.021117860451340675,0.5672023296356201,0.9828862547874451,1.216747522354126,-0.6213955879211426,-0.09481301158666611,-0.02640833891928196,0.02390589565038681,-0.30393704771995544,0.43250390887260437,0.7996798753738403,-0.07581844180822372,1.1160444021224976,0.8935359120368958,0.5719220638275146,-0.04141809418797493,0.3741021752357483,0.5293674468994141,-0.9168190956115723,-0.159358948469162,-0.14870239794254303,-0.0025928239338099957,-0.7736550569534302,0.7120316624641418,-1.2764053344726562,-0.097752645611763,1.257685899734497,-0.5260748863220215,-1.7301793098449707,-0.2926304340362549,-0.041130129247903824,0.11160679906606674,0.8468354344367981,0.18110452592372894,0.26113468408584595,-0.13883712887763977,-0.09469372779130936,-0.5605162382125854,-0.4325626492500305,0.5069937109947205,-0.7929455041885376,-0.8557348251342773,-0.15137575566768646,-0.15339450538158417,-0.1957692801952362,0.2746116816997528,-1.0160284042358398,0.07995697855949402,0.41884270310401917,0.3159933090209961,-1.0953820943832397,0.32032880187034607,-0.4688161015510559,-0.07134696841239929,-0.6795271039009094,-0.17391233146190643,1.0137537717819214,-0.5910652875900269,0.7024007439613342,1.1102811098098755,0.7193641066551208,-0.7713350653648376,-0.8384882807731628,-0.03822574391961098,0.9355653524398804,-0.1863642930984497,-0.6266601085662842,0.8471285700798035,-0.579426646232605,-0.8220956921577454,0.2588193118572235,-0.8088355660438538,0.3901301622390747,-0.11901682615280151,0.41979554295539856,-0.3390154242515564,0.993938684463501,0.06337301433086395,0.4478539526462555,-0.03530413657426834,0.29641783237457275,-0.22768349945545197,-0.40121224522590637,-0.04311290383338928,0.553816020488739,0.4843190610408783,0.6124694347381592,0.49359259009361267,-0.680426299571991,0.5586968660354614,-0.01967131905257702,-0.26996910572052,-0.33523786067962646,-1.0274139642715454,1.392596960067749,-0.5293445587158203,-0.13582682609558105,0.6977558732032776,1.0814664363861084,1.0328855514526367,0.734886109828949,0.03829537332057953,0.11362180858850479,-0.25752440094947815,-0.7149977684020996,-0.13747283816337585,0.19335418939590454,0.3098495602607727,-1.1158804893493652,-1.2711073160171509,0.4143539071083069,-0.256442666053772,0.43247848749160767,0.26966187357902527,0.15178300440311432,-0.5188482403755188,-0.3778029978275299,1.2236610651016235,0.3194511830806732,-0.611219584941864,-0.21774797141551971,1.3831806182861328,-1.3710699081420898,-0.1740339994430542,-0.824560284614563,-0.6594576835632324,0.14923593401908875,0.5942677855491638,-0.8020046353340149,-0.5918008089065552,0.41447097063064575,0.8977460861206055,-0.0651196613907814,1.7405622005462646,0.25579068064689636,0.023571448400616646,-0.7702381014823914,0.7275295257568359,-0.22709347307682037,-0.04497958719730377,-0.9617774486541748,0.427385151386261,-0.4759363532066345,-1.1127594709396362,0.28539732098579407,1.4351613521575928,0.3680266737937927,0.02598751150071621,0.2920578122138977,0.8587343096733093,-0.8798727989196777,0.11327382922172546,0.4434979557991028,-0.03093789331614971,-0.33418259024620056,-0.09590373933315277,0.6145854592323303,0.08720346540212631,-0.9580482840538025,-0.2537100911140442,0.5336839556694031,0.9950918555259705,-0.26525282859802246,0.5523437261581421,0.3573794960975647,0.9087623357772827,-0.1661296933889389,-0.5257889628410339,-1.0859876871109009,0.5213863849639893,-1.005272388458252,-1.4406723976135254,-0.7063831090927124,-1.1743133068084717,0.16614224016666412,0.4960607886314392,-0.4194204807281494,0.39418259263038635,-0.2400743067264557,-0.5828761458396912,0.5308834910392761,0.37639275193214417,-1.5857704877853394,-0.8200495839118958,1.310645341873169,0.7557019591331482,0.18300765752792358,-0.051648736000061035,-0.8931925892829895,0.650153398513794,0.9862064123153687,1.8703234195709229,-0.07379795610904694,-0.34108680486679077,0.8742684721946716,-0.284103125333786,-0.11573930829763412,0.7046376466751099,0.6371109485626221,-0.2080521285533905,0.02380719594657421,-0.787330687046051,0.7550708651542664,-0.16299432516098022,-0.59864741563797,-0.06647422909736633,-0.5243393182754517,-0.1626754254102707,-0.33573466539382935,0.277753084897995,-1.5780223608016968,-0.3942960500717163,-1.2350132465362549,0.3421156108379364,0.6031818985939026,-0.6582176685333252,-0.33462756872177124,0.7767490148544312,0.21331363916397095,-1.1481025218963623,-0.403550386428833,0.0588257759809494,-1.1360183954238892,0.3364301919937134,0.28844407200813293,1.7074089050292969,0.10874168574810028,0.8678144812583923,0.06235472112894058,0.38680577278137207,0.4096614718437195,-0.3246740698814392,0.47777342796325684,1.3171015977859497,-0.7413142919540405,-0.7935099005699158,1.0093835592269897,-0.18763774633407593,-0.4172937273979187,0.05160883814096451,0.11165318638086319,-0.47700217366218567,-0.6550270915031433,-0.38464072346687317,-0.6421077251434326,-0.20554673671722412,-0.12933044135570526,-0.6020904183387756,-0.49717622995376587,-0.7664589285850525,0.40644514560699463,0.4050903618335724,-0.49793240427970886,-0.1792694628238678,0.34010598063468933,-0.002736188005656004,0.07160959392786026,-0.8705257773399353,-0.8198137879371643,-0.15703004598617554,0.14921732246875763,-1.0924549102783203,1.6709308624267578,0.13348832726478577,-0.22070926427841187,-0.4782850444316864,0.37287437915802,-0.6021769642829895,-0.021521467715501785,0.22342972457408905,-0.1226683259010315,0.7368429899215698,0.5300030708312988,-0.9006322622299194,-0.13684985041618347,-0.5649149417877197,0.40843647718429565,-0.3185312747955322,-0.4294278919696808,0.07729244977235794,-0.2889091670513153,-0.3053875267505646,0.5845699906349182,1.2745773792266846,0.013026848435401917,1.0993266105651855,1.4518922567367554,0.2317240685224533,-0.7644872069358826,-1.1283093690872192,0.504672110080719,0.592492401599884,-1.2176092863082886,-0.20904196798801422,-0.31769970059394836,1.145006775856018,-0.04385659098625183,-0.4663659334182739,0.5113959908485413,-0.058553144335746765,0.3057752251625061,-0.7407031655311584,0.8722335696220398,-0.0596071220934391,-0.24818532168865204,-1.3827506303787231,0.7708913683891296,-1.3381946086883545,0.4333244860172272,0.6426253914833069,0.03595956042408943,1.2889772653579712,0.2103569209575653,0.919194221496582,-0.5944436192512512,1.139989972114563,0.32885852456092834,0.9449814558029175,-0.10601583868265152,-0.36860033869743347,-0.10776699334383011,0.3429661691188812,2.452303409576416,0.35445910692214966,-0.14196529984474182,0.6553440690040588,-0.26713642477989197,0.23128464818000793,-0.3119354248046875,0.1888824850320816,-1.253127098083496,0.41634151339530945,0.08982923626899719,-0.10798392444849014,0.3319247364997864,-0.8939766883850098,-0.6877896189689636,0.6360890865325928,0.22115753591060638,-0.8360108137130737,-0.09852278977632523,0.716060221195221,2.0386812686920166
波长,-0.4499533474445343,1.2964280843734741,-1.1325939893722534,-0.12725141644477844,0.10286539793014526,0.442659854888916,-0.8548144698143005,-0.7112286686897278,0.9174031019210815,1.560658574104309,1.5754187107086182,0.7351701855659485,-0.9406725168228149,-0.0033180820755660534,0.2783997356891632,-0.6686188578605652,0.48331886529922485,1.5122886896133423,-0.20385579764842987,0.41763952374458313,-0.06090252846479416,0.16562315821647644,1.0848578214645386,0.8558425903320312,1.0488102436065674,0.10663504898548126,-1.4432851076126099,-1.0076658725738525,-1.186334490776062,0.3143996298313141,-0.07810436934232712,-0.22224174439907074,0.991680383682251,-1.7916321754455566,1.1090296506881714,0.21229639649391174,-1.5120396614074707,-1.2277206182479858,-0.3234553635120392,-2.080435037612915,-1.5318387746810913,-0.35642877221107483,0.20680119097232819,-1.1692924499511719,0.5320131182670593,-0.6520969271659851,0.3867145776748657,0.5031540989875793,-1.014487862586975,-0.17667783796787262,-0.32017815113067627,-0.29372039437294006,-0.6903142929077148,-0.5014282464981079,1.2258683443069458,0.69221031665802,-0.31490886211395264,1.5916260480880737,-0.10378625988960266,-0.12885835766792297,0.02565496414899826,0.03128217160701752,-0.5226585268974304,0.3780590295791626,-0.5261977314949036,1.4916421175003052,-1.2083414793014526,0.008858303539454937,0.403724730014801,0.5701533555984497,-0.8004290461540222,0.907589316368103,0.021900126710534096,-0.6485421657562256,0.2315678596496582,2.180332660675049,0.4634382128715515,-0.6431474089622498,1.5075114965438843,0.01696481741964817,0.7422827482223511,0.4776114225387573,0.7688772678375244,-0.052791982889175415,-1.0160719156265259,-0.02691842056810856,-0.08590447902679443,1.0926108360290527,0.9554175138473511,-2.1068270206451416,-0.30420637130737305,-1.0952303409576416,-2.4800491333007812,-1.6528531312942505,0.1185411885380745,0.7376760840415955,0.3931067883968353,0.3563808500766754,1.041369080543518,-0.19519364833831787,-0.5757808685302734,0.17816363275051117,-0.8976774215698242,0.15057405829429626,-1.2866939306259155,-1.5243560075759888,0.3121800720691681,0.5150366425514221,-1.330834150314331,-2.1093897819519043,-0.010138834826648235,1.1374273300170898,-0.6670506000518799,0.5912303924560547,0.943808376789093,0.7519456148147583,0.5789825320243835,-0.8465017080307007,-0.3705645799636841,0.7135894894599915,-0.7605066895484924,1.7431976795196533,1.4872788190841675,-0.7128840088844299,-0.08295691758394241,-0.00477941520512104,0.42618921399116516,0.4528709948062897,0.11712705343961716,0.007572021335363388,-0.07497268170118332,-0.08917644619941711,-0.2930932343006134,0.9966312050819397,0.19129399955272675,-0.8534356355667114,0.032514721155166626,0.8691115379333496,0.11027169227600098,0.6808599829673767,-0.11805208772420883,-0.8827698826789856,-0.5555227398872375,0.9207230806350708,0.0883508175611496,-0.24045856297016144,0.11635071784257889,0.1491253674030304,0.6414196491241455,-0.07240092009305954,1.5016791820526123,-0.131980761885643,-0.11140693724155426,1.3882253170013428,0.49478745460510254,1.1778810024261475,-0.8512516617774963,0.76375812292099,1.4685546159744263,0.5631253719329834,1.3538906574249268,1.063819169998169,-0.5955204963684082,0.2304927259683609,-0.015077004209160805,-0.2598361074924469,-0.01593535579741001,0.24550658464431763,-0.2843206822872162,-0.09620954096317291,-0.11788376420736313,-0.11824041604995728,-0.11067899316549301,0.8282838463783264,-0.1348726898431778,-0.9033100008964539,0.8266742825508118,-0.4556051790714264,1.3878276348114014,-0.24512231349945068,-0.5960515141487122,-1.260075569152832,0.01247743796557188,-2.3155739307403564,-0.7918831706047058,0.8521928191184998,1.1965539455413818,-0.9199589490890503,-0.37316247820854187,-0.4894247055053711,0.9759889841079712,-1.0003643035888672,0.20053189992904663,-0.6717220544815063,0.19346100091934204,-1.2414402961730957,0.17474785447120667,0.6924025416374207,0.969889223575592,0.9651225805282593,-0.17571337521076202,0.15119923651218414,-2.214812994003296,-0.5380337238311768,0.20705336332321167,0.9997476935386658,1.559709072113037,2.0112059116363525,0.10418818891048431,-0.2918839752674103,-0.39751389622688293,-0.4822794497013092,-1.5154657363891602,0.1838514804840088,0.8231751918792725,0.625164806842804,1.0013097524642944,-0.20201237499713898,1.0560499429702759,-0.7584870457649231,0.02749880589544773,-1.4533270597457886,-0.7107089161872864,0.8065422773361206,-1.0300060510635376,0.8984597325325012,0.3136841356754303,-1.0543863773345947,-1.3318411111831665,-0.2758835554122925,0.4485808312892914,1.8253380060195923,0.2195591777563095,-0.4855553209781647,1.6118216514587402,1.4747852087020874,0.23358120024204254,-1.2140945196151733,1.127020239830017,-0.8873624205589294,-0.9490183591842651,0.3881278336048126,0.9025921821594238,-0.1809915155172348,-0.2901712954044342,0.3825136423110962,1.4756890535354614,-0.26947394013404846,1.7979440689086914,-0.09033318608999252,0.6634726524353027,-0.7062256932258606,0.5740840435028076,0.7014333605766296,1.5503838062286377,0.3083829879760742,0.348766565322876,-1.2558159828186035,-1.3097903728485107,-0.21685168147087097,-0.1966877281665802,-0.3408926725387573,-0.7331766486167908,-0.7739541530609131,-0.2654067277908325,-1.6100821495056152,-0.1262761354446411,-2.595280885696411,0.41211584210395813,1.2887287139892578,-0.04979420080780983,0.8196413516998291,0.676654577255249,0.02705216594040394,-0.7185666561126709,1.6655583381652832,-0.40942811965942383,-0.19479481875896454,-1.9444102048873901,-1.5421147346496582,-0.4408973753452301,-0.33689257502555847,1.0590726137161255,-0.18588043749332428,0.5163814425468445,-0.7926817536354065,-0.1756681352853775,0.17127785086631775,-1.9883849620819092,-0.017031215131282806,0.6645856499671936,0.3263857364654541,-0.5958089828491211,-0.6749638319015503,-0.311318576335907,0.09916713088750839,-0.0807078555226326,-0.9435126781463623,-0.8598291873931885,-0.6925613880157471,0.3139185905456543,-1.1578418016433716,0.40338847041130066,0.3185177743434906,0.18481524288654327,-0.8399900197982788,0.5190187096595764,0.4112775921821594,-0.979941725730896,-1.1028800010681152,0.20407262444496155,-0.055793773382902145,-0.12849755585193634,0.5633642673492432,0.48164042830467224,-0.10209770500659943,-0.037927694618701935,0.025767697021365166,1.016196370124817,0.923317551612854,-0.3655764162540436,-0.6952265501022339,0.7436388731002808,0.830021858215332,0.8853172659873962,0.16793659329414368,3.2892038822174072,0.22825917601585388,-0.6362605094909668,-0.67778480052948,0.9875686168670654,-0.35769492387771606,-1.0195949077606201,0.8735734224319458,-1.6148570775985718,-0.6026225686073303,0.035800788551568985,-0.1751418113708496,0.2051861733198166,0.08670797944068909,-0.1501931995153427,-0.4348032474517822,2.829242467880249,-0.8614088892936707,-0.6900256276130676,0.089227594435215,0.4791446626186371,1.6405255794525146,-1.0827345848083496,-1.3372126817703247,0.7040133476257324,0.6605371832847595,-0.3123152554035187,-0.4659329056739807,0.6050528287887573,-0.02544969692826271,-1.9068883657455444,0.3689042329788208,-1.0652477741241455,-0.4731850326061249,1.1386427879333496,-0.26890501379966736,0.1708042025566101,0.8626965880393982,-1.762863039970398,-0.4960692822933197,-1.0711559057235718,-0.3167574107646942,-0.4111839532852173,-1.2722700834274292,-0.020451871678233147,0.6573817729949951,1.6914149522781372,-0.3578849136829376,0.23384174704551697,-0.37332895398139954,0.029982933774590492,-0.2192269265651703,0.11239659041166306,0.7105353474617004,-2.225085735321045,-1.5729097127914429,0.4856448471546173,-0.7493051290512085,-0.5713425278663635,-0.719019889831543,-0.12840673327445984,-0.4607354700565338,0.5498789548873901,-1.1447542905807495,0.1989520639181137,1.2291433811187744,0.4441981017589569,0.49113646149635315,-0.8782981634140015,1.0612581968307495,-0.2865851819515228,-0.6849474906921387,-1.5666970014572144,1.126970648765564
电脑,-0.8009408116340637,-1.1247014999389648,0.6208525896072388,-0.03815360739827156,-0.4642373025417328,0.30079185962677,0.3196166753768921,1.7243328094482422,-0.28010475635528564,-0.22675104439258575,1.2644336223602295,-0.9247367978096008,1.2419847249984741,0.5934563875198364,0.22840845584869385,-0.011262541636824608,1.056727647781372,-0.028150685131549835,0.1843498796224594,0.4050067961215973,0.10915730148553848,-0.05054553598165512,0.6077894568443298,-0.7763327360153198,-0.4127204716205597,0.0891023799777031,-0.8896352052688599,-0.24778614938259125,0.08798380941152573,0.0577278733253479,0.059996213763952255,-0.39138174057006836,0.5908879041671753,0.050267159938812256,0.2181737869977951,0.05356559529900551,0.7600464224815369,0.3657305836677551,0.507739245891571,-0.02277551405131817,-0.7256683111190796,-0.37819939851760864,0.6845912337303162,0.7647573947906494,-0.13347256183624268,0.5134817957878113,0.22229592502117157,0.36301615834236145,1.242051362991333,0.4665168523788452,-0.6160226464271545,-0.6901353597640991,-0.2872740626335144,0.747389018535614,-0.10796676576137543,0.5079970955848694,0.020824594423174858,-0.6350535750389099,0.4218002259731293,0.7747005820274353,1.2154521942138672,0.6484344601631165,0.4738559126853943,1.3708001375198364,-0.24829816818237305,0.4531361162662506,0.02920594997704029,-1.3908740282058716,-0.049650855362415314,0.6989265084266663,-0.1376948058605194,0.12907594442367554,-0.057551998645067215,0.19080007076263428,0.2747221887111664,1.0591614246368408,0.06858617067337036,0.676828920841217,1.3155566453933716,-0.3971487581729889,0.6014577150344849,-0.506980836391449,-0.1650702804327011,-0.392887145280838,-0.2773539423942566,0.5724266767501831,-0.16031984984874725,-0.42977508902549744,-0.12221753597259521,-1.0513362884521484,-0.5683799982070923,0.46329718828201294,-0.19193416833877563,-0.1867125928401947,0.4981535077095032,0.2636229395866394,0.3674774765968323,-0.003565874882042408,-0.2070128470659256,0.356626957654953,-0.6088273525238037,0.6284838318824768,-0.47016486525535583,0.2715948820114136,-0.5056256651878357,-0.8448408842086792,-0.47348904609680176,0.7829623222351074,0.47655755281448364,-0.32994747161865234,0.4430578649044037,0.305648535490036,0.4648463726043701,0.006672722287476063,0.30454567074775696,0.43557170033454895,-0.4422839879989624,-0.5458299517631531,-1.0358325242996216,0.14039446413516998,-0.5528831481933594,0.6925382614135742,0.2880903482437134,0.6486566066741943,-0.32077518105506897,0.10254421085119247,-0.989210307598114,-0.37584760785102844,0.201704740524292,-1.4810497760772705,0.41109535098075867,0.6428149938583374,-1.3528209924697876,0.027678070589900017,0.6361651420593262,0.13464133441448212,-0.36880597472190857,0.08346377313137054,-0.01014616061002016,-1.0799553394317627,1.1841377019882202,-0.28462445735931396,-0.5280667543411255,-0.06617247313261032,-0.5001614689826965,0.03872767835855484,-0.20242711901664734,-0.6445232629776001,-1.854231834411621,-1.0447930097579956,-0.4853263199329376,0.3696480691432953,-0.3185529112815857,0.5887271165847778,-0.19917182624340057,-0.39386871457099915,0.17034752666950226,0.3755008578300476,-0.6719900369644165,-0.2992181181907654,0.9448571801185608,0.4840073883533478,0.03451937809586525,0.3067673146724701,0.15457561612129211,-1.8746188879013062,0.16124539077281952,0.6636837124824524,-0.2594623863697052,-0.3230385184288025,0.09765177220106125,-0.6452387571334839,-0.2052764594554901,-1.1248902082443237,-0.546886682510376,-0.9669952988624573,0.1465693563222885,-0.32599541544914246,0.8245965838432312,-0.5997341275215149,-0.41548898816108704,0.08348638564348221,0.13490667939186096,-0.1169804185628891,0.7101259231567383,-0.22422227263450623,0.22208186984062195,-0.7701956033706665,0.35200265049934387,0.17613664269447327,0.15115605294704437,-0.13952243328094482,-0.10147947818040848,0.7836830019950867,0.5447819828987122,0.03238649666309357,-0.18157994747161865,0.6137762069702148,1.2025302648544312,0.7160215973854065,0.43777674436569214,0.02339962124824524,1.0615923404693604,0.011488278396427631,0.11400452256202698,0.06766222417354584,-0.21286353468894958,-0.6208211779594421,0.4517143964767456,0.333269327878952,0.8264045715332031,0.3130376935005188,-0.5875933170318604,0.2815892696380615,-0.2936582863330841,-0.3876968324184418,0.09667462110519409,0.8928871750831604,0.09011673927307129,-0.34511151909828186,-0.9134887456893921,-0.17965948581695557,0.08143100142478943,1.2605712413787842,-0.9213573336601257,0.4108869433403015,0.6184298396110535,-0.13061517477035522,1.000352382659912,-0.17228297889232635,-0.9505326747894287,-0.513219952583313,-0.5606787800788879,-0.339539498090744,-0.540129542350769,0.10477904975414276,-0.4432098865509033,0.35855603218078613,0.8519906401634216,-0.13491806387901306,-1.5446429252624512,0.6780908703804016,0.3916614055633545,0.7055647373199463,0.14866599440574646,1.1808120012283325,0.8197928667068481,-0.8080687522888184,-0.2182302176952362,0.5167669653892517,-0.5625243186950684,-0.511179506778717,0.6423361897468567,1.1362284421920776,-0.29884886741638184,-0.3690706789493561,0.860206127166748,1.103944182395935,-1.0310940742492676,0.15759742259979248,-0.14683502912521362,-1.3521358966827393,0.4813711643218994,0.8919560313224792,-0.29069748520851135,0.5593545436859131,0.8183509111404419,-1.1792659759521484,-0.6734927296638489,0.021381471306085587,0.00013367118663154542,0.27715229988098145,-0.22339104115962982,0.4047158360481262,0.20527133345603943,0.8565354347229004,-0.44732242822647095,0.2502812445163727,0.6984761953353882,-0.33457061648368835,-0.04607398808002472,-0.41946831345558167,0.2813449800014496,0.19663947820663452,-0.230323925614357,-0.3795265853404999,0.47619879245758057,1.2211955785751343,-0.07772917300462723,-0.13843929767608643,-0.49193623661994934,-0.3485446870326996,0.4913419783115387,0.439819872379303,0.5346705913543701,-0.34486380219459534,-0.378203421831131,0.3391125798225403,0.21743039786815643,-0.21252229809761047,-0.4932714104652405,-0.2575069069862366,0.5128557085990906,-0.24905084073543549,-0.4492965042591095,-0.3842061161994934,-0.4396880567073822,0.16590237617492676,-0.703362226486206,-0.9648822546005249,-0.3216000497341156,0.31182295083999634,-0.7501847147941589,-0.7570127248764038,-0.29541894793510437,0.08003392070531845,0.3635347783565521,-0.07604654133319855,-0.43155714869499207,0.1673199087381363,-1.0570247173309326,0.32890045642852783,-1.5240278244018555,0.22417329251766205,-0.8225112557411194,-0.2631271481513977,0.29670676589012146,-0.6040289998054504,0.3520481288433075,-0.4935930073261261,-0.3666824400424957,0.6182297468185425,0.4886889159679413,0.171638622879982,-0.04697367921471596,-0.2566917836666107,-0.5166955590248108,-0.19180253148078918,-1.1717209815979004,0.21519270539283752,0.6898903846740723,-0.8486214280128479,-0.9502934813499451,-1.0691710710525513,0.1404624730348587,-0.34516972303390503,-1.1115429401397705,0.32979491353034973,-0.6562439799308777,0.8598535060882568,0.5600003600120544,-0.19053727388381958,1.4420145750045776,0.826777994632721,1.1105188131332397,0.23495995998382568,-0.3299589455127716,0.18974155187606812,-0.13113626837730408,0.5195137858390808,0.7660093307495117,0.19614820182323456,-0.8844379186630249,-0.27207618951797485,-0.8622339367866516,0.1599160134792328,-0.7469732165336609,-1.2877473831176758,0.13215629756450653,-0.858289361000061,0.8618499040603638,-0.45959484577178955,-0.15550674498081207,-0.009073466062545776,0.11799611896276474,0.30934029817581177,0.27762049436569214,0.5226078629493713,-0.3245740234851837,0.5518987774848938,0.3389822244644165,0.5040081739425659,0.4047997295856476,-0.021242890506982803,0.4873172640800476,0.16214558482170105,-0.15837517380714417,-0.11346467584371567,0.02619420550763607,-0.21311672031879425,0.5905433893203735,0.7780650854110718,-0.4624328315258026,0.030746174976229668,0.4042733609676361,0.3109602928161621,-0.36950406432151794,0.34202831983566284,0.23880617320537567,0.1293780505657196
手机,-1.0970467329025269,-0.5169499516487122,-0.2411247193813324,0.3456762135028839,0.7449418306350708,-0.3362255096435547,-0.428756982088089,0.4672582149505615,-0.17052234709262848,-0.780935525894165,0.35009878873825073,-0.2586573660373688,0.779120147228241,0.14029888808727264,-0.2610860764980316,-1.234033465385437,0.5896227955818176,0.05689068138599396,0.8851462602615356,0.12142214924097061,0.3628232777118683,-0.5057162642478943,2.0205299854278564,0.3610772490501404,0.7896143794059753,-0.676257312297821,-0.20089969038963318,-0.18473751842975616,-0.8190205693244934,-0.5391116738319397,0.08125581592321396,0.14975862205028534,0.45871105790138245,0.08500844240188599,-0.3044500946998596,-0.4772721230983734,-0.1592443585395813,0.6391202807426453,1.4226105213165283,1.0203322172164917,-1.1899298429489136,0.2970608174800873,0.02141437865793705,0.41472581028938293,0.17701424658298492,0.4606153964996338,0.022286079823970795,0.2062188982963562,0.5123894810676575,-0.08453816920518875,-0.6363659501075745,-0.5286983847618103,0.39999744296073914,1.676427960395813,-0.2523364722728729,0.052211254835128784,0.06854236871004105,0.27887648344039917,0.5101110339164734,-0.05167469009757042,0.583181619644165,0.5191830396652222,-0.4409099519252777,1.352006196975708,-0.9697679877281189,-0.13853824138641357,-0.1778538078069687,-1.4111336469650269,0.7040970325469971,0.9383769035339355,0.2217455953359604,0.025660881772637367,0.31757479906082153,-0.19979943335056305,-0.1261114478111267,-0.027777455747127533,0.38705188035964966,1.380129337310791,1.1027787923812866,-1.0147544145584106,-0.04956259950995445,-0.6203065514564514,-0.5372071266174316,-0.09491126239299774,-1.4233994483947754,0.9256906509399414,0.4379799962043762,-0.34667643904685974,-0.1767246574163437,-0.4875958263874054,-1.364814043045044,0.7954069375991821,-0.5876743197441101,0.13940328359603882,0.17932036519050598,0.2075236588716507,1.1202011108398438,-0.03255947306752205,-0.5182747840881348,0.5253110527992249,0.146217480301857,-0.4995832145214081,0.7791802883148193,0.7258803844451904,-0.08426149934530258,0.2776070237159729,-0.09114418178796768,0.06479288637638092,0.18651704490184784,0.6751019358634949,0.3839314877986908,0.3236161470413208,0.7602180242538452,0.2597012519836426,0.10594990849494934,0.19940461218357086,0.011049574241042137,-1.0765156745910645,-0.6466324329376221,0.2762695848941803,0.2615610659122467,-0.43221941590309143,-0.2759493589401245,0.6468280553817749,-0.07146626710891724,-0.6058690547943115,-1.068366527557373,0.3565777540206909,0.7447327971458435,-2.3244338035583496,0.25352954864501953,-0.6843180060386658,-1.0122261047363281,0.3643948435783386,-0.07738550007343292,-0.8893181681632996,0.3170853853225708,-0.97649085521698,-0.44350627064704895,0.21471446752548218,0.5369366407394409,0.47509774565696716,-0.6381385922431946,-0.46857088804244995,0.34297287464141846,-0.2511434257030487,-0.6908571124076843,-0.4515681564807892,-1.656874418258667,0.7387295961380005,-0.008155821822583675,0.4291684329509735,0.41507357358932495,1.2160258293151855,0.05490344390273094,-0.3780815601348877,0.35579124093055725,0.5791727304458618,0.17964331805706024,0.07149503380060196,0.1782323569059372,0.5441522598266602,-0.2527506649494171,-0.4846169650554657,0.6146023869514465,-1.5672482252120972,-0.6342976093292236,0.5247536897659302,-0.3453696072101593,-0.34016481041908264,-0.3883931338787079,-0.7083539962768555,-0.11221818625926971,-0.7766464948654175,-0.9185478091239929,0.5953744053840637,-0.4526485502719879,-0.627590537071228,0.3895582854747772,0.1529356688261032,-0.18776635825634003,0.011461234651505947,-0.830487072467804,-0.3840123116970062,-0.06626295298337936,-0.5400921702384949,0.1488652378320694,-0.8875044584274292,-0.3454771041870117,-0.3596574664115906,0.5486730933189392,0.7952787280082703,0.918885350227356,-0.057777803391218185,0.4020492434501648,-0.2206834852695465,0.038658153265714645,0.5224363803863525,1.6693111658096313,1.038933277130127,0.6367852091789246,0.00753897475078702,0.6864544749259949,-1.235846757888794,-0.1393764168024063,-0.06395328789949417,0.08930039405822754,0.17463162541389465,-0.5313910841941833,0.47092702984809875,0.9172499179840088,0.19982032477855682,-0.7999126315116882,0.21845687925815582,-0.09864767640829086,-0.14266136288642883,-0.5478127002716064,0.8752305507659912,0.07073923200368881,-0.7589991688728333,0.10436233878135681,0.542506217956543,-0.1198439747095108,0.3888927400112152,-0.19071663916110992,1.0002989768981934,0.708200991153717,-0.5338956713676453,-0.5797833204269409,0.3312075138092041,-0.5545614361763,0.5313954949378967,-1.2075796127319336,-0.7455615401268005,-0.7140889167785645,-0.15166957676410675,-0.9811761379241943,0.1402350664138794,-0.14104461669921875,-0.06147967651486397,-0.29744890332221985,0.8825443983078003,0.19593195617198944,0.9525548219680786,-0.7009512186050415,1.249650239944458,0.07939188927412033,-0.3047572374343872,-0.49470263719558716,0.7151972651481628,-0.0020073815248906612,-0.2150116264820099,0.9975918531417847,0.3003438711166382,-0.3031352162361145,0.37493276596069336,0.38215622305870056,1.0907206535339355,0.2664647400379181,0.7187051177024841,0.693173885345459,-0.4042815566062927,0.29417651891708374,0.14567071199417114,-0.17871080338954926,-0.23993006348609924,0.7936944961547852,-1.2353692054748535,-0.12355485558509827,-0.7801304459571838,-0.128091499209404,0.054899588227272034,0.6243377923965454,-0.14439056813716888,-0.5147178173065186,0.23270878195762634,0.13672585785388947,-0.18228058516979218,-0.019994184374809265,-0.22507379949092865,-0.27999746799468994,-0.17786511778831482,1.7977514266967773,0.5586808919906616,-0.18013320863246918,-1.047422170639038,0.7683042287826538,0.7082735300064087,0.6936416029930115,-0.009246931411325932,-0.639299213886261,-1.6408698558807373,-0.31394848227500916,-0.004999982658773661,0.43094196915626526,-1.2752668857574463,0.21181324124336243,0.23673315346240997,0.1232164204120636,0.11463708430528641,-0.1984061896800995,-0.7349877953529358,0.22618329524993896,-0.08718127757310867,0.589474081993103,-0.8040431141853333,-0.4898998737335205,-0.3248019814491272,-1.1320631504058838,-0.4859866499900818,-0.420844167470932,0.8553470969200134,-0.3781714141368866,-0.0013547162525355816,-0.7678120136260986,0.7347148656845093,-0.06908852607011795,-0.07527334988117218,0.09902577102184296,0.249080091714859,-0.0745231881737709,-0.6705446839332581,-1.0020302534103394,0.2764372229576111,-0.23186154663562775,-0.17877504229545593,0.1461554616689682,-0.6186162233352661,1.5303760766983032,0.1005266010761261,-0.468557745218277,-0.3411363363265991,-0.28464311361312866,-0.02346242219209671,-0.11842044442892075,-0.5295370221138,-1.0910749435424805,0.0748615711927414,0.18953649699687958,-0.07293364405632019,0.13277959823608398,-0.8966977000236511,-0.7757484316825867,-1.16371488571167,0.43873628973960876,-0.4245668053627014,-0.03232062980532646,0.7587434649467468,0.28660404682159424,0.2702424228191376,0.22268906235694885,0.03496991842985153,1.2397080659866333,0.3893458843231201,0.2602787911891937,-0.4626696705818176,-0.8790286183357239,0.14858698844909668,0.13748085498809814,-0.5434891581535339,-0.10001076012849808,0.4676954448223114,-0.3225324749946594,0.6721997857093811,-0.5882530212402344,-0.08589015156030655,-0.47106340527534485,-1.3287413120269775,-0.5320618152618408,-0.8033944368362427,0.22779269516468048,0.11159799993038177,1.317049264907837,-0.7655050754547119,0.5451058745384216,0.12400784343481064,-0.4212926924228668,0.19179068505764008,0.3352940082550049,-0.015863757580518723,-0.20363342761993408,-0.29980745911598206,0.8981806635856628,-0.055408257991075516,-0.38282790780067444,-0.48608556389808655,-0.02854839526116848,-0.6979679465293884,-0.5898076295852661,-0.409444123506546,-0.8822197914123535,-0.717100203037262,-0.5602118968963623,-0.36387157440185547,0.21739280223846436,-0.31548580527305603,0.04334684833884239,-0.14545109868049622,-0.3908360004425049,0.6999875903129578
水能,-0.12235662341117859,-0.7383805513381958,-0.4687841236591339,-0.30918505787849426,-0.24013662338256836,0.9389591813087463,-0.4133000075817108,-0.01403292827308178,-1.507798671722412,-1.7965192794799805,0.8823024034500122,0.11773277819156647,0.8609955906867981,0.14071577787399292,0.15948820114135742,-0.6329838037490845,-0.4861753284931183,0.9691066741943359,-0.931067705154419,0.6901068091392517,0.019088691100478172,-0.4915497303009033,-0.512219250202179,0.5531126856803894,-0.30730685591697693,-0.3945528268814087,-0.13433663547039032,-0.1840425282716751,-0.5887627601623535,0.14384543895721436,1.0196001529693604,0.3503086268901825,1.339373230934143,0.060290392488241196,-0.6896160840988159,-0.8011492490768433,-1.036794662475586,-1.880082130432129,0.2484317570924759,-1.0596269369125366,1.0001057386398315,0.8750360608100891,-0.7779687643051147,0.5374380350112915,0.24746154248714447,0.16020023822784424,-0.4116182327270508,-0.35173672437667847,-0.1517380177974701,-0.36008015275001526,-0.37504127621650696,0.2487858235836029,0.3877863883972168,-0.6847838759422302,0.5239477753639221,-0.0020539930555969477,-0.25732314586639404,0.2019789218902588,-0.488446980714798,0.7748517990112305,-0.30547624826431274,0.23569905757904053,1.5569013357162476,-1.2334301471710205,-0.5913558602333069,0.2814311981201172,-0.07742492109537125,0.039071545004844666,0.35572028160095215,0.7448428273200989,-0.8191602230072021,0.8473563194274902,-1.5235848426818848,0.5702085494995117,0.4578379690647125,-0.7922165393829346,1.013113260269165,0.2130805253982544,0.15785716474056244,-0.3877275586128235,0.32027506828308105,-0.3949102461338043,1.079144835472107,-1.069558024406433,-0.7088151574134827,-1.5912532806396484,1.1941062211990356,-0.19017909467220306,-0.12793990969657898,-0.4074559807777405,-0.3135196268558502,-0.871711254119873,-0.8925313949584961,-0.5602145195007324,1.320029377937317,-0.9217513203620911,1.5393273830413818,-0.9313839673995972,-0.0444839671254158,0.27645209431648254,0.5858960151672363,-0.6496709585189819,-0.013348348438739777,-1.3645623922348022,-0.7378506660461426,-0.8616167902946472,-0.24312980473041534,1.1407889127731323,1.5695868730545044,-0.4761095941066742,0.5717092156410217,0.5870698690414429,-0.2431129366159439,-1.3358278274536133,-0.07367587834596634,-0.33745276927948,0.32816553115844727,0.2570711076259613,-0.1486797332763672,-0.7539570927619934,-0.018046226352453232,0.22541293501853943,-0.2384866625070572,0.00024648167891427875,0.0815315842628479,0.4132988452911377,0.6809438467025757,0.8416571617126465,-0.698408842086792,-0.3547406792640686,0.07605554908514023,-0.14137478172779083,0.3257777988910675,-0.1311396211385727,-0.3534986078739166,-0.470669686794281,0.6010007262229919,0.5743741989135742,0.44805261492729187,-0.7378484606742859,0.4957773685455322,1.064129114151001,0.8069732189178467,0.20755010843276978,0.07237865775823593,0.24583831429481506,0.4790654480457306,0.2877148985862732,0.5710614323616028,-0.14095774292945862,0.1702532321214676,-0.2722066044807434,-1.2587376832962036,-0.26901736855506897,1.160692811012268,0.12599150836467743,0.06937173753976822,0.3595831096172333,0.22410094738006592,1.2822171449661255,-0.3719309866428375,0.5342468023300171,1.547126293182373,0.19736675918102264,0.00355406291782856,-1.0191893577575684,-1.0025749206542969,0.1647794395685196,0.7609320878982544,-0.8929024934768677,0.5191036462783813,-0.7548558115959167,0.03684055060148239,0.5906639695167542,-0.5310895442962646,-0.49708402156829834,-1.4843089580535889,0.20002280175685883,0.01959249936044216,-1.912904977798462,-0.06707753986120224,0.19673021137714386,0.7241816520690918,0.9637236595153809,0.6622580289840698,-0.4074728190898895,0.19663718342781067,-0.08258587121963501,-1.1002074480056763,-0.898235023021698,-0.07227636873722076,0.20867545902729034,-0.4886513948440552,-1.1458754539489746,-0.7944447994232178,0.020587174221873283,1.348278284072876,0.9329559803009033,0.8028008937835693,0.2606503367424011,-0.07351433485746384,0.11774002015590668,-0.7746678590774536,-0.6108189821243286,-0.25079548358917236,-1.9773889780044556,0.3601241707801819,0.8651903867721558,-0.35929882526397705,1.0265229940414429,1.2060680389404297,0.2850203514099121,0.12878786027431488,0.5528501868247986,0.13224062323570251,-0.48526185750961304,0.4549610912799835,-0.3863029181957245,0.7727221250534058,1.0213278532028198,0.13700829446315765,0.966579020023346,0.40182650089263916,-0.5648106932640076,-1.3477531671524048,0.4431960880756378,-0.582957923412323,0.38607627153396606,0.680046021938324,-0.5710201859474182,0.39742934703826904,-0.15050584077835083,0.3468025028705597,-2.3363215923309326,-1.900194764137268,-0.27576735615730286,0.5726500749588013,-0.5866387486457825,-0.5110271573066711,-0.5346447825431824,0.18479324877262115,0.39830878376960754,1.2767235040664673,-0.10148411989212036,0.9780310988426208,0.39738866686820984,-0.12368684262037277,0.3549841344356537,-0.06925781071186066,0.2649816572666168,-0.8061947822570801,-0.004358465783298016,-0.3103623688220978,0.3207244873046875,0.08908690512180328,-0.677646815776825,1.445862889289856,0.801939845085144,-0.1895965337753296,0.35697755217552185,-0.10695599019527435,-0.670558512210846,0.40873512625694275,-0.2507392466068268,-0.48286694288253784,0.19817529618740082,0.2975715100765228,-1.5081185102462769,-0.6788697838783264,0.244463711977005,0.4776029586791992,-0.5035457611083984,-0.5495480298995972,-0.48828551173210144,0.7526652216911316,-0.621648371219635,0.44350484013557434,-0.16084404289722443,0.43236130475997925,-0.2086758315563202,-0.2357085943222046,0.0966719463467598,-0.565534770488739,-0.11501510441303253,-0.17026185989379883,0.7378753423690796,-1.0702261924743652,0.4100951552391052,0.3399430811405182,-0.03554878756403923,-0.43992406129837036,-2.268709421157837,-0.32179298996925354,-0.8251679539680481,0.1813189685344696,0.017840098589658737,-0.9737952351570129,0.1258111596107483,-1.016309380531311,-0.057944491505622864,-0.9551055431365967,0.07439442723989487,-1.2578788995742798,0.23939676582813263,0.5262694954872131,0.46633708477020264,-0.3323841691017151,1.0950742959976196,0.530916690826416,-0.39227375388145447,-0.5870550870895386,-0.11999562382698059,-0.05111701413989067,0.1584564596414566,-0.40096572041511536,-0.501766562461853,0.955510675907135,0.09784340113401413,-1.08808171749115,1.0727742910385132,0.4214206039905548,-0.9487231373786926,-0.7224518060684204,-0.8514259457588196,-0.2256414145231247,0.146964892745018,-0.6752058267593384,0.3890503942966461,-0.34282973408699036,-1.2311650514602661,0.15135394036769867,0.6348779797554016,0.2503773868083954,-0.8654659986495972,0.23933203518390656,1.276867389678955,0.525482177734375,-0.6152467131614685,-0.49138131737709045,-0.9634503126144409,-0.3653351664543152,0.9815655946731567,-1.314077377319336,1.3715691566467285,0.1779639720916748,0.09362133592367172,-0.5153037905693054,1.350847601890564,0.09503293037414551,-1.5247795581817627,-0.983269989490509,0.393308162689209,0.3038419485092163,1.6161810159683228,-1.1036624908447266,-0.0639815554022789,0.6360312700271606,-1.4719493389129639,-0.09517648071050644,-1.0676051378250122,-0.7375389933586121,-0.3879551291465759,-0.6397451162338257,-0.09901241958141327,1.5901832580566406,-0.3996758460998535,-1.1319303512573242,0.8963731527328491,1.06314218044281,-0.07133984565734863,-0.2850359082221985,0.43659070134162903,0.7917784452438354,0.14381200075149536,-0.15915489196777344,0.332297146320343,-0.45252737402915955,0.4838794469833374,0.7093129754066467,0.6314598917961121,-0.14557607471942902,-0.2742699384689331,0.8713309168815613,0.5098538398742676,0.09744791686534882,-0.28739985823631287,0.45829010009765625,-0.23581300675868988,-0.3112197816371918,-0.33506280183792114,0.17747916281223297,-0.08532556146383286,0.2198188751935959,-0.33050480484962463,-1.4706311225891113,0.41867995262145996,0.38894882798194885,-0.7190349102020264,-0.022606056183576584,-1.6448140144348145
卧室,0.16412602365016937,-0.20565122365951538,-0.5746431350708008,-0.8445891737937927,0.4803987741470337,-0.574026882648468,0.2935546338558197,1.3409885168075562,-0.5632525086402893,-0.6920041441917419,0.2633516788482666,-1.0842314958572388,0.9791299700737,-0.07981573790311813,-0.082844577729702,0.8982428908348083,-0.11586418747901917,0.38571327924728394,0.11371621489524841,-0.28431713581085205,-1.142803430557251,-1.2535711526870728,-0.05168386548757553,-0.45994654297828674,-0.5752988457679749,-0.4802600145339966,-0.8301701545715332,-1.1719619035720825,-0.15104113519191742,-0.9320591688156128,-0.5610910058021545,-1.4563695192337036,0.4097338616847992,-0.6464635133743286,1.025122880935669,-0.7513439655303955,0.3146505355834961,-0.8069750070571899,0.9150170087814331,-0.21150414645671844,-0.44757258892059326,0.5833063721656799,0.3812437653541565,-0.1402820497751236,-0.5673696994781494,0.36885878443717957,-1.2968130111694336,-0.0606614388525486,-0.09089004248380661,0.17208875715732574,0.005226837005466223,-0.7544438242912292,0.48578429222106934,0.9546036124229431,0.5592971444129944,-0.5869771838188171,-0.08156292885541916,-0.07617589831352234,-0.4333416223526001,-0.5328776240348816,0.9646766781806946,-0.9505402445793152,-0.48333898186683655,1.752868413925171,-1.6638299226760864,0.34696635603904724,-0.24893616139888763,0.10056160390377045,-0.529195249080658,-0.7843260169029236,0.6383440494537354,0.36436161398887634,0.6230608820915222,0.528066873550415,0.4064980447292328,0.24874712526798248,0.3558671772480011,-0.13349270820617676,1.7051783800125122,-0.8887001276016235,1.3839106559753418,-1.0411161184310913,0.3346658945083618,0.008237231522798538,-0.06581764668226242,-0.6875744462013245,-0.7042770385742188,-0.5740219950675964,-0.1975460648536682,0.19194550812244415,-0.25071680545806885,0.09406699985265732,-0.18957975506782532,0.37960153818130493,1.529862403869629,-0.08083030581474304,0.978658139705658,1.2963205575942993,0.43408486247062683,-0.43069666624069214,-0.07086196541786194,0.3190429210662842,-0.6504895091056824,-0.22379642724990845,-0.7425404787063599,-0.563572883605957,-0.8756575584411621,1.2669159173965454,0.06991460919380188,0.9265851974487305,1.1233806610107422,1.695281744003296,0.4944044053554535,0.28768619894981384,0.4769085645675659,-0.2059713900089264,-0.35058996081352234,-0.6067891120910645,-1.0056593418121338,-0.6171898245811462,0.47318845987319946,0.09471801668405533,0.07726917415857315,-1.3706213235855103,0.6797321438789368,-1.346807599067688,0.15507714450359344,-2.244203805923462,-0.753648579120636,0.41896891593933105,0.3010745346546173,0.9678841829299927,0.9083603620529175,-0.056388817727565765,-1.791640043258667,0.38902971148490906,-0.008686011657118797,-0.30849581956863403,-0.8515177965164185,0.4374353587627411,0.751704752445221,-0.3129974603652954,0.24680237472057343,0.31500184535980225,0.3189737796783447,2.0325937271118164,0.3898521959781647,0.45639780163764954,-0.1788274645805359,-0.30775153636932373,0.6977390646934509,-1.4775586128234863,0.6826863288879395,0.6627383828163147,0.3983355462551117,0.2282910943031311,-0.3474228084087372,0.11478452384471893,0.6173670887947083,-1.417907953262329,-0.49914833903312683,-0.7527166604995728,0.2794054448604584,0.9729282855987549,0.6478899717330933,1.00797438621521,-0.1478830724954605,0.5953291654586792,0.14663535356521606,-0.8565730452537537,-0.2900679111480713,-0.4017971456050873,-0.10936672240495682,0.35603901743888855,-0.06903979182243347,0.12293335795402527,-0.6437799334526062,-1.3070842027664185,0.15356265008449554,0.1481606662273407,-1.4282723665237427,0.6398018598556519,-0.017056945711374283,0.07655706256628036,1.6079753637313843,0.5219326019287109,-0.19677890837192535,1.4381974935531616,-0.6921528577804565,1.025528073310852,-0.022700849920511246,0.8814302682876587,0.4435315728187561,-0.6955437660217285,0.4547426998615265,0.36223044991493225,0.002960586454719305,-0.051106348633766174,-0.18577079474925995,0.04487946256995201,0.2983666956424713,-0.5645915269851685,0.9124314785003662,0.5275720953941345,0.3815137445926666,-1.6844879388809204,1.092968463897705,0.39061713218688965,-0.5503069162368774,-0.12671205401420593,-1.5871857404708862,-0.978884756565094,-1.156150221824646,-0.3388570547103882,-1.4286519289016724,-1.272875428199768,0.3736758828163147,0.4596048891544342,-1.415719985961914,0.7756079435348511,1.2746771574020386,-0.21490533649921417,-0.11664968729019165,0.4695027470588684,-1.056159257888794,1.1287730932235718,0.046144094318151474,0.406425803899765,-2.025146484375,-0.6853955984115601,-1.292134404182434,0.04167155548930168,0.9616221785545349,-1.5919029712677002,1.001561164855957,-1.756513237953186,0.34237605333328247,-0.7986682653427124,0.5168961882591248,-0.8712161779403687,-0.10834115743637085,0.08783947676420212,0.6691838502883911,1.5232120752334595,1.8222545385360718,0.6305564045906067,-0.3472348153591156,0.7128078937530518,0.743219256401062,0.3807902932167053,-0.37888041138648987,0.08523330837488174,0.5065088868141174,1.2953886985778809,-0.5464980602264404,0.4758095145225525,0.17953526973724365,-0.33566024899482727,-0.1076449304819107,-0.5969242453575134,0.7986096739768982,-0.4534647464752197,0.21200518310070038,0.34321168065071106,-0.051757581532001495,-0.5605595707893372,-0.675838828086853,0.23257659375667572,0.554890513420105,-0.13095468282699585,-0.9379074573516846,-1.246527075767517,0.2910968065261841,0.8245500326156616,-1.290266513824463,0.01142801158130169,0.2867070436477661,-0.3353659510612488,1.2979986667633057,0.39488863945007324,0.5056324601173401,-0.22129392623901367,-0.7958211302757263,0.6498154997825623,-0.2300000786781311,0.15932069718837738,0.3388573229312897,1.055145502090454,-0.07612866908311844,0.18390442430973053,0.18229524791240692,0.0658540204167366,0.26077041029930115,1.136184573173523,0.24891433119773865,0.6530735492706299,-0.07343176752328873,0.6411060094833374,-0.39089035987854004,-0.5835627913475037,0.7419891357421875,-0.4211599826812744,-0.9677551984786987,0.5629249811172485,-0.5975142121315002,-1.205211877822876,-0.2090277224779129,0.5661452412605286,-1.0623700618743896,-0.6328193545341492,-0.1534212976694107,0.40031710267066956,0.9625201225280762,-0.3400048017501831,-0.14701098203659058,0.34643301367759705,-0.9333415031433105,0.11639580875635147,-1.0149507522583008,-0.1214367151260376,0.4097748100757599,-0.9806841015815735,-0.10468698292970657,-0.023349400609731674,-0.5619803667068481,0.6916468143463135,-0.03419223800301552,0.07642396539449692,-0.16181360185146332,0.08705157786607742,-0.08219265937805176,0.9285793304443359,0.06532606482505798,0.8185911178588867,-0.08577915281057358,-0.37795600295066833,-0.005963712465018034,-0.46958160400390625,0.21802662312984467,-1.4337553977966309,0.0494985356926918,0.6849135756492615,0.2682642936706543,0.4053308069705963,0.2453678846359253,-0.6792117357254028,-0.022464603185653687,0.3595612943172455,0.21929293870925903,-0.6240537166595459,-1.2297422885894775,0.41407719254493713,0.023435406386852264,-0.49797797203063965,-1.3171188831329346,0.7043337821960449,-0.1560211032629013,-0.8671232461929321,0.10218490660190582,1.6265376806259155,0.30792146921157837,0.3967024087905884,-0.1466960906982422,0.5677815079689026,1.3496427536010742,-0.10899396985769272,-0.21047793328762054,-0.17952947318553925,-1.237743854522705,-0.6726028323173523,-0.3074101209640503,0.06576241552829742,1.1451091766357422,0.3678808808326721,-1.0983383655548096,-0.07281733304262161,1.3103607892990112,-0.557876467704773,-0.7876641750335693,-1.0790154933929443,-0.46058183908462524,-0.468450665473938,-0.8275906443595886,-0.9905217885971069,-0.01822335459291935,1.1897155046463013,-1.1425960063934326,-0.7574605345726013,-1.284684658050537,0.128547802567482,-0.29825952649116516,0.225505992770195,-0.21180850267410278,-0.5377839207649231,-0.16465379297733307,0.14048638939857483,-0.051868073642253876,-1.0614960193634033,-0.8024640083312988,1.1177726984024048
条路,0.17660321295261383,0.717073917388916,0.5893294215202332,-0.8647196292877197,1.2269461154937744,0.5004596710205078,0.2169116586446762,-0.4459833800792694,0.6642904281616211,-0.11556578427553177,-0.807363748550415,1.2083635330200195,-0.2540809214115143,-0.9112136363983154,1.5545209646224976,-0.5506832599639893,-0.7352821826934814,-0.29824039340019226,-0.34364888072013855,0.31023484468460083,0.05560748279094696,-0.6631636023521423,1.3663352727890015,0.39300134778022766,-1.1576476097106934,0.039016082882881165,-0.7719722986221313,0.29945293068885803,-0.9887868762016296,0.48992806673049927,0.7097473740577698,0.22834868729114532,0.43227240443229675,-0.15653863549232483,1.589421272277832,0.6564106941223145,-1.3401366472244263,-0.12367063760757446,-0.2938048541545868,-0.8720400929450989,0.2700239419937134,-0.010402259416878223,-0.22931593656539917,-0.0926162600517273,-0.3314642012119293,-0.7333247065544128,1.5658332109451294,0.04800642281770706,0.08838225901126862,0.019927747547626495,0.3359622657299042,0.4107130467891693,-0.3806836009025574,1.4299217462539673,0.8888148069381714,0.3547663986682892,0.24919642508029938,-0.3215424120426178,-1.0575871467590332,1.2912110090255737,0.7311917543411255,1.0407049655914307,-0.5080604553222656,-0.5493698716163635,-0.027638131752610207,0.7942482233047485,0.29571327567100525,-0.87371426820755,0.025246066972613335,-0.8150668144226074,-0.4502977132797241,0.6330872774124146,0.05624670162796974,0.6764079928398132,0.5241364240646362,-1.7757190465927124,0.2431715726852417,0.7920986413955688,-1.4652994871139526,-1.1266285181045532,-0.4310769736766815,-0.7094840407371521,1.560188889503479,-0.9256008267402649,-0.43377986550331116,0.2313653826713562,0.22823187708854675,1.29423189163208,-0.3812139630317688,-0.8723244071006775,-0.9988033771514893,-0.7826251983642578,-0.6373828649520874,-0.42522791028022766,-0.772381603717804,-0.630300760269165,1.4378308057785034,0.06249242648482323,-1.4731155633926392,0.5522990822792053,0.13497088849544525,-0.05444962903857231,-0.35389459133148193,1.04228675365448,-0.9555292129516602,0.030606741085648537,0.5574211478233337,-0.21648883819580078,0.11604873090982437,-0.8552361130714417,-0.532647430896759,-0.1624772995710373,0.043552979826927185,0.06699416041374207,0.03291403129696846,-1.0362811088562012,0.5620563626289368,-0.4598143994808197,0.10239845514297485,1.628381609916687,0.049129463732242584,0.6912830471992493,-0.1268773227930069,-0.5587202906608582,0.698864221572876,-0.8732841610908508,0.6777884364128113,-0.17373408377170563,1.2725706100463867,0.5276904106140137,0.8180192112922668,-0.37784892320632935,0.9945746064186096,-1.5278619527816772,1.0971742868423462,0.8160462975502014,-0.6611071228981018,-1.1203941106796265,-0.5265100598335266,1.5934664011001587,-0.024386951699852943,-0.7372167706489563,0.08125218003988266,0.001093050348572433,-0.45175883173942566,-0.47535476088523865,-0.42492273449897766,0.018591420724987984,0.36654573678970337,0.8958896398544312,-0.049138061702251434,1.7329773902893066,-0.6802914142608643,0.6632289290428162,0.1681841015815735,-1.2944133281707764,-1.1447436809539795,1.0349239110946655,1.0882617235183716,-0.3270735740661621,0.17594148218631744,0.6040768623352051,-0.43171387910842896,0.21140789985656738,-0.5198593139648438,-0.9102199673652649,0.9492202997207642,-0.9328380227088928,-0.9372217059135437,-0.40426331758499146,-0.23176917433738708,0.9799906611442566,-0.47188156843185425,0.71976637840271,0.29162177443504333,1.0201749801635742,0.6560095548629761,-1.167344093322754,0.7572929263114929,0.3696145713329315,2.190702199935913,-0.2785707116127014,-0.827703058719635,1.4333186149597168,0.4487413167953491,-1.5514390468597412,0.5618782639503479,0.9807131290435791,-0.7437340021133423,1.0121421813964844,-1.1923918724060059,0.8540241718292236,-0.5234218835830688,-0.16873697936534882,-0.09781619161367416,-0.9859691262245178,-0.6334891319274902,0.03838164359331131,-0.7290787100791931,0.6023828387260437,0.9030057787895203,-0.12926097214221954,0.9585843682289124,-0.36992591619491577,0.3157649338245392,0.8954523205757141,-0.3799348473548889,1.3664778470993042,-0.9659497737884521,-0.253214567899704,-1.1784957647323608,1.7635475397109985,0.4885886609554291,-0.6481510996818542,-0.0876464918255806,-0.47858598828315735,0.01875932142138481,-0.32118669152259827,-0.06576105952262878,0.17344459891319275,-0.19030407071113586,-1.223449468612671,0.05566510930657387,0.3628422021865845,0.4648842513561249,1.3917776346206665,0.6569416522979736,0.6755470633506775,-0.9274466633796692,0.12531891465187073,-0.7239477634429932,0.15745198726654053,-0.2414465695619583,-0.21294750273227692,0.7370476722717285,-0.04944854974746704,0.3794136941432953,-0.04257597774267197,1.061782956123352,-0.3299189507961273,-0.44420549273490906,1.0167455673217773,0.29228803515434265,0.16860391199588776,0.5671191215515137,-0.3349727392196655,-0.33157697319984436,0.2664167881011963,-0.5724861025810242,0.773076593875885,1.224010705947876,1.9936299324035645,-0.506438672542572,0.2480730563402176,-0.1294795572757721,1.4342966079711914,1.1529608964920044,-1.01484215259552,-0.717444121837616,1.0311784744262695,0.758347749710083,0.28797653317451477,-0.12442788481712341,-0.4385349750518799,0.024175265803933144,-1.4089274406433105,-1.4543843269348145,0.5812250971794128,0.9331855177879333,-1.1026147603988647,1.422629952430725,-0.15419037640094757,-0.7553309798240662,0.27791479229927063,-1.0667264461517334,-0.7641960978507996,-1.3522037267684937,0.3916471004486084,1.5015372037887573,-0.9696834087371826,0.6458315253257751,-0.17368344962596893,-0.8888391256332397,-1.1789703369140625,-0.05572883039712906,0.18147994577884674,-0.5236002206802368,-0.6051582098007202,0.8472844362258911,-0.9172490835189819,-0.5806471705436707,0.7682033777236938,-0.40435782074928284,-0.599550724029541,1.0347145795822144,-0.03604181483387947,0.13930273056030273,-0.35212865471839905,0.21934343874454498,0.006299265660345554,-1.0992958545684814,0.943678617477417,-0.23906154930591583,0.028629090636968613,0.7927517294883728,-0.0683751180768013,0.009949819184839725,0.1492660790681839,-0.16961945593357086,0.4469086825847626,0.24433214962482452,1.7569266557693481,-0.33971717953681946,0.6148930191993713,0.24702291190624237,-0.4212961196899414,-0.21243251860141754,-1.0583899021148682,0.43289583921432495,-0.5235069990158081,-0.18088921904563904,0.40688663721084595,0.5079138278961182,-0.6111974120140076,-0.5860007405281067,0.5625239610671997,-0.6543253660202026,-0.2671950161457062,0.4324982762336731,1.040781855583191,-1.0715641975402832,1.5507150888442993,1.203641414642334,0.8229296803474426,-0.21799351274967194,-1.362720012664795,-0.15544748306274414,-0.0578872412443161,-0.48745572566986084,0.7882978916168213,-0.1648646742105484,-0.9904595613479614,0.7439715266227722,-1.0158162117004395,-1.061171531677246,-0.11267690360546112,0.44327035546302795,-0.8326916098594666,-1.4353853464126587,0.6383213996887207,-0.6330880522727966,-1.3748241662979126,-1.7542086839675903,-0.47776755690574646,-0.13430634140968323,-0.9552474021911621,0.26270806789398193,0.39881670475006104,0.694915771484375,0.2269585132598877,-0.4769960641860962,0.29125136137008667,1.0190948247909546,0.18735094368457794,-0.34055954217910767,1.074803352355957,0.37650930881500244,-0.18112650513648987,-0.964888334274292,0.26641568541526794,-0.3427615165710449,0.9699917435646057,-1.0877912044525146,-2.2540242671966553,-1.3665904998779297,0.11043056845664978,-0.35851240158081055,-0.3224717080593109,0.49648958444595337,0.18544231355190277,0.17576226592063904,0.39236992597579956,0.6630436778068542,0.0033921448048204184,0.7782791256904602,0.2279350310564041,0.5537562966346741,-1.5268431901931763,0.8705472350120544,-0.1398039162158966,-0.08348272740840912,-0.36669090390205383,-0.6979120373725891,-0.5945624709129333,0.013971848413348198,-0.3945057988166809,-0.12093110382556915,0.6729621291160583,0.5979992151260376,-0.1638147383928299
多长,0.25117722153663635,-0.8982130885124207,-0.03287838026881218,-0.7872296571731567,0.5548906326293945,0.31818825006484985,-0.09699659049510956,-0.6686564087867737,0.582913875579834,-0.39959394931793213,-0.41295284032821655,0.9026739597320557,-1.4649443626403809,-0.48720452189445496,-1.1331781148910522,-0.6892228126525879,-1.0770925283432007,0.4981943666934967,-1.0348566770553589,0.37028011679649353,-1.005576252937317,0.7622047662734985,-0.09854642301797867,0.40790921449661255,-0.4014149606227875,-0.22260038554668427,0.541844367980957,0.2966771721839905,-1.4397237300872803,0.92961186170578,-0.2905241549015045,0.6175954937934875,0.4849299192428589,-0.21966807544231415,-0.04103313386440277,0.04005071520805359,-0.295126348733902,-0.4626593291759491,-0.3970470130443573,-1.1949440240859985,-0.11705345660448074,-0.34059271216392517,-0.1329653114080429,-0.32849636673927307,-0.3230831027030945,0.19491049647331238,-0.5423869490623474,0.08662397414445877,-0.4502118229866028,0.4277173578739166,-0.21325170993804932,0.43320485949516296,0.20468203723430634,0.27897801995277405,-0.3024902045726776,0.7503663897514343,-0.534112274646759,-0.5556884407997131,-0.10150833427906036,0.4848429262638092,0.30341199040412903,-1.3547359704971313,-0.2523695230484009,-0.7221260666847229,1.2517831325531006,0.4662517309188843,0.7686572074890137,0.4682033061981201,0.45328381657600403,0.014875400811433792,-0.602059543132782,0.8368988633155823,-0.5887008309364319,0.09618272632360458,1.096206545829773,0.5745177268981934,1.152997374534607,0.07513482868671417,0.5908713936805725,-0.3682345151901245,0.6885820627212524,-0.15902411937713623,-0.7387912273406982,0.03840059041976929,-0.3774997293949127,-0.45318323373794556,0.8920130133628845,1.1481208801269531,0.7276322841644287,0.3286145329475403,0.053339216858148575,-1.3111017942428589,-1.3632075786590576,-0.7476013898849487,0.9138262271881104,-0.6892250776290894,0.23226355016231537,0.46107637882232666,-0.36403509974479675,-0.331788033246994,-0.9123972654342651,-0.03736165538430214,0.7989823222160339,-0.02410668507218361,-0.3735884428024292,-0.38484060764312744,1.032325267791748,0.3463664948940277,-0.4853386878967285,-0.07479166984558105,0.6597949862480164,-0.32577836513519287,0.11640958487987518,0.07789411395788193,0.6067607402801514,0.551214873790741,-0.3157312273979187,0.5070411562919617,-0.7480486631393433,0.15119537711143494,-1.095747947692871,0.06186327710747719,1.3284708261489868,0.32120656967163086,-0.04355981945991516,-0.08275914192199707,-0.01646673120558262,0.3482574224472046,0.7169737219810486,0.721098780632019,0.1548389047384262,0.011373256333172321,-0.4522112011909485,-0.4136827886104584,0.4526594579219818,-0.2647099196910858,1.2592995166778564,0.047336384654045105,-0.42793938517570496,0.3328109085559845,0.7975453734397888,-0.007732885889708996,-0.019999949261546135,0.4461376965045929,-0.6953916549682617,0.45659342408180237,-0.03205151855945587,0.19430097937583923,0.5974864363670349,-0.4737730324268341,-0.4490114450454712,0.21598830819129944,-0.5370364189147949,0.3214266300201416,-0.2649664282798767,-0.38181018829345703,0.6934908032417297,-0.11736030876636505,1.805543303489685,0.1143709048628807,0.8615521788597107,1.1230885982513428,-0.6489934325218201,-0.12405989319086075,-0.44169875979423523,-0.24297897517681122,-0.6665528416633606,0.2181028127670288,0.2737623155117035,0.67067551612854,-0.02611929550766945,0.9714995622634888,0.3555208444595337,0.30486783385276794,0.17842285335063934,0.5369546413421631,0.07721082121133804,0.27596279978752136,-0.4656100273132324,0.25725528597831726,0.01065537054091692,-0.09045009315013885,0.35078859329223633,0.6286431550979614,0.25710922479629517,-1.1606817245483398,0.149675190448761,-0.9056044220924377,0.13617591559886932,-0.18822069466114044,0.18055349588394165,-1.3657454252243042,-0.7706350684165955,-1.2775225639343262,-0.5013593435287476,1.3326865434646606,0.035409100353717804,-0.44704192876815796,0.0333070382475853,0.689167320728302,-0.3249525725841522,-0.3013019263744354,0.8595375418663025,-0.6170030236244202,-0.12660889327526093,0.09228766709566116,0.27357107400894165,0.25102826952934265,-0.7420691847801208,-0.08145099878311157,-0.3889208734035492,0.14722901582717896,0.45288050174713135,-0.160495787858963,0.5152091383934021,0.5814871788024902,0.320485383272171,-0.034140247851610184,-0.08535288274288177,-1.3005824089050293,0.2339964210987091,-0.8564715385437012,-0.48437952995300293,-1.2272295951843262,-1.0356836318969727,0.11600001901388168,-0.35366424918174744,0.2738947570323944,-1.3589547872543335,-0.9629364609718323,-0.7327136993408203,0.9073925018310547,0.7866998314857483,0.43098363280296326,0.5953824520111084,-0.9107734560966492,0.6263501644134521,-0.2678450345993042,-0.3909893035888672,-0.4630809724330902,-0.2504246234893799,-0.716026782989502,-0.2969410717487335,-0.2839581072330475,-0.031688231974840164,0.1664477437734604,-0.011290649883449078,0.5595328211784363,-1.270688772201538,-0.32315346598625183,0.827152669429779,0.017469145357608795,0.21622388064861298,-0.4252729117870331,-0.3595467507839203,0.46260887384414673,0.17182216048240662,-0.42493125796318054,0.27994728088378906,0.1025284007191658,0.38541558384895325,-0.45322105288505554,-0.29759466648101807,-0.07882297784090042,-0.7209024429321289,0.2684680223464966,-0.00932017620652914,-1.397509217262268,0.785179853439331,-0.01753293350338936,0.08114433288574219,-0.8382402658462524,1.0724587440490723,0.5543223023414612,0.23824843764305115,-0.39512234926223755,-0.5642976760864258,0.09434065967798233,-0.45607790350914,-0.16690297424793243,0.4787186086177826,0.021670212969183922,0.01309337466955185,-0.7006413340568542,-0.12029621005058289,0.14112786948680878,0.12126686424016953,1.0310335159301758,-0.27840280532836914,0.03944826498627663,-0.05467904731631279,-0.3085134029388428,-0.29676181077957153,-0.46498578786849976,-0.18477950990200043,-0.0009716206113807857,0.23017413914203644,0.9481179118156433,1.0401663780212402,-0.8028067350387573,0.7884728908538818,0.2542581856250763,1.025206446647644,0.4917449355125427,-0.1425536423921585,-0.3609568178653717,-0.34420377016067505,-0.05334201827645302,1.2325900793075562,0.9431731700897217,0.3405158519744873,-0.9367719292640686,-0.7560297250747681,0.30273449420928955,-0.389982134103775,0.1042005866765976,0.5359731912612915,0.20082730054855347,0.06106395646929741,-1.532942771911621,-0.16771051287651062,0.30723971128463745,0.023127632215619087,0.3441798686981201,0.14362509548664093,0.39247119426727295,-0.4470590054988861,0.35913893580436707,1.1499361991882324,1.0385191440582275,0.07259124517440796,1.541536569595337,0.7399425506591797,0.6727367639541626,-0.11758018285036087,0.27319249510765076,0.17258478701114655,-0.29627785086631775,-0.2545423209667206,-0.07173872739076614,1.0938031673431396,0.6740590333938599,0.759617030620575,1.0592961311340332,0.23208966851234436,0.5007247924804688,-0.9846331477165222,0.6817007064819336,0.2053544521331787,-0.673156201839447,-0.6139258742332458,0.7224015593528748,0.00959821604192257,-0.2884071171283722,-0.9631714224815369,-0.5083395838737488,-0.5064048171043396,0.602295994758606,0.3742131292819977,-0.1775154322385788,-0.02999940514564514,0.15070632100105286,0.5114249587059021,-0.4684418737888336,-0.40904587507247925,0.45607051253318787,-0.11464770883321762,0.5842967629432678,0.3750797212123871,0.3376733064651489,0.308197557926178,-0.12940151989459991,0.38141655921936035,-0.36442938446998596,1.5537258386611938,-0.7509661912918091,0.680827796459198,-0.8019853234291077,0.30831506848335266,0.8098077178001404,-0.13388757407665253,0.011487916111946106,0.499296098947525,-0.9060627818107605,-0.4491811692714691,-0.26038914918899536,-0.3643644154071808,-0.11420966684818268,-1.626747965812683,0.44152992963790894,-0.14330369234085083,0.9106820225715637,-0.09047938138246536,-0.03158063814043999,0.08905474841594696,-0.3248319923877716,-0.10057512670755386,0.6021579504013062,1.3301947116851807,-0.6844874620437622
频率,0.3122848868370056,1.0025891065597534,0.050946447998285294,-0.1641467809677124,-0.5640434622764587,0.05653635039925575,0.4072232246398926,-0.5905991792678833,0.7853718996047974,1.990410566329956,0.8264828324317932,1.0995475053787231,0.4507761299610138,0.02288172021508217,0.15266603231430054,0.5413218140602112,0.7718896865844727,-0.1914418339729309,-0.28653278946876526,0.32318875193595886,0.08557536453008652,0.26155775785446167,0.49748215079307556,-0.6865829229354858,-0.320328027009964,1.0280824899673462,-0.9523667097091675,-1.0146965980529785,0.05083218216896057,0.3981199860572815,-0.17858044803142548,-0.38469186425209045,0.1917494535446167,0.5285122990608215,0.9710066914558411,0.2720262110233307,-0.4363152086734772,-0.6175479292869568,0.37707605957984924,-0.8923398852348328,-0.8637538552284241,0.8987193703651428,0.8257349133491516,0.09219946712255478,-0.617889940738678,-1.231018304824829,-0.1981419175863266,0.2628236711025238,-0.44079652428627014,-0.12713776528835297,1.0095120668411255,0.14613310992717743,-0.5344399809837341,0.2493901550769806,0.3339017331600189,-0.21188540756702423,-0.7257168889045715,0.30972033739089966,0.16793644428253174,0.8204647302627563,0.38119903206825256,0.3366016149520874,-0.11857549846172333,0.3277059495449066,-0.43062326312065125,0.0723387822508812,-0.8540369868278503,-0.9260165691375732,1.0061901807785034,0.895065426826477,-1.507434368133545,0.2088228464126587,0.5901713371276855,0.23211494088172913,1.3728240728378296,0.39584967494010925,-0.7068537473678589,-0.509666919708252,1.1684168577194214,-0.13416962325572968,1.1730356216430664,0.130233034491539,0.6747910976409912,-0.9571762084960938,-0.0658034160733223,-0.6342530846595764,0.4091559052467346,-0.6472287178039551,-0.3204410672187805,-1.6247941255569458,0.19452053308486938,-1.6697940826416016,-1.504398226737976,-1.392177700996399,-1.2618372440338135,-0.21830126643180847,0.1594562977552414,0.5889763236045837,0.3728940784931183,0.33683934807777405,-0.07494337111711502,-0.030745772644877434,-0.5690121650695801,1.5073890686035156,-1.2254711389541626,-0.4955519437789917,0.4511841833591461,-1.4623595476150513,-1.173566222190857,-0.46267059445381165,-0.8394678235054016,0.4157976508140564,-0.062264297157526016,-0.05856715142726898,-0.07407246530056,-1.677828311920166,0.2246318757534027,-1.0595498085021973,-0.8008303046226501,0.5384063720703125,-0.1541208028793335,-0.15585827827453613,0.1963842660188675,-0.24486355483531952,0.1141105517745018,-1.050822377204895,-1.164299726486206,-0.2567698061466217,1.4097349643707275,-0.5453612804412842,-1.1997488737106323,0.15250395238399506,-0.24130640923976898,0.058890584856271744,-0.23447497189044952,1.4712125062942505,-0.25758326053619385,-0.036718010902404785,-0.1599504053592682,0.048669882118701935,-0.28889718651771545,0.2302188277244568,0.4259195923805237,0.5427573919296265,-0.17956893146038055,-0.2925976514816284,-0.869450569152832,-0.10543172061443329,0.26855507493019104,0.16363534331321716,1.0850030183792114,0.9729436039924622,-0.15529854595661163,0.29922249913215637,-0.44758155941963196,0.8886955976486206,-0.6352609395980835,0.5163792371749878,2.4446098804473877,0.8160154819488525,1.3334814310073853,1.137134075164795,1.0642001628875732,-0.2614571452140808,0.2641613781452179,-0.37395167350769043,0.13212162256240845,0.4053541421890259,-0.5869209170341492,0.5943427681922913,-1.2722179889678955,-1.0358904600143433,-1.4725791215896606,0.7760179042816162,-0.40316158533096313,0.28327664732933044,-0.4179812967777252,-0.001073570572771132,1.281463861465454,-0.7463225722312927,0.2165786176919937,-0.31537774205207825,0.3541317880153656,-1.154017686843872,0.4501863121986389,0.7812564969062805,0.942741870880127,-0.27367547154426575,0.4565306007862091,-0.5685582160949707,1.3947045803070068,-0.5672817230224609,0.1656225025653839,0.4986235499382019,0.3740907311439514,-0.05166630446910858,-0.1946144700050354,0.3706592619419098,0.17633646726608276,-0.6445204019546509,-0.38690200448036194,0.5733898282051086,-1.1408058404922485,-0.7034887075424194,-0.20966392755508423,0.141633540391922,1.1509004831314087,1.0245745182037354,0.2883248031139374,-0.04469548538327217,-0.07810671627521515,0.2884509861469269,0.42062026262283325,-0.33724546432495117,1.1146092414855957,-0.7801539897918701,-0.1475825011730194,-0.4831171929836273,0.34288290143013,-0.7097637057304382,1.110864281654358,-0.9715553522109985,-0.5893656015396118,0.8298210501670837,0.4865456223487854,0.6876258254051208,0.5500202178955078,-0.18953508138656616,-0.29820969700813293,-0.8338171243667603,-0.3896186351776123,0.6400103569030762,-1.1153032779693604,-0.1726422756910324,1.0631909370422363,0.2765791118144989,-0.3018396496772766,-0.024909699335694313,0.3478461802005768,-0.343798965215683,-0.25318393111228943,0.8233494758605957,0.8234954476356506,-0.710885226726532,-0.6165501475334167,0.13570861518383026,-0.28950268030166626,1.2785214185714722,-0.9130073189735413,1.49989652633667,0.7020735144615173,0.16832326352596283,0.6601884365081787,0.7992863059043884,0.3725217580795288,-0.009828990325331688,-0.43883317708969116,-1.64821457862854,-0.932111382484436,0.0528746135532856,0.7112513780593872,0.341396301984787,-0.3568081557750702,0.6978262662887573,0.1332949697971344,-0.6263881325721741,0.5981709361076355,-1.4171652793884277,0.44843801856040955,-1.008601188659668,-0.3202183246612549,-0.2912338376045227,-0.021168721839785576,0.884775698184967,1.0352661609649658,0.9469928741455078,-0.9235729575157166,0.43807730078697205,-0.3420431911945343,-0.4994693994522095,0.23426607251167297,-0.5906442999839783,-0.44348981976509094,-0.5027170777320862,0.12123224139213562,-0.5801345109939575,-0.15809904038906097,-0.24215403199195862,-2.200288772583008,0.30608925223350525,0.645198404788971,-0.5605393648147583,0.3920779824256897,-0.14297176897525787,1.0023572444915771,-0.011882174760103226,-1.3545958995819092,-2.0737972259521484,0.1684827208518982,-0.24488332867622375,-0.14488744735717773,-0.02587304264307022,0.8678179979324341,0.3139197528362274,-0.3260740339756012,0.16111309826374054,-0.23340053856372833,0.9274163842201233,-0.6993756294250488,-0.30436593294143677,0.10658670216798782,0.8860545754432678,0.28029119968414307,-1.0976642370224,0.18382899463176727,0.1079353392124176,-0.0887613371014595,0.8990822434425354,0.518557071685791,0.4568719267845154,0.7798404693603516,-0.2963118553161621,-0.49716389179229736,0.8305782079696655,1.199503779411316,0.005791814997792244,0.5559760332107544,-0.8786404728889465,-1.0622810125350952,-0.5275862216949463,0.17782647907733917,-0.4616149961948395,-0.8401173949241638,0.9463095664978027,0.11555174738168716,-1.3888075351715088,0.3692780137062073,0.3703329563140869,-0.11303688585758209,1.0620564222335815,0.052762795239686966,0.09487283229827881,1.054971694946289,-1.139117956161499,-0.733022153377533,0.7341501712799072,-0.7118330597877502,1.21328866481781,-0.5035858750343323,-0.18430674076080322,0.466905802488327,0.5507788062095642,0.06056707352399826,0.004080166108906269,0.17994695901870728,0.2632547914981842,-0.8600794076919556,0.7971660494804382,-0.9065991640090942,-0.37549901008605957,0.6015479564666748,0.05525026470422745,-0.398837685585022,-0.6691513657569885,-1.8162869215011597,-0.5705432891845703,-0.8646893501281738,-0.8749972581863403,0.09031633287668228,-0.56362384557724,1.1047972440719604,-0.790813684463501,0.5037501454353333,0.024795252829790115,1.276550054550171,-0.05380120128393173,1.047568440437317,0.23080238699913025,0.5693651437759399,-0.32215216755867004,-1.6703048944473267,-0.29469412565231323,0.6744672060012817,-1.2933744192123413,0.29342877864837646,-0.7594441771507263,-0.000557295570615679,0.6664920449256897,0.22670535743236542,1.274554967880249,-0.13791172206401825,0.5286545753479004,-0.030786368995904922,0.1312292516231537,-0.11268063634634018,1.3130592107772827,0.278939813375473,0.8928899168968201,-0.772454559803009,0.547048807144165
