word,0,1,2,3,4,5,6,7,8,9,10,11,12,13,14,15,16,17,18,19,20,21,22,23,24,25,26,27,28,29,30,31,32,33,34,35,36,37,38,39,40,41,42,43,44,45,46,47,48,49,50,51,52,53,54,55,56,57,58,59,60,61,62,63,64,65,66,67,68,69,70,71,72,73,74,75,76,77,78,79,80,81,82,83,84,85,86,87,88,89,90,91,92,93,94,95,96,97,98,99,100,101,102,103,104,105,106,107,108,109,110,111,112,113,114,115,116,117,118,119,120,121,122,123,124,125,126,127,128,129,130,131,132,133,134,135,136,137,138,139,140,141,142,143,144,145,146,147,148,149,150,151,152,153,154,155,156,157,158,159,160,161,162,163,164,165,166,167,168,169,170,171,172,173,174,175,176,177,178,179,180,181,182,183,184,185,186,187,188,189,190,191,192,193,194,195,196,197,198,199,200,201,202,203,204,205,206,207,208,209,210,211,212,213,214,215,216,217,218,219,220,221,222,223,224,225,226,227,228,229,230,231,232,233,234,235,236,237,238,239,240,241,242,243,244,245,246,247,248,249,250,251,252,253,254,255,256,257,258,259,260,261,262,263,264,265,266,267,268,269,270,271,272,273,274,275,276,277,278,279,280,281,282,283,284,285,286,287,288,289,290,291,292,293,294,295,296,297,298,299,300,301,302,303,304,305,306,307,308,309,310,311,312,313,314,315,316,317,318,319,320,321,322,323,324,325,326,327,328,329,330,331,332,333,334,335,336,337,338,339,340,341,342,343,344,345,346,347,348,349,350,351,352,353,354,355,356,357,358,359,360,361,362,363,364,365,366,367,368,369,370,371,372,373,374,375,376,377,378,379,380,381,382,383,384,385,386,387,388,389,390,391,392,393,394,395,396,397,398,399
特征值,0.9134266376495361,0.513130784034729,-0.6137330532073975,1.1054210662841797,-0.6973720192909241,-1.7454631328582764,-0.9482733607292175,-1.1629579067230225,0.5290399789810181,1.207471251487732,-0.2183542400598526,1.28811514377594,0.9410013556480408,0.4473223090171814,-0.33859360218048096,-1.0130419731140137,-0.022870616987347603,0.7085320949554443,-0.43590566515922546,0.6403324604034424,0.4971666932106018,0.6183081269264221,0.42009755969047546,0.9146462678909302,0.7103561162948608,0.34403255581855774,-0.7149613499641418,-0.137215256690979,-1.9857498407363892,0.4007035791873932,0.5562145113945007,-0.09995308518409729,-0.7154137492179871,-0.6491690278053284,0.3437463045120239,0.24676567316055298,-0.9119388461112976,-1.6310099363327026,-0.3006587028503418,-0.8817672729492188,-1.8831686973571777,0.8159298300743103,-0.29901042580604553,-0.2866865396499634,0.06873754411935806,-1.8801313638687134,-1.569217562675476,1.602258563041687,0.10353875160217285,0.788701593875885,0.20314297080039978,-0.6239351034164429,-0.6886860728263855,1.8198473453521729,0.3975772559642792,-0.02501070499420166,-0.452808141708374,0.615680992603302,1.2233878374099731,-0.21554961800575256,0.4928695857524872,-0.03218948096036911,0.7974619269371033,0.5039463043212891,-0.595845103263855,-0.39735034108161926,-0.25733596086502075,0.8962132930755615,0.7462398409843445,2.7642600536346436,-1.792653203010559,0.03881406784057617,-0.1823849081993103,-0.7074872255325317,-0.299916535615921,0.35306626558303833,-0.020457671955227852,0.032852474600076675,0.22631435096263885,-0.24012571573257446,1.1893367767333984,0.17078028619289398,-0.44255805015563965,-0.927679181098938,-1.1195026636123657,-0.2781337797641754,-0.15431219339370728,0.49687737226486206,-1.6813334226608276,-0.7017941474914551,0.06279526650905609,-0.5930283069610596,1.1946369409561157,0.21840743720531464,1.1560099124908447,0.37687963247299194,0.5515105724334717,1.364662766456604,0.5467550754547119,-0.20239296555519104,0.8541293740272522,1.1588876247406006,-0.5282759666442871,-0.19264453649520874,0.09818669408559799,-0.03303683176636696,-0.6729300022125244,-0.05981879681348801,0.35345199704170227,-0.08301898837089539,0.4329177439212799,0.7775571942329407,0.8275443315505981,0.5736439228057861,0.06789590418338776,-0.24606341123580933,0.007922855205833912,0.31703001260757446,-1.3440051078796387,0.14312314987182617,0.4575091302394867,0.16696256399154663,1.004923701286316,-1.12117338180542,0.34934043884277344,0.21832065284252167,-0.5437436699867249,0.25170838832855225,-0.9485913515090942,0.707916259765625,-1.438607931137085,-1.178784966468811,-0.567893922328949,0.5130932927131653,-0.4653947949409485,-0.1260746568441391,-1.5783183574676514,2.158865213394165,0.4197046458721161,0.5043924450874329,1.7779725790023804,-0.008023357950150967,-0.1858820617198944,0.6424885988235474,1.0508378744125366,-0.6997496485710144,-0.027510186657309532,0.28845906257629395,1.8188303709030151,-1.2188478708267212,0.5346955060958862,0.32272273302078247,1.1236010789871216,0.7522519826889038,-0.13800281286239624,-0.17749042809009552,-1.270524501800537,0.4478533864021301,0.8976706266403198,1.138056755065918,0.26188790798187256,1.0396997928619385,-0.5093689560890198,-0.3828185498714447,-0.07336834818124771,-0.5884886384010315,-0.7180647850036621,0.4895607829093933,-1.1685467958450317,-0.656673014163971,-0.5557755827903748,-0.3591229319572449,-0.5095926523208618,0.0761992335319519,0.6855291128158569,0.9555346369743347,1.0500414371490479,-0.28945547342300415,0.9090888500213623,-0.20397824048995972,-1.032397747039795,-0.5946192145347595,-0.05337858572602272,-0.9419022798538208,0.015797432512044907,0.6064358353614807,0.6451823115348816,0.14113305509090424,-0.26220566034317017,0.2763913869857788,0.23219570517539978,-1.7999070882797241,0.249331995844841,0.2658856213092804,0.0705745667219162,-1.7544329166412354,-0.3194437623023987,-1.3521816730499268,0.9142526388168335,-1.1085745096206665,-2.0003890991210938,0.07672015577554703,0.5220023989677429,0.415367990732193,0.1833164095878601,0.6520997881889343,0.6665913462638855,1.3790708780288696,-0.5573291778564453,-0.09863926470279694,-1.2276030778884888,-0.9279050827026367,-1.0588780641555786,0.2488044649362564,-1.0523674488067627,-1.2149173021316528,1.126609444618225,0.7803040742874146,0.8571053743362427,1.6565605401992798,0.8322508335113525,0.0600186288356781,-0.15566211938858032,0.9976032376289368,-0.4835926294326782,-0.6015019416809082,-0.2681869566440582,1.7181308269500732,-0.3433835804462433,-0.7065516114234924,-0.7502042055130005,0.9982296228408813,-0.1315957009792328,0.24718213081359863,-0.5920511484146118,-0.4616679847240448,0.28267258405685425,-1.2076890468597412,-0.7225194573402405,0.33817341923713684,-0.2207605242729187,-1.4302241802215576,0.7812045216560364,-0.455122172832489,0.297559529542923,-0.2705531418323517,-1.4669948816299438,1.133860468864441,1.0277609825134277,1.0074164867401123,1.141208529472351,0.2985432744026184,1.13913893699646,-0.042800650000572205,1.0806361436843872,1.1937782764434814,1.4922518730163574,-0.7289047241210938,-0.10116862505674362,0.23843912780284882,0.529981255531311,-1.4333196878433228,0.21443286538124084,0.8535431623458862,-1.1769862174987793,0.25613632798194885,0.38205811381340027,-1.4703369140625,0.8273921608924866,0.8180440664291382,0.7656672596931458,1.157265305519104,-0.25786519050598145,1.1782528162002563,0.18269293010234833,-0.20729894936084747,-0.14843492209911346,0.3475736677646637,-0.3817455470561981,-1.4179856777191162,-0.858678936958313,0.11780236661434174,0.8504111170768738,0.42650312185287476,1.2149207592010498,-0.5064082741737366,0.29532313346862793,-0.5853990912437439,0.301551878452301,-0.8530416488647461,0.7180541157722473,-0.47521618008613586,-0.4142269194126129,-0.9121270775794983,-0.08642702549695969,-0.6658210158348083,-0.7574155926704407,0.6530081629753113,-0.38070234656333923,-0.06997425109148026,-0.15651047229766846,0.9829287528991699,-0.4581068158149719,-0.9762721657752991,0.9063547849655151,-0.23956139385700226,0.33336111903190613,1.1127642393112183,-0.6777653694152832,0.11433827877044678,-0.11690255254507065,0.8608496189117432,1.4179415702819824,-0.03734636306762695,0.5903717279434204,-2.2914466857910156,-0.19388122856616974,-0.08131115138530731,0.9633716940879822,-0.7728298306465149,-0.2111625373363495,-0.5675976872444153,-0.15964244306087494,-0.655311107635498,0.9887565970420837,0.8199958205223083,-0.28762495517730713,0.12879012525081635,-1.1270272731781006,0.1211092472076416,0.9008556604385376,-0.13173046708106995,0.09403606504201889,-0.23306526243686676,0.10950231552124023,-1.432633638381958,-0.2593887150287628,-0.10051464289426804,-0.2906129062175751,0.24706590175628662,0.08562951534986496,0.4909026622772217,0.6400198936462402,-2.4517152309417725,1.4760159254074097,-0.2713603973388672,-0.0204001571983099,-1.0854098796844482,0.25809526443481445,-0.7833546996116638,0.7671536207199097,1.344752550125122,-1.6723142862319946,0.6740147471427917,-1.0165824890136719,-0.9565603137016296,-0.5627286434173584,-0.4265049695968628,-0.6462987661361694,0.6642407178878784,-0.22982163727283478,-0.8519392609596252,-0.06457279622554779,0.654607355594635,0.7620730400085449,0.39799174666404724,-0.5891348719596863,1.7464607954025269,-0.5287860631942749,-1.5303232669830322,-0.5355207324028015,0.08224298804998398,-0.5956636667251587,0.9814396500587463,0.109540656208992,-0.5864521265029907,-0.2178034484386444,-1.7252775430679321,1.4442503452301025,0.7083251476287842,0.373992919921875,-0.136665478348732,0.6351234316825867,-0.3054659962654114,-1.131514549255371,-1.1655371189117432,-1.189192295074463,-0.17703957855701447,1.0272808074951172,1.7689090967178345,2.077003002166748,0.3502446115016937,0.22601376473903656,1.5617549419403076,0.5221360921859741,-0.07619040459394455,-1.7981830835342407,-0.22021004557609558,-0.36558011174201965,-1.1233097314834595
英语,-0.5721172094345093,-0.13226187229156494,-0.29097217321395874,0.5041058659553528,0.07148301601409912,-0.3225488066673279,-0.2755025029182434,-0.04750244691967964,-0.8236755132675171,-0.09107715636491776,0.30253866314888,-0.05673902481794357,-0.3585067093372345,-0.5226008892059326,0.3949517011642456,1.190035343170166,0.8231539726257324,0.0013057873584330082,-0.12659971415996552,0.19478432834148407,-0.49790212512016296,-0.5209783911705017,0.11482460051774979,0.4555460810661316,-1.247261881828308,-0.4158307909965515,-0.06887024641036987,0.4957776367664337,-0.3083288371562958,-0.2659154236316681,-0.17651550471782684,-0.16950087249279022,-0.3488335907459259,-0.2570006847381592,-0.1576954573392868,-0.7929815649986267,0.7115627527236938,0.7920862436294556,-0.11370888352394104,-0.21673788130283356,-0.5587270259857178,0.5084882974624634,0.04005277529358864,0.5688022971153259,-0.31731754541397095,0.1462874561548233,0.7145496606826782,-0.2986159324645996,0.5800357460975647,0.26006194949150085,0.8954039216041565,-0.24627599120140076,0.6206724047660828,0.42049089074134827,0.18953323364257812,0.3818150460720062,-1.1045970916748047,-0.5604368448257446,0.4687422811985016,-0.28374648094177246,0.775546133518219,-0.05887795239686966,0.4441570043563843,1.1133257150650024,-0.13140647113323212,0.3880588710308075,-0.0418451651930809,-0.9288376569747925,0.03330209106206894,0.21604850888252258,-0.6934376955032349,1.4450286626815796,0.2551347315311432,-0.31731221079826355,0.39879876375198364,0.46471795439720154,-0.2827429473400116,-0.18549536168575287,0.6501685976982117,-1.207058072090149,0.06275659054517746,0.07776815444231033,-0.16723881661891937,-0.18059420585632324,0.0878869965672493,-0.7339792251586914,-0.5746661424636841,0.19295106828212738,0.9573513269424438,-0.412950724363327,-0.8267223238945007,-0.23182149231433868,-0.5415942072868347,0.6511451005935669,0.21508638560771942,-0.278018593788147,0.5252181887626648,-0.20375539362430573,-0.6267062425613403,0.6130963563919067,0.7087463140487671,0.645129382610321,0.25843751430511475,0.03329107165336609,0.02976766601204872,-0.17053021490573883,0.35557663440704346,-0.5071642398834229,-0.11160527169704437,-0.5746544003486633,-0.02214222587645054,0.4678008258342743,-0.2954782247543335,0.4888928532600403,0.7364370226860046,-0.3967150151729584,0.02463775873184204,-0.15094596147537231,-0.7656996846199036,0.11826631426811218,-0.6132161617279053,0.6422455906867981,-0.20593726634979248,-0.09041306376457214,0.8266613483428955,-0.4829055070877075,-0.3189685046672821,-0.048517871648073196,-0.1381484568119049,0.23586386442184448,-0.013715009205043316,-0.2761944830417633,-0.47881999611854553,-0.20794081687927246,-0.29713818430900574,0.3728995621204376,-0.15972207486629486,0.07981541007757187,0.023460518568754196,0.07179908454418182,1.1877251863479614,0.3761337995529175,-1.1724987030029297,0.6781741380691528,1.2095491886138916,0.08685382455587387,0.28789612650871277,0.22233881056308746,0.15764585137367249,-1.0716286897659302,-0.20010223984718323,-0.37395796179771423,-0.28756776452064514,0.8312853574752808,-0.20082075893878937,-0.06959514319896698,0.6682572364807129,-0.6390925645828247,-0.513622522354126,0.35473597049713135,-0.32241472601890564,-0.23080265522003174,-0.008814024738967419,-0.021919848397374153,-0.34742286801338196,0.06793922930955887,-0.2234233170747757,-0.6625044345855713,-0.7530958652496338,-0.12997359037399292,0.01967659778892994,0.3583187758922577,-0.23564325273036957,0.10595566034317017,-0.9453701972961426,0.4628361761569977,0.5180033445358276,0.3728658854961395,0.26092976331710815,0.15464921295642853,-0.017067689448595047,0.15468227863311768,-0.045284856110811234,-0.8542738556861877,0.041070930659770966,0.44008582830429077,0.2743024230003357,-0.30945661664009094,0.7112817764282227,0.03379557281732559,-0.1571299284696579,-0.7117068767547607,-0.3277287185192108,-0.819686770439148,-0.26410984992980957,0.03911503776907921,-0.5103893280029297,0.9604277610778809,-0.7831140160560608,-0.007487109396606684,-0.19730032980442047,-0.8670888543128967,0.26845264434814453,-0.1123470887541771,-0.8060631155967712,0.1655520796775818,0.4214451014995575,-0.41582736372947693,-0.27751168608665466,0.588042676448822,0.09183627367019653,-0.47845467925071716,-0.3515588641166687,-0.6092351078987122,0.3584515452384949,-0.4643143117427826,-0.7707619667053223,0.33241212368011475,-0.3240431845188141,-0.32433849573135376,0.03663960099220276,0.4593520164489746,-0.16167624294757843,0.3400889039039612,-0.7006087303161621,-0.31133660674095154,-1.036761999130249,-0.16214130818843842,-0.6470953226089478,0.27194681763648987,0.4204798936843872,-0.17984427511692047,-6.092284820624627e-05,0.5091500282287598,-0.01784062385559082,0.18256627023220062,-0.28791046142578125,0.5020503997802734,-0.4632214307785034,-0.034949399530887604,0.3780418932437897,0.13755393028259277,0.09482449293136597,0.7055819630622864,0.08523887395858765,0.6401066780090332,0.18558764457702637,-0.4836956858634949,0.37396296858787537,0.05323602259159088,-0.5485862493515015,0.2895786166191101,0.8873910903930664,0.45595982670783997,-0.1730913519859314,0.20878221094608307,-0.10339131206274033,-0.43753787875175476,0.6670336723327637,0.3096022307872772,-0.12817703187465668,-0.02284570410847664,0.04286940395832062,0.6079819202423096,-0.5276597738265991,0.5591999292373657,-0.1403638869524002,-0.30095213651657104,-0.42588141560554504,-0.5202553868293762,-0.24334190785884857,0.124423548579216,-0.9449531435966492,-0.11914611607789993,0.2833678722381592,-0.36281538009643555,-0.6606687903404236,0.16858746111392975,0.5443581342697144,-0.5439288020133972,-0.45888859033584595,-0.6790993809700012,0.313800185918808,-0.8446261882781982,0.003668899415060878,-0.050257910043001175,0.6623871326446533,-0.3243633210659027,-0.105559803545475,0.14314812421798706,0.7488038539886475,-0.027733055874705315,-0.2049206793308258,-0.24467766284942627,-0.08868218213319778,0.13447847962379456,-0.15370246767997742,-0.09588443487882614,0.30726730823516846,0.03956640511751175,0.2791304290294647,0.1368733048439026,0.19028910994529724,0.9836418628692627,0.2016451060771942,0.16655538976192474,-0.011826234869658947,0.00909517239779234,-0.3081219792366028,-0.14038805663585663,0.11952337622642517,-0.18083028495311737,0.14599062502384186,-0.9164734482765198,-0.2213587760925293,-0.007658587768673897,0.4856235682964325,0.12454893440008163,-0.22131527960300446,0.8497241139411926,0.6490499377250671,-0.045214779675006866,-0.5356927514076233,-0.30956435203552246,0.6556576490402222,-0.3719523549079895,0.6707671880722046,0.5101955533027649,-0.9815861582756042,0.857162594795227,0.02310936711728573,0.26731210947036743,-0.40080809593200684,-0.18172898888587952,0.08687078952789307,0.10095830261707306,-1.0087330341339111,0.14342035353183746,-0.025702975690364838,-0.15893729031085968,-0.5631871819496155,0.07624315470457077,-0.5123386383056641,-1.0762083530426025,-0.24189022183418274,-0.810922384262085,-0.3392406404018402,0.058906421065330505,-0.28434136509895325,0.4005419611930847,0.49548494815826416,-0.7780781388282776,-0.06635727733373642,-0.24667750298976898,0.5114072561264038,0.45048126578330994,-0.10935549437999725,0.31297481060028076,0.23348289728164673,0.2519569396972656,-0.16272348165512085,-0.12364307045936584,-0.08781569451093674,-0.0662679448723793,0.15191258490085602,-0.9039603471755981,0.26904192566871643,0.2043047696352005,-0.223195880651474,0.07188472896814346,0.12408678233623505,-0.5871743559837341,-0.6246954798698425,0.0631142407655716,-0.06119787320494652,-0.30683448910713196,0.1670330911874771,0.13035205006599426,-0.3748485743999481,0.45629096031188965,-0.6450268626213074,-0.10631787776947021,-0.5596093535423279,0.12260329723358154,0.10710166394710541,0.3198498785495758,0.22397278249263763,0.2922894060611725,-0.13532814383506775,-0.37867623567581177,0.054959043860435486,0.13918285071849823,0.24552953243255615,-0.6973975896835327,0.007488660514354706,1.0108798742294312,-0.0012907141353935003,0.47478485107421875,-0.035720400512218475,-0.5740436315536499
全文,-0.12431317567825317,0.8976344466209412,-0.8044582009315491,-0.9710026979446411,0.7842605113983154,0.9566290974617004,0.45766547322273254,-1.4484856128692627,0.039259105920791626,-0.09699661284685135,-0.9944688081741333,0.46433913707733154,0.22345641255378723,-0.29047897458076477,-0.45288798213005066,0.7537975311279297,-0.08325676620006561,0.7808292508125305,-0.27249595522880554,0.16787070035934448,-0.03491510823369026,-0.13371239602565765,0.17451979219913483,0.4464094340801239,0.3086633086204529,0.1546398252248764,0.5428106188774109,-0.07753821462392807,-1.434099793434143,1.1154340505599976,-0.20622962713241577,0.36744534969329834,-0.1253185123205185,1.1778082847595215,0.05150360241532326,0.3482818007469177,-0.8234648108482361,0.705547034740448,0.07319749146699905,0.7710745930671692,1.499763011932373,-0.7444231510162354,1.1336504220962524,0.2932054102420807,0.623750627040863,-0.5349239110946655,0.09064959734678268,-1.5327651500701904,0.4750654995441437,0.42881402373313904,0.3484858572483063,-0.1659613996744156,0.9207828640937805,0.20343786478042603,0.39843079447746277,-0.16099978983402252,-0.1031336784362793,0.7833030819892883,-0.15381908416748047,-0.9795216917991638,0.2443566769361496,1.2918497323989868,0.6307376623153687,1.1674060821533203,-0.0030176022555679083,0.13765765726566315,-0.15806187689304352,0.7510726451873779,0.5177260637283325,0.16628602147102356,0.34496113657951355,-0.28995296359062195,-0.015650415793061256,0.23365730047225952,0.30770552158355713,-0.2040547877550125,0.870430588722229,-0.22677107155323029,0.8196086287498474,-0.446692556142807,0.8522218465805054,-0.024528387933969498,0.28663960099220276,0.35413289070129395,-0.0407649502158165,0.013280024752020836,-0.4095757007598877,0.20668435096740723,0.42928269505500793,-0.4327181577682495,0.44168516993522644,0.10384777933359146,-0.009835103526711464,0.4873228967189789,-0.37597328424453735,-0.35796281695365906,-0.6695587635040283,0.009387413039803505,-0.26709702610969543,-0.06798307597637177,-0.44830238819122314,-0.05045885220170021,0.5150033831596375,0.12249873578548431,0.5901709198951721,0.17425842583179474,0.33821678161621094,-0.6548784375190735,-0.06532405316829681,-0.08948097378015518,0.21384000778198242,-0.709576427936554,-0.6090501546859741,0.27019235491752625,1.0910468101501465,-0.3748510479927063,0.10799861699342728,-0.3305954933166504,-0.5535488128662109,0.2215382158756256,-0.21825964748859406,0.025053104385733604,0.37710970640182495,0.26389259099960327,0.7872468829154968,-0.25249963998794556,0.1290384829044342,1.2505542039871216,0.7203251719474792,-0.5882863402366638,-0.5939285159111023,-0.07383305579423904,-0.1622372716665268,-0.7603122591972351,-0.17246244847774506,-0.42585641145706177,-0.15358904004096985,-0.11972276866436005,-0.31431302428245544,-0.2539615035057068,0.19001001119613647,-0.4697566628456116,0.027512190863490105,-0.18390339612960815,0.04902912303805351,0.21368399262428284,0.4234972894191742,-0.41141006350517273,-0.7959028482437134,1.5867778062820435,-0.037658240646123886,-1.283319115638733,-0.7709549069404602,0.3777460753917694,0.6385912895202637,-0.47269192337989807,-0.5605685114860535,0.7109931707382202,-0.22437207400798798,0.28167951107025146,-0.31643107533454895,0.7496143579483032,-1.1728672981262207,0.8132430911064148,0.30244800448417664,0.33006715774536133,0.17967601120471954,-0.23992864787578583,0.7676757574081421,-0.3770104944705963,-0.16228535771369934,1.0879297256469727,0.03757406026124954,0.12566477060317993,0.3000805675983429,-0.4683075547218323,-0.6944371461868286,-0.06243686005473137,-0.8688681125640869,0.4898257553577423,-0.37318795919418335,-0.46082833409309387,0.10197664052248001,-1.6597882509231567,0.048849526792764664,1.2506955862045288,-0.06849362701177597,-0.43391504883766174,-0.7904409170150757,1.2284235954284668,-0.28224337100982666,0.26469090580940247,-0.1571914255619049,0.36402466893196106,-0.012554474174976349,-0.3927881717681885,-0.8525981903076172,0.14316806197166443,0.4539948105812073,-0.40240567922592163,0.8107830882072449,0.47362232208251953,0.5359957218170166,-1.0700018405914307,0.37008631229400635,-0.8285865187644958,0.23001998662948608,0.48967689275741577,0.013181435875594616,-0.49085351824760437,0.3350076973438263,-0.714959979057312,-0.14136554300785065,0.18278881907463074,0.27998191118240356,0.42967668175697327,-0.3567306697368622,0.4276163578033447,-0.46530643105506897,0.267816960811615,-0.29438722133636475,-0.5699382424354553,-0.4653592109680176,0.4795970320701599,-0.2504284977912903,-0.5097966194152832,-1.0007847547531128,-0.723885715007782,0.004842891823500395,0.9266777634620667,-0.948745608329773,-0.0843532383441925,-0.3312906324863434,-0.594691276550293,0.051268577575683594,-0.36527490615844727,-0.7379932403564453,1.3501496315002441,-0.023392781615257263,-0.9432981014251709,0.2525492310523987,0.7989212274551392,-0.435561865568161,0.8594720959663391,-0.477678120136261,0.2915280759334564,-0.25968748331069946,0.0014700850006192923,0.5730692744255066,0.023237431421875954,-0.8737810850143433,-0.3838457465171814,0.5493558645248413,-0.336484432220459,-0.670048177242279,0.05537426471710205,0.34846851229667664,0.3639586269855499,0.021352816373109818,-0.07356777787208557,0.30237725377082825,-0.0014572450891137123,0.4262058138847351,0.15770138800144196,0.10989141464233398,-0.17688672244548798,0.08288059383630753,-0.19551534950733185,-0.28791341185569763,1.4562760591506958,0.41529417037963867,-0.2232280671596527,-0.7033163905143738,0.6133679747581482,0.2887563109397888,-0.20308814942836761,-0.26926612854003906,-0.0713166743516922,-0.2965417206287384,-1.4854679107666016,-0.8491155505180359,-0.26882192492485046,0.03629651665687561,-0.36389684677124023,0.03129342570900917,0.10498266667127609,0.6070966720581055,0.9268491268157959,-0.24160164594650269,-0.6516597270965576,0.5149902105331421,-0.07507689297199249,0.5837305784225464,-0.20508193969726562,-0.02636982500553131,-0.8559214472770691,-1.6656960248947144,0.09928350895643234,0.28566545248031616,0.21914169192314148,-0.9466309547424316,0.16652090847492218,0.7287958264350891,0.507802426815033,0.5846084356307983,0.18666203320026398,0.6259489059448242,-0.0697367861866951,0.25594276189804077,-0.33992713689804077,-0.2504993975162506,1.6529364585876465,-0.46333882212638855,0.5123677253723145,-0.11147861182689667,-0.19291600584983826,-0.05026138573884964,0.7342073321342468,-0.32385849952697754,0.805072546005249,-0.16713742911815643,-0.545041561126709,-1.231095552444458,1.4899784326553345,-0.7371073365211487,-0.1454395353794098,0.10258113592863083,0.3304304778575897,-0.31030696630477905,-0.16438403725624084,0.7023422718048096,0.29021748900413513,0.7677904963493347,-1.0596716403961182,1.1185277700424194,0.20338258147239685,0.20266245305538177,0.3344576060771942,-1.1405190229415894,0.5429986715316772,0.022387413308024406,0.5556784868240356,0.18020936846733093,-0.4393540918827057,0.7271450161933899,-0.1949133723974228,-0.030033625662326813,0.2861275374889374,0.6392113566398621,0.6390537023544312,0.5707738995552063,-0.09823057800531387,-0.16905206441879272,0.1513771414756775,-0.48002901673316956,0.7101789712905884,-0.46529272198677063,-1.3484452962875366,0.26725563406944275,-0.26134881377220154,0.45850133895874023,-1.3956393003463745,-0.4847725033760071,-0.7397781610488892,-0.08568685501813889,0.6280660629272461,0.47566577792167664,-0.3509978950023651,-0.6110808849334717,-0.5876745581626892,-0.19921797513961792,-0.13932962715625763,0.1367042362689972,-0.46315547823905945,-0.425659716129303,0.604755163192749,0.019228288903832436,0.40170931816101074,0.03371640294790268,-0.5398231148719788,-0.31744328141212463,-0.2941778898239136,-1.117038369178772,0.1717526614665985,-0.11563444137573242,-1.5623290538787842,-0.7300406098365784,0.14543867111206055,0.35433995723724365,0.4655848741531372,-0.5033895969390869,0.038712188601493835,0.32580211758613586,-0.3562396466732025,-0.9965494871139526,-0.051996055990457535,0.36638960242271423,-0.5973336100578308,0.020470473915338516,-1.430822491645813
大陆,-0.5698968172073364,0.1918562799692154,0.19688726961612701,0.8215317130088806,-0.09996416419744492,0.3717915117740631,0.01918364129960537,0.049766670912504196,-0.17676480114459991,-1.411419153213501,0.13799281418323517,-0.3110281229019165,0.01356485579162836,0.5674104690551758,0.5722774267196655,-0.7811459898948669,0.5247819423675537,0.691011905670166,-0.5096035003662109,-0.28223660588264465,1.5619351863861084,-0.006062891334295273,1.8443716764450073,-0.31144943833351135,0.8103002905845642,1.118903398513794,0.29022806882858276,-0.06103019788861275,-1.042216420173645,0.880739152431488,-0.16423901915550232,-1.06669282913208,0.09843409061431885,-0.1792147010564804,0.304454505443573,0.037922780960798264,-1.076841950416565,0.49989384412765503,0.5999829769134521,-0.6407196521759033,1.0303611755371094,0.2040630578994751,0.1357247531414032,-0.28633493185043335,0.40194952487945557,0.07603700459003448,-0.6833475828170776,-0.4284237027168274,0.5691342353820801,-1.2013249397277832,0.9252336621284485,0.8998181223869324,0.6888998746871948,2.1069140434265137,-0.0008023466216400266,-0.0016683056019246578,-1.071197509765625,0.32274678349494934,-0.06521771103143692,-0.27051734924316406,-0.9414849281311035,0.5741297006607056,-0.11710688471794128,1.129467248916626,0.5209081768989563,0.34998759627342224,0.42204007506370544,-1.7119126319885254,0.5516334176063538,0.27962613105773926,-0.5120912194252014,1.2956613302230835,0.8324891924858093,0.5955268740653992,-0.4722195565700531,-0.6320791840553284,0.09438242018222809,0.23573122918605804,-0.16962110996246338,-0.7807014584541321,-0.5292179584503174,-0.55600506067276,0.2974209487438202,-0.5170512795448303,-1.0889737606048584,0.05983106419444084,-0.3547511398792267,-0.9265395998954773,0.3934832215309143,-1.524188756942749,-0.40139392018318176,0.23580150306224823,-0.1873401254415512,0.259807288646698,0.5415272116661072,0.18654818832874298,0.28251734375953674,-0.5346783995628357,-0.36134517192840576,0.1027384102344513,-0.8168976902961731,0.970079243183136,0.06598493456840515,0.25339996814727783,0.9403422474861145,0.6078258156776428,0.139577716588974,-0.3314804434776306,0.1666494607925415,1.246900200843811,0.2639390528202057,0.10781983286142349,-0.8629856109619141,0.5190481543540955,0.4932257831096649,1.3324979543685913,-0.1725165694952011,-0.6376528739929199,-0.09858560562133789,0.29660192131996155,-0.6604708433151245,0.046679962426424026,0.282611221075058,0.09337891638278961,-0.6954225301742554,-0.1275758296251297,-0.11966188251972198,0.5374453067779541,0.052334122359752655,0.16815049946308136,-0.9581366777420044,-1.5951284170150757,0.19531802833080292,0.24954067170619965,0.032298456877470016,-0.7690884470939636,-0.7780175805091858,0.22405970096588135,0.6679357886314392,-0.9879375696182251,1.0910896062850952,0.42608413100242615,0.006320375017821789,0.4289301633834839,0.04138747602701187,-0.4014727473258972,-0.3200457990169525,-1.4624541997909546,0.6754809617996216,-0.15928789973258972,-0.5036861300468445,-0.013974295929074287,-0.6038753390312195,1.2999520301818848,-0.49242469668388367,1.2213600873947144,-0.35504746437072754,-0.31550508737564087,0.3378112316131592,0.49630171060562134,-0.21257753670215607,-0.48441341519355774,0.23281095921993256,-0.3070138692855835,1.446419358253479,-1.2250772714614868,0.19710978865623474,-0.010998811572790146,-0.17821960151195526,-0.03831419721245766,-0.044287633150815964,0.5160342454910278,-0.27846717834472656,-0.383114218711853,0.23899857699871063,0.4577929973602295,-0.7873695492744446,-0.22063271701335907,1.1076700687408447,0.02819710783660412,0.839896559715271,0.38270220160484314,-0.229135200381279,-1.0080337524414062,0.07062278687953949,0.14262577891349792,1.3825749158859253,1.0528385639190674,-0.4522385895252228,-0.1088729128241539,-0.09399399906396866,1.3233596086502075,-1.3312033414840698,0.7739432454109192,0.4682614505290985,-0.5665419697761536,-0.4469166100025177,0.6620504260063171,-0.6631598472595215,0.6355977654457092,0.48357999324798584,1.250264286994934,0.19780515134334564,-1.0996044874191284,0.18045422434806824,-0.224864199757576,0.3799945116043091,0.5701791644096375,-0.0952034443616867,1.4958161115646362,-0.6627365350723267,-0.4322892129421234,-0.5777741074562073,0.3456505239009857,0.2085537165403366,0.13913564383983612,1.2521684169769287,-0.0936732217669487,0.9638001322746277,0.7876313924789429,-1.4854402542114258,1.3760240077972412,0.6535946726799011,0.008900899440050125,-0.10195205360651016,-1.263640284538269,-0.6263167262077332,1.0170817375183105,-0.10454043000936508,1.297377109527588,0.4049316644668579,-0.10237152874469757,-0.3161904811859131,0.2540189325809479,0.0836140364408493,-1.3198338747024536,1.2923811674118042,0.15508152544498444,-0.3532150685787201,0.9580397605895996,-0.643304169178009,1.0635353326797485,0.9635103940963745,0.7871399521827698,-0.01398002915084362,0.39071720838546753,0.6913605332374573,0.3260672092437744,-0.3699415624141693,0.2754549980163574,-1.0832881927490234,0.5187925100326538,1.4767794609069824,-0.6469103693962097,0.46368393301963806,-0.8327015042304993,1.130982756614685,-0.14190204441547394,0.880031168460846,0.032525330781936646,0.22987723350524902,-0.26150158047676086,0.670228898525238,0.5691608786582947,-0.6988189816474915,0.4993961751461029,-0.7673096060752869,0.2669878304004669,-0.5383455753326416,0.9443400502204895,-0.3244912028312683,-1.119667649269104,-1.6712121963500977,-0.297139436006546,-0.38554057478904724,0.20715223252773285,0.901177167892456,-0.7205011248588562,-0.055971354246139526,-0.03133861720561981,0.38319122791290283,-0.3051714599132538,1.898741602897644,-1.2796871662139893,-0.31515663862228394,0.1815754473209381,-0.40847957134246826,-0.13661956787109375,-0.5831785798072815,0.56874018907547,-0.7757660150527954,-0.3141425549983978,-0.08570436388254166,-1.6244850158691406,0.699073851108551,0.044282954186201096,0.6295440196990967,-0.19588537514209747,0.6881736516952515,0.0934397429227829,0.9905862212181091,0.2681230306625366,-0.1251649409532547,-0.5678943991661072,0.47596997022628784,0.2645488381385803,-1.1274359226226807,0.5341135859489441,-1.0925062894821167,-0.3398783206939697,-0.763434648513794,-0.005952808074653149,0.639954149723053,0.14804409444332123,0.39163774251937866,0.45512810349464417,-1.0893211364746094,-0.22575096786022186,-0.6449755430221558,-0.16467022895812988,-0.7740183472633362,-0.8607668876647949,-0.6360172033309937,0.478751003742218,-0.28937971591949463,0.7312121391296387,1.3238160610198975,-0.07669435441493988,-0.05917169153690338,1.1473549604415894,0.3103373050689697,-0.629669725894928,-0.2860068678855896,-1.2711879014968872,0.2815367877483368,-0.13980181515216827,0.49411478638648987,0.6755570769309998,0.23340095579624176,-1.2951562404632568,0.4100390076637268,-0.11671940237283707,0.456947922706604,1.1641788482666016,0.3610295057296753,0.11749877780675888,-0.7744535803794861,0.16396212577819824,-0.6035110950469971,0.4038364589214325,-0.40564531087875366,-0.10677926242351532,2.194305896759033,1.135195016860962,-0.394430547952652,-1.3181021213531494,-0.6704822182655334,1.6649806499481201,-0.8558359742164612,-1.1224807500839233,-0.875053346157074,-1.4135396480560303,-0.7522911429405212,0.27628186345100403,-0.6545488238334656,-0.26334160566329956,-0.8320704698562622,0.09577880799770355,0.856333315372467,-0.6105490326881409,-0.3840700685977936,0.4738050401210785,1.4861277341842651,-0.4173564314842224,0.006440082099288702,-0.24100875854492188,-1.2512346506118774,0.6981293559074402,0.227225661277771,0.160151869058609,-0.26572105288505554,-0.5813233852386475,0.8907390236854553,-1.4514861106872559,-0.11529204249382019,-0.39641427993774414,-0.09738802909851074,-1.0320394039154053,0.3087436258792877,0.8252601623535156,-0.7546836733818054,0.1134059727191925,-0.4603342115879059,-0.9022442102432251,-0.1339174211025238,0.7841282486915588,0.04007604345679283,-0.4058021903038025,-0.667309582233429,0.4590661823749542
能力,-0.49175527691841125,-0.7274392247200012,0.8117123246192932,-0.3617280423641205,-0.6767051815986633,0.5459216833114624,-0.6917925477027893,1.041175127029419,0.4763883650302887,-0.36939942836761475,-0.13593415915966034,-0.038119882345199585,0.8575026392936707,0.22333726286888123,0.3798108696937561,0.3334329426288605,1.3333919048309326,0.7196300625801086,0.3831622302532196,0.4067462086677551,0.17716698348522186,0.4036606252193451,-0.36919423937797546,0.22627957165241241,0.5257273316383362,0.469680517911911,-0.5203626155853271,0.255010724067688,-0.3605648875236511,-0.726317286491394,0.32461676001548767,-1.119037389755249,0.8725525736808777,0.8488544821739197,-0.38866621255874634,-1.190014123916626,-0.46600374579429626,-1.2778147459030151,0.06659473478794098,-0.5257670879364014,0.16371671855449677,0.5727201700210571,0.5379728674888611,-0.6376482844352722,-0.24184994399547577,0.19973058998584747,-0.02441529743373394,-0.707173228263855,0.5947245359420776,-0.1318601816892624,0.909959077835083,0.8790249824523926,0.519239604473114,0.054447632282972336,0.7125946879386902,0.6197802424430847,-0.6695070266723633,-0.15613187849521637,0.3331422805786133,0.2891786992549896,1.0660145282745361,0.6422255039215088,0.4446004033088684,-1.2690984010696411,-0.4735199213027954,0.10376574099063873,0.3580721914768219,-1.1436978578567505,-0.3729320764541626,0.5963767170906067,-1.6756726503372192,1.2417933940887451,1.3246700763702393,0.3467772305011749,0.5350738763809204,-0.06495273113250732,-0.20573270320892334,-1.4323376417160034,0.25176435708999634,-0.22926348447799683,0.8742150664329529,-0.27615979313850403,0.5387178659439087,0.0013301655417308211,-0.4853672981262207,-0.6038433313369751,0.7233132719993591,-0.06432756036520004,0.10389815270900726,-1.128857135772705,-0.45285487174987793,0.12115702778100967,-0.5734813809394836,-0.2750718295574188,0.9527449011802673,0.39946138858795166,1.0263738632202148,-0.3532213568687439,-0.029427317902445793,0.5244575142860413,0.27095314860343933,0.1874186098575592,0.38124901056289673,-0.5906883478164673,-0.6100518107414246,0.6638386249542236,1.0000194311141968,-1.2654924392700195,-0.46131274104118347,-1.4343047142028809,1.325494408607483,-0.7492386698722839,-0.05400273576378822,-0.24334928393363953,0.5478759407997131,0.6050851345062256,0.38261592388153076,-0.6209975481033325,-0.4992855489253998,-1.066456913948059,-0.5621700882911682,0.8919451236724854,0.1851203590631485,0.1360255479812622,1.0339947938919067,0.2940966486930847,-0.8825567364692688,0.535433292388916,-0.38922783732414246,1.1524279117584229,-0.08061400800943375,0.8597080111503601,-0.667812705039978,1.4255024194717407,-0.03946917504072189,-0.015204980038106441,0.3960477113723755,0.04673025384545326,0.6239219903945923,-0.40148162841796875,1.2993664741516113,-1.0167723894119263,0.002266461495310068,0.49981388449668884,-0.42375388741493225,-1.0136080980300903,0.6086563467979431,-0.48231661319732666,-0.3662213385105133,-0.03744214028120041,-1.2238143682479858,0.4621709883213043,1.0129914283752441,0.2092089205980301,-0.04804985225200653,0.5740927457809448,1.1974029541015625,-0.5472037196159363,-0.06414808332920074,0.2732250392436981,0.08538636565208435,-0.00199098396115005,0.6162087917327881,0.7051282525062561,-0.32928019762039185,0.33170920610427856,0.029637377709150314,-0.3460741341114044,-1.542948603630066,0.5541771054267883,-1.0098271369934082,0.07115267962217331,-1.0161771774291992,-0.33576732873916626,-0.35008445382118225,-0.7691113948822021,0.3760952055454254,0.3678804337978363,1.1645007133483887,-0.5756251215934753,-0.7357585430145264,0.02294587716460228,-0.1702033132314682,0.3173867166042328,0.564649760723114,-0.9833314418792725,1.568998098373413,0.5852866172790527,-0.324851930141449,-0.8680927157402039,1.2433135509490967,0.3455851674079895,1.0028235912322998,-0.3942776918411255,0.9089682102203369,0.47296789288520813,-1.3700215816497803,-0.5908256769180298,0.14026109874248505,-0.009660933166742325,0.0748576819896698,-0.42883267998695374,0.11392940580844879,-1.9654227495193481,-0.9067099094390869,0.8229543566703796,1.222217321395874,1.3369702100753784,0.15622712671756744,-0.02517637610435486,0.48706766963005066,-0.3675945997238159,0.2898547351360321,-0.34594962000846863,-0.0007924645324237645,-0.7471893429756165,-0.7083637714385986,0.4510935842990875,1.6660231351852417,-0.33320775628089905,-0.3570188283920288,-0.39149579405784607,0.24430374801158905,0.42157092690467834,0.1397588849067688,0.5685429573059082,-0.08404820412397385,-0.9987422227859497,-0.6298315525054932,-0.180278941988945,-0.2064679116010666,0.8109939098358154,-0.2409677654504776,-1.2097798585891724,-0.9299655556678772,0.10267692804336548,0.23545348644256592,0.49675750732421875,0.6594992876052856,-0.2074470967054367,-0.9543629288673401,-0.06198020279407501,0.2559621036052704,-0.3217238485813141,-0.492430716753006,1.5336993932724,0.3235541880130768,0.1458466500043869,1.513210654258728,0.3151409924030304,0.4360625743865967,0.04729362949728966,1.0565177202224731,0.6435818672180176,0.2761259377002716,0.7849156856536865,0.3477298319339752,-0.09339819848537445,-0.952846348285675,0.9818063378334045,0.221008762717247,-1.1518319845199585,-0.03039998561143875,0.0871473029255867,0.4995599687099457,-0.15076233446598053,0.8110137581825256,-0.9820350408554077,-0.1947021186351776,-1.0583382844924927,0.21267788112163544,-0.32736736536026,0.2171182632446289,0.19590254127979279,-0.09800967574119568,0.8680633306503296,0.03139535337686539,-0.4760822057723999,-0.2268577516078949,0.06960418075323105,0.7810812592506409,0.3304283618927002,0.7605317234992981,0.5371026396751404,1.2667185068130493,0.11034947633743286,-0.707797110080719,-0.26521748304367065,0.8477618098258972,0.10784682631492615,-0.5173420906066895,-0.31794241070747375,0.6048506498336792,0.22748862206935883,0.8189170956611633,0.19555123150348663,-0.06750664114952087,-1.1612430810928345,0.40123701095581055,0.4131964445114136,0.5880985856056213,0.4453431963920593,0.33394163846969604,0.7917327880859375,0.26147937774658203,-0.08895842730998993,-0.3447646498680115,-0.34698861837387085,-0.2095736563205719,0.008022506721317768,-0.5316017270088196,0.8601006865501404,1.0516853332519531,-0.7536155581474304,0.5664043426513672,-0.05774199217557907,-0.3396008014678955,0.540025532245636,-1.269505500793457,-0.19420741498470306,1.1336983442306519,-0.9218935966491699,-0.2869340181350708,-1.0589522123336792,-0.21847078204154968,-0.3363840579986572,0.7128822803497314,1.053206443786621,-0.6260379552841187,-0.3593747615814209,0.7614874243736267,-0.5685614943504333,-0.3854222893714905,-0.9077894687652588,-0.2017982453107834,0.7997841835021973,-0.8497177362442017,-0.6183896660804749,-0.7557979226112366,-0.6468205451965332,0.902820885181427,-0.6375773549079895,-1.1129878759384155,-0.2650626599788666,-0.04049030691385269,-0.18283836543560028,-0.6231412887573242,0.7279590964317322,0.20905239880084991,0.9076470136642456,-0.14242233335971832,0.1137475073337555,0.3661402761936188,0.016507841646671295,0.8429931402206421,-0.44494298100471497,0.06209476292133331,-0.37727734446525574,-0.3873286843299866,0.4150751233100891,0.6341720223426819,-1.0884064435958862,-0.8412873148918152,0.07097747921943665,-1.0084937810897827,0.08637090027332306,-0.484549343585968,-0.034684062004089355,-0.13208863139152527,-0.4005700349807739,0.30211687088012695,-1.1820502281188965,0.43438607454299927,0.9946725964546204,0.9281796216964722,0.7758393883705139,0.686343252658844,0.6526496410369873,0.6582204103469849,1.4951579570770264,0.2930055558681488,0.21258537471294403,-0.2058533877134323,-0.15357936918735504,-0.5911882519721985,-0.8407111763954163,0.03041047975420952,-0.1022016778588295,-0.4243124723434448,-1.0157636404037476,1.1103836297988892,0.5272707939147949,-0.23887324333190918,0.226479172706604,-0.11872821301221848,-0.5153987407684326,0.615914523601532,1.1382242441177368,-0.004651923663914204,0.6683963537216187
群众,-0.05222338065505028,-1.032778263092041,0.5466043949127197,-0.11267338693141937,-1.3908408880233765,-0.6499164700508118,0.6830403208732605,-0.15646114945411682,0.17181220650672913,-0.4482730031013489,-0.5181475281715393,-0.4618305563926697,-0.790748655796051,-0.9457852840423584,0.16595445573329926,0.3739563822746277,-0.2889081835746765,0.29856833815574646,0.029087545350193977,-0.11592411994934082,0.2077060490846634,0.22019699215888977,-0.010740753263235092,-0.021460961550474167,-0.09723541885614395,-0.7434463500976562,-0.16427728533744812,-0.5369271039962769,0.6007996201515198,0.7576262354850769,1.3529995679855347,-0.26518818736076355,0.5038557648658752,0.8718416094779968,-0.7769317626953125,-0.3106243312358856,0.019455846399068832,-1.0076450109481812,-0.141444131731987,0.08497848361730576,0.704085111618042,-0.14194355905056,0.39753061532974243,0.22562748193740845,0.09035436064004898,0.1451570838689804,-0.13558435440063477,0.048509128391742706,1.000563383102417,0.3055471181869507,-0.6345043182373047,-0.3757161796092987,-0.36728549003601074,0.21751192212104797,0.9810242056846619,0.6716143488883972,-0.023166803643107414,-0.7578845620155334,-0.6057842969894409,-0.6047384738922119,0.8871743083000183,0.07362183183431625,-1.020001769065857,1.3694887161254883,-1.4481884241104126,-0.7083326578140259,0.4172486662864685,-0.9962971210479736,1.1304079294204712,-0.1805090755224228,0.06415929645299911,1.3499257564544678,1.3183003664016724,0.332950621843338,-0.1221049576997757,0.22537146508693695,0.32805418968200684,-0.7304151654243469,-0.012753084301948547,0.6734034419059753,0.1040601059794426,0.25956133008003235,-0.462308794260025,-0.4040394723415375,-1.0013446807861328,-0.6153666377067566,0.7661857008934021,-0.2763317823410034,-0.11623883992433548,-0.3080998361110687,-0.36818742752075195,0.5156408548355103,-0.4708680808544159,-0.31407368183135986,0.14428146183490753,-0.5142209529876709,0.048981696367263794,-1.1950123310089111,0.8971993327140808,-1.2507147789001465,0.5315201878547668,-1.3859570026397705,-0.39734211564064026,-0.12330169975757599,0.07869968563318253,-0.11022930592298508,-1.1622798442840576,-0.3569113612174988,0.7271437644958496,-0.9412563443183899,-0.26905542612075806,-0.15023431181907654,0.19930286705493927,0.4573615789413452,0.04038972035050392,-0.5105411410331726,0.06941709667444229,0.29182949662208557,-0.8949762582778931,-1.0679600238800049,-0.5236909985542297,0.3485635817050934,-0.11389618366956711,0.4277086555957794,0.26583537459373474,-0.3821287751197815,0.5170179009437561,-0.9311850666999817,-0.2146657258272171,-0.43807002902030945,0.17946667969226837,0.5413681268692017,-0.08440709114074707,-0.3231429159641266,-0.08878476172685623,-0.4679529666900635,-0.14816805720329285,-0.5249634385108948,0.08345510810613632,0.31346240639686584,0.2835046350955963,-0.935702919960022,-0.06447242945432663,-0.2995280623435974,0.12525451183319092,0.28222036361694336,0.5030794739723206,-0.5042366981506348,-0.3964623212814331,0.20611469447612762,1.0131583213806152,-0.6348417401313782,-0.1022554486989975,-0.022124242037534714,-0.6482367515563965,0.8445219397544861,-1.1099650859832764,-1.1452231407165527,1.3663744926452637,0.975821852684021,-0.06897547096014023,-0.6041688323020935,-0.18954779207706451,-0.3580514192581177,0.1101456955075264,0.7144298553466797,0.4274729788303375,0.7272358536720276,0.7194855809211731,-0.09210273623466492,-0.6772546768188477,0.39859625697135925,-1.1258724927902222,0.9269461035728455,0.5934059619903564,-0.254058837890625,-0.8075835704803467,0.038840826600790024,-0.19853191077709198,-0.6510450839996338,-0.12158063054084778,-0.20404836535453796,0.5689846873283386,-0.05010457709431648,0.14473330974578857,-0.7132753729820251,0.1531859040260315,-0.39713650941848755,-0.3885255455970764,-0.8956631422042847,1.1208417415618896,1.2020659446716309,1.4108647108078003,0.36476758122444153,0.9373074769973755,-0.3620607852935791,0.0942087396979332,0.45555976033210754,-0.6650015711784363,0.7485400438308716,0.835200846195221,-0.04773788899183273,0.7364169955253601,0.3919680416584015,1.3314110040664673,0.5669813752174377,0.5393095016479492,-0.03153505176305771,0.22709199786186218,0.41165927052497864,-0.9911435842514038,0.24703465402126312,-0.05250879377126694,-0.48895522952079773,0.12172504514455795,0.5837618112564087,-0.07223756611347198,0.3764055073261261,0.27763357758522034,-0.21952210366725922,0.08342835307121277,-0.01347894873470068,0.691017210483551,-0.40933993458747864,0.30083271861076355,0.7978089451789856,-0.3323512077331543,-0.026650359854102135,0.19342400133609772,-0.7904643416404724,0.17771564424037933,0.4621816575527191,-0.5508731603622437,-0.6892428994178772,0.252570778131485,-0.23228749632835388,-0.8127405643463135,-0.45695191621780396,-0.23843292891979218,-0.06702122092247009,0.1930023431777954,-1.1125268936157227,-0.14887073636054993,0.543150782585144,0.8402048349380493,-0.17671827971935272,-0.5973807573318481,0.6811916828155518,0.05134518817067146,-0.02638760209083557,0.22247640788555145,0.7762422561645508,1.061439871788025,-0.9186436533927917,0.12848109006881714,0.9125461578369141,-0.35840198397636414,0.5318082571029663,-1.1383212804794312,0.3100605905056,0.7611947655677795,0.34345099329948425,-0.6421875953674316,0.14500848948955536,-0.29433318972587585,0.5816544890403748,0.10554493218660355,0.019645802676677704,0.40684831142425537,-0.35386672616004944,0.21524949371814728,0.5866240859031677,-0.3396371901035309,0.3703368604183197,0.3498942255973816,-0.9356468915939331,-1.0703154802322388,-0.6145501136779785,0.2322697788476944,-1.7113301753997803,-0.3136504888534546,-0.5103697776794434,1.0962823629379272,0.04196085035800934,-0.4049190282821655,0.20163589715957642,-0.7530049085617065,0.28011444211006165,-0.9450631737709045,-0.6515470743179321,0.8468950390815735,-0.06667546182870865,1.4664140939712524,0.0792146772146225,0.10899019241333008,-0.569049060344696,0.5826425552368164,0.5647038221359253,0.2693772315979004,0.9563350081443787,-0.495951771736145,0.25711366534233093,0.9682077169418335,-0.03473883494734764,0.8762673139572144,-0.7028684616088867,-1.1858177185058594,0.3291918933391571,0.2780018448829651,-1.0886739492416382,-1.027478814125061,0.5940558910369873,0.5178633332252502,-0.23159819841384888,-0.3592831492424011,-0.09158552438020706,-0.3169555962085724,0.8593971729278564,-0.029118051752448082,0.20043466985225677,-0.3530043661594391,1.1344317197799683,0.2773051857948303,0.3768000900745392,-0.6426287889480591,-0.5683938264846802,0.5103632807731628,-0.4638262093067169,-0.3176378905773163,-0.344841331243515,0.30634620785713196,-0.1439792662858963,-0.20978757739067078,-0.17666174471378326,-0.9856827259063721,0.03993293642997742,0.19375738501548767,-0.2771117389202118,-0.27260470390319824,0.5642105340957642,0.45288345217704773,-0.1225462481379509,0.7878458499908447,0.01773272268474102,-0.30609679222106934,-0.9482775926589966,-0.06750330328941345,0.47336387634277344,1.4707504510879517,0.24689285457134247,-0.5332562327384949,1.2279422283172607,0.734954297542572,0.3912618160247803,-0.9045833349227905,-0.1471223086118698,-0.005573104601353407,0.2890244126319885,-0.059436094015836716,-1.1933115720748901,-0.23151664435863495,0.05920351669192314,-0.6017624139785767,0.6286207437515259,-0.35186630487442017,-0.22604170441627502,0.5376960039138794,-0.45871105790138245,0.5758956670761108,0.34192487597465515,0.4040599465370178,-0.4747580885887146,-0.09095051139593124,-0.3023327589035034,0.3145971894264221,1.2894452810287476,-0.18612127006053925,0.44798544049263,-0.6170523762702942,0.41939839720726013,-1.0041944980621338,-0.41283366084098816,0.0028868329245597124,-0.01884298026561737,-0.008593295700848103,-0.5903486013412476,0.17631593346595764,0.3220232129096985,0.40653732419013977,0.1787865161895752,0.37084993720054626,0.2837347090244293,0.5766101479530334,-1.9053623676300049,-1.1509227752685547,0.4358682334423065,-0.7791010737419128,0.5591294765472412,-0.7063875198364258,0.07167578488588333
顺序,-0.2504918575286865,-0.005445539951324463,0.08881950378417969,-0.628206729888916,-0.6962727308273315,-0.7866199612617493,0.7803328037261963,-0.31956589221954346,-0.6599576473236084,0.4027194678783417,0.1250152289867401,0.17089694738388062,0.5029042363166809,-0.4807533323764801,-0.07998459786176682,0.19183607399463654,-1.0427807569503784,-0.5594583749771118,1.3544769287109375,-0.09028453379869461,0.2196660041809082,0.889907956123352,0.42159736156463623,1.1164865493774414,-0.15651509165763855,1.0829650163650513,0.2756578028202057,0.06901933997869492,-0.4089523255825043,-1.0588059425354004,0.6232656836509705,-0.7449625134468079,0.12939685583114624,0.30153560638427734,0.9670942425727844,0.29773589968681335,-0.4743432402610779,-0.8699753880500793,0.2437710464000702,-0.43959102034568787,-0.05043749511241913,-0.5249028205871582,0.326492041349411,-0.9326884746551514,0.21576254069805145,-1.1491833925247192,-0.2885519564151764,0.022473562508821487,0.47706055641174316,0.16582685708999634,-0.191067174077034,-0.5449331998825073,0.7028717994689941,1.3692065477371216,-0.1204279214143753,-0.6521341800689697,0.23009122908115387,-1.065861463546753,-0.22959786653518677,0.9318265914916992,0.7218493223190308,-0.570931613445282,0.4255479872226715,-0.8788811564445496,-0.3834819495677948,-0.3632502257823944,0.9716021418571472,-0.5224288702011108,-0.1964459866285324,1.388694405555725,-1.3736801147460938,0.956610918045044,0.4601486325263977,0.8315919041633606,1.4037156105041504,0.42773696780204773,0.9037925004959106,-0.4813772439956665,-0.26561444997787476,0.1589713841676712,-0.08637820184230804,-0.04499730467796326,-0.19068843126296997,-0.372289776802063,-0.9786791801452637,-0.8417661190032959,0.4014490246772766,-0.036186132580041885,-1.2674567699432373,-1.9832097291946411,-0.7228467464447021,-0.9331402778625488,1.4101306200027466,-1.380631923675537,-0.02864532545208931,-0.14435693621635437,-0.193331778049469,0.9303871393203735,0.30160313844680786,0.14137759804725647,-0.9663252234458923,-0.007086920086294413,0.5361735820770264,0.09825625270605087,0.45985448360443115,-0.6125084161758423,-0.5153239369392395,-0.30016353726387024,0.5197401642799377,1.144758701324463,-0.3781461715698242,0.4154578447341919,0.35970383882522583,0.37139028310775757,-0.38283979892730713,-2.216752529144287,0.5334618091583252,-1.4527896642684937,-0.05240633338689804,-0.0739486962556839,0.44113314151763916,0.05595475435256958,0.9433899521827698,-0.15678702294826508,-0.4687059819698334,-0.3316159248352051,0.19260172545909882,-1.1932562589645386,0.23589196801185608,0.14538101851940155,0.18415933847427368,-0.32696211338043213,-0.6485602259635925,0.02635127492249012,0.2926953136920929,0.555902361869812,1.011230230331421,1.0140517950057983,0.9818173050880432,-0.2870529890060425,-0.11073525995016098,-0.24012166261672974,0.07134244590997696,-0.5834218859672546,-0.2557551860809326,-1.4133903980255127,-0.2560898959636688,0.2928677797317505,0.6944468021392822,-1.0156620740890503,-1.4251694679260254,0.6379165053367615,1.1012622117996216,-0.05939498543739319,0.6039894819259644,0.14116543531417847,0.9227129817008972,0.2485918402671814,1.2416964769363403,1.288087248802185,1.0844050645828247,-0.4902738034725189,0.05155869200825691,0.09374840557575226,-0.3077755272388458,0.35537630319595337,0.7408266067504883,-0.007026799023151398,-0.5628321766853333,-0.5310658812522888,0.5843448638916016,-1.2626917362213135,0.8173964619636536,0.21448339521884918,-0.28743866086006165,0.8923190236091614,-0.08332978934049606,0.37000787258148193,0.17949886620044708,0.7813011407852173,0.16393806040287018,-1.1332204341888428,0.15494176745414734,-0.9934384226799011,-0.19468554854393005,1.4336713552474976,1.7648327350616455,0.11068707704544067,-0.1645013689994812,0.6419434547424316,0.7354406714439392,0.05515086278319359,-1.0688308477401733,0.3996701240539551,-0.17245954275131226,1.5170363187789917,-1.4697003364562988,0.36579322814941406,-0.30863991379737854,-0.09423871338367462,-0.6519158482551575,0.4899957776069641,0.5067939758300781,-1.7310739755630493,-0.0642307847738266,-0.26341497898101807,0.7706828117370605,-0.5436866283416748,-0.31100255250930786,1.335304856300354,0.8411992192268372,-0.5591484308242798,0.6021563410758972,-0.12752479314804077,0.5888528227806091,-0.35963520407676697,0.0497901551425457,1.722617268562317,0.8920081257820129,-0.11355533450841904,-0.011880667880177498,-0.8997603058815002,-0.875760018825531,-0.27660971879959106,0.4973977208137512,-1.003199815750122,-0.5989904999732971,0.8894379734992981,-0.6633105278015137,1.2436227798461914,-0.42533379793167114,-0.058922260999679565,-1.0741389989852905,-1.2875512838363647,-0.005222379229962826,0.10598534345626831,-0.7751738429069519,0.5027465224266052,0.3385460376739502,0.1824052780866623,-0.6358630657196045,-0.2563267946243286,0.47590363025665283,0.5331469178199768,-0.832965075969696,-0.9023514986038208,-0.2390831559896469,0.6068005561828613,0.5340059399604797,0.6057927012443542,-0.4360066056251526,-0.5562325716018677,0.5355527400970459,-0.37300923466682434,0.17868368327617645,1.1088948249816895,-0.07961412519216537,-0.9447779655456543,-0.2202606350183487,-0.2979434132575989,-1.095037579536438,-0.2948993742465973,-0.17919191718101501,0.9587185382843018,-0.18149977922439575,-0.11770115047693253,-0.047194868326187134,-0.1865699291229248,-0.680888831615448,0.03407688066363335,0.054590869694948196,0.05791163444519043,-0.06716251373291016,0.2842541038990021,0.7696577906608582,0.32188040018081665,-1.3373759984970093,-1.037935495376587,0.327006459236145,-0.5635849833488464,0.25366589426994324,-0.2311757504940033,0.20205101370811462,1.2103331089019775,0.18086323142051697,0.6458816528320312,0.38187849521636963,0.779405951499939,-0.5004093050956726,-0.5432962775230408,1.0854872465133667,-0.3822043836116791,-0.5088141560554504,-0.9127876162528992,0.2842946946620941,-0.7382712960243225,-0.6564862132072449,-0.631087064743042,-0.5239809155464172,-0.6458916068077087,-0.2396940141916275,-1.0867919921875,0.7172605991363525,0.5872933268547058,-0.09839911758899689,-0.14728853106498718,-0.23451514542102814,-0.2491510510444641,0.5589340329170227,-0.6524004936218262,-1.2956383228302002,0.9753707647323608,0.023197432979941368,0.651665449142456,0.5228089690208435,0.8868850469589233,0.3613734543323517,-0.8573265671730042,0.8857510685920715,0.10007033497095108,0.20210394263267517,-0.4415665566921234,0.08353876322507858,0.12465757876634598,-0.6327374577522278,-0.34074604511260986,-0.3398734927177429,-0.3209216594696045,-0.3595123291015625,0.8500211238861084,0.8217436075210571,-0.12691782414913177,1.0398688316345215,-0.31002575159072876,0.4865935146808624,-1.2830215692520142,-0.37911802530288696,0.1299593299627304,0.055848684161901474,1.518168568611145,-0.11846509575843811,0.13172127306461334,0.9302275776863098,0.5116097331047058,-0.4855535328388214,-0.1553487777709961,0.5960244536399841,1.7339496612548828,-0.14529888331890106,-0.41742944717407227,0.9016905426979065,0.12862834334373474,-0.3562103509902954,-0.7020288109779358,1.1003916263580322,0.29271072149276733,-1.5011872053146362,0.3719232678413391,-0.14638203382492065,0.22109796106815338,0.3987404406070709,-0.8535646796226501,-0.183297261595726,1.1513385772705078,-2.246040105819702,-0.29933929443359375,0.4959963262081146,-0.1504485011100769,-0.11537987738847733,-0.45589902997016907,0.8659571409225464,-0.07233554869890213,-0.3051846921443939,0.06070110574364662,0.2819488048553467,0.6778258085250854,1.0721393823623657,0.35533812642097473,0.36789336800575256,0.5230582356452942,-1.9395358562469482,0.47189635038375854,0.26154381036758423,-0.08649744838476181,0.3055630028247833,-1.1428730487823486,-1.249212622642517,-0.29038774967193604,0.8998211622238159,1.5673259496688843,-0.2478119432926178,-1.0280611515045166,0.18954093754291534,-0.024690959602594376,-0.3430866003036499,0.7112504839897156,-0.35150542855262756,-0.10804960131645203,0.2313433438539505,-0.2992144525051117
型号,-0.22380854189395905,-1.3591797351837158,-0.7960916757583618,-0.4398522675037384,1.1915360689163208,-0.7042146325111389,-0.8281645774841309,1.0678565502166748,-0.38083210587501526,0.4896634519100189,0.1270740032196045,1.0931802988052368,1.1701219081878662,-0.0637957751750946,-0.4313792288303375,0.45032328367233276,-0.4273706078529358,1.0107157230377197,0.6890109777450562,0.7332395315170288,0.27245670557022095,-0.7827556133270264,-0.060945864766836166,0.7684825658798218,1.4229267835617065,0.6818851232528687,-0.1964976042509079,0.6700889468193054,-1.0614123344421387,1.027711033821106,-0.7287418246269226,-0.9600799083709717,0.08329828083515167,-0.22791999578475952,0.2621539533138275,-0.64203280210495,-1.1971203088760376,0.045953672379255295,0.6521506309509277,-0.3782438635826111,0.36951327323913574,1.0204170942306519,0.31948816776275635,-0.3757728636264801,-0.8412436842918396,-0.4956211745738983,0.0028002788312733173,-0.31104975938796997,-0.07362516224384308,-0.7334436178207397,-0.039243657141923904,0.120572030544281,0.9450952410697937,0.7918628454208374,0.40420424938201904,-0.4846913814544678,0.14897148311138153,-1.3000826835632324,0.8331634998321533,0.1947494000196457,0.5193046927452087,-0.39126527309417725,-0.07413771748542786,0.3953365087509155,0.04525212198495865,0.3034214973449707,0.3500559329986572,-0.9617466330528259,0.004084751941263676,0.27855798602104187,-0.33506932854652405,2.47711443901062,0.873559832572937,0.5282642841339111,-0.35439932346343994,-0.9576783180236816,-0.356659859418869,-1.4239003658294678,0.8980376720428467,-0.9158827662467957,0.8106364011764526,0.6511391401290894,-0.6865460276603699,-1.0508038997650146,-2.297748327255249,0.42512047290802,0.3492402732372284,-1.2905513048171997,-0.23647113144397736,-2.036738872528076,-0.8701088428497314,-0.5538941025733948,0.05314314365386963,-0.5554612278938293,-0.0655149593949318,1.7292072772979736,0.8578534722328186,0.48463866114616394,-0.3300102651119232,0.21316790580749512,0.6419811248779297,-0.12276730686426163,0.6222707629203796,0.33662307262420654,-0.9262273907661438,0.015165415592491627,0.29802682995796204,-0.26801997423171997,0.2824445366859436,0.276985764503479,0.3030090630054474,0.455999493598938,0.3756081163883209,0.013038411736488342,1.129159688949585,-0.3971696197986603,0.2346016764640808,0.2608240246772766,0.3043382167816162,0.6682451367378235,0.3401437997817993,0.1887349784374237,1.2833179235458374,0.4944741427898407,1.2072474956512451,0.07556745409965515,-0.30611082911491394,-0.7958316206932068,0.170776829123497,-0.44926440715789795,0.5200280547142029,-0.5597533583641052,-1.4454196691513062,0.3638066053390503,-1.1746326684951782,-0.6032372713088989,-1.695418357849121,-0.6792755126953125,-0.22200554609298706,0.040663138031959534,1.8790268898010254,0.8802264928817749,-0.35437628626823425,0.3059784770011902,-0.4016900658607483,0.2569504380226135,-1.165907859802246,0.2359224259853363,0.6802000999450684,-0.5990301966667175,0.8837088346481323,0.12025462836027145,0.2947961688041687,0.040622856467962265,-0.8880643248558044,-0.004606951493769884,0.32467296719551086,-0.7327959537506104,0.02894659899175167,-0.1284986436367035,0.42258018255233765,-0.7871697545051575,0.11724559217691422,0.5220980048179626,-0.053222790360450745,-0.07600972056388855,-0.6471166014671326,0.3472888767719269,-1.1015980243682861,0.9180281162261963,0.06857025623321533,-1.5417978763580322,0.18600378930568695,-0.9890530109405518,-0.437309205532074,-0.6189358234405518,-0.31684577465057373,-0.11734405905008316,-0.0958157554268837,1.2799699306488037,-0.8704208135604858,-1.2922284603118896,-1.026358723640442,-0.36383527517318726,0.8937510848045349,0.8103084564208984,-0.1271923929452896,-0.7490792274475098,-0.5283657908439636,-0.6893962025642395,0.3342987298965454,-0.46817561984062195,-0.15982915461063385,-0.5370846390724182,-0.29272136092185974,-0.6828099489212036,-0.1252719610929489,-0.33430516719818115,0.3492054045200348,0.06977186352014542,-1.0020912885665894,-0.6499900817871094,-0.7523452043533325,-1.3903446197509766,0.2716175317764282,0.08844621479511261,0.14713774621486664,0.7105334997177124,0.05896348878741264,-0.40000027418136597,1.0828077793121338,0.6068487763404846,0.5021328330039978,0.3055560290813446,-0.5315380096435547,0.09257710725069046,-0.54095858335495,0.8489218354225159,0.43875569105148315,0.4108518362045288,-0.6339184641838074,-0.3248938322067261,0.4437516927719116,-0.4832596182823181,-0.6824467778205872,0.2022029012441635,0.774530291557312,-1.0671263933181763,-0.29683804512023926,0.061015911400318146,-1.3363007307052612,0.19887441396713257,0.04158136621117592,-0.1750277280807495,1.0740395784378052,1.9281922578811646,-0.8662509322166443,0.18943488597869873,-0.257425993680954,0.6568015813827515,-0.8736051321029663,0.45556390285491943,0.20866712927818298,-0.0375385656952858,0.006791614927351475,1.6074484586715698,-0.16121713817119598,-1.118617057800293,0.1846245527267456,0.0766194611787796,-1.1741561889648438,-0.31700047850608826,-0.11760260909795761,0.07492765784263611,0.261686772108078,0.8637135624885559,-0.21395741403102875,-0.47889086604118347,-0.24881675839424133,-0.6358258724212646,-1.061687707901001,0.28783538937568665,0.26424717903137207,-0.6033973693847656,-0.7271720767021179,1.234105110168457,0.7458064556121826,-0.5924803614616394,0.3310956060886383,0.5798736810684204,-1.0234005451202393,-0.2496248036623001,-1.321504831314087,0.30930179357528687,0.10897915810346603,0.9595370292663574,0.5173224210739136,-0.08250901103019714,-1.5366390943527222,-0.4896634817123413,0.7143844366073608,0.9863516092300415,2.190861701965332,0.4344586730003357,0.22257812321186066,-1.2274724245071411,-0.2033282071352005,0.11914513260126114,-0.24702702462673187,0.6516683101654053,-0.4433329403400421,-0.7272984981536865,-0.9797554612159729,0.14267955720424652,-0.5594573020935059,-0.2525608539581299,0.2910100221633911,-0.3031917214393616,0.29759320616722107,-0.856881856918335,1.0643789768218994,-0.12636815011501312,1.1965426206588745,-0.3936702609062195,-0.18458937108516693,-0.40094703435897827,0.10282619297504425,1.4415948390960693,-1.466296672821045,-0.47030138969421387,0.0401158407330513,0.33556023240089417,0.4476396441459656,1.0782294273376465,-0.8365036249160767,0.9861134886741638,0.5330842137336731,0.584617018699646,-0.9105978012084961,-0.1491711437702179,0.5210232138633728,0.27019160985946655,0.2276199758052826,0.26458504796028137,-0.15001429617404938,-0.4040679335594177,-0.1532498300075531,0.27086544036865234,-0.6386069059371948,1.665648102760315,1.1618901491165161,-0.11694148182868958,-0.7382357716560364,0.3333803117275238,0.9387050867080688,-1.1828868389129639,0.5013832449913025,-0.08840283006429672,0.2948993146419525,1.4251834154129028,0.8926116824150085,0.9553723931312561,0.28181028366088867,-0.9032274484634399,0.03237731009721756,0.31039854884147644,0.40147528052330017,0.9087640047073364,0.031773343682289124,-1.1387351751327515,0.15079355239868164,-0.29391640424728394,0.11878103017807007,0.6204411387443542,1.0163357257843018,-0.49505415558815,-0.47004613280296326,0.7605253458023071,0.1692819595336914,-0.3329709768295288,-0.6311249732971191,-0.2576157748699188,1.521189570426941,0.3885297179222107,0.3328064978122711,0.6714487075805664,-0.5586866140365601,-0.5831116437911987,0.5077675580978394,-1.2623804807662964,-0.27458512783050537,0.29482588171958923,1.2291882038116455,-1.6601086854934692,1.49137544631958,0.6553707718849182,-1.273485779762268,0.8535752892494202,0.867676854133606,-1.1071109771728516,-0.9255228638648987,-0.06547809392213821,0.4646654725074768,1.2857533693313599,0.1832198202610016,-0.5665304660797119,0.5033608078956604,0.3413484990596771,0.05888599902391434,0.8485885858535767,-0.6234963536262512,-0.21285945177078247,-1.8108149766921997,-0.0725308507680893,0.2785002589225769,0.535171627998352,-0.6839162111282349,0.3495117127895355,0.40675562620162964,-0.2859309911727905
中国,-0.12692198157310486,-0.01600719802081585,0.298209011554718,0.7387559413909912,0.6773295998573303,0.9842662215232849,0.29234424233436584,0.6692377924919128,-0.5332050323486328,-0.2571297883987427,-0.28688111901283264,-0.40091049671173096,-0.36542820930480957,-0.09003955125808716,0.22223739326000214,-0.11079512536525726,0.20020222663879395,0.641386866569519,0.5826897621154785,-0.39792928099632263,0.48254507780075073,-0.1556939035654068,-0.3687855303287506,0.5093104839324951,0.2840152084827423,0.4104953408241272,-0.9322356581687927,0.25209951400756836,-0.5552612543106079,0.18112321197986603,-0.19267192482948303,-0.32584354281425476,0.09638421982526779,0.5176170468330383,0.6084665656089783,-0.4207383096218109,1.0123393535614014,0.6765105724334717,0.9951223731040955,-0.37233972549438477,0.5002730488777161,0.4912674129009247,0.4841458797454834,-0.3988482654094696,-0.6998761296272278,1.101107120513916,0.3592076897621155,-0.32796409726142883,1.1635494232177734,0.4501801133155823,-0.18117982149124146,-0.6254447102546692,0.5440745949745178,1.820883870124817,0.238647922873497,-0.8162890076637268,0.49204733967781067,0.009691567160189152,0.2708353102207184,0.313312292098999,-0.6750968098640442,0.06755220890045166,0.29579830169677734,0.1819542497396469,-0.12160636484622955,-0.22032415866851807,-0.07847248762845993,-0.050586357712745667,0.38459721207618713,0.3796154260635376,0.20208457112312317,0.22159910202026367,1.4349654912948608,0.22811146080493927,-0.9368200898170471,0.44964420795440674,1.0137063264846802,0.15824183821678162,-0.5665170550346375,-0.19648532569408417,0.6412138342857361,-0.29533225297927856,0.1900462955236435,-0.7348547577857971,-0.39417868852615356,-1.0748271942138672,0.3426137864589691,-1.0591301918029785,-0.20455394685268402,0.5394687056541443,-0.24655556678771973,-1.145714521408081,-0.633953332901001,-0.5181024074554443,0.0638943761587143,-0.2476649284362793,0.5059334635734558,-0.4018881618976593,0.5396053194999695,0.17323391139507294,-0.2275668978691101,-0.8104740381240845,0.45754051208496094,0.761434018611908,0.231792613863945,-0.3261573314666748,0.4588579535484314,-0.8132551908493042,-0.3127737045288086,1.2976917028427124,-0.45814526081085205,0.056090809404850006,0.5747823119163513,0.7061001062393188,1.2403450012207031,-0.6211012005805969,-0.36603817343711853,-0.8754849433898926,-0.45391643047332764,-0.2500975728034973,-0.7252547144889832,-0.7571043372154236,-0.4317520558834076,0.0940127894282341,-0.04912359267473221,-0.22626955807209015,-0.004175626207143068,-0.14412087202072144,0.1205088198184967,-1.3432118892669678,-0.4347734749317169,-0.38693591952323914,0.21536752581596375,-0.08601023256778717,-0.5840256214141846,-0.1534515768289566,0.10724659264087677,-0.3532438278198242,-0.20259907841682434,-0.48527637124061584,0.9401552081108093,-0.17653486132621765,-0.6146009564399719,0.3691037893295288,-0.08643310517072678,-0.3473453223705292,0.5358550548553467,-0.6305291652679443,0.3207841217517853,-0.030266480520367622,-0.1545470952987671,-1.020029067993164,-0.13785992562770844,0.18114608526229858,-0.36701706051826477,0.18598829209804535,-0.9219140410423279,0.7637693285942078,0.10513360053300858,-0.1292295902967453,0.30528026819229126,-1.136734962463379,0.39087745547294617,0.22388343513011932,0.26156774163246155,0.24639330804347992,0.22339175641536713,0.11675874888896942,0.0966472402215004,0.4462469518184662,0.13304194808006287,-0.06813476234674454,0.18075396120548248,-0.10098978877067566,-0.04066617414355278,0.4494851529598236,-0.09234447777271271,0.3204529285430908,0.07808203250169754,-0.2271161824464798,0.2435494214296341,0.40495041012763977,-0.6146344542503357,-0.914569079875946,-0.11922240257263184,-0.533974289894104,0.6089192628860474,-0.8542733192443848,-0.4521399736404419,0.22630947828292847,0.867475152015686,0.8459500074386597,-0.6212591528892517,0.5558093786239624,0.6784577965736389,0.03585344925522804,-0.508442223072052,-0.37245234847068787,0.0631192997097969,0.961739182472229,1.1884684562683105,-0.476977676153183,0.7171909213066101,-0.23654693365097046,-0.01645766943693161,-0.48540619015693665,0.5847049355506897,0.11782868206501007,-0.15172068774700165,-0.4701022207736969,0.1644568145275116,-0.21370156109333038,-0.39684930443763733,-0.09581735730171204,-0.712859570980072,0.2303251028060913,0.1917300969362259,-0.10684050619602203,-0.18688471615314484,0.3210272490978241,-0.5664936304092407,-0.760809600353241,0.1058807224035263,1.245453119277954,0.810699999332428,-0.7371056079864502,-1.1918631792068481,-0.013095162808895111,0.19454039633274078,0.5313876867294312,0.055749136954545975,0.22538314759731293,0.10731757432222366,-0.08702161908149719,-0.06617565453052521,-0.9535829424858093,-0.25133800506591797,0.2994101941585541,0.03505105525255203,0.3373016119003296,-0.07182572036981583,0.5309960246086121,0.23065194487571716,0.6542407274246216,-0.46990853548049927,0.7329481244087219,-0.5441462397575378,0.3166636526584625,0.03961755335330963,0.15811823308467865,-0.2868785262107849,-0.13446202874183655,-0.6210255026817322,0.19420985877513885,0.9442337155342102,-0.30313584208488464,0.12277276813983917,-0.7674164772033691,-0.11293388158082962,-0.34233570098876953,0.35908734798431396,-1.133691668510437,0.34570029377937317,-0.11740772426128387,-0.4710035026073456,0.8724014759063721,0.13671277463436127,0.018638532608747482,0.185698464512825,0.0915670245885849,0.18209019303321838,-0.27149656414985657,0.16535291075706482,-1.4935623407363892,0.4479391276836395,-0.5195472240447998,-0.5648156404495239,0.47551214694976807,0.3757743537425995,0.23604132235050201,-1.685633659362793,-0.49011555314064026,1.0624914169311523,-0.26017650961875916,0.23740416765213013,-0.23978185653686523,-0.6698575615882874,-0.8159064650535583,-0.7563343644142151,0.9966706037521362,0.24670571088790894,-0.26157844066619873,0.2756403088569641,-0.18015967309474945,0.16447043418884277,-0.13556329905986786,0.04856278747320175,-0.6744722723960876,-0.22623857855796814,0.06224403902888298,0.5251872539520264,0.7204737067222595,0.22262229025363922,-1.2671124935150146,0.35332030057907104,0.030788604170084,-0.5890449285507202,-0.06832081824541092,0.2756431996822357,-0.26348552107810974,-1.0710351467132568,0.2532701790332794,0.2815163731575012,0.0898628756403923,-0.47454774379730225,0.20351198315620422,0.2948266565799713,-0.9535310864448547,-0.7770469188690186,0.3948742151260376,-0.5339126586914062,-0.4180234968662262,0.28219419717788696,-0.6018775701522827,-0.5441200137138367,0.18592463433742523,0.4579009711742401,-0.12198223918676376,0.42061951756477356,0.23807907104492188,0.077882781624794,-0.030413946136832237,0.25908225774765015,0.21626263856887817,-0.8413359522819519,-0.8137000203132629,0.051022451370954514,-0.9654632210731506,0.20349952578544617,0.17544443905353546,0.6085970997810364,0.8766472339630127,0.05248263105750084,0.4576720893383026,-0.21728207170963287,0.6617057919502258,-0.5021806955337524,-0.3311710059642792,-1.0482559204101562,0.20237213373184204,0.8368833065032959,0.20000986754894257,1.4585601091384888,0.04536733403801918,-0.3166181743144989,-0.2117433249950409,-0.5504695773124695,0.1496637463569641,-0.0233400110155344,-0.5777184963226318,0.07538463175296783,-0.4017292559146881,-0.4788820445537567,-0.2854241132736206,-0.2960089147090912,0.16803999245166779,-0.5274940729141235,0.07130805402994156,0.3954916000366211,0.4919198453426361,0.14591464400291443,0.19668710231781006,-0.5898798108100891,0.26531651616096497,0.8391351699829102,0.15827825665473938,0.7573964595794678,0.15513718128204346,-0.30709484219551086,0.14534667134284973,-0.35493674874305725,0.7471259832382202,-0.6805749535560608,-0.06343770772218704,-0.15914981067180634,-1.0152931213378906,-0.8018110990524292,0.04779052734375,0.40360671281814575,0.6554298400878906,0.44991883635520935,0.8597663640975952,-0.20960856974124908,-0.7065930962562561,-0.26601478457450867,0.854573667049408,1.1174232959747314,-0.09694501012563705,-0.1536155790090561,-1.1084951162338257
形态,0.4067504107952118,0.3235211670398712,-0.5816074013710022,-0.5147473812103271,-0.46754133701324463,-0.039797618985176086,-0.9966732263565063,-0.09842614084482193,-0.3145678639411926,0.6217405796051025,-0.020132454112172127,-0.6960802674293518,1.1315381526947021,0.7119227051734924,1.3539397716522217,0.24173341691493988,0.7235605716705322,0.629644513130188,0.3037565350532532,-0.7049113512039185,0.5561949014663696,0.35519835352897644,-0.619339644908905,0.5789167284965515,-0.03828355297446251,0.5515550374984741,0.4606221914291382,0.06986010074615479,-0.21663053333759308,0.7082642912864685,0.25763097405433655,-0.5838527679443359,0.3390001952648163,-0.10205011814832687,0.9061129093170166,-1.1532022953033447,-2.1750991344451904,0.012773897498846054,0.5783274173736572,-0.09896590560674667,-0.783172070980072,0.9087405800819397,-0.10879012197256088,-0.2585234045982361,-0.3867189288139343,-0.021324941888451576,-0.7257500886917114,0.20360898971557617,0.03170253708958626,-0.47523415088653564,1.2999345064163208,0.00548586156219244,0.14724110066890717,0.7032063603401184,1.0016759634017944,0.363620400428772,-1.3789743185043335,-0.47456786036491394,0.1942126750946045,0.5856513381004333,0.2578936219215393,-0.21964208781719208,-0.2092122882604599,-0.6781017184257507,-0.047519195824861526,-0.6535205245018005,0.789411187171936,-1.0319072008132935,-0.6647341251373291,0.5061913132667542,0.032471198588609695,1.1550418138504028,-0.4246455729007721,-0.6683677434921265,0.7716048359870911,0.44169607758522034,0.34890544414520264,-0.09280896931886673,-0.615058958530426,-0.22827719151973724,0.1757892370223999,0.6529459953308105,0.30875685811042786,-0.33700624108314514,-0.8478121757507324,-0.3804413974285126,0.5265718698501587,-0.5723872780799866,0.09457961469888687,-1.184287428855896,-0.16939033567905426,-0.14409974217414856,0.03200285881757736,0.27115362882614136,1.046716332435608,1.3242993354797363,1.2181593179702759,-0.156612828373909,1.0126264095306396,0.8145240545272827,-0.8104897737503052,-0.045627810060977936,-0.28843262791633606,0.437945693731308,0.5241277813911438,-0.44959595799446106,0.08543708175420761,-0.8626905083656311,-0.1857319474220276,0.22877076268196106,0.6401575803756714,0.1960373967885971,-0.8045806288719177,0.4189040958881378,1.6776511669158936,-0.23292677104473114,-0.396024227142334,-0.38356873393058777,-0.20768779516220093,-0.12130387872457504,-0.25997740030288696,1.1113914251327515,1.1091880798339844,-0.15612970292568207,0.47446832060813904,0.7114403247833252,-0.24481873214244843,-0.391292929649353,-0.14616423845291138,0.6255021095275879,-0.48203858733177185,0.23006337881088257,-0.8861045241355896,0.5527932047843933,0.32548993825912476,0.010198039002716541,0.5239382982254028,-0.6186673641204834,0.016744522377848625,-0.35623276233673096,-0.42224428057670593,-0.5613469481468201,0.00917920470237732,-0.9256651401519775,-0.2027103751897812,-0.28716224431991577,-0.4966488182544708,-0.2498529553413391,-0.19175638258457184,-0.24254272878170013,-0.4539899528026581,0.39686527848243713,0.4295404255390167,-0.5435438752174377,-1.2982901334762573,0.1297089159488678,1.0344444513320923,-0.4484572410583496,-0.06813863664865494,0.8357838988304138,-0.0920463427901268,-0.7087808847427368,0.5594908595085144,-0.030697548761963844,0.4476809799671173,0.18021222949028015,-0.5244138240814209,-0.07045435905456543,-0.8742002248764038,-0.042598478496074677,-0.13516798615455627,-0.3757956326007843,-0.9814473390579224,-0.446390300989151,-0.7172228097915649,0.13424120843410492,0.2916198968887329,0.4929250478744507,0.1285911351442337,-1.0073708295822144,-0.7004918456077576,-0.008236082270741463,-0.26483333110809326,-0.16343986988067627,-0.060518521815538406,0.4275806248188019,1.7183905839920044,-0.30095407366752625,-0.09099756181240082,-0.44890689849853516,1.1304295063018799,0.25378328561782837,-0.2934883236885071,-0.74334716796875,-0.9467195868492126,0.1998380869626999,-0.4434404671192169,0.48243463039398193,0.08526869863271713,1.516164779663086,-0.17693325877189636,-0.0017746036173775792,-0.5515124201774597,-1.5018813610076904,-0.7405633926391602,0.37984785437583923,0.3483985662460327,1.7901684045791626,0.6503486037254333,0.20490223169326782,0.5887506604194641,0.7492928504943848,-0.4257105886936188,0.2147725373506546,0.5309249758720398,0.25475552678108215,-0.5378503203392029,-0.33122768998146057,0.41716712713241577,0.05753292143344879,0.016291994601488113,-0.5686582922935486,-1.5208675861358643,-1.0172077417373657,-0.7000846266746521,-0.07705274969339371,-0.1305752992630005,0.6132103800773621,-0.15877395868301392,0.6714911460876465,-1.6272945404052734,0.7537204027175903,1.4394835233688354,-0.6815249919891357,0.13155429065227509,0.9526016712188721,-1.018115758895874,0.045423563569784164,0.20729583501815796,0.0020711245015263557,-0.13465604186058044,0.6335473656654358,0.15064594149589539,-1.0208747386932373,-0.1051899865269661,0.7824099063873291,0.5345620512962341,-0.0903034433722496,0.9924966096878052,-0.7038764953613281,0.4640520513057709,-0.6808010339736938,0.7345864772796631,0.47540250420570374,0.5474226474761963,0.48614025115966797,-0.08169610798358917,0.09052857756614685,-0.208344504237175,-0.6584734916687012,-0.7991321682929993,-0.4243606626987457,0.3333812355995178,0.991187334060669,0.4706629812717438,0.40111684799194336,0.19740110635757446,-0.7851343750953674,-0.19505716860294342,-0.026920074597001076,-0.8423196077346802,-0.7636986374855042,0.5632576942443848,-0.33475011587142944,0.49567681550979614,0.5096166133880615,0.2514723837375641,-0.7830771207809448,-0.2523419260978699,0.14568312466144562,0.9254523515701294,-0.30885234475135803,-0.29090771079063416,0.673285961151123,0.06795269250869751,-0.07705789804458618,-0.5243127942085266,-0.13454023003578186,-0.6985461115837097,0.05477661266922951,0.1860327571630478,-0.12917469441890717,0.28901126980781555,0.26330384612083435,0.37734928727149963,-0.2457701712846756,-0.023412585258483887,-0.2806130647659302,-0.05024140328168869,-0.8797619342803955,0.19471877813339233,-0.382632315158844,0.6940144300460815,0.6098006963729858,-0.5161747336387634,-0.27711012959480286,-0.8844660520553589,0.6702548265457153,-0.3530051112174988,-0.1855148822069168,0.6510868072509766,-0.030100945383310318,0.35251617431640625,0.48118236660957336,0.0508706197142601,0.473452627658844,-0.06680195033550262,0.5627482533454895,-0.0053064534440636635,0.8811416625976562,0.18256661295890808,-0.26659151911735535,-0.4386990964412689,-0.27473703026771545,-0.8449941277503967,-0.8081506490707397,0.5973364114761353,0.2027156502008438,-1.272840142250061,0.8759440183639526,1.3907432556152344,-0.9195433259010315,-0.6022213101387024,-0.6752380132675171,-0.18948818743228912,-1.1022378206253052,-0.5600783228874207,-0.09736096113920212,-0.5619943141937256,0.5293372869491577,0.15718795359134674,0.8763688206672668,-0.17719709873199463,0.627231240272522,0.4100314676761627,-0.24050796031951904,0.06816234439611435,1.334944725036621,-0.521153450012207,-0.05914749950170517,-0.4284409284591675,0.3667246401309967,-0.03670300915837288,0.5586960911750793,0.7827526926994324,0.41893893480300903,-0.16284389793872833,0.08265291154384613,0.6336256861686707,-0.04365802928805351,1.179182767868042,-0.5925898551940918,-0.6662383079528809,-0.021343862637877464,-0.022256486117839813,0.5061132311820984,0.20675265789031982,0.5446656942367554,0.10345666110515594,-0.3023048937320709,0.721402108669281,0.16251933574676514,0.860442042350769,0.23855723440647125,0.5390380620956421,-0.5243516564369202,0.6362044811248779,0.8626871109008789,0.5881515741348267,0.10067367553710938,0.6198099255561829,-0.3181578814983368,-0.19221000373363495,0.7316122055053711,0.42720550298690796,-1.7849006652832031,-0.8317173719406128,-0.054028578102588654,0.5393180251121521,-0.6262151598930359,0.3061419725418091,1.0978301763534546,-0.18229453265666962,-0.8372113108634949,-0.35099831223487854,0.0948285460472107,0.32116368412971497,0.1330864280462265,-0.5194955468177795,-0.4371689260005951
产品,-0.20687633752822876,0.08565836399793625,-0.6773919463157654,1.0471830368041992,-0.027148744091391563,0.5566523671150208,0.10507563501596451,0.7143185138702393,-0.37674465775489807,0.14213865995407104,0.2795829772949219,1.1494370698928833,0.5674635171890259,0.2539905607700348,-0.25190725922584534,-0.6861844062805176,-0.4431827664375305,-0.7747917771339417,0.9366232752799988,0.22840295732021332,0.20058827102184296,-0.07840558886528015,-0.6173409223556519,0.4534531235694885,1.2417824268341064,-0.33480143547058105,-0.21229210495948792,0.036573994904756546,-1.4990781545639038,0.45559433102607727,-0.17184269428253174,-0.5725346803665161,-0.46217209100723267,0.1969389170408249,-0.5730847716331482,-0.7842585444450378,0.35022878646850586,-0.011918213218450546,0.4942055344581604,0.1378772258758545,0.04775985702872276,0.46856293082237244,-0.10934871435165405,0.31874939799308777,-0.6748865246772766,0.27243366837501526,0.36714163422584534,-0.10108663886785507,0.4757908880710602,-0.6902792453765869,0.29874682426452637,-0.04329364746809006,-0.3197229504585266,0.6631597876548767,-0.2381678819656372,-0.7692327499389648,-0.6437407732009888,-0.2016361653804779,0.9397115111351013,-0.4793698489665985,1.077820062637329,0.11074893176555634,0.3765709102153778,0.6861363649368286,-0.28559261560440063,0.034893713891506195,-0.23001793026924133,-0.48383089900016785,0.1106545627117157,1.246621012687683,-0.32356029748916626,0.02058829553425312,0.03440120443701744,-0.11559721827507019,-0.5835986733436584,-0.7320615649223328,0.24374929070472717,0.038254138082265854,0.6539758443832397,-0.18280678987503052,0.23428086936473846,0.13684411346912384,0.3178589642047882,-0.37151262164115906,-0.6126993298530579,0.23167188465595245,0.5493893027305603,-0.686098039150238,-0.1829642653465271,-1.0028849840164185,-1.1743208169937134,-0.07491355389356613,-0.26825758814811707,-0.03327854350209236,0.6804636716842651,0.38205960392951965,0.32840830087661743,-0.33215004205703735,-0.4009111821651459,0.17697951197624207,1.0350205898284912,-0.23114967346191406,0.5131768584251404,0.27206557989120483,-0.8295758366584778,0.27076300978660583,-0.27941086888313293,0.20287029445171356,0.7306126356124878,-0.06608109921216965,0.09087059646844864,0.9088912606239319,0.42664310336112976,-0.7809153199195862,0.11185089498758316,0.21187084913253784,-0.28544697165489197,0.1537049561738968,-0.29186856746673584,0.5040616989135742,0.11461224406957626,-0.7485025525093079,-0.13125228881835938,0.3156464993953705,-0.8156686425209045,0.08106426149606705,0.11958375573158264,-0.4280480444431305,0.2425195723772049,-2.1502881050109863,0.7467607259750366,-1.0635020732879639,-0.7428753972053528,-0.7581875920295715,-0.538436770439148,-0.6561288833618164,-0.6585397124290466,-0.4363396167755127,-0.4801049530506134,-0.4019109308719635,1.131170392036438,0.9324469566345215,0.0903281569480896,0.37357112765312195,-0.3738609850406647,0.2540866434574127,-0.37014004588127136,0.7776034474372864,-0.4000735282897949,-0.16871492564678192,-0.42289087176322937,0.08960098773241043,0.48512157797813416,0.7831292152404785,-0.7143803238868713,-0.2394549697637558,0.8176124691963196,0.3598303496837616,0.0653637945652008,0.36082911491394043,0.49835291504859924,-0.23009677231311798,0.5140876173973083,0.08251475542783737,0.11294646561145782,-0.7722737193107605,-0.520560622215271,0.5742064714431763,-0.8253173232078552,0.3760993778705597,0.38947707414627075,-1.3761646747589111,-0.2973247766494751,-0.6737236976623535,-0.08157642185688019,-0.3298245668411255,0.21786414086818695,-0.4350300133228302,-0.19883504509925842,-0.11178730428218842,-0.8998295664787292,-0.48108944296836853,-0.8978610634803772,-0.3417011797428131,-0.18456673622131348,-0.13380999863147736,0.4006320834159851,-0.684922456741333,-0.18731379508972168,-0.7645232677459717,0.1050085723400116,1.0860686302185059,0.7234513759613037,0.4021395742893219,0.5249524116516113,-0.7458198666572571,-0.3153999149799347,0.29806292057037354,1.1892452239990234,0.608209490776062,0.6749778985977173,-0.2370212823152542,-0.2768629491329193,-0.32658618688583374,0.6527777910232544,0.0616772398352623,0.3164873719215393,0.42263904213905334,0.7057532668113708,-0.7094399929046631,0.6182107329368591,1.2008330821990967,-0.28804537653923035,0.5107220411300659,-0.5232247710227966,0.6222473978996277,0.43185827136039734,0.42504557967185974,1.1505656242370605,-0.0689566507935524,-0.5443206429481506,0.22249166667461395,-0.035537634044885635,-0.5256092548370361,0.039628766477108,-0.1042136624455452,0.013738279230892658,-1.1187264919281006,-1.3524163961410522,0.1754080355167389,-0.9906407594680786,0.8155341744422913,0.18751958012580872,-0.7262494564056396,1.2247085571289062,-0.3517148196697235,-1.0490533113479614,-0.48269641399383545,-0.13622185587882996,0.3648070693016052,-0.9779561758041382,0.06334803253412247,-0.3173012137413025,0.8581714630126953,0.9022364020347595,0.9710721969604492,0.38530829548835754,-0.8128105401992798,0.3357040584087372,-0.16454321146011353,-0.28311556577682495,-0.3470141887664795,-0.1389998346567154,0.7256368398666382,1.1382865905761719,-0.12705683708190918,0.36213284730911255,0.31028297543525696,-0.7311538457870483,0.6347363591194153,0.38168975710868835,-0.588992714881897,0.4705078601837158,-0.3158893883228302,0.08423665165901184,-0.04308214411139488,0.5374327301979065,-1.5060747861862183,-0.1472475677728653,0.7854681015014648,-0.4840770661830902,0.4880455732345581,-0.693194568157196,0.10308269411325455,-0.6442050337791443,-0.03358888998627663,-0.9994491338729858,0.11035513877868652,-0.6636143326759338,-0.08722356706857681,0.11271380633115768,0.009627455845475197,1.5596352815628052,0.8218733668327332,-0.42887356877326965,-0.4034980535507202,0.9559247493743896,0.37802234292030334,0.08394919335842133,0.2084881216287613,-1.045610785484314,-0.239185631275177,-0.3148558437824249,0.2958603501319885,-0.9664508104324341,-0.6066076159477234,0.3348369002342224,-0.19893433153629303,-0.6578451991081238,-0.11357590556144714,0.2900858223438263,0.33633047342300415,0.41210365295410156,0.4627450406551361,-0.22852958738803864,-0.8984127044677734,-0.5983557105064392,0.20564959943294525,-1.3769499063491821,-0.17190903425216675,-0.6948164105415344,-0.033475615084171295,0.20709483325481415,-0.5777362585067749,-0.4631823003292084,0.3342713713645935,1.0878466367721558,0.22029273211956024,-0.4823291003704071,0.39502277970314026,0.31291377544403076,-0.6066979169845581,-0.4039144217967987,-0.4960930645465851,-0.4016411006450653,0.07174371927976608,-0.06920302659273148,0.4529429078102112,-0.03258505463600159,0.6751863360404968,0.9908809065818787,-0.7589316368103027,-0.5801745653152466,-0.3321310579776764,0.6183072924613953,-1.1534851789474487,-0.08741957694292068,-0.392545223236084,0.28520122170448303,0.2833685874938965,0.28444555401802063,-0.1160864531993866,-0.1358203887939453,-0.2349003404378891,-0.4331091046333313,-0.12065809965133667,0.0333065465092659,-0.4714760482311249,-0.3157415986061096,-0.31307199597358704,-0.10230862349271774,-0.1821507066488266,1.3968476057052612,-0.10315365344285965,0.7109225392341614,-0.4173715114593506,-1.2098073959350586,0.21667976677417755,0.37017306685447693,-0.07450870424509048,-0.08870308846235275,0.5167726278305054,0.3205050528049469,-0.3167699873447418,-0.18853551149368286,0.5789305567741394,0.2386239916086197,-0.520091712474823,-0.5532509684562683,-0.13557901978492737,0.3243095576763153,0.30842018127441406,0.9657770991325378,-1.3554030656814575,0.6643104553222656,0.45661625266075134,-0.13594301044940948,0.3243626058101654,0.87432861328125,-0.5483649969100952,-0.4131146967411041,0.32871249318122864,-0.37634074687957764,-0.7873817086219788,0.3012499213218689,-1.057281255722046,-0.6452293992042542,-0.047341976314783096,0.0321388766169548,-0.7911534905433655,0.4399268329143524,-0.9336512684822083,-1.6367034912109375,-0.07118788361549377,0.25257447361946106,-0.10443272441625595,-0.9197473526000977,0.3807169198989868,0.07345350831747055,0.16002650558948517
轮廓,1.4240566492080688,1.1747987270355225,0.017096955329179764,-0.7892600893974304,-0.32354170083999634,-0.726154088973999,-0.22048452496528625,-0.6013509631156921,1.0198516845703125,-0.29862844944000244,0.504318356513977,0.1422734260559082,0.8182805180549622,-0.35136857628822327,-0.39798983931541443,-0.9544819593429565,0.5926394462585449,1.1168973445892334,-0.2908026874065399,-0.13057014346122742,0.5091880559921265,0.5145804286003113,-0.13866086304187775,-0.9466664791107178,0.43753373622894287,-0.07821831852197647,-0.3824627101421356,-0.9463016986846924,-0.8414164781570435,-0.22541221976280212,0.44347167015075684,0.35670194029808044,0.36061716079711914,-0.05381818115711212,0.1279921531677246,-0.1308220624923706,-0.4101288914680481,-0.29540252685546875,-0.3013971149921417,-0.8529050946235657,0.5495240092277527,0.6347405910491943,0.02571721561253071,-0.6872679591178894,-0.18536058068275452,-0.11225909739732742,-0.1676475554704666,0.042151130735874176,-0.30351173877716064,0.23583580553531647,-1.121587872505188,0.06188001111149788,0.06646594405174255,0.32738763093948364,0.4766334593296051,-0.43175601959228516,-0.5185230374336243,0.5987740159034729,0.4907866418361664,-0.5980209708213806,0.323849618434906,-1.0168286561965942,0.6517735719680786,-0.21668708324432373,-0.12522000074386597,-0.09941606223583221,0.9849646091461182,-0.1436987668275833,0.28214505314826965,0.6022866368293762,0.03152747452259064,0.45733702182769775,-0.06889096647500992,-0.6395632028579712,0.6083382368087769,-0.29801931977272034,0.7972468137741089,0.5128883123397827,-0.5226952433586121,-0.469526469707489,-0.6551623940467834,-0.4983850419521332,-0.004391747992485762,0.022841306403279305,-0.1906776875257492,0.21765069663524628,-0.15162773430347443,-0.580466628074646,-1.1935282945632935,0.6414346694946289,-0.0646795853972435,-0.8402144908905029,-0.09369686990976334,0.934451162815094,-0.5020976662635803,1.227112889289856,-0.2972632348537445,-0.5567834377288818,0.6840736269950867,0.30631908774375916,-0.01513106469064951,0.8030825853347778,-0.7213308215141296,0.3054044544696808,0.5462478399276733,0.9313226342201233,-1.264877438545227,0.17193090915679932,0.035872336477041245,-0.14420706033706665,-0.21347402036190033,0.46874991059303284,0.13584578037261963,0.8403088450431824,1.0271281003952026,0.41118326783180237,-1.5287531614303589,0.2160683423280716,-0.3642173409461975,0.009318316355347633,-1.9930189847946167,0.29224780201911926,-0.26260462403297424,-0.36173832416534424,-0.12560845911502838,0.02335341088473797,-0.6355412006378174,-0.6142443418502808,0.5544969439506531,-0.8312426805496216,-0.11130567640066147,0.7779757976531982,-0.04733357951045036,0.3972582519054413,0.39915144443511963,-0.8198624849319458,-0.4932703375816345,-1.1064660549163818,0.4266781508922577,0.27634409070014954,0.7535083293914795,-0.39839205145835876,0.17496316134929657,-0.8639025092124939,-0.40280380845069885,-0.027432354167103767,1.462112545967102,0.04589705541729927,-0.5862280130386353,-0.3874383270740509,0.22051799297332764,-1.064346432685852,-0.3790801763534546,0.5417972207069397,0.0853920727968216,0.8188713192939758,0.5993890762329102,0.2881035804748535,-0.9400681853294373,0.18242986500263214,0.9582043886184692,0.874002993106842,-0.45998600125312805,0.16800254583358765,0.29150766134262085,-0.45431843400001526,-0.336562842130661,0.9314314126968384,-0.6791227459907532,0.3427967429161072,-0.6726784706115723,-0.1573106199502945,0.15958969295024872,0.24883227050304413,-0.8734079003334045,0.21601015329360962,-0.6139096617698669,-1.0408461093902588,0.27849605679512024,-0.6850801110267639,0.023663900792598724,0.09642588347196579,-0.09744623303413391,-0.6311396956443787,-0.8600710034370422,0.20912490785121918,0.7278143167495728,-0.5744268298149109,-0.4936877489089966,-0.24859312176704407,-0.03684724494814873,-0.011478308588266373,-0.9109498858451843,-0.9282954931259155,-0.9841586947441101,-0.005969188176095486,1.0423401594161987,-0.013941766694188118,0.11113583296537399,0.9492085576057434,-0.2315095216035843,0.09194741398096085,-0.49731534719467163,-2.267439365386963,-1.0760693550109863,0.20023368299007416,-0.18039509654045105,-0.4146956503391266,-0.09652422368526459,0.28972429037094116,0.17873917520046234,-0.032943833619356155,-0.5763814449310303,0.3707282245159149,1.2230923175811768,-0.5690294504165649,0.28016382455825806,0.372810959815979,-1.0465214252471924,-0.05880969762802124,0.9501874446868896,-0.46388107538223267,0.41752591729164124,0.23515132069587708,0.2874376177787781,-1.2742890119552612,-0.5876345038414001,-0.0708562582731247,-0.2278328835964203,0.7941973209381104,-0.2762342393398285,-0.6770182847976685,1.026481032371521,-0.4664381742477417,0.9825651049613953,-1.0048186779022217,-0.6495282053947449,-0.7056611776351929,-0.31842583417892456,0.3280774652957916,-1.0706547498703003,-1.5216665267944336,-0.408559113740921,0.6259958744049072,0.13732971251010895,0.31919899582862854,0.6105313897132874,0.9977138042449951,1.3997799158096313,-0.8883041739463806,0.6770196557044983,-0.34576115012168884,0.7921525835990906,-0.45704710483551025,-0.03194962069392204,1.3679450750350952,-0.045370299369096756,-0.03409285470843315,0.7501969933509827,-0.14958593249320984,-0.17531295120716095,-0.46157580614089966,0.06823696941137314,1.1804578304290771,0.7631482481956482,0.6250823140144348,-0.645507276058197,-0.7238750457763672,0.21319445967674255,-0.22134195268154144,0.002658451907336712,-0.7349271774291992,0.6382803320884705,0.5385494232177734,0.8477786183357239,0.59791499376297,-0.15064336359500885,-0.2916078567504883,-0.19924157857894897,-0.05816163867712021,0.41291171312332153,-1.5953786373138428,0.16322319209575653,0.8515015840530396,0.6342931389808655,0.24135097861289978,0.6890634894371033,0.5896388292312622,0.36791855096817017,0.32974711060523987,0.7035526037216187,-0.012571204453706741,0.22016756236553192,0.01429396215826273,0.3747461140155792,1.3090821504592896,-0.07354132831096649,1.0450164079666138,-0.19915901124477386,-0.7874694466590881,0.5965138077735901,-1.2870454788208008,-1.4483659267425537,-0.018947558477520943,-1.2188143730163574,-0.7697464227676392,0.15349262952804565,0.5443881750106812,-0.0014739022590219975,0.3710445761680603,0.30091217160224915,-0.2194230705499649,0.14850735664367676,-0.5891828536987305,0.05875391140580177,0.18949706852436066,-0.5332766771316528,-0.2808462977409363,-0.36644259095191956,0.7260817885398865,0.8500509262084961,0.12240736186504364,-0.8034619688987732,-0.7117923498153687,0.06729277968406677,-0.5732569694519043,-0.31359100341796875,0.9033910036087036,-0.40677410364151,0.0646180510520935,0.8883754014968872,0.9256933331489563,0.2715729773044586,0.8114163875579834,-0.7164124846458435,0.33422255516052246,-0.092551089823246,-0.19585655629634857,0.13374650478363037,0.7825113534927368,-0.5539978742599487,0.24304978549480438,0.9506253004074097,-0.2498270869255066,0.4865169823169708,0.5618413090705872,-0.8110509514808655,0.22047315537929535,-0.5777648687362671,0.6149805188179016,0.2547200620174408,0.3365758955478668,-0.582451343536377,0.21576319634914398,0.5435575842857361,0.5608776807785034,0.27721983194351196,1.0086380243301392,0.3024429976940155,-0.5027977228164673,0.934516429901123,0.47116947174072266,-0.2533766031265259,0.15839381515979767,-0.015533998608589172,0.4910080134868622,0.37941983342170715,-1.3054604530334473,-0.17703013122081757,0.8091273307800293,-0.040185924619436264,-0.6900054812431335,0.6092441082000732,-0.6853423118591309,-0.7385470271110535,-0.5678596496582031,-0.6600541472434998,-0.5747067332267761,0.7121372818946838,-0.12153269350528717,1.155135154724121,-0.32289406657218933,-0.3116036355495453,-0.4953441321849823,0.0827050507068634,-0.843352735042572,-0.13538573682308197,-0.637760579586029,0.45999789237976074,0.7381651401519775,0.8395737409591675,0.7231282591819763,-0.8227351903915405,-0.749366044998169,-0.057026784867048264,-1.0307694673538208,-0.6657418608665466,-0.2007472962141037,0.39074382185935974,-0.40083399415016174
