word,0,1,2,3,4,5,6,7,8,9,10,11,12,13,14,15,16,17,18,19,20,21,22,23,24,25,26,27,28,29,30,31,32,33,34,35,36,37,38,39,40,41,42,43,44,45,46,47,48,49,50,51,52,53,54,55,56,57,58,59,60,61,62,63,64,65,66,67,68,69,70,71,72,73,74,75,76,77,78,79,80,81,82,83,84,85,86,87,88,89,90,91,92,93,94,95,96,97,98,99,100,101,102,103,104,105,106,107,108,109,110,111,112,113,114,115,116,117,118,119,120,121,122,123,124,125,126,127,128,129,130,131,132,133,134,135,136,137,138,139,140,141,142,143,144,145,146,147,148,149,150,151,152,153,154,155,156,157,158,159,160,161,162,163,164,165,166,167,168,169,170,171,172,173,174,175,176,177,178,179,180,181,182,183,184,185,186,187,188,189,190,191,192,193,194,195,196,197,198,199,200,201,202,203,204,205,206,207,208,209,210,211,212,213,214,215,216,217,218,219,220,221,222,223,224,225,226,227,228,229,230,231,232,233,234,235,236,237,238,239,240,241,242,243,244,245,246,247,248,249,250,251,252,253,254,255,256,257,258,259,260,261,262,263,264,265,266,267,268,269,270,271,272,273,274,275,276,277,278,279,280,281,282,283,284,285,286,287,288,289,290,291,292,293,294,295,296,297,298,299,300,301,302,303,304,305,306,307,308,309,310,311,312,313,314,315,316,317,318,319,320,321,322,323,324,325,326,327,328,329,330,331,332,333,334,335,336,337,338,339,340,341,342,343,344,345,346,347,348,349,350,351,352,353,354,355,356,357,358,359,360,361,362,363,364,365,366,367,368,369,370,371,372,373,374,375,376,377,378,379,380,381,382,383,384,385,386,387,388,389,390,391,392,393,394,395,396,397,398,399
电影,0.1655644029378891,-0.7928091883659363,0.10577215999364853,1.411988615989685,0.05490358546376228,-0.21233953535556793,-0.05888957157731056,0.16679154336452484,-0.20366695523262024,-0.871149480342865,-0.0404239259660244,0.03668760508298874,-0.6474414467811584,-0.6792583465576172,1.2202346324920654,-0.2595785856246948,-0.6399909853935242,0.014982952736318111,-0.18238551914691925,-0.9705569744110107,0.24671250581741333,-0.8688346743583679,-0.9794107675552368,-0.2080647349357605,-0.08031081408262253,0.9426679015159607,0.3407321572303772,0.9514753818511963,-0.9977505207061768,0.2002267688512802,-0.4716108441352844,0.2713806629180908,1.3829765319824219,-0.3952995538711548,0.563076913356781,-0.8860558867454529,0.6092300415039062,0.15849235653877258,-0.26212483644485474,-0.43874281644821167,-0.27500611543655396,0.5086761713027954,-0.06574946641921997,-0.16342948377132416,-1.2779154777526855,0.0024853358045220375,0.7783927917480469,-0.25324055552482605,0.3990477919578552,0.6342147588729858,0.5101442337036133,0.8894298672676086,-0.05418844893574715,0.8007245063781738,-0.24403807520866394,0.10562967509031296,0.16201302409172058,0.6673668026924133,-0.35538333654403687,-0.7441942691802979,0.01402343064546585,-0.6242350935935974,-0.11787188798189163,1.4787615537643433,-0.785709023475647,-0.2692835032939911,0.6347610950469971,-0.9402443766593933,-0.18366248905658722,-0.11438854783773422,-0.7407658696174622,0.8668836355209351,1.3668452501296997,0.19206486642360687,-0.26501351594924927,0.2625117897987366,-0.30847251415252686,-0.06176915764808655,0.6453637480735779,-0.35469669103622437,0.4472402334213257,-0.8152992725372314,-0.43789142370224,-0.3234879672527313,-0.14830009639263153,0.40550941228866577,0.6970672607421875,-0.7915855646133423,0.9390753507614136,-0.24002718925476074,-0.28833869099617004,-0.545356035232544,-0.5982450246810913,-0.5975179672241211,1.0276564359664917,-0.6451990008354187,-0.09897151589393616,-0.32859840989112854,0.2297060489654541,0.0008386451518163085,-0.5143758654594421,-0.9788174033164978,0.10080470144748688,-0.05225994065403938,-1.2545084953308105,-0.6048864722251892,-0.2874038815498352,0.40442633628845215,1.236917495727539,0.8228272795677185,0.7893176674842834,0.8407726287841797,0.5338033437728882,0.18386825919151306,0.37912577390670776,0.23840190470218658,-0.01258022990077734,-0.8084039092063904,-0.32753095030784607,0.4650003910064697,-0.9867346882820129,-0.3510383367538452,0.1307990700006485,0.5762986540794373,1.008321762084961,-0.2242128998041153,-0.0008179678698070347,-0.5583381056785583,-0.6849642395973206,0.5461565852165222,0.42781201004981995,-0.6833756566047668,0.2789444625377655,-0.4225231111049652,0.3167489767074585,-0.4498319625854492,-0.3995034098625183,0.27351143956184387,0.11682403087615967,-0.5961365103721619,0.8343151211738586,0.1128607988357544,-0.6211018562316895,0.6169832944869995,-0.02372417040169239,-0.3386285603046417,-0.29225027561187744,0.2723406255245209,-0.2900095283985138,-1.21063232421875,-0.012911824509501457,-0.47296759486198425,0.3988575339317322,0.45048782229423523,1.052580714225769,0.23634488880634308,0.6118065714836121,0.007652926258742809,-0.23920375108718872,0.24424287676811218,-0.44124463200569153,-0.4421890079975128,0.40742868185043335,-0.48553797602653503,1.8026483058929443,-0.9381322860717773,0.5087139010429382,0.2599048912525177,-0.8373465538024902,-0.1514631062746048,-0.6275843977928162,-0.776904821395874,0.2335050255060196,-0.7245875597000122,-0.6270117163658142,0.7037954926490784,-0.5314303040504456,-0.844026505947113,0.7125739455223083,-0.7436277270317078,0.7313067317008972,0.8118440508842468,-0.5810011029243469,-0.47297725081443787,1.025131106376648,0.4406576156616211,-0.8579146862030029,0.37694957852363586,0.13397596776485443,0.048197370022535324,-0.11056994646787643,-1.0453609228134155,-0.20159687101840973,0.26161569356918335,0.23286743462085724,0.26510486006736755,-0.9262068271636963,0.28718867897987366,-0.16497235000133514,-0.34345200657844543,0.6831241250038147,0.4158390462398529,1.0512170791625977,0.3738914132118225,-0.9236945509910583,-0.6172063946723938,-0.5578295588493347,0.3641713857650757,0.8338148593902588,-0.4230313301086426,0.1501077115535736,0.27418261766433716,1.377344012260437,0.24567271769046783,0.026865258812904358,-0.9604604840278625,-0.14658790826797485,0.2647016942501068,0.5432080626487732,0.10040181875228882,-0.7213524580001831,-0.5929506421089172,-0.18876324594020844,0.4010060727596283,0.12276589870452881,-0.14048469066619873,-0.16879676282405853,-0.216313898563385,0.6360858082771301,-0.16934694349765778,-0.36684709787368774,0.8094800710678101,-0.21548353135585785,-0.4567513167858124,0.09248347580432892,-0.07838456332683563,-0.3974063992500305,-0.2892255187034607,-0.30024781823158264,0.16586481034755707,-0.5508809089660645,0.4449840784072876,0.021824609488248825,0.8131313323974609,0.36687490344047546,0.2723334729671478,-0.1334606409072876,-0.5076520442962646,-0.12192493677139282,0.1454230099916458,0.25318095088005066,-0.8803889155387878,-0.5869144797325134,-0.10503558814525604,-0.16612109541893005,0.29254406690597534,0.7268924713134766,-0.9661011099815369,0.08934386819601059,0.5584415197372437,-0.9017745852470398,-0.624722957611084,0.5887411832809448,0.07069788128137589,0.42688480019569397,0.8015767335891724,-0.449064165353775,-1.2599012851715088,0.22775056958198547,0.1481216698884964,-0.20670899748802185,-0.9124844074249268,-0.5754808783531189,-0.5397127866744995,1.1432985067367554,0.947208046913147,-0.10384748876094818,-0.004214481916278601,-0.27548202872276306,-0.5019819736480713,-0.5271122455596924,0.4321618676185608,0.5864856839179993,-0.7600573301315308,0.9331005811691284,0.5246147513389587,0.5446182489395142,-0.048402246087789536,-0.5481868982315063,0.27765557169914246,0.4290723204612732,-0.9093330502510071,0.011802968569099903,-0.13989828526973724,-0.8561179637908936,0.33311134576797485,-0.4228365123271942,-0.42791748046875,0.2281120866537094,0.2749963402748108,-0.8133638501167297,0.3245254456996918,-0.5484464764595032,0.12593601644039154,-0.15249596536159515,-1.4476773738861084,-0.8029605746269226,0.30952152609825134,-0.5447797179222107,-0.30503538250923157,0.1261635422706604,-0.33275875449180603,-0.8620463013648987,0.6499279141426086,-0.23715095221996307,-0.46335193514823914,-0.29922470450401306,-0.2891720235347748,0.07722441107034683,-1.2047607898712158,1.715311884880066,-0.24832220375537872,-0.2010963410139084,-0.2963360846042633,-0.20289696753025055,0.629980206489563,0.6263617873191833,-0.25531333684921265,-0.42553335428237915,1.3362890481948853,0.8560758233070374,-0.23070040345191956,0.7769359350204468,0.443917840719223,-0.5067427158355713,-0.7202345728874207,-1.4151010513305664,-0.5289040207862854,0.21650806069374084,-0.19905084371566772,-0.4631686508655548,0.2742001414299011,-0.3158705532550812,-0.7673810720443726,-0.6078276038169861,-0.42961814999580383,-0.24736954271793365,1.0591590404510498,-0.528523325920105,1.0800455808639526,1.0290141105651855,-0.2747410535812378,0.8050511479377747,0.563707172870636,0.5974282026290894,-0.5402916073799133,-0.7385107278823853,0.9580696821212769,-0.23809227347373962,0.2502896189689636,0.21739262342453003,-0.7615619897842407,-0.6354613304138184,0.5431079864501953,-0.3283000886440277,-0.5887315273284912,0.24870644509792328,-0.13130490481853485,0.2101430743932724,-0.5091021060943604,-0.3843413293361664,0.7119818925857544,0.7596966028213501,0.004961085505783558,-0.9747185111045837,1.4354573488235474,-1.522856593132019,0.5413551330566406,-0.22069694101810455,-0.030285775661468506,-1.5206098556518555,-0.014521697536110878,-0.2893013060092926,-1.185715913772583,0.03983226791024208,0.5558226704597473,-0.009828396141529083,-0.05278557538986206,-0.3995243012905121,-0.5708125233650208,-0.6480537056922913,-0.6097741723060608,-0.37010422348976135,0.002508840523660183,0.8235368728637695,0.18159787356853485,0.47682785987854004,0.9162891507148743,0.7757166624069214,-0.1307583600282669
双方,1.0354851484298706,-0.7263570427894592,-0.6012178063392639,-0.7585203051567078,-0.23545384407043457,0.34047529101371765,-0.20991888642311096,-1.3164255619049072,-0.5345087647438049,0.5646713376045227,0.12279777973890305,0.3817068338394165,0.1069343164563179,-0.25720542669296265,-0.49578458070755005,-0.42790699005126953,-1.3087013959884644,0.3984883725643158,0.3651907742023468,-0.924970269203186,0.39870449900627136,-0.01289160456508398,0.277538537979126,-0.3008580505847931,0.10707442462444305,1.155617117881775,0.3954087197780609,0.7944287061691284,-0.4102928042411804,-0.6640492677688599,0.12940269708633423,-0.020657043904066086,0.7295922040939331,0.8043158650398254,0.030874742195010185,0.3302755057811737,-0.5632210373878479,0.7457055449485779,-0.26783487200737,0.09239043295383453,1.5541038513183594,-0.034746333956718445,-0.09668475389480591,-0.5609238743782043,-0.043225232511758804,1.1059949398040771,0.11254741251468658,-0.15483367443084717,0.3959934413433075,-0.695175290107727,-1.4328370094299316,-0.67011958360672,0.09717977046966553,0.5080663561820984,0.6558957695960999,0.22984163463115692,0.16525006294250488,-0.5102927088737488,-0.27336758375167847,-0.15707114338874817,-0.6813353300094604,1.1356509923934937,-1.3388832807540894,-1.045091152191162,-0.7035170197486877,-0.3055804371833801,0.21984949707984924,-0.5430852174758911,0.014354483224451542,0.465114951133728,-0.8906009197235107,1.4283896684646606,-0.08401185274124146,0.6002781391143799,-0.5703840851783752,1.5767569541931152,1.9029722213745117,0.729038655757904,-0.20505061745643616,-1.2005691528320312,-0.45975688099861145,-0.1472000926733017,0.33201882243156433,1.0237209796905518,0.4640367925167084,0.5381882786750793,0.6317816376686096,0.5230376720428467,-0.29355835914611816,-0.33107736706733704,-0.22751259803771973,-0.13780586421489716,-0.2501322627067566,-0.8677220344543457,1.2474342584609985,-1.4714065790176392,0.27602502703666687,0.49517229199409485,-0.23850832879543304,-0.7819070816040039,-0.2012244313955307,0.6508937478065491,-0.04881248623132706,0.587877631187439,0.12386556714773178,0.21114109456539154,-1.0163906812667847,-0.45403510332107544,1.1182829141616821,-0.5785840153694153,-0.3013453185558319,-0.1923494189977646,-0.7925034761428833,0.7391901016235352,-1.5341675281524658,-1.3667347431182861,-1.2418898344039917,-1.118757963180542,0.5550240278244019,-1.070683479309082,-0.08402722328901291,-0.7923811674118042,0.04827240854501724,0.15430492162704468,0.018352139741182327,1.1125179529190063,-0.14875932037830353,-0.3242488503456116,0.154409259557724,-0.7223043441772461,-0.798485517501831,0.5418447852134705,-0.3716254234313965,0.24529297649860382,0.7874239683151245,0.5863574147224426,-0.7229114770889282,-0.08984832465648651,-0.4583590626716614,-0.9980275630950928,0.7022854685783386,-0.5919168591499329,-0.32641687989234924,-0.9755625128746033,-0.2247149646282196,-0.7275187969207764,-0.01716233231127262,-0.31874606013298035,0.25914835929870605,-0.5425707697868347,-0.44964146614074707,0.35107895731925964,-0.3184603452682495,1.3896441459655762,-0.567177414894104,0.19130751490592957,1.3165745735168457,-0.5299475789070129,1.485288381576538,0.04002798721194267,-0.25714144110679626,1.2595478296279907,-0.5841911435127258,0.0008245630888268352,-0.8809483647346497,0.9908098578453064,-0.4543361961841583,-0.28942084312438965,-0.22805793583393097,-0.3647595942020416,0.8729780316352844,-0.09984494745731354,0.047948338091373444,-0.07253826409578323,-0.5775642991065979,0.11284616589546204,-0.24817581474781036,-0.6047046780586243,0.9378503561019897,0.8306021690368652,0.11646594852209091,-0.08125345408916473,-0.9828965067863464,0.34601202607154846,0.29604053497314453,-0.8664112091064453,0.7159541249275208,-0.3743498623371124,0.031019655987620354,0.5046520829200745,-0.028020190075039864,-0.2001124769449234,-0.2936139404773712,-0.013616859912872314,-0.36170053482055664,-0.49792417883872986,-1.1000208854675293,1.0142279863357544,0.601177990436554,-0.2512548863887787,0.1229744479060173,0.1927405744791031,0.05334246903657913,-0.7604339122772217,1.4194650650024414,0.41138243675231934,0.06833312660455704,0.7969222664833069,0.33639395236968994,-0.6231110692024231,-0.7426921725273132,0.14694827795028687,-1.0345360040664673,-1.2791314125061035,-1.0000165700912476,-0.8942981362342834,0.3824496865272522,0.415793776512146,-0.5005629062652588,0.7332831621170044,-0.32793548703193665,0.8199450969696045,0.5759902596473694,0.48265838623046875,0.3189714252948761,0.21598711609840393,-0.03671016916632652,0.1090555340051651,0.760436475276947,-0.1649976372718811,-1.6073544025421143,-0.7690722346305847,0.05976962670683861,-0.1539062112569809,1.2115939855575562,-0.34484145045280457,-0.3082028031349182,-0.702744722366333,0.37459027767181396,0.19411501288414001,-1.1813780069351196,-0.7164517641067505,-0.2898683547973633,0.4840494990348816,-0.7455388307571411,0.48766231536865234,-0.12737791240215302,-0.14998362958431244,-0.5065765976905823,0.24971777200698853,-0.2578953802585602,0.7106875777244568,-0.4466917812824249,-0.13793998956680298,0.7167725563049316,2.008664131164551,-0.584704577922821,-0.8545715808868408,0.13701705634593964,-0.20384690165519714,-0.6031572818756104,-0.9594046473503113,-0.3614804446697235,-0.5463480353355408,-0.04954961687326431,0.15372197329998016,-0.25019606947898865,-0.575315535068512,0.28491199016571045,0.4869631826877594,-1.0143789052963257,0.4229014217853546,-0.29123857617378235,0.007766244001686573,-0.10915808379650116,-0.4576888978481293,0.05849463865160942,0.2927760183811188,-0.4378954768180847,-1.1218512058258057,-0.39776068925857544,0.8320805430412292,-0.17540623247623444,0.4490361213684082,0.21692566573619843,-1.0150384902954102,0.740422785282135,-0.002294529229402542,-0.9835613369941711,1.0260086059570312,0.9283167719841003,0.2890569269657135,1.0183758735656738,0.2281259298324585,0.7428975105285645,-0.060925811529159546,-0.09578891098499298,-0.40194058418273926,0.5893436074256897,0.8756853938102722,0.3474421501159668,-0.3646470606327057,0.3222712278366089,-0.39758023619651794,0.03964586928486824,0.3374139666557312,-1.1372190713882446,0.07737239450216293,1.2782725095748901,-0.5728029012680054,-1.4794150590896606,0.44613340497016907,0.040283847600221634,-0.36109939217567444,-1.1303398609161377,0.18485423922538757,-0.42690473794937134,-0.1659511774778366,0.08840533345937729,0.48156270384788513,0.6081291437149048,0.1827681064605713,0.7473387122154236,0.2591320276260376,-0.46683600544929504,-0.27469661831855774,-0.19436253607273102,0.2958797812461853,0.6517588496208191,-0.9175348281860352,-0.19810958206653595,-1.347379446029663,1.0694234371185303,-1.1500635147094727,0.3461819589138031,-0.8738606572151184,0.474406898021698,0.7643986940383911,-0.7566844820976257,-0.7569426894187927,0.05471803620457649,-0.2922482490539551,0.2083582580089569,0.192642480134964,0.3192296326160431,0.0042249225080013275,-0.4743368923664093,1.4042431116104126,0.15379974246025085,0.4503771662712097,-0.1339162439107895,-0.22855450212955475,0.4281712472438812,-0.2783220708370209,0.03529515489935875,-0.3925577998161316,-0.25624144077301025,-0.5979165434837341,-0.5262222290039062,-0.26023247838020325,-0.1828911304473877,0.6651585698127747,-0.2125181257724762,0.512000560760498,0.5509812831878662,-0.5844507217407227,-0.6837985515594482,0.21869304776191711,1.5624282360076904,0.8306058645248413,0.033877987414598465,-0.3271450996398926,1.260604977607727,-0.10525920242071152,0.12566189467906952,-0.6806226968765259,0.7448379993438721,0.3539707064628601,0.4164891242980957,0.9189738631248474,-0.5958165526390076,0.11948734521865845,-0.6333909034729004,0.09550623595714569,0.10791892558336258,0.21545392274856567,-0.3563401997089386,-0.21359796822071075,0.18899695575237274,-0.22137616574764252,0.7515344023704529,-0.09070825576782227,0.14986366033554077,-0.7183266878128052,0.8272202610969543,0.6989193558692932,-0.3724587857723236,0.48480895161628723,-0.2842855155467987,0.39177682995796204
带罪立功,0.08247046917676926,0.0661517083644867,0.04378226026892662,-0.11730966717004776,-0.060670189559459686,-0.18948405981063843,-0.10386892408132553,0.029637882485985756,-0.04976291209459305,-0.06469102948904037,-0.08738286048173904,0.1822945475578308,0.05064433068037033,0.12263406068086624,-0.030151961371302605,0.08392851799726486,-0.10677823424339294,0.06379663944244385,0.19613905251026154,-0.058782175183296204,-0.13748317956924438,-0.17308053374290466,-0.012300609610974789,-0.07993598282337189,0.04128777235746384,0.05833139270544052,-0.19237399101257324,0.03663921728730202,0.09814292192459106,0.016807276755571365,0.02188756875693798,0.04315784573554993,0.023364577442407608,-0.05597043037414551,0.048804618418216705,0.24364233016967773,-0.12385361641645432,-0.05463011935353279,-0.09547458589076996,-0.256164014339447,0.09191065281629562,-0.038694944232702255,0.019968753680586815,0.01791410893201828,-0.008915713988244534,0.1342146396636963,-0.006054165307432413,-0.07097814977169037,0.16098974645137787,0.12818826735019684,0.06199302151799202,0.015571169555187225,-0.039087530225515366,-0.19645512104034424,-0.08969209343194962,0.13037718832492828,0.17314812541007996,-0.06404600292444229,-0.17025141417980194,0.11670997738838196,-0.0662388950586319,-0.006140484008938074,-0.09694277495145798,0.04071265086531639,0.07490696012973785,-0.19337137043476105,0.06782978028059006,0.02559938281774521,0.08569899946451187,-0.09446953237056732,-0.04295557364821434,-0.10040760040283203,0.06947170197963715,-0.08262647688388824,-0.04132810980081558,0.15909959375858307,-0.02721060812473297,0.026049956679344177,0.11961648613214493,-0.02286902442574501,-0.033531975001096725,-0.032907549291849136,-0.03616666421294212,-0.014793526381254196,0.011084307916462421,0.02702461928129196,-0.09668748825788498,-0.1656896322965622,-0.08608641475439072,0.1474061906337738,0.1088421493768692,0.05332706868648529,-0.14085659384727478,-0.01344835665076971,-0.1280158907175064,-0.0357813723385334,0.05519621819257736,0.06801886856555939,-0.13004277646541595,-0.18453125655651093,0.06611418724060059,-0.0398552305996418,-0.17060117423534393,-0.037171196192502975,0.10938264429569244,-0.030535027384757996,-0.06195652484893799,0.08722098916769028,0.0589778907597065,-0.017237065359950066,0.04843669757246971,-0.03955090790987015,0.07430189102888107,0.1722499281167984,-0.07062385976314545,0.0005027679144404829,-0.04269838705658913,-0.026006978005170822,0.07288862019777298,-0.0841820016503334,-0.19684912264347076,-0.02485574595630169,-0.06392938643693924,0.18708984553813934,-0.012353554368019104,0.26087936758995056,-0.033505093306303024,0.01883780211210251,0.16092494130134583,-0.07222718000411987,-0.22691786289215088,-0.145201176404953,0.2688196897506714,-0.21983005106449127,0.1386621594429016,0.016780875623226166,-0.00379009498283267,-0.08171125501394272,0.023025279864668846,0.02822444960474968,0.09231512248516083,-0.04366502910852432,0.06789224594831467,0.0750809982419014,0.26890918612480164,0.02033081464469433,0.01095605082809925,-0.13708549737930298,0.010930641554296017,-0.0039765555411577225,-0.12402385473251343,-0.11733049154281616,0.00223982403986156,-0.14645111560821533,-0.06059455871582031,-0.10620725154876709,-0.14436383545398712,0.14702413976192474,0.14200779795646667,-0.08779754489660263,0.062329359352588654,0.015389477834105492,0.021095871925354004,0.10488515347242355,-0.01873425766825676,-0.14773590862751007,0.06838258355855942,-0.08556178957223892,-0.06238566339015961,0.033878881484270096,-0.08453525602817535,-0.07140188664197922,0.018701951950788498,0.06299534440040588,0.10451187938451767,-0.0654425397515297,-0.10607022047042847,0.0005796161713078618,0.015159585513174534,0.05008290335536003,-0.140019029378891,0.025876227766275406,-0.14731281995773315,-0.11240942776203156,0.12675127387046814,-0.10178139060735703,-0.07609476149082184,-0.06492237746715546,0.07117863744497299,0.14945589005947113,-0.037687793374061584,0.04544379189610481,-0.015347202308475971,-0.028885120525956154,0.21263299882411957,0.007594884838908911,0.04056199640035629,-0.028750356286764145,-0.06114048510789871,0.14468812942504883,-0.10448019951581955,-0.060648608952760696,-0.10593272000551224,0.10085935890674591,-0.09775684773921967,-0.0018598271999508142,-0.0854741632938385,0.012701335363090038,0.14960646629333496,0.12413022667169571,0.12374052405357361,-0.1130952537059784,-0.006854451727122068,-0.12425868958234787,-0.19118790328502655,-0.0259669441729784,0.2825922966003418,-0.2502821981906891,-0.01071036048233509,-0.08713381737470627,0.02866845391690731,0.21536394953727722,-0.020297670736908913,0.040172260254621506,0.07594174146652222,-0.024531448259949684,-0.1484529823064804,0.09906940907239914,-0.1359964907169342,0.08041342347860336,-0.09205415099859238,-0.020250769332051277,-0.034473251551389694,0.0196726955473423,0.026521749794483185,0.06313376873731613,0.09000936150550842,-0.2786189913749695,0.08057529479265213,0.009770705364644527,0.05822480842471123,-0.15243831276893616,-0.1505393087863922,-0.033716022968292236,0.08074215799570084,0.05024261027574539,-0.1802905648946762,-0.034406647086143494,0.11089217662811279,-0.07195376604795456,0.02626480720937252,-0.1739092469215393,0.049600888043642044,0.017217492684721947,-0.022759849205613136,-0.05432608351111412,-0.07546278834342957,0.140858992934227,-0.0935748815536499,0.16960841417312622,-0.06994856148958206,-0.07440129667520523,-0.12690584361553192,0.04222673177719116,-0.024567492306232452,-0.10301545262336731,0.04178470000624657,-0.08011132478713989,-0.08009744435548782,0.023625845089554787,-0.15618641674518585,0.12329700589179993,0.15526503324508667,-0.13730740547180176,-0.04397871345281601,-0.13303999602794647,-0.06842479854822159,-0.062702976167202,0.047030869871377945,-0.16909408569335938,0.12706977128982544,0.10892920941114426,-0.22908315062522888,0.02505352348089218,0.06483165174722672,-0.17715750634670258,0.16973121464252472,-0.07150818407535553,0.05239332839846611,-0.03460317477583885,0.13375000655651093,-0.061710529029369354,0.08525435626506805,0.20643220841884613,-0.013125719502568245,-0.009529334492981434,-0.08416062593460083,0.1164112389087677,0.0496034137904644,-0.0012540429597720504,-0.11236736178398132,0.030264027416706085,0.0317649282515049,-0.1493792086839676,-0.07620818167924881,-0.14454039931297302,-0.11243417859077454,-0.15998323261737823,0.18227407336235046,0.23102417588233948,0.138603076338768,0.007454331032931805,-0.014904187992215157,-0.08006712049245834,-0.05058762803673744,-0.01228279061615467,0.05802052095532417,-0.006452429108321667,0.1403045803308487,-0.15184535086154938,-0.001192724914290011,0.19025762379169464,-0.006444173399358988,0.15781554579734802,-0.19923073053359985,-0.019936727359890938,-0.028788607567548752,-0.03684811294078827,-0.034004680812358856,-0.23904010653495789,-0.009257803671061993,-0.11558914929628372,0.015315047465264797,0.014723172411322594,-0.2557535469532013,-0.007212960161268711,0.14822295308113098,-0.03013276681303978,-0.09059754014015198,0.24392685294151306,-0.03696246072649956,0.04248840734362602,0.002384682884439826,-0.0005583300953730941,0.1485503762960434,-0.04041742533445358,-0.03556380793452263,-0.013300874270498753,-0.07587897777557373,0.10302643477916718,0.045909956097602844,0.1768541932106018,-0.06718418747186661,-0.03511909022927284,0.10064426809549332,-0.018032994121313095,0.07151756435632706,-0.07676393538713455,0.1037462130188942,0.08586990088224411,-0.00015635383897460997,0.1188959851861,-0.18749243021011353,-0.020081104710698128,-0.16454198956489563,-0.05294207111001015,-0.015711981803178787,0.12139924615621567,0.04295283183455467,0.03851892799139023,-0.14492668211460114,-0.1776912361383438,0.11091422289609909,0.146805539727211,-0.07229876518249512,-0.05777491256594658,0.007256131619215012,-0.1848539412021637,0.13648362457752228,0.05804365128278732,-0.1153939813375473,-0.10148710012435913,0.06865653395652771,-0.06496281176805496,-0.03907279670238495,0.07954747974872589,0.1409636288881302,0.1932757943868637,-0.12562350928783417,-0.13948969542980194,-0.1784680336713791,-0.22102555632591248,0.2256183922290802,0.13966363668441772,-0.06970248371362686,-0.06640918552875519,0.19612054526805878,-0.24927571415901184,-0.08217509835958481,-0.06750345230102539
囚徒,0.07342487573623657,-0.08524037152528763,0.0948341116309166,0.15777069330215454,-0.36331725120544434,-0.2565348148345947,-0.6441389322280884,0.19014182686805725,0.36065971851348877,0.1833314746618271,1.138418436050415,-0.12644363939762115,0.3778558671474457,-0.22703778743743896,-0.23348931968212128,1.1098660230636597,-0.5675166845321655,1.045204758644104,1.0054271221160889,0.23767033219337463,-0.2599339783191681,0.31195715069770813,2.1632497310638428,-0.6224771738052368,-0.4904281198978424,-0.4898965358734131,1.5136539936065674,1.7625092267990112,0.31062161922454834,-1.0676531791687012,0.6252743601799011,-0.5549986958503723,0.39304837584495544,0.7328813672065735,-0.5800400972366333,0.6982817053794861,-0.7177662253379822,-0.3843696713447571,-0.05083869397640228,-0.8428584933280945,-1.0544426441192627,-0.37893280386924744,0.4230460524559021,1.5031533241271973,-0.6436964869499207,0.6475365161895752,-0.3263317048549652,-1.3291435241699219,-0.4234008193016052,0.8667646050453186,0.04888841137290001,-0.7963665127754211,0.44704824686050415,-0.4854658842086792,-0.02625632844865322,-0.45922765135765076,-2.137603998184204,-0.5965452194213867,0.6590467691421509,-1.3962469100952148,-0.24443753063678741,-0.11688217520713806,-0.4964527189731598,1.224468469619751,0.1040911078453064,-0.804745078086853,-0.5261664986610413,0.8431317806243896,0.3419369161128998,1.7819658517837524,-0.6215977668762207,0.10118190944194794,-0.7503923177719116,0.8725811243057251,-0.20796139538288116,-0.17195884883403778,-1.2436457872390747,-0.537627100944519,1.1290839910507202,-1.4975281953811646,0.010227831080555916,-0.06695598363876343,-0.23086373507976532,-0.28957313299179077,0.938301146030426,-0.913000226020813,0.7401385307312012,-0.5218464732170105,-0.1624392569065094,0.9303503632545471,-0.6477770209312439,-0.17895671725273132,0.19806170463562012,-0.6382837891578674,-0.2935519814491272,-0.7990851998329163,1.0232793092727661,-0.28075990080833435,-0.10552079230546951,-0.9374035000801086,-0.2790181338787079,0.2797451317310333,0.7412151098251343,0.027264665812253952,-0.3214120864868164,0.55916428565979,0.6048281788825989,1.0619572401046753,-0.6969806551933289,0.6058673858642578,0.18517540395259857,0.48087725043296814,0.12920433282852173,0.6164336800575256,-0.2941005229949951,0.22574518620967865,0.21953971683979034,1.4382781982421875,-0.7675656676292419,0.7649697661399841,0.21117530763149261,0.3650932312011719,0.17725908756256104,-0.9519437551498413,1.0709331035614014,-0.49196308851242065,0.2642044425010681,-1.098335862159729,0.6634873747825623,0.5843265652656555,0.6793856620788574,-0.6735944747924805,-0.7108251452445984,0.03737400472164154,0.5786174535751343,-0.33431506156921387,0.059610024094581604,-0.30389708280563354,-0.5901290774345398,-0.6205202341079712,1.0991270542144775,0.03265207260847092,-0.811320960521698,-1.0537991523742676,-0.2801569402217865,0.6263250112533569,0.025558825582265854,-0.9776068925857544,-0.7324022650718689,-1.5270310640335083,1.0889928340911865,0.8258861303329468,-0.5773554444313049,0.03558604419231415,-0.3606832027435303,-0.28549012541770935,0.2936265468597412,-0.574445903301239,0.19994254410266876,0.1791464239358902,0.5212138891220093,-0.3623593747615814,0.2822539210319519,1.3798861503601074,-0.6772015690803528,0.5115675926208496,0.5570424795150757,-0.19549989700317383,-0.1921723484992981,-0.583587646484375,-0.5918828845024109,-0.7206482291221619,-0.8473033308982849,0.04886110499501228,1.3737496137619019,-0.05911897122859955,-1.1713987588882446,1.1524615287780762,-0.38322964310646057,-0.22173362970352173,-0.020116835832595825,-0.005895385984331369,0.5510115027427673,0.5387350916862488,0.10193458944559097,0.3700844943523407,-1.0379000902175903,0.4704684317111969,-0.8490514755249023,-0.14581884443759918,0.18846167623996735,-0.09415280073881149,0.8091743588447571,-0.38684046268463135,-0.003010977292433381,-0.45463883876800537,0.21925795078277588,-1.2752848863601685,-0.7231736183166504,-0.045152559876441956,1.4893454313278198,0.1325417011976242,-0.7288038730621338,0.40346673130989075,0.29564276337623596,1.5185872316360474,-0.22021068632602692,-0.7003797292709351,0.9209540486335754,-0.21098856627941132,-0.12511958181858063,1.1696505546569824,-0.776120662689209,1.7758244276046753,-0.2140524983406067,-0.34717342257499695,-1.044433355331421,-0.8666365146636963,-0.788738489151001,0.8235278129577637,0.26926934719085693,1.9807521104812622,-0.7562124133110046,0.20473386347293854,0.8489906191825867,-1.1074095964431763,-0.4848373234272003,0.048294518142938614,-0.9007306098937988,0.8161163926124573,-0.558784008026123,-0.22987082600593567,-0.341950386762619,0.546680748462677,-1.3828668594360352,-0.306255578994751,-0.026964757591485977,-0.9033260941505432,-0.4682903587818146,-0.6988282799720764,0.3686958849430084,0.9121397733688354,0.8736066222190857,-1.4042776823043823,0.68814617395401,-0.617001473903656,-0.4832514226436615,0.6289388537406921,1.5009490251541138,1.4864329099655151,-0.7165518403053284,0.8964996337890625,-0.6270462274551392,-0.4209350645542145,-0.31111234426498413,-0.1341315358877182,0.6230965852737427,1.0048397779464722,-1.0321158170700073,0.30216631293296814,-0.2613433301448822,0.15286566317081451,-0.9418626427650452,1.4647016525268555,-0.39113008975982666,1.4219087362289429,0.3969849944114685,0.7908517718315125,0.5197489261627197,-0.610044002532959,1.0917772054672241,0.32009780406951904,-0.5016003847122192,0.35138729214668274,-0.19662301242351532,0.34472382068634033,-0.710021436214447,-0.4708603620529175,-0.23945920169353485,0.15338151156902313,-0.18444372713565826,0.042192492634058,0.9008932113647461,-1.5204585790634155,0.18587449193000793,0.33102089166641235,0.6129248738288879,0.1714506596326828,-0.343109130859375,0.7546950578689575,0.5276211500167847,-0.626006007194519,0.31417316198349,0.1431974172592163,-0.16363182663917542,0.3026350140571594,-0.8297439217567444,-0.2268802374601364,0.4899604022502899,-0.9100576639175415,-1.7432268857955933,0.23537181317806244,0.5790656805038452,-0.40460923314094543,0.11365990340709686,-0.3156096637248993,-0.26531288027763367,-0.10428769141435623,0.38739338517189026,-0.08330906182527542,-0.6403371691703796,0.5676712989807129,0.22309857606887817,0.5842984318733215,-1.2263954877853394,-1.134276032447815,-0.22352924942970276,-0.35132041573524475,1.0410895347595215,-0.14727677404880524,0.7898911833763123,-0.2535296678543091,0.049384213984012604,0.5831453800201416,0.006731946486979723,1.1989068984985352,-0.0640125423669815,-0.636860191822052,-0.3688076436519623,0.7153332233428955,1.0206810235977173,0.43684113025665283,0.48675042390823364,0.6611166000366211,-0.35312339663505554,0.7941506505012512,-0.9569931030273438,0.45516109466552734,-0.21388302743434906,-0.37727347016334534,-0.2623312771320343,-0.6567409038543701,-0.5497878193855286,0.08436351269483566,-0.7697933912277222,-1.2283328771591187,-0.2720472514629364,0.7142091393470764,-0.49833372235298157,1.0066545009613037,0.1883469820022583,0.22466127574443817,-0.09178394079208374,-1.4483007192611694,-0.3291008174419403,-0.30327361822128296,-2.0856316089630127,-0.19824594259262085,-0.6477370858192444,-0.5607541799545288,-0.4112222194671631,0.28854700922966003,-0.07541560381650925,-0.2653604745864868,0.1236896887421608,-0.7129148840904236,-1.040579080581665,0.4843621253967285,0.06723841279745102,-0.028312619775533676,0.15801799297332764,0.9280455708503723,1.0573893785476685,-0.2802518308162689,-0.5512604713439941,0.8014386296272278,0.7111059427261353,0.12708120048046112,0.012345809489488602,1.054741382598877,0.0711110308766365,-0.5257886648178101,-0.6764777302742004,-1.1722725629806519,-0.7787420749664307,-0.8695129752159119,0.36509209871292114,-0.8182834982872009,-0.35022586584091187,0.6812262535095215,1.2667269706726074,-0.13465917110443115,1.4417306184768677,-0.4516555368900299,0.6472140550613403,0.7449072003364563,-0.5750490427017212,-0.6152428388595581,0.5853126645088196,0.7226043343544006
博弈论,-0.4047863483428955,-0.011938654817640781,-0.24019169807434082,0.3847793638706207,-0.8636716604232788,-0.14091938734054565,-0.9335059523582458,0.4681033194065094,-0.30608150362968445,-0.005485776346176863,0.2208167165517807,-0.678244411945343,-0.36680367588996887,0.2085457742214203,-0.4385204017162323,0.7289873957633972,0.03805707022547722,0.18390753865242004,0.5859736204147339,-0.3343098759651184,-0.13226555287837982,0.8769969344139099,-0.3462735116481781,0.48066988587379456,0.1693609207868576,-0.3982895314693451,-0.08598604798316956,0.8375772833824158,-0.8913339972496033,-0.4999120533466339,0.7964445948600769,-0.7543232440948486,1.349269986152649,-0.6272733807563782,0.4841499328613281,0.19561731815338135,1.3147621154785156,-0.7076683044433594,-0.393685907125473,-0.8325474262237549,-1.2929699420928955,-0.07637939602136612,0.13193176686763763,0.6180711984634399,-0.7094042301177979,-1.8062540292739868,-0.4726235568523407,0.017877593636512756,0.23621545732021332,0.25452932715415955,1.0379970073699951,-0.7251893281936646,-0.2720467448234558,0.37736594676971436,-0.9620879888534546,-0.5224901437759399,0.3121110796928406,-0.49297425150871277,-0.5096943378448486,0.37744617462158203,0.09678192436695099,0.21015103161334991,0.5414803624153137,1.0460622310638428,-0.18688318133354187,-0.17325815558433533,-0.5700557827949524,-0.1953779011964798,-0.014876237139105797,0.5556104779243469,-0.43822354078292847,-0.48917698860168457,-0.8474981188774109,-0.010904381982982159,-0.2342965006828308,0.707036018371582,0.32029953598976135,-0.23727947473526,0.8038055896759033,-0.9290857315063477,1.0340912342071533,-0.4075731337070465,-0.5001403093338013,-0.006882829125970602,-0.48497474193573,-0.6284047961235046,0.779067873954773,-0.0812959149479866,0.0013268650509417057,-0.10413723438978195,-0.645893394947052,-0.15181170403957367,0.621140718460083,0.7758674621582031,0.5654246211051941,-0.0035554002970457077,0.25972676277160645,0.9248157739639282,-0.36491987109184265,0.3279664218425751,-0.5988114476203918,-0.18742521107196808,-0.41936758160591125,-0.44242197275161743,0.12793637812137604,0.6410044431686401,0.013274643570184708,-0.481315016746521,0.17744609713554382,1.0068531036376953,0.1695324331521988,0.44126203656196594,0.7664223909378052,-0.49997514486312866,-0.20989961922168732,-0.31764858961105347,-0.04712997376918793,-0.6238771677017212,-0.21698059141635895,0.7106072902679443,-0.7603142857551575,-0.6152467131614685,-0.46089330315589905,-0.019200585782527924,0.020911721512675285,0.3452322483062744,-0.09859684854745865,0.47180795669555664,0.7403796315193176,-0.7902990579605103,0.13933870196342468,0.4237487018108368,-0.41731247305870056,-0.13158206641674042,-0.3786200284957886,0.35001686215400696,-0.9945996403694153,-0.18575139343738556,0.271933913230896,-0.24842005968093872,0.22878316044807434,0.3773517608642578,0.30302900075912476,0.15874473750591278,0.28347283601760864,-0.28655096888542175,0.18390944600105286,-0.40057337284088135,0.3214608132839203,-1.329559564590454,-0.6319062113761902,0.7295083999633789,-0.10991036146879196,0.9207099676132202,-0.4907672107219696,-0.4129890501499176,1.8555386066436768,-0.3528294861316681,0.8269980549812317,0.012697319500148296,-0.5276407599449158,0.29538416862487793,0.5708365440368652,-0.014105040580034256,0.34382644295692444,-1.5791852474212646,-0.5639062523841858,0.4604169726371765,-0.1546461135149002,-0.6441768407821655,0.5776214003562927,-0.578694760799408,-0.36509111523628235,-1.244775414466858,0.6216043829917908,1.1606218814849854,0.8709065914154053,-0.00891073327511549,-0.14323650300502777,0.2083178460597992,-0.34359854459762573,-0.5649633407592773,1.013189673423767,0.8326906561851501,-0.013229207135736942,0.27560216188430786,0.0339369922876358,-0.68172687292099,0.34137728810310364,-0.5169593095779419,-0.6331058740615845,-0.2365776151418686,0.6048497557640076,-0.49454307556152344,-0.5172134637832642,-1.848523497581482,0.06405919045209885,-0.2990051805973053,0.5794371962547302,0.3249035179615021,0.22838638722896576,-0.37471383810043335,-0.4224875569343567,0.21871799230575562,0.3723612427711487,0.37275058031082153,0.769564688205719,-0.8808357119560242,0.4944871664047241,-0.13086694478988647,0.878096878528595,-1.4824974536895752,-0.43060094118118286,1.470207691192627,-0.10491472482681274,0.19830286502838135,0.1390262097120285,0.8658430576324463,0.18974395096302032,0.7175067067146301,-0.4250597357749939,1.0791985988616943,-0.746646523475647,0.7750585079193115,0.32945218682289124,-0.35144996643066406,-0.6112361550331116,-0.30450010299682617,-0.019989006221294403,0.3933718204498291,-0.5175702571868896,0.555540919303894,-0.2536143660545349,1.1950596570968628,0.6927068829536438,-0.2533953785896301,-0.3297708034515381,1.1801270246505737,0.5792067050933838,0.584763765335083,0.07253172248601913,-0.678791880607605,0.7768622636795044,-0.13431832194328308,1.2390046119689941,-0.1147763580083847,-0.01707213558256626,0.27688324451446533,1.4368451833724976,-0.33767449855804443,0.8879902958869934,-0.23848243057727814,-0.3105015456676483,0.2724320888519287,0.8522458076477051,1.3820295333862305,0.03405052796006203,1.3304446935653687,-1.4876548051834106,0.9430509209632874,0.5184186697006226,-1.0249556303024292,0.9853997826576233,0.7630664706230164,-0.4528774619102478,0.21703816950321198,0.3839919865131378,-0.5721395611763,1.6536401510238647,-0.4507288932800293,-0.21879421174526215,0.6819252371788025,-0.12055911123752594,0.2831532657146454,0.36381131410598755,-0.7890840172767639,-1.225696325302124,0.8026174902915955,-0.8235790729522705,-0.841148316860199,-0.7764750123023987,-0.5041326880455017,0.46218329668045044,-1.790991187095642,-0.9846205115318298,0.9861667156219482,0.5149449110031128,0.7242339253425598,-0.5812684297561646,0.7178219556808472,1.2475183010101318,-0.25385886430740356,0.003745788475498557,0.2745509743690491,0.8713939189910889,-1.2066277265548706,-0.1945505142211914,1.179957389831543,-0.16193433105945587,-0.4004885256290436,-0.5436975359916687,0.8336751461029053,-0.4305781424045563,-0.6199813485145569,-0.766473650932312,-0.6985543966293335,-0.6914467215538025,-0.42475858330726624,-0.29842621088027954,0.3042207360267639,0.6060400009155273,0.49819329380989075,0.01656552217900753,-0.46686336398124695,2.176842212677002,0.004291750490665436,0.2937229573726654,1.4298348426818848,0.04848453775048256,0.19336463510990143,0.12462815642356873,-0.9084891080856323,-0.4831154942512512,-0.11661271005868912,-1.182989478111267,0.8555991649627686,0.4069763123989105,0.974733293056488,-0.5754473209381104,-0.4053805470466614,0.02425014227628708,-0.11736900359392166,-0.9483322501182556,-0.8078773021697998,0.07301284372806549,-0.6506813168525696,0.9994104504585266,0.09604350477457047,-0.6659961938858032,-0.71638023853302,0.9178119897842407,0.5819894075393677,0.38295161724090576,-0.4558756649494171,-0.1717662811279297,-0.159726083278656,0.1436205357313156,0.4465312063694,-0.8323755264282227,-0.16282638907432556,-0.21217405796051025,-0.35333147644996643,-0.08109181374311447,0.5681078433990479,0.3689720630645752,0.8521336317062378,0.23148606717586517,-0.34371843934059143,0.9857178330421448,-0.10423918813467026,-0.24945245683193207,-0.1304265558719635,-1.004513144493103,0.4534327983856201,1.2199690341949463,0.5034668445587158,0.9198005199432373,-0.25528189539909363,0.2662525475025177,-1.127610445022583,0.0625017061829567,-0.48817867040634155,-0.4645819067955017,0.818597674369812,-0.0864611566066742,-0.3992927372455597,0.0770288035273552,0.05743197724223137,0.2615220844745636,0.07568858563899994,-0.3803921341896057,-0.6758140325546265,1.0785472393035889,-1.0113036632537842,-0.9343743324279785,-0.5921741127967834,0.39333388209342957,0.5555610060691833,0.20094366371631622,-0.3044661283493042,0.36549997329711914,1.3136141300201416,-0.05019178241491318,0.5295308828353882,0.5048699975013733,0.4172133803367615,-0.9334369897842407,-0.4365658164024353,-1.0521631240844727,-0.17962542176246643
影响,0.8249037265777588,1.3045610189437866,0.16184094548225403,-0.5684577226638794,0.8234349489212036,-0.7441074252128601,0.8784797787666321,-0.42090725898742676,-0.003517027013003826,1.0155863761901855,-0.9220743179321289,0.42109671235084534,0.9987353086471558,-0.7702260613441467,0.9514718651771545,-0.03845132514834404,1.5803146362304688,0.7591270208358765,0.4636116325855255,-0.3452932834625244,0.2757551074028015,0.2675853967666626,0.08095809072256088,1.4362461566925049,0.7572818398475647,-0.10224244743585587,-0.16797679662704468,-0.6487173438072205,-0.6022194623947144,0.6124739646911621,-0.9255346059799194,-0.8160175085067749,-0.6212503910064697,-0.252111554145813,-0.2717372477054596,-1.3680143356323242,0.3380486071109772,1.0293346643447876,0.3331339955329895,0.33620256185531616,0.47227802872657776,1.0501224994659424,0.5454975962638855,0.6830264329910278,-1.0545711517333984,-0.46877753734588623,-0.4858055114746094,-1.887082815170288,-0.0017557819373905659,0.8735634088516235,-0.0661618784070015,0.20009252429008484,-0.8695452809333801,0.21722696721553802,-0.10083358734846115,-0.7145300507545471,-0.1605488508939743,0.7289506196975708,0.1425861269235611,0.11513963341712952,-0.0002383629762334749,-0.9939814209938049,0.2312483787536621,0.2084629088640213,0.3308620750904083,0.07148434966802597,-0.3719834089279175,-0.2218635231256485,0.2505778968334198,-0.030944019556045532,-0.7002245783805847,-0.7130866050720215,0.29721227288246155,-0.19442574679851532,0.3623564839363098,1.3278868198394775,1.0289828777313232,-0.8935464024543762,-0.6387150287628174,1.0968897342681885,1.0327608585357666,-0.8572662472724915,0.8839754462242126,-0.4396021068096161,-0.017003512009978294,-1.3775089979171753,0.43027108907699585,-0.7368195056915283,0.32305237650871277,-0.5549288988113403,-0.9482600092887878,0.038413453847169876,-1.2170114517211914,1.2722454071044922,0.3494977056980133,-0.8033716678619385,-0.07713998854160309,-1.1299238204956055,0.4071469306945801,0.10729649662971497,-0.44987595081329346,0.1605597287416458,1.1230324506759644,-0.43233728408813477,0.97532719373703,-0.6997649669647217,-0.2347828447818756,0.44843026995658875,0.8206773400306702,-0.06209138408303261,-0.7285172939300537,-1.4096393585205078,0.04732909053564072,0.4454297125339508,-0.3011156916618347,-0.6752607226371765,0.7642128467559814,0.2306925505399704,-0.03725278750061989,-0.5489035248756409,-0.9148231148719788,1.0279747247695923,0.26466280221939087,-0.26338592171669006,1.0955246686935425,-0.5955331921577454,0.21000570058822632,0.007486056070774794,0.9036849737167358,-0.706322193145752,0.0723038762807846,-0.406016081571579,0.3939087390899658,0.1522965282201767,0.9939402341842651,0.6110566854476929,-0.7656473517417908,0.8633568286895752,-1.2434765100479126,-0.7916932106018066,0.5238422751426697,-0.13886737823486328,-0.05624999478459358,0.6413868069648743,-0.47381827235221863,-0.3642062842845917,0.6845055222511292,0.8030993342399597,1.2150856256484985,0.20062077045440674,-0.7472129464149475,0.21159206330776215,-0.08234696835279465,-0.7749847769737244,0.886082112789154,0.5898829698562622,0.30449801683425903,-0.002809073543176055,0.6384339332580566,1.5440961122512817,-0.8966838717460632,0.16352882981300354,-0.12661951780319214,1.6438037157058716,0.878227949142456,-0.7481733560562134,0.3013629615306854,0.020501557737588882,-0.5118321776390076,0.9781375527381897,-0.6124705672264099,0.4851019084453583,-0.1809152513742447,-0.4716062545776367,0.24562601745128632,0.9946344494819641,0.7454848885536194,0.4673634171485901,-0.028755920007824898,-0.5356797575950623,-0.19007915258407593,-0.8029363751411438,-0.11846553534269333,-0.398931086063385,0.2613522708415985,-0.27742406725883484,1.3563826084136963,0.6984162926673889,-0.9520946145057678,0.3434652090072632,0.07475194334983826,1.1454968452453613,-0.8251721858978271,-0.6027868986129761,-0.11734222620725632,-0.0033539775758981705,0.0010749396169558167,-0.24556194245815277,0.403181791305542,-0.9754852056503296,-0.12190977483987808,0.8636897802352905,-0.4254699945449829,-0.4376388490200043,0.6461322903633118,0.7429900765419006,0.4116758704185486,-0.2494005262851715,0.8314938545227051,-0.7377527356147766,1.2023431062698364,-1.1038237810134888,0.08841133117675781,-0.290448397397995,0.09003542363643646,-0.7963634729385376,0.5125464200973511,0.35907217860221863,0.1720874160528183,-0.9261763095855713,0.48813319206237793,1.1863720417022705,0.2734355330467224,2.2421369552612305,0.5967863202095032,-0.6535391807556152,-0.06152992323040962,0.23358191549777985,0.33819398283958435,0.5265620946884155,0.2121478021144867,1.5439667701721191,0.15353745222091675,-0.4156619906425476,-0.2608400583267212,0.4219975769519806,-2.31965970993042,-0.19066715240478516,-0.17089703679084778,1.3865691423416138,-0.05642402544617653,0.10777506232261658,0.14023709297180176,1.0435270071029663,0.5151389241218567,0.28429824113845825,1.1050598621368408,-0.15492092072963715,1.7479848861694336,0.21535742282867432,0.6653884649276733,0.25933635234832764,0.3101922571659088,-0.5163710713386536,-0.05219479650259018,0.5389646887779236,0.8812603950500488,0.2831834554672241,-0.379850834608078,-0.09528033435344696,0.24698029458522797,-0.5228902697563171,0.11207891255617142,0.3673169016838074,-0.4377371370792389,-0.00967445783317089,-0.8885643482208252,-0.6348583698272705,0.7695342898368835,0.3182497024536133,-0.48528775572776794,-1.3830877542495728,-0.7324503064155579,-0.24932429194450378,-0.13422198593616486,-0.4791262149810791,-0.34575775265693665,0.2757452726364136,-0.8184788823127747,-0.7922622561454773,-0.8681703209877014,-0.1605822890996933,0.640899121761322,-0.5499022603034973,0.1826784908771515,-0.3912547528743744,-0.6041924357414246,0.2238527238368988,0.06431704014539719,-0.3839002847671509,0.4573856294155121,0.06678587943315506,1.1007053852081299,1.1607476472854614,-0.3615665137767792,0.0026450306177139282,-0.2879088521003723,0.3264974057674408,0.7030528783798218,-0.08294210582971573,0.22918684780597687,0.43921521306037903,0.3832491636276245,-0.5799407958984375,0.5966660380363464,0.021648796275258064,-0.6551885604858398,-0.12160026282072067,0.8471056222915649,-0.40978118777275085,-0.3705016076564789,-0.2255648672580719,-0.8004357218742371,-1.3279592990875244,0.432725727558136,0.09373821318149567,0.6294040083885193,-0.6776661276817322,0.5775688290596008,0.6318277716636658,-0.2688533067703247,-0.8777263760566711,-0.9552175998687744,0.5414929389953613,0.26716920733451843,0.9825327396392822,0.01458575390279293,-0.35594865679740906,-0.560595691204071,-0.13490144908428192,1.171357274055481,-0.29094791412353516,0.6378169059753418,-0.198118194937706,-0.02564702183008194,-0.7988218069076538,0.2157866507768631,-0.5566279888153076,0.17908558249473572,0.049527399241924286,0.15791106224060059,0.8063647747039795,0.9304248690605164,0.2143106609582901,0.6757122874259949,-0.6590586304664612,-0.4240477681159973,-0.9951047301292419,-0.13371378183364868,0.6237578392028809,-0.4565673768520355,-0.12518154084682465,0.9674855470657349,0.3958721458911896,-0.41754546761512756,-1.3453822135925293,-0.14250795543193817,0.21270135045051575,-0.24317260086536407,0.19168849289417267,0.42606157064437866,-0.7737483382225037,-0.4114251732826233,1.7762627601623535,-0.5481559038162231,-0.042033545672893524,0.0060178786516189575,-1.4191217422485352,1.1662919521331787,-1.236804485321045,-0.5746318697929382,-0.14165571331977844,0.9322245717048645,-0.2838718593120575,0.030692769214510918,0.11489089578390121,0.19359154999256134,-0.3917393088340759,1.5357043743133545,0.40674981474876404,1.0819875001907349,0.802419126033783,-0.08741402626037598,-0.43100792169570923,0.025955069810152054,0.3239479064941406,-1.0168570280075073,0.2116704136133194,1.2103605270385742,0.3539199233055115,0.17065565288066864,0.8119869828224182,-0.28336289525032043,-0.18877610564231873,0.7413552403450012,0.32599231600761414,0.026844359934329987,1.2424798011779785,-0.29604730010032654,-0.17252783477306366
模型,-0.7780123353004456,0.35545483231544495,0.5829472541809082,0.5634931325912476,-0.9140464663505554,0.16323654353618622,-0.3095104396343231,1.5127884149551392,0.16376499831676483,-0.28409144282341003,0.5509411692619324,-0.029133807867765427,0.9980299472808838,0.26565226912498474,0.5136112570762634,0.8584868907928467,-0.6007475256919861,0.9138025045394897,0.4306729733943939,0.4310685694217682,-0.3807562291622162,0.07035968452692032,-0.21009783446788788,0.6573030948638916,0.14281943440437317,-0.8154944777488708,-0.3590471148490906,0.04926684498786926,-0.8615978360176086,1.3131150007247925,-0.021631475538015366,-0.7918494939804077,0.869577169418335,-0.5813912749290466,0.5129343271255493,0.04819546639919281,-0.2810177206993103,-1.038997769355774,-0.1545114368200302,-0.05071837827563286,-0.5063305497169495,-0.5467736721038818,0.23885349929332733,0.22929106652736664,-0.27563485503196716,-1.0202858448028564,0.22674015164375305,0.5987957715988159,0.8447031378746033,0.3569294214248657,0.4386613965034485,-0.46287956833839417,0.2802169919013977,1.392852783203125,-0.5056379437446594,-0.11407575011253357,0.438640296459198,-1.1943669319152832,0.5031284689903259,0.11257489025592804,-0.24841952323913574,0.7145499587059021,1.2324249744415283,-0.6116724014282227,-0.7276811599731445,-0.021392738446593285,0.48152685165405273,-0.373068630695343,-0.9619972705841064,0.35054731369018555,-0.2724491357803345,0.3013571798801422,0.28072434663772583,-0.015476909466087818,0.4236009418964386,-0.12253116816282272,0.17567873001098633,-0.33579689264297485,0.49156394600868225,0.49249881505966187,-0.3575044572353363,-0.10152178257703781,-0.31161433458328247,-0.2690921127796173,-0.7161176204681396,-0.45071032643318176,0.10606633126735687,-0.023109035566449165,-0.9807438254356384,-0.7115970253944397,0.17801684141159058,-0.5729743838310242,0.4684908986091614,0.6938627362251282,0.36768925189971924,0.4439754784107208,0.08255752176046371,0.4355984926223755,0.30656343698501587,-0.0026660708244889975,0.2804355323314667,-0.7660176157951355,-0.053569432348012924,-0.027655955404043198,0.11047376692295074,-0.5370721220970154,-0.4076138734817505,0.03162010386586189,0.19383132457733154,0.21337102353572845,0.46598199009895325,0.08313243836164474,1.313617467880249,-0.2736768424510956,0.5303776860237122,-0.0749644935131073,-0.37253788113594055,-0.4436095058917999,-0.3728160560131073,0.483443945646286,-1.9029237031936646,0.5110260844230652,-0.4611470401287079,-0.3937738835811615,0.6672587394714355,0.5676887631416321,-0.3997717499732971,-0.010090784169733524,0.607993483543396,-0.5529176592826843,0.395460844039917,-0.39839431643486023,-0.8997844457626343,0.6731740236282349,-0.05827724188566208,1.0335396528244019,-0.8541648983955383,0.4745601713657379,-0.0494062677025795,-0.7626734375953674,0.4085361063480377,-0.6416332721710205,0.27028822898864746,1.17239248752594,0.43888425827026367,-0.5127426981925964,-0.04584980756044388,0.9087339043617249,-0.2769980728626251,-1.148603081703186,-0.205957293510437,-0.597856342792511,-0.020545875653624535,0.9559648633003235,-0.17640431225299835,0.4249071180820465,0.7165399193763733,0.5510658621788025,-0.3325977325439453,-0.015533405356109142,0.16291886568069458,-0.7194734215736389,0.39703625440597534,-0.33927449584007263,0.18595226109027863,-1.2220840454101562,-0.5107457041740417,0.400705486536026,-0.5558696985244751,-0.20411594212055206,-0.4882184565067291,-0.8857519626617432,-0.3255196213722229,-0.7827989459037781,-0.17702753841876984,-0.46709296107292175,-0.04020702838897705,-0.620481550693512,-0.4623124599456787,-0.26813772320747375,-1.3845678567886353,0.059202320873737335,0.0034041195176541805,-0.027131851762533188,0.6963289976119995,0.8411810994148254,0.6377285122871399,-0.4396646022796631,0.23330925405025482,-1.0594483613967896,-0.6213535070419312,0.06186801195144653,0.17629113793373108,0.36752891540527344,-0.24555501341819763,-0.5464938879013062,0.19854098558425903,-0.2271527349948883,0.7728702425956726,0.32042765617370605,-0.24696199595928192,0.32815855741500854,0.6361351013183594,-0.50217205286026,-0.24453911185264587,0.0487787164747715,0.19562628865242004,-0.13936692476272583,0.5512533783912659,-0.7925965189933777,-0.13156190514564514,-0.41854244470596313,-0.6747488379478455,0.8092329502105713,0.13504713773727417,-0.15180166065692902,0.579461932182312,0.6445070505142212,-0.5936570763587952,-0.17151305079460144,0.09708307683467865,-0.0401933491230011,-0.6282216310501099,0.5214173793792725,-0.08032407611608505,-0.4531574547290802,0.2655300796031952,-0.3674502968788147,-0.2574230432510376,0.3061305284500122,-1.1553912162780762,0.08775550872087479,-0.01683429628610611,-0.01238358672708273,0.6243764162063599,0.02208864875137806,-0.21948355436325073,-0.5510370135307312,0.3824496269226074,0.18397322297096252,-0.9326526522636414,-0.1287258416414261,0.1402004361152649,-0.5611016750335693,1.2508249282836914,-0.11139122396707535,-0.43914541602134705,0.2793017029762268,0.5303900241851807,-0.07071108371019363,0.15526694059371948,-0.5062199831008911,-0.04283345118165016,0.525219202041626,0.26738154888153076,0.23789425194263458,1.3800479173660278,-0.20049960911273956,0.16791240870952606,1.1154652833938599,-0.16786369681358337,-0.869775652885437,0.4073046147823334,0.4454772472381592,0.37377873063087463,0.0047337827272713184,-0.29173630475997925,-1.3202723264694214,0.28718000650405884,0.6157733798027039,0.5140398144721985,0.5858839750289917,-0.11943034827709198,0.16998134553432465,0.16539546847343445,0.3633228838443756,-0.2354283183813095,-0.3475356996059418,-0.1651657521724701,-0.752804160118103,-0.05736549571156502,0.8656105399131775,0.4426964819431305,-0.03606181591749191,0.24877065420150757,0.6714316010475159,0.09806115180253983,-0.3493022322654724,-0.022324291989207268,0.16419997811317444,0.08587316423654556,-0.3804740905761719,0.5560725927352905,0.6595423817634583,-0.05266715958714485,-0.41838395595550537,-0.5085144639015198,0.52889084815979,-0.6250029802322388,-0.6684074401855469,0.16563665866851807,0.010729660280048847,0.414247989654541,-0.45653191208839417,-1.2087311744689941,-0.7206998467445374,0.08292863517999649,0.9894084334373474,-0.4481056332588196,-0.39521506428718567,-0.0025052588898688555,-0.2873212397098541,-0.25586482882499695,0.6175361275672913,0.032003261148929596,0.524624764919281,0.20175158977508545,-0.2598066031932831,1.019227385520935,0.3832470774650574,0.9104701280593872,0.15485933423042297,0.1862083077430725,0.15143278241157532,-0.23583067953586578,0.4223455786705017,-0.4160498082637787,0.755638599395752,-0.056821685284376144,0.20318439602851868,0.031164437532424927,0.6733378171920776,0.13170018792152405,0.11145787686109543,0.19932951033115387,-0.6330868601799011,0.3551434278488159,0.008402704261243343,0.04773859679698944,-0.22662590444087982,1.143052577972412,0.3387174904346466,0.9453274607658386,-0.058468934148550034,-0.19591106474399567,-0.5166279673576355,-0.39972546696662903,0.6180685758590698,-1.332557201385498,0.10488507896661758,0.606639564037323,-0.7434684038162231,1.3304457664489746,1.186948537826538,1.0650514364242554,0.2412620633840561,0.16138257086277008,0.38335153460502625,0.3643224537372589,0.5770242810249329,1.0440731048583984,0.25311750173568726,-1.004919171333313,0.39373713731765747,1.1075317859649658,1.008139729499817,-0.20642848312854767,-0.44224512577056885,0.15169963240623474,-0.7218389511108398,0.49513566493988037,-0.6943840384483337,-0.4592219889163971,0.2588498294353485,0.7419377565383911,0.2646086812019348,0.7870240211486816,-0.3266944885253906,0.5429118275642395,0.28226837515830994,1.0184141397476196,0.1585223227739334,0.7311196327209473,-0.8623267412185669,0.09345071762800217,-1.209063172340393,-0.4810101091861725,-0.6351037621498108,0.36979609727859497,-0.2131779044866562,0.8705215454101562,0.6483137607574463,-0.6140239834785461,0.5032292008399963,0.535054624080658,-0.011510977521538734,-1.4898244142532349,-0.03086465410888195,-0.6324272751808167,-0.5288956165313721
产品,-0.20687633752822876,0.08565836399793625,-0.6773919463157654,1.0471830368041992,-0.027148744091391563,0.5566523671150208,0.10507563501596451,0.7143185138702393,-0.37674465775489807,0.14213865995407104,0.2795829772949219,1.1494370698928833,0.5674635171890259,0.2539905607700348,-0.25190725922584534,-0.6861844062805176,-0.4431827664375305,-0.7747917771339417,0.9366232752799988,0.22840295732021332,0.20058827102184296,-0.07840558886528015,-0.6173409223556519,0.4534531235694885,1.2417824268341064,-0.33480143547058105,-0.21229210495948792,0.036573994904756546,-1.4990781545639038,0.45559433102607727,-0.17184269428253174,-0.5725346803665161,-0.46217209100723267,0.1969389170408249,-0.5730847716331482,-0.7842585444450378,0.35022878646850586,-0.011918213218450546,0.4942055344581604,0.1378772258758545,0.04775985702872276,0.46856293082237244,-0.10934871435165405,0.31874939799308777,-0.6748865246772766,0.27243366837501526,0.36714163422584534,-0.10108663886785507,0.4757908880710602,-0.6902792453765869,0.29874682426452637,-0.04329364746809006,-0.3197229504585266,0.6631597876548767,-0.2381678819656372,-0.7692327499389648,-0.6437407732009888,-0.2016361653804779,0.9397115111351013,-0.4793698489665985,1.077820062637329,0.11074893176555634,0.3765709102153778,0.6861363649368286,-0.28559261560440063,0.034893713891506195,-0.23001793026924133,-0.48383089900016785,0.1106545627117157,1.246621012687683,-0.32356029748916626,0.02058829553425312,0.03440120443701744,-0.11559721827507019,-0.5835986733436584,-0.7320615649223328,0.24374929070472717,0.038254138082265854,0.6539758443832397,-0.18280678987503052,0.23428086936473846,0.13684411346912384,0.3178589642047882,-0.37151262164115906,-0.6126993298530579,0.23167188465595245,0.5493893027305603,-0.686098039150238,-0.1829642653465271,-1.0028849840164185,-1.1743208169937134,-0.07491355389356613,-0.26825758814811707,-0.03327854350209236,0.6804636716842651,0.38205960392951965,0.32840830087661743,-0.33215004205703735,-0.4009111821651459,0.17697951197624207,1.0350205898284912,-0.23114967346191406,0.5131768584251404,0.27206557989120483,-0.8295758366584778,0.27076300978660583,-0.27941086888313293,0.20287029445171356,0.7306126356124878,-0.06608109921216965,0.09087059646844864,0.9088912606239319,0.42664310336112976,-0.7809153199195862,0.11185089498758316,0.21187084913253784,-0.28544697165489197,0.1537049561738968,-0.29186856746673584,0.5040616989135742,0.11461224406957626,-0.7485025525093079,-0.13125228881835938,0.3156464993953705,-0.8156686425209045,0.08106426149606705,0.11958375573158264,-0.4280480444431305,0.2425195723772049,-2.1502881050109863,0.7467607259750366,-1.0635020732879639,-0.7428753972053528,-0.7581875920295715,-0.538436770439148,-0.6561288833618164,-0.6585397124290466,-0.4363396167755127,-0.4801049530506134,-0.4019109308719635,1.131170392036438,0.9324469566345215,0.0903281569480896,0.37357112765312195,-0.3738609850406647,0.2540866434574127,-0.37014004588127136,0.7776034474372864,-0.4000735282897949,-0.16871492564678192,-0.42289087176322937,0.08960098773241043,0.48512157797813416,0.7831292152404785,-0.7143803238868713,-0.2394549697637558,0.8176124691963196,0.3598303496837616,0.0653637945652008,0.36082911491394043,0.49835291504859924,-0.23009677231311798,0.5140876173973083,0.08251475542783737,0.11294646561145782,-0.7722737193107605,-0.520560622215271,0.5742064714431763,-0.8253173232078552,0.3760993778705597,0.38947707414627075,-1.3761646747589111,-0.2973247766494751,-0.6737236976623535,-0.08157642185688019,-0.3298245668411255,0.21786414086818695,-0.4350300133228302,-0.19883504509925842,-0.11178730428218842,-0.8998295664787292,-0.48108944296836853,-0.8978610634803772,-0.3417011797428131,-0.18456673622131348,-0.13380999863147736,0.4006320834159851,-0.684922456741333,-0.18731379508972168,-0.7645232677459717,0.1050085723400116,1.0860686302185059,0.7234513759613037,0.4021395742893219,0.5249524116516113,-0.7458198666572571,-0.3153999149799347,0.29806292057037354,1.1892452239990234,0.608209490776062,0.6749778985977173,-0.2370212823152542,-0.2768629491329193,-0.32658618688583374,0.6527777910232544,0.0616772398352623,0.3164873719215393,0.42263904213905334,0.7057532668113708,-0.7094399929046631,0.6182107329368591,1.2008330821990967,-0.28804537653923035,0.5107220411300659,-0.5232247710227966,0.6222473978996277,0.43185827136039734,0.42504557967185974,1.1505656242370605,-0.0689566507935524,-0.5443206429481506,0.22249166667461395,-0.035537634044885635,-0.5256092548370361,0.039628766477108,-0.1042136624455452,0.013738279230892658,-1.1187264919281006,-1.3524163961410522,0.1754080355167389,-0.9906407594680786,0.8155341744422913,0.18751958012580872,-0.7262494564056396,1.2247085571289062,-0.3517148196697235,-1.0490533113479614,-0.48269641399383545,-0.13622185587882996,0.3648070693016052,-0.9779561758041382,0.06334803253412247,-0.3173012137413025,0.8581714630126953,0.9022364020347595,0.9710721969604492,0.38530829548835754,-0.8128105401992798,0.3357040584087372,-0.16454321146011353,-0.28311556577682495,-0.3470141887664795,-0.1389998346567154,0.7256368398666382,1.1382865905761719,-0.12705683708190918,0.36213284730911255,0.31028297543525696,-0.7311538457870483,0.6347363591194153,0.38168975710868835,-0.588992714881897,0.4705078601837158,-0.3158893883228302,0.08423665165901184,-0.04308214411139488,0.5374327301979065,-1.5060747861862183,-0.1472475677728653,0.7854681015014648,-0.4840770661830902,0.4880455732345581,-0.693194568157196,0.10308269411325455,-0.6442050337791443,-0.03358888998627663,-0.9994491338729858,0.11035513877868652,-0.6636143326759338,-0.08722356706857681,0.11271380633115768,0.009627455845475197,1.5596352815628052,0.8218733668327332,-0.42887356877326965,-0.4034980535507202,0.9559247493743896,0.37802234292030334,0.08394919335842133,0.2084881216287613,-1.045610785484314,-0.239185631275177,-0.3148558437824249,0.2958603501319885,-0.9664508104324341,-0.6066076159477234,0.3348369002342224,-0.19893433153629303,-0.6578451991081238,-0.11357590556144714,0.2900858223438263,0.33633047342300415,0.41210365295410156,0.4627450406551361,-0.22852958738803864,-0.8984127044677734,-0.5983557105064392,0.20564959943294525,-1.3769499063491821,-0.17190903425216675,-0.6948164105415344,-0.033475615084171295,0.20709483325481415,-0.5777362585067749,-0.4631823003292084,0.3342713713645935,1.0878466367721558,0.22029273211956024,-0.4823291003704071,0.39502277970314026,0.31291377544403076,-0.6066979169845581,-0.4039144217967987,-0.4960930645465851,-0.4016411006450653,0.07174371927976608,-0.06920302659273148,0.4529429078102112,-0.03258505463600159,0.6751863360404968,0.9908809065818787,-0.7589316368103027,-0.5801745653152466,-0.3321310579776764,0.6183072924613953,-1.1534851789474487,-0.08741957694292068,-0.392545223236084,0.28520122170448303,0.2833685874938965,0.28444555401802063,-0.1160864531993866,-0.1358203887939453,-0.2349003404378891,-0.4331091046333313,-0.12065809965133667,0.0333065465092659,-0.4714760482311249,-0.3157415986061096,-0.31307199597358704,-0.10230862349271774,-0.1821507066488266,1.3968476057052612,-0.10315365344285965,0.7109225392341614,-0.4173715114593506,-1.2098073959350586,0.21667976677417755,0.37017306685447693,-0.07450870424509048,-0.08870308846235275,0.5167726278305054,0.3205050528049469,-0.3167699873447418,-0.18853551149368286,0.5789305567741394,0.2386239916086197,-0.520091712474823,-0.5532509684562683,-0.13557901978492737,0.3243095576763153,0.30842018127441406,0.9657770991325378,-1.3554030656814575,0.6643104553222656,0.45661625266075134,-0.13594301044940948,0.3243626058101654,0.87432861328125,-0.5483649969100952,-0.4131146967411041,0.32871249318122864,-0.37634074687957764,-0.7873817086219788,0.3012499213218689,-1.057281255722046,-0.6452293992042542,-0.047341976314783096,0.0321388766169548,-0.7911534905433655,0.4399268329143524,-0.9336512684822083,-1.6367034912109375,-0.07118788361549377,0.25257447361946106,-0.10443272441625595,-0.9197473526000977,0.3807169198989868,0.07345350831747055,0.16002650558948517
方法,-0.31920498609542847,0.06680338829755783,0.043890975415706635,0.5756761431694031,0.02686205692589283,-0.05875993147492409,-0.30345189571380615,1.0339148044586182,-0.25669556856155396,0.0596485361456871,-0.10268526524305344,-0.053010158240795135,0.8298730254173279,-0.4521237313747406,-0.06386774033308029,0.7466543912887573,0.09512361139059067,0.46517035365104675,0.6384049654006958,0.02018461935222149,0.22742144763469696,0.5375423431396484,0.09709490090608597,0.5989350080490112,0.27030444145202637,-0.3927818536758423,-0.19846844673156738,-0.0742420181632042,-0.7730974555015564,0.5015802979469299,-0.09992529451847076,-0.5441464781761169,0.6442679166793823,-0.17427141964435577,0.36362534761428833,0.1367606669664383,0.19945979118347168,-2.3195600509643555,-0.06684363633394241,-0.3830723166465759,-0.7914184331893921,-0.2690664827823639,0.01641860045492649,0.04486025497317314,-0.549400806427002,-0.6506405472755432,-0.95953369140625,-0.2514737546443939,0.4513278901576996,0.42602282762527466,-0.09191307425498962,0.32347604632377625,-0.3126608729362488,0.003364581847563386,0.5181694626808167,-0.2699708342552185,0.1441383957862854,-0.1375429481267929,0.46192124485969543,-0.2558770179748535,0.3480445146560669,0.8754655718803406,-0.11041342467069626,-0.9760360717773438,-0.5370319485664368,-0.7057713270187378,0.0099714957177639,-0.246370330452919,-0.8677086234092712,2.0760180950164795,-0.3786207437515259,1.059505581855774,-0.4688849151134491,-0.12344416975975037,0.390509694814682,0.37032103538513184,-0.571133017539978,-0.6089383363723755,0.323414146900177,0.4877963662147522,0.6609712243080139,-0.33378368616104126,-0.16978619992733002,0.34786373376846313,-0.8238447308540344,-1.5766352415084839,-0.09096678346395493,0.08772169053554535,-0.2905074954032898,-0.8532763719558716,0.03540940210223198,-0.3742467164993286,0.5279933214187622,-0.4000052809715271,-0.16539248824119568,0.3241077661514282,0.40474823117256165,0.33319827914237976,-0.46356001496315,0.136618509888649,0.3998538851737976,-0.2622581720352173,-0.9168784618377686,0.6946016550064087,-0.34981846809387207,-0.2556445300579071,-0.3942078649997711,-0.5263902544975281,-0.7238127589225769,-0.8725031614303589,-0.2510530352592468,0.32201671600341797,0.4188934862613678,-0.03352677449584007,0.6055935025215149,0.003285661805421114,0.4075116515159607,-1.192391037940979,0.43540504574775696,-0.30159810185432434,0.030058084055781364,0.541113555431366,0.1451185643672943,-0.0328947938978672,0.38426297903060913,0.03128991648554802,0.26334795355796814,-0.05396576598286629,0.32397353649139404,-0.41758298873901367,0.5560541152954102,0.3801153898239136,-1.1455295085906982,0.35177353024482727,-0.2609485983848572,0.03895042836666107,0.34497469663619995,0.07048172503709793,-0.054266754537820816,-0.686385452747345,0.016413738951086998,0.7133836150169373,-0.10507538169622421,1.0096617937088013,-0.11636756360530853,-0.17679618299007416,-0.120104119181633,-0.07558193802833557,-0.06250333040952682,-1.0483012199401855,-1.052351713180542,1.1490517854690552,0.06228496879339218,0.9088186025619507,0.06562945991754532,0.7432504296302795,0.8192163705825806,-0.28249019384384155,-0.008481967262923717,-0.015207781456410885,0.7925218343734741,1.3316510915756226,0.879997193813324,0.6172855496406555,0.023673903197050095,-0.785949170589447,-0.24152787029743195,1.0249930620193481,-1.8803753852844238,-0.8628616333007812,-0.8087281584739685,-0.16461756825447083,-0.5924792289733887,0.22504276037216187,0.1164514422416687,-0.13364277780056,-0.03278440237045288,-0.39939141273498535,0.9745723009109497,-0.45321542024612427,-0.11524957418441772,-0.08649258315563202,-0.9577979445457458,0.03889387473464012,0.3493484556674957,1.228875994682312,0.9065361618995667,-0.4876948297023773,-0.8007133603096008,-0.6607899069786072,0.6323546171188354,-0.3918868601322174,0.5004680752754211,0.9123958349227905,-0.02378060482442379,0.5791345834732056,-1.0583416223526,0.7239382863044739,0.7450404763221741,0.5693132877349854,-0.30818381905555725,0.09144584834575653,0.7262592911720276,-1.4716492891311646,0.18629209697246552,-0.13196206092834473,1.0176537036895752,0.6758458018302917,0.348023384809494,-0.963726282119751,0.3662753701210022,0.6819093227386475,0.05720179155468941,0.6698427200317383,0.6602756381034851,0.3194925785064697,-0.3228189945220947,-0.04773269593715668,-0.006234816275537014,0.4348108172416687,-0.4652349054813385,0.29544585943222046,-0.198494553565979,0.21704797446727753,-0.2577728033065796,0.27269142866134644,0.2326304018497467,-0.35764604806900024,-0.4414924383163452,-0.4667544662952423,-0.9580841660499573,0.606679379940033,0.2107580155134201,-0.48275208473205566,-0.2652819752693176,-0.06385722011327744,-0.3123400807380676,-0.03705243021249771,0.40199849009513855,-0.600227415561676,-0.6016567945480347,-0.05348154157400131,0.3136206865310669,0.7972165942192078,0.7208039164543152,0.6640411019325256,0.2194897085428238,0.02666568011045456,0.4693424701690674,0.5384023785591125,0.18107229471206665,0.0697251409292221,1.1772438287734985,0.5274675488471985,0.516732394695282,0.8029594421386719,0.6494152545928955,0.5916363000869751,-0.8183972835540771,0.9373252987861633,-0.18297064304351807,-0.5377790331840515,0.5506668090820312,-0.17835445702075958,0.8604514598846436,0.8987154960632324,0.6780930757522583,-0.4138309061527252,0.16772602498531342,0.11442451924085617,-0.3109350800514221,0.5017185211181641,-0.40855860710144043,0.8440560102462769,-0.15383277833461761,0.7558653354644775,-0.6320520639419556,-0.09752518683671951,0.10773737728595734,-1.7020212411880493,-0.8704831004142761,-0.7054898738861084,0.17954805493354797,0.1813189834356308,-0.4679122269153595,0.865078330039978,0.4728884696960449,-0.49370959401130676,0.46913209557533264,0.8256144523620605,0.6294970512390137,0.3075597286224365,-0.2637457251548767,-0.28566718101501465,-0.3272193968296051,-0.17797274887561798,-0.4057486951351166,0.2949632406234741,0.251010000705719,-0.6993628144264221,-0.47655123472213745,0.8586734533309937,0.34002774953842163,0.42372387647628784,-1.1253565549850464,-0.06566130369901657,-0.7588134407997131,0.35385072231292725,-0.24440474808216095,-0.16346028447151184,-0.5654920935630798,0.23038116097450256,0.39817196130752563,0.28247085213661194,0.4341318607330322,0.31190839409828186,0.3202103078365326,-0.5156972408294678,-0.6791010499000549,-0.01570749096572399,-0.16829244792461395,-0.5428431630134583,0.41098394989967346,-0.34193554520606995,0.9884123802185059,0.4473026692867279,0.14694511890411377,-0.07474712282419205,0.44093582034111023,0.026137251406908035,0.7537122964859009,0.1750144213438034,0.8087770938873291,-0.21394126117229462,0.4457285702228546,-0.04856416955590248,0.7465038895606995,-0.49863630533218384,-0.11707396060228348,-0.12907081842422485,1.1260234117507935,-0.002444129204377532,-0.44936099648475647,-0.1684025079011917,-0.25115588307380676,-0.48541003465652466,-0.6446818113327026,0.8386669158935547,-0.9684975743293762,-0.0640663206577301,-0.32463496923446655,-0.45576468110084534,0.38111355900764465,-0.14282946288585663,0.5821424126625061,-0.35702136158943176,-0.34019896388053894,-0.4526216387748718,0.31092071533203125,0.11701378226280212,0.5846534371376038,-0.05053247511386871,-0.8522425889968872,0.3354259133338928,-0.08449779450893402,0.8702591061592102,0.0698038712143898,-0.0933862030506134,-0.12224828451871872,-0.6694477200508118,0.21953792870044708,-0.21561017632484436,-0.46052277088165283,-0.16372868418693542,0.8762819170951843,-0.48608455061912537,0.3304552137851715,0.1989501714706421,1.4037419557571411,0.7083733081817627,-0.5518573522567749,0.28129667043685913,0.7570540308952332,-0.15428568422794342,-0.8225294947624207,-2.3796708583831787,-0.6577535271644592,-0.05736818537116051,-0.167685866355896,0.15654514729976654,0.5332829356193542,0.3951207399368286,-0.38368889689445496,-0.257955938577652,0.21262823045253754,0.5658788084983826,-0.39541637897491455,-0.21248023211956024,-0.2935636043548584,0.02412409335374832
碳,-0.6051046848297119,0.8398497104644775,-0.7518836855888367,-0.9209549427032471,-0.654924750328064,1.2960584163665771,-0.5465874671936035,-0.05475315824151039,-0.032760318368673325,-1.0375159978866577,0.6792763471603394,-0.5288656949996948,0.13588503003120422,-0.10040207207202911,-0.5372980237007141,-0.11259371042251587,-1.0986214876174927,0.9371723532676697,-0.9193525314331055,0.8866990804672241,1.62026846408844,0.1893908977508545,0.8219170570373535,1.8183138370513916,0.6195271611213684,-0.517856240272522,-0.20496444404125214,-0.2165708988904953,-0.5381460189819336,1.2585933208465576,0.339127779006958,0.833103597164154,0.8202115297317505,0.2315431833267212,-0.6060924530029297,0.9920193552970886,0.19766874611377716,-1.967020869255066,-0.3508058488368988,-0.6232655048370361,-1.1298069953918457,0.12426159530878067,0.2633390724658966,-0.12118525058031082,-1.1098216772079468,0.8915165662765503,0.9686472415924072,0.04503767564892769,-0.14609262347221375,-0.677287220954895,0.10277435928583145,-0.6563476324081421,0.16682343184947968,0.5136741399765015,0.15008248388767242,-0.17576438188552856,-0.9378487467765808,0.6005116105079651,0.6251704096794128,0.21029993891716003,0.042367685586214066,0.2352561205625534,0.1016855239868164,-0.6649222373962402,0.10574082285165787,0.19228853285312653,0.1398538202047348,-0.653275191783905,-0.3304259181022644,0.6735326051712036,-1.2446297407150269,-0.05504647269845009,-0.27178841829299927,-0.09999924898147583,0.010999307967722416,0.2947385609149933,0.3697456419467926,-0.5245659947395325,0.27429476380348206,-0.11048424243927002,-0.13136066496372223,0.7292113900184631,0.4442884624004364,-0.9558255076408386,-0.4457240700721741,0.1929258555173874,0.09277653694152832,-0.059638407081365585,-1.032734751701355,-0.14228878915309906,-1.0258398056030273,0.53542160987854,0.7657808661460876,-0.3370908498764038,1.0335994958877563,0.01457391306757927,-0.5432072281837463,0.7754639983177185,0.6264317631721497,-0.2670155465602875,0.28959253430366516,-0.4623229205608368,-0.21588076651096344,-0.06431029736995697,-0.04123283550143242,-0.21589995920658112,0.5703555345535278,0.327370285987854,0.07787803560495377,-0.796959400177002,-0.11344676464796066,-0.2502893805503845,0.47472864389419556,-0.8039145469665527,-0.6734761595726013,-0.8697167634963989,-1.2338062524795532,0.8834030032157898,-0.7771357297897339,0.9789915680885315,-0.21642053127288818,0.7020846605300903,0.19522468745708466,0.02994665689766407,-0.42760181427001953,-0.8271346688270569,1.1050316095352173,-0.389165997505188,1.5492819547653198,-0.7814836502075195,0.8541209101676941,0.35014212131500244,0.17008087038993835,-0.24064359068870544,-0.5281437635421753,-0.9391120076179504,-0.5548745393753052,1.2540024518966675,0.7370763421058655,0.21221612393856049,0.7195898294448853,1.0042978525161743,0.40202656388282776,1.0672118663787842,-0.3995636999607086,-0.49184176325798035,0.39530155062675476,-0.08417291939258575,1.0179551839828491,0.29593905806541443,0.982142448425293,0.6426953673362732,0.4294522702693939,-0.20108677446842194,-0.3804251551628113,0.1029634177684784,0.26465967297554016,0.8202286958694458,0.454829603433609,-0.3992062509059906,-0.049963291734457016,1.6632537841796875,-0.13398092985153198,1.2103079557418823,-0.6293363571166992,-0.053018685430288315,-0.1971132904291153,0.6045511960983276,-0.937042772769928,-0.9339799284934998,0.4474828243255615,-0.8926714062690735,-0.42077070474624634,-0.18592536449432373,-0.6223275065422058,0.28303346037864685,0.196180060505867,-0.34770601987838745,0.10945633798837662,-1.503083348274231,-1.2547624111175537,-0.310422420501709,-0.04245476797223091,-0.8265665173530579,0.12148470431566238,-0.00056482944637537,1.015431523323059,-0.3905605971813202,-0.0763784646987915,0.894684374332428,-0.12575139105319977,1.6464996337890625,-0.11143358051776886,-0.07509448379278183,0.7846551537513733,-0.7433201670646667,0.9534669518470764,0.017474910244345665,0.863723874092102,-0.15751735866069794,-1.138744831085205,0.48913946747779846,-1.0344551801681519,-0.6947106719017029,0.7957720756530762,0.034136828035116196,-0.09713487327098846,-0.022167576476931572,0.6929410696029663,-0.7498117685317993,-0.9509484171867371,-0.9717111587524414,0.05723395198583603,0.4925214648246765,1.0333837270736694,1.376960039138794,0.8368030190467834,-0.9994041919708252,-0.12195853143930435,0.7556579113006592,0.013249154202640057,0.169694185256958,-0.25525185465812683,-0.49879029393196106,-1.6190835237503052,-0.30697837471961975,0.22990821301937103,0.6782011389732361,-0.9313207268714905,-0.5905267000198364,-0.8685688376426697,1.045623779296875,-0.6425246596336365,-1.540601134300232,0.28016239404678345,-0.07260403037071228,0.25109076499938965,-0.3153279423713684,-0.38683855533599854,0.016840822994709015,-0.4667533338069916,-1.4833258390426636,0.09082378447055817,-0.44961655139923096,-0.4230283498764038,0.36325767636299133,0.732541024684906,-0.7357357740402222,0.11702119559049606,0.4141860008239746,0.48007383942604065,0.04562239721417427,-0.3263881206512451,0.3877546787261963,0.4559198319911957,-0.6765258312225342,0.7854795455932617,0.7315636873245239,-0.2756657004356384,0.2825077772140503,-0.06933268904685974,0.0342164970934391,0.9288598895072937,-0.29219189286231995,-0.36053022742271423,0.3908718526363373,-0.45215702056884766,-1.2720668315887451,-0.5221438407897949,-0.3327321708202362,-1.2616997957229614,0.12260807305574417,-0.12762580811977386,-1.5121155977249146,0.9829700589179993,-1.0718131065368652,-0.6625796556472778,0.4397597014904022,-0.07846049964427948,-0.8314201235771179,0.02289392799139023,0.10934188216924667,0.16690698266029358,0.12179556488990784,0.28103145956993103,-0.406345933675766,-0.05964282900094986,-0.21005208790302277,-0.6513617038726807,1.7495315074920654,-0.9714692234992981,0.8887811303138733,0.6583412289619446,0.4218006730079651,-0.24676591157913208,-0.48511171340942383,-1.7372381687164307,-0.1593567281961441,0.2785607576370239,0.264071524143219,-0.6509469747543335,-1.367570161819458,0.2943328320980072,0.13468404114246368,0.11616019904613495,1.5033143758773804,-0.49490126967430115,-0.4170924127101898,0.2438569813966751,-0.44872766733169556,-0.4835221469402313,0.9959056377410889,-0.044360172003507614,-0.33387628197669983,-0.25829967856407166,0.022133341059088707,0.031081242486834526,-0.42064613103866577,0.4983326196670532,-0.06224516034126282,-0.05194559320807457,-0.259165495634079,0.08644532412290573,0.24519774317741394,1.5071971416473389,0.8266786932945251,0.37827181816101074,0.21542491018772125,-1.0001267194747925,-0.3180287182331085,1.1547435522079468,-0.012314739637076855,-0.5138314962387085,0.24429436028003693,0.9369416832923889,-0.4294348359107971,-0.3710414171218872,-0.04942009970545769,0.04588620364665985,0.3167029023170471,0.8903351426124573,-0.33152860403060913,0.49671080708503723,0.8650194406509399,-0.5922924280166626,-0.3956073820590973,-0.22852638363838196,0.12187211960554123,-1.1912544965744019,0.42825719714164734,0.4786345064640045,-0.7974161505699158,0.9033752679824829,0.7522653937339783,0.6436479091644287,-0.1868521273136139,-0.8609662652015686,-0.5009992122650146,-0.02541673369705677,-0.06445600092411041,0.3536316752433777,1.253787875175476,-0.5674127340316772,0.1968507319688797,0.20772720873355865,0.9437062740325928,0.6120879650115967,0.9424063563346863,0.7450265884399414,-0.10618866235017776,1.4216746091842651,0.6642907857894897,0.0987994521856308,-1.2223068475723267,0.13050945103168488,-0.3359074592590332,1.5146158933639526,-0.022746670991182327,0.3322206735610962,-0.3466615378856659,-1.4742151498794556,0.241186261177063,-0.9225708842277527,0.6154631972312927,-0.42434826493263245,-0.8522297143936157,-0.9110008478164673,-0.014660877175629139,1.2428277730941772,-0.43333694338798523,-0.19424626231193542,1.059523105621338,-0.0771808922290802,0.9862117171287537,0.15777263045310974,0.4327906370162964,-0.05857658013701439,-0.637817919254303,-0.5990152359008789,-0.3442704975605011
例子,0.39001643657684326,-0.5587223172187805,-0.7103252410888672,0.7111390233039856,0.05399105325341225,-0.2140880674123764,-0.17944037914276123,0.05098496749997139,0.05262816324830055,-0.31246915459632874,-0.15979942679405212,-0.03607332333922386,0.11833856999874115,0.18302187323570251,0.1460879147052765,-0.3492911756038666,-0.8451715111732483,0.30927401781082153,-0.33222001791000366,0.3919956386089325,-0.49577322602272034,0.17933449149131775,0.43697813153266907,-0.03375275805592537,0.31857940554618835,-0.33776411414146423,1.2765291929244995,0.9337047934532166,-0.6119785904884338,0.8778151273727417,-0.518776535987854,-0.6310616731643677,-0.07933902740478516,-1.5670716762542725,-0.12357459217309952,0.22542253136634827,0.676591694355011,-0.24117350578308105,0.19048316776752472,-0.472465842962265,-0.9692137241363525,0.47211018204689026,0.6213122010231018,-0.5434086322784424,0.08172145485877991,-0.5184851884841919,-0.6873709559440613,-0.33763036131858826,-0.1702846884727478,0.5147281885147095,0.26712939143180847,-0.5132212042808533,-0.40643832087516785,1.1460381746292114,0.282733291387558,-0.261435866355896,0.3076171576976776,-0.30259019136428833,0.000796334003098309,0.2731865346431732,0.3765603005886078,-0.20095673203468323,0.8281455636024475,-0.1909027099609375,0.023887058719992638,-0.7839686870574951,-0.9106757044792175,0.2594888508319855,-0.2004421353340149,0.6537672877311707,-1.0270954370498657,0.5439388751983643,-0.9540985226631165,-0.028452612459659576,-0.08656545728445053,0.18228700757026672,-0.006472231354564428,-0.5263086557388306,1.0875244140625,-0.2094992697238922,0.19255468249320984,0.21889528632164001,-0.1820024698972702,-0.5716463327407837,-0.14463530480861664,-1.0530720949172974,-0.45008406043052673,0.06942823529243469,-0.16485299170017242,-1.4633077383041382,-0.1126512885093689,-0.4244283437728882,-0.14923182129859924,-0.22121699154376984,0.03074679709970951,0.34144139289855957,0.36806267499923706,0.5065439343452454,0.09687742590904236,-0.34482207894325256,0.6954277753829956,0.27720317244529724,-0.6060576438903809,-0.059101466089487076,-0.393855482339859,-0.47801756858825684,0.3643580675125122,-0.932205855846405,-0.9761905074119568,-0.9875950217247009,0.44321537017822266,0.33002087473869324,2.0071098804473877,0.04372689500451088,1.427252173423767,-0.2637954652309418,-0.2877212166786194,-0.8480762839317322,1.0581321716308594,1.0692534446716309,-0.6086247563362122,0.39255490899086,0.6708970069885254,0.3977918326854706,1.546301245689392,-0.49757543206214905,0.22717659175395966,-0.2916259765625,-0.34385961294174194,-0.5799614787101746,0.5326309204101562,-0.8727895021438599,-0.5294064283370972,-0.20550814270973206,-0.6308907270431519,0.28794506192207336,-0.5427488684654236,-0.19200876355171204,-0.11239350587129593,0.7326387166976929,0.9766904711723328,0.8900045156478882,-0.3183586299419403,0.7832555174827576,0.5464446544647217,0.3237561881542206,-0.6648242473602295,0.6425513029098511,0.4984810948371887,-1.638175129890442,-0.6101672649383545,1.3785505294799805,-0.0559052936732769,0.4479422867298126,-0.26263293623924255,-0.27319493889808655,0.6310058236122131,0.07230812311172485,0.1588113009929657,-0.22561179101467133,0.30136725306510925,0.38328590989112854,0.3176223337650299,0.5963760018348694,-0.07960144430398941,-0.5379050970077515,0.4290647804737091,0.5138853192329407,-0.2799052894115448,-0.8406079411506653,-0.7258536219596863,-0.9532644748687744,-0.5369792580604553,-0.20618073642253876,0.006288190837949514,0.4043590724468231,-0.957341194152832,-0.46529656648635864,0.11142072081565857,-0.7531245946884155,-0.18561632931232452,-0.3282923996448517,0.5806068181991577,0.2135765701532364,0.5835126638412476,0.4042176306247711,0.6362499594688416,-0.14351944625377655,0.7637737989425659,-0.40537410974502563,0.19556134939193726,-0.7514139413833618,0.22382552921772003,-0.4615311026573181,0.2706836462020874,-0.2535026967525482,-0.8267380595207214,0.4542493522167206,0.21896512806415558,0.32318049669265747,0.10530031472444534,-0.9751392006874084,0.2282213568687439,-0.8585094213485718,-0.43443453311920166,-0.06869809329509735,0.8848517537117004,1.2323477268218994,-0.3301355242729187,-0.7797686457633972,-0.5887708067893982,-0.3532772362232208,0.047749437391757965,0.8611066937446594,0.43661537766456604,0.18121488392353058,-0.40392085909843445,0.8885452747344971,-0.694047749042511,0.15200680494308472,-0.3331952691078186,0.5076783895492554,-1.0885522365570068,0.7609602808952332,-0.8028457164764404,-1.5629948377609253,0.27644312381744385,0.21287383139133453,-0.1833985596895218,-0.7594225406646729,-0.7713212966918945,-0.11234425008296967,-0.03694635257124901,-0.23030471801757812,0.8113333582878113,-0.2640220522880554,-0.5562744736671448,-0.8841013312339783,-0.4934569001197815,0.27344539761543274,-0.4088415801525116,-0.5807263851165771,-0.17143061757087708,-0.31902381777763367,0.23155537247657776,-0.031547196209430695,-0.609472930431366,-0.11292283236980438,1.4100415706634521,0.09558746963739395,0.20220549404621124,-0.9419237375259399,0.4100017547607422,0.2638257145881653,0.5281921625137329,0.21065399050712585,0.33808568120002747,-0.28339236974716187,-0.8074200749397278,1.2513293027877808,0.3065110445022583,-0.5919584035873413,0.15241150557994843,0.030730092898011208,-0.1573125272989273,-0.014191821217536926,1.2554353475570679,0.4252378046512604,0.264595091342926,-0.5054538249969482,-1.0993555784225464,0.44111230969429016,-0.4200170338153839,0.9914040565490723,0.7352979183197021,-0.3785107433795929,-1.34420645236969,0.7565277218818665,-0.05202991142868996,-1.1377415657043457,-0.3833230435848236,-0.10330403596162796,0.18874265253543854,0.10422579944133759,-0.0701948031783104,-0.07201642543077469,-0.19786375761032104,0.059733789414167404,0.14134901762008667,0.5546481013298035,0.6951016783714294,0.6923274397850037,-1.1448452472686768,-0.4502275884151459,-0.8481968641281128,0.11274595558643341,-0.4352596402168274,0.6095984578132629,0.23615510761737823,-0.9680768251419067,0.3531208038330078,0.13088364899158478,0.21809552609920502,-0.6054883003234863,-0.46504339575767517,-0.32990580797195435,-1.3196324110031128,0.1954747438430786,-0.7117379307746887,0.10235520452260971,-0.5132444500923157,-0.5146817564964294,-0.20682179927825928,0.11726423352956772,-0.09513381123542786,0.06337196379899979,0.4227138161659241,0.06807209551334381,-0.48299214243888855,-0.5010123252868652,0.5596497654914856,0.5249553918838501,0.7926332950592041,0.7145646810531616,0.294572114944458,0.09045671671628952,0.03306270390748978,1.0208860635757446,-0.8559777736663818,0.9797884225845337,0.6110804677009583,0.11640708148479462,0.3017081320285797,-0.04080289602279663,-0.5735264420509338,-0.25582772493362427,-0.5227562189102173,0.12183420360088348,1.3697727918624878,-0.19623132050037384,0.18699321150779724,-0.500007152557373,0.5012469291687012,-0.8291015625,0.4643881320953369,0.005381028167903423,-0.6278920769691467,1.1369930505752563,-0.7806566953659058,-0.3174077570438385,0.03615494444966316,0.33303940296173096,0.4872100055217743,-0.2776002287864685,0.36078426241874695,0.1747250109910965,-0.40689411759376526,0.02728639729321003,-0.1284494400024414,0.5151801705360413,-0.12022422254085541,1.059463620185852,-0.664977490901947,-0.6090261340141296,0.9843790531158447,0.5573127269744873,0.18309636414051056,0.11489822715520859,-0.21818257868289948,-0.7990512251853943,0.43353793025016785,0.3285439908504486,-0.36230647563934326,-0.625281035900116,0.6791059374809265,0.6309283375740051,-0.25151732563972473,0.042246103286743164,0.8246258497238159,1.4430384635925293,0.08407054096460342,0.5697060227394104,-0.10866887867450714,-0.4904607832431793,0.15793870389461517,-1.5295227766036987,-0.9743831157684326,-0.35310620069503784,0.26242783665657043,1.0230028629302979,0.36171650886535645,0.2506626844406128,-0.0744282528758049,0.3181830942630768,-0.06596734374761581,1.3861243724822998,-1.094214677810669,-1.1340053081512451,-0.10270511358976364,-0.30450305342674255
分析,-0.2730129063129425,0.5354190468788147,0.27394381165504456,0.22910574078559875,-0.31525465846061707,0.6999172568321228,-0.7302040457725525,-0.13511638343334198,0.3985433876514435,-0.031125295907258987,0.1722695231437683,-0.05979665368795395,0.5550709366798401,-0.7901843786239624,0.366094172000885,1.0421746969223022,0.8949604630470276,-0.5660477876663208,0.9191175699234009,0.774116039276123,-0.759922206401825,0.449234277009964,0.18188607692718506,0.9011358618736267,0.12057430297136307,-0.6585330963134766,-0.5547668933868408,-0.3812798857688904,-0.4736591875553131,0.7274824976921082,0.28279244899749756,-0.27329355478286743,1.2188441753387451,-0.30020439624786377,0.7105799913406372,-0.004380755126476288,-0.06266015768051147,-1.3538602590560913,-0.35179853439331055,-0.1541520655155182,0.27313801646232605,0.03147587552666664,0.6843748092651367,-0.2563227415084839,-0.19304616749286652,-0.15260542929172516,0.49297013878822327,-0.6314971446990967,0.8340519666671753,0.36441200971603394,-0.24557434022426605,-0.7533696889877319,-0.7426221966743469,1.009101390838623,-0.8016763925552368,-0.5588523149490356,0.9259837865829468,-0.8495431542396545,-0.011338760145008564,0.755344808101654,0.8079423904418945,0.06882604956626892,1.592756748199463,-0.5783615112304688,-0.8377348780632019,0.31837472319602966,-0.3106999695301056,-0.0873323455452919,0.2561929225921631,0.47798365354537964,-0.9117481708526611,-1.5989981889724731,-0.654342770576477,0.1530262678861618,0.8357439041137695,0.2087564915418625,1.1440236568450928,-0.027487128973007202,-0.3306623101234436,-0.045286476612091064,0.1954091191291809,-0.348569393157959,-0.05290381982922554,-1.0524846315383911,0.13976508378982544,-0.62271648645401,-0.5789989829063416,-0.5237758755683899,-0.14836888015270233,0.4450104832649231,-0.3168898820877075,0.2215755432844162,-0.28311362862586975,-0.4273078143596649,0.014939749613404274,-0.4083503186702728,-0.04519428685307503,0.6821190118789673,0.6044442653656006,0.7547556757926941,-0.8168851733207703,-0.3157975673675537,-1.1920685768127441,0.3695438504219055,0.7069824934005737,0.21410375833511353,0.03248237445950508,-0.4270418584346771,-0.23920069634914398,-0.655534565448761,0.4685012996196747,0.5577659606933594,0.23753756284713745,-0.1728954166173935,-0.6988714337348938,-0.04869592934846878,0.06182056665420532,-0.576694667339325,-0.5073285698890686,0.6917890906333923,-0.8455355763435364,0.06544966995716095,0.15087197721004486,-0.11974095553159714,0.4034906029701233,0.5481756329536438,-0.5043497085571289,0.29423558712005615,0.7996751666069031,-1.0127544403076172,0.527967631816864,0.9324500560760498,-1.1040153503417969,-0.6176156997680664,-0.7410257458686829,0.8221171498298645,-0.5302865505218506,0.6591293811798096,-0.043631505221128464,-0.4874824285507202,-0.15970361232757568,-0.16896557807922363,-0.45912352204322815,0.524960994720459,0.27113762497901917,-0.4284425377845764,-0.45492950081825256,-0.8377234935760498,0.04928210377693176,0.03698323294520378,-0.18423722684383392,0.17544390261173248,0.20500856637954712,0.9713418483734131,0.04905806854367256,0.032196223735809326,0.14146734774112701,-0.10878158360719681,0.6298746466636658,0.3967413604259491,0.2579022943973541,1.0653212070465088,0.11971106380224228,0.38199660181999207,-0.023409659042954445,-1.4086097478866577,-0.4912583529949188,-0.20058314502239227,0.1702606976032257,-0.5437537431716919,-0.029987769201397896,0.4440643787384033,-0.7467055916786194,-0.7560100555419922,-0.23112939298152924,-0.10469821095466614,0.8821018934249878,-0.21092571318149567,0.47108322381973267,0.16003811359405518,-0.6851081848144531,-0.4000047445297241,-0.2906349301338196,0.0481918640434742,0.1407311111688614,0.46339744329452515,0.028943033888936043,0.5165056586265564,0.44398489594459534,0.15051685273647308,0.5771874189376831,-0.18091464042663574,-0.13634850084781647,0.5984429121017456,0.3751929700374603,-0.2889162302017212,-0.043838564306497574,0.19003885984420776,1.0475056171417236,0.24491296708583832,0.465413898229599,0.5022585391998291,-0.2617531418800354,-0.3509407937526703,0.3739068806171417,0.29244911670684814,0.16047637164592743,0.4647189974784851,1.0276542901992798,-0.004157963674515486,0.9305262565612793,-0.22394400835037231,0.20936673879623413,-0.3527694046497345,0.34760552644729614,0.003552855923771858,-0.41717907786369324,0.6278663277626038,-0.1918925642967224,0.2568266689777374,-0.367654025554657,0.43800827860832214,-0.8081956505775452,0.4602411389350891,0.3648761212825775,-0.7206544876098633,-0.3964466452598572,0.03363904356956482,-0.5056068897247314,-0.32034435868263245,-0.8188516497612,0.39248383045196533,0.30688825249671936,-0.1490408033132553,-0.11670161783695221,-0.25100550055503845,-0.2811642587184906,0.29779595136642456,0.16973327100276947,0.6005026698112488,-0.7987089157104492,0.10837201774120331,-0.10959088057279587,0.40624624490737915,0.14925402402877808,-0.14920327067375183,0.6425284147262573,-0.6531362533569336,1.0508376359939575,0.41576555371284485,0.25847938656806946,-0.12699003517627716,-0.42265552282333374,-0.540915310382843,0.8994937539100647,0.6712974309921265,0.44360819458961487,-0.8479102849960327,0.7438638210296631,0.480991393327713,0.7945799827575684,-0.45267900824546814,-0.1513654738664627,0.8915690183639526,0.7880359292030334,0.591549813747406,-0.46541327238082886,-1.2002216577529907,0.3452911972999573,0.08470723032951355,-0.29668164253234863,-0.15683390200138092,-0.6397331953048706,0.7988527417182922,0.16914281249046326,-0.04258275777101517,0.04733450710773468,0.20346806943416595,0.05091879516839981,-0.2854614555835724,-0.7363966703414917,0.28663286566734314,0.6023337244987488,-1.0479414463043213,0.22834600508213043,0.003635777859017253,0.9132662415504456,0.29864999651908875,0.013085547834634781,0.09020878374576569,1.3778249025344849,-0.3363773822784424,0.040453679859638214,-0.031162861734628677,-0.17450255155563354,-0.862086296081543,-0.14123083651065826,0.631939709186554,0.08091235160827637,0.06191381812095642,0.012903925962746143,0.7530303001403809,0.34480220079421997,-0.42362380027770996,-0.31329336762428284,-0.8678468465805054,-0.3054415285587311,0.0669536143541336,0.5927153825759888,-0.7181255221366882,-0.2753884792327881,0.6025151014328003,0.27144551277160645,-0.14839105308055878,0.5738112926483154,-0.0646219551563263,0.14722676575183868,0.3390117585659027,0.5184493660926819,-0.7408676147460938,0.3301418721675873,-0.41187795996665955,-0.32773202657699585,-0.20623189210891724,-0.023147650063037872,0.05546316131949425,0.3436993360519409,-0.03407813608646393,0.6332452297210693,-0.19663889706134796,0.8890408277511597,-0.1359395682811737,-0.05095061659812927,-0.8247378468513489,-0.47883883118629456,-0.6096115708351135,0.4497348368167877,0.519928514957428,-0.5036073923110962,-0.18308426439762115,0.5744150280952454,1.2615281343460083,0.19959206879138947,-0.14823009073734283,0.24118834733963013,0.06974467635154724,-0.19595865905284882,-0.354397177696228,-0.7931317090988159,-0.26472845673561096,0.8985474109649658,-1.0912904739379883,0.2563413679599762,0.349558562040329,0.6918641328811646,0.5737160444259644,-0.22073310613632202,0.13217978179454803,0.6630882620811462,-0.3852778673171997,0.5435131192207336,0.1797531098127365,-1.6956288814544678,0.5654287934303284,0.771638035774231,0.5429075360298157,-0.04874453693628311,0.3368120491504669,0.5989038348197937,0.2470257580280304,0.169317826628685,-0.22047159075737,0.49318021535873413,0.3007006049156189,-0.12302090227603912,0.15959663689136505,-0.11234881728887558,0.11140024662017822,0.6456579566001892,0.6618415117263794,-0.177572563290596,0.07158458232879639,0.06832056492567062,-1.3337781429290771,0.044591739773750305,-1.4623392820358276,-0.07737717777490616,0.0482034794986248,0.39793726801872253,0.6408358216285706,0.669992208480835,0.4714711010456085,0.1113537922501564,0.39612847566604614,0.6012746095657349,1.075292944908142,-0.20248480141162872,-0.022688772529363632,-1.3822548389434814,-1.3592115640640259
