word,0,1,2,3,4,5,6,7,8,9,10,11,12,13,14,15,16,17,18,19,20,21,22,23,24,25,26,27,28,29,30,31,32,33,34,35,36,37,38,39,40,41,42,43,44,45,46,47,48,49,50,51,52,53,54,55,56,57,58,59,60,61,62,63,64,65,66,67,68,69,70,71,72,73,74,75,76,77,78,79,80,81,82,83,84,85,86,87,88,89,90,91,92,93,94,95,96,97,98,99,100,101,102,103,104,105,106,107,108,109,110,111,112,113,114,115,116,117,118,119,120,121,122,123,124,125,126,127,128,129,130,131,132,133,134,135,136,137,138,139,140,141,142,143,144,145,146,147,148,149,150,151,152,153,154,155,156,157,158,159,160,161,162,163,164,165,166,167,168,169,170,171,172,173,174,175,176,177,178,179,180,181,182,183,184,185,186,187,188,189,190,191,192,193,194,195,196,197,198,199,200,201,202,203,204,205,206,207,208,209,210,211,212,213,214,215,216,217,218,219,220,221,222,223,224,225,226,227,228,229,230,231,232,233,234,235,236,237,238,239,240,241,242,243,244,245,246,247,248,249,250,251,252,253,254,255,256,257,258,259,260,261,262,263,264,265,266,267,268,269,270,271,272,273,274,275,276,277,278,279,280,281,282,283,284,285,286,287,288,289,290,291,292,293,294,295,296,297,298,299,300,301,302,303,304,305,306,307,308,309,310,311,312,313,314,315,316,317,318,319,320,321,322,323,324,325,326,327,328,329,330,331,332,333,334,335,336,337,338,339,340,341,342,343,344,345,346,347,348,349,350,351,352,353,354,355,356,357,358,359,360,361,362,363,364,365,366,367,368,369,370,371,372,373,374,375,376,377,378,379,380,381,382,383,384,385,386,387,388,389,390,391,392,393,394,395,396,397,398,399
礼,1.2279802560806274,1.4809184074401855,-0.7834829688072205,-0.7759964466094971,0.7838832139968872,-0.42037537693977356,-0.5210830569267273,0.2304384857416153,-1.5825774669647217,0.15195868909358978,-0.7657904624938965,0.23991085588932037,-0.3005487322807312,-1.8728318214416504,0.6783133745193481,-0.8413009643554688,-0.001815238269045949,-0.5354281067848206,-1.0382490158081055,-0.46506789326667786,0.8855530023574829,0.25846877694129944,0.07703839987516403,0.029191244393587112,0.5107899904251099,1.3312493562698364,1.0362460613250732,-0.886951208114624,0.9631891846656799,-1.2752434015274048,0.35708579421043396,-0.13203586637973785,-0.5671093463897705,0.04961596056818962,0.10502459853887558,0.07992351800203323,0.709444522857666,-0.27655959129333496,0.4646357297897339,0.06156234070658684,0.09102502465248108,-1.2280193567276,-0.03796131908893585,-0.6355519890785217,0.7033497095108032,-0.5148729085922241,0.18228134512901306,0.5959265828132629,-0.8176044225692749,0.9749343395233154,0.6173691153526306,0.004810793325304985,-0.3000624477863312,-0.7500408887863159,-0.029760554432868958,0.8016176819801331,0.39266765117645264,-0.9616204500198364,0.036211274564266205,0.7868631482124329,0.16678445041179657,0.11134586483240128,-0.4660680592060089,-0.2555113732814789,0.19105400145053864,-0.10096291452646255,-0.107608363032341,-1.52541983127594,0.34604305028915405,-0.3014686703681946,-0.7779240608215332,-0.09410833567380905,-0.05779702216386795,-0.5129257440567017,-0.5967706441879272,-0.04510531947016716,-0.40520626306533813,-0.06885210424661636,-0.3777698278427124,0.2752726376056671,1.4511165618896484,-0.043546583503484726,-0.05203414708375931,0.9220403432846069,-0.20118246972560883,-0.43906307220458984,-0.8012903928756714,-0.4273468852043152,1.286831259727478,0.617911696434021,0.16287542879581451,0.5466330647468567,-0.5432882308959961,0.38136497139930725,0.8709332346916199,0.1405767798423767,0.24538065493106842,-0.07617700099945068,-0.3328112065792084,-0.11966314166784286,-1.1299952268600464,-0.4478164315223694,-0.6440853476524353,0.3776392936706543,-0.9249493479728699,-0.6602429747581482,-1.5325535535812378,-0.035445958375930786,-0.14679846167564392,-0.9033881425857544,0.04933639615774155,1.8301907777786255,0.21465618908405304,-0.26517948508262634,0.14108113944530487,-1.236646294593811,-0.42427554726600647,0.08003577589988708,0.2767198383808136,-1.4955161809921265,0.6251809597015381,-0.4836703836917877,0.014093820936977863,-0.6036100387573242,-0.9887546896934509,0.16548313200473785,-0.025591621175408363,-0.12936407327651978,-0.2649712860584259,0.03393837809562683,1.6502678394317627,-0.3635968565940857,-0.4293246865272522,-0.5443637371063232,1.480353832244873,-0.3143899440765381,0.24174046516418457,0.3157750070095062,0.6359965205192566,-0.1847769170999527,0.5987101197242737,-1.2433581352233887,-0.15928368270397186,0.6014480590820312,-0.06525341421365738,0.11504464596509933,1.087066411972046,-0.0461917407810688,0.4098765254020691,-0.4770907163619995,0.5430460572242737,0.43260979652404785,-0.024591196328401566,0.04837135598063469,-0.7490412592887878,-0.760292649269104,-0.2040698528289795,1.0280389785766602,-0.07303119450807571,-0.8525859117507935,0.3469109833240509,-0.47104334831237793,-0.9274015426635742,-0.17929008603096008,0.648324191570282,0.17480304837226868,0.6381462216377258,-0.024205924943089485,-0.0915476456284523,0.045374587178230286,0.16809676587581635,-0.5206934213638306,-0.7399647235870361,0.5685495138168335,1.2831884622573853,0.6234771013259888,0.17697200179100037,-0.19001029431819916,-1.0065257549285889,0.25020450353622437,-0.07606440037488937,-0.7902435064315796,0.5538501739501953,0.46757078170776367,-0.17047236859798431,0.6776010990142822,-0.21413855254650116,0.7714836597442627,0.13094137609004974,-0.04444669932126999,-0.4586641788482666,-0.07332130521535873,-0.6924203038215637,0.4370768666267395,-0.38706693053245544,1.076273798942566,-0.2143649011850357,0.04692158102989197,-0.42669257521629333,-0.3844538629055023,0.9501384496688843,0.05359721928834915,1.0942729711532593,0.0353703536093235,0.6536722779273987,0.7980403900146484,-0.9429821372032166,0.40981507301330566,0.33119454979896545,-0.15885038673877716,-0.5200738310813904,-0.04439586400985718,0.14020778238773346,0.11763967573642731,0.10209298133850098,0.8854947686195374,0.7993087768554688,-1.0430195331573486,-0.5093995332717896,0.49871590733528137,-0.31763747334480286,-0.8107407093048096,-0.1713450700044632,-0.2531787157058716,-1.0501850843429565,0.5629788041114807,0.17669834196567535,0.9439347982406616,-0.38457515835762024,-0.6577574014663696,0.055192265659570694,0.3164340555667877,1.0276086330413818,0.8258835673332214,-0.26399344205856323,0.34818193316459656,-0.6788867115974426,-0.6543980836868286,-0.438282310962677,0.11164844781160355,0.25619766116142273,-0.0609978586435318,-1.0788899660110474,-0.14218026399612427,-0.5027324557304382,-0.0835704579949379,0.08633045107126236,0.42645466327667236,-0.154860258102417,0.977763295173645,0.061571136116981506,0.7434685230255127,0.13658244907855988,-0.5392020344734192,1.8698962926864624,0.01700158603489399,-0.578376054763794,-0.7354573011398315,-0.5825031995773315,0.9812914133071899,-0.7322830557823181,0.4693368077278137,-0.3092496693134308,1.1111843585968018,-0.4217698872089386,-0.4870125353336334,0.3395457863807678,0.20820151269435883,-0.11728015542030334,-0.808524489402771,0.9223867654800415,-0.03635925427079201,0.3789920210838318,1.0928758382797241,-0.8452405333518982,0.5256175398826599,1.2682061195373535,0.23570296168327332,-0.7169913649559021,-1.329715609550476,-0.7873218059539795,0.3134296238422394,-0.9050822854042053,0.8066941499710083,-0.13928773999214172,0.31333616375923157,-0.058444853872060776,0.36344394087791443,-0.22805844247341156,0.14006443321704865,-0.11212514340877533,0.2592531144618988,-0.3519758880138397,-0.46125155687332153,-0.8028738498687744,0.5532987117767334,1.1458196640014648,-2.496351480484009,0.32117894291877747,0.47155988216400146,-0.16239126026630402,-0.2066146284341812,0.8641687035560608,0.09015452116727829,-0.13391615450382233,-0.6926462054252625,0.42732352018356323,-0.7213419079780579,-1.2247977256774902,0.5588763952255249,-0.9412141442298889,0.8350938558578491,0.4851585328578949,-0.7157261967658997,-0.31922459602355957,0.12796609103679657,0.1307043731212616,-0.6755610108375549,0.18249446153640747,1.0769801139831543,-0.264924019575119,0.3802777826786041,-0.13712334632873535,-0.6276571154594421,0.11149195581674576,-0.7693527340888977,-0.06902928650379181,0.3903845548629761,1.518190622329712,0.2219526767730713,0.3166084587574005,-0.43871524930000305,-0.0485859140753746,1.382928490638733,0.8660762906074524,0.31286484003067017,0.01051612664014101,-0.08047394454479218,-1.1092931032180786,0.10645376145839691,-0.2721098065376282,-0.1363532841205597,0.17388126254081726,-1.0115176439285278,0.6080649495124817,-0.797270655632019,-0.7241508364677429,1.092616081237793,-1.3384783267974854,0.09061147272586823,0.49084827303886414,0.1282397359609604,0.259304940700531,0.7297505736351013,-1.6383863687515259,-0.3100643754005432,0.4978877007961273,-0.4850587546825409,-0.2156248241662979,-0.4081602990627289,-0.15073516964912415,0.2920299470424652,0.6238269805908203,1.349834680557251,-0.24864859879016876,-0.6459818482398987,-0.20551609992980957,-0.03549505025148392,-0.9909681677818298,-0.021315274760127068,-0.41594991087913513,-0.7379652857780457,-0.06723839789628983,0.855035662651062,0.0861656665802002,-0.298438161611557,-0.39558306336402893,0.008665639907121658,-1.1714355945587158,-0.05631321296095848,0.13779009878635406,0.5002111792564392,-0.4099510908126831,0.3207508325576782,0.11066299676895142,-0.2868191599845886,0.06335707008838654,-0.5983844995498657,0.06251310557126999,-0.19034798443317413,0.3576188087463379,-0.8201027512550354,-0.5662264227867126,-0.5595297813415527,-0.9395278096199036,-0.8163349032402039,0.363176554441452,-1.211288332939148,0.17695528268814087,-0.4639531970024109
电磁波,-0.39338287711143494,-0.33608511090278625,-0.43597501516342163,0.23145802319049835,-0.7698085308074951,0.6827759146690369,-0.07682404667139053,0.1465248465538025,0.5823802351951599,2.0675275325775146,-0.0733342170715332,0.8345970511436462,0.3792516887187958,-0.16840232908725739,-0.38020560145378113,-0.3621825575828552,0.7019519805908203,0.21717891097068787,0.04637337476015091,-0.11787309497594833,1.2712030410766602,0.7159762382507324,0.8967912793159485,0.38177254796028137,0.04044641926884651,0.7293928265571594,-0.6502683162689209,-0.5732183456420898,-0.3876323699951172,0.8486273288726807,0.6831809878349304,0.18564128875732422,1.329227328300476,-1.8867040872573853,0.5211299657821655,-0.4781404435634613,-1.1805486679077148,-0.6899207234382629,-0.9171262383460999,-1.12697434425354,-1.441672921180725,-0.28721508383750916,0.4187861382961273,0.17894132435321808,-0.3528907597064972,-0.9913917183876038,-0.5093337297439575,0.41196316480636597,-0.4867958426475525,0.12198425084352493,-0.8533582091331482,-0.5289523601531982,-0.3132702708244324,-0.6156043410301208,0.15916311740875244,1.0901693105697632,-0.07780078053474426,1.4415557384490967,-0.8097201585769653,0.4448623061180115,1.6900627613067627,-0.4595711827278137,0.1658039689064026,-0.3087148666381836,-0.429429292678833,1.285573124885559,-1.3674739599227905,-0.5786333680152893,1.033125400543213,0.9391864538192749,-0.585712730884552,0.1154537945985794,0.30017614364624023,-0.7137597799301147,0.7963681817054749,1.547410011291504,-0.013001144863665104,0.6879072189331055,0.7815477252006531,0.07821840792894363,1.1483219861984253,-0.36543336510658264,0.29933345317840576,-0.23332232236862183,-0.43870699405670166,-0.2753737270832062,0.05872806906700134,-1.0307248830795288,-0.09004062414169312,-1.4559704065322876,-0.6983583569526672,0.6357190608978271,-1.3821039199829102,-0.8665834069252014,-0.9247045516967773,-0.07986002415418625,0.9770848751068115,0.6072465777397156,-0.1674392819404602,-0.3611212372779846,-0.1233067587018013,-0.6272571086883545,0.39950478076934814,0.23749879002571106,-1.4653985500335693,-1.0622625350952148,0.7800474166870117,0.9320372343063354,-0.6738268733024597,-1.5905702114105225,-0.7545185685157776,-0.2197994738817215,0.8239137530326843,0.19549421966075897,1.4596219062805176,0.06064900755882263,0.9335033297538757,-0.3040629029273987,-0.1500411182641983,1.0038988590240479,-0.2649534046649933,2.916926145553589,-0.12387151271104813,-0.5695090293884277,0.6016815304756165,0.2614358365535736,-1.3357841968536377,0.0454050749540329,0.7334432601928711,0.14341744780540466,-0.003383064176887274,-0.14809107780456543,-0.44564288854599,1.2437084913253784,0.16486524045467377,0.06614484637975693,-0.8490192294120789,0.5058494806289673,0.6263175010681152,-0.2523883879184723,-0.15621399879455566,-0.05069904029369354,-1.0331838130950928,1.0492169857025146,0.821508526802063,-0.5962475538253784,-0.4494842290878296,-0.18419556319713593,-0.8326287865638733,0.043312083929777145,0.918539822101593,0.24760349094867706,-0.36830025911331177,2.0489351749420166,1.2115824222564697,0.6324732899665833,0.03739795833826065,0.6595710515975952,0.8460810780525208,0.6844276785850525,0.7669268846511841,0.13180068135261536,-0.08010251075029373,-0.8833532929420471,-0.13823658227920532,-0.748257577419281,-0.36060968041419983,-0.24865007400512695,0.2221537083387375,0.02093571051955223,-1.108866572380066,-0.28493133187294006,0.006428612396121025,-0.3596137464046478,-0.23883429169654846,0.11008056998252869,-0.4184899926185608,0.48326388001441956,0.2634906470775604,-0.7586086988449097,-0.7167165875434875,-0.927073061466217,0.8665969371795654,-1.1322230100631714,-0.46822795271873474,-0.047929052263498306,0.34379199147224426,-0.18892136216163635,-0.7579208016395569,-0.49006620049476624,1.1229947805404663,-1.6068716049194336,0.4165264964103699,-0.34114760160446167,0.3437551259994507,-1.3412184715270996,-0.18431438505649567,1.5852352380752563,0.48406803607940674,0.567356288433075,-0.14959801733493805,0.03689204901456833,-0.6004022359848022,0.1343563348054886,0.2831757962703705,0.16143490374088287,0.5860373377799988,1.8079679012298584,-0.5951246023178101,-0.6910732984542847,-0.06460189819335938,-1.203688621520996,-1.4961588382720947,0.12493443489074707,-0.05382512882351875,-1.5911914110183716,0.39966881275177,-0.14885978400707245,0.5240641236305237,0.5260463953018188,0.7770205140113831,0.28305238485336304,-1.0521996021270752,1.0223902463912964,-0.7042989134788513,0.554448664188385,0.6837184429168701,0.639434278011322,-0.3182394206523895,-0.22746942937374115,0.14599429070949554,0.3791520595550537,-0.1276187300682068,0.4504866898059845,0.27225276827812195,0.3619742691516876,-0.13949760794639587,-1.3108211755752563,1.1787981986999512,-1.2904295921325684,0.5008248686790466,0.36839282512664795,0.6075971722602844,0.3290401101112366,-0.1913108378648758,0.4021928310394287,0.9257873892784119,-0.042627964168787,1.0172450542449951,-0.4374222457408905,-0.270874559879303,-0.1309175342321396,1.572631597518921,0.308607280254364,1.423766016960144,-0.41335126757621765,0.223561629652977,-1.3101800680160522,0.10023917257785797,0.4611770808696747,0.22103628516197205,-1.2214993238449097,0.1987811177968979,0.1637590378522873,0.34968137741088867,-1.0584267377853394,-1.2767119407653809,-1.3652700185775757,0.23732566833496094,0.14247652888298035,0.2641126215457916,0.5209968686103821,1.1058720350265503,-0.7353209257125854,0.898925244808197,0.24187704920768738,-1.4191997051239014,0.37102267146110535,-0.41154745221138,-0.737444281578064,-0.5520159602165222,-0.4657449424266815,-0.002190558472648263,0.2248220592737198,0.3433662950992584,-0.4486600160598755,-0.2743332087993622,-0.3464531898498535,-1.3751355409622192,-0.7172371745109558,0.4467683434486389,0.0032899021171033382,0.38899561762809753,0.14163760840892792,-0.12241977453231812,0.24616733193397522,-0.17755815386772156,-1.1588304042816162,-0.9155139327049255,-0.4168917238712311,-0.4170721471309662,0.7493503093719482,-0.03713098168373108,-0.25061365962028503,-1.3106904029846191,-0.17798249423503876,0.1482081115245819,-0.015096168965101242,-0.6472193002700806,-0.11609877645969391,0.7765985727310181,-0.3661756217479706,0.4447042644023895,-0.004735575523227453,-0.7399556636810303,0.10659796744585037,-0.40657392144203186,-0.4321659207344055,0.6973360776901245,1.8215287923812866,1.0428439378738403,-0.7256399989128113,-0.5993179678916931,0.34953543543815613,0.07787259668111801,0.43391454219818115,1.1719834804534912,-0.14504374563694,0.06742342561483383,-1.0865474939346313,0.7401829957962036,0.1427905559539795,-1.367846965789795,-0.2568213641643524,-0.16942870616912842,0.15792346000671387,-0.5071598887443542,0.9129751324653625,-0.24187102913856506,-0.20278042554855347,1.6963305473327637,0.030563082545995712,2.333055019378662,-0.9538978934288025,-0.3776049315929413,-0.43679943680763245,-0.1456732302904129,0.6455945372581482,0.34101226925849915,-0.5007532238960266,0.24904796481132507,-0.39655011892318726,0.2796342670917511,-0.4468933343887329,0.06473572552204132,-0.4266677498817444,-0.9577093720436096,0.5801199078559875,-0.9609502553939819,-0.6966460347175598,0.3343569338321686,-0.3351075351238251,-0.5107340812683105,1.0949348211288452,-1.059116005897522,1.458014965057373,-0.6999045610427856,-0.6202172636985779,-0.47070541977882385,-0.5638101696968079,0.6925723552703857,-0.8733471035957336,0.1935793161392212,0.9483574628829956,0.39765018224716187,-0.07711741328239441,0.3436101973056793,1.3712302446365356,1.2334620952606201,-0.21530181169509888,-0.060566842555999756,-0.7244407534599304,0.43264591693878174,-0.5979501008987427,0.32374972105026245,-0.6970183849334717,-0.47662001848220825,0.13743117451667786,1.3169463872909546,-1.0504555702209473,0.10869753360748291,0.42520320415496826,0.16218213737010956,0.014921807684004307,0.2597700357437134,0.07851708680391312,0.40335243940353394,0.0977884829044342,-0.7082363963127136,0.9668184518814087
电脑,-0.8009408116340637,-1.1247014999389648,0.6208525896072388,-0.03815360739827156,-0.4642373025417328,0.30079185962677,0.3196166753768921,1.7243328094482422,-0.28010475635528564,-0.22675104439258575,1.2644336223602295,-0.9247367978096008,1.2419847249984741,0.5934563875198364,0.22840845584869385,-0.011262541636824608,1.056727647781372,-0.028150685131549835,0.1843498796224594,0.4050067961215973,0.10915730148553848,-0.05054553598165512,0.6077894568443298,-0.7763327360153198,-0.4127204716205597,0.0891023799777031,-0.8896352052688599,-0.24778614938259125,0.08798380941152573,0.0577278733253479,0.059996213763952255,-0.39138174057006836,0.5908879041671753,0.050267159938812256,0.2181737869977951,0.05356559529900551,0.7600464224815369,0.3657305836677551,0.507739245891571,-0.02277551405131817,-0.7256683111190796,-0.37819939851760864,0.6845912337303162,0.7647573947906494,-0.13347256183624268,0.5134817957878113,0.22229592502117157,0.36301615834236145,1.242051362991333,0.4665168523788452,-0.6160226464271545,-0.6901353597640991,-0.2872740626335144,0.747389018535614,-0.10796676576137543,0.5079970955848694,0.020824594423174858,-0.6350535750389099,0.4218002259731293,0.7747005820274353,1.2154521942138672,0.6484344601631165,0.4738559126853943,1.3708001375198364,-0.24829816818237305,0.4531361162662506,0.02920594997704029,-1.3908740282058716,-0.049650855362415314,0.6989265084266663,-0.1376948058605194,0.12907594442367554,-0.057551998645067215,0.19080007076263428,0.2747221887111664,1.0591614246368408,0.06858617067337036,0.676828920841217,1.3155566453933716,-0.3971487581729889,0.6014577150344849,-0.506980836391449,-0.1650702804327011,-0.392887145280838,-0.2773539423942566,0.5724266767501831,-0.16031984984874725,-0.42977508902549744,-0.12221753597259521,-1.0513362884521484,-0.5683799982070923,0.46329718828201294,-0.19193416833877563,-0.1867125928401947,0.4981535077095032,0.2636229395866394,0.3674774765968323,-0.003565874882042408,-0.2070128470659256,0.356626957654953,-0.6088273525238037,0.6284838318824768,-0.47016486525535583,0.2715948820114136,-0.5056256651878357,-0.8448408842086792,-0.47348904609680176,0.7829623222351074,0.47655755281448364,-0.32994747161865234,0.4430578649044037,0.305648535490036,0.4648463726043701,0.006672722287476063,0.30454567074775696,0.43557170033454895,-0.4422839879989624,-0.5458299517631531,-1.0358325242996216,0.14039446413516998,-0.5528831481933594,0.6925382614135742,0.2880903482437134,0.6486566066741943,-0.32077518105506897,0.10254421085119247,-0.989210307598114,-0.37584760785102844,0.201704740524292,-1.4810497760772705,0.41109535098075867,0.6428149938583374,-1.3528209924697876,0.027678070589900017,0.6361651420593262,0.13464133441448212,-0.36880597472190857,0.08346377313137054,-0.01014616061002016,-1.0799553394317627,1.1841377019882202,-0.28462445735931396,-0.5280667543411255,-0.06617247313261032,-0.5001614689826965,0.03872767835855484,-0.20242711901664734,-0.6445232629776001,-1.854231834411621,-1.0447930097579956,-0.4853263199329376,0.3696480691432953,-0.3185529112815857,0.5887271165847778,-0.19917182624340057,-0.39386871457099915,0.17034752666950226,0.3755008578300476,-0.6719900369644165,-0.2992181181907654,0.9448571801185608,0.4840073883533478,0.03451937809586525,0.3067673146724701,0.15457561612129211,-1.8746188879013062,0.16124539077281952,0.6636837124824524,-0.2594623863697052,-0.3230385184288025,0.09765177220106125,-0.6452387571334839,-0.2052764594554901,-1.1248902082443237,-0.546886682510376,-0.9669952988624573,0.1465693563222885,-0.32599541544914246,0.8245965838432312,-0.5997341275215149,-0.41548898816108704,0.08348638564348221,0.13490667939186096,-0.1169804185628891,0.7101259231567383,-0.22422227263450623,0.22208186984062195,-0.7701956033706665,0.35200265049934387,0.17613664269447327,0.15115605294704437,-0.13952243328094482,-0.10147947818040848,0.7836830019950867,0.5447819828987122,0.03238649666309357,-0.18157994747161865,0.6137762069702148,1.2025302648544312,0.7160215973854065,0.43777674436569214,0.02339962124824524,1.0615923404693604,0.011488278396427631,0.11400452256202698,0.06766222417354584,-0.21286353468894958,-0.6208211779594421,0.4517143964767456,0.333269327878952,0.8264045715332031,0.3130376935005188,-0.5875933170318604,0.2815892696380615,-0.2936582863330841,-0.3876968324184418,0.09667462110519409,0.8928871750831604,0.09011673927307129,-0.34511151909828186,-0.9134887456893921,-0.17965948581695557,0.08143100142478943,1.2605712413787842,-0.9213573336601257,0.4108869433403015,0.6184298396110535,-0.13061517477035522,1.000352382659912,-0.17228297889232635,-0.9505326747894287,-0.513219952583313,-0.5606787800788879,-0.339539498090744,-0.540129542350769,0.10477904975414276,-0.4432098865509033,0.35855603218078613,0.8519906401634216,-0.13491806387901306,-1.5446429252624512,0.6780908703804016,0.3916614055633545,0.7055647373199463,0.14866599440574646,1.1808120012283325,0.8197928667068481,-0.8080687522888184,-0.2182302176952362,0.5167669653892517,-0.5625243186950684,-0.511179506778717,0.6423361897468567,1.1362284421920776,-0.29884886741638184,-0.3690706789493561,0.860206127166748,1.103944182395935,-1.0310940742492676,0.15759742259979248,-0.14683502912521362,-1.3521358966827393,0.4813711643218994,0.8919560313224792,-0.29069748520851135,0.5593545436859131,0.8183509111404419,-1.1792659759521484,-0.6734927296638489,0.021381471306085587,0.00013367118663154542,0.27715229988098145,-0.22339104115962982,0.4047158360481262,0.20527133345603943,0.8565354347229004,-0.44732242822647095,0.2502812445163727,0.6984761953353882,-0.33457061648368835,-0.04607398808002472,-0.41946831345558167,0.2813449800014496,0.19663947820663452,-0.230323925614357,-0.3795265853404999,0.47619879245758057,1.2211955785751343,-0.07772917300462723,-0.13843929767608643,-0.49193623661994934,-0.3485446870326996,0.4913419783115387,0.439819872379303,0.5346705913543701,-0.34486380219459534,-0.378203421831131,0.3391125798225403,0.21743039786815643,-0.21252229809761047,-0.4932714104652405,-0.2575069069862366,0.5128557085990906,-0.24905084073543549,-0.4492965042591095,-0.3842061161994934,-0.4396880567073822,0.16590237617492676,-0.703362226486206,-0.9648822546005249,-0.3216000497341156,0.31182295083999634,-0.7501847147941589,-0.7570127248764038,-0.29541894793510437,0.08003392070531845,0.3635347783565521,-0.07604654133319855,-0.43155714869499207,0.1673199087381363,-1.0570247173309326,0.32890045642852783,-1.5240278244018555,0.22417329251766205,-0.8225112557411194,-0.2631271481513977,0.29670676589012146,-0.6040289998054504,0.3520481288433075,-0.4935930073261261,-0.3666824400424957,0.6182297468185425,0.4886889159679413,0.171638622879982,-0.04697367921471596,-0.2566917836666107,-0.5166955590248108,-0.19180253148078918,-1.1717209815979004,0.21519270539283752,0.6898903846740723,-0.8486214280128479,-0.9502934813499451,-1.0691710710525513,0.1404624730348587,-0.34516972303390503,-1.1115429401397705,0.32979491353034973,-0.6562439799308777,0.8598535060882568,0.5600003600120544,-0.19053727388381958,1.4420145750045776,0.826777994632721,1.1105188131332397,0.23495995998382568,-0.3299589455127716,0.18974155187606812,-0.13113626837730408,0.5195137858390808,0.7660093307495117,0.19614820182323456,-0.8844379186630249,-0.27207618951797485,-0.8622339367866516,0.1599160134792328,-0.7469732165336609,-1.2877473831176758,0.13215629756450653,-0.858289361000061,0.8618499040603638,-0.45959484577178955,-0.15550674498081207,-0.009073466062545776,0.11799611896276474,0.30934029817581177,0.27762049436569214,0.5226078629493713,-0.3245740234851837,0.5518987774848938,0.3389822244644165,0.5040081739425659,0.4047997295856476,-0.021242890506982803,0.4873172640800476,0.16214558482170105,-0.15837517380714417,-0.11346467584371567,0.02619420550763607,-0.21311672031879425,0.5905433893203735,0.7780650854110718,-0.4624328315258026,0.030746174976229668,0.4042733609676361,0.3109602928161621,-0.36950406432151794,0.34202831983566284,0.23880617320537567,0.1293780505657196
城市,0.24245992302894592,-1.4348193407058716,0.47960013151168823,1.0142543315887451,-0.6074765920639038,-0.5747160911560059,0.496657133102417,0.51894211769104,-0.1087736040353775,-0.29984763264656067,0.0470774881541729,0.32260817289352417,0.03171832114458084,-0.4994371235370636,1.1076719760894775,0.020449746400117874,-0.46428319811820984,0.596819281578064,0.1911683827638626,-0.7253746390342712,0.5311712622642517,-1.0351697206497192,-0.7414543032646179,-0.17176899313926697,0.46413373947143555,-0.10240089148283005,-0.39071959257125854,0.11169560998678207,-1.774515986442566,0.28275448083877563,-0.5391517281532288,-1.0718601942062378,0.19657082855701447,-0.1437649428844452,0.3259723484516144,-0.15604408085346222,-0.8783575296401978,0.12449151277542114,1.1284849643707275,0.6302937865257263,1.0855114459991455,0.6747437715530396,2.0398666858673096,-0.05375202000141144,-0.2326347678899765,-0.005657984409481287,0.31813952326774597,-0.7775755524635315,0.5554735064506531,0.02885788306593895,0.10618849843740463,-0.5120189785957336,-0.6222176551818848,1.6793358325958252,-0.36745384335517883,-0.712772011756897,-0.8020655512809753,0.4891829788684845,-0.3457866311073303,-1.1592997312545776,0.11643552035093307,0.10920903831720352,-0.790552020072937,0.5074495077133179,-0.06077050790190697,-0.020769914612174034,0.9110643267631531,-0.4269530475139618,-0.7689375281333923,1.3952789306640625,-0.8049548268318176,1.6331290006637573,-0.006430743262171745,-0.1931484341621399,0.6213281154632568,-0.1817786544561386,-0.6101261973381042,-0.19428379833698273,-0.23690585792064667,0.30817267298698425,1.3268117904663086,0.9528520703315735,-0.29797422885894775,-0.4995388686656952,-0.3089269995689392,-0.5325722098350525,-0.3042731285095215,0.08412317931652069,-0.17850394546985626,-0.5831923484802246,-0.8142231702804565,-1.066940188407898,-0.44907575845718384,0.11348355561494827,1.1233692169189453,-0.5052993297576904,-0.03384491801261902,0.10156252235174179,0.8854953646659851,-0.19784416258335114,0.8516835570335388,-0.2681630849838257,0.845815896987915,-0.6827385425567627,-0.1242135614156723,-0.3820140063762665,0.009493252262473106,-0.009011350572109222,-0.12122245132923126,0.20035910606384277,0.3946736752986908,0.7627636790275574,0.09647709131240845,-0.5393919944763184,0.5848749279975891,0.2658390700817108,-1.0567612648010254,-0.3241593837738037,-0.11143534630537033,-0.132773295044899,-0.30614379048347473,0.028521183878183365,-0.27557945251464844,-0.008602118119597435,0.3213033676147461,-0.40553244948387146,0.4470137655735016,-0.8946985006332397,-1.1837356090545654,-0.5134472250938416,0.272696316242218,-0.11984694749116898,-0.6143219470977783,-0.03708131983876228,-0.012060604058206081,-0.047041650861501694,-0.8355354070663452,-0.1440139263868332,-0.6566832065582275,0.37537842988967896,0.07926690578460693,0.6716999411582947,0.5823706984519958,-0.022157711908221245,-0.380451500415802,0.44312435388565063,-0.2074412852525711,0.46933236718177795,0.056325022131204605,-0.2324865758419037,0.3908657133579254,0.05432804301381111,0.15595918893814087,0.28032001852989197,0.3181987404823303,0.4843617081642151,0.7355687022209167,0.21754935383796692,1.0804716348648071,0.12597277760505676,0.6253328919410706,-0.9652724266052246,-0.04122468829154968,-0.493551105260849,-0.27870237827301025,0.10948223620653152,1.086503028869629,-0.669185221195221,0.6110882759094238,0.030691295862197876,0.7975674867630005,-0.245729461312294,-0.12306450307369232,-0.157868430018425,0.79068523645401,0.8927909135818481,0.6461994051933289,-0.13789983093738556,0.9547032713890076,-0.25217747688293457,0.2894243597984314,-0.3629063367843628,-0.7658670544624329,0.8274601697921753,0.3032154142856598,0.3917580246925354,0.777119517326355,0.629629373550415,-0.7327359318733215,-0.17122219502925873,-0.3441324234008789,0.1745539903640747,0.14605233073234558,-0.5928255915641785,0.7926993370056152,0.09552989900112152,-0.2238290160894394,0.574347198009491,0.2963201403617859,-0.585207462310791,-0.3649764358997345,-0.1674962043762207,0.4520852267742157,-0.7455174326896667,0.04496059939265251,0.5124078392982483,0.2749040722846985,-0.1294136494398117,0.04304064065217972,0.5275717377662659,0.7986125349998474,-0.4340449273586273,0.4087519943714142,0.1443866789340973,-0.16074642539024353,0.6477301120758057,-0.38417667150497437,0.2465909868478775,-0.8600912094116211,-0.19331490993499756,0.3450835645198822,0.9402605295181274,0.06574404239654541,0.3542880415916443,0.7140663862228394,-0.07616240531206131,-0.9005783200263977,-0.10904747247695923,-0.16488708555698395,0.39310938119888306,-0.2870454788208008,0.1606338918209076,-0.6296785473823547,0.2812090218067169,0.17353852093219757,-0.5105865597724915,-0.26796281337738037,-1.1165231466293335,-0.5810057520866394,0.2350982427597046,-0.936530590057373,0.562472403049469,0.22904767096042633,-0.3315526843070984,-0.3466610610485077,0.6903543472290039,-0.28876733779907227,0.28396713733673096,-0.21264134347438812,0.11061420291662216,0.5006009936332703,0.7549013495445251,0.4083208441734314,0.2975454330444336,0.32147854566574097,0.054196797311306,-0.24468733370304108,0.49347200989723206,-0.7903786897659302,-0.17292967438697815,0.06283771246671677,-0.1421721875667572,-0.6172769069671631,-0.07000117748975754,0.2667373716831207,0.03571043536067009,0.07606887072324753,-0.6884977221488953,0.01471148431301117,-0.5729817748069763,-0.2924816310405731,-0.6551665663719177,-0.8651865124702454,-0.6751035451889038,-0.2926502823829651,0.948642909526825,0.04687134549021721,-0.020106136798858643,-0.21618245542049408,-0.16003142297267914,-0.29783323407173157,0.1314219981431961,1.1023508310317993,-0.0070404717698693275,0.06019993871450424,-0.3409201502799988,-0.9744618535041809,0.37102165818214417,0.4133971929550171,0.13600550591945648,1.253482699394226,0.2785305678844452,-0.6154618263244629,-0.9726485013961792,0.8209829330444336,0.02537747286260128,-0.8183134198188782,-0.5144502520561218,0.30693089962005615,0.6979947090148926,0.33399686217308044,-0.08903925120830536,1.1038037538528442,0.5066729784011841,0.47491759061813354,-1.1602163314819336,-0.1959277093410492,0.890454113483429,-0.41685423254966736,-0.8194206953048706,-0.6589685678482056,-0.04421629011631012,0.016695495694875717,-0.06693081557750702,-0.6321110129356384,0.04118964076042175,-0.2769276797771454,0.22657516598701477,-0.20643122494220734,0.2668125629425049,0.9274061918258667,-0.9575796127319336,0.11402546614408493,-0.7269307374954224,0.681303083896637,0.38420185446739197,-0.11489780992269516,-0.18939822912216187,-0.7090691328048706,0.11356894671916962,0.7236528992652893,-0.2958725392818451,-0.4719303846359253,0.5819975137710571,0.15255890786647797,0.3228551745414734,-0.3816571831703186,-1.0659987926483154,-0.5506462454795837,0.01824132911860943,0.7691044211387634,0.322613000869751,0.47526925802230835,0.06937454640865326,0.46777358651161194,-0.2186886966228485,-0.055808957666158676,0.8498120903968811,-0.8369191288948059,0.28722524642944336,-0.25820404291152954,-0.6839671730995178,1.3449788093566895,0.5362362861633301,-0.47995835542678833,0.37301141023635864,-0.7211894989013672,0.2744956910610199,-0.09096942096948624,-0.2264985740184784,-0.4469205439090729,0.4556884467601776,-1.1435792446136475,-0.11990063637495041,-0.6652165651321411,0.4790179431438446,-0.8577678799629211,0.13425692915916443,0.06980492919683456,-0.2816477119922638,0.3440597653388977,-0.16231489181518555,-0.8095077276229858,-1.4687250852584839,0.2606443464756012,0.35382747650146484,-0.17158666253089905,0.1316344290971756,-0.14892110228538513,-0.499853253364563,-0.1355411857366562,-0.3110274374485016,0.24491916596889496,0.35152798891067505,-0.07910288125276566,-1.0402086973190308,-0.40793222188949585,-0.5706405639648438,1.044998288154602,0.9989120364189148,-0.31831756234169006,0.693185031414032,-0.36537447571754456,-0.2994750738143921,0.9394535422325134,0.48825353384017944,0.979121208190918,1.7840111255645752,-0.36475279927253723,0.7676107883453369
两条路,0.524681031703949,-0.26333701610565186,0.1524895876646042,0.5344629883766174,0.4249977469444275,0.04515029862523079,-0.15130920708179474,0.07738233357667923,0.053811222314834595,0.06449314206838608,0.49642276763916016,0.6925281882286072,-0.9099679589271545,-0.9064955711364746,0.9776332974433899,0.14037716388702393,-0.4659109115600586,0.9200536012649536,-0.1736801266670227,-0.12103575468063354,-0.7267594933509827,-0.5958607196807861,0.33111393451690674,0.03591471165418625,0.39782604575157166,0.41663888096809387,0.23737189173698425,-0.4862067997455597,-0.9783294200897217,0.27607351541519165,1.0761525630950928,0.21792440116405487,0.6125420331954956,-0.3689888119697571,0.21937553584575653,-0.29223132133483887,0.10452791303396225,0.2879208028316498,-0.26859280467033386,0.3982730507850647,0.7223928570747375,0.4924243986606598,0.31428274512290955,-0.6019247174263,0.2923092842102051,0.14050264656543732,0.005325077101588249,-0.08707445114850998,-0.2269279658794403,0.673515260219574,0.728754460811615,0.1712624579668045,-0.5963259935379028,0.70207679271698,0.19159035384655,0.48594656586647034,0.16128982603549957,0.0006536754663102329,-0.041510310024023056,0.6461558938026428,-0.19659735262393951,-0.4935675263404846,-0.5299906134605408,0.03879876807332039,0.37413790822029114,0.17611709237098694,0.09970296174287796,-0.600573718547821,0.32051777839660645,0.14748866856098175,-0.2662338614463806,0.3753003776073456,-0.7638386487960815,0.09809870272874832,-0.4320182502269745,-0.14277532696723938,0.2019570916891098,-0.05542166158556938,-0.05696263164281845,0.12985961139202118,-0.1483575850725174,-0.3449209928512573,0.10577566921710968,0.10183080285787582,-0.6627839207649231,-0.1684321016073227,1.2364338636398315,-0.026347722858190536,-0.17147739231586456,-0.10510814934968948,-0.19600263237953186,0.6694304347038269,-0.5115476250648499,-0.4879395663738251,-0.5978917479515076,0.26100894808769226,0.7078709602355957,0.24207904934883118,-0.21110799908638,0.13343778252601624,0.09061398357152939,0.3943173587322235,0.12449878454208374,-0.28747621178627014,-0.7361815571784973,-0.40141990780830383,0.5237606167793274,-0.6004053354263306,-0.1972578465938568,-0.17355221509933472,-0.40569406747817993,-0.10205335915088654,0.07379299402236938,0.7394300699234009,0.4606926441192627,0.07500922679901123,0.17843914031982422,0.7822829484939575,-0.003905282588675618,0.38742151856422424,-0.2812517285346985,0.7069321870803833,-0.5538594126701355,0.26265954971313477,0.0776943489909172,-0.15248067677021027,0.35295727849006653,-0.22205309569835663,0.14013315737247467,0.07007458806037903,0.028477370738983154,0.19249454140663147,-0.3773706257343292,0.09750092029571533,0.049100082367658615,0.986474871635437,-0.1439370959997177,-0.8716141581535339,0.7958456873893738,0.3673481047153473,0.9465436339378357,-1.0394492149353027,0.05252562090754509,0.35008329153060913,0.31797751784324646,-0.31336623430252075,0.2358337938785553,0.4322514235973358,0.5400468111038208,-0.6727051734924316,0.13393692672252655,0.9694085717201233,0.13228629529476166,0.025775277987122536,0.39199894666671753,-0.12706255912780762,-0.4165777564048767,-0.1358930468559265,0.36183908581733704,0.3326367437839508,-0.37913066148757935,0.4702776074409485,-0.397541880607605,-0.1495140641927719,-0.2977904677391052,-0.26161953806877136,-0.4398488998413086,0.36994847655296326,-0.39384955167770386,-0.08116203546524048,0.39679044485092163,0.24109187722206116,-0.35219043493270874,-0.2208622843027115,0.375083863735199,0.04370897635817528,0.11419114470481873,-0.6729205250740051,0.7124090194702148,0.4579046964645386,0.33017101883888245,0.5737180113792419,-0.014060654677450657,0.06925564259290695,0.30845338106155396,-0.43307456374168396,0.8477309346199036,-0.6875981688499451,-1.1577152013778687,-0.3501948416233063,-0.024054894223809242,0.36782756447792053,-0.25251758098602295,-0.6783973574638367,-0.529299795627594,-0.09471533447504044,0.12937688827514648,0.09414871782064438,-0.47134390473365784,0.0030307136476039886,-0.14859384298324585,0.059134844690561295,0.3861578702926636,-0.13460078835487366,0.7024968862533569,-0.27225178480148315,-0.018337015062570572,0.7351384162902832,-0.5218493938446045,-0.3989444077014923,-0.531023383140564,0.25231486558914185,-0.22212547063827515,-0.3515486717224121,0.25364428758621216,-0.6780780553817749,-1.0354183912277222,0.05375214293599129,-0.46265313029289246,0.2186174839735031,-0.8206852674484253,-0.14427441358566284,-0.322929710149765,0.27117374539375305,-0.4755295515060425,-0.36527949571609497,0.52842116355896,0.3634709417819977,-0.6819549202919006,-0.44195103645324707,-0.6537743210792542,0.2896009087562561,-0.1438479870557785,0.2788163721561432,0.09442117810249329,0.4869388937950134,-0.277619868516922,-0.629353940486908,-0.19962821900844574,-0.34935706853866577,-0.05694819614291191,-0.44081032276153564,0.1223684698343277,-0.14939233660697937,0.005470665171742439,-0.15601646900177002,-0.5529292821884155,-0.5314184427261353,0.17751842737197876,0.1850767582654953,1.0377455949783325,0.172345370054245,-0.32800447940826416,0.30927643179893494,0.21246784925460815,0.9386807084083557,1.2517248392105103,-0.19211602210998535,-0.35649406909942627,0.4198347330093384,-0.3884109854698181,-0.09839863330125809,0.33740857243537903,-0.4349561929702759,0.013819817453622818,0.4377693831920624,-0.043558795005083084,0.5247586369514465,0.14975324273109436,-0.40389108657836914,0.3276458978652954,-0.1296454817056656,-0.0704331248998642,-0.2730359435081482,0.2030450999736786,0.3210330307483673,-0.3868039846420288,-0.639378547668457,0.34760066866874695,-0.7259457111358643,0.3494323194026947,0.3578900694847107,-0.5035101771354675,0.20395947992801666,-0.11059294641017914,-0.6085466742515564,-0.6171333193778992,0.007574592716991901,0.10720416158437729,-0.49083200097084045,0.2137393206357956,0.0777483880519867,-0.2349291741847992,-0.15216466784477234,0.3038932681083679,0.2661438584327698,-0.2502821981906891,0.47762230038642883,0.7750226259231567,0.05869807302951813,0.3840263783931732,-0.17432382702827454,0.23395860195159912,-0.19106091558933258,-0.19408924877643585,-0.25674206018447876,-0.5399791598320007,0.00764381093904376,0.24447767436504364,-0.14778077602386475,-0.1968802958726883,-0.20814907550811768,-0.2769746482372284,0.9739466309547424,-0.10508029162883759,-0.27138325572013855,-0.5895349383354187,-0.013849920593202114,-0.054412394762039185,-0.445669025182724,0.08033709973096848,-0.26397016644477844,0.14323531091213226,0.12062723189592361,-0.05146968737244606,0.09963013231754303,-0.10798463970422745,0.6028881072998047,0.4558078348636627,-0.04743543639779091,0.11941477656364441,0.04659134894609451,0.24021059274673462,0.7444391250610352,0.2647384703159332,-0.19704805314540863,-0.6043347716331482,-0.4210483431816101,-0.18302202224731445,0.43858057260513306,0.12205161154270172,-0.6269350051879883,-0.05601673945784569,-0.2568228840827942,-0.49011337757110596,0.08023614436388016,-0.21571139991283417,0.12795251607894897,0.1358865648508072,0.4190232753753662,-0.16530664265155792,-0.6957520246505737,-0.9047865867614746,-0.27955928444862366,0.14302633702754974,0.1614638864994049,-0.4954550862312317,-0.36334601044654846,0.22336719930171967,-0.2839857041835785,0.004516000859439373,0.15061847865581512,0.08813130110502243,-0.10929833352565765,-0.10912792384624481,0.3366016149520874,-0.39968597888946533,-0.06994949281215668,-0.6641680598258972,0.46902233362197876,-0.05066179856657982,-0.08642257750034332,0.499512255191803,-0.648163914680481,-0.8486451506614685,-0.039653562009334564,-0.8501772284507751,-0.27260535955429077,-0.5489675402641296,-0.1103806272149086,0.28936660289764404,0.23123572766780853,0.7726227045059204,-0.486250102519989,-0.025877824053168297,-0.6906095743179321,-0.21770459413528442,-0.5457373857498169,0.21275050938129425,0.056352756917476654,0.3084712624549866,0.5314071774482727,-0.21636700630187988,0.04083322733640671,-0.13837531208992004,-0.019911421462893486,-0.5626668334007263,-0.04312079772353172,0.5095897912979126,-0.07615413516759872
缝隙,0.048949506133794785,0.172255739569664,-0.11740919202566147,-1.7305002212524414,-0.17901790142059326,-0.10520461946725845,0.11318375170230865,-0.4075026214122772,0.31310564279556274,-0.6867032051086426,0.15302708745002747,0.437035471200943,0.36549365520477295,-0.48423609137535095,0.10939917713403702,-0.9270143508911133,-1.0770413875579834,0.8353939056396484,-0.2039552628993988,-0.175886869430542,0.8163228034973145,-0.3679765462875366,-0.21505838632583618,-0.4166475236415863,-1.0453357696533203,0.1832043081521988,0.23423625528812408,-0.5898927450180054,0.050730928778648376,0.1486406773328781,-0.20243962109088898,-1.1092342138290405,0.8550936579704285,-0.2140692174434662,0.9536343812942505,-0.3539411425590515,-0.5383443832397461,-1.3288695812225342,0.15149721503257751,0.09870674461126328,-0.8535181283950806,0.4234294593334198,-0.4093484878540039,-0.30616092681884766,0.951921284198761,0.5557448267936707,-0.7902553081512451,0.11486612260341644,0.0160872470587492,0.6929677128791809,-1.2158939838409424,-1.3011629581451416,-0.5494894981384277,-0.2999822497367859,0.18045681715011597,0.1321527063846588,-0.5586546659469604,0.3643483817577362,0.6503874659538269,-0.041707687079906464,1.0760605335235596,-0.6174460053443909,0.4628853499889374,0.9332836270332336,-0.06188209727406502,-0.09060263633728027,-0.09248955547809601,-0.6549018025398254,-0.5393211841583252,1.7597962617874146,-0.16719631850719452,-0.3774127662181854,-0.35200080275535583,0.1930910348892212,-0.02217121049761772,0.15671920776367188,1.2255312204360962,0.6625617742538452,0.5546854138374329,-1.8000144958496094,-0.2476355880498886,-0.9149349927902222,-0.22788994014263153,0.794445276260376,-0.37451574206352234,-0.7462090849876404,0.26832878589630127,-0.22025226056575775,-0.6242409944534302,-0.5473494529724121,-0.699802041053772,0.16618084907531738,-0.4299440383911133,-0.2750847637653351,0.02150091715157032,0.03651954606175423,-0.9513600468635559,-0.5376266241073608,0.12074100971221924,-0.44645774364471436,0.34868377447128296,-0.3495069742202759,0.8495212197303772,-0.11879146844148636,-0.6253018975257874,-0.12045222520828247,-0.23699115216732025,-0.27349138259887695,0.05205954611301422,-0.005877246148884296,-0.9224086403846741,-0.22019171714782715,0.8365910053253174,0.29770785570144653,0.18476502597332,0.9331279397010803,-0.05458586663007736,-0.24441960453987122,-1.0280735492706299,0.2620188295841217,-0.41813361644744873,0.34671226143836975,0.037870023399591446,-0.48116323351860046,1.3108832836151123,0.5337808728218079,-0.4326647222042084,-0.7583652138710022,1.240148901939392,0.0636775866150856,0.6148407459259033,1.2771670818328857,-0.4782398045063019,0.8392259478569031,0.1933707892894745,0.6067427396774292,1.0361590385437012,0.5135341882705688,-0.2633475363254547,0.14250992238521576,-0.5150821208953857,0.03128029778599739,0.6215208768844604,-0.279615581035614,0.08217377215623856,-0.742770254611969,1.3038142919540405,0.6570098996162415,-0.5469577312469482,-0.5903539061546326,0.9562137722969055,0.3678922951221466,-0.5912442803382874,0.24159923195838928,0.7894257307052612,0.643907904624939,0.5935570597648621,0.7527205944061279,0.6695945262908936,0.059221748262643814,-0.14697743952274323,0.3232392370700836,-0.6467055082321167,0.26708585023880005,-1.029758334159851,0.10178112238645554,-0.029481209814548492,0.5725216865539551,-0.05069003626704216,0.03168276324868202,0.0979113057255745,0.4191957712173462,1.3508366346359253,0.4902852177619934,-0.36619454622268677,-0.2062254101037979,0.6283828020095825,-0.3847821354866028,0.802099347114563,-1.1446181535720825,-0.3232705295085907,0.6529067754745483,0.02142350934445858,0.9136012196540833,0.7199939489364624,-0.22991137206554413,0.9330922365188599,0.2615830600261688,0.12577524781227112,0.44912803173065186,0.020812777802348137,-0.22258777916431427,0.5209786295890808,-0.8554688096046448,0.7904406189918518,-0.32883986830711365,0.40249523520469666,-0.10219355672597885,-0.6431583762168884,0.6315458416938782,0.12261835485696793,-0.03372797742486,-0.6228756904602051,-0.9933810234069824,-0.4283229112625122,0.7355697154998779,0.5305565595626831,0.2591158449649811,-0.5573305487632751,1.275378704071045,-0.7578580975532532,0.2974527180194855,-0.6751866936683655,-0.7985310554504395,0.33533576130867004,-1.2749208211898804,0.6245352625846863,0.7430362701416016,0.8556405901908875,0.14328467845916748,0.21977658569812775,0.8292712569236755,-0.6056031584739685,-1.612754225730896,-0.9126926064491272,-0.4477640390396118,-0.32768553495407104,-0.05990208312869072,-1.3671866655349731,-0.013463323004543781,-0.48428821563720703,0.817513108253479,-0.1506761610507965,-1.051495909690857,0.9948922395706177,-0.46506404876708984,0.8102849721908569,-0.18375474214553833,0.02042757160961628,-0.3216589689254761,-1.4670913219451904,0.35632026195526123,0.25001809000968933,0.7705613970756531,0.008666583336889744,0.08767522126436234,0.5217867493629456,1.2175244092941284,0.6862760186195374,-0.6357255578041077,0.4661736488342285,0.25362756848335266,0.25283554196357727,0.7016577124595642,0.6041350960731506,0.04317667335271835,0.39850953221321106,-0.2972957193851471,-0.17548079788684845,0.4215070605278015,0.6347885131835938,-0.41825762391090393,0.1465979665517807,0.9074438214302063,0.8382239937782288,0.5085838437080383,-0.35028523206710815,-1.097929835319519,1.3061840534210205,0.7297343611717224,-0.37765076756477356,0.5288514494895935,-0.6038842797279358,0.21111716330051422,-0.7977041006088257,0.42429161071777344,-1.0632902383804321,-0.783690869808197,1.0616544485092163,0.40901392698287964,1.458673119544983,0.20646874606609344,0.8121140599250793,0.18269740045070648,0.07127067446708679,-0.42940032482147217,0.45498180389404297,0.8033599257469177,-0.284397155046463,0.1809968203306198,0.06186864152550697,-0.6784023642539978,-1.243491530418396,-1.2857143878936768,-0.5446646213531494,0.7135955095291138,-0.009346815757453442,0.6006096601486206,0.4979843199253082,-0.013011593371629715,-0.5631475448608398,-0.5469668507575989,0.04516289383172989,0.8601030111312866,-0.5523195862770081,-0.3432028293609619,-0.40352410078048706,-0.5793956518173218,1.162736415863037,-0.625986635684967,0.557939350605011,-0.5378825068473816,0.4951462149620056,0.615559458732605,-0.37853550910949707,0.12907367944717407,-0.7721533179283142,-0.8154482245445251,0.6514649391174316,-0.5002557635307312,1.7620038986206055,-0.44714099168777466,-0.4408401846885681,0.8712261319160461,-1.2430568933486938,1.153983473777771,2.107308864593506,-0.12039375305175781,0.1162022277712822,0.6622058749198914,0.3020908534526825,0.3333694636821747,0.35742107033729553,0.5923340320587158,0.877781331539154,0.42226317524909973,0.720465362071991,-0.33351951837539673,-0.3283233046531677,0.04668023809790611,0.6460415124893188,-0.402054101228714,0.588119387626648,0.7230315208435059,-0.3131227195262909,0.20184099674224854,-0.1359127163887024,-0.3580663800239563,0.7801733016967773,-0.7110544443130493,-0.7373612523078918,0.5232686996459961,0.19763827323913574,0.8396497368812561,0.014027879573404789,0.1978502869606018,0.13259899616241455,0.4662245512008667,-0.8593080639839172,0.2681991457939148,1.2807765007019043,0.489016592502594,-0.5892457962036133,0.9401212334632874,-0.004463848192244768,-0.44470688700675964,-0.2228652387857437,-0.5667398571968079,0.33169934153556824,-1.1428990364074707,-0.6560134887695312,0.4233277142047882,1.0058209896087646,0.19591744244098663,0.4706007242202759,-0.5281224846839905,0.8948181867599487,-0.7232635021209717,0.3359696567058563,1.0814738273620605,0.6015697121620178,-0.8054853677749634,0.6550549268722534,-0.3812905251979828,-0.8924152851104736,0.879770040512085,-0.018465345725417137,-1.138615608215332,-0.6882655024528503,0.2836263179779053,0.1757040023803711,1.3295248746871948,0.13932472467422485,-1.7535274028778076,-0.17756496369838715,-0.0005613607354462147,-0.040696509182453156,-0.16481994092464447,0.5539642572402954,-0.815302848815918
赫兹,0.09423447400331497,-0.7002586722373962,-0.1484357863664627,-0.09251997619867325,-0.2794046998023987,-0.37846800684928894,-0.21726301312446594,-0.43150094151496887,1.0459096431732178,1.007341742515564,0.7861815690994263,0.09842042624950409,0.4425894021987915,-0.044751834124326706,0.4522874057292938,-0.2670834958553314,0.27428343892097473,-0.26009708642959595,0.5150485634803772,0.4361201226711273,-0.8181578516960144,2.096627712249756,-0.5438076257705688,-0.4539484679698944,-0.17264829576015472,-0.4802027642726898,0.008903933688998222,-0.46484366059303284,0.46151286363601685,0.14643077552318573,-0.2505897879600525,-0.28753840923309326,-0.20181037485599518,-0.14499865472316742,0.08015738427639008,0.11629962176084518,-0.9343496561050415,-0.23352967202663422,0.3040178716182709,-1.903856635093689,-1.6008659601211548,-0.5904253125190735,0.9406493306159973,0.5542961359024048,-0.10764461010694504,-0.9237461090087891,1.027930736541748,0.6219863295555115,-0.7830676436424255,1.0329862833023071,0.8974766731262207,0.7519541382789612,0.1709948629140854,0.438570111989975,1.9808121919631958,0.41730836033821106,0.21955429017543793,0.7880431413650513,-0.5707551836967468,0.7172184586524963,0.08091368526220322,-0.10842573642730713,-0.09587182104587555,1.1294662952423096,-0.5848716497421265,0.9368715286254883,-2.5000007152557373,-0.791278600692749,-0.024335075169801712,0.31176528334617615,-1.6864169836044312,0.025313671678304672,0.08052082359790802,-0.42440539598464966,1.8220847845077515,0.2752394676208496,-0.4254950284957886,0.5260127782821655,0.8962350487709045,-1.1330434083938599,-0.3591167628765106,-0.18289169669151306,-1.0347079038619995,-0.22855809330940247,0.8909391760826111,-0.5496117472648621,0.7488998770713806,0.6191653609275818,1.222185730934143,0.042121414095163345,-0.3554800748825073,-1.254331350326538,-1.360177755355835,-0.5444003939628601,0.025862284004688263,0.3277740776538849,0.4418512284755707,-1.405871868133545,-1.1592353582382202,0.5024935007095337,-1.289219617843628,-0.5261239409446716,-0.045401617884635925,1.9953844547271729,0.5294780731201172,-1.411135196685791,0.24859023094177246,-0.35054707527160645,-0.586042046546936,-1.2526841163635254,0.2973598539829254,1.0649774074554443,-0.3061509132385254,-0.6787973642349243,0.941317081451416,0.9650790095329285,0.39592480659484863,-1.5087016820907593,-1.3382383584976196,1.3618388175964355,0.8697381019592285,0.02302762120962143,1.2852391004562378,-0.06915594637393951,0.2278105467557907,-1.1487903594970703,-0.18752753734588623,0.513371467590332,0.5632818937301636,-2.068848133087158,0.037361983209848404,-0.8308355212211609,-0.8464534878730774,1.0387382507324219,0.5559791922569275,0.5957475900650024,-0.9565241932868958,0.39800629019737244,-0.05048874020576477,0.3974229097366333,-0.9272029399871826,-0.8041319847106934,-0.34692832827568054,0.05476532503962517,-0.00443406542763114,0.13859406113624573,0.2724195420742035,0.7602558135986328,-0.694041907787323,-0.5601658225059509,0.4014318287372589,-1.1720335483551025,-0.8923668265342712,1.612921953201294,-0.9622361063957214,1.4232267141342163,-0.11405093967914581,-0.28646743297576904,1.435112476348877,0.900455117225647,0.3092990219593048,0.7839449048042297,0.45048341155052185,-0.2418633997440338,0.04858086258172989,-0.03310896083712578,-0.3042302429676056,1.0025075674057007,0.12386296689510345,-0.43538719415664673,-1.0217413902282715,-0.09176141768693924,-0.36363494396209717,-1.3068244457244873,0.37481391429901123,-0.6553415656089783,-0.21275530755519867,-0.7222406268119812,0.7615215182304382,-0.6709582209587097,1.4597828388214111,0.028413770720362663,-0.17762915790081024,-1.6597427129745483,0.23540714383125305,1.3238378763198853,0.30911940336227417,-0.46034327149391174,-0.9082766771316528,0.13241377472877502,-0.03786951303482056,-0.4222008287906647,0.6864286065101624,0.014085926115512848,-0.8847492933273315,-0.9589173197746277,-0.3911115229129791,1.543982744216919,-0.34220239520072937,-0.584682285785675,0.9801065325737,1.0269991159439087,-2.0071232318878174,-0.19593650102615356,-0.1676364243030548,-0.11631782352924347,0.8146787881851196,0.35173100233078003,-0.1815694272518158,-0.3327813744544983,0.3936578333377838,0.722552478313446,-0.5750648975372314,-0.05287753418087959,0.5232143998146057,-0.03586159273982048,0.7303665280342102,0.3848671317100525,-0.9852983355522156,-0.24762749671936035,0.5954585671424866,-0.23657584190368652,0.8300616145133972,-0.20375603437423706,0.00014197239943314344,0.7615751624107361,1.537231683731079,0.35246753692626953,-0.33919578790664673,-0.8399792313575745,-0.4345095455646515,-0.2471729964017868,-0.649651288986206,-0.46113431453704834,1.1615530252456665,0.5558668375015259,0.4953242540359497,0.6018669605255127,0.5078506469726562,0.7051865458488464,0.5718308687210083,0.3569258153438568,0.9028298258781433,0.18337099254131317,0.3867513835430145,0.06070002168416977,1.1225217580795288,0.9846692681312561,-0.6801894903182983,-1.1097095012664795,-0.5521607995033264,0.23293091356754303,-0.40456658601760864,0.2460436075925827,-0.23962253332138062,0.04624272510409355,0.7033228278160095,-1.5666149854660034,0.07601495087146759,0.06411369889974594,-1.3438016176223755,-1.1230063438415527,-0.31715553998947144,-0.30823808908462524,1.0801929235458374,0.440276563167572,-0.2711947560310364,-1.5192785263061523,2.334977865219116,-0.05385308712720871,-0.6981950402259827,-0.8739590048789978,0.2101413607597351,1.8329275846481323,-0.5131565928459167,0.6406028270721436,-0.5406084060668945,0.7341054081916809,-1.1848728656768799,-0.3613378703594208,1.2336395978927612,-0.8783183693885803,0.905834972858429,-0.40302881598472595,0.5043656826019287,0.127347931265831,0.6726656556129456,0.21684853732585907,-1.054905652999878,-0.4353101849555969,1.1070491075515747,-0.6359353065490723,-0.4150908589363098,-0.701465904712677,-0.15578249096870422,1.5615646839141846,-1.1731539964675903,-1.815854549407959,0.5871991515159607,-0.7641882300376892,0.8714348077774048,0.3789905309677124,0.1907372921705246,-0.11160367727279663,0.0227960254997015,0.40108996629714966,0.7498080730438232,1.039696455001831,0.2665650546550751,0.8907660245895386,-0.11847708374261856,-0.09317538142204285,1.2967817783355713,-0.4548806846141815,-1.0496766567230225,0.2049832046031952,-0.40842655301094055,-0.1390048712491989,0.2928257882595062,0.8059067130088806,0.5829430818557739,-0.6401155591011047,0.5500538349151611,0.8570295572280884,0.08328075706958771,0.45904800295829773,0.216836616396904,-0.2893434762954712,-0.32485926151275635,-0.7391699552536011,-0.3325378894805908,0.6126241683959961,0.13472969830036163,-0.8926892876625061,-0.9792472720146179,-0.8236382007598877,-0.38043081760406494,0.8492942452430725,-1.6529291868209839,0.5704882740974426,-0.08181720972061157,0.08919057995080948,1.8887903690338135,0.1690666526556015,0.20198693871498108,-0.6543555855751038,-0.9715051651000977,1.4475760459899902,-1.02389395236969,-0.6230029463768005,0.2732115089893341,0.13140279054641724,-0.7535118460655212,0.6327149271965027,1.5736488103866577,-0.0685545802116394,-1.384774088859558,0.32610249519348145,0.1579156517982483,0.24154381453990936,-0.059330035001039505,0.28566232323646545,-0.16014382243156433,0.595643937587738,-0.38535112142562866,0.183152973651886,-0.7305347323417664,-1.8607362508773804,-0.5067898035049438,-2.224764108657837,-0.7860938906669617,-0.8350450992584229,0.3157818019390106,-0.30311697721481323,1.6098376512527466,-0.4204157888889313,1.4115756750106812,0.3642123341560364,0.5697898268699646,-1.1907532215118408,-2.2176215648651123,-0.3295246660709381,0.7302034497261047,-0.16352912783622742,0.3888081908226013,0.4389623701572418,0.2776159644126892,0.825789749622345,1.1338268518447876,1.2687444686889648,-0.6132327914237976,0.17324726283550262,-0.37707167863845825,1.476233720779419,-0.5297119617462158,1.7472540140151978,1.1330019235610962,1.8730045557022095,-0.1028679758310318,0.8924577832221985
路,0.15743668377399445,-0.2328132688999176,1.3741899728775024,-0.22263038158416748,0.9384591579437256,0.6001871228218079,0.4835108518600464,-0.005153237842023373,1.1235010623931885,0.20739805698394775,1.1631990671157837,0.6364567875862122,-0.5918279886245728,-0.2176981270313263,0.2679155766963959,-0.025118151679635048,-0.7452531456947327,0.8045395016670227,-0.3914383351802826,-0.44689875841140747,-0.1960972398519516,-1.1006921529769897,0.2431415617465973,0.33156484365463257,-0.4515235722064972,-0.6170599460601807,-0.8223410248756409,0.33014094829559326,0.13545925915241241,0.16511310636997223,0.8030235171318054,0.021809710189700127,-0.12214384227991104,0.36308449506759644,0.3494155704975128,-0.5573652982711792,-0.16118332743644714,0.5979993343353271,0.21849556267261505,-0.248997762799263,0.4120117425918579,0.13245484232902527,-0.6157178282737732,-0.053243231028318405,0.2667042315006256,0.012985343113541603,-0.23664920032024384,-0.34816238284111023,0.8984673023223877,-0.8594224452972412,0.8673059940338135,0.49765831232070923,-0.5026799440383911,-0.4953466057777405,-0.32562732696533203,-0.2378593385219574,0.05819487199187279,-0.2259041965007782,0.3707068860530853,-0.38499611616134644,0.17461402714252472,-0.5058421492576599,-0.342806339263916,-0.4991908669471741,-0.24044452607631683,-0.07639680057764053,0.7399099469184875,0.44001802802085876,0.14912822842597961,0.7904514074325562,0.469038724899292,0.33002257347106934,1.208479881286621,-0.238942489027977,0.25659605860710144,-1.613337516784668,0.025219183415174484,0.8224492073059082,-0.7526230812072754,-0.8698340058326721,-0.2463848739862442,-0.21167875826358795,0.10307556390762329,-0.06391394138336182,0.035457633435726166,0.6988722681999207,0.6989879012107849,-0.8538389205932617,-1.0110915899276733,-0.2120591253042221,-0.7356841564178467,0.315285325050354,-0.43518996238708496,0.9848760962486267,0.2192079871892929,0.061291348189115524,0.6522764563560486,-1.866974949836731,0.5823748707771301,-0.49840861558914185,0.7607467770576477,-1.2065865993499756,0.3022943437099457,-0.040275055915117264,-0.3180747926235199,-0.4388767182826996,0.37875035405158997,-1.8235816955566406,-0.2696537971496582,0.9061509370803833,0.06290734559297562,1.1110103130340576,-0.812292754650116,-0.017353281378746033,-0.06599666178226471,-0.04804278910160065,0.7821964025497437,0.8656585812568665,-0.7373215556144714,-0.48630592226982117,-0.3554726541042328,0.5006775259971619,0.6620411276817322,0.4182506203651428,0.6480526924133301,-0.6394487619400024,0.13200274109840393,0.3773566782474518,-0.3796449601650238,0.07285263389348984,1.1414029598236084,0.07343932241201401,0.10944817960262299,-0.47634226083755493,-0.08188503235578537,0.5657722353935242,-0.25752100348472595,-0.3853500187397003,0.09930717200040817,-0.2016923725605011,0.5528092384338379,-0.5227394700050354,0.735483705997467,0.6019071936607361,0.09937179833650589,-0.21073007583618164,-0.5128682851791382,-0.2771553695201874,0.1099584773182869,-0.1474880427122116,-0.32989493012428284,0.49352791905403137,0.27081871032714844,-0.2976243495941162,-0.2829228341579437,0.34185895323753357,-0.33855971693992615,0.9727524518966675,-0.2443113625049591,-0.8838301301002502,0.32044705748558044,0.8827511668205261,0.3283842206001282,-0.40974971652030945,-0.19005589187145233,0.2579626441001892,-0.03644302114844322,-0.13415101170539856,-0.9198154807090759,0.7375321984291077,-0.11131551861763,-1.250734806060791,0.8745450377464294,0.15346449613571167,0.9041025638580322,0.5027681589126587,0.4235958158969879,-1.1009001731872559,1.144730567932129,0.35326918959617615,0.9144520163536072,0.6227823495864868,0.4688265025615692,0.446855366230011,0.13745826482772827,-0.5603511333465576,0.7883028388023376,-1.0443108081817627,-0.7566823959350586,-0.10754231363534927,0.050368841737508774,0.9731705784797668,-0.4199090600013733,-0.05707443878054619,0.02118358388543129,0.43568360805511475,0.09534619748592377,-0.9324166774749756,-0.05108647793531418,-0.1173454076051712,0.2767072021961212,-0.2170037478208542,1.4865278005599976,0.5613458752632141,-0.4571160078048706,0.13286881148815155,0.5921949744224548,0.5475702285766602,-0.714777946472168,0.1711113005876541,-0.2603837549686432,-0.5457884073257446,-1.2082852125167847,-0.6129244565963745,-0.4594104588031769,1.164972186088562,-0.07225829362869263,1.326193928718567,-0.9141073226928711,-0.12373808026313782,-0.8437566757202148,-0.1707649976015091,-0.4226841926574707,-0.7035925984382629,-0.7569301128387451,1.2823209762573242,-0.145106703042984,-1.0945817232131958,-0.9382689595222473,-0.40056735277175903,0.07567299902439117,0.699688196182251,-0.42729154229164124,-0.5310080051422119,1.4071969985961914,0.1250087022781372,-0.7597178816795349,0.09041285514831543,0.2900015711784363,-0.4967128038406372,-0.033168476074934006,0.09230227768421173,0.4392266273498535,0.33981743454933167,0.16479738056659698,0.11595889180898666,0.6586740016937256,-0.6705464720726013,0.21427401900291443,0.803316056728363,0.31725385785102844,-0.6908402442932129,-0.7404098510742188,-0.7514815926551819,0.6061263680458069,0.7771334052085876,0.5943589210510254,0.1462029665708542,-0.011325624771416187,-0.7547640204429626,-0.1510699987411499,-0.030701691284775734,-0.7757658362388611,0.31887713074684143,-0.5778111219406128,0.0005875034257769585,-0.41497087478637695,-0.32145965099334717,0.35663270950317383,-0.8950787782669067,0.5103971362113953,-0.6494945883750916,0.224777951836586,0.5885035991668701,0.2889752984046936,-0.5023287534713745,0.3501378893852234,-0.005516609642654657,1.030243992805481,-1.2676115036010742,0.3727802336215973,-0.3846302628517151,-0.25956231355667114,-0.7859441041946411,-1.2673847675323486,0.11416329443454742,-0.009936253540217876,-0.3731626570224762,0.694754421710968,-0.057603415101766586,1.2936031818389893,0.9877284169197083,-0.8803710341453552,-0.5359082221984863,-0.28981655836105347,0.06939608603715897,-1.322590947151184,-0.8386105895042419,-0.06262901425361633,-0.033934418112039566,-0.49287161231040955,0.8302347660064697,0.25093021988868713,-0.6555302143096924,1.2062950134277344,0.891884982585907,-0.748096764087677,-0.5169822573661804,1.003116488456726,-0.5676189661026001,0.010158310644328594,-0.5447075366973877,0.11561819911003113,1.0628162622451782,0.49882280826568604,0.49765029549598694,0.22926340997219086,-0.22868035733699799,0.6168270111083984,-0.5372366905212402,-1.9613866806030273,-1.2192449569702148,-0.341947078704834,0.08618853986263275,-0.7896414995193481,1.0310533046722412,0.18319259583950043,1.0133951902389526,-1.2132188081741333,-0.62786865234375,0.5025225877761841,-0.9023699760437012,-0.3884410560131073,-0.025710104033350945,0.03471442684531212,0.09723378717899323,-0.5029585957527161,-0.5491914749145508,-0.12507806718349457,0.18724128603935242,-0.3239388167858124,-0.17532463371753693,-1.0220015048980713,-0.4116072356700897,0.04029050096869469,0.3977443277835846,0.05334886163473129,0.40763580799102783,-0.20715905725955963,0.7373829483985901,0.9314886927604675,-0.5755710601806641,-0.29647213220596313,-0.41699865460395813,-0.25237220525741577,-1.2253904342651367,-0.7822883725166321,-0.667877733707428,0.7353591322898865,-0.7085866332054138,-0.0714520514011383,-0.359942764043808,-0.36687737703323364,1.2025166749954224,-0.46295902132987976,-0.44243669509887695,-0.22346822917461395,0.6843261122703552,-1.3136136531829834,-0.29179444909095764,-0.3021963834762573,0.5751349925994873,0.2640865445137024,-0.9190502762794495,0.22366097569465637,0.6174096465110779,-0.44703438878059387,0.390437513589859,-0.42329949140548706,-1.2151896953582764,0.031305816024541855,1.3935407400131226,0.46427518129348755,0.29290109872817993,-0.029710471630096436,-0.16841530799865723,0.22645880281925201,-0.1821061223745346,-0.5055469870567322,0.9424623847007751,-0.840474009513855,0.35502204298973083,-1.3114995956420898,0.03850371763110161,0.46679094433784485,0.10837358236312866,-0.3069951832294464,0.08216841518878937,0.06600897014141083,0.2367996871471405
阳光,-0.013597720302641392,-0.38949069380760193,0.5744247436523438,-0.7372196912765503,0.49919363856315613,0.022176798433065414,-0.6618334650993347,-0.5594136714935303,-0.23707208037376404,0.27405592799186707,0.6770605444908142,0.19323723018169403,0.32635414600372314,-0.24860168993473053,-0.6322888731956482,-2.1060914993286133,-0.6309444904327393,0.030421288684010506,-0.19570891559123993,-0.1483960747718811,0.021659301593899727,-0.9259711503982544,0.04917653277516365,-0.07948105782270432,-0.587648332118988,0.2579067349433899,-0.43401214480400085,-0.3885212242603302,0.003069834318011999,-0.09153449535369873,0.06838902086019516,0.9030416011810303,-0.9880301356315613,-1.7374565601348877,-0.4949989318847656,-0.7124826908111572,-0.5257887840270996,-0.2484474629163742,1.0935009717941284,0.3077298402786255,-0.0008984425221569836,-0.20365320146083832,-0.565071165561676,-0.16573786735534668,-0.5410727858543396,0.12972815334796906,-0.08320470154285431,-0.8041155934333801,-0.571382999420166,0.2722127437591553,0.07643353193998337,0.3971291184425354,-0.3404327630996704,-1.5356216430664062,0.9146439433097839,0.4336288869380951,-0.7353389263153076,0.7234184145927429,0.8589687347412109,-0.8008047938346863,-0.2743309736251831,-0.30929213762283325,0.4623790979385376,0.7347316145896912,-0.25259244441986084,0.198785200715065,1.2219903469085693,-0.03397843986749649,0.6508098840713501,1.216658592224121,0.21672417223453522,-0.28288534283638,-0.6829150915145874,0.858416736125946,0.0984891876578331,-0.9990817308425903,-0.24676387012004852,0.5425382256507874,-0.6476937532424927,0.9170595407485962,0.5763499140739441,0.18382510542869568,0.2679121494293213,-0.001019063638523221,-0.2796236574649811,-0.6979662179946899,0.7911666035652161,-1.0410068035125732,-0.22482091188430786,0.013940305449068546,-1.5421421527862549,0.24650894105434418,-0.3479730784893036,0.03106461465358734,0.0017984220758080482,-0.3276340961456299,0.11494036018848419,-0.2617327868938446,0.22134746611118317,-0.6498868465423584,0.062377944588661194,-0.47446221113204956,0.48277828097343445,-0.43224239349365234,-0.9206289052963257,-0.10969283431768417,-0.43131521344184875,-0.3860175311565399,-0.22920840978622437,0.3427135944366455,-0.07982277870178223,0.4709515869617462,0.3742552697658539,-0.6424843668937683,1.1478673219680786,-0.20571494102478027,-0.5844910144805908,-0.699968695640564,-0.49102023243904114,-1.06172513961792,-1.4584213495254517,0.08414527028799057,0.7685796022415161,-0.6272681355476379,0.34768733382225037,-0.9502432942390442,-0.1720411330461502,-0.25347763299942017,1.255204677581787,-0.2506905198097229,-0.347247838973999,0.3879773020744324,0.2782905399799347,0.13416005671024323,-0.44050946831703186,0.2832210659980774,0.15889111161231995,-0.2752394378185272,-0.28505733609199524,-0.2418842762708664,0.49066162109375,0.2331552505493164,-0.7178431749343872,0.5312251448631287,-0.1886179894208908,0.3662845492362976,0.5138336420059204,0.33901289105415344,-0.07405994832515717,0.3845944106578827,-0.3090740144252777,-0.6486889719963074,-0.7393256425857544,0.0006986670778132975,1.059108018875122,0.29613298177719116,-0.40335819125175476,-0.3266772925853729,0.42544183135032654,0.8630488514900208,-0.15806354582309723,-0.2942591905593872,-0.4127761721611023,-0.2156338393688202,-1.0039318799972534,-0.8122826814651489,-0.5568339824676514,-0.07493267208337784,-0.44886118173599243,0.448516309261322,1.0206615924835205,0.36862874031066895,-0.9508433938026428,0.18656577169895172,0.372672438621521,-0.4420914947986603,-0.048475299030542374,-0.3004499673843384,-0.5287184715270996,-0.7369111180305481,-0.06533215939998627,0.004672799725085497,-0.10885225981473923,0.37764644622802734,-0.17052513360977173,-0.24446147680282593,0.7367733716964722,-0.10394813120365143,-0.09935105592012405,0.15313687920570374,0.4322659373283386,-0.6257177591323853,0.07884780317544937,-0.5471504926681519,0.5085479617118835,0.7212213277816772,-0.10850051045417786,0.30747517943382263,-0.2717101275920868,0.3088282644748688,1.185516119003296,0.06626829504966736,0.1812572479248047,-0.8667976260185242,0.18562762439250946,0.07765460759401321,-0.4420480728149414,-0.36972707509994507,-0.252646803855896,1.193826675415039,-0.47636887431144714,-0.4409002959728241,-0.13953806459903717,1.175049066543579,-0.3231046795845032,-0.17149633169174194,-1.4064754247665405,0.47017043828964233,-0.015301622450351715,-0.647653341293335,0.829953134059906,-0.25480544567108154,0.03221140429377556,0.5381956100463867,-0.44328591227531433,-0.02637522481381893,0.14425601065158844,0.7271193265914917,0.04849909991025925,0.04395434632897377,0.10312529653310776,0.21446578204631805,0.24911832809448242,0.3644684851169586,-0.10970897972583771,0.39027974009513855,-0.7261263728141785,0.3623676002025604,-1.0934501886367798,-0.3025211691856384,-0.13175027072429657,0.5948622226715088,0.04124293476343155,-0.12419359385967255,0.09414386004209518,-0.37752944231033325,0.7964561581611633,0.572593092918396,0.6957300901412964,0.18924489617347717,0.07484888285398483,0.45347315073013306,0.1805315464735031,0.5446860194206238,0.6228694915771484,0.1322963982820511,0.02252107486128807,0.03619053587317467,-0.28031840920448303,0.5223708152770996,0.9655344486236572,-0.11232419312000275,0.0847141444683075,0.15065570175647736,-0.235899418592453,-0.6298771500587463,-0.18026046454906464,-1.0732871294021606,0.060026947408914566,-1.0604591369628906,-0.2353816032409668,-0.5888633728027344,0.8850031495094299,-1.4921150207519531,-0.001853998051956296,-0.5505480170249939,-1.363711953163147,0.2347848266363144,0.43400195240974426,0.07232329994440079,0.8249960541725159,0.9529215693473816,0.589905858039856,-0.5767344832420349,0.6681003570556641,0.11912350356578827,-0.18588121235370636,-0.37323665618896484,-0.8611880540847778,-0.21016527712345123,-0.36348432302474976,-0.27975133061408997,0.08772960305213928,0.24090169370174408,0.1574810892343521,0.5957717299461365,0.18731646239757538,0.15050317347049713,0.7468594312667847,0.121139295399189,-0.21844446659088135,-0.8763154149055481,0.02983730658888817,0.6266183257102966,0.11769653111696243,-0.5939030647277832,-0.6586582660675049,-0.3922204077243805,0.30666688084602356,-1.1202808618545532,-0.2737729251384735,-1.151531457901001,-0.09609963744878769,0.8040941953659058,-0.06948918104171753,-1.082479476928711,-0.01499538216739893,-0.42067089676856995,0.4668712615966797,-0.45800694823265076,-0.5606963634490967,-0.0018754365155473351,0.6648861169815063,0.06098976731300354,0.6196749806404114,0.930711567401886,1.3729007244110107,0.2967641353607178,-0.2980930805206299,0.09019813686609268,1.1969475746154785,0.5587365627288818,-0.3076915442943573,-0.4227372705936432,-1.1262400150299072,0.6543921232223511,0.024305513128638268,-0.04496942088007927,-0.3233589231967926,-0.1763802170753479,-0.2908543050289154,0.29169580340385437,0.4464675784111023,-0.11144817620515823,-0.25957611203193665,-0.2188703566789627,0.46550238132476807,0.1006043329834938,0.09214486926794052,-0.611503541469574,-0.32121336460113525,-0.31017938256263733,0.046981409192085266,1.203822135925293,-0.9146280884742737,-0.25442227721214294,-0.5006964206695557,-0.6067442893981934,-0.088202103972435,0.5080143213272095,-0.6798264384269714,-0.8740941882133484,0.3287115693092346,0.5198628902435303,0.7086513042449951,-0.2701756954193115,-0.3714960515499115,-0.24600504338741302,0.9875638484954834,-0.00664319796487689,-0.23302896320819855,0.5428484678268433,-0.1392473578453064,-0.03242629021406174,-0.9083840250968933,-0.8873296976089478,0.3073611855506897,0.6565377116203308,-0.20866161584854126,0.5195387601852417,-0.6473374962806702,0.058423105627298355,-0.14155039191246033,-0.12728536128997803,-0.18488356471061707,0.21877709031105042,0.5389820337295532,-0.16687850654125214,0.3577495813369751,0.48473820090293884,0.7260648012161255,-0.308013379573822,-0.9977120757102966,-0.9969289898872375,-0.2141396403312683,-0.3313600420951843,0.10061988979578018,0.9295462965965271,0.3102400302886963,0.18246889114379883
能力,-0.49175527691841125,-0.7274392247200012,0.8117123246192932,-0.3617280423641205,-0.6767051815986633,0.5459216833114624,-0.6917925477027893,1.041175127029419,0.4763883650302887,-0.36939942836761475,-0.13593415915966034,-0.038119882345199585,0.8575026392936707,0.22333726286888123,0.3798108696937561,0.3334329426288605,1.3333919048309326,0.7196300625801086,0.3831622302532196,0.4067462086677551,0.17716698348522186,0.4036606252193451,-0.36919423937797546,0.22627957165241241,0.5257273316383362,0.469680517911911,-0.5203626155853271,0.255010724067688,-0.3605648875236511,-0.726317286491394,0.32461676001548767,-1.119037389755249,0.8725525736808777,0.8488544821739197,-0.38866621255874634,-1.190014123916626,-0.46600374579429626,-1.2778147459030151,0.06659473478794098,-0.5257670879364014,0.16371671855449677,0.5727201700210571,0.5379728674888611,-0.6376482844352722,-0.24184994399547577,0.19973058998584747,-0.02441529743373394,-0.707173228263855,0.5947245359420776,-0.1318601816892624,0.909959077835083,0.8790249824523926,0.519239604473114,0.054447632282972336,0.7125946879386902,0.6197802424430847,-0.6695070266723633,-0.15613187849521637,0.3331422805786133,0.2891786992549896,1.0660145282745361,0.6422255039215088,0.4446004033088684,-1.2690984010696411,-0.4735199213027954,0.10376574099063873,0.3580721914768219,-1.1436978578567505,-0.3729320764541626,0.5963767170906067,-1.6756726503372192,1.2417933940887451,1.3246700763702393,0.3467772305011749,0.5350738763809204,-0.06495273113250732,-0.20573270320892334,-1.4323376417160034,0.25176435708999634,-0.22926348447799683,0.8742150664329529,-0.27615979313850403,0.5387178659439087,0.0013301655417308211,-0.4853672981262207,-0.6038433313369751,0.7233132719993591,-0.06432756036520004,0.10389815270900726,-1.128857135772705,-0.45285487174987793,0.12115702778100967,-0.5734813809394836,-0.2750718295574188,0.9527449011802673,0.39946138858795166,1.0263738632202148,-0.3532213568687439,-0.029427317902445793,0.5244575142860413,0.27095314860343933,0.1874186098575592,0.38124901056289673,-0.5906883478164673,-0.6100518107414246,0.6638386249542236,1.0000194311141968,-1.2654924392700195,-0.46131274104118347,-1.4343047142028809,1.325494408607483,-0.7492386698722839,-0.05400273576378822,-0.24334928393363953,0.5478759407997131,0.6050851345062256,0.38261592388153076,-0.6209975481033325,-0.4992855489253998,-1.066456913948059,-0.5621700882911682,0.8919451236724854,0.1851203590631485,0.1360255479812622,1.0339947938919067,0.2940966486930847,-0.8825567364692688,0.535433292388916,-0.38922783732414246,1.1524279117584229,-0.08061400800943375,0.8597080111503601,-0.667812705039978,1.4255024194717407,-0.03946917504072189,-0.015204980038106441,0.3960477113723755,0.04673025384545326,0.6239219903945923,-0.40148162841796875,1.2993664741516113,-1.0167723894119263,0.002266461495310068,0.49981388449668884,-0.42375388741493225,-1.0136080980300903,0.6086563467979431,-0.48231661319732666,-0.3662213385105133,-0.03744214028120041,-1.2238143682479858,0.4621709883213043,1.0129914283752441,0.2092089205980301,-0.04804985225200653,0.5740927457809448,1.1974029541015625,-0.5472037196159363,-0.06414808332920074,0.2732250392436981,0.08538636565208435,-0.00199098396115005,0.6162087917327881,0.7051282525062561,-0.32928019762039185,0.33170920610427856,0.029637377709150314,-0.3460741341114044,-1.542948603630066,0.5541771054267883,-1.0098271369934082,0.07115267962217331,-1.0161771774291992,-0.33576732873916626,-0.35008445382118225,-0.7691113948822021,0.3760952055454254,0.3678804337978363,1.1645007133483887,-0.5756251215934753,-0.7357585430145264,0.02294587716460228,-0.1702033132314682,0.3173867166042328,0.564649760723114,-0.9833314418792725,1.568998098373413,0.5852866172790527,-0.324851930141449,-0.8680927157402039,1.2433135509490967,0.3455851674079895,1.0028235912322998,-0.3942776918411255,0.9089682102203369,0.47296789288520813,-1.3700215816497803,-0.5908256769180298,0.14026109874248505,-0.009660933166742325,0.0748576819896698,-0.42883267998695374,0.11392940580844879,-1.9654227495193481,-0.9067099094390869,0.8229543566703796,1.222217321395874,1.3369702100753784,0.15622712671756744,-0.02517637610435486,0.48706766963005066,-0.3675945997238159,0.2898547351360321,-0.34594962000846863,-0.0007924645324237645,-0.7471893429756165,-0.7083637714385986,0.4510935842990875,1.6660231351852417,-0.33320775628089905,-0.3570188283920288,-0.39149579405784607,0.24430374801158905,0.42157092690467834,0.1397588849067688,0.5685429573059082,-0.08404820412397385,-0.9987422227859497,-0.6298315525054932,-0.180278941988945,-0.2064679116010666,0.8109939098358154,-0.2409677654504776,-1.2097798585891724,-0.9299655556678772,0.10267692804336548,0.23545348644256592,0.49675750732421875,0.6594992876052856,-0.2074470967054367,-0.9543629288673401,-0.06198020279407501,0.2559621036052704,-0.3217238485813141,-0.492430716753006,1.5336993932724,0.3235541880130768,0.1458466500043869,1.513210654258728,0.3151409924030304,0.4360625743865967,0.04729362949728966,1.0565177202224731,0.6435818672180176,0.2761259377002716,0.7849156856536865,0.3477298319339752,-0.09339819848537445,-0.952846348285675,0.9818063378334045,0.221008762717247,-1.1518319845199585,-0.03039998561143875,0.0871473029255867,0.4995599687099457,-0.15076233446598053,0.8110137581825256,-0.9820350408554077,-0.1947021186351776,-1.0583382844924927,0.21267788112163544,-0.32736736536026,0.2171182632446289,0.19590254127979279,-0.09800967574119568,0.8680633306503296,0.03139535337686539,-0.4760822057723999,-0.2268577516078949,0.06960418075323105,0.7810812592506409,0.3304283618927002,0.7605317234992981,0.5371026396751404,1.2667185068130493,0.11034947633743286,-0.707797110080719,-0.26521748304367065,0.8477618098258972,0.10784682631492615,-0.5173420906066895,-0.31794241070747375,0.6048506498336792,0.22748862206935883,0.8189170956611633,0.19555123150348663,-0.06750664114952087,-1.1612430810928345,0.40123701095581055,0.4131964445114136,0.5880985856056213,0.4453431963920593,0.33394163846969604,0.7917327880859375,0.26147937774658203,-0.08895842730998993,-0.3447646498680115,-0.34698861837387085,-0.2095736563205719,0.008022506721317768,-0.5316017270088196,0.8601006865501404,1.0516853332519531,-0.7536155581474304,0.5664043426513672,-0.05774199217557907,-0.3396008014678955,0.540025532245636,-1.269505500793457,-0.19420741498470306,1.1336983442306519,-0.9218935966491699,-0.2869340181350708,-1.0589522123336792,-0.21847078204154968,-0.3363840579986572,0.7128822803497314,1.053206443786621,-0.6260379552841187,-0.3593747615814209,0.7614874243736267,-0.5685614943504333,-0.3854222893714905,-0.9077894687652588,-0.2017982453107834,0.7997841835021973,-0.8497177362442017,-0.6183896660804749,-0.7557979226112366,-0.6468205451965332,0.902820885181427,-0.6375773549079895,-1.1129878759384155,-0.2650626599788666,-0.04049030691385269,-0.18283836543560028,-0.6231412887573242,0.7279590964317322,0.20905239880084991,0.9076470136642456,-0.14242233335971832,0.1137475073337555,0.3661402761936188,0.016507841646671295,0.8429931402206421,-0.44494298100471497,0.06209476292133331,-0.37727734446525574,-0.3873286843299866,0.4150751233100891,0.6341720223426819,-1.0884064435958862,-0.8412873148918152,0.07097747921943665,-1.0084937810897827,0.08637090027332306,-0.484549343585968,-0.034684062004089355,-0.13208863139152527,-0.4005700349807739,0.30211687088012695,-1.1820502281188965,0.43438607454299927,0.9946725964546204,0.9281796216964722,0.7758393883705139,0.686343252658844,0.6526496410369873,0.6582204103469849,1.4951579570770264,0.2930055558681488,0.21258537471294403,-0.2058533877134323,-0.15357936918735504,-0.5911882519721985,-0.8407111763954163,0.03041047975420952,-0.1022016778588295,-0.4243124723434448,-1.0157636404037476,1.1103836297988892,0.5272707939147949,-0.23887324333190918,0.226479172706604,-0.11872821301221848,-0.5153987407684326,0.615914523601532,1.1382242441177368,-0.004651923663914204,0.6683963537216187
本质,0.593730628490448,0.22252216935157776,0.6459892988204956,0.35571014881134033,-0.605596125125885,-0.43818968534469604,-1.2615374326705933,-0.18691876530647278,-0.21766287088394165,0.441023588180542,-0.0970190092921257,0.07042963057756424,0.7623951435089111,-0.2907421886920929,-0.6288943886756897,0.37159937620162964,-0.2762991487979889,0.30871617794036865,0.29625919461250305,0.2616131901741028,1.1677531003952026,0.7257826924324036,0.7005484104156494,-0.3282841444015503,-0.5858173370361328,-0.4764305651187897,0.5168659090995789,0.8301171064376831,-0.48795086145401,0.6381552219390869,0.24440641701221466,-0.6159820556640625,0.2486959993839264,0.7981334924697876,0.4177972674369812,-0.37489429116249084,-0.4633634090423584,0.1546994000673294,-0.5617939829826355,0.388532429933548,0.13679750263690948,0.4264810085296631,1.9481979608535767,-1.2888612747192383,0.30046042799949646,0.059829551726579666,0.5527113080024719,-0.07380655407905579,-0.10668238997459412,-0.029332386329770088,0.9976627230644226,0.07074517011642456,0.15159372985363007,1.0255564451217651,0.34671440720558167,-1.298898458480835,0.012046778574585915,0.9695342183113098,0.4238264560699463,-0.25803282856941223,-0.2589985132217407,1.5882978439331055,0.43896597623825073,0.343608021736145,-1.0382473468780518,-0.39980199933052063,-0.28842347860336304,-0.45778635144233704,-0.007966011762619019,0.95636385679245,-1.1663151979446411,-0.3481057584285736,0.5953851342201233,0.48701268434524536,-0.07159177958965302,0.07884421199560165,0.7552874684333801,0.3681009113788605,-0.12362364679574966,-0.2343558669090271,0.563609778881073,0.14729534089565277,-0.8066543340682983,-0.795244574546814,0.25211259722709656,-0.8978694081306458,0.6539740562438965,0.492207407951355,0.171760693192482,-1.4357064962387085,-1.481831431388855,0.055225010961294174,-0.5071134567260742,0.15021444857120514,-0.18293482065200806,0.02537248469889164,-0.1039004996418953,-0.208136186003685,1.434839129447937,0.9207731485366821,-0.9874863624572754,-0.3748649060726166,-0.6279261708259583,-0.2596518099308014,0.5713087916374207,-0.10337063670158386,-0.298078715801239,0.4125060737133026,0.24434535205364227,-0.4019101560115814,-0.12896008789539337,0.16363045573234558,-0.12669561803340912,0.9606872797012329,1.0840485095977783,-0.19839848577976227,1.0943673849105835,-0.8999340534210205,-1.419989824295044,0.36535024642944336,-0.35062453150749207,1.586012363433838,1.1982393264770508,-1.1382330656051636,2.2135190963745117,-0.312094122171402,-0.4293142259120941,1.2368042469024658,0.781794548034668,0.10938047617673874,0.6472455263137817,0.0013929142151027918,-0.9839039444923401,0.5587501525878906,-0.8038186430931091,0.1428733617067337,0.29159578680992126,0.6439863443374634,-0.12882351875305176,-1.1460216045379639,-0.16637758910655975,0.8652186989784241,-1.8302026987075806,0.1823769360780716,-0.5781514048576355,-1.3578224182128906,-0.7007097005844116,-0.08942734450101852,0.503236711025238,-0.6940598487854004,0.9206980466842651,1.270504117012024,0.987453043460846,1.164834976196289,0.41419312357902527,-0.08427852392196655,0.6388928294181824,-0.7369722723960876,-0.13180190324783325,-0.3758085370063782,0.7812004089355469,0.2051372528076172,1.376093864440918,-0.6012480854988098,-0.27994686365127563,0.25995057821273804,0.555044949054718,-0.05804150179028511,-1.6251648664474487,0.43498170375823975,-0.9899431467056274,-0.47418227791786194,-0.5279348492622375,-0.6250665783882141,0.35884931683540344,0.6307195425033569,0.7080192565917969,0.8376771211624146,0.0084897605702281,-0.32484185695648193,0.2607782483100891,-0.25446486473083496,-0.7784711718559265,0.43413880467414856,-0.02781881019473076,0.12805907428264618,1.7439322471618652,-0.8881818652153015,-0.2811757028102875,-0.3169613480567932,0.4793908894062042,0.34024178981781006,1.1273053884506226,-0.23125915229320526,0.16139379143714905,-0.13323090970516205,-0.32702574133872986,0.2933867275714874,0.3772973418235779,0.7038929462432861,0.18588152527809143,0.23649324476718903,-0.3447672724723816,0.04500183090567589,0.14024780690670013,-0.6902719736099243,0.21000415086746216,0.16503453254699707,0.22553721070289612,-1.0397753715515137,0.985992968082428,0.26631319522857666,0.3725959360599518,0.47970232367515564,-0.26680728793144226,-0.3485311269760132,-0.8251277208328247,-0.5222164988517761,0.7577530145645142,0.8362605571746826,-1.0216742753982544,0.10906694829463959,-1.569293737411499,0.2139902561903,-1.2997372150421143,0.1730547547340393,0.9226866960525513,0.3837742209434509,-0.3460189402103424,-1.1868215799331665,-0.8194758296012878,-0.006573050748556852,0.46928513050079346,-0.5243380665779114,-0.3655337989330292,-0.14788194000720978,0.24288417398929596,-0.2503615617752075,0.1515619307756424,-0.24941374361515045,-1.7234801054000854,-0.7454339265823364,0.48395124077796936,-0.4111567437648773,0.29931482672691345,0.3587176501750946,-0.06392956525087357,-1.2385272979736328,1.865584373474121,0.18562021851539612,0.7646238207817078,0.24617497622966766,0.09318782389163971,0.48642289638519287,1.3573200702667236,1.7021633386611938,0.13635846972465515,-0.9477109909057617,-0.5982858538627625,0.60676509141922,0.4112565219402313,0.5403760075569153,0.9525631666183472,0.035606298595666885,-0.9793052077293396,0.48863697052001953,0.039013296365737915,-0.43166422843933105,-0.07349422574043274,0.1768634170293808,0.023352960124611855,0.3494299352169037,0.6148608922958374,0.6534337401390076,0.18130668997764587,-0.14643089473247528,0.2996276915073395,0.03725710138678551,-0.8976649045944214,-0.7854229211807251,-0.04180716723203659,-0.38956791162490845,-0.1843307465314865,-0.006882765796035528,0.032228611409664154,-0.7375370264053345,0.11627785116434097,0.2044302225112915,-0.6357116103172302,0.16357213258743286,-0.0921376496553421,0.044754642993211746,-0.29138365387916565,-0.26600685715675354,0.34160664677619934,0.09230193495750427,0.07700754702091217,0.05141706019639969,-0.09682037681341171,-1.3540290594100952,-0.6665374636650085,-0.5016152858734131,-0.4656463861465454,-1.0340230464935303,-0.1297774463891983,-1.3275976181030273,-0.3349353075027466,0.6017309427261353,-0.7688859701156616,-0.5499243140220642,-0.5631111860275269,0.7521802186965942,0.7049188017845154,-0.7522416710853577,0.6762585043907166,-0.05189014598727226,0.49678587913513184,0.11200534552335739,-0.12045156955718994,0.654872477054596,-0.27336373925209045,-1.140582799911499,-0.30101272463798523,-0.5771194100379944,-0.09196481853723526,0.4442780315876007,0.2622235417366028,0.3557226061820984,-0.20474618673324585,-1.0448801517486572,-0.20614878833293915,-0.4884107708930969,-0.6104652285575867,-0.6293202638626099,-0.3255573511123657,-0.210502028465271,0.8161110281944275,-0.2930524945259094,0.05496584251523018,0.16819556057453156,0.47100651264190674,0.4500514268875122,0.16921955347061157,0.4386223256587982,-0.6845197677612305,-0.5981932878494263,-0.683458685874939,1.6601611375808716,-0.42012396454811096,0.23860770463943481,-0.23340412974357605,-0.7762858867645264,0.19970770180225372,0.3477728068828583,0.024389047175645828,0.1462368220090866,0.2760545015335083,0.1483384668827057,0.7671396732330322,-0.4374179244041443,-1.1336207389831543,0.20110273361206055,-0.7077503800392151,0.1559477150440216,0.03849201276898384,-0.17344339191913605,0.4134783148765564,0.3023776412010193,0.560573160648346,0.8089986443519592,0.1630614995956421,-0.0694989413022995,-0.42851853370666504,0.7232706546783447,-0.5203461647033691,-0.11278601735830307,0.37760064005851746,0.25192344188690186,0.8903970122337341,-0.2220163345336914,0.37503543496131897,0.9959360361099243,-0.702383816242218,-0.5920188426971436,0.25321686267852783,-1.130523681640625,-0.28836366534233093,0.37701791524887085,0.35002100467681885,0.15631583333015442,0.1246500015258789,1.0142817497253418,0.6625792384147644,-1.4162101745605469,-0.5522713661193848,-0.7597678899765015,-0.7892407178878784,-0.3847652077674866,-0.10483631491661072,-0.22111161053180695
方法,-0.31920498609542847,0.06680338829755783,0.043890975415706635,0.5756761431694031,0.02686205692589283,-0.05875993147492409,-0.30345189571380615,1.0339148044586182,-0.25669556856155396,0.0596485361456871,-0.10268526524305344,-0.053010158240795135,0.8298730254173279,-0.4521237313747406,-0.06386774033308029,0.7466543912887573,0.09512361139059067,0.46517035365104675,0.6384049654006958,0.02018461935222149,0.22742144763469696,0.5375423431396484,0.09709490090608597,0.5989350080490112,0.27030444145202637,-0.3927818536758423,-0.19846844673156738,-0.0742420181632042,-0.7730974555015564,0.5015802979469299,-0.09992529451847076,-0.5441464781761169,0.6442679166793823,-0.17427141964435577,0.36362534761428833,0.1367606669664383,0.19945979118347168,-2.3195600509643555,-0.06684363633394241,-0.3830723166465759,-0.7914184331893921,-0.2690664827823639,0.01641860045492649,0.04486025497317314,-0.549400806427002,-0.6506405472755432,-0.95953369140625,-0.2514737546443939,0.4513278901576996,0.42602282762527466,-0.09191307425498962,0.32347604632377625,-0.3126608729362488,0.003364581847563386,0.5181694626808167,-0.2699708342552185,0.1441383957862854,-0.1375429481267929,0.46192124485969543,-0.2558770179748535,0.3480445146560669,0.8754655718803406,-0.11041342467069626,-0.9760360717773438,-0.5370319485664368,-0.7057713270187378,0.0099714957177639,-0.246370330452919,-0.8677086234092712,2.0760180950164795,-0.3786207437515259,1.059505581855774,-0.4688849151134491,-0.12344416975975037,0.390509694814682,0.37032103538513184,-0.571133017539978,-0.6089383363723755,0.323414146900177,0.4877963662147522,0.6609712243080139,-0.33378368616104126,-0.16978619992733002,0.34786373376846313,-0.8238447308540344,-1.5766352415084839,-0.09096678346395493,0.08772169053554535,-0.2905074954032898,-0.8532763719558716,0.03540940210223198,-0.3742467164993286,0.5279933214187622,-0.4000052809715271,-0.16539248824119568,0.3241077661514282,0.40474823117256165,0.33319827914237976,-0.46356001496315,0.136618509888649,0.3998538851737976,-0.2622581720352173,-0.9168784618377686,0.6946016550064087,-0.34981846809387207,-0.2556445300579071,-0.3942078649997711,-0.5263902544975281,-0.7238127589225769,-0.8725031614303589,-0.2510530352592468,0.32201671600341797,0.4188934862613678,-0.03352677449584007,0.6055935025215149,0.003285661805421114,0.4075116515159607,-1.192391037940979,0.43540504574775696,-0.30159810185432434,0.030058084055781364,0.541113555431366,0.1451185643672943,-0.0328947938978672,0.38426297903060913,0.03128991648554802,0.26334795355796814,-0.05396576598286629,0.32397353649139404,-0.41758298873901367,0.5560541152954102,0.3801153898239136,-1.1455295085906982,0.35177353024482727,-0.2609485983848572,0.03895042836666107,0.34497469663619995,0.07048172503709793,-0.054266754537820816,-0.686385452747345,0.016413738951086998,0.7133836150169373,-0.10507538169622421,1.0096617937088013,-0.11636756360530853,-0.17679618299007416,-0.120104119181633,-0.07558193802833557,-0.06250333040952682,-1.0483012199401855,-1.052351713180542,1.1490517854690552,0.06228496879339218,0.9088186025619507,0.06562945991754532,0.7432504296302795,0.8192163705825806,-0.28249019384384155,-0.008481967262923717,-0.015207781456410885,0.7925218343734741,1.3316510915756226,0.879997193813324,0.6172855496406555,0.023673903197050095,-0.785949170589447,-0.24152787029743195,1.0249930620193481,-1.8803753852844238,-0.8628616333007812,-0.8087281584739685,-0.16461756825447083,-0.5924792289733887,0.22504276037216187,0.1164514422416687,-0.13364277780056,-0.03278440237045288,-0.39939141273498535,0.9745723009109497,-0.45321542024612427,-0.11524957418441772,-0.08649258315563202,-0.9577979445457458,0.03889387473464012,0.3493484556674957,1.228875994682312,0.9065361618995667,-0.4876948297023773,-0.8007133603096008,-0.6607899069786072,0.6323546171188354,-0.3918868601322174,0.5004680752754211,0.9123958349227905,-0.02378060482442379,0.5791345834732056,-1.0583416223526,0.7239382863044739,0.7450404763221741,0.5693132877349854,-0.30818381905555725,0.09144584834575653,0.7262592911720276,-1.4716492891311646,0.18629209697246552,-0.13196206092834473,1.0176537036895752,0.6758458018302917,0.348023384809494,-0.963726282119751,0.3662753701210022,0.6819093227386475,0.05720179155468941,0.6698427200317383,0.6602756381034851,0.3194925785064697,-0.3228189945220947,-0.04773269593715668,-0.006234816275537014,0.4348108172416687,-0.4652349054813385,0.29544585943222046,-0.198494553565979,0.21704797446727753,-0.2577728033065796,0.27269142866134644,0.2326304018497467,-0.35764604806900024,-0.4414924383163452,-0.4667544662952423,-0.9580841660499573,0.606679379940033,0.2107580155134201,-0.48275208473205566,-0.2652819752693176,-0.06385722011327744,-0.3123400807380676,-0.03705243021249771,0.40199849009513855,-0.600227415561676,-0.6016567945480347,-0.05348154157400131,0.3136206865310669,0.7972165942192078,0.7208039164543152,0.6640411019325256,0.2194897085428238,0.02666568011045456,0.4693424701690674,0.5384023785591125,0.18107229471206665,0.0697251409292221,1.1772438287734985,0.5274675488471985,0.516732394695282,0.8029594421386719,0.6494152545928955,0.5916363000869751,-0.8183972835540771,0.9373252987861633,-0.18297064304351807,-0.5377790331840515,0.5506668090820312,-0.17835445702075958,0.8604514598846436,0.8987154960632324,0.6780930757522583,-0.4138309061527252,0.16772602498531342,0.11442451924085617,-0.3109350800514221,0.5017185211181641,-0.40855860710144043,0.8440560102462769,-0.15383277833461761,0.7558653354644775,-0.6320520639419556,-0.09752518683671951,0.10773737728595734,-1.7020212411880493,-0.8704831004142761,-0.7054898738861084,0.17954805493354797,0.1813189834356308,-0.4679122269153595,0.865078330039978,0.4728884696960449,-0.49370959401130676,0.46913209557533264,0.8256144523620605,0.6294970512390137,0.3075597286224365,-0.2637457251548767,-0.28566718101501465,-0.3272193968296051,-0.17797274887561798,-0.4057486951351166,0.2949632406234741,0.251010000705719,-0.6993628144264221,-0.47655123472213745,0.8586734533309937,0.34002774953842163,0.42372387647628784,-1.1253565549850464,-0.06566130369901657,-0.7588134407997131,0.35385072231292725,-0.24440474808216095,-0.16346028447151184,-0.5654920935630798,0.23038116097450256,0.39817196130752563,0.28247085213661194,0.4341318607330322,0.31190839409828186,0.3202103078365326,-0.5156972408294678,-0.6791010499000549,-0.01570749096572399,-0.16829244792461395,-0.5428431630134583,0.41098394989967346,-0.34193554520606995,0.9884123802185059,0.4473026692867279,0.14694511890411377,-0.07474712282419205,0.44093582034111023,0.026137251406908035,0.7537122964859009,0.1750144213438034,0.8087770938873291,-0.21394126117229462,0.4457285702228546,-0.04856416955590248,0.7465038895606995,-0.49863630533218384,-0.11707396060228348,-0.12907081842422485,1.1260234117507935,-0.002444129204377532,-0.44936099648475647,-0.1684025079011917,-0.25115588307380676,-0.48541003465652466,-0.6446818113327026,0.8386669158935547,-0.9684975743293762,-0.0640663206577301,-0.32463496923446655,-0.45576468110084534,0.38111355900764465,-0.14282946288585663,0.5821424126625061,-0.35702136158943176,-0.34019896388053894,-0.4526216387748718,0.31092071533203125,0.11701378226280212,0.5846534371376038,-0.05053247511386871,-0.8522425889968872,0.3354259133338928,-0.08449779450893402,0.8702591061592102,0.0698038712143898,-0.0933862030506134,-0.12224828451871872,-0.6694477200508118,0.21953792870044708,-0.21561017632484436,-0.46052277088165283,-0.16372868418693542,0.8762819170951843,-0.48608455061912537,0.3304552137851715,0.1989501714706421,1.4037419557571411,0.7083733081817627,-0.5518573522567749,0.28129667043685913,0.7570540308952332,-0.15428568422794342,-0.8225294947624207,-2.3796708583831787,-0.6577535271644592,-0.05736818537116051,-0.167685866355896,0.15654514729976654,0.5332829356193542,0.3951207399368286,-0.38368889689445496,-0.257955938577652,0.21262823045253754,0.5658788084983826,-0.39541637897491455,-0.21248023211956024,-0.2935636043548584,0.02412409335374832
