word,0,1,2,3,4,5,6,7,8,9,10,11,12,13,14,15,16,17,18,19,20,21,22,23,24,25,26,27,28,29,30,31,32,33,34,35,36,37,38,39,40,41,42,43,44,45,46,47,48,49,50,51,52,53,54,55,56,57,58,59,60,61,62,63,64,65,66,67,68,69,70,71,72,73,74,75,76,77,78,79,80,81,82,83,84,85,86,87,88,89,90,91,92,93,94,95,96,97,98,99,100,101,102,103,104,105,106,107,108,109,110,111,112,113,114,115,116,117,118,119,120,121,122,123,124,125,126,127,128,129,130,131,132,133,134,135,136,137,138,139,140,141,142,143,144,145,146,147,148,149,150,151,152,153,154,155,156,157,158,159,160,161,162,163,164,165,166,167,168,169,170,171,172,173,174,175,176,177,178,179,180,181,182,183,184,185,186,187,188,189,190,191,192,193,194,195,196,197,198,199,200,201,202,203,204,205,206,207,208,209,210,211,212,213,214,215,216,217,218,219,220,221,222,223,224,225,226,227,228,229,230,231,232,233,234,235,236,237,238,239,240,241,242,243,244,245,246,247,248,249,250,251,252,253,254,255,256,257,258,259,260,261,262,263,264,265,266,267,268,269,270,271,272,273,274,275,276,277,278,279,280,281,282,283,284,285,286,287,288,289,290,291,292,293,294,295,296,297,298,299,300,301,302,303,304,305,306,307,308,309,310,311,312,313,314,315,316,317,318,319,320,321,322,323,324,325,326,327,328,329,330,331,332,333,334,335,336,337,338,339,340,341,342,343,344,345,346,347,348,349,350,351,352,353,354,355,356,357,358,359,360,361,362,363,364,365,366,367,368,369,370,371,372,373,374,375,376,377,378,379,380,381,382,383,384,385,386,387,388,389,390,391,392,393,394,395,396,397,398,399
医,0.9767353534698486,-0.00886062253266573,-0.9706165790557861,0.2972398102283478,0.3302674889564514,-0.9847445487976074,-0.2097771316766739,0.77442866563797,-1.9453953504562378,-0.9700322151184082,2.0420312881469727,1.6751922369003296,1.1936324834823608,-0.18683908879756927,-0.05596242845058441,-0.17503364384174347,0.7562264800071716,-1.7795546054840088,0.08765167742967606,-0.392477422952652,-0.3581087291240692,-1.1726700067520142,-0.3714050352573395,0.5502968430519104,-1.8577157258987427,0.33311527967453003,0.7763803005218506,-0.8022096753120422,0.48881781101226807,-1.4494839906692505,0.8929883241653442,-0.4328555464744568,-0.5358601212501526,0.17753088474273682,-0.5775099992752075,0.14762185513973236,0.061809949576854706,-1.26029372215271,-0.09904200583696365,-0.7477078437805176,0.07539777457714081,0.10912385582923889,0.9743142127990723,-0.011912579648196697,-0.124677874147892,0.8193643093109131,-1.6396253108978271,0.6348655223846436,0.570882260799408,-0.367613822221756,0.22339566051959991,0.7419067621231079,0.6452508568763733,0.23156313598155975,-0.24956849217414856,-0.4403117299079895,-0.773942232131958,-0.5632863640785217,1.735255241394043,-0.630687415599823,2.0506482124328613,0.7967443466186523,-1.4417387247085571,0.7684644460678101,0.48311328887939453,0.47789645195007324,-0.649752140045166,0.33783289790153503,0.11322102695703506,0.40120747685432434,0.11024894565343857,-0.7684630155563354,0.5198836326599121,0.15053042769432068,0.215349942445755,1.7804582118988037,1.1360236406326294,0.10410364717245102,-0.011412187479436398,-0.7406964898109436,0.7586314678192139,-0.23930726945400238,-0.18100886046886444,0.24855263531208038,-0.5300916433334351,-0.20093415677547455,0.7532585263252258,0.31788259744644165,1.5808489322662354,-0.8384664058685303,-0.8792962431907654,0.8221546411514282,-1.0027248859405518,1.8313627243041992,0.11454055458307266,-1.2839157581329346,0.03161882609128952,-0.6703481078147888,0.21457579731941223,0.5712763071060181,-1.316170334815979,0.43706682324409485,-0.06131889671087265,-1.6818835735321045,-0.648089587688446,0.4929828941822052,-0.08685742318630219,-0.04576705023646355,-0.7615894675254822,-0.8177800178527832,-0.1069151982665062,1.1858206987380981,-0.9022831320762634,-0.5003126263618469,-0.33627140522003174,0.3412967324256897,0.5363971590995789,0.6040886640548706,-0.5982435941696167,-1.182850956916809,-0.7466122508049011,0.8588195443153381,0.8727506995201111,2.3077306747436523,-0.35728222131729126,0.17633120715618134,0.9596934914588928,-1.0386862754821777,0.3603040874004364,0.48719239234924316,1.0137572288513184,1.370527744293213,0.2351818084716797,-0.42447564005851746,0.07145057618618011,-1.0742650032043457,0.8639747500419617,0.24568387866020203,1.457873821258545,-0.7101753950119019,-0.6040774583816528,0.2472091168165207,-0.5475445985794067,-0.08991483598947525,-0.6197636127471924,0.1273549497127533,-0.18550927937030792,0.37634894251823425,0.43923625349998474,1.0950267314910889,-0.10183198750019073,-0.4896567463874817,0.08832209557294846,-0.2702271640300751,-0.6337433457374573,-0.22163119912147522,-0.6524403691291809,-0.20667846500873566,-1.9838106632232666,0.14178891479969025,-1.3854588270187378,-1.6480319499969482,0.1391323357820511,0.1151593029499054,-0.8254299163818359,-0.3083943724632263,-0.4704053997993469,1.6125508546829224,-0.05841507017612457,0.7967883348464966,-1.6584237813949585,1.4868336915969849,0.10444004833698273,1.284666895866394,0.39151179790496826,-0.3207370340824127,0.43140995502471924,-0.5629472732543945,-1.7976094484329224,-0.29059815406799316,0.5588858127593994,-0.6189422011375427,0.99570232629776,0.043746113777160645,-0.9362890720367432,-0.5459444522857666,0.4777897298336029,-0.7677221894264221,0.7792969942092896,0.9996318817138672,-1.3317972421646118,0.04660665988922119,-0.6873034834861755,0.30371877551078796,-0.32425782084465027,0.1681150197982788,-0.19421231746673584,0.9799642562866211,-0.5957443714141846,-1.0665042400360107,-0.4427184462547302,-0.09909889101982117,-1.4395344257354736,0.25322452187538147,1.0757626295089722,-0.09784938395023346,-0.5867238640785217,0.22430475056171417,-0.040797360241413116,-1.485246181488037,-0.2675139307975769,-0.3570321202278137,-0.7771589159965515,-0.9206118583679199,0.44719845056533813,-0.9171979427337646,1.9034991264343262,1.3901771306991577,-0.25642129778862,0.5861818194389343,0.9754018783569336,-0.9983821511268616,0.3199513256549835,2.2351012229919434,-1.4982151985168457,0.505553126335144,-1.6551690101623535,0.36926448345184326,-0.18197154998779297,0.24747726321220398,-1.1575629711151123,-0.7025147676467896,-0.6426296234130859,-0.0882168561220169,-0.8250281810760498,-1.1532310247421265,0.07008031010627747,0.16114401817321777,-0.24073052406311035,0.06982036679983139,-0.6224645376205444,0.24684834480285645,0.3591330647468567,0.33789899945259094,0.14299345016479492,-0.8747782707214355,-0.8486917614936829,-0.6684548854827881,-0.293670654296875,-0.4491961896419525,0.20000925660133362,1.4186056852340698,0.6060717701911926,1.489531397819519,0.2989712357521057,-0.44719716906547546,0.5024582743644714,-0.15553784370422363,-1.8214467763900757,0.3386768400669098,-0.24058745801448822,0.27299535274505615,1.751203179359436,-0.6780439615249634,0.9720901846885681,0.398049920797348,0.5515778660774231,-0.9379110932350159,-0.6296442747116089,1.6027642488479614,-0.9987596869468689,-0.057352129369974136,-0.12084153294563293,0.7633404731750488,-0.8966949582099915,0.056458499282598495,0.23698098957538605,0.12520448863506317,0.7885273098945618,-0.5014135241508484,0.2418213039636612,1.1087522506713867,-0.9071177244186401,0.222354918718338,-1.84642493724823,-0.6086584329605103,0.29752323031425476,-1.250084638595581,0.25364845991134644,-0.03151785954833031,-0.31065312027931213,0.11667536199092865,0.9042521119117737,0.2530842423439026,0.1816462278366089,0.10943446308374405,-0.44909238815307617,0.718891978263855,-0.9902319312095642,-0.8605952262878418,0.025213435292243958,0.6378551125526428,0.21705849468708038,-0.4260857403278351,-0.5365890264511108,-0.1869828999042511,0.05168954282999039,-0.8798657059669495,-0.6117220520973206,-0.23365864157676697,-0.44018682837486267,-0.20935086905956268,-0.9203023910522461,1.112140417098999,0.5553725957870483,-2.0149853229522705,-0.004027456510812044,-0.09244468808174133,-1.1781375408172607,0.4571637213230133,0.10647691786289215,-0.38279688358306885,0.17602793872356415,1.1460546255111694,-0.13882438838481903,0.20453223586082458,-0.34327688813209534,-0.4828065037727356,-0.3720870614051819,-1.16196870803833,1.8729599714279175,1.8325742483139038,-2.015091896057129,1.0619630813598633,0.4983006715774536,-0.6794943809509277,0.7608442306518555,0.09253498911857605,-1.3232336044311523,0.8975251913070679,0.8232501745223999,0.7384387850761414,-1.1826295852661133,1.3507813215255737,0.31860044598579407,-0.12145866453647614,-0.09139274060726166,0.15070967376232147,0.7915729880332947,-1.0573458671569824,-0.2260430008172989,-0.11973284929990768,0.2929597795009613,-0.5166605114936829,1.067975401878357,1.0372449159622192,0.09418294578790665,0.9645159244537354,-1.2796010971069336,-1.5349805355072021,0.5346440672874451,0.8477229475975037,-0.2590348720550537,1.1815131902694702,0.6826995015144348,-0.10429620742797852,-0.5646185874938965,-0.7107515335083008,1.6834611892700195,0.760235607624054,1.167771577835083,-0.6938636898994446,0.41119322180747986,-1.494909644126892,-0.03152259439229965,0.38748490810394287,-1.17537260055542,0.7638493180274963,-0.20604540407657623,-0.20058917999267578,0.4643414616584778,-0.4361025393009186,0.7316933274269104,1.1241950988769531,0.27834808826446533,0.32309362292289734,-0.4673360288143158,1.0110359191894531,-0.29802870750427246,0.8476117253303528,-0.549595296382904,1.090914011001587,1.353271484375,0.22072622179985046,-0.6057665348052979,0.33849141001701355,0.6889484524726868,1.4967994689941406,-0.07964594662189484,1.0911998748779297
经济体,0.23276497423648834,-1.1636000871658325,1.6042354106903076,0.0013184872223064303,-1.1810680627822876,-0.49104025959968567,-1.4857966899871826,-0.8133262991905212,-0.6995491981506348,-1.3604741096496582,-0.32512056827545166,0.04143495857715607,-0.5553814768791199,-0.7148931622505188,-0.4083007574081421,0.30195939540863037,0.6434434056282043,-0.32651931047439575,0.24445144832134247,-0.6830722093582153,0.8267946839332581,-0.47353655099868774,1.8888814449310303,-0.13177062571048737,0.2028469294309616,-0.21324169635772705,0.3082166612148285,0.07200327515602112,0.0922272801399231,-0.703488290309906,0.33198654651641846,1.0399422645568848,0.5211283564567566,1.352036714553833,0.9313629865646362,0.5388240218162537,0.40250110626220703,-1.1862198114395142,-0.004727290477603674,0.6662425398826599,1.6851893663406372,0.7019535303115845,0.5987319946289062,0.4673837721347809,0.49258938431739807,-0.16536197066307068,0.9548013806343079,0.3459468185901642,0.4724995493888855,-0.5992387533187866,-0.09497543424367905,0.33084961771965027,-1.5019584894180298,-1.1218372583389282,0.25402578711509705,0.021486250683665276,-0.13334926962852478,0.0018130658427253366,-0.3774281442165375,1.0065990686416626,-0.6216284036636353,0.8982365727424622,-0.14098380506038666,0.4444437026977539,-0.4336809813976288,1.1980642080307007,-0.8575317859649658,-0.004895462188869715,0.16133886575698853,0.08829750865697861,1.0633412599563599,0.2690328061580658,0.4435410499572754,-0.5622684359550476,0.03417915105819702,-0.13006338477134705,1.437705397605896,-0.17971348762512207,-0.33194059133529663,-0.9322443604469299,1.2260798215866089,-1.369367003440857,1.5445075035095215,0.6610986590385437,0.2051694542169571,0.20428431034088135,-0.20248787105083466,0.26088786125183105,0.1369716227054596,0.03309214487671852,-0.5577574372291565,0.959538459777832,-0.6388843059539795,1.058086633682251,-0.6187970638275146,-0.3287297785282135,-0.21739917993545532,1.0901778936386108,-0.738503098487854,-0.4091407060623169,-0.32493722438812256,-0.9682420492172241,0.5422849655151367,0.6508856415748596,1.4069234132766724,1.9078898429870605,-0.584278404712677,0.46962952613830566,-0.24017922580242157,0.5002743601799011,0.4725436866283417,-0.0569474995136261,-1.1285436153411865,0.10010100901126862,0.21989120543003082,0.6438706517219543,1.319972038269043,-0.9851220846176147,-0.7593648433685303,-0.16392575204372406,-1.2984538078308105,0.9643505811691284,1.2579119205474854,0.5290411114692688,-0.7014397978782654,-0.37719523906707764,1.1890017986297607,1.2373777627944946,-0.31790655851364136,-1.0126086473464966,0.331653892993927,-1.50259268283844,-1.3262382745742798,-1.741101861000061,-0.9472151398658752,-0.9899551868438721,0.226591557264328,-0.8654308915138245,1.1722925901412964,-0.4709686040878296,-0.4328874945640564,-0.42258819937705994,0.3593980669975281,-1.6236084699630737,-0.4316624402999878,1.0793437957763672,-0.9602631330490112,1.361856460571289,0.5490261912345886,0.16340184211730957,-0.7119226455688477,-0.045373883098363876,-0.9203251600265503,-0.5836812853813171,0.9814483523368835,-0.45248544216156006,1.1833950281143188,0.5236078500747681,-0.0466100312769413,-1.3626164197921753,0.9614301323890686,0.8346539735794067,-0.7394616007804871,0.21224170923233032,-0.9496058225631714,-0.3976704478263855,-1.5673285722732544,-0.6319254636764526,-0.4241625964641571,0.8414419889450073,-0.51763516664505,0.25945788621902466,1.430187463760376,-0.08013764768838882,-0.07140851765871048,1.0533547401428223,-0.3620551824569702,0.32284611463546753,1.8307229280471802,1.2672487497329712,1.0225706100463867,0.24962890148162842,-0.38688039779663086,-1.219408392906189,-0.05007348582148552,0.7449881434440613,-0.3191094696521759,0.21885700523853302,0.6327236294746399,0.7481639981269836,-0.9149025678634644,-1.6904947757720947,-0.7415509819984436,0.11041779071092606,-0.740196168422699,0.042962104082107544,0.2321053147315979,-0.8885902762413025,-0.8467691540718079,0.42628374695777893,-0.5818858742713928,-0.9186844825744629,0.3042346239089966,0.6244902014732361,-0.43947502970695496,0.06451042741537094,0.4009619951248169,-0.9641863107681274,0.7056564688682556,0.269564688205719,-0.3875643014907837,1.5534898042678833,-0.19806425273418427,2.8877415657043457,-0.9364619851112366,-0.47208836674690247,-0.4012373685836792,-0.14458268880844116,0.1882234811782837,0.17668622732162476,-0.09494556486606598,-0.12453593313694,2.151210308074951,-0.397562175989151,-0.39119839668273926,0.015306183136999607,-0.026544740423560143,-0.5916454195976257,-0.32606104016304016,0.6003625988960266,-1.958493947982788,1.4328410625457764,0.563365638256073,-0.8623227477073669,-0.2670058608055115,0.4386206865310669,0.22835925221443176,0.016598857939243317,-1.1327451467514038,0.30145925283432007,-0.3976270854473114,0.27945879101753235,0.21767301857471466,0.8953306078910828,1.3206764459609985,0.7186539173126221,0.33728885650634766,-1.2544538974761963,-1.2600833177566528,-0.6421220898628235,0.24566037952899933,1.170968770980835,-0.0988372415304184,-1.7492084503173828,-0.5346488952636719,-0.5359494090080261,0.9417482018470764,-0.0010765554616227746,-1.3207817077636719,-0.6781805753707886,0.649612545967102,0.6084288954734802,0.3276400864124298,-0.06547188758850098,0.42373088002204895,-0.17036829888820648,-0.2131182700395584,-0.8321089148521423,-0.17724251747131348,-1.59574556350708,0.3553909957408905,1.530419945716858,-1.7987953424453735,-0.2500195801258087,0.018562858924269676,0.7187997698783875,-1.1133915185928345,0.05685030668973923,-0.1461184322834015,-0.3628960847854614,1.0951255559921265,-1.0353448390960693,-0.8992365598678589,-1.5853586196899414,-0.2539985179901123,0.9822478294372559,1.2756521701812744,0.06799627840518951,0.2667975425720215,0.8447436690330505,-0.28299930691719055,-1.2732453346252441,0.103133425116539,-0.1702367216348648,0.45739316940307617,0.6382901072502136,0.08118926733732224,-0.925250768661499,-1.1173585653305054,1.2443031072616577,0.13698475062847137,-0.43055886030197144,-0.3756338357925415,0.6745520234107971,-1.3713189363479614,-0.03442810848355293,0.20353718101978302,0.7799374461174011,-0.3281131386756897,-1.6038423776626587,-0.440064936876297,0.9315040111541748,-0.12729623913764954,-1.5928137302398682,-0.094442218542099,1.768652081489563,-0.6471939086914062,0.27335163950920105,0.6355226039886475,0.2604421079158783,1.6560943126678467,0.5828200578689575,-0.31262364983558655,-0.426119863986969,-1.0330215692520142,0.5508123636245728,0.025054270401597023,-0.9840901494026184,1.3442267179489136,-0.8820297718048096,0.2517971396446228,-0.9097257256507874,-1.6812825202941895,0.05172279477119446,-1.1507164239883423,1.3456003665924072,0.6135537028312683,-0.005000630859285593,-1.4495402574539185,-0.5420399308204651,0.30650991201400757,1.120924472808838,1.061209797859192,-0.9220309853553772,0.586091935634613,0.32504215836524963,0.35049909353256226,0.08106786012649536,-0.2523173689842224,-0.8303650617599487,1.3773677349090576,0.5304005742073059,-1.2076022624969482,-0.4342661201953888,1.505662441253662,0.9090638160705566,0.37462007999420166,-0.5029088258743286,-0.7292205095291138,0.8161361813545227,-0.8843196630477905,-0.37158817052841187,0.625056266784668,0.2306295484304428,-0.3677266836166382,0.2685908377170563,-0.8317123651504517,0.8682282567024231,0.3935672640800476,-0.43558064103126526,-0.008262181654572487,-0.6999005079269409,0.42786312103271484,-0.2887461483478546,0.2094702571630478,-0.17395496368408203,1.0409225225448608,-1.1324567794799805,-0.3121430575847626,-0.21246694028377533,-0.7671852111816406,0.7644500136375427,0.2484620362520218,-0.8424615263938904,0.06279409676790237,-0.4808959364891052,-0.006098145619034767,-0.12477587163448334,0.3621485233306885,-0.9239382147789001,0.5432981252670288,-1.1364315748214722,-0.6483309864997864,-0.7182294726371765,0.8880245089530945,-0.10252359509468079,-0.491558700799942,0.27690500020980835,-0.05789114162325859,-0.07398912310600281
想,1.6595619916915894,1.0110360383987427,0.5118355751037598,-2.235074996948242,0.8887863159179688,-1.4805777072906494,1.765932559967041,-0.22318308055400848,-1.0168585777282715,0.3905137777328491,-0.6573622822761536,-1.076078176498413,0.7035481333732605,-0.5013400912284851,-1.5528613328933716,-1.8878709077835083,-2.869739532470703,1.4821984767913818,1.0535551309585571,-0.11711230129003525,-1.0787444114685059,-1.5645263195037842,-1.3140175342559814,0.03306231647729874,0.02986154891550541,0.21190953254699707,0.6025725603103638,-0.9063485860824585,0.21748696267604828,-0.19111265242099762,0.7482718229293823,0.03773016482591629,1.061921238899231,0.49874910712242126,-0.1104615181684494,-0.3315430283546448,-1.1548645496368408,-0.029069820418953896,0.9909470081329346,0.04245094582438469,0.5561901330947876,-1.210949182510376,1.6838269233703613,-0.3693697452545166,-1.1864768266677856,-0.04371842369437218,0.4546453058719635,-0.2534823715686798,0.44730883836746216,1.393255352973938,1.762723445892334,1.191642165184021,0.3173709511756897,0.5039052963256836,1.0362483263015747,-0.5689525604248047,1.4079737663269043,1.475514531135559,1.5788395404815674,2.015690326690674,0.9796063303947449,0.7627933621406555,0.754666805267334,0.7318827509880066,1.126237154006958,-2.2912983894348145,0.28891226649284363,-0.6745887398719788,-1.673291563987732,0.2759207487106323,-1.6306054592132568,0.014402219094336033,2.237011671066284,0.28804150223731995,1.1171573400497437,-1.3473671674728394,-1.3391035795211792,0.2704446315765381,0.1496705859899521,-0.27814409136772156,-3.1088249683380127,-0.04111834615468979,0.17478720843791962,0.3453435003757477,-0.216138556599617,-0.4361121654510498,-0.24098432064056396,-0.24322520196437836,-1.677339792251587,-1.8975800275802612,-0.3490331470966339,0.6467953324317932,0.293100506067276,-0.7598222494125366,0.2019970864057541,-2.0767388343811035,-0.253135085105896,1.1887916326522827,-0.20799200236797333,1.7164943218231201,1.158413052558899,0.5861779451370239,0.12878304719924927,-1.294769525527954,0.7441139221191406,0.41667142510414124,-0.1735614538192749,-0.16155573725700378,0.8083600997924805,1.224821925163269,-0.2506965398788452,0.7392688393592834,-0.764879584312439,1.594000220298767,1.4173566102981567,-0.5007587671279907,-1.1553337574005127,-0.030230190604925156,0.3707313537597656,-0.3362741470336914,-2.061614751815796,-0.3341297209262848,1.6188395023345947,-1.3624153137207031,-3.186868667602539,-1.2511788606643677,1.220131278038025,-0.257548451423645,0.4964185357093811,-0.8405628204345703,-0.1697826236486435,0.5598195195198059,1.0806715488433838,-0.1542465090751648,2.241610288619995,0.5000719428062439,-0.7236558198928833,1.7071175575256348,1.6296687126159668,-0.56085205078125,-0.597815990447998,-0.8683011531829834,-1.1081383228302002,0.2752349376678467,1.090949296951294,-1.1843879222869873,0.7882028222084045,1.525689959526062,0.5047178864479065,-0.4823830723762512,-0.6753274202346802,-1.1899869441986084,-0.8392557501792908,0.07044041901826859,-1.25312340259552,0.17188283801078796,-0.6874692440032959,0.26698532700538635,1.2099632024765015,1.056516170501709,-0.11960558593273163,0.5494463443756104,1.3752973079681396,-0.8913590312004089,-0.465693861246109,-0.7313681244850159,-0.49037954211235046,0.8233453035354614,-0.6618518829345703,0.3530611991882324,-0.16061006486415863,0.6086293458938599,1.764494776725769,0.8357815146446228,0.47020864486694336,0.18072229623794556,0.5381113290786743,-0.37207120656967163,-1.1917794942855835,0.9933888912200928,0.812574565410614,-0.5135535597801208,-0.5566280484199524,-0.3080688416957855,0.8359159231185913,0.7009701728820801,0.8122031688690186,0.5425055623054504,0.0013381780590862036,0.3240613043308258,1.5957282781600952,-0.8373448252677917,-0.6404520273208618,0.7241120338439941,1.4323586225509644,0.9071568846702576,1.3580050468444824,-0.5352094769477844,0.04568222537636757,0.2963295876979828,-0.40881386399269104,0.20272107422351837,0.9871230125427246,2.0096070766448975,0.38276150822639465,1.8672147989273071,0.8363350033760071,-1.9342238903045654,-0.5006763339042664,0.11194371432065964,1.8382339477539062,-0.15327179431915283,0.9392078518867493,1.6383986473083496,0.8864577412605286,0.5413442850112915,0.0027111032977700233,1.0139930248260498,-1.9101887941360474,-0.5605701208114624,-0.03490564972162247,0.8550615906715393,1.4264785051345825,-1.0784008502960205,0.2076997011899948,-0.6578723788261414,-0.3145799934864044,-0.8629660606384277,-0.26457810401916504,1.298602819442749,0.33029311895370483,-2.011716842651367,-0.23788490891456604,1.3274285793304443,-0.32134032249450684,1.927486777305603,1.804796576499939,-0.8002287149429321,-1.054892659187317,-0.46866002678871155,-0.39469075202941895,-0.9085156321525574,-1.7786937952041626,-0.16686378419399261,-2.9072630405426025,1.1058001518249512,-1.8093276023864746,2.209327220916748,-2.0927774906158447,0.5591825246810913,-0.8611708283424377,0.9343281388282776,-0.2376994788646698,-1.0016560554504395,-0.6117899417877197,0.7352163195610046,-1.1354918479919434,-1.5997726917266846,2.4385569095611572,0.64857017993927,1.6162363290786743,-1.7654032707214355,0.08314208686351776,-1.4439996480941772,0.10508405417203903,1.6680707931518555,1.129225254058838,1.4799094200134277,0.5662987232208252,-0.7343317866325378,0.028680017217993736,-1.1845078468322754,1.0299266576766968,0.8947575688362122,0.08672409504652023,2.4389657974243164,0.5270641446113586,0.41071808338165283,0.2585087716579437,-2.5029759407043457,-0.2605985403060913,0.8311062455177307,-0.578445315361023,1.4231390953063965,-0.5397413372993469,-0.21917025744915009,1.1665526628494263,-1.6659069061279297,0.2119031548500061,0.794093132019043,0.6344531774520874,-0.8937402963638306,-0.9302128553390503,0.4294169545173645,-1.966453194618225,2.907665729522705,2.21109676361084,1.2715563774108887,-0.8465415239334106,0.6590562462806702,-1.8341898918151855,-0.8961107730865479,0.4635213315486908,-0.6254843473434448,0.619008481502533,-0.3687991499900818,0.38570719957351685,-1.1890348196029663,1.1830753087997437,1.4031898975372314,1.0892452001571655,-0.5791455507278442,-0.1704646199941635,-1.1978092193603516,-1.0294559001922607,-0.6248214244842529,0.46357613801956177,0.38596463203430176,-0.9561424255371094,-0.1877211183309555,2.9416933059692383,-0.9879403710365295,1.38323175907135,-1.6079225540161133,-2.050806760787964,-0.19735758006572723,-0.7274296283721924,-0.9529685974121094,-0.2071506530046463,-1.9375301599502563,-2.0993266105651855,1.2846022844314575,-0.022390784695744514,-1.1252057552337646,-1.4215166568756104,-1.669448733329773,-0.19989608228206635,-1.7265238761901855,-0.3628115952014923,0.9630640149116516,-1.970211386680603,-0.39944830536842346,1.4979816675186157,0.397512286901474,0.5976990461349487,-0.5482194423675537,-1.1076854467391968,0.30299410223960876,-1.6483914852142334,0.5272279381752014,0.13099946081638336,1.4811431169509888,-0.19389761984348297,1.8994309902191162,-0.6591936349868774,-0.500617504119873,-0.25932323932647705,0.4253722131252289,-1.4914872646331787,-0.353410005569458,-1.7522187232971191,-0.4549053907394409,-0.9109438061714172,-1.2122093439102173,-2.303983211517334,0.9564176797866821,0.9229192733764648,-1.1267116069793701,0.41542190313339233,0.46853822469711304,-0.463573157787323,-0.4048480689525604,-1.8881385326385498,-1.4449713230133057,1.7499865293502808,-0.0043128859251737595,0.35097381472587585,1.2018622159957886,0.6343238353729248,0.9974647164344788,1.049272060394287,-1.6588560342788696,0.7048001885414124,-0.24190488457679749,1.1244574785232544,-0.1470475047826767,0.20923122763633728,-0.3407958745956421,-0.5244648456573486,1.002551555633545,-1.5051593780517578,0.9505316019058228,0.7367949485778809,-1.003967046737671,-0.7104117274284363,0.42853084206581116,1.3035537004470825,1.1280934810638428,-0.20101240277290344,0.33996960520744324
高,-2.087219476699829,0.10196177661418915,0.5590656995773315,-2.1239213943481445,0.7362352609634399,-1.6638303995132446,-0.13372501730918884,-0.8306772708892822,-0.2535225749015808,-2.1092255115509033,0.509129524230957,-0.963248074054718,1.0104790925979614,0.3276168406009674,0.6943707466125488,-1.881103277206421,1.5463030338287354,-0.11887596547603607,-1.0178635120391846,-0.626353919506073,1.0358268022537231,-0.6659106016159058,1.8279597759246826,-0.7140817642211914,-0.41264232993125916,-1.314488410949707,-2.650728702545166,2.179691791534424,-0.07057854533195496,-0.5727587342262268,-2.746596574783325,-1.3016507625579834,0.9818461537361145,2.1475510597229004,0.5843701958656311,-0.8014903664588928,-0.09976592659950256,0.24290154874324799,0.9787801504135132,-0.8420473337173462,-0.8649522066116333,-0.724879801273346,1.6659184694290161,-1.0583306550979614,-2.324284076690674,1.3500745296478271,1.164424180984497,0.8369300961494446,-0.2964911460876465,-0.14789918065071106,-0.6052179932594299,0.04256102442741394,-1.6913052797317505,1.7653496265411377,3.4694275856018066,-2.6004879474639893,-0.03305032104253769,-1.4849857091903687,2.283665657043457,0.013636205345392227,-2.467278242111206,0.6269376277923584,0.8334976434707642,0.20687831938266754,-1.3518155813217163,0.13891366124153137,-1.9583240747451782,0.9116650223731995,-0.47176942229270935,1.6839960813522339,0.09856868535280228,1.3009685277938843,0.8937087059020996,-0.2363404482603073,2.0641634464263916,-1.4113397598266602,-0.19687813520431519,0.7229076027870178,-0.9832912087440491,-0.7469319105148315,0.37887993454933167,-2.7735772132873535,-2.8489232063293457,1.1353082656860352,0.5392569899559021,0.19724836945533752,0.7215720415115356,3.572920560836792,-0.9573442935943604,0.9354761838912964,-1.6440885066986084,1.1241941452026367,1.9225716590881348,0.15594138205051422,-0.35689204931259155,-0.19912995398044586,-1.1247434616088867,3.343336582183838,2.276207447052002,1.172446608543396,0.10371290147304535,1.9485219717025757,-0.590119481086731,0.7204095125198364,-2.571978807449341,0.8987071514129639,0.6737020015716553,1.8676329851150513,-1.7161189317703247,0.5348221063613892,1.2126959562301636,0.3687434196472168,-1.0780222415924072,0.17146795988082886,-1.5962773561477661,-0.715429425239563,2.5201852321624756,-0.1883596032857895,-0.49127107858657837,3.726870059967041,-0.5033637285232544,-0.4705297648906708,-0.8590648174285889,-1.334355115890503,0.12019884586334229,3.375854015350342,-1.1877466440200806,0.9766594767570496,0.6331635117530823,-1.2405160665512085,1.046617031097412,-1.019509196281433,0.5812597274780273,0.19352032244205475,-0.08957135677337646,-1.4570978879928589,2.3393914699554443,0.5729057192802429,1.3818899393081665,0.5154427289962769,0.023747170343995094,-0.3452916741371155,-0.8586711287498474,-2.0148489475250244,-2.7277400493621826,0.6543449759483337,-1.2772079706192017,1.5492033958435059,-2.2431390285491943,-1.0829013586044312,0.6836915612220764,0.953180193901062,0.6825036406517029,-1.7487362623214722,-0.1401384025812149,0.3821246922016144,-0.5191873908042908,-1.6517797708511353,2.7200262546539307,-1.025197982788086,-0.6036926507949829,-1.1003315448760986,-1.3222804069519043,0.801746129989624,-1.065327525138855,0.8994489312171936,2.813051462173462,-0.4978983402252197,-0.8226326704025269,-0.010056545026600361,-0.830996572971344,0.4323534071445465,-0.6713244318962097,-0.23996253311634064,-1.5600616931915283,0.27770647406578064,0.3116307556629181,0.17089030146598816,-0.4703435003757477,0.6764287948608398,2.1134378910064697,-0.20083238184452057,0.24139246344566345,-2.210160255432129,0.7463942766189575,-1.2398874759674072,-1.9820528030395508,-0.37350815534591675,1.233331561088562,-0.5041254162788391,1.2652153968811035,1.5228623151779175,0.5480058789253235,1.2308396100997925,2.186943292617798,1.3812873363494873,0.28327658772468567,0.46751344203948975,-1.6625425815582275,0.8091437816619873,0.8733574748039246,-0.19500607252120972,-0.6239749789237976,0.5880359411239624,-0.6391686201095581,0.6095216870307922,2.2170538902282715,0.15815187990665436,-0.09338735044002533,2.0211901664733887,1.2477761507034302,2.0174970626831055,0.2953507900238037,0.0732993483543396,-1.3311563730239868,-1.0985479354858398,-1.4112452268600464,0.23847512900829315,0.7089632749557495,-1.652542233467102,0.5248078107833862,0.006165341939777136,1.7248599529266357,0.4032849967479706,0.29948917031288147,2.706913471221924,-1.1719979047775269,-0.3153359293937683,2.431399345397949,1.446705937385559,-0.18965153396129608,2.2183008193969727,0.7686351537704468,-1.0779963731765747,-1.1472795009613037,-0.8981419801712036,1.837499976158142,-1.4594935178756714,-0.09307403117418289,-1.5996555089950562,0.06287027150392532,-0.9113572835922241,0.8131358623504639,1.4102537631988525,-3.0047292709350586,0.8581315875053406,-0.7831990122795105,0.9418695569038391,-0.47232919931411743,0.2819913625717163,-2.4903550148010254,-1.4549016952514648,-0.4531612694263458,-0.9277122020721436,0.25187167525291443,0.07482104748487473,1.219983696937561,-0.5650615096092224,0.9444165229797363,2.1501896381378174,-0.26394298672676086,-0.7842977643013,0.25637316703796387,-0.16420289874076843,-3.473895311355591,1.579756498336792,2.976261854171753,-0.9429928660392761,-0.3288111686706543,-0.5627440214157104,-0.5282413959503174,2.2881669998168945,0.8191829919815063,1.5897361040115356,-0.8541931509971619,0.9244222044944763,-0.7309023141860962,0.3266451358795166,-0.253441721200943,-0.619576096534729,2.7835679054260254,-0.20378580689430237,-0.5825178027153015,-1.0260159969329834,-1.5097553730010986,-0.6208391785621643,2.5360066890716553,1.862433910369873,-0.5017130374908447,-0.20263420045375824,-0.6002338528633118,0.4869256019592285,1.2520934343338013,1.0654723644256592,-1.0228217840194702,0.7618511319160461,-1.8772320747375488,1.6097712516784668,-0.8105359673500061,1.8372924327850342,1.4414373636245728,-1.4737433195114136,-0.49279290437698364,1.1779643297195435,-1.7106276750564575,2.4189035892486572,-0.991944432258606,-0.8219515085220337,0.34793326258659363,-1.2846639156341553,2.370178461074829,0.9828997850418091,1.6171241998672485,-0.7325314283370972,1.5016695261001587,-0.7774279713630676,-1.1252999305725098,0.5523447394371033,0.5358895659446716,-1.2323603630065918,1.1638959646224976,-1.1700083017349243,-0.5907451510429382,-1.0172178745269775,3.5906498432159424,1.7377738952636719,-1.9187572002410889,-0.24857568740844727,0.38694408535957336,0.35914111137390137,1.4929723739624023,-1.1921347379684448,-1.5284920930862427,1.1610774993896484,-0.4575953781604767,0.425110787153244,-0.19119085371494293,1.299260139465332,0.0490303672850132,0.08123274892568588,0.755610466003418,1.6293189525604248,0.09720023721456528,-0.886873185634613,0.9981590509414673,0.10884224623441696,-1.6836612224578857,-1.1725621223449707,-0.44542890787124634,-0.31562554836273193,0.24257855117321014,0.671521782875061,0.03570733964443207,1.186322569847107,-1.6271815299987793,0.6937316656112671,-0.665192186832428,-1.7703046798706055,-2.876039981842041,-1.4238590002059937,-1.6054238080978394,0.7940595149993896,-0.27965161204338074,-0.39151570200920105,0.32295218110084534,0.44407883286476135,0.044999994337558746,1.4192508459091187,1.2904669046401978,0.8238590955734253,-1.0313717126846313,-0.3375537395477295,-0.1583588570356369,0.8013757467269897,-0.1278381496667862,0.7400068044662476,-0.09331880509853363,1.8924237489700317,0.2134777456521988,0.22090360522270203,-0.3119186460971832,-0.8099460601806641,0.23619981110095978,0.07509732991456985,-0.65446937084198,0.9161291718482971,2.7828593254089355,-0.31570446491241455,0.488130658864975,0.8219866156578064,0.6996792554855347,-0.6458620429039001,0.29513630270957947,-0.29521507024765015,-0.8010392189025879,-1.5863827466964722,-0.5160394310951233,0.3846556544303894,1.021924614906311,1.9893293380737305
进口商品,-0.020152797922492027,-0.09367763996124268,0.3124041259288788,0.058896951377391815,0.0280968826264143,0.09272804111242294,-0.023557476699352264,0.11417901515960693,0.0808936133980751,-0.012881513684988022,-0.014856773428618908,-0.1835336536169052,-0.11679793894290924,-0.16735877096652985,-0.18095433712005615,-0.05224302038550377,-0.2963329553604126,0.1240549311041832,0.06191995367407799,0.005492657423019409,-0.2848220467567444,-0.061219729483127594,0.47273048758506775,0.0013543772511184216,0.29340434074401855,0.052869461476802826,-0.0491759218275547,0.20407524704933167,-0.3030778467655182,-0.05600344017148018,-0.2017180621623993,0.0998760238289833,0.34775209426879883,0.06219330057501793,-0.12210593372583389,0.27681100368499756,0.18402516841888428,-0.36579078435897827,0.2555224895477295,0.27764612436294556,0.3596881628036499,0.10939013212919235,-0.11633455753326416,-0.10177895426750183,-0.10702349990606308,0.01359668467193842,-0.07478500157594681,0.3336459994316101,-0.020889772102236748,-0.21728354692459106,-0.15117481350898743,-0.1648099422454834,-0.2603447437286377,0.2543846666812897,-0.2501612901687622,0.2213771641254425,-0.3279189169406891,-0.20965451002120972,0.12730568647384644,0.45406100153923035,-0.269966721534729,0.061790574342012405,0.2249307483434677,0.11071580648422241,-0.02273367904126644,0.053069327026605606,-0.19667941331863403,0.18727445602416992,0.3415254056453705,0.06639253348112106,0.03698519989848137,0.03252863138914108,0.1414564549922943,-0.15918728709220886,-0.07200655341148376,0.08801468461751938,-0.052584778517484665,0.002603516448289156,-0.26669076085090637,-0.2155849188566208,-0.1647828221321106,-0.28028997778892517,0.38301804661750793,0.2177174985408783,-0.251923531293869,0.10224070399999619,-0.0842108279466629,0.10691680014133453,0.1363499015569687,-0.026666797697544098,-0.17568565905094147,-0.043325845152139664,0.09979770332574844,0.36059510707855225,-0.07610859721899033,0.04641861841082573,0.12063326686620712,0.1967858076095581,-0.05081755295395851,-0.26171085238456726,0.2922278046607971,0.042372047901153564,0.022914856672286987,0.07223918288946152,0.04335735738277435,0.3175066113471985,-0.24921637773513794,0.36199286580085754,-0.05073627829551697,-0.07008562237024307,-0.09594504535198212,-0.24802905321121216,-0.19631634652614594,0.30019912123680115,0.18519549071788788,0.09412620961666107,-0.19138239324092865,0.054726894944906235,0.122733473777771,-0.19785352051258087,0.20906680822372437,-0.12757904827594757,0.055662453174591064,0.12318216264247894,-0.04478108882904053,0.022420156747102737,0.02859068475663662,0.03131207823753357,-0.21110738813877106,0.04783312976360321,0.23443204164505005,-0.40755128860473633,-0.21132028102874756,-0.25319069623947144,0.03510366752743721,-0.1257094442844391,-0.06242138147354126,-0.3408786654472351,0.25252559781074524,-0.13316801190376282,-0.11691182106733322,-0.2958959937095642,0.022715231403708458,-0.5857630372047424,0.36003029346466064,-0.05272676423192024,-0.5802448987960815,0.2312137633562088,-0.17231622338294983,0.004885704722255468,-0.035485461354255676,-0.03177176043391228,-0.5224643349647522,-0.249322772026062,0.0758279338479042,0.06945349276065826,0.052449781447649,0.014308176934719086,0.03519425168633461,-0.07805853337049484,0.2724163830280304,0.17094461619853973,0.0028809504583477974,-0.06287120282649994,-0.034495629370212555,0.06732373684644699,-0.2243533879518509,-0.22834885120391846,-0.1218709871172905,0.4061530530452728,-0.10763242840766907,-0.049300190061330795,0.18422706425189972,0.06153489649295807,-0.1881393939256668,-0.2695525884628296,0.1532360464334488,0.25344017148017883,0.27007678151130676,0.10998142510652542,0.16076457500457764,0.1034066453576088,-0.33700793981552124,-0.2978959381580353,0.13793615996837616,0.2157665342092514,-0.15282794833183289,0.2483910471200943,-0.09299864619970322,0.05394528806209564,-0.01553754135966301,-0.22790183126926422,0.24629293382167816,0.053044646978378296,-0.23782797157764435,0.2239476442337036,0.17057041823863983,-0.20752176642417908,-0.32437369227409363,0.006324436515569687,-0.20451898872852325,-0.010845229029655457,0.18260836601257324,0.006601402070373297,-0.10163849592208862,0.09017570316791534,-0.20129890739917755,-0.011379469186067581,0.03765484690666199,-0.14007684588432312,-0.21071302890777588,0.3296040892601013,0.019063180312514305,0.36741694808006287,0.22552518546581268,-0.01882012188434601,-0.08959352970123291,-0.04695989564061165,-0.2794104218482971,-0.038238558918237686,-0.08614213764667511,-0.298038512468338,0.05255024880170822,0.07330062240362167,-0.07685127854347229,0.1276410073041916,-0.07396166771650314,-0.25925880670547485,0.07536870986223221,0.18071112036705017,-0.18624268472194672,0.24404175579547882,0.32278019189834595,-0.2900789976119995,5.156743100087624e-06,-0.1683652400970459,-0.1330576092004776,-0.213760644197464,-0.3591967225074768,0.2589726150035858,0.13208672404289246,0.05733001232147217,0.2857464551925659,0.1637694537639618,0.23294587433338165,-0.05895569175481796,0.019406480714678764,-0.3645703196525574,-0.2729038596153259,0.007447453681379557,-0.019485028460621834,0.1970878392457962,0.290073961019516,-0.09243330359458923,-0.09950681030750275,0.09589821845293045,0.07541675120592117,0.009655768983066082,0.013658647425472736,-0.2104412317276001,0.09574755281209946,-0.10218054056167603,-0.20660649240016937,-0.03748294338583946,0.1195874959230423,0.18185584247112274,-0.0018760388484224677,-0.08301790803670883,0.2529800236225128,-0.2361506223678589,0.08232172578573227,0.2231084704399109,-0.16681407392024994,0.10963603854179382,0.25041547417640686,-0.24970248341560364,-0.045493606477975845,-0.1114538386464119,0.07019466161727905,0.06815619021654129,0.13025476038455963,-0.1534596085548401,-0.27902594208717346,-0.22422990202903748,-0.13138505816459656,0.2355947196483612,0.45039132237434387,-0.2767215073108673,0.3687639832496643,0.2374146580696106,-0.18687114119529724,-0.05484149605035782,-0.01049122866243124,-0.22721317410469055,0.06292378902435303,-0.0497666597366333,-0.1973053514957428,-0.28069964051246643,-0.09378194063901901,0.2227238416671753,0.14925700426101685,-0.2903255224227905,-0.23688314855098724,0.23631566762924194,-0.2067118138074875,-0.10319405794143677,0.040700286626815796,0.11374306678771973,0.1367458999156952,-0.19017446041107178,0.09671588987112045,0.32930782437324524,0.47536298632621765,0.02353326790034771,-0.006516729015856981,0.22667470574378967,-0.26614609360694885,0.3446052670478821,0.04212483763694763,0.10814123600721359,0.15981993079185486,-0.33154159784317017,-0.01635742001235485,-0.1290348768234253,-0.3010471761226654,-0.10457206517457962,-0.12678200006484985,0.0037816595286130905,0.1900773048400879,-0.09307930618524551,-0.08723133057355881,-0.12339496612548828,-0.060703933238983154,0.04286696016788483,-0.25327637791633606,0.16443109512329102,-0.08374425768852234,0.424448162317276,-0.24218441545963287,0.24919338524341583,0.4150819182395935,0.16109925508499146,-0.08686092495918274,0.13704009354114532,0.12925226986408234,0.0928291454911232,0.15702331066131592,-0.07140836119651794,0.18688005208969116,0.12741440534591675,-0.008955864235758781,0.28760072588920593,-0.4149779677391052,-0.14443019032478333,-0.030689546838402748,0.19819243252277374,0.01933271437883377,-0.3428868055343628,0.07979113608598709,-0.08354409039020538,0.03137675300240517,0.044592708349227905,0.0009864616440609097,0.09865524619817734,0.11100423336029053,0.2632675766944885,-0.041865237057209015,-0.11336810141801834,0.12156852334737778,0.031214315444231033,0.2788374125957489,-0.3013153076171875,0.04814524948596954,0.2829752266407013,0.30952203273773193,0.34838882088661194,-0.08795855939388275,0.04839378967881203,0.1696835309267044,0.49739429354667664,-0.16931429505348206,0.38699814677238464,-0.31311115622520447,-0.06925440579652786,-0.08138750493526459,-0.12155180424451828,0.20002327859401703,0.07591564208269119,0.11950232088565826,0.2687503695487976,0.16211973130702972,-0.22666974365711212,-0.4046223759651184,-0.013416475616395473,-0.0878651812672615,-0.08282262831926346,-0.2375016063451767,0.40207764506340027,-0.27703022956848145,-0.4346856474876404
来讲,0.0837407112121582,-0.034856878221035004,1.0277717113494873,-0.48574182391166687,-1.3738775253295898,-0.5399340987205505,-1.1109651327133179,-1.445054531097412,0.23019607365131378,-0.7191581130027771,0.3856082260608673,-1.3187856674194336,0.06348244100809097,0.9131115078926086,0.3227629065513611,0.35792118310928345,-0.1762649565935135,0.17360906302928925,1.1828993558883667,-0.6672307848930359,1.4716815948486328,-0.26519906520843506,-1.065321683883667,-1.2756496667861938,0.8353676795959473,0.7931755781173706,-0.969275951385498,1.3871906995773315,1.2467613220214844,0.03867840766906738,0.9980339407920837,0.3173942565917969,0.72088223695755,-0.053947001695632935,0.5948036313056946,0.9870784878730774,0.8939282894134521,-0.705248236656189,-1.1882599592208862,1.2825344800949097,-1.2433558702468872,0.07571820914745331,-0.2747057378292084,0.4724107086658478,-1.4115874767303467,-0.5942142009735107,0.2222849279642105,-0.5202741622924805,-0.4591367244720459,0.1305663138628006,-0.17963328957557678,-0.6386469006538391,-0.7206562757492065,0.9839338660240173,-0.2548387944698334,-1.8340728282928467,-0.10615063458681107,0.2679746747016907,0.6779875159263611,0.3318641185760498,-0.7033733129501343,0.0162454042583704,-0.05297465994954109,-0.6139405369758606,1.5778555870056152,0.6291882991790771,-0.5514097809791565,0.13847079873085022,-0.07010500878095627,0.2559361159801483,1.0722137689590454,0.9357938766479492,-0.5616305470466614,-0.47655272483825684,0.9156069755554199,-0.2727852463722229,1.063297152519226,-0.05106111243367195,0.08832072466611862,-0.27379220724105835,1.0430573225021362,-0.7997877597808838,1.416493535041809,1.1232008934020996,0.05869600176811218,0.4600587785243988,1.0515352487564087,0.5127869844436646,-0.9865474700927734,0.26680415868759155,0.19587299227714539,0.609846293926239,0.2043755203485489,0.012009738013148308,-0.030185995623469353,-1.0097899436950684,0.6154881119728088,0.4520016312599182,-0.3902008831501007,0.3128507435321808,0.7148659825325012,0.12167367339134216,0.26738303899765015,0.1652374416589737,-0.2506618797779083,-0.4104853570461273,-0.8472662568092346,-0.11037212610244751,-0.3961292505264282,-0.2647421956062317,0.626068651676178,0.23128290474414825,0.3379414975643158,1.5229212045669556,-0.33925485610961914,0.515214204788208,-0.6894951462745667,-0.034895576536655426,-0.5892342329025269,-0.016777483746409416,-1.6115121841430664,-0.8551852703094482,0.10724952071905136,1.1642271280288696,-0.6855084896087646,-0.41645991802215576,1.51996648311615,-0.010420515201985836,0.6982405781745911,-0.7742936611175537,-0.14588330686092377,0.09247436374425888,-0.3146938979625702,-0.4307442903518677,0.1549597680568695,1.2138259410858154,-0.5656718015670776,-0.4600636065006256,0.004353546537458897,0.22150082886219025,-0.09052392095327377,-0.03258420154452324,1.4222064018249512,-0.46374496817588806,0.17983579635620117,0.6836081147193909,0.37582117319107056,0.3758738934993744,1.3437594175338745,-1.2926079034805298,-0.9927129745483398,-0.15780559182167053,0.9040796160697937,-0.08815226703882217,-0.08064287900924683,-1.111223816871643,0.26938191056251526,0.34576332569122314,0.9763121008872986,-0.8461490273475647,1.3519220352172852,-0.6677597761154175,0.31698304414749146,0.14545953273773193,-1.0196939706802368,0.4131005108356476,1.2561020851135254,0.221515491604805,-0.21475081145763397,0.4646949768066406,-0.20083224773406982,-0.706931471824646,0.36310046911239624,-0.39371511340141296,0.3885737657546997,0.8200713992118835,0.7437839508056641,-0.6086735129356384,-0.2539747357368469,0.6039172410964966,2.046344518661499,0.16714534163475037,0.3643002510070801,-1.21820068359375,0.14915774762630463,-1.3590642213821411,-0.1801634579896927,0.163814976811409,-0.2502427399158478,-0.8004746437072754,0.5471252202987671,-0.831709086894989,0.39009231328964233,0.1510157734155655,0.6576219797134399,1.1563189029693604,-0.020414432510733604,-0.3118053078651428,-1.3224258422851562,0.16442139446735382,-1.138674020767212,-0.23322075605392456,0.11121033132076263,0.08596761524677277,0.004607957787811756,1.0892208814620972,-0.44132667779922485,-1.4409886598587036,-0.20216357707977295,0.37604159116744995,-0.15911228954792023,1.1393468379974365,-0.7255491018295288,-0.213374063372612,0.34553542733192444,0.36748170852661133,-0.3206605911254883,-0.5473355650901794,0.10746201127767563,0.1120377704501152,-0.5251398086547852,-0.3091281056404114,0.5968368649482727,-0.21054504811763763,-0.8619580864906311,0.5671291351318359,-0.13026615977287292,-0.5570272207260132,-1.3983463048934937,0.2350234091281891,0.09539756178855896,0.44188231229782104,-0.23166610300540924,0.4776979386806488,-0.38746026158332825,-0.7265444993972778,-0.05716973915696144,-0.46290022134780884,-0.9929859638214111,-0.33928900957107544,0.9153847694396973,-0.01820072904229164,-0.3484979569911957,-1.232992172241211,0.22995583713054657,1.3497626781463623,-0.6568349003791809,0.13125458359718323,-0.8953477740287781,1.3994678258895874,-0.6694248914718628,0.05079565569758415,0.46445900201797485,-0.924198567867279,-0.689911425113678,-0.6158371567726135,-0.16978253424167633,0.5174935460090637,0.837573230266571,-0.7361716628074646,-1.4622809886932373,0.9922909736633301,-0.4273890554904938,-0.4657297730445862,0.7311988472938538,-0.24170677363872528,0.42501571774482727,0.37387481331825256,-1.0776149034500122,-1.1642807722091675,-0.6570222973823547,-0.3918495774269104,-0.6786289215087891,0.5410301089286804,1.0449528694152832,-0.29327577352523804,-0.24151867628097534,-0.6266684532165527,-0.300947368144989,-0.7375287413597107,0.13447444140911102,1.2632001638412476,-1.0741714239120483,-0.14621327817440033,0.7707880735397339,0.6010933518409729,1.398352861404419,-0.853539228439331,-1.2751045227050781,-0.06402744352817535,-0.9689549803733826,-1.1538786888122559,0.2531636655330658,1.1495965719223022,-0.9410707950592041,0.5896927714347839,-0.2935412526130676,0.28072163462638855,-0.1375563144683838,1.1611324548721313,0.3312405049800873,0.7952789664268494,-0.16787736117839813,0.047898560762405396,-0.2880525290966034,0.18118083477020264,-0.6918977499008179,-0.45845827460289,0.3519267439842224,-0.12453673779964447,0.8307090997695923,-0.19191621243953705,-0.09045720845460892,-0.12895601987838745,-1.2204523086547852,0.5305833220481873,-0.5899620056152344,-0.1581823229789734,-0.07733217626810074,-0.7204349637031555,-0.0021494317334145308,-0.1265932023525238,-0.6822143793106079,-1.1190491914749146,-0.42635515332221985,0.0980168804526329,-1.0003103017807007,-1.5056482553482056,0.7189071178436279,-0.0051877861842513084,-1.0911118984222412,0.22165754437446594,-0.0024215930607169867,-0.48725154995918274,-1.0974699258804321,0.17329566180706024,0.3651069104671478,-1.3467073440551758,0.2033994197845459,-0.556235134601593,-1.7177540063858032,-0.3393293619155884,0.1994304060935974,-0.7934894561767578,0.05302607640624046,0.4469706416130066,-0.12209921330213547,-0.06555459648370743,0.6779798865318298,-0.5805445909500122,0.32852157950401306,0.23050570487976074,-0.5503250360488892,-1.7151159048080444,1.1015692949295044,-0.8944015502929688,1.7441126108169556,0.40014299750328064,-0.2920597195625305,-0.6827167868614197,-0.7516457438468933,-0.2872650623321533,0.04023374617099762,-0.38337111473083496,-0.4219120144844055,-0.28342849016189575,-0.26286885142326355,-0.10389921069145203,1.5717647075653076,1.7685555219650269,-1.7294424772262573,-0.8501750230789185,0.5439872145652771,0.6063521504402161,0.21804259717464447,0.32899653911590576,-0.11737651377916336,0.6380576491355896,1.327115535736084,-0.4967198371887207,0.12202095240354538,0.6424081325531006,-0.2155124396085739,-0.050173673778772354,1.283043384552002,0.06584738194942474,0.8349289298057556,0.2741261124610901,-0.5314597487449646,-0.31012117862701416,-1.2810378074645996,0.394626647233963,-0.6666166186332703,0.3633304536342621,0.596381664276123,-0.14618408679962158,-0.8483303189277649,0.3081783354282379,1.0200090408325195,0.045735083520412445
竟然,-0.9315271973609924,-0.798711359500885,-0.20436887443065643,0.23997947573661804,0.0527401901781559,-0.6314336657524109,0.4167839586734772,-0.3030984699726105,-1.0275551080703735,0.532876193523407,1.771288514137268,0.04230349883437157,0.42080649733543396,-0.834051251411438,-0.9399988651275635,-2.0939550399780273,1.1214618682861328,-0.33360740542411804,1.5957019329071045,-1.218353033065796,1.0242688655853271,0.19418805837631226,-0.4838598668575287,0.7268930673599243,-0.34014907479286194,0.8615562319755554,-0.5022066235542297,-0.23012499511241913,-0.840093731880188,-0.12345455586910248,1.177180528640747,0.5671776533126831,0.9465675354003906,-0.16223518550395966,0.4713665544986725,-0.3202250301837921,-0.4994303286075592,-0.21291428804397583,0.06790361553430557,0.39930427074432373,0.5960173010826111,0.03588200733065605,1.0477550029754639,-1.4408270120620728,-1.4828921556472778,0.7566306591033936,-0.4942423403263092,0.32293781638145447,-0.7043149471282959,-0.1382174789905548,0.14251746237277985,0.2329675257205963,0.6001231670379639,1.1535245180130005,0.3790037930011749,-1.584388256072998,1.3400371074676514,0.5219804048538208,1.0066128969192505,0.07708079367876053,0.09414806962013245,0.21615944802761078,0.2417335957288742,-0.3340548574924469,-0.7925414443016052,-0.7434194087982178,0.5538579821586609,0.6383293271064758,0.8011332750320435,-1.0887670516967773,0.15031281113624573,-0.8226872086524963,1.7511059045791626,-0.5882181525230408,0.7975442409515381,0.03993064910173416,0.5756068825721741,1.3381325006484985,-0.9807798862457275,-0.3016754686832428,-0.6095765233039856,0.9272139072418213,-0.9401551485061646,0.07997382432222366,-1.8413997888565063,-0.5023112893104553,-0.7964907288551331,-0.4383172392845154,0.01222266349941492,-0.28757745027542114,-0.7968561053276062,-0.3737177848815918,0.09673603624105453,-0.9346564412117004,0.9298006892204285,-0.7128415107727051,-0.14477013051509857,-0.3178045153617859,-0.10638663917779922,0.35742539167404175,0.22054563462734222,1.3312665224075317,-0.06603113561868668,0.07661319524049759,-2.2165210247039795,0.7341244220733643,0.7700969576835632,-0.376668244600296,-0.14449092745780945,0.21041932702064514,-0.0030720571521669626,0.1687391698360443,0.47709962725639343,0.3322664201259613,1.3135067224502563,-0.20092906057834625,0.6483210325241089,0.8153510689735413,-0.1974068284034729,-0.06300327926874161,-0.10097333788871765,0.6658872365951538,0.5933292508125305,0.24186336994171143,-1.9409607648849487,-0.5279042720794678,1.126110553741455,-1.1366766691207886,-0.44515958428382874,-0.1083921268582344,-1.0409939289093018,-0.6627752184867859,0.2514472007751465,0.04871906340122223,-0.6217061281204224,0.804063081741333,1.2536671161651611,1.0845264196395874,-0.02243274636566639,-0.28561142086982727,-1.5189286470413208,0.13475102186203003,-0.4919671416282654,0.3522142767906189,0.5413516759872437,-1.2874643802642822,0.8521540760993958,0.7918540835380554,1.649645209312439,-2.2204091548919678,0.3979588747024536,0.8480314016342163,-1.2853456735610962,0.8328525424003601,-0.1923554390668869,-1.3449292182922363,-0.24729512631893158,0.27117738127708435,1.7309693098068237,2.110976219177246,-0.8237494826316833,-0.3238650858402252,-0.17158150672912598,-0.7230108380317688,0.825114369392395,-0.8703683018684387,-0.07515478879213333,-0.5811727046966553,-0.05431460961699486,-0.21349717676639557,0.01795695535838604,1.1567409038543701,-0.023056359961628914,0.9442582726478577,-0.3853091597557068,-0.46160054206848145,0.8772034049034119,-0.25382333993911743,0.5609813332557678,-0.2798160910606384,2.07000732421875,-0.8784645199775696,-0.2072693407535553,-0.31557703018188477,0.3580518662929535,-1.4930967092514038,-1.0851010084152222,0.27802449464797974,0.5560236573219299,0.7793825268745422,-0.7323823571205139,-2.0579285621643066,0.5181300044059753,1.2269095182418823,-0.18924131989479065,0.05135917291045189,-1.060073971748352,-0.15720029175281525,-0.8385319113731384,-0.06394661962985992,-0.5945062041282654,0.4341347813606262,-1.0644930601119995,0.8712992668151855,-0.22254088521003723,0.060446515679359436,1.26136314868927,0.2950890064239502,0.050972454249858856,-0.7897090315818787,-0.5012378096580505,1.1789840459823608,-0.7004627585411072,0.09872939437627792,0.7689973711967468,-0.9252230525016785,1.0048110485076904,0.1819356381893158,-0.49267271161079407,-0.8439291715621948,0.8471901416778564,-0.4104074537754059,-0.24046310782432556,-0.6148393750190735,0.5987930297851562,-0.7827730774879456,-0.9493933320045471,-0.7181650400161743,0.5489087104797363,-0.38346657156944275,-1.475791335105896,-0.9181989431381226,0.3993149697780609,1.077879786491394,0.5254489183425903,-0.6693047881126404,0.6057608127593994,-0.40495923161506653,-0.28176429867744446,-0.2528177499771118,0.7357572317123413,0.4683173894882202,-0.804611325263977,1.0347081422805786,-1.3886005878448486,0.8967410326004028,-0.12241572141647339,1.7068748474121094,-0.7997391819953918,-0.133847177028656,-0.2630251944065094,0.40558502078056335,-0.6726884245872498,0.20614539086818695,0.23291784524917603,-1.0277849435806274,0.09357404708862305,-1.806403636932373,2.17850923538208,1.665219783782959,-0.24579913914203644,-1.3330302238464355,0.13325819373130798,0.43968281149864197,0.3206755518913269,-0.2263040542602539,-0.4601215124130249,0.742270827293396,0.9222442507743835,0.9532976746559143,-1.0269941091537476,-0.9484477639198303,0.9964559674263,-0.033310990780591965,1.1061326265335083,0.7967292666435242,0.23420779407024384,0.44145452976226807,0.027519334107637405,-1.1121199131011963,-1.1612865924835205,-0.16211776435375214,0.5930476188659668,-0.3591790497303009,-0.09330620616674423,1.4631551504135132,1.4405059814453125,-1.2023099660873413,-0.49169865250587463,1.2306708097457886,-1.7394810914993286,1.3082362413406372,0.8666462898254395,-0.32762041687965393,-1.819103479385376,0.9125128984451294,2.143847703933716,0.7408260107040405,-0.34940698742866516,-0.07386685907840729,0.1412544846534729,-0.10147955268621445,0.5073240399360657,-0.2450845092535019,0.0477416068315506,-0.8193603754043579,0.8796260356903076,-0.3039628863334656,1.1064741611480713,-0.15925200283527374,-0.31556597352027893,-1.8515162467956543,-0.432865172624588,-0.18061019480228424,-0.9813448190689087,0.34927016496658325,-0.7899098992347717,-2.048227548599243,-0.4022136926651001,-1.519256353378296,0.4262009561061859,0.5815083980560303,-0.3386693000793457,0.08826204389333725,-1.9084471464157104,1.0360169410705566,-0.385027676820755,-0.14926645159721375,1.4535952806472778,-1.9144126176834106,-0.7764682173728943,0.10898604989051819,1.2842769622802734,-0.7513791918754578,-1.2489428520202637,-1.0064101219177246,0.0440194196999073,-1.1662155389785767,0.9097414612770081,-0.9818035364151001,-1.103596806526184,0.08324194699525833,0.9631056785583496,-0.7320289015769958,0.46281805634498596,0.05673367530107498,0.1441609263420105,0.606778621673584,-0.6632785797119141,-0.9273526668548584,-1.7891273498535156,0.6954259276390076,-0.4707504212856293,0.5752342939376831,-1.491731882095337,0.11681269109249115,-0.2678437829017639,1.0122871398925781,-0.9341316819190979,0.9586803317070007,-1.972188949584961,0.07660822570323944,-0.24665342271327972,-0.675499439239502,-1.0719302892684937,-0.9677426815032959,0.6930009722709656,0.20054998993873596,0.149570494890213,1.3268928527832031,-0.22631260752677917,-0.1155647486448288,-0.3409011960029602,1.357459306716919,0.9318499565124512,0.7577461004257202,-0.266989529132843,0.7878671288490295,-0.9156829118728638,1.049189805984497,-0.40435507893562317,-2.041787624359131,0.7467151284217834,-0.3416329622268677,0.9464645385742188,-0.41215306520462036,1.079673171043396,-0.1725863814353943,-0.4323807656764984,1.732524037361145,-1.1021628379821777,1.4746075868606567,-0.5702775716781616,-1.3121323585510254,-1.2775989770889282,0.8762794137001038,0.404119074344635,-0.4358866512775421,-0.3882219195365906,-0.4743496775627136
不用,-1.560577630996704,-0.3551042079925537,-0.1329704076051712,-0.04796123132109642,-1.0257927179336548,-0.2590605318546295,-0.20117859542369843,-0.30379799008369446,0.2881550192832947,-1.853820562362671,0.3308671712875366,0.49824726581573486,-0.2863897979259491,-0.12204162776470184,-1.0814647674560547,-0.48232871294021606,-1.1689926385879517,-1.157483696937561,0.2839984595775604,-0.7639989256858826,-1.218793272972107,-1.6420090198516846,-2.477781295776367,-0.45051300525665283,0.518489420413971,1.0300894975662231,0.30602461099624634,1.3381763696670532,1.1046054363250732,0.5508483648300171,1.117202877998352,-0.17245633900165558,0.9374563097953796,0.5066441297531128,-1.3922758102416992,-0.6791484951972961,1.4478963613510132,-0.3584158420562744,0.6239616870880127,-1.0893760919570923,-1.4219359159469604,0.006725718732923269,-0.19150905311107635,-0.37830325961112976,-0.34088200330734253,-0.7453489303588867,0.8069028258323669,-0.710407018661499,1.3020453453063965,1.2217457294464111,0.10093047469854355,0.30885615944862366,-0.7041387557983398,0.4375576078891754,0.21373242139816284,-1.8009376525878906,-0.8420725464820862,0.2106313407421112,1.8141826391220093,0.6114628911018372,-0.8311918377876282,-0.03692542761564255,0.9635237455368042,-0.10507644712924957,1.437982439994812,-1.532875895500183,0.8635236024856567,-0.6259799599647522,-0.7038367390632629,0.27559900283813477,-0.964070737361908,-0.7217186093330383,-0.30296918749809265,-0.2350548505783081,2.0535848140716553,-1.0765798091888428,-0.249551922082901,0.10165254026651382,1.318906545639038,-0.568393886089325,-0.4457094073295593,0.18443156778812408,1.8754329681396484,0.9809746742248535,-0.8010457158088684,-0.7821436524391174,1.7645268440246582,0.511678159236908,0.31452155113220215,-1.171403169631958,-1.0577399730682373,-1.1130468845367432,0.024130720645189285,0.22256438434123993,-0.23260262608528137,-0.43833088874816895,1.514610767364502,1.0296921730041504,-1.152488112449646,1.222296953201294,-0.4706312119960785,1.6050503253936768,-0.69117671251297,-0.18756937980651855,-1.2484086751937866,0.06811309605836868,-0.3091334104537964,-0.6238799691200256,-0.711793065071106,-0.9964672923088074,0.29165247082710266,-0.14477750658988953,-0.4487341642379761,-0.7333818078041077,-0.4867273271083832,-1.5597703456878662,-0.14269545674324036,1.436170220375061,0.3266470730304718,-0.4291456937789917,-1.4104052782058716,-0.2566923499107361,0.3430875539779663,1.574159860610962,-0.8568576574325562,-0.49096742272377014,0.6851292252540588,0.5512401461601257,1.454505443572998,0.6847617030143738,1.5608527660369873,0.5860917568206787,-0.3681137263774872,-0.014373689889907837,1.014678955078125,0.8993425369262695,-0.4341217279434204,0.05416923388838768,-0.17194414138793945,-0.29012221097946167,-0.13335736095905304,-0.15572570264339447,0.6910565495491028,-0.5731574296951294,0.9209866523742676,1.2513995170593262,0.07010727375745773,-0.8080267906188965,0.16557040810585022,-0.7131964564323425,-1.0525480508804321,-1.128652811050415,0.22991366684436798,-1.3145827054977417,-1.027990698814392,0.05897631496191025,0.09814973920583725,0.18735074996948242,0.019794704392552376,0.6320078372955322,0.7098799347877502,-0.2497577965259552,1.2502905130386353,-1.4276570081710815,2.231048822402954,-0.9123015403747559,0.39956337213516235,1.062536597251892,1.1450079679489136,0.5730740427970886,-0.3510603904724121,0.21023334562778473,0.1123461201786995,-0.09108521044254303,1.9929286241531372,-0.7473904490470886,0.18139100074768066,-0.06936865299940109,-0.2982424199581146,0.4973747730255127,-0.8523383140563965,1.0771249532699585,0.9812048077583313,0.027502557262778282,0.1475764662027359,0.05174579098820686,-1.4289392232894897,1.6178659200668335,-0.7608911395072937,0.07338768988847733,0.3419118821620941,-0.45136919617652893,-0.5380149483680725,0.4613478183746338,1.32261061668396,0.5544975996017456,0.013485878705978394,-0.10731536149978638,-1.1189261674880981,1.2499804496765137,-0.8042734265327454,0.9058077335357666,0.05189833045005798,-0.23418381810188293,0.05225545912981033,-1.2108210325241089,0.02639179863035679,-1.8970309495925903,-0.2208288013935089,0.09298643469810486,-0.19700734317302704,-0.2881421148777008,0.20288941264152527,1.917457103729248,2.0998897552490234,0.21508772671222687,0.35744011402130127,-2.856748580932617,-1.5573358535766602,-0.7459348440170288,-0.6662916541099548,1.9066044092178345,-0.8855230212211609,-0.4533950388431549,-0.2936991751194,-0.6399548053741455,-0.2474214732646942,0.9803016781806946,0.11023136973381042,-0.9313221573829651,-0.3350948393344879,-0.6148710250854492,-1.1513416767120361,-0.5158094167709351,-0.9646864533424377,1.2558706998825073,1.8075785636901855,-0.02303309179842472,0.41294223070144653,-0.9447189569473267,1.4707225561141968,-0.625773012638092,-0.4619153141975403,1.9038444757461548,-0.8257932066917419,0.5216605067253113,-0.698116660118103,-0.9021672010421753,-1.624410629272461,0.7172505855560303,-1.7677178382873535,0.843673825263977,-0.7383783459663391,0.24025596678256989,0.44672760367393494,0.5672882795333862,0.9565960168838501,-0.3961285650730133,1.52208411693573,-0.391152948141098,-0.10500849038362503,-0.8272517323493958,-1.0257368087768555,0.0026138091925531626,0.14790037274360657,0.49951866269111633,0.6993893980979919,0.44125133752822876,-0.1688232719898224,-0.3486400544643402,0.14114078879356384,-0.9250814318656921,0.16627787053585052,0.5489361882209778,-0.5810017585754395,0.5746724009513855,0.20350967347621918,1.1948522329330444,0.7664444446563721,-0.6755351424217224,-1.6497830152511597,-0.05510316416621208,-0.4986647367477417,0.0943785235285759,-0.09947004914283752,0.39881202578544617,-0.39792904257774353,0.01521315798163414,-0.07342088967561722,-0.1678350269794464,-0.5698260068893433,-1.2363417148590088,0.7345998883247375,-0.4311861991882324,-0.5981835126876831,1.8968517780303955,1.8375393152236938,-0.27447041869163513,1.3740180730819702,0.434300035238266,1.4721810817718506,0.6001726388931274,-0.04467377811670303,-1.0204881429672241,0.47053924202919006,-0.291831374168396,0.5196033716201782,-0.12235871702432632,-0.2556781768798828,-0.24173100292682648,-0.2298099249601364,-0.6381804943084717,0.7402929067611694,0.35445448756217957,-2.3732848167419434,-1.4068496227264404,-0.08470892906188965,0.00015858573897276074,-0.7843976020812988,-0.21795760095119476,1.4090412855148315,0.38016456365585327,0.4027160704135895,-2.0409364700317383,-1.391201138496399,0.1803232878446579,-1.3581314086914062,0.014918520115315914,-0.08229474723339081,-1.6979738473892212,-0.804811418056488,0.4760020673274994,2.2628066539764404,-1.871993064880371,-1.6728492975234985,-0.11078844964504242,1.483140468597412,0.34271785616874695,1.9614430665969849,-1.649081826210022,-1.4164886474609375,0.035641200840473175,-0.17698603868484497,-1.256992220878601,1.371085524559021,-0.0919361263513565,-0.37531402707099915,-1.7340142726898193,-0.8286831974983215,-1.8306975364685059,0.07085748761892319,0.6784866452217102,-0.8689923882484436,-0.49761220812797546,-0.6673193573951721,-0.9016838073730469,0.039778806269168854,0.8831275701522827,-0.16140997409820557,0.38983750343322754,0.10460980236530304,-0.07767745852470398,-0.11989158391952515,-1.3197250366210938,0.4018431007862091,-0.9407008290290833,-0.17725713551044464,0.7333501577377319,0.015368124470114708,1.4100254774093628,-0.8719730973243713,-1.7232816219329834,0.061272818595170975,2.049238681793213,1.6919138431549072,0.04883047193288803,0.23785509169101715,1.333222508430481,-0.0378735288977623,1.548736333847046,0.3968583941459656,-1.6463899612426758,-0.5489075183868408,-0.7419900298118591,1.0053839683532715,1.3117972612380981,-0.25713104009628296,-0.09761840105056763,1.7995295524597168,1.5821433067321777,-0.6880103945732117,0.09217377007007599,0.2937919497489929,-0.9569759368896484,0.3622460961341858,-1.497156023979187,-2.15684175491333,0.4692571759223938,0.6424640417098999,0.9149734973907471
接受,0.5834687352180481,1.8968541622161865,-1.6203819513320923,-0.9533390998840332,-0.3320048749446869,-2.0500071048736572,0.6899868845939636,2.2301650047302246,-2.2045929431915283,-0.8138401508331299,0.746494710445404,0.20542974770069122,0.5514614582061768,-0.5205111503601074,-0.08645562082529068,-1.475111484527588,1.0343108177185059,0.4288463294506073,-0.3767298460006714,-1.3175857067108154,-0.02281912975013256,-1.8033661842346191,-0.14174187183380127,0.42914828658103943,-0.07064547389745712,-0.29027679562568665,0.7503592371940613,-1.248041033744812,0.7796406149864197,0.7377280592918396,0.046362850815057755,0.5092756152153015,-1.3101609945297241,2.1089389324188232,-0.2513616383075714,0.7071613073348999,0.39085161685943604,-0.3740057349205017,-0.46347713470458984,2.8831002712249756,-0.9640528559684753,-0.3846926689147949,0.7625092267990112,0.10557742416858673,-1.4852067232131958,0.4710376560688019,1.912477970123291,-0.05131281912326813,-0.940904974937439,-1.0743906497955322,-1.1315771341323853,0.7220489382743835,-0.12215873599052429,-1.7511463165283203,-0.6808051466941833,-2.7888190746307373,1.7715849876403809,0.3097347915172577,-0.5932894349098206,-0.15110710263252258,-0.7212181091308594,-1.3470559120178223,0.8421023488044739,0.1257392019033432,-0.8647496104240417,0.1671682596206665,0.7436906695365906,-0.6240748167037964,0.4963299334049225,0.5363442301750183,0.25398507714271545,0.8210682272911072,0.8179911375045776,0.9409719705581665,-0.09470250457525253,1.6982390880584717,-0.33455145359039307,-1.6458640098571777,-0.4114297032356262,0.9508712887763977,-0.9041078686714172,0.3001299798488617,2.6237471103668213,1.5724977254867554,-1.595982551574707,-0.04878644645214081,-0.6547442078590393,3.4821746349334717,-1.3838883638381958,0.7621555328369141,-0.40725621581077576,0.9218079447746277,-1.1201187372207642,-0.18501290678977966,1.3135857582092285,-0.02090062014758587,2.1182303428649902,-0.012355655431747437,0.15397457778453827,1.5054184198379517,1.4984737634658813,0.30706337094306946,0.25960737466812134,-2.1513376235961914,-0.526828408241272,0.7126046419143677,-2.377436637878418,1.1655659675598145,-1.6905570030212402,0.1758037805557251,-2.040926218032837,-1.131491780281067,-0.9269413352012634,-0.13006189465522766,-0.6182945966720581,-0.27445200085639954,1.4123982191085815,0.7175433039665222,1.9117953777313232,-1.2266886234283447,-1.5445045232772827,-0.3820559084415436,-0.624504804611206,1.4385907649993896,0.5965843796730042,-1.552625060081482,-0.33621010184288025,-0.06880053877830505,0.7221997380256653,-0.7809320688247681,1.2614850997924805,-1.3258764743804932,0.15680350363254547,-0.4025940001010895,1.3251769542694092,0.6475394368171692,0.455450177192688,-1.0464684963226318,-3.2290215492248535,0.3240819573402405,-0.11245791614055634,0.541337251663208,1.1281681060791016,-0.700954020023346,-0.1256425380706787,1.1798971891403198,-0.020566653460264206,0.15051186084747314,0.7142485976219177,-0.2951259911060333,-2.157083749771118,-0.9368869066238403,-1.4531517028808594,-0.9785377979278564,0.2983424663543701,-0.6609833836555481,2.532269239425659,1.0958937406539917,-0.5021265149116516,0.18302994966506958,-0.13942554593086243,0.3607522249221802,-1.236033320426941,-0.2100578248500824,-0.5111197829246521,1.2195557355880737,1.0935289859771729,1.2422846555709839,0.4668377637863159,1.2412762641906738,0.41807499527931213,-0.30299803614616394,2.4834985733032227,0.6039772629737854,-0.2594376504421234,-1.0494647026062012,0.30082735419273376,0.030159367248415947,0.6341760158538818,-1.5456475019454956,-2.3404672145843506,1.3328373432159424,-0.44706088304519653,2.8934762477874756,-0.2918778359889984,-0.5693597793579102,0.5015391707420349,-1.3592756986618042,-0.6609384417533875,-0.9720283150672913,-1.2661035060882568,0.5717235803604126,1.9783546924591064,0.23729385435581207,0.701323926448822,2.076737880706787,-1.3609956502914429,1.1938854455947876,0.3613172173500061,-0.42281970381736755,-0.41839805245399475,0.659629762172699,1.6997710466384888,1.6687495708465576,-0.37444958090782166,-0.3781360387802124,1.2441582679748535,-0.29803386330604553,0.8384432792663574,-0.664534866809845,-0.604506254196167,0.5265780091285706,-1.3520065546035767,-0.6034801006317139,0.6051358580589294,-1.5608618259429932,-0.6590067148208618,-1.2690694332122803,-0.3335927128791809,-3.61958646774292,-0.13839860260486603,2.315857410430908,-0.8239803910255432,0.044637273997068405,1.3821229934692383,-1.650941252708435,-0.5437422394752502,-2.9289679527282715,-0.24348023533821106,-1.2082874774932861,0.7545304894447327,-1.2690904140472412,0.18536528944969177,-1.7473492622375488,-1.7506568431854248,-0.7792741060256958,-0.8829742074012756,-2.205981969833374,0.3444872796535492,-0.8571907877922058,1.1830438375473022,1.4447932243347168,-0.2424515336751938,0.7472813725471497,1.650800347328186,-1.683684229850769,-0.8487915992736816,1.1258445978164673,0.05264079198241234,-0.4330623149871826,-0.11814507842063904,-1.3806613683700562,0.4633468985557556,1.4511973857879639,0.45498502254486084,0.6168197989463806,-1.4936530590057373,0.8509208559989929,0.9488039016723633,1.292123794555664,1.0672940015792847,-0.11685121804475784,-2.2271828651428223,1.7349863052368164,-0.15217627584934235,0.3604632318019867,-0.07704906165599823,-0.8701010942459106,-2.4040040969848633,-2.318216562271118,-1.0070949792861938,-0.32509997487068176,-0.8397305011749268,-0.10100793838500977,-0.7755870223045349,-0.16809193789958954,0.8428557515144348,-0.5327686071395874,1.5824592113494873,-1.4062107801437378,0.8747994899749756,1.3832770586013794,-0.544346272945404,-1.5730578899383545,0.36985310912132263,0.24631787836551666,1.8122754096984863,-0.3624027967453003,0.80092853307724,0.8725895285606384,-1.18104887008667,-2.299703359603882,2.376213550567627,0.44496187567710876,0.6326330900192261,0.5423348546028137,0.48686638474464417,0.45818889141082764,-1.9116621017456055,-1.8017919063568115,-0.2551336884498596,-1.185373067855835,-1.5318729877471924,1.3971275091171265,-0.5658000707626343,-0.7175372838973999,-1.4053789377212524,-1.5823187828063965,-1.3814196586608887,0.37227118015289307,0.6997604370117188,0.9453492760658264,-1.9049015045166016,-1.5469729900360107,-1.4913514852523804,0.36841484904289246,-0.7739617824554443,1.5249654054641724,-1.2112864255905151,-0.757487416267395,0.859392523765564,-0.9216688871383667,0.5922677516937256,0.3039304316043854,-0.452155202627182,-0.34434589743614197,-0.562831461429596,0.2903265655040741,1.3986927270889282,0.7152174711227417,0.23818427324295044,-0.5136322379112244,0.9891417026519775,-2.021059513092041,-0.9486597180366516,-0.021076712757349014,-1.5907381772994995,2.3869822025299072,0.7476744055747986,0.06666252017021179,0.38104569911956787,-0.24758563935756683,-0.24956277012825012,-0.04072926566004753,0.023291075602173805,1.8751804828643799,0.36196205019950867,-0.07152549922466278,0.40587517619132996,-0.26323002576828003,0.32841068506240845,-0.7056888341903687,-1.101148247718811,1.4530377388000488,-0.2384764552116394,-1.5415072441101074,1.711906909942627,0.9362589120864868,0.4364803433418274,1.4692504405975342,0.5535568594932556,1.8391131162643433,-0.7591695785522461,-3.241205930709839,-0.7711384296417236,-0.9201956987380981,0.13952115178108215,1.8413375616073608,0.8400943875312805,1.197566270828247,-1.5550222396850586,0.40387994050979614,0.4296778440475464,0.25017058849334717,0.705973207950592,0.5226680040359497,-2.313656806945801,-0.8822070956230164,0.21203403174877167,-0.37810543179512024,-0.16614288091659546,-2.80168080329895,0.8364896178245544,-0.10815289616584778,-1.3318228721618652,0.07042605429887772,-0.24688340723514557,-0.6901413202285767,-0.8667813539505005,0.49514397978782654,-0.22585529088974,0.9173183441162109,1.2020933628082275,-0.584804892539978,-0.6488776803016663,0.834287703037262,0.1329880654811859,-0.6467651724815369,0.41119346022605896,-1.1166259050369263
巨大,0.15624749660491943,-0.3585679233074188,-1.958644151687622,-0.3699076771736145,-0.051871173083782196,2.3544702529907227,-0.07997345179319382,4.083481788635254,-0.18415439128875732,0.2518123388290405,-0.5604304075241089,0.6091656684875488,0.5130287408828735,0.30197444558143616,-0.43480029702186584,-1.1828601360321045,0.48835545778274536,2.7882516384124756,0.09348814189434052,-0.4197480380535126,0.8751105070114136,0.0426405593752861,-0.060625530779361725,-0.8159988522529602,-0.9077277779579163,0.22627195715904236,-2.937476396560669,0.9145315289497375,0.10905510932207108,-1.2475130558013916,0.27952146530151367,-0.43037331104278564,0.4383070170879364,-0.9807716608047485,-0.5604182481765747,0.6411060690879822,-0.9363732933998108,0.8298611640930176,0.42258232831954956,1.1351044178009033,0.1559378057718277,0.7685539126396179,1.1113760471343994,-0.5023603439331055,-0.960015058517456,0.828840434551239,0.19409847259521484,1.1880289316177368,-0.628122866153717,1.0528154373168945,-0.2676370441913605,0.14013926684856415,-1.3938862085342407,-0.8788793683052063,1.5800186395645142,1.036750316619873,0.3488420248031616,1.905306100845337,-1.660192847251892,-0.6344929933547974,-0.2350172996520996,-1.2157518863677979,-0.2593645751476288,-2.056166887283325,0.33024466037750244,0.3250364065170288,0.1083834171295166,2.19344425201416,-0.3683393895626068,2.1616079807281494,0.17405755817890167,-0.13710470497608185,0.5433385372161865,0.7389275431632996,0.15363198518753052,0.42137256264686584,2.0150012969970703,0.5704967379570007,-1.40677011013031,0.2816566228866577,-0.31754669547080994,-0.5529947280883789,0.4708319902420044,1.0400660037994385,-1.1868971586227417,0.9866902828216553,0.02812984585762024,1.3396925926208496,1.3060988187789917,1.8791238069534302,-1.0397387742996216,0.8209452629089355,0.13562236726284027,-1.8737750053405762,0.9137080907821655,1.023856282234192,-2.1451680660247803,0.7304767966270447,1.2240699529647827,1.3309308290481567,0.29523786902427673,0.55137699842453,-0.49869805574417114,1.5124194622039795,1.701889991760254,0.9519708156585693,0.4680043160915375,-0.5371003746986389,-0.13135278224945068,-1.6482999324798584,-0.11739598959684372,-0.5571448802947998,0.3416817784309387,-1.2219215631484985,-0.18970629572868347,0.17012229561805725,1.9993796348571777,-0.6191396713256836,-0.027863414958119392,1.026444673538208,-0.06846818327903748,0.986555814743042,-0.43173491954803467,2.158846378326416,-1.2135721445083618,-1.122725486755371,0.26926830410957336,0.47883185744285583,-1.281843900680542,-0.041272372007369995,-0.15432091057300568,1.4250380992889404,1.1657310724258423,0.4740399122238159,-1.1378053426742554,-1.0756245851516724,0.4580385982990265,0.16036218404769897,1.2095363140106201,1.0448437929153442,-1.059848666191101,-0.7960225343704224,-1.9170788526535034,-1.0305988788604736,0.44196832180023193,-0.01881948858499527,-2.255094289779663,0.05583595484495163,0.827695906162262,-0.73443204164505,0.5563045740127563,0.8242083191871643,1.1088589429855347,-0.7186554074287415,1.0248522758483887,0.6770169138908386,-0.6856650710105896,-0.4744688868522644,0.6911454200744629,1.404871940612793,0.6023104786872864,0.08640798926353455,-1.3467265367507935,-0.3222055733203888,-0.3581646680831909,1.827007532119751,-0.1576661467552185,-0.7288444638252258,0.9318488836288452,-1.017869234085083,-0.0074057020246982574,0.08680988103151321,0.1278771609067917,-0.19966012239456177,-0.7573860883712769,0.2954155206680298,0.5342239141464233,0.07733757048845291,0.14018245041370392,0.03817041590809822,1.411268711090088,-0.7130281925201416,-1.4364709854125977,-1.446158528327942,0.784736156463623,-1.6676374673843384,-1.509907603263855,0.28915169835090637,2.2424726486206055,-0.37539732456207275,1.300644874572754,-0.9249275922775269,-0.1590038686990738,0.8417457938194275,-0.06467355787754059,1.3000152111053467,0.618149995803833,-1.0624395608901978,-0.12175512313842773,0.3019099831581116,0.014413056895136833,1.6892244815826416,0.5302020907402039,0.6505400538444519,0.6156551837921143,1.5272449254989624,-0.22264990210533142,0.8196496963500977,-0.3257176876068115,0.571755051612854,-0.3414795398712158,2.6072473526000977,0.11711291968822479,0.9383521676063538,-1.5759855508804321,-0.928048312664032,-1.018608808517456,-2.431274175643921,0.13275378942489624,-0.372828871011734,0.5279902815818787,0.2329631894826889,-0.946445643901825,-0.6203858852386475,0.43958085775375366,0.23658081889152527,0.4400632679462433,-0.5332527756690979,1.6946285963058472,-1.4545068740844727,-0.5924775004386902,0.10865053534507751,-1.4403811693191528,-0.7482045888900757,-0.8603637218475342,0.7074465751647949,0.18170136213302612,0.3544647693634033,-0.04911523684859276,0.24910013377666473,-1.7544530630111694,-1.0800660848617554,-0.043299973011016846,-0.6770881414413452,-1.0530208349227905,0.4345109760761261,1.2623636722564697,0.7858583927154541,0.43496301770210266,-1.125888705253601,0.235800102353096,0.06755071878433228,0.5967020988464355,1.3659473657608032,-0.8371709585189819,0.6504435539245605,0.9505032300949097,1.751217246055603,2.4053685665130615,-0.1903412938117981,-0.6503423452377319,-1.718355655670166,-0.3993106782436371,0.2214304804801941,-0.3479006886482239,2.171790838241577,1.6038968563079834,0.009726216085255146,-0.8505722880363464,-0.3879852890968323,-0.5014742612838745,-1.843910813331604,-0.7683095335960388,0.6421787738800049,1.2458901405334473,0.38352590799331665,0.926423192024231,-0.47508591413497925,-0.4596714973449707,-1.6754661798477173,2.077530860900879,0.3858461081981659,-0.19849425554275513,0.25818291306495667,2.2786521911621094,0.7445922493934631,1.0128663778305054,-0.09652812778949738,-1.5563774108886719,-0.45808911323547363,-2.421684741973877,-0.002461758442223072,1.3557449579238892,-0.06828124076128006,-0.6605268716812134,3.8398704528808594,0.9878171682357788,-0.1850331574678421,0.7433890104293823,0.8852197527885437,-0.9900569319725037,-0.7881503105163574,0.4337508976459503,1.5484474897384644,2.0632081031799316,1.0907783508300781,1.161049723625183,-0.193857803940773,0.15311665832996368,-0.08235705643892288,-0.8210501074790955,1.3896249532699585,-0.6674360632896423,-1.4297648668289185,-0.9773452281951904,1.508875846862793,-0.8572442531585693,-1.0198171138763428,1.1661983728408813,0.1821732372045517,0.8534944653511047,1.9408042430877686,-0.6825579404830933,-1.1405061483383179,-0.6781425476074219,0.062078334391117096,-0.27426812052726746,1.3047341108322144,1.020896077156067,-1.4829177856445312,-0.3283903896808624,0.3816142678260803,0.7643858194351196,0.646944522857666,-0.6178755760192871,-0.2929232120513916,-1.0210964679718018,0.9657365083694458,-1.0950186252593994,-1.1447887420654297,1.338907241821289,0.414802610874176,2.145080804824829,-0.32406294345855713,0.4206077456474304,-2.5546975135803223,0.2786909341812134,-1.2173629999160767,0.667529284954071,-0.1126619353890419,-0.35387176275253296,-0.4396110475063324,-1.4364062547683716,-0.5977966785430908,-1.4115588665008545,-0.034607019275426865,1.872684121131897,-1.2932158708572388,-1.55868399143219,-0.6278727054595947,-3.1882805824279785,1.360327124595642,-0.08144562691450119,1.0847488641738892,0.0269475094974041,-0.16332659125328064,-0.7322357892990112,-0.44234079122543335,0.9707173705101013,3.30477237701416,-0.5631606578826904,1.4446126222610474,0.21665024757385254,0.7866222858428955,0.45581090450286865,-0.4172329604625702,-0.3746776580810547,1.2328987121582031,0.974224865436554,-1.2452441453933716,1.3033865690231323,-0.5786863565444946,-1.5638508796691895,-1.8258185386657715,0.7553987503051758,0.6436873078346252,1.2480343580245972,1.1283999681472778,0.06880601495504379,0.5425375699996948,-1.8869879245758057,-0.7489424347877502,-0.5862268209457397,-1.13655686378479,-0.6055858135223389,-0.6229094862937927,-1.3578517436981201,0.3998139202594757,1.3508776426315308,0.34202688932418823
卖,-1.6631321907043457,1.464747428894043,0.018655724823474884,-0.27777525782585144,-0.6157262921333313,-2.268822431564331,0.17784714698791504,-0.5097928643226624,-1.189332127571106,-1.286313772201538,0.8651748895645142,-0.7316679358482361,0.11516540497541428,-0.6232689619064331,0.4719114303588867,-1.2404491901397705,0.23316432535648346,-0.09823641180992126,-0.8702474236488342,-0.7833755612373352,0.3894262909889221,0.12774670124053955,1.5260752439498901,1.6148900985717773,-0.5006241798400879,2.139411211013794,-0.6983299255371094,0.5522068738937378,1.1671069860458374,-0.14548428356647491,-1.129045844078064,0.9588871598243713,-0.1652335226535797,-1.923048734664917,0.4309649169445038,-0.712497353553772,-1.6667160987854004,-0.6179534792900085,1.0551122426986694,-0.04500030726194382,0.881093442440033,0.6645826697349548,1.676794409751892,-0.9249828457832336,-0.11260562390089035,1.0893957614898682,-2.570702075958252,-0.0034110741689801216,-1.4054311513900757,-1.317556619644165,0.11807330697774887,-1.0085515975952148,0.8680753707885742,0.983965277671814,1.4218323230743408,-0.26380348205566406,-1.8634159564971924,-2.850827217102051,-1.1920729875564575,1.2088682651519775,-2.0211265087127686,-0.04303615167737007,0.44299107789993286,-1.4184954166412354,0.03972819820046425,0.445971816778183,0.1466323435306549,1.1832951307296753,1.2666832208633423,-0.06934669613838196,-0.02532724104821682,-1.7576655149459839,0.055769797414541245,0.554033100605011,-1.7671732902526855,1.1758015155792236,-0.6737863421440125,-0.35086682438850403,0.09276407957077026,0.38048046827316284,-1.136842966079712,-0.31213486194610596,-0.13820596039295197,0.8837080001831055,-2.480020046234131,1.6799180507659912,-1.1301337480545044,0.3413369655609131,-1.100714921951294,0.3015976548194885,-0.19043157994747162,-0.18661902844905853,1.3177255392074585,1.0884324312210083,-0.0748709961771965,0.8639481663703918,-0.306415319442749,0.5099731683731079,-1.1440626382827759,-0.6057971715927124,0.939816415309906,-1.161354899406433,-0.8271628022193909,-2.7110373973846436,-2.1474807262420654,0.1494458168745041,-2.0665292739868164,3.632976531982422,0.8262009620666504,-0.3790375292301178,0.6779207587242126,-0.18850645422935486,-0.8328578472137451,0.8680897951126099,2.0270090103149414,1.8583699464797974,-0.9494661688804626,0.15717117488384247,2.3589389324188232,-0.5025395750999451,1.7270517349243164,0.09006455540657043,0.2891044616699219,0.9628968834877014,-1.5893640518188477,0.03881726413965225,1.0026909112930298,-0.158503457903862,0.4723781645298004,0.219402477145195,-0.9847314953804016,-1.621232509613037,1.4219306707382202,1.2495286464691162,0.0654841735959053,0.17156945168972015,1.287441611289978,-0.10370635986328125,1.6018478870391846,0.967695951461792,-1.6966160535812378,-0.22462429106235504,0.7507585883140564,-0.2736330032348633,1.6806188821792603,-0.19101063907146454,0.02080998569726944,-1.5324249267578125,0.015489530749619007,-0.9439211487770081,-0.24358047544956207,1.6154794692993164,-0.6538830399513245,0.06957545131444931,1.1917778253555298,0.7552126049995422,0.17989729344844818,0.16122877597808838,-1.1381536722183228,1.7245701551437378,1.1176246404647827,-0.993927538394928,-0.022722525522112846,0.39246633648872375,1.7993038892745972,0.42931950092315674,-1.4167026281356812,-1.5402836799621582,1.6452136039733887,1.7686076164245605,-0.14425642788410187,0.9200413227081299,1.3357019424438477,0.7845509648323059,-1.6831121444702148,-0.8719363808631897,0.31379061937332153,0.4096333682537079,0.8474904894828796,0.3843381702899933,-0.8543381690979004,2.4677252769470215,-1.2048827409744263,1.8325233459472656,-0.7775933742523193,0.3952440619468689,-1.1548945903778076,0.06305600702762604,-0.16525879502296448,0.011410481296479702,0.31435227394104004,-1.1933481693267822,1.341240406036377,-1.202103614807129,-0.4939265549182892,-1.2142798900604248,-0.6009076833724976,0.3860258460044861,-1.677420735359192,-0.13645954430103302,1.7598240375518799,-2.284764528274536,-0.26941049098968506,1.3590588569641113,-1.2605783939361572,2.015896797180176,-0.9811522364616394,-0.8615484237670898,-1.263259768486023,-0.18007339537143707,-0.5000417232513428,-0.6613680720329285,-1.3088701963424683,-0.7010310888290405,0.06467576324939728,1.0622729063034058,-1.1543922424316406,-0.11662899702787399,-0.6823673248291016,-1.2655339241027832,-1.5425430536270142,0.8183528184890747,-1.5264700651168823,-1.4317097663879395,-0.2519696056842804,-0.06467209756374359,-0.6025661826133728,-0.3799092769622803,-0.8031794428825378,0.49278679490089417,1.6916874647140503,-0.03841482102870941,-0.07427354156970978,1.6222838163375854,1.3821756839752197,-1.0113632678985596,1.5014535188674927,-2.198897361755371,-1.2555804252624512,1.1890877485275269,2.4736487865448,1.2464450597763062,0.9315422773361206,-1.679827332496643,-0.2243691086769104,1.1802717447280884,-0.3937798738479614,0.9381362199783325,0.9263411164283752,0.8290829062461853,-0.2582562565803528,0.3117813169956207,1.265191674232483,-1.1000027656555176,-0.8086951971054077,0.17700999975204468,-0.3570396602153778,0.1495160460472107,-0.7607951760292053,0.34086328744888306,-0.24179457128047943,0.47563648223876953,-0.4833809733390808,0.29295656085014343,-0.8891419768333435,-0.7616201043128967,-1.3463728427886963,1.1751394271850586,-0.341581791639328,0.674013078212738,-0.9373314380645752,-0.23684871196746826,0.7281693816184998,-0.0567525215446949,0.17825046181678772,2.047264337539673,0.835925817489624,0.39603936672210693,-0.9023323059082031,-0.4030833840370178,-0.6048224568367004,-2.4537980556488037,-0.06711000949144363,-1.2582263946533203,-0.528377115726471,1.305586576461792,1.8316653966903687,-2.173555374145508,-0.822601318359375,1.2702903747558594,0.3636434078216553,-0.7785019278526306,-1.5446276664733887,-1.9628061056137085,0.37413474917411804,1.3059544563293457,1.2799161672592163,0.4177221357822418,-0.10269895195960999,0.4334610104560852,0.7355576157569885,-0.08837639540433884,-2.7452175617218018,0.49697402119636536,1.2468236684799194,-0.7569064497947693,0.8752591609954834,0.2552849054336548,0.07526401430368423,0.28837162256240845,0.6145344376564026,0.9948503971099854,-1.6080244779586792,0.6045138239860535,-1.0114836692810059,-0.46484804153442383,0.30290359258651733,-1.4792369604110718,-1.7186623811721802,1.511267900466919,0.042065732181072235,-0.6153876185417175,0.32000479102134705,-0.3562913239002228,0.13460507988929749,0.3325578272342682,0.6276726722717285,-0.1279968023300171,0.8093510866165161,-1.8506115674972534,-2.7640790939331055,-0.24292925000190735,2.8009729385375977,-2.1539909839630127,-2.012845516204834,-0.5008541345596313,1.9567794799804688,0.3013870418071747,-0.02890882082283497,2.207921266555786,-0.05790015682578087,2.253983497619629,0.4473292827606201,0.22066445648670197,0.6568880677223206,-0.1832428127527237,1.1050831079483032,-2.434849977493286,-1.2910352945327759,-1.6545445919036865,-1.0734505653381348,2.5826451778411865,-0.23287297785282135,1.2898136377334595,-0.84307461977005,-1.0261708498001099,0.0702744722366333,-0.318943589925766,-0.44270047545433044,-0.9478467106819153,-0.26709088683128357,0.03758098557591438,0.7540224194526672,1.712581753730774,0.13831490278244019,-1.3865596055984497,0.6677995920181274,0.8040398955345154,-0.46058303117752075,0.9226953387260437,-1.0952495336532593,-0.8389034867286682,-0.7349455952644348,0.007598822005093098,0.7531127333641052,-0.09259234368801117,-0.49236539006233215,0.2371482104063034,-0.8138754367828369,0.8666805028915405,1.501052975654602,-1.631452202796936,-0.3832100033760071,1.131450891494751,0.325162798166275,-0.043638404458761215,0.033597394824028015,0.8343309760093689,0.12421735376119614,-0.5851989388465881,0.6768326759338379,0.7603104114532471,-0.6319730281829834,-1.1523228883743286,0.340983122587204,-0.6584422588348389,0.8811236023902893,2.3727006912231445,1.0233584642410278,0.0028036674484610558
门,-0.050081245601177216,-0.14235541224479675,-2.4163150787353516,-0.8512965440750122,-0.2299608290195465,2.5159239768981934,0.414747953414917,0.8260973691940308,-0.3972378671169281,0.09049787372350693,0.2732568085193634,2.615370035171509,1.0657968521118164,-0.25064849853515625,0.6317265033721924,0.15471503138542175,-1.3982324600219727,0.3255354166030884,0.42521363496780396,-0.9662628173828125,0.3662642240524292,0.6955051422119141,-0.5278398394584656,-0.8318575620651245,-0.09414906054735184,1.3070907592773438,-1.5735197067260742,0.4569869637489319,0.9829787611961365,-1.0273412466049194,-0.9029380083084106,-1.631250262260437,-0.6936786770820618,-0.25898218154907227,0.36488792300224304,0.8375791907310486,0.7618082165718079,-0.12036759406328201,-2.5291411876678467,-0.3382730782032013,-2.610318183898926,-2.3096561431884766,-0.3026021718978882,1.5146369934082031,0.014852259308099747,1.1245605945587158,-1.037411093711853,0.07271786034107208,-1.6025456190109253,1.6961169242858887,2.8142123222351074,0.6830620169639587,-0.3659747242927551,0.07712583243846893,2.296008586883545,0.046454038470983505,-1.9358091354370117,2.1959235668182373,0.8854640126228333,-1.4661542177200317,0.522330105304718,1.9990835189819336,-0.5123920440673828,-0.14340858161449432,0.377388596534729,0.11737792938947678,-1.3363862037658691,-1.0258598327636719,-0.8803688287734985,-0.054904524236917496,1.5708961486816406,0.19992049038410187,1.9208056926727295,-1.44334876537323,-1.265310287475586,1.4394986629486084,1.7183666229248047,0.11310291290283203,0.25444144010543823,-1.0600762367248535,0.6068844795227051,0.22313342988491058,-0.1757773607969284,0.08628255128860474,1.4221343994140625,-1.6491279602050781,3.2648186683654785,-0.5276910066604614,-1.004400372505188,-0.19081391394138336,0.9692766666412354,-1.5982179641723633,0.5527326464653015,-0.42682912945747375,-1.0609420537948608,0.6531084775924683,1.1380574703216553,0.895045280456543,0.8823717832565308,0.6692140698432922,0.7030057907104492,0.8537746071815491,0.023106617853045464,1.374505877494812,0.012899132445454597,-0.39128121733665466,-0.5464922189712524,0.3363848030567169,0.5051366090774536,1.648985505104065,0.08301455527544022,-0.45534276962280273,-0.2700011432170868,1.3360960483551025,0.7548028230667114,0.9349974989891052,-0.06872431188821793,-0.2635732889175415,-1.0377984046936035,-0.9749683737754822,-0.7080234885215759,1.327383279800415,-0.06944956630468369,-1.0100288391113281,-3.2233119010925293,0.359092652797699,0.9543747901916504,-0.22160762548446655,-1.1734660863876343,0.03191598132252693,2.159087657928467,0.06021735072135925,0.25832298398017883,2.2366065979003906,-0.911462128162384,-0.2275775671005249,-0.9297618865966797,1.9267754554748535,-2.0213804244995117,0.16954725980758667,-0.20353837311267853,-2.0424301624298096,-1.1243528127670288,-1.0679854154586792,0.8937005400657654,-1.1852314472198486,1.163231611251831,-1.6727041006088257,0.4389309287071228,1.4482638835906982,-0.5963074564933777,0.8687089681625366,-0.630468487739563,-0.9806294441223145,-0.05553927272558212,-0.9007333517074585,-0.9203163385391235,-0.3740411698818207,-2.245448589324951,0.839423656463623,-1.6575435400009155,-0.03425140306353569,-1.8443843126296997,-1.062593698501587,-2.328303337097168,-0.9869569540023804,1.150256633758545,0.9681605696678162,-0.2889464497566223,2.7174947261810303,-0.8798117637634277,0.0007197742233984172,-1.7988240718841553,3.5369040966033936,0.92616868019104,-1.6399308443069458,1.795358657836914,0.023486115038394928,-1.0271042585372925,-1.9103835821151733,0.3893803060054779,0.7199597358703613,-1.3693739175796509,1.5923078060150146,-1.2275044918060303,1.206513524055481,-1.7410683631896973,-0.7816587090492249,0.7623836994171143,1.6856136322021484,0.028578652068972588,0.23325036466121674,-1.8435496091842651,0.6974906325340271,-0.2195505052804947,-0.19760160148143768,-0.23993098735809326,0.2203933298587799,0.30453306436538696,-2.051680564880371,4.063067436218262,-1.0450705289840698,-0.6172791123390198,0.3406637907028198,0.900496244430542,0.5939458012580872,-1.264729619026184,-0.19370552897453308,-0.4260917901992798,-0.3809753954410553,1.3894883394241333,-0.25922733545303345,0.5929030776023865,2.588575839996338,0.378788024187088,-0.3704279363155365,0.2608005404472351,-0.8920552134513855,-0.02818717062473297,-1.1643880605697632,0.02590995654463768,0.3169056475162506,-1.2571558952331543,-0.1084597110748291,-2.657191276550293,0.36121225357055664,-3.082474708557129,-0.41865482926368713,-3.19879150390625,-0.8682370185852051,0.20713064074516296,0.8342088460922241,0.6058152914047241,-0.8487577438354492,-2.3726327419281006,-2.3877503871917725,-0.44177186489105225,-0.3689667880535126,1.1866432428359985,0.7848391532897949,-1.5687628984451294,0.33349528908729553,-1.617366075515747,0.8465860486030579,-0.21333663165569305,3.502448081970215,0.32681307196617126,1.8574684858322144,-1.7011407613754272,-0.9123969674110413,-0.8991878032684326,0.10902658104896545,0.6587119102478027,0.7363427877426147,1.653010368347168,0.884251058101654,-2.247746229171753,-0.682277500629425,-1.5486196279525757,-2.086867094039917,0.6093854904174805,0.04926643893122673,0.266090989112854,-1.591939926147461,0.04960111901164055,-1.5879459381103516,-0.3522624969482422,2.628650426864624,0.7640411257743835,0.6405237317085266,-1.6898183822631836,-0.3011588454246521,-1.9937145709991455,-1.2806450128555298,-0.2414761185646057,-1.9240708351135254,-3.71036696434021,0.9998594522476196,-0.4916762709617615,-0.2158997505903244,0.7800319790840149,1.3132717609405518,0.0022284933365881443,-0.34426233172416687,-0.2662924826145172,-1.4419002532958984,-0.07875513285398483,0.10744936764240265,-0.7663108706474304,0.45380470156669617,0.21950796246528625,-0.296016663312912,0.02974451147019863,0.009142695926129818,-1.1205250024795532,1.5969747304916382,-1.2291508913040161,0.9718862175941467,0.6553587913513184,-0.22918403148651123,0.8348773717880249,2.260728597640991,0.1538720428943634,4.159803867340088,-0.28915655612945557,1.278020977973938,0.3506811559200287,-0.2917122542858124,1.2965143918991089,-1.8187732696533203,-1.0603008270263672,-0.8040987253189087,-0.5015333890914917,1.0817183256149292,2.763467788696289,-0.07465549558401108,-1.465997576713562,-1.3477369546890259,1.2031816244125366,-1.2217438220977783,0.43776649236679077,0.4488801062107086,-1.7694714069366455,0.3875868320465088,0.7805469036102295,-0.6955627202987671,-1.636139988899231,0.7328824400901794,-0.1949162483215332,-0.640786349773407,1.2171523571014404,0.18804354965686798,0.45510831475257874,-1.0730820894241333,-0.27897822856903076,0.7479923367500305,2.0953965187072754,1.0442488193511963,0.5209428071975708,0.5554115772247314,0.022830314934253693,-1.566429853439331,-1.8755972385406494,-0.7315472960472107,-0.9184375405311584,-0.27354347705841064,0.06319653242826462,-0.5113521814346313,-1.4835381507873535,-0.5777614116668701,-1.086998701095581,2.1893153190612793,-2.0068159103393555,1.763696551322937,-0.49066999554634094,-0.2991662919521332,-0.04248237982392311,0.8626274466514587,0.0029049168806523085,-0.02230103313922882,-1.150999665260315,1.7067909240722656,2.031116485595703,1.152048110961914,-1.6415420770645142,0.1838780790567398,-1.8585424423217773,-0.32685378193855286,-0.388331800699234,0.6750656962394714,2.3957502841949463,-2.528876304626465,-2.483306407928467,-0.030370663851499557,-0.8438335657119751,-0.7977864742279053,1.468225359916687,0.47913551330566406,0.0516476146876812,1.1963917016983032,-0.47077155113220215,0.5914744138717651,0.25011029839515686,0.4209597706794739,-0.5265946388244629,-1.2201895713806152,-1.4289498329162598,-1.5217370986938477,-0.030470486730337143,0.5694182515144348,-0.4698282778263092,-0.15920525789260864,-0.6581955552101135,0.526702880859375,-0.12936773896217346,1.7456308603286743,-0.10302706062793732,-0.7534443140029907,2.455371856689453,0.8434372544288635
