word,0,1,2,3,4,5,6,7,8,9,10,11,12,13,14,15,16,17,18,19,20,21,22,23,24,25,26,27,28,29,30,31,32,33,34,35,36,37,38,39,40,41,42,43,44,45,46,47,48,49,50,51,52,53,54,55,56,57,58,59,60,61,62,63,64,65,66,67,68,69,70,71,72,73,74,75,76,77,78,79,80,81,82,83,84,85,86,87,88,89,90,91,92,93,94,95,96,97,98,99,100,101,102,103,104,105,106,107,108,109,110,111,112,113,114,115,116,117,118,119,120,121,122,123,124,125,126,127,128,129,130,131,132,133,134,135,136,137,138,139,140,141,142,143,144,145,146,147,148,149,150,151,152,153,154,155,156,157,158,159,160,161,162,163,164,165,166,167,168,169,170,171,172,173,174,175,176,177,178,179,180,181,182,183,184,185,186,187,188,189,190,191,192,193,194,195,196,197,198,199,200,201,202,203,204,205,206,207,208,209,210,211,212,213,214,215,216,217,218,219,220,221,222,223,224,225,226,227,228,229,230,231,232,233,234,235,236,237,238,239,240,241,242,243,244,245,246,247,248,249,250,251,252,253,254,255,256,257,258,259,260,261,262,263,264,265,266,267,268,269,270,271,272,273,274,275,276,277,278,279,280,281,282,283,284,285,286,287,288,289,290,291,292,293,294,295,296,297,298,299,300,301,302,303,304,305,306,307,308,309,310,311,312,313,314,315,316,317,318,319,320,321,322,323,324,325,326,327,328,329,330,331,332,333,334,335,336,337,338,339,340,341,342,343,344,345,346,347,348,349,350,351,352,353,354,355,356,357,358,359,360,361,362,363,364,365,366,367,368,369,370,371,372,373,374,375,376,377,378,379,380,381,382,383,384,385,386,387,388,389,390,391,392,393,394,395,396,397,398,399
取得,0.10412642359733582,-0.015439845621585846,2.13789963722229,0.44333580136299133,-0.7231656908988953,-2.7089436054229736,1.5446416139602661,2.257222890853882,-2.3185300827026367,-2.802534818649292,-1.0019088983535767,2.7143490314483643,-1.2656623125076294,0.14724917709827423,-4.32952880859375,-3.4386556148529053,0.718346357345581,0.6205435395240784,-0.764514148235321,0.5005122423171997,1.8185762166976929,-0.6447246074676514,-2.534291982650757,-0.5423517823219299,-0.06562182307243347,-0.4564114511013031,-3.001803159713745,-0.2256905883550644,1.0951966047286987,-1.7263593673706055,-1.1491315364837646,1.2220245599746704,-0.33622628450393677,1.8950302600860596,2.2755911350250244,-1.3786695003509521,-1.0461219549179077,-0.646661102771759,-1.2317640781402588,0.7764492034912109,-0.011173281818628311,1.7152401208877563,-1.7852760553359985,-0.6891058087348938,0.12418317794799805,0.6322256922721863,-0.0559103861451149,-1.2924140691757202,-1.20901358127594,0.9999423027038574,-0.16356824338436127,1.473998785018921,-0.22570697963237762,-1.3784174919128418,-0.7861803770065308,-1.2410597801208496,0.5500034689903259,-0.49692103266716003,1.5172430276870728,-0.3192794919013977,-0.9926465749740601,0.2587842345237732,-0.6251017451286316,-2.105942964553833,-0.7854818105697632,-1.2433661222457886,-1.2461838722229004,1.2390034198760986,1.071327567100525,0.6588492393493652,0.47929197549819946,-1.1235871315002441,1.5739052295684814,-0.7343047857284546,-1.0876878499984741,0.3817940950393677,-1.0076384544372559,-1.3900343179702759,-0.7927128076553345,-1.5121619701385498,-1.2769532203674316,0.5677526593208313,0.7544375658035278,0.17160527408123016,0.8553816080093384,0.36818334460258484,0.7387233972549438,-0.000823338923510164,-0.31931057572364807,0.09148357063531876,-1.6889381408691406,1.2542332410812378,-2.2741551399230957,0.4412611126899719,-1.1100380420684814,2.0804827213287354,1.9957727193832397,-1.9467936754226685,-0.6552973985671997,-0.4642391502857208,-1.194846749305725,-2.754413366317749,2.5632331371307373,1.721015214920044,-1.1268064975738525,-0.9239898920059204,-1.0549572706222534,1.8620045185089111,-0.2416175752878189,-0.224323570728302,0.19881819188594818,-2.6817736625671387,-0.9306577444076538,0.2418159395456314,0.20398320257663727,-0.5941784381866455,-0.7141783833503723,-0.051358528435230255,1.057515025138855,-0.3824605941772461,0.2584008276462555,0.5714105367660522,-0.7425916790962219,0.8847284913063049,-2.008971691131592,-0.11211887747049332,2.8633322715759277,0.9456167221069336,-0.0016280097188428044,-1.9187688827514648,-0.7478203177452087,2.6679294109344482,-1.6893864870071411,-0.22088740766048431,-0.13876281678676605,0.3304508626461029,-2.1518702507019043,-0.07431619614362717,-1.2281548976898193,1.3766452074050903,0.40498238801956177,1.2239608764648438,-0.43271222710609436,-1.56119966506958,0.17722201347351074,1.1367743015289307,-0.6747965216636658,0.3638049066066742,1.3608378171920776,0.8415135145187378,-2.9209039211273193,-0.16423124074935913,-0.04788137599825859,0.06881719082593918,-1.8153647184371948,0.2805231809616089,2.324298620223999,2.310883045196533,-0.04990062117576599,-1.280889868736267,-0.552796483039856,-1.9968003034591675,0.2988520562648773,0.7159687876701355,0.28110650181770325,-0.830759584903717,-1.9622654914855957,-1.2008728981018066,-0.07282452285289764,-1.519108533859253,2.128528118133545,-0.3507232367992401,1.3523154258728027,-0.7139091491699219,-0.06279218196868896,-0.9078444242477417,-0.32924455404281616,0.7128217220306396,1.6251121759414673,0.5948971509933472,2.149656295776367,0.7401900291442871,-2.2353062629699707,0.7166690230369568,0.817464292049408,0.7214289903640747,-0.9690024852752686,0.7116758823394775,-1.8978241682052612,-0.0995890349149704,-1.4239370822906494,-0.3809129595756531,2.7161624431610107,0.9322588443756104,2.09852933883667,2.9666340351104736,0.9334320425987244,1.1533434391021729,-1.3693734407424927,0.27009838819503784,-0.8733903169631958,2.5855660438537598,1.00052011013031,-0.4221861660480499,-0.26930126547813416,-1.4598289728164673,1.3765031099319458,-0.0027657165192067623,-0.5627520084381104,-1.8936688899993896,-2.062281847000122,-0.683627724647522,-1.012085199356079,1.3025918006896973,-0.4433048367500305,-0.911518394947052,-1.3629579544067383,-0.35106414556503296,1.0953645706176758,-1.29596745967865,-0.4784781038761139,-0.23972396552562714,0.36454281210899353,0.9898262023925781,-0.37622666358947754,-0.3376041650772095,0.5476871132850647,-0.7231518030166626,0.35750892758369446,-0.5059043169021606,-0.1725531816482544,1.0533708333969116,0.7169522047042847,0.07793605327606201,-0.852150022983551,-0.5751492977142334,1.047977328300476,-0.4718381464481354,-0.5848653316497803,-1.2664138078689575,1.8575122356414795,-0.3117544949054718,-1.775386095046997,-0.617759108543396,2.8968496322631836,-0.45562732219696045,-1.2057456970214844,0.0459120087325573,-1.3499420881271362,0.10582616925239563,-1.1277180910110474,0.40865230560302734,1.5117523670196533,0.8214589953422546,-0.9663255214691162,-0.18046393990516663,-0.6803726553916931,0.7424910068511963,0.4592325687408447,-0.5631832480430603,1.919747233390808,1.5475780963897705,-0.9751763939857483,-0.33697739243507385,-0.5268113613128662,-1.8769761323928833,0.9031627178192139,0.08776124566793442,-1.585041880607605,-1.072556734085083,1.149355173110962,1.7335718870162964,0.035764940083026886,1.0038670301437378,0.22062216699123383,-1.6595884561538696,-2.867774724960327,-0.4807431697845459,0.8287249207496643,-1.0159169435501099,-0.16017821431159973,-0.14685796201229095,-0.6234081387519836,-2.967303514480591,0.1707289069890976,-1.8750025033950806,0.07367227226495743,-0.8433365225791931,1.0194803476333618,1.2838828563690186,-0.7080802321434021,-0.4654010236263275,1.0093669891357422,-0.38221412897109985,-0.6978045105934143,-0.37721994519233704,0.8961308598518372,0.062231194227933884,-1.582356572151184,1.9152393341064453,1.8212218284606934,-2.0940592288970947,0.4764953553676605,1.105691909790039,-1.1736701726913452,-0.3754734396934509,-0.8522712588310242,-0.6667105555534363,0.6044226884841919,-1.2859489917755127,0.11704178899526596,1.092095971107483,-0.5275449752807617,-1.6197097301483154,-2.0969326496124268,-0.8556919097900391,-1.4605112075805664,-1.308345913887024,-1.5382179021835327,-0.10936060547828674,0.02436108887195587,1.5220550298690796,-0.10685470700263977,-2.0970592498779297,0.4475851058959961,0.2611100375652313,2.212242603302002,0.35939207673072815,1.5334690809249878,0.9311321377754211,-0.7592586874961853,-0.613605797290802,0.3240916132926941,-1.7489780187606812,-0.5565713047981262,-0.04196738451719284,0.02975139208137989,1.245497465133667,0.568709671497345,0.7142401337623596,0.904217004776001,0.20144793391227722,-0.2726164758205414,-1.6270519495010376,-0.9235342144966125,1.14992094039917,-0.22769609093666077,-0.7987973690032959,-0.45880427956581116,-0.34349480271339417,-2.0910727977752686,1.2434850931167603,-0.4020082652568817,0.5975859761238098,1.088606834411621,0.7500758171081543,0.1310683637857437,-2.570516586303711,-0.3982219099998474,0.00028547635884024203,0.4199882745742798,0.9714339971542358,1.3100899457931519,-0.16147322952747345,0.1480790227651596,0.2799632251262665,1.353930950164795,2.054539918899536,-2.408801317214966,0.20970363914966583,-1.9930405616760254,0.7163686752319336,2.65329909324646,-0.7876341938972473,-0.4927557706832886,1.0926902294158936,0.26118823885917664,-0.501967191696167,0.9154582023620605,-1.733227014541626,-0.04424131289124489,-0.4644801914691925,-0.7680817246437073,-0.39064159989356995,0.476035475730896,-1.2427079677581787,0.2981381118297577,0.4008617699146271,0.054219234734773636,-1.8847668170928955,0.20214273035526276,0.1471908539533615,-1.314744234085083,-0.07557813823223114,-1.1284724473953247,-0.47359979152679443,-0.902677059173584,0.6875928044319153,-0.28636154532432556,0.7230400443077087
障碍,-1.2193310260772705,-2.884751319885254,1.7833986282348633,0.659134030342102,1.0144520998001099,-0.45608967542648315,0.6522872447967529,-0.5455448031425476,-0.9373253583908081,-2.285184383392334,0.22121793031692505,-0.3244493901729584,-0.8794570565223694,-1.4603184461593628,-1.3106591701507568,-0.940276026725769,-0.5838645696640015,0.8796415328979492,2.417398691177368,0.568595290184021,-0.5187119841575623,0.24247878789901733,-1.760079026222229,-1.3063180446624756,0.05500142648816109,-0.4482993185520172,-0.09756719321012497,-0.5442427396774292,0.46034419536590576,0.21913747489452362,-1.3931233882904053,-1.2249460220336914,0.07583288103342056,1.3712131977081299,0.5876495838165283,0.257973849773407,0.21633197367191315,-0.5863086581230164,-0.23771324753761292,-0.6877825260162354,-0.13375788927078247,0.9626724720001221,0.23605309426784515,0.18513703346252441,-0.45602262020111084,0.6587443947792053,2.0812346935272217,-0.4496178925037384,0.8712460398674011,1.2492103576660156,-1.23264741897583,1.6024925708770752,1.4603222608566284,0.6048690676689148,-2.2114310264587402,0.30327892303466797,0.46843475103378296,-0.13979148864746094,2.021110773086548,1.7758954763412476,0.4696574807167053,-1.017746090888977,0.45851802825927734,1.8650168180465698,1.3019030094146729,-1.2569700479507446,0.4996674358844757,0.1570061296224594,0.20463040471076965,3.4328737258911133,1.1191127300262451,-0.49774405360221863,1.279194712638855,0.1240699514746666,0.21735945343971252,-2.0463919639587402,0.11589549481868744,1.0885066986083984,0.771250307559967,-0.8447253108024597,-0.2605884075164795,0.18742913007736206,0.6115266680717468,-0.4828454256057739,-2.177368402481079,-1.0964804887771606,0.09891067445278168,2.117103338241577,2.101743698120117,-0.9235994219779968,-0.24089863896369934,-0.6113703846931458,1.0287437438964844,-1.4950441122055054,1.1176767349243164,-0.28149232268333435,0.8990282416343689,-0.6758202314376831,-1.1607872247695923,1.0584006309509277,0.30606555938720703,0.9150870442390442,-0.9829064607620239,0.9103260636329651,0.028906147927045822,1.4033011198043823,0.661668062210083,0.7036781311035156,0.5983759164810181,-1.349090337753296,0.8812524676322937,0.30863383412361145,-0.5607219338417053,-1.4522582292556763,1.1340326070785522,0.41580042243003845,0.6654590368270874,-0.2868712544441223,-0.46060964465141296,0.6505765914916992,-1.4602657556533813,-1.4658669233322144,1.4295305013656616,-1.244167447090149,0.5327157974243164,-1.0655473470687866,0.9105048775672913,0.7722929120063782,-0.23825307190418243,-0.22438785433769226,-0.09132684022188187,1.1546895503997803,-0.2778441309928894,0.28942158818244934,0.6536738872528076,-0.2161639928817749,-0.8990544080734253,0.018955187872052193,0.727869987487793,-1.2132283449172974,-0.6535553932189941,-2.1514387130737305,-0.19197393953800201,-0.3289995491504669,-0.1728769987821579,0.18829834461212158,-1.9149848222732544,2.1701297760009766,-1.2463829517364502,1.096307396888733,-0.707013726234436,1.374742865562439,-0.3436221480369568,-0.17841854691505432,-1.3399379253387451,-0.9582228064537048,1.2447524070739746,-1.0079798698425293,-1.1156067848205566,0.655931830406189,-0.451151967048645,-0.1503521203994751,-0.6435236930847168,-0.4664592742919922,-0.3841848075389862,0.014611909165978432,0.7866798043251038,0.5605612397193909,-1.5500627756118774,-0.0386810339987278,0.1315132975578308,-0.41520607471466064,-1.1916686296463013,-0.5328275561332703,1.5153592824935913,-2.2788054943084717,0.8931675553321838,0.42830681800842285,1.8044999837875366,1.5241199731826782,0.43694454431533813,1.9111697673797607,-1.6093456745147705,-0.2180483639240265,0.5594205856323242,-0.8194371461868286,0.9913880825042725,-1.2309378385543823,2.637976884841919,0.3032338619232178,-1.2915817499160767,-1.488947868347168,0.704824686050415,1.0870299339294434,0.5823328495025635,-0.8230279088020325,-1.6811751127243042,0.040149591863155365,-0.33235204219818115,-2.019645929336548,-2.1711361408233643,1.2585371732711792,-0.6960811018943787,-1.9998279809951782,-0.6811838150024414,0.2892807722091675,-0.03625493869185448,-0.11825700104236603,1.4279488325119019,0.4301029443740845,1.1457620859146118,2.833942174911499,-0.017532872036099434,0.4418470859527588,-0.061087898910045624,0.6947842836380005,1.1759185791015625,1.2004923820495605,0.045201003551483154,0.3623846769332886,-0.5611680746078491,0.0958574190735817,-0.04720274731516838,-0.59041827917099,-0.14347390830516815,-0.09394320100545883,-1.2846204042434692,1.4115813970565796,-0.1954466849565506,-0.3808363974094391,0.4875408113002777,2.030116319656372,1.0034420490264893,-0.7076210379600525,-1.4629608392715454,0.057045307010412216,0.6546825766563416,-1.369523286819458,-0.41105034947395325,-1.4146970510482788,0.3576614558696747,-1.0835260152816772,-1.7814849615097046,-1.3849107027053833,0.6179019212722778,0.4849569499492645,-0.3079242408275604,1.1210566759109497,-1.2007652521133423,1.1813617944717407,0.14612102508544922,0.24939973652362823,1.4811428785324097,-2.135942220687866,0.920874834060669,0.5699777603149414,-1.17882239818573,0.7770907878875732,-0.6919613480567932,0.7962083220481873,1.2488242387771606,0.581656813621521,-1.1269514560699463,0.8284221291542053,-1.9461394548416138,-0.6575104594230652,-0.008099901489913464,0.3396904170513153,-0.6430802345275879,2.310528039932251,-0.3115246295928955,-0.134460911154747,-0.07303879410028458,0.07235967367887497,0.6440607309341431,0.5789434909820557,-1.2788925170898438,-0.22235222160816193,0.3683605492115021,-0.7771939635276794,1.0765352249145508,1.3200420141220093,-0.9267211556434631,0.12557300925254822,-1.7515478134155273,-0.38081541657447815,2.4736826419830322,0.22977636754512787,1.0782324075698853,-0.12099061906337738,-1.6893794536590576,-0.12742355465888977,0.11486738175153732,2.000866413116455,-0.9351820349693298,0.44962865114212036,-1.1404988765716553,1.4454785585403442,-0.7008910179138184,1.4894551038742065,0.45555731654167175,0.3626728057861328,0.567812442779541,0.36464402079582214,0.30782386660575867,-1.7950149774551392,-1.7232234477996826,-0.01427522487938404,0.15438808500766754,1.6275376081466675,-0.037359654903411865,0.6578496694564819,-1.2938694953918457,-1.312384009361267,-1.3065239191055298,-1.098264217376709,-1.6487102508544922,-0.0942908227443695,0.36571377515792847,3.4606494903564453,1.2329083681106567,0.6846910119056702,2.5159528255462646,-1.3960052728652954,-0.3710598051548004,-0.7939061522483826,0.08390959352254868,-0.9623227119445801,-1.1096731424331665,0.5020777583122253,0.5061967968940735,1.4488935470581055,-0.6386922597885132,1.553376317024231,-1.569588303565979,0.14717282354831696,-0.5673772692680359,1.6987861394882202,-0.2492140531539917,-1.5871115922927856,-0.9013723134994507,-1.3781342506408691,-0.8865710496902466,-2.058906078338623,-0.653626024723053,0.7156826257705688,-0.4348582327365875,2.348562002182007,2.5064077377319336,-0.5690538883209229,-0.529812216758728,-0.41832858324050903,-0.26915448904037476,-1.9780765771865845,-0.32914504408836365,1.4089521169662476,-0.6393306851387024,-1.096504807472229,1.452505350112915,0.9095277190208435,-2.1512062549591064,-0.9830033183097839,0.7408084273338318,-2.3284378051757812,-0.17131473124027252,-1.1874926090240479,-0.4490740895271301,-1.1638648509979248,0.6587668657302856,1.3356387615203857,-1.462997555732727,-2.184636354446411,0.4055195748806,-0.21318769454956055,-1.3569473028182983,1.1079332828521729,-0.9414108395576477,0.726212203502655,-0.45660555362701416,0.7872347831726074,-0.7344309687614441,0.3008038401603699,-0.7199058532714844,-0.11553151905536652,-0.40812939405441284,-0.16813528537750244,0.955164909362793,-0.1009046658873558,0.2545655369758606,0.6153985261917114,1.5675979852676392,-0.5458989143371582,0.7314510345458984,-0.31797468662261963,-0.9792265892028809,-1.5831547975540161,-1.779481053352356,0.21843135356903076,1.7202314138412476,-1.1894593238830566
增长,-0.42788222432136536,-0.9943477511405945,-0.0429379865527153,0.1397937536239624,0.26306337118148804,-0.47012630105018616,1.0717262029647827,0.9772284626960754,-1.798209547996521,-0.43173497915267944,1.7324278354644775,-0.4821398854255676,-0.9148035049438477,-0.4177188575267792,-1.0659019947052002,-1.8618593215942383,0.6613116264343262,1.2569563388824463,-0.20799244940280914,-1.8008711338043213,2.7255051136016846,-0.8857345581054688,-0.06415558606386185,-0.13309957087039948,1.5828821659088135,-2.143014669418335,-0.7207729816436768,0.6408737897872925,0.5484150648117065,0.5424124002456665,-3.271878719329834,-0.6098105907440186,1.6841447353363037,0.9801843762397766,1.1871639490127563,2.2518794536590576,1.7656182050704956,-1.8044027090072632,0.23089390993118286,0.3088334798812866,0.8329713344573975,-0.8585730791091919,-0.6884011030197144,0.36719968914985657,0.2638733386993408,0.02046738564968109,-0.037845712155103683,-0.662845253944397,0.0395379401743412,-1.2670749425888062,0.0960255116224289,0.5213996171951294,-1.1910287141799927,1.7879060506820679,-1.3197205066680908,-0.01703135296702385,-0.3549983501434326,3.031658411026001,2.1268749237060547,1.5607388019561768,-1.2541148662567139,-0.5718309879302979,2.3076071739196777,-0.46051403880119324,1.0563663244247437,0.6639357805252075,1.5703397989273071,2.1384239196777344,-0.9971848726272583,-1.0677517652511597,1.360915184020996,-0.4730502963066101,-0.3475787043571472,-1.1970164775848389,0.4130506217479706,0.9126473069190979,-0.6379673480987549,1.1932973861694336,-1.6835883855819702,0.5600528717041016,1.2364469766616821,-1.9523684978485107,0.8307689428329468,1.0434702634811401,0.009767929092049599,-0.6040868759155273,1.3981529474258423,-0.40567320585250854,0.8918148279190063,-0.23660466074943542,-0.7242462635040283,-0.35613390803337097,-0.5542731881141663,2.8058767318725586,-0.9564270973205566,0.26193392276763916,-0.1528523564338684,0.06023633852601051,-1.7908438444137573,1.7756237983703613,1.7747658491134644,-0.4617935121059418,0.790398120880127,0.7817835211753845,1.057207703590393,1.235861897468567,-0.8033052682876587,1.07790207862854,-1.0364161729812622,0.5813435316085815,-0.7029641270637512,-0.2574068307876587,-0.46837982535362244,1.4697660207748413,0.23473691940307617,1.091146469116211,2.0678718090057373,-2.4208953380584717,-0.6002476215362549,0.08306227624416351,-0.5488240122795105,1.172605276107788,-0.8787117600440979,0.6394264698028564,-1.7918001413345337,-0.13400107622146606,-1.7862372398376465,0.295520544052124,-0.42306777834892273,-0.7883877158164978,-0.45004844665527344,-2.210343837738037,-1.445432424545288,-0.38672852516174316,0.21369631588459015,-1.0651050806045532,0.9034609794616699,1.4082012176513672,2.027215003967285,-0.32314828038215637,-0.9702416062355042,-1.771892786026001,0.2970041334629059,-1.6207160949707031,0.6421151757240295,0.7585167288780212,-1.290329933166504,1.5758391618728638,-1.4340771436691284,-1.366087794303894,-1.7086390256881714,-0.4311971366405487,-0.5944132208824158,-0.05926470831036568,-1.027552604675293,1.0228009223937988,-0.7248841524124146,1.4787404537200928,2.0486114025115967,0.2396925836801529,1.614442229270935,-1.944689393043518,-1.0989704132080078,0.7202269434928894,0.42309874296188354,-0.20495955646038055,0.2614175081253052,-1.038482427597046,-0.4158538281917572,1.5996800661087036,0.5216807723045349,-0.9503570199012756,-0.3821123242378235,-0.6422955989837646,1.1602814197540283,-0.7933704853057861,1.3389613628387451,0.16762113571166992,0.2378818839788437,0.007758489344269037,0.03914211317896843,0.7459759712219238,-3.718080997467041,-1.3879550695419312,2.5894105434417725,0.0544612854719162,-1.3864717483520508,-1.605045199394226,0.5014322996139526,0.5071715712547302,-2.143503427505493,-1.0118017196655273,1.078067660331726,-0.06439495086669922,0.12831918895244598,0.42943069338798523,2.110985279083252,-1.5531867742538452,-1.7478716373443604,0.5834776759147644,0.19008195400238037,-1.324352502822876,1.6794925928115845,-0.7665034532546997,0.12517501413822174,0.5083212852478027,-0.17106404900550842,0.4063342213630676,0.6081764698028564,0.32436108589172363,-1.7218644618988037,2.366861343383789,-1.2142611742019653,1.1732892990112305,-1.059364914894104,-2.429398536682129,-1.8356831073760986,-0.8555019497871399,-0.3121604323387146,-1.6749581098556519,-0.005640650633722544,-0.24400460720062256,-0.03144442290067673,-0.7794289588928223,-1.201430082321167,0.08866387605667114,0.847302258014679,-0.27519795298576355,1.5667554140090942,-1.3571003675460815,0.33713921904563904,2.3953371047973633,1.4329980611801147,0.5324890613555908,-1.8337461948394775,-0.4633654057979584,0.10343321412801743,-1.2059993743896484,-0.07368529587984085,-0.959875226020813,-1.4301025867462158,-1.5212926864624023,0.32061895728111267,0.11454203724861145,0.5039671659469604,0.6292017102241516,0.7135114073753357,-0.4405803978443146,-0.6018208265304565,-0.7185574769973755,-0.8103827834129333,1.2890690565109253,0.41874217987060547,0.8632494807243347,-1.1827830076217651,1.854929804801941,-0.16003228724002838,0.363398015499115,-0.03147437423467636,-2.152585983276367,-0.8341764807701111,0.5823869109153748,-0.5783410668373108,0.9735676050186157,0.6630816459655762,0.4056605100631714,1.3270460367202759,0.3359595239162445,-2.095628023147583,1.3617892265319824,2.379873037338257,-0.8816970586776733,-0.15574419498443604,-0.2659379541873932,3.0057175159454346,-0.08177544921636581,-2.2878849506378174,1.4229719638824463,-1.437410831451416,-0.5332605242729187,1.7136526107788086,0.014066018164157867,-0.27013325691223145,-1.1238282918930054,1.3539046049118042,0.769865095615387,1.2413740158081055,-1.3081114292144775,2.0687379837036133,0.006961538456380367,-1.3271982669830322,-0.19909420609474182,1.0071452856063843,0.048299822956323624,0.38115957379341125,1.6857621669769287,-1.0757060050964355,0.006375338416546583,-0.9608421325683594,1.8029340505599976,0.8431040048599243,-0.4566042125225067,-1.4255809783935547,0.9543734192848206,-1.159669041633606,0.821281909942627,-0.5310167074203491,0.3561142086982727,0.6432618498802185,-0.39119774103164673,-0.10865942388772964,2.4443747997283936,1.3792239427566528,-1.1124714612960815,-0.7858177423477173,0.2176886945962906,-0.6767457723617554,0.38442462682724,0.5618375539779663,-1.0425136089324951,0.8097116351127625,-0.13199129700660706,-1.0260506868362427,-1.3570146560668945,-1.7451896667480469,1.239060878753662,-0.47549307346343994,1.088549017906189,0.9054823517799377,-0.04002927988767624,-0.2932139039039612,-0.2214963287115097,-0.18643821775913239,0.46932247281074524,-1.1256132125854492,0.019085882231593132,1.7469226121902466,1.850277304649353,-1.9142297506332397,0.4533493220806122,-0.17726218700408936,0.8259376883506775,1.9728622436523438,-1.7563382387161255,0.6025778651237488,0.3729512393474579,1.4955400228500366,0.5102007985115051,0.46461495757102966,0.5176334381103516,0.5420035123825073,0.6751288175582886,0.8725044131278992,-0.5461454391479492,-0.9042257070541382,2.421065092086792,1.2381739616394043,-0.8379045128822327,0.9911216497421265,0.8544771671295166,-0.7264365553855896,-1.2496275901794434,1.2501977682113647,0.49283862113952637,1.654760479927063,1.0693116188049316,-1.5913223028182983,0.046778153628110886,0.6576434373855591,0.5421569347381592,0.9985929727554321,-1.0251085758209229,2.7218706607818604,0.19688059389591217,1.1938754320144653,0.46513694524765015,-1.2737590074539185,-1.5841177701950073,1.592355489730835,1.4006143808364868,0.5179842114448547,-1.6301325559616089,-0.9408042430877686,-1.3783012628555298,-1.4885152578353882,-2.183373212814331,-0.1041756421327591,-0.6234573721885681,-0.5586836338043213,0.24714215099811554,-0.2412012219429016,-2.2074038982391357,-0.753714919090271,1.387834072113037,-0.3388674259185791,-1.0183932781219482,-1.1154392957687378,2.642829418182373,1.5641916990280151,0.5671934485435486
没事,-0.10481242090463638,0.8442610502243042,0.08122830837965012,0.5809302926063538,-0.052641257643699646,0.12164986878633499,-0.12422256916761398,-0.36868011951446533,-1.29047429561615,0.06784983724355698,0.40136414766311646,-0.07860203087329865,0.059892620891332626,-0.35474178194999695,-0.013023552484810352,-0.8739109039306641,-0.08042804896831512,0.2810639441013336,1.2641562223434448,-0.8654779195785522,0.21302716434001923,-1.4386096000671387,-1.0230337381362915,0.3204875588417053,-0.3471287488937378,0.056245557963848114,-0.1372617930173874,-0.16564291715621948,-0.005208445712924004,0.35673949122428894,0.5598036646842957,-0.016722671687602997,0.22375884652137756,0.06433247774839401,-0.2831041216850281,-0.006919161416590214,0.14796863496303558,0.24606315791606903,0.044513143599033356,-0.4254299998283386,0.17303021252155304,-0.5144163370132446,0.3718072772026062,-0.7681869864463806,-0.48098331689834595,0.09937819838523865,0.07112892717123032,-0.355135977268219,0.1354800909757614,-0.45967984199523926,0.5419121384620667,0.3587855398654938,0.9317459464073181,0.5925361514091492,0.5123273730278015,-0.8592451810836792,0.05609900876879692,0.3783190846443176,0.6189869046211243,0.5536254644393921,-0.05381318926811218,0.23746562004089355,-0.4972727298736572,-0.14865539968013763,-0.07268445938825607,-0.8087864518165588,0.4300815165042877,-0.6780632734298706,-0.22368578612804413,-0.2489638328552246,-0.565941572189331,-0.1420312076807022,-0.013848689384758472,-0.2988819479942322,0.1804814487695694,-0.27902141213417053,-0.013045781292021275,0.1693572700023651,0.35053762793540955,-0.4930116832256317,-0.10124387592077255,0.2772974669933319,-0.1321755349636078,0.4976646602153778,-0.47495368123054504,0.006877446547150612,0.655208170413971,-0.4500272572040558,-0.17728383839130402,-0.6236536502838135,-0.5646724104881287,-0.42897263169288635,-0.36377930641174316,-0.6982148289680481,0.8223983645439148,0.039728712290525436,-0.039335742592811584,0.5880663394927979,-0.05217693746089935,0.16727735102176666,-0.39013412594795227,0.41739898920059204,0.21379762887954712,-0.8389727473258972,-0.9069893956184387,0.19703872501850128,0.5567243695259094,-0.5122619867324829,0.6100082397460938,0.04396656155586243,0.19817303121089935,1.009013056755066,0.029255351051688194,-0.02346760779619217,0.9188039898872375,0.0739549845457077,0.16112074255943298,0.5063798427581787,-0.14153605699539185,-0.49494001269340515,-0.503046452999115,-0.05367482826113701,-0.13018420338630676,-0.03235817328095436,-0.9873951077461243,-0.6562816500663757,0.45563560724258423,0.39749905467033386,0.6571201086044312,0.30144834518432617,0.4976079761981964,-0.8329883217811584,0.733809769153595,0.23348239064216614,0.8141621351242065,0.6403278112411499,0.44177618622779846,0.35792577266693115,0.6962670683860779,0.06152499094605446,-0.424981951713562,0.08520287275314331,0.017981665208935738,0.5955605506896973,0.401922345161438,-0.09499463438987732,0.3079400956630707,-0.7921220660209656,0.3218541443347931,-0.44018304347991943,-0.026326319202780724,0.3048389256000519,-0.05724947154521942,-0.29230329394340515,-0.3596944510936737,-0.36780741810798645,-0.5730975270271301,0.6704763174057007,0.48114854097366333,1.4523354768753052,-0.12368786334991455,-0.05812952667474747,0.7120158672332764,-0.5194190144538879,0.7124713659286499,-0.6235555410385132,0.948695182800293,0.2678075432777405,1.0897759199142456,-1.0015051364898682,-0.4881404638290405,0.13006384670734406,0.10859347879886627,0.5330773591995239,0.5201489925384521,0.21052363514900208,0.6680299043655396,-0.5377719402313232,-0.2030411958694458,-0.08983281254768372,0.398964524269104,0.1233268454670906,0.7444161772727966,-0.10366978496313095,0.5257099270820618,-0.31580600142478943,-0.482024610042572,0.39434516429901123,-0.46802881360054016,-0.6722684502601624,0.4085102081298828,-0.8422912955284119,-0.2945109009742737,0.3079061210155487,0.014611665159463882,0.8741596937179565,0.08376181870698929,-0.34986066818237305,0.05670135095715523,0.20883643627166748,0.026672694832086563,-0.4471803605556488,-0.2653534710407257,0.4180010259151459,0.09962400048971176,0.27940356731414795,0.7842332124710083,0.13719233870506287,-0.8452772498130798,-0.24878238141536713,-0.2811298072338104,0.27535292506217957,-0.4655121862888336,0.08844023197889328,0.2477809339761734,0.7841590642929077,-0.1805240362882614,0.09693273901939392,-0.8312951326370239,-0.00798219908028841,0.08011400699615479,0.12719343602657318,-0.363871693611145,-0.03500804677605629,-0.1089971736073494,-0.4417323172092438,-0.1994151771068573,0.3427170515060425,0.27765366435050964,-0.46434658765792847,-0.28012022376060486,-1.501863718032837,-0.8213374614715576,0.23240891098976135,0.7464612126350403,0.6322367787361145,0.04731232672929764,-0.026179015636444092,-0.11063564568758011,-0.14908750355243683,0.5971688628196716,0.031149452552199364,-0.012879686430096626,0.42218270897865295,-1.256811261177063,0.22991102933883667,-0.27332645654678345,0.1633736789226532,0.17393839359283447,0.07911248505115509,-1.490799903869629,0.3997463285923004,-0.03498378023505211,-0.20509041845798492,-0.47229695320129395,-0.013897529803216457,-0.054987840354442596,-0.9712327718734741,0.7902036905288696,0.5973847508430481,0.40248754620552063,-0.03298730030655861,-0.14365796744823456,0.7696777582168579,0.7968721389770508,0.10957539081573486,-0.22031500935554504,1.0001190900802612,-0.20427246391773224,0.7687255144119263,-0.7540009021759033,-0.43963584303855896,-0.2493315190076828,-0.060746848583221436,0.2784227430820465,0.831638753414154,0.1272347867488861,-0.27335959672927856,0.12385870516300201,-0.6793435215950012,-0.4173315465450287,-0.583095908164978,-0.31440454721450806,-0.012999978847801685,-0.6998772025108337,-0.09837702661752701,0.38143348693847656,-0.2664461135864258,-0.4187434911727905,-0.4284699261188507,-0.0885961651802063,-0.1203259751200676,0.17850297689437866,-0.23968060314655304,-0.3337912857532501,0.8119145631790161,0.9660255908966064,0.26545751094818115,0.8159034252166748,0.4075522720813751,0.06401769071817398,0.3782445192337036,0.12172478437423706,0.31696972250938416,0.0815553069114685,-0.05907230079174042,0.1792505383491516,0.0496489517390728,0.1711040735244751,-0.003963902126997709,0.010011057369410992,-1.166158676147461,-0.2965734302997589,0.04566437378525734,-1.3814294338226318,0.04516017064452171,-0.13594453036785126,-0.7070685029029846,-0.008953694254159927,0.02022542618215084,0.4448363482952118,0.07075729966163635,-0.09800831973552704,-0.31018146872520447,-0.47737187147140503,-0.06007466837763786,-0.0887184590101242,0.05192798003554344,0.02566337026655674,-0.65757817029953,-0.7404448390007019,-0.040926042944192886,0.16277028620243073,-1.0567071437835693,-0.5778091549873352,-0.20352645218372345,1.0311113595962524,0.2308962047100067,0.06991714239120483,-0.02627931535243988,-1.191478967666626,0.009494875557720661,-0.2234562486410141,-0.4877244234085083,0.25619298219680786,-0.054954588413238525,0.42854174971580505,-0.3097555935382843,-0.5456227660179138,-0.3711520731449127,-0.37119176983833313,0.5648638010025024,-0.182595893740654,0.19778425991535187,-0.2439844310283661,-0.4568824768066406,0.21706728637218475,0.7867637276649475,-0.5587247014045715,1.2791476249694824,-0.2659134268760681,-0.009618333540856838,0.027441665530204773,-0.809163510799408,-0.21479064226150513,-0.7790061235427856,0.10637474805116653,0.23654977977275848,-0.27874577045440674,0.5746373534202576,-1.0638195276260376,-0.8564993739128113,-0.4335649609565735,0.3091796040534973,1.2506119012832642,-0.13485749065876007,-0.6070912480354309,0.6620326638221741,-0.06649767607450485,-0.07321710884571075,-0.11679387837648392,-0.5355987548828125,0.07469319552183151,0.0909024327993393,0.4442402720451355,0.18510417640209198,-0.18492835760116577,-0.276460200548172,-0.2937561869621277,0.48939570784568787,-0.5627180933952332,-0.07341963797807693,-0.32871389389038086,-0.3983480632305145,-0.4821084439754486,0.20408527553081512,1.1823686361312866,-0.1055627390742302,-1.0109590291976929,-0.30605852603912354
微信,-0.03449355065822601,-1.705047607421875,-0.2601463794708252,-0.2514128088951111,0.14355480670928955,0.06910611689090729,0.629481852054596,-1.0513901710510254,0.3191658854484558,-0.37754926085472107,1.0590088367462158,1.2153289318084717,-0.25999611616134644,0.742697536945343,-0.8125284910202026,-1.0559532642364502,1.4446858167648315,0.9636418223381042,-0.7604053616523743,-0.6174654364585876,-0.6023606061935425,-0.2801930010318756,-0.42574581503868103,-2.0271992683410645,0.2988700866699219,-0.8542144298553467,0.6458190083503723,-0.15723928809165955,0.418809175491333,2.431683301925659,0.06867840886116028,-0.525964081287384,0.08173930644989014,0.43268102407455444,0.704002320766449,-1.3204957246780396,-0.07034257799386978,0.317312091588974,0.9803672432899475,-0.4354909658432007,-0.03271432965993881,-0.4433554410934448,0.43691858649253845,-0.699206531047821,-0.3957373797893524,0.25208160281181335,-0.14664261043071747,0.9255852103233337,-0.008337575010955334,-0.18603822588920593,-0.5258157253265381,0.9811445474624634,0.01960289664566517,0.6623619794845581,0.6598774194717407,1.1926665306091309,-0.6763908267021179,0.3051324784755707,0.7247902750968933,-0.5521027445793152,0.5598929524421692,-1.6834324598312378,-0.4947253465652466,-0.9766167998313904,0.47751864790916443,-1.7548123598098755,-0.05331786349415779,0.7786661386489868,1.774474024772644,0.7279271483421326,-1.2635986804962158,-0.5155236721038818,-1.2271076440811157,-1.2063416242599487,-0.13353246450424194,1.2403217554092407,0.09879066795110703,0.47703665494918823,-0.07061317563056946,-0.8608548641204834,-0.6421318650245667,0.4266775846481323,-0.004968165419995785,-1.3423371315002441,0.8223435282707214,0.6383140683174133,-0.21456317603588104,0.6589332222938538,0.19406753778457642,-1.0665335655212402,-0.3974570631980896,0.4990216791629791,1.7595031261444092,0.5498467683792114,-0.7907202243804932,-0.485896497964859,-0.23707328736782074,0.3270324468612671,-2.344240427017212,0.7326939702033997,-0.6370964646339417,0.4979438781738281,-0.3116474449634552,-0.057550542056560516,-0.211213618516922,2.1669764518737793,0.1737951934337616,-0.15148179233074188,0.9121429324150085,0.576488196849823,2.063405990600586,-0.4063311517238617,0.05047332122921944,1.2559080123901367,1.4265880584716797,-0.59339439868927,0.5577265620231628,-0.291337788105011,0.11151355504989624,-1.6714898347854614,0.5579827427864075,0.689014732837677,0.16937021911144257,-0.4932507276535034,-0.1279313713312149,-0.4548362195491791,-0.4918903708457947,-0.9068630933761597,0.0687788650393486,-1.5070024728775024,1.0979092121124268,-0.10309474915266037,-0.6849561929702759,0.016645727679133415,-0.5975950360298157,0.4396626949310303,0.029564084485173225,-2.987013578414917,-2.149590492248535,-0.7438814640045166,0.29941749572753906,-0.388986736536026,0.3267557621002197,-1.7692571878433228,0.9194568395614624,0.24943165481090546,-0.9082297682762146,2.0600099563598633,-0.20109154284000397,0.7782711386680603,-2.142505407333374,-0.04425511881709099,-0.6369687914848328,-0.31305384635925293,0.5760944485664368,0.7349979281425476,-1.0248689651489258,0.7197909951210022,0.6444480419158936,0.15279580652713776,-0.31912529468536377,-0.4856996536254883,-0.060987845063209534,1.2320055961608887,0.0969313532114029,0.7921867966651917,0.15738549828529358,0.4119473397731781,0.7959373593330383,1.0776046514511108,-0.24523715674877167,-0.7221357822418213,0.20362651348114014,0.280499666929245,-1.3395042419433594,0.19974438846111298,0.6395509243011475,0.007247792556881905,-1.832861065864563,-0.36722826957702637,-1.681784749031067,0.864586353302002,0.012458699755370617,0.39163535833358765,-0.08187631517648697,-1.486342191696167,0.36800187826156616,0.017647750675678253,0.8664389252662659,0.08316638320684433,-0.14616693556308746,0.8056977391242981,1.743016004562378,0.7743716835975647,-0.6007404327392578,-0.2521659731864929,0.30062058568000793,-0.14058201014995575,0.6544541120529175,-0.20805615186691284,1.4759860038757324,-0.22585251927375793,-0.38086801767349243,0.4411124885082245,0.05030518397688866,2.703275442123413,-1.319441318511963,-0.5054001808166504,0.6646721959114075,-0.21647602319717407,-1.4014283418655396,-1.2769627571105957,0.19242119789123535,0.4497935473918915,-0.28817009925842285,-0.5096535682678223,-0.26118573546409607,-0.0858316421508789,0.12430717796087265,-1.1135400533676147,1.4613771438598633,0.9769873023033142,0.3216191232204437,1.2459088563919067,0.6509915590286255,-1.2213584184646606,-0.5402171611785889,0.32645130157470703,-1.0423016548156738,-0.44965413212776184,-1.1108893156051636,0.7717499732971191,-0.09387701749801636,1.3769707679748535,0.917641818523407,-0.5258525013923645,0.117963507771492,-0.7963314652442932,-0.02528243139386177,-1.564957857131958,0.8681830763816833,-1.1422759294509888,0.19150415062904358,0.9765225052833557,-1.0916669368743896,0.2009817212820053,-0.5072879195213318,-1.1290295124053955,-1.378928780555725,1.3870983123779297,0.5011446475982666,1.1603736877441406,-0.2088550180196762,1.6093871593475342,0.7373305559158325,1.7485229969024658,0.30370867252349854,-0.110444076359272,-1.3093866109848022,-0.017116006463766098,1.169112205505371,-1.188944697380066,-0.5127764344215393,0.40740761160850525,-1.3783485889434814,0.8805474638938904,-0.07630305737257004,0.6031890511512756,0.2535305321216583,0.5325006246566772,0.1669614017009735,-0.11131563037633896,-0.9676420092582703,-0.28843656182289124,1.1418037414550781,0.781596839427948,-0.32405394315719604,1.799007773399353,-0.16447444260120392,0.5385816097259521,-0.50345379114151,0.29991135001182556,-0.3021112382411957,0.5925670266151428,-0.002527087926864624,0.12108165770769119,-0.03807437792420387,-1.207343578338623,0.5876595973968506,-0.5624367594718933,0.6639882326126099,-0.022246988490223885,0.804615318775177,-2.364701271057129,-0.7719497680664062,-0.5036240816116333,0.46055009961128235,0.7357409596443176,-0.8710446357727051,-0.5115525126457214,0.9281715154647827,-0.18634384870529175,-0.2520941495895386,-0.6609742045402527,1.0869078636169434,0.8077662587165833,-0.7649401426315308,-0.34332799911499023,-0.6048735976219177,0.2401779443025589,-0.407379150390625,0.027813931927084923,0.7528969049453735,-0.6854187250137329,-0.04269816726446152,-0.529504656791687,-1.0537264347076416,-0.16826245188713074,0.17053326964378357,-2.647582530975342,0.6888853907585144,-0.2701278030872345,-0.3802672326564789,-1.4464995861053467,0.21671414375305176,0.6246795654296875,-0.5990051031112671,0.33317965269088745,-0.04316752031445503,-0.501549482345581,-1.0250566005706787,-0.12420942634344101,0.11566358059644699,1.314231514930725,-0.4189680814743042,-0.10702712088823318,0.18211166560649872,1.0093250274658203,-0.4523501396179199,0.5174211263656616,-0.6472578644752502,0.27945518493652344,0.7990725040435791,0.4129461646080017,-0.23980891704559326,1.9007307291030884,1.1096733808517456,0.20806658267974854,1.2175382375717163,-0.2679789662361145,-1.1743717193603516,-0.06024946644902229,0.11417137831449509,0.7547661662101746,-0.23497052490711212,0.5375175476074219,1.7255998849868774,0.17965847253799438,-0.31119921803474426,0.38132596015930176,1.0869535207748413,-0.04837841913104057,-1.3292866945266724,-1.1895060539245605,-0.15472975373268127,-0.6255854964256287,0.9256573915481567,-0.09748245030641556,-2.8653104305267334,0.425139844417572,0.5983207821846008,-1.1618012189865112,-0.6286981701850891,1.4012541770935059,-1.087785243988037,0.561034083366394,0.6969320774078369,0.004138259682804346,0.35159197449684143,1.254908561706543,0.11533340811729431,1.3665632009506226,1.4258109331130981,-0.28826233744621277,1.1790311336517334,0.32503193616867065,-0.7373657822608948,-0.10092654824256897,2.163099765777588,0.4382134974002838,1.1451538801193237,-0.42657768726348877,0.9639562368392944,-1.2735058069229126,-1.4529287815093994,2.5517680644989014,-1.805743932723999,-1.8262192010879517,-0.8315050005912781,-0.31799986958503723
原始,-0.4763765335083008,0.45320653915405273,1.3133442401885986,0.45462194085121155,0.9257943630218506,-0.9500194191932678,2.138916254043579,0.939017653465271,1.0400331020355225,-0.07127175480127335,0.6961485147476196,-1.974661111831665,0.48500844836235046,0.8419820070266724,-1.21865975856781,1.024969458580017,0.9436275362968445,0.21240684390068054,-0.2385387271642685,-0.48524177074432373,-1.2114611864089966,0.25127580761909485,-0.5770293474197388,0.08100537955760956,1.2453473806381226,-1.291721224784851,-1.0980384349822998,0.6681650876998901,0.1847546100616455,0.29054757952690125,-0.49743154644966125,-0.41863879561424255,-1.3182204961776733,0.3320835828781128,-0.06031406670808792,0.10172968357801437,0.05090969800949097,-0.7075394988059998,1.1137878894805908,0.9128667116165161,-1.1994673013687134,0.13562147319316864,-0.8486727476119995,0.10015423595905304,-0.6710590124130249,-0.3100408911705017,0.601111888885498,0.22176909446716309,0.03071354329586029,1.5084172487258911,0.16777370870113373,0.3849123418331146,-1.6418380737304688,-0.8635957837104797,-0.07587884366512299,-0.13483484089374542,1.0243868827819824,0.0618460588157177,-0.8682745099067688,-0.3277744650840759,0.5117477774620056,-0.8552740812301636,0.966132640838623,-0.49781718850135803,0.7577131986618042,1.303900122642517,-0.03853867948055267,1.4826258420944214,-1.37655770778656,0.522629976272583,-0.31985998153686523,0.8726727962493896,0.5350823998451233,0.7494664192199707,-0.14741168916225433,-0.7966656684875488,0.8568418622016907,-1.3175952434539795,-0.9010130763053894,0.054546698927879333,0.03702434152364731,-0.7664878368377686,-0.11857958137989044,1.068723201751709,-0.9666604399681091,0.4525439441204071,1.1963305473327637,-0.1537427306175232,0.4175140857696533,0.0731181800365448,-0.9782107472419739,-0.2595047950744629,-0.3164961636066437,0.7682342529296875,0.7158445119857788,0.07660451531410217,-0.541933000087738,0.851631224155426,-1.0185396671295166,1.1515787839889526,0.48656603693962097,0.4717031717300415,0.8500818610191345,1.894271969795227,1.275093674659729,-0.14071780443191528,-0.15098106861114502,0.5685056447982788,-0.6860268115997314,-1.162628412246704,1.6426351070404053,-1.1168996095657349,-1.443987488746643,0.1064363345503807,0.46404746174812317,1.303996205329895,0.7177276015281677,0.2461538463830948,-1.0231937170028687,0.09294979274272919,-1.6987441778182983,0.808497428894043,-2.8364217281341553,-0.2783198356628418,0.03255749121308327,-0.5159356594085693,1.0460450649261475,0.06534376740455627,0.5720659494400024,-0.9296793937683105,-0.8518577218055725,1.209126353263855,-0.10420253872871399,-0.8298283815383911,-0.650496780872345,1.1357849836349487,-1.5811457633972168,-0.7084732055664062,-1.247206449508667,0.29119163751602173,0.25822752714157104,0.2656908333301544,-2.184358835220337,0.5378752946853638,-1.863815426826477,1.1287623643875122,-1.4283249378204346,1.0647430419921875,-0.1663334220647812,-0.17204831540584564,-0.36449161171913147,1.8292733430862427,0.3988417983055115,0.12567204236984253,0.1256183683872223,-0.14741568267345428,0.28603270649909973,0.03697008267045021,-1.1762609481811523,-0.2989485263824463,0.4228259027004242,0.46666020154953003,1.2335455417633057,0.48680099844932556,0.32979950308799744,0.24370278418064117,-0.7589476108551025,-1.246156930923462,0.6103057861328125,0.3224215805530548,0.4254995584487915,0.47796395421028137,-1.9902547597885132,0.5961848497390747,1.8526127338409424,0.5592270493507385,0.07571456581354141,0.10149527341127396,0.5841964483261108,0.6121794581413269,-1.0561529397964478,-0.5559401512145996,-0.9911059141159058,0.43845251202583313,-0.784808337688446,-0.08367510139942169,-0.9314610958099365,0.7364379167556763,-0.26773878931999207,0.18771979212760925,2.296513080596924,0.3270072340965271,0.9105352759361267,2.080565929412842,0.387585312128067,0.9006502032279968,2.098632574081421,-0.682466983795166,-0.18578483164310455,1.1202982664108276,-1.2371084690093994,-0.3659619688987732,-0.8106972575187683,1.2194539308547974,-0.8265055418014526,-0.1900976449251175,-1.3020172119140625,0.5559976100921631,-0.08107482641935349,1.650477647781372,1.1434438228607178,0.5059821009635925,-0.8351565003395081,-0.292243093252182,1.6590272188186646,-0.7783032655715942,-0.6287829875946045,-2.340909481048584,-0.7013498544692993,-0.23898984491825104,-1.7609095573425293,-0.6675205826759338,1.7554525136947632,-2.509925603866577,-0.8488933444023132,-0.6510711312294006,-1.4570412635803223,-0.725318431854248,-2.4134931564331055,-0.621062159538269,0.4367590844631195,0.1414913833141327,0.22103866934776306,1.42253839969635,-1.7691861391067505,-0.2071843445301056,-0.16149644553661346,-0.6163259148597717,0.08842740952968597,-2.0123214721679688,0.05032902583479881,0.853171169757843,0.32693836092948914,0.03422977775335312,-2.243743419647217,0.4827427864074707,-0.514114260673523,1.1516965627670288,-1.897897481918335,-0.38905468583106995,-0.04403622820973396,0.0891776829957962,-0.06298703700304031,1.1482547521591187,-0.5968822836875916,0.2666187584400177,-0.7626863121986389,2.678013801574707,-0.13080188632011414,-2.166595935821533,1.5267163515090942,-0.19459310173988342,-0.7292287349700928,-0.14562880992889404,1.0408782958984375,-1.136240839958191,0.4919164478778839,-1.0266785621643066,-1.0330262184143066,-0.7666201591491699,0.4649597108364105,-0.2778051495552063,-0.7082344889640808,-0.8803258538246155,-0.25264406204223633,-0.13705942034721375,-0.2133348137140274,0.8127776384353638,-0.5296842455863953,2.0024564266204834,1.9110703468322754,-1.0161720514297485,-0.2471981793642044,1.5588700771331787,1.0519709587097168,0.4656893312931061,0.9956231117248535,-0.49016010761260986,-0.516096293926239,0.5838541388511658,-0.847956120967865,-0.9839128851890564,1.1204924583435059,0.14924778044223785,-1.1197938919067383,-0.7846294641494751,0.7151383757591248,-0.47694486379623413,-0.3820938467979431,2.020559310913086,-1.730041742324829,1.1352887153625488,0.9732123613357544,-0.4395274817943573,-1.6862789392471313,-0.002766071818768978,1.0878639221191406,-1.1852762699127197,0.3665705919265747,1.567994475364685,-0.34095460176467896,0.09945477545261383,-1.354196548461914,-1.4873108863830566,-0.09367522597312927,0.5148905515670776,-1.072502851486206,0.03032827563583851,0.6457176804542542,0.13630253076553345,0.1492568701505661,-0.3544107675552368,0.287678062915802,-0.3647226393222809,-1.264421820640564,-0.6905964016914368,1.3741064071655273,-0.4182976484298706,2.0433850288391113,-0.9057527184486389,-1.1683900356292725,-2.2373781204223633,-0.19090206921100616,1.870402455329895,-0.9299541115760803,1.3365883827209473,0.06702728569507599,0.11100497096776962,0.4573405385017395,-0.7411696910858154,0.3404921293258667,-0.9347652196884155,1.826160192489624,-0.9287078976631165,-0.11901486665010452,0.3089161515235901,1.0851948261260986,0.20945337414741516,0.17456018924713135,1.0868701934814453,-0.06499553471803665,-0.3341798484325409,-0.43220317363739014,-1.3215603828430176,-1.7017608880996704,0.23920077085494995,1.3527864217758179,1.24699068069458,0.8791571259498596,-0.46560898423194885,-1.1283515691757202,-0.6338412165641785,0.3928822875022888,0.8844612240791321,1.7668485641479492,1.373996376991272,-1.005589246749878,0.8706563115119934,1.4575438499450684,0.6384227275848389,-0.5686087608337402,-0.03207781910896301,-0.09129610657691956,0.4334240257740021,-0.7813245058059692,-0.05322571471333504,0.5757513046264648,-0.7720769643783569,-1.5584404468536377,2.4053170680999756,-0.6096240282058716,0.008052771911025047,-0.2816392183303833,-0.8536553382873535,0.9942650198936462,0.2872719168663025,0.6538087725639343,0.591060996055603,0.07540551573038101,-3.2635319232940674,-1.0785046815872192,0.7842965722084045,1.0096018314361572,-0.5096837282180786,0.9283154010772705,-0.2623665928840637,-1.1534239053726196,1.091131329536438,1.0141041278839111,0.7810245156288147
吹嘘,-0.22002704441547394,0.15244601666927338,0.049055639654397964,-0.021303189918398857,-0.4945331811904907,0.2885945439338684,-0.31114643812179565,0.08222606033086777,-0.03428010642528534,0.03518662974238396,0.09992409497499466,0.09486757218837738,0.21847276389598846,-0.30521252751350403,0.3808456063270569,0.1796889454126358,-0.05270005762577057,0.07086379081010818,0.11887241899967194,-0.1268586814403534,-0.017965100705623627,0.1602691113948822,-0.029721489176154137,0.008593279868364334,-0.22900250554084778,-0.1661117821931839,-0.3031837046146393,-0.05445503443479538,-0.09310614317655563,0.17568176984786987,0.15629836916923523,0.1407175362110138,-0.10357015579938889,-0.3746684789657593,0.3448265790939331,-0.19038376212120056,0.11866872757673264,0.1562204211950302,-0.5258564949035645,0.04841170832514763,-0.16538462042808533,-0.023015355691313744,0.01845872774720192,-0.1811896413564682,-0.24927598237991333,0.10860873013734818,-0.0760553702712059,-0.32373788952827454,-0.13168291747570038,-0.248326376080513,-0.09107500314712524,-0.0181723702698946,0.24958419799804688,-0.18062050640583038,0.11157289147377014,-0.29685601592063904,0.09672019630670547,0.004452312830835581,0.0668552815914154,-0.05755801126360893,0.025383824482560158,-0.23881523311138153,-0.23837698996067047,0.02150608040392399,0.12849648296833038,-0.1715451031923294,-0.0748351439833641,0.1040903851389885,0.061201293021440506,-0.09290576726198196,-0.23352031409740448,-0.3500767648220062,0.18246982991695404,-0.23530824482440948,-0.06584422290325165,-0.1335550844669342,0.2824965715408325,0.0851135179400444,0.024912778288125992,-0.17149487137794495,-0.15456943213939667,-0.3716179132461548,0.12079714238643646,0.286815881729126,-0.12653124332427979,-0.2072497010231018,0.30221661925315857,0.20615950226783752,-0.01946570724248886,-0.22160828113555908,-0.6549512147903442,0.055243220180273056,-0.0696670413017273,-0.17766200006008148,0.06474737823009491,-0.12695327401161194,-0.21710921823978424,0.11040497571229935,-0.1748083531856537,-0.08470839262008667,0.06119833141565323,0.09748120605945587,-0.017028309404850006,-0.22637149691581726,-0.02521868608891964,0.08211419731378555,0.1378459930419922,0.028685234487056732,0.3744291067123413,0.004850061610341072,-0.1330183893442154,0.03784992918372154,-0.3092903792858124,0.47414731979370117,0.6257428526878357,-0.0784640833735466,-0.096550352871418,-0.2432841807603836,-0.017118806019425392,-0.021197160705924034,-0.037791118025779724,-0.08096053451299667,0.21344652771949768,-0.2704630196094513,-0.14177273213863373,-0.34091073274612427,-0.1938864141702652,-0.26607441902160645,0.07516235113143921,-0.02663843147456646,0.06902234256267548,-0.11513836681842804,-0.061771027743816376,0.223993182182312,0.3235531747341156,0.12029049545526505,-0.02892875298857689,0.04769650474190712,0.13323470950126648,0.18830274045467377,-0.24783802032470703,0.47511839866638184,0.27224820852279663,0.19482053816318512,-0.14762841165065765,-0.3552727699279785,-0.17148953676223755,0.15256407856941223,-0.22002476453781128,-0.40970900654792786,0.1271676868200302,-0.01475916150957346,-0.07517209649085999,-0.028527872636914253,-0.3399905860424042,-0.1460336148738861,0.1732090264558792,-0.09743454307317734,0.2594699561595917,-0.13148613274097443,-0.15818265080451965,-0.10072530061006546,0.15165235102176666,0.15902820229530334,0.5394982099533081,0.1566547155380249,0.16358689963817596,0.16639217734336853,0.21222861111164093,0.017213361337780952,-0.05512307584285736,0.1799028366804123,0.0019842213951051235,0.22280071675777435,0.10652177035808563,0.31538012623786926,0.13927777111530304,-0.2769712805747986,-0.25798165798187256,0.15458126366138458,0.1751341074705124,0.1533738225698471,0.013252145610749722,0.04232054576277733,0.04329320043325424,0.014497291296720505,-0.2633170783519745,0.15847736597061157,0.014886853285133839,0.0037528222892433405,0.08688826113939285,-0.2134777009487152,-0.09453735500574112,-0.11626855283975601,-0.006166060455143452,-0.02648180164396763,0.0075373295694589615,-0.28575679659843445,-0.47837090492248535,-0.19510357081890106,0.0015975575661286712,-0.19261537492275238,-0.4500570297241211,0.11179306358098984,0.10844427347183228,0.5434471964836121,0.3271547853946686,0.053555555641651154,-0.018314220011234283,-0.04148346558213234,-0.02246229536831379,0.058359354734420776,0.06838835775852203,-0.15889690816402435,0.4311939477920532,-0.14935079216957092,-0.013963810168206692,0.2916386127471924,-0.06539221853017807,-0.010675753466784954,0.22822469472885132,0.0954294428229332,-0.1625794619321823,-0.16277877986431122,0.1628645360469818,-0.291510671377182,0.0014820516807958484,0.05202062055468559,0.14121675491333008,0.02410249039530754,-0.35343247652053833,-0.33341771364212036,-0.02056906372308731,-0.26998192071914673,0.2681453227996826,0.019935324788093567,0.08916258066892624,0.051198091357946396,-0.24558445811271667,-0.22537918388843536,-0.2722221910953522,0.13756828010082245,0.08301016688346863,0.12276679277420044,-0.02609679289162159,0.22069208323955536,-0.22084017097949982,0.5180928111076355,0.11348148435354233,-0.02672516740858555,-0.41568899154663086,0.17141178250312805,0.20606350898742676,0.12057595700025558,-0.10313635319471359,-0.24313218891620636,-0.029672035947442055,-0.4745938181877136,0.3837560713291168,0.3679618239402771,-0.15007543563842773,-0.3553277850151062,0.1431087702512741,-0.015187361277639866,0.30910664796829224,-0.008118074387311935,-0.033868640661239624,0.04911179468035698,-0.15567439794540405,0.00936844851821661,-0.2309335470199585,-0.13215748965740204,-0.02864800952374935,0.36202114820480347,0.1357220858335495,0.48418790102005005,-0.05250787362456322,0.3245677351951599,-0.1444457471370697,-0.1616891771554947,-0.1179150864481926,-0.07700921595096588,0.02968681789934635,0.08751825243234634,-0.2701028287410736,0.1937430500984192,-0.23183703422546387,-0.10889101028442383,-0.27869200706481934,0.29487019777297974,-0.09618078917264938,-0.08955926448106766,0.2161668837070465,-0.33249470591545105,-0.3083772659301758,0.11285477876663208,0.3754424750804901,0.5483260750770569,0.007826412096619606,0.39481601119041443,0.08787413686513901,-0.08570734411478043,-0.09063897281885147,0.005240080412477255,0.20798493921756744,-0.12478204071521759,0.028159823268651962,-0.32947301864624023,-0.13414517045021057,0.2399718165397644,-0.3424733579158783,0.023111846297979355,0.04163196682929993,-0.19011066854000092,-0.37908071279525757,-0.11826138198375702,0.17281986773014069,-0.11058009415864944,0.049041200429201126,-0.10913090407848358,0.11809687316417694,-0.18282991647720337,0.21243461966514587,0.11357332020998001,-0.5123269557952881,0.046463459730148315,-0.24923276901245117,0.15309537947177887,0.12373516708612442,-0.18253804743289948,-0.14967215061187744,-0.007466982118785381,0.19239580631256104,-0.58729088306427,-0.3720487654209137,-0.4885297119617462,0.2677658498287201,0.15057462453842163,0.15647806227207184,-0.2851938307285309,-0.2887617349624634,-0.06718993186950684,0.10975857824087143,-0.46190598607063293,-0.19256502389907837,0.14089570939540863,0.051456548273563385,-0.09287732094526291,-0.2754146158695221,0.03466758877038956,-0.02576214075088501,0.06422033905982971,-0.1867172122001648,-0.013554150238633156,-0.26310089230537415,-0.2355344444513321,0.18723788857460022,0.011842427775263786,-0.2662539780139923,0.20316870510578156,-0.07334744930267334,-0.24012738466262817,-0.3692324459552765,0.11523620039224625,-0.2372807264328003,0.049418359994888306,0.23357969522476196,-0.17115992307662964,-0.30829063057899475,0.09090674668550491,-0.39667418599128723,-0.3302237391471863,0.35918331146240234,0.10450027137994766,0.2990473508834839,0.07480105757713318,0.053227148950099945,0.16073861718177795,0.0705907940864563,-0.10364801436662674,-0.01040708925575018,-0.405231773853302,-0.3120458424091339,-0.07954273372888565,0.06406930834054947,-0.09626264125108719,-0.1645563691854477,0.2775615155696869,0.030427630990743637,0.09366288781166077,0.18778489530086517,0.3899925947189331,-0.4226750135421753,-0.057983290404081345,0.1830819547176361,0.00976154301315546,0.2625502347946167,0.0856342613697052,0.06464045494794846,-0.021218104287981987
推荐,1.5153436660766602,1.156785011291504,-1.7490098476409912,-0.609973132610321,-0.11391878128051758,-1.420770287513733,-0.6391816735267639,0.4690283238887787,0.9346036911010742,-0.6412013173103333,0.3794422447681427,0.987048864364624,2.174239158630371,1.2746946811676025,-0.41428571939468384,-0.5052623748779297,1.0545662641525269,0.4198738634586334,-1.6819437742233276,-2.0144028663635254,-0.2442595660686493,-0.9285447001457214,-0.07562801986932755,-1.6648061275482178,-0.48669758439064026,-0.9972485303878784,0.11556699872016907,0.3434203863143921,0.6692140698432922,0.42742976546287537,1.3628066778182983,1.9303804636001587,-0.030008764937520027,2.444150447845459,1.43650221824646,-1.2979613542556763,-0.36020025610923767,-0.6655234694480896,0.45322972536087036,1.5481607913970947,-1.3251094818115234,0.07021476328372955,0.3133099675178528,0.4829705059528351,-0.4249466061592102,0.9634189009666443,0.7440922856330872,-2.087826728820801,0.9820002317428589,1.757044792175293,-1.3856137990951538,-0.04087558388710022,-0.036623451858758926,-0.649307370185852,1.100831389427185,0.597006618976593,0.30755138397216797,-0.6890366077423096,1.1904613971710205,1.3343380689620972,-0.33594152331352234,1.1239780187606812,0.5030351877212524,-0.5626311302185059,-0.7199681401252747,-0.506023645401001,-0.6114604473114014,-0.22075439989566803,-0.3967148959636688,1.1578764915466309,0.11986194550991058,0.49118727445602417,-1.646170735359192,-2.3884687423706055,0.8019723892211914,1.1156262159347534,-2.2716755867004395,-0.9577437043190002,-0.7046921849250793,0.14331655204296112,-1.8048937320709229,0.45190927386283875,0.3765982389450073,0.5565203428268433,0.18842554092407227,-0.6390871405601501,0.05443291738629341,0.8802885413169861,0.575198233127594,-0.3196234107017517,-0.2391340136528015,1.1402963399887085,-1.3687126636505127,-0.5823310613632202,1.1165851354599,0.8538401126861572,-0.14352178573608398,-0.18958735466003418,-0.14252208173274994,0.29166460037231445,-1.775442361831665,0.33520686626434326,0.38115665316581726,-1.7092933654785156,1.7033849954605103,0.946170449256897,0.37696337699890137,0.1313282549381256,-0.5194749236106873,1.3697088956832886,-1.0763765573501587,-0.24108870327472687,-1.2406294345855713,-0.3112698793411255,-0.1525494009256363,-0.8359103798866272,-1.1876293420791626,1.3070379495620728,0.819570004940033,-0.3125837445259094,-1.6182708740234375,1.5125259160995483,0.8702505826950073,-0.4635635316371918,-2.8329029083251953,-2.2161097526550293,-1.4059877395629883,-1.4879367351531982,-0.467777281999588,-1.4355989694595337,1.1280364990234375,-0.35686972737312317,-0.7045098543167114,0.1942804604768753,1.226361870765686,1.475635051727295,1.601539969444275,-0.6973678469657898,-0.5430285930633545,1.2656702995300293,0.905261754989624,1.0378726720809937,1.3135404586791992,-0.22976459562778473,0.7414413690567017,0.34187889099121094,0.11142851412296295,-0.858534038066864,1.4017664194107056,-0.28820571303367615,-0.4338810443878174,0.662627100944519,0.7871105074882507,-1.0482491254806519,-0.2933203876018524,-0.8806828260421753,0.42021429538726807,-0.25458699464797974,0.8763585686683655,-1.5115247964859009,-0.8084133863449097,-0.668129563331604,1.2397829294204712,1.6789727210998535,-0.36315757036209106,0.3515520691871643,0.25283318758010864,0.11917439103126526,-0.9841406345367432,1.1490445137023926,-0.17339497804641724,0.7165201902389526,1.269124150276184,0.37243974208831787,-0.01883232221007347,-0.41757699847221375,-1.791390299797058,-0.5941576957702637,-0.7665461301803589,2.3537445068359375,-1.0567419528961182,-0.32079824805259705,-0.6006961464881897,0.4375670552253723,-0.849837064743042,0.49960172176361084,-0.8572407364845276,-0.8197025656700134,-1.4724884033203125,-1.174912929534912,-1.3106783628463745,1.8383938074111938,-0.49644359946250916,-0.446609228849411,-1.5011649131774902,-0.8450056314468384,-0.4860526919364929,-0.8782678246498108,-0.46099916100502014,-0.06727129966020584,-0.304618239402771,-0.2789531648159027,-0.8802067637443542,-0.18226677179336548,-2.364880084991455,1.4297319650650024,0.019957633689045906,-0.16640877723693848,0.1998816281557083,1.2543907165527344,0.16246885061264038,-1.6655728816986084,-1.1074317693710327,-1.3311442136764526,0.8221113681793213,-0.2510589361190796,0.6873931884765625,1.6441338062286377,0.7294166684150696,-1.4615883827209473,-1.607335090637207,0.719464898109436,-0.1084403321146965,-0.8847399950027466,-0.07469511032104492,-0.39508870244026184,0.3746801018714905,0.5311502814292908,0.4530957341194153,0.8241077065467834,0.3171824812889099,1.4657504558563232,4.345302104949951,1.3868194818496704,-1.7617824077606201,0.1304822564125061,-1.6449971199035645,-0.49595069885253906,-2.6179323196411133,0.5817278623580933,1.3887479305267334,-0.1117747500538826,0.5559241771697998,0.8980211019515991,-1.3283705711364746,-0.11825083196163177,-0.39968636631965637,0.7498844265937805,-2.611809015274048,0.7576987743377686,-0.9467235207557678,2.034099817276001,0.6434386372566223,-0.3031964898109436,-0.9139736890792847,-0.7577300071716309,-0.1240069791674614,-0.5508677363395691,-0.15391021966934204,0.7197122573852539,0.8188413977622986,-1.377805471420288,-0.5401365160942078,-0.7881691455841064,-2.790567636489868,-0.7455911636352539,0.43434980511665344,1.2732436656951904,-1.8145068883895874,0.13907918334007263,-0.05313553661108017,1.2506414651870728,1.0561950206756592,-0.7174622416496277,-0.08271633833646774,0.9422167539596558,0.37628433108329773,-0.6382779479026794,-2.3136165142059326,-0.3809424042701721,0.3033512532711029,-0.6138413548469543,1.7269281148910522,1.5746022462844849,-0.6533578634262085,1.7508248090744019,1.576567530632019,0.25369516015052795,-0.7453761696815491,-0.9176889657974243,0.4732678532600403,-0.060357727110385895,-0.7901726961135864,-1.1475286483764648,-0.33588606119155884,0.5702614784240723,-0.06425897032022476,-2.0402371883392334,-1.1119333505630493,-1.015309453010559,0.4372164309024811,-0.5298375487327576,-1.4015694856643677,-0.3058028519153595,-0.55544114112854,0.2129972130060196,0.004708979278802872,-2.0091798305511475,0.047930628061294556,-0.5213030576705933,-0.03864801302552223,0.11025962978601456,1.037467360496521,0.16786549985408783,-0.5278639197349548,-0.43132615089416504,0.21783798933029175,-0.06803781539201736,-0.36792659759521484,-0.6441091895103455,-1.088287115097046,0.3310931921005249,0.4311617314815521,0.22135606408119202,-0.6329524517059326,1.073065996170044,0.5057446956634521,-3.6127493381500244,0.33969879150390625,0.35785219073295593,-0.7008563876152039,-0.11649076640605927,-0.07246217876672745,-0.41018661856651306,-0.6462337970733643,1.310190200805664,0.005148968193680048,0.4207058548927307,-0.8651573061943054,2.4790990352630615,-1.3609561920166016,0.8219324350357056,-0.28796136379241943,1.2155696153640747,-0.08979219198226929,1.251152753829956,-0.0565471425652504,1.0556120872497559,-0.061319272965192795,-0.03805899620056152,0.6729598641395569,0.6957322359085083,1.719909906387329,0.048565540462732315,0.5973510146141052,-0.6718206405639648,-0.5525252819061279,0.1706044226884842,-2.204275608062744,0.17774124443531036,0.42730456590652466,0.1495376080274582,-1.8468729257583618,-1.3830486536026,-0.9082953929901123,0.3326870799064636,0.9157209396362305,0.6237328052520752,0.7313869595527649,-0.06362378597259521,-0.3542332351207733,0.793843686580658,1.2361154556274414,0.24270489811897278,-0.7747789621353149,-0.54496830701828,0.595227837562561,1.6382255554199219,-0.8748801946640015,-0.5169693231582642,-0.2938263714313507,-0.203703373670578,0.0016811353852972388,1.0236599445343018,-0.36756500601768494,1.466349720954895,-0.8360641002655029,0.2878810167312622,0.8386237025260925,0.6981923580169678,-0.5062949657440186,-1.4509378671646118,1.5226774215698242,0.48264145851135254,0.7787026762962341,1.101345181465149,1.0723830461502075,0.076973557472229,-0.3485817611217499,0.42155227065086365
成长,-0.5401716232299805,-0.6420949697494507,0.3427670896053314,-0.9537819027900696,0.4729439914226532,-1.5680909156799316,0.028983378782868385,0.7808108329772949,-1.2204490900039673,0.12524352967739105,0.8807006478309631,0.11809337139129639,-1.6670411825180054,-1.3440290689468384,-2.954869031906128,-0.8482043147087097,2.110593318939209,0.37375855445861816,0.37476566433906555,-1.8152880668640137,1.557286024093628,-1.440889596939087,-1.1519049406051636,0.5332872867584229,0.8578974604606628,-0.8470005989074707,-0.5004034638404846,-0.0504491925239563,1.194391131401062,1.7440063953399658,0.576563835144043,-0.01992247998714447,1.386136531829834,2.5749351978302,1.0970205068588257,2.178964614868164,-0.43072283267974854,-1.3409762382507324,-1.555293083190918,0.22428400814533234,-0.6315290927886963,0.04531422257423401,0.498548686504364,-0.9378250241279602,1.536413550376892,-0.5290074944496155,1.7951725721359253,-1.0731359720230103,0.5156776905059814,-0.8012208342552185,-1.314613699913025,0.340620756149292,1.6772727966308594,0.2639932632446289,0.6084606051445007,0.34480583667755127,0.25572866201400757,1.696326494216919,2.0118720531463623,-0.1647404581308365,0.6012105941772461,0.19324348866939545,-0.12598776817321777,0.39945927262306213,0.7162425518035889,0.8270246386528015,0.7695064544677734,1.8518078327178955,0.676493763923645,0.13073007762432098,1.820825457572937,-1.9948835372924805,-0.256029337644577,0.49561166763305664,0.21226766705513,-0.5664361119270325,-0.43826350569725037,0.9848203659057617,-1.2494964599609375,0.7335247993469238,1.2689634561538696,-2.070288896560669,-0.6707926988601685,1.9909617900848389,-0.33143821358680725,0.24890536069869995,0.32234084606170654,-1.550329566001892,1.0452373027801514,-1.6711862087249756,-0.31634005904197693,-0.25773462653160095,-0.6136690974235535,-0.052467599511146545,-0.3207739293575287,1.4922043085098267,1.023211121559143,0.7724976539611816,-1.6831433773040771,0.5718638300895691,2.2359015941619873,-0.6084378957748413,-0.46977853775024414,0.12432780116796494,1.2703397274017334,0.3478385806083679,-1.0667030811309814,0.3392733931541443,-0.2640415132045746,0.18248587846755981,-0.18360769748687744,0.7301221489906311,-1.2178038358688354,-0.999711275100708,-0.23276567459106445,-0.9584839940071106,1.566650152206421,-1.9332120418548584,0.699853241443634,-0.6836106181144714,-0.5104734897613525,0.7955557703971863,-0.9385584592819214,1.3848192691802979,-1.0073844194412231,1.1480177640914917,-0.31809309124946594,-1.0680748224258423,-0.4137420654296875,0.9915326237678528,0.4323727488517761,-0.8288286924362183,0.3275047838687897,-0.0688474178314209,0.4313138723373413,-1.9146275520324707,-0.6508507132530212,-0.2848723530769348,1.3617409467697144,0.30308035016059875,-2.3567609786987305,-0.6424989104270935,0.44478487968444824,-0.9233036041259766,-0.8674883842468262,0.871465265750885,-1.0420753955841064,1.4945356845855713,-1.3977930545806885,0.34864094853401184,-0.6988877058029175,-0.5693873167037964,-1.1555460691452026,1.9777848720550537,-0.48631492257118225,1.9932571649551392,0.8520846962928772,0.2742995023727417,0.6028781533241272,0.09866416454315186,-0.7715187668800354,-0.9764239192008972,-0.9372536540031433,2.8882904052734375,-0.09425365924835205,0.5399519205093384,-0.6313713192939758,-0.590985894203186,-0.08431030064821243,2.2143971920013428,-0.23266534507274628,-1.3355664014816284,-0.0026754061691462994,-1.5540485382080078,-0.05540447682142258,-1.998872995376587,1.6521350145339966,-0.31045639514923096,-1.1438709497451782,-0.29571157693862915,-0.49117687344551086,1.1703113317489624,-2.0555453300476074,-0.6912984848022461,1.2957340478897095,0.5359085202217102,-0.41372016072273254,-1.6872541904449463,0.6344132423400879,-0.5127272605895996,-0.861839771270752,-1.9079875946044922,-1.2882630825042725,-0.22951948642730713,-0.23443973064422607,-0.01000230573117733,-0.2183837741613388,-0.3455887734889984,-0.17951729893684387,0.5887460708618164,0.14582034945487976,-1.4374760389328003,1.1561826467514038,-0.3221319615840912,0.12608763575553894,0.2823857069015503,-0.32256174087524414,1.1827056407928467,0.1973872184753418,-0.30594417452812195,-1.4966495037078857,2.8059773445129395,-0.6583197712898254,0.34643569588661194,-0.4170849919319153,-0.8619078397750854,-0.6752235889434814,-1.7393474578857422,-0.4591512084007263,0.2863507866859436,-1.4878288507461548,1.0383789539337158,1.572155237197876,-1.7900221347808838,1.0734224319458008,0.2492486536502838,0.298543244600296,-2.5064210891723633,1.7717962265014648,-0.16457442939281464,1.0171760320663452,1.2473845481872559,1.826084017753601,-0.19996803998947144,-1.8799077272415161,-0.24382233619689941,0.5740336179733276,-1.4564474821090698,-1.9513188600540161,-0.07790250331163406,-1.1199885606765747,-1.401293158531189,0.17080777883529663,-0.5056777000427246,-0.10418682545423508,-0.8349766731262207,1.4224146604537964,0.057738739997148514,0.40507772564888,-2.2091081142425537,-0.0504026785492897,0.3916338384151459,1.5924347639083862,1.5258463621139526,0.08973139524459839,1.2195991277694702,-0.4127161204814911,-2.5040507316589355,0.3251596689224243,0.2340935319662094,-0.271949827671051,0.7758145928382874,0.49880850315093994,0.3562481105327606,-0.9469739198684692,-0.04474876448512077,0.1968589723110199,0.414826899766922,-3.6724679470062256,-1.1015293598175049,0.750251054763794,-0.10998950898647308,-0.46092134714126587,0.47494637966156006,1.5070266723632812,1.6994609832763672,-3.084306001663208,0.9429396986961365,-3.0408785343170166,0.4533346891403198,0.9622498154640198,-0.03865848481655121,-0.38573122024536133,-1.6082127094268799,0.349076509475708,0.8692868947982788,0.9622749090194702,-2.833279848098755,0.16957731544971466,-0.24337990581989288,-1.770011067390442,0.07343742251396179,0.2294391393661499,0.7734916806221008,-0.5366463661193848,0.9642922282218933,-0.19623510539531708,-0.1213814988732338,-2.0320987701416016,1.4388890266418457,0.24990235269069672,1.078464150428772,-0.2993899881839752,1.264352560043335,-0.6712151169776917,0.585308313369751,0.3690360486507416,-0.723906397819519,1.0606518983840942,-0.9397962093353271,0.7727252840995789,1.373094916343689,-0.04744300618767738,-1.0474483966827393,-0.9791550040245056,-0.9050292372703552,0.9883465766906738,2.156083583831787,0.5589876174926758,1.2703804969787598,0.6968792676925659,0.5735077857971191,-0.5386347770690918,-0.2660404443740845,-1.0895335674285889,0.42522725462913513,-0.8253728747367859,0.9689600467681885,-1.1100654602050781,-0.28055208921432495,1.3119453191757202,-0.14952927827835083,1.0182324647903442,-0.975562334060669,-0.15282893180847168,-0.3349664509296417,0.2170042097568512,1.6597648859024048,-0.5867124199867249,1.2162727117538452,-0.4686822295188904,-0.2316121757030487,2.045447826385498,-0.7343054413795471,0.5730299353599548,0.050812844187021255,0.626858651638031,-0.569485604763031,0.22245095670223236,0.6561921834945679,0.623113214969635,-0.3141431510448456,1.026048183441162,-2.0060176849365234,0.3512681722640991,-0.15705563127994537,0.10331768542528152,-0.0036783735267817974,-0.43404462933540344,0.21158058941364288,-1.17363703250885,-0.6592303514480591,1.9784828424453735,0.16586481034755707,0.8063494563102722,0.1453358680009842,-0.8685905933380127,1.4686161279678345,-0.5999024510383606,0.5274295806884766,-1.36038076877594,-0.054238460958004,1.9493162631988525,-1.1468334197998047,-0.40602630376815796,-1.0229129791259766,-0.5901495814323425,-1.7738995552062988,2.879856824874878,-0.05455642193555832,-0.3824296295642853,-0.7153199911117554,-0.3388940989971161,-0.9400964379310608,-1.414566159248352,0.4766521453857422,-1.0769168138504028,2.1002368927001953,-2.250527858734131,0.14489278197288513,-1.1255030632019043,0.6274359822273254,-0.4238056242465973,0.0017938101664185524,0.07214637845754623,-1.5538581609725952,1.0823864936828613,-0.40160149335861206,2.3403377532958984,0.8042275309562683
例,-0.011115371249616146,-2.557072401046753,0.05380057170987129,0.3615703880786896,0.5909846425056458,-1.7754185199737549,0.6904023289680481,0.7619715929031372,-0.33252856135368347,-0.3164125382900238,0.5679150223731995,-0.47381430864334106,-0.09800925105810165,0.5187128186225891,-0.2685095965862274,0.8980231881141663,1.2122148275375366,-0.056144557893276215,1.4424306154251099,-0.8588857054710388,0.3653269112110138,-0.41393932700157166,-0.349804550409317,0.8228877186775208,1.4580422639846802,-0.14233742654323578,-0.367654025554657,0.8811277747154236,0.9298584461212158,0.513094425201416,-0.8282067775726318,0.0800086036324501,1.1130895614624023,0.9528533220291138,0.09465781599283218,-0.936522364616394,0.06607937067747116,-1.107293725013733,-0.13525713980197906,-0.470488041639328,-1.2960141897201538,0.17150206863880157,0.6801506280899048,0.4254240393638611,-0.16174744069576263,-0.2923608124256134,0.3506389260292053,1.7065409421920776,-0.6952727437019348,-0.5037549138069153,0.6818401217460632,0.4253324270248413,-0.29684391617774963,-0.8969916701316833,0.1436871588230133,0.6673190593719482,0.1780366599559784,0.5245513319969177,0.910727858543396,-0.3752107322216034,-0.012357709929347038,-0.3484095335006714,-0.2443692982196808,0.8958160877227783,1.4434139728546143,0.4175744950771332,-1.7965041399002075,-0.05250240117311478,-0.14833444356918335,0.5504238605499268,0.8192818760871887,0.9283604621887207,-0.09133612364530563,-1.4128819704055786,0.04350735619664192,-0.16688774526119232,0.16881214082241058,-0.3519067168235779,0.337024062871933,-1.3605543375015259,0.6817964315414429,-0.003991598263382912,0.7127609848976135,-0.3862616717815399,-0.27345284819602966,0.8085590600967407,0.9584112167358398,1.6244854927062988,-0.7704616189002991,0.18268170952796936,-0.32112807035446167,-0.39137354493141174,-0.6548978090286255,2.122830390930176,0.5454513430595398,-1.2375125885009766,-0.09391771256923676,-0.09662529826164246,-1.0619803667068481,0.6071662306785583,0.27714914083480835,0.43130773305892944,-0.06558198481798172,0.7998966574668884,0.07188145071268082,1.2749931812286377,-0.2727263867855072,-1.1388970613479614,-0.1404065489768982,-0.5603641867637634,0.5480878949165344,0.03597504273056984,0.26208651065826416,1.266348123550415,0.7575361728668213,1.2746992111206055,-0.5713630318641663,1.499502182006836,0.30933693051338196,0.5241480469703674,-0.8766168355941772,0.540310800075531,0.40458619594573975,0.828895628452301,-0.9634429812431335,0.003267902648076415,0.2601718306541443,-0.5370651483535767,1.204650640487671,0.4839419424533844,-0.7273417711257935,-0.5430490970611572,-0.589925229549408,-0.6449876427650452,1.07944655418396,0.4247742295265198,0.593101978302002,-0.4645765721797943,0.9299739599227905,-0.9009021520614624,0.06785906106233597,1.1069436073303223,-0.0014617089182138443,-0.14504759013652802,0.6933830380439758,0.5085112452507019,0.1779857575893402,0.6311064958572388,0.3739330768585205,-0.39283058047294617,0.5459257960319519,-0.21525192260742188,0.04214908927679062,1.0333082675933838,-0.9429047703742981,0.25553053617477417,-0.27552375197410583,0.0017215056577697396,-0.7016243934631348,-0.3253234326839447,-0.16970019042491913,-0.2717689871788025,0.5587273836135864,-0.12090587615966797,0.4725932478904724,-1.1492993831634521,-0.07691532373428345,-0.962344765663147,0.21021808683872223,0.879618227481842,0.4170330762863159,0.5841999053955078,0.3222869634628296,1.179091215133667,0.4971798360347748,-0.42829540371894836,-0.5437518954277039,-1.1644295454025269,-0.3681603670120239,-0.7193208336830139,0.14365831017494202,-0.257885605096817,-0.3236486613750458,-0.46715372800827026,0.35280054807662964,0.16641640663146973,0.004741286393254995,-0.9506645202636719,0.7455613613128662,0.26567739248275757,-1.1490702629089355,0.5665201544761658,0.1617930382490158,1.4473493099212646,0.052601031959056854,0.1329282522201538,-0.762610912322998,-0.0916978195309639,-0.6648268103599548,-1.5008974075317383,-0.2169773131608963,0.11682462692260742,-0.8412989377975464,0.040970202535390854,-0.7785168886184692,0.03722050413489342,1.2908574342727661,0.09219377487897873,-0.23866239190101624,-0.43709808588027954,-1.8363350629806519,-0.7250511050224304,0.021340208128094673,0.7727176547050476,0.014608095400035381,0.08833451569080353,0.02015732228755951,-0.29403650760650635,0.5723690390586853,-1.6579673290252686,-0.1283528059720993,0.04601746052503586,0.03577511012554169,1.405505657196045,-1.0427440404891968,0.3113469183444977,-0.001277326256968081,0.6925262808799744,-0.0059754797257483006,-0.6062769293785095,-0.19840331375598907,0.0792355015873909,0.8344168066978455,-0.4230416715145111,-0.12324552237987518,-0.7938284873962402,-0.14665193855762482,-0.7527022361755371,0.2856616675853729,-0.2955039143562317,0.2644202709197998,0.4914293587207794,0.5045774579048157,0.8439773321151733,0.7811580300331116,-0.45923739671707153,0.03382417932152748,-0.7674621343612671,-1.7544127702713013,0.12662188708782196,-0.0031577711924910545,-1.1003921031951904,-0.5838635563850403,-0.3643275797367096,-0.9287587404251099,-0.41193023324012756,0.062077369540929794,0.6804202198982239,-0.4288328289985657,0.240498885512352,1.1457537412643433,0.874083399772644,-0.5542053580284119,0.16120155155658722,0.39815935492515564,-0.4967171847820282,0.2489621639251709,-0.19253018498420715,-0.666951060295105,0.649015486240387,-0.17353762686252594,-0.5668004751205444,-0.9613549113273621,-1.7215627431869507,-0.6803184151649475,-1.2597060203552246,0.30669689178466797,-0.2862897515296936,0.17748263478279114,-0.1451478898525238,-0.8241267204284668,0.06933774799108505,-0.22172488272190094,0.8392428755760193,-0.47440287470817566,1.592651605606079,1.6673239469528198,0.6527270078659058,0.9058479070663452,0.49671128392219543,-0.8393398523330688,-0.3790717124938965,-0.7385020852088928,-0.03786716237664223,1.2215230464935303,0.06341458857059479,-0.005041027441620827,1.464731216430664,0.8532024621963501,-0.6673107743263245,0.7414011359214783,0.7281189560890198,0.6441351771354675,-0.08884473145008087,0.35365191102027893,-0.6012371182441711,0.2433391511440277,0.5616948008537292,-0.9839469790458679,0.5727119445800781,-1.2538169622421265,1.3303152322769165,-0.49696844816207886,0.21297363936901093,-0.22014892101287842,-0.08569297194480896,-0.4581771790981293,0.5824576616287231,-1.269162654876709,0.07215160131454468,0.8594165444374084,-0.7389988899230957,-0.5441723465919495,-1.319629430770874,-0.5373674631118774,1.150776982307434,-1.2105658054351807,-2.248626232147217,0.3868992030620575,-0.5983509421348572,0.2885339558124542,-0.5874481797218323,-0.5839548110961914,0.7832679748535156,0.4056350290775299,-0.5952663421630859,-0.18565790355205536,0.46214747428894043,-0.4579077959060669,-0.3046581745147705,1.5871663093566895,0.50786292552948,0.5128813982009888,-0.45002004504203796,1.0684934854507446,-0.04924630746245384,0.5136764049530029,0.8234280347824097,0.5146732926368713,-0.46582645177841187,0.31556883454322815,0.5502845644950867,-0.2828543484210968,-0.6555781960487366,0.8633519411087036,1.0269784927368164,-0.7105469107627869,0.8491159081459045,1.2459862232208252,-0.5832287669181824,1.1084223985671997,-0.19508345425128937,-0.16460521519184113,-0.23550957441329956,0.9787295460700989,-0.6554451584815979,-0.919274628162384,-0.3592604994773865,0.4968568682670593,-0.9359338879585266,0.6396240592002869,-1.1189104318618774,-0.24597975611686707,0.18794941902160645,0.17087450623512268,0.9763126969337463,-0.8177195191383362,0.4999157190322876,-0.5907799601554871,0.7836543917655945,0.49126577377319336,0.17517206072807312,0.6456784009933472,0.7887711524963379,0.922796905040741,-0.9642325043678284,1.2054946422576904,0.7809920907020569,0.14565259218215942,0.8884763717651367,0.20167146623134613,-0.6892134547233582,0.42070725560188293,0.34308677911758423,-0.15469622611999512,0.4521206319332123,-1.072105884552002,0.22151939570903778,0.04453470557928085,-0.10368833690881729
严重,-0.9965714812278748,-2.8053996562957764,-0.31238964200019836,-0.1661045253276825,0.3502008616924286,-0.6211723685264587,0.1002836525440216,0.9883761405944824,-2.3419106006622314,-0.5673239231109619,-0.9542943239212036,-0.31105518341064453,0.26871469616889954,-0.7043614387512207,2.016796112060547,-1.500092625617981,-0.9186401963233948,1.7038917541503906,1.4624742269515991,-1.5681475400924683,0.5232861638069153,-0.2817341983318329,-0.24290388822555542,0.20932501554489136,0.35700714588165283,0.17896685004234314,-1.2043585777282715,2.6131651401519775,0.33459505438804626,-0.1742742359638214,-0.435670405626297,-0.3526797294616699,1.836208701133728,1.78882896900177,-3.0706593990325928,-0.9609965085983276,-0.5354816317558289,0.3118214011192322,1.1932077407836914,0.6615322232246399,0.2822226583957672,-1.3065708875656128,0.445880651473999,-0.8530588150024414,0.4457685053348541,2.0849087238311768,1.2737809419631958,-0.19709573686122894,-1.2514585256576538,-1.0798453092575073,-0.7821500897407532,-2.4702513217926025,0.1941065937280655,1.9826290607452393,0.34800416231155396,2.7631680965423584,2.3350136280059814,0.0006111348629929125,0.14583054184913635,0.6524156928062439,-0.7096425294876099,-1.4710962772369385,-1.4096170663833618,-1.1665096282958984,0.7441631555557251,-0.9957678914070129,-0.1534004509449005,-0.12203781306743622,1.264020562171936,1.1541882753372192,0.8022320866584778,1.4309459924697876,1.188822865486145,-0.03250403702259064,-1.316460371017456,-0.9164853692054749,0.2575247585773468,0.6682084202766418,-0.21080036461353302,0.2473110407590866,-0.6052854061126709,-0.9123113751411438,0.09841426461935043,-1.0738444328308105,0.24905313551425934,0.05296490341424942,-0.9000667333602905,2.0828800201416016,1.9159209728240967,0.736609935760498,-0.864665687084198,-1.096639633178711,0.06475986540317535,0.04056297987699509,1.660828709602356,-1.285111665725708,0.24813374876976013,0.12604570388793945,0.8596492409706116,1.5159642696380615,-0.3527470827102661,2.2025952339172363,-0.020552553236484528,0.5895135402679443,1.6946369409561157,1.7094781398773193,0.8085528016090393,-0.18812353909015656,-1.9213008880615234,-2.903188943862915,-0.3143404424190521,-1.4926023483276367,-1.3762811422348022,-0.7695314288139343,0.9942721128463745,0.9597892165184021,1.9069269895553589,-0.18910951912403107,-1.393059492111206,1.0472279787063599,0.6289767622947693,-0.2554752230644226,-0.06763894855976105,1.103853702545166,1.7175430059432983,-0.07103471457958221,0.4843350648880005,1.1958680152893066,0.458749920129776,-0.7307162284851074,2.3570756912231445,-1.2628968954086304,-0.41172879934310913,-0.37659943103790283,-0.271299809217453,-1.3407648801803589,0.05939343199133873,0.19832144677639008,-1.2894504070281982,-2.2543227672576904,-0.4995752274990082,-1.5198265314102173,-1.458662986755371,1.2144601345062256,-0.1077783852815628,-0.6210508346557617,-1.0038256645202637,2.7023346424102783,0.8018674254417419,-0.8453779816627502,0.4735337197780609,3.0360257625579834,-0.22076024115085602,-0.5790982842445374,0.7365363240242004,0.8195798397064209,-0.6569604277610779,0.7122905254364014,0.7505390644073486,0.31633004546165466,0.9741347432136536,-1.5998893976211548,-1.184126615524292,0.18690119683742523,0.9210996627807617,-0.818328857421875,0.2984043061733246,0.691245973110199,-0.08430242538452148,-1.4835375547409058,1.2939871549606323,1.6615450382232666,-1.6951509714126587,0.15045370161533356,0.2428123503923416,-0.5096048712730408,0.08718935400247574,-1.3726247549057007,1.6767244338989258,0.26337698101997375,0.46352285146713257,0.7790129780769348,-2.012540578842163,-0.9758288264274597,0.13073848187923431,-1.3116531372070312,0.17403477430343628,-0.7454047799110413,0.7458030581474304,2.3648548126220703,1.0090700387954712,-0.08338473737239838,0.2132934182882309,-0.48503872752189636,0.9524953961372375,1.1633301973342896,1.065643310546875,0.3242208957672119,-2.1177978515625,-1.4844908714294434,-0.43372592329978943,1.1142061948776245,1.2957826852798462,1.5371322631835938,-0.027079282328486443,0.4516628384590149,-0.3057054281234741,0.24056188762187958,0.47762569785118103,1.463148593902588,-0.35490572452545166,1.2086637020111084,-0.1454600840806961,-0.08816955238580704,-1.151832103729248,-0.757041335105896,0.11321323364973068,-1.1545883417129517,-0.5377437472343445,-0.8075093626976013,1.172115445137024,-0.19299858808517456,-1.0319535732269287,2.2132961750030518,0.827458381652832,-0.48728591203689575,-0.08437548577785492,-0.543402373790741,1.4364346265792847,-1.378367304801941,0.5488686561584473,-0.10269894450902939,1.3298094272613525,-0.18841491639614105,-1.0336124897003174,0.5651535987854004,1.2446285486221313,-1.2416932582855225,0.2294292151927948,-0.8995857238769531,0.7732221484184265,0.6638388633728027,-0.5332015752792358,1.1617423295974731,-1.2060588598251343,1.3367410898208618,0.1503238081932068,0.7153369784355164,-1.346176266670227,-1.3989195823669434,-0.20594261586666107,-0.42529579997062683,-0.9807772636413574,1.8676153421401978,-0.24555739760398865,0.5614480376243591,1.65735924243927,0.6721282005310059,0.6731904149055481,-0.537922739982605,1.5891187191009521,-0.32481157779693604,-0.09388820081949234,2.130722761154175,-0.5601904988288879,0.7535853385925293,1.99064302444458,-0.7401500344276428,-2.6408493518829346,-0.7453069686889648,0.03721483796834946,-2.3087990283966064,1.40950608253479,-0.2455301731824875,1.8097670078277588,-0.7213671803474426,2.041456460952759,-0.3151704668998718,1.8309028148651123,-0.5142579674720764,0.6830874681472778,-0.8771694302558899,-0.2888452410697937,-0.19818469882011414,1.3503780364990234,1.3658292293548584,2.5280745029449463,-0.23857620358467102,0.4365079700946808,0.06492886692285538,-3.2328243255615234,1.013202428817749,0.3603323698043823,0.801388680934906,0.47029173374176025,1.2332241535186768,-1.2629342079162598,0.2509370446205139,0.5950819253921509,0.8930665254592896,-0.4516095221042633,-0.530222475528717,-1.9468986988067627,2.2923102378845215,0.9590009450912476,0.24256320297718048,-0.3171420693397522,0.6834452748298645,-0.3201389014720917,-0.49511855840682983,0.27724796533584595,0.6909045577049255,-1.3710821866989136,-1.5730565786361694,-1.6955628395080566,1.6121678352355957,-0.9682429432868958,0.7648236155509949,-1.04313325881958,-0.15375709533691406,-0.09145783632993698,0.07716690748929977,0.815530002117157,-1.3218694925308228,-1.4703818559646606,-2.577662944793701,-1.5836317539215088,-0.17806771397590637,2.1745102405548096,-0.13228613138198853,-0.4170999825000763,-1.7342793941497803,-0.40055936574935913,1.5561935901641846,-2.8575100898742676,-0.44791415333747864,0.646143913269043,1.0298690795898438,-0.9977402091026306,-1.9796029329299927,0.08485730737447739,0.055989865213632584,0.15575049817562103,-0.03367016464471817,0.2080082893371582,-3.0033957958221436,-0.6301625967025757,-0.9130499362945557,0.5345881581306458,-0.24340905249118805,0.018509723246097565,1.5771809816360474,-1.5805078744888306,-0.33083951473236084,0.41821691393852234,1.1276601552963257,0.3781205415725708,0.047545626759529114,-1.0644946098327637,-0.20861516892910004,0.8396111726760864,1.0954874753952026,-0.38387855887413025,-0.7285535931587219,-1.1609846353530884,-0.9241802096366882,-1.7186154127120972,0.2098652422428131,1.837347149848938,1.435002088546753,-1.773414134979248,-1.0718624591827393,1.3279099464416504,0.5625900030136108,-0.23083291947841644,-0.5236233472824097,-0.06698376685380936,0.8208492994308472,-0.8168104887008667,1.1731617450714111,1.689855933189392,0.11998637020587921,-2.1847312450408936,0.026722632348537445,1.2242112159729004,-0.3071923851966858,1.2445091009140015,-0.16004644334316254,-0.38600537180900574,-0.23262546956539154,-1.485664963722229,-0.18732218444347382,0.7931716442108154,-0.3013139069080353,-1.2299981117248535,-1.5908300876617432,-1.5529601573944092,0.44422149658203125,-0.5684686899185181,0.8531770706176758
意义,-0.05599250644445419,0.3860412836074829,1.9842761754989624,0.02090003713965416,0.1739235818386078,-1.882322907447815,0.12183505296707153,0.06831694394350052,0.4471089541912079,-2.4121272563934326,-0.6117369532585144,-1.8903464078903198,1.7334587574005127,-0.862582802772522,-0.7666115760803223,0.24364951252937317,0.5514208078384399,0.2922109067440033,0.7381623387336731,-1.0397899150848389,-0.7819297313690186,-0.21805931627750397,-2.2650318145751953,0.22032468020915985,0.4529128670692444,1.4304566383361816,-0.34684234857559204,2.054354190826416,0.8427346348762512,-1.845794439315796,-0.3031589090824127,1.5664169788360596,-0.42141205072402954,0.7798906564712524,-0.5117689371109009,1.3588873147964478,0.7369862794876099,0.2299235612154007,-0.60086590051651,0.10033930093050003,-0.5400024056434631,-0.05220405384898186,2.5016610622406006,0.6260498762130737,-0.721335232257843,-0.4505697190761566,0.3138240575790405,-0.777741014957428,-0.9739145636558533,1.4308351278305054,0.5161759257316589,-0.021996837109327316,-0.17510242760181427,-2.4891810417175293,-0.37492185831069946,-1.2047865390777588,-0.17253711819648743,1.2225983142852783,-0.13028258085250854,-1.161828875541687,-0.0042723398655653,-1.3279192447662354,1.783408522605896,0.8486331105232239,1.7434462308883667,-0.3878411650657654,0.10494457185268402,-0.24308498203754425,-0.27686864137649536,1.061883807182312,0.912744402885437,0.15222391486167908,-0.15925295650959015,0.7764235138893127,1.32333505153656,-0.7989916801452637,1.1222469806671143,0.13540303707122803,-0.8260488510131836,-0.9842272996902466,1.2275147438049316,0.6893590688705444,-0.49597886204719543,1.5647774934768677,-1.976715087890625,1.8258886337280273,0.8284972906112671,0.5071442127227783,-1.2207401990890503,-0.8370019197463989,0.3761254847049713,1.8074871301651,1.3600330352783203,0.9317291975021362,-0.00694993045181036,-1.7189573049545288,0.52330082654953,0.3352309763431549,-0.9627609252929688,-0.4416176378726959,1.4873919486999512,1.3181049823760986,0.4101509749889374,0.977507472038269,1.3522509336471558,0.39110010862350464,-0.2348930835723877,0.9204591512680054,-2.148015260696411,-1.333418846130371,-0.1718473732471466,-0.054779358208179474,-0.6205248236656189,1.1830288171768188,1.0715997219085693,0.48140549659729004,0.4952182471752167,2.069857120513916,-1.0505919456481934,-1.4737722873687744,0.42227432131767273,0.31029438972473145,-0.5746522545814514,-1.0916287899017334,-0.7709676623344421,-0.6851164698600769,0.864235520362854,0.49852254986763,1.0237308740615845,-0.8308238387107849,-0.15689781308174133,1.5593957901000977,-1.5688738822937012,-0.10968747735023499,1.1293153762817383,0.7332046031951904,-2.0860366821289062,-0.06940644979476929,1.2492132186889648,-0.20503020286560059,-1.429331660270691,0.1978219598531723,0.5869832634925842,0.21547606587409973,-0.8826977014541626,1.0608704090118408,-0.5226519703865051,1.9198651313781738,1.7913234233856201,-0.26175418496131897,1.1376725435256958,-1.576034426689148,0.7840619087219238,0.24823255836963654,-0.10108201950788498,-2.4200639724731445,-0.6821818947792053,1.434238314628601,0.06840002536773682,-0.9569289684295654,0.7416516542434692,0.5866393446922302,1.8552359342575073,0.314569354057312,-0.23542077839374542,1.4035773277282715,-0.28639158606529236,-0.5283482670783997,-0.8595539331436157,0.638756275177002,0.07046075910329819,0.4387941360473633,1.0716298818588257,-0.6050248742103577,0.7235705256462097,0.9066670536994934,1.557663917541504,0.6987389922142029,-0.051053207367658615,0.07185189425945282,-0.9612354636192322,1.0093716382980347,-1.0249950885772705,-1.1945825815200806,0.5516098141670227,-1.4167470932006836,0.5240171551704407,0.5438359975814819,0.4566900134086609,-0.1736467182636261,0.20700618624687195,-3.00374174118042,-0.17185668647289276,0.645891547203064,0.6142956614494324,1.4752976894378662,-2.331970691680908,-1.664046287536621,-1.1373629570007324,0.3810555636882782,-1.5875898599624634,0.6181393265724182,1.9722411632537842,0.8638856410980225,-0.13528107106685638,1.3381893634796143,0.49052536487579346,0.17494985461235046,0.8897406458854675,0.7766810059547424,-0.7045625448226929,-0.12400969862937927,-0.4897124767303467,0.16274628043174744,0.6627420783042908,0.7357886433601379,-2.078610897064209,-0.48297202587127686,0.8232946395874023,-1.950684666633606,-0.7710132002830505,-0.23097704350948334,-1.0537877082824707,-0.7034839391708374,-1.501436471939087,1.9296844005584717,-0.2551552951335907,-1.2316901683807373,-0.510521411895752,-1.2193882465362549,-1.222294807434082,0.4779721200466156,0.895048201084137,-0.8578704595565796,-1.3761990070343018,0.9183629155158997,0.3656100630760193,-1.3199213743209839,0.3816740810871124,-1.772811770439148,-0.06824979186058044,-0.49647217988967896,-1.2109018564224243,-0.17006711661815643,-0.1490306258201599,1.5276955366134644,-1.6180695295333862,-0.4323372542858124,-0.5166215300559998,-0.15704303979873657,0.5247166752815247,0.3012773096561432,1.676749348640442,-0.31001344323158264,0.7447587847709656,-0.4720291495323181,0.8320050835609436,-0.039169806987047195,0.8158991932868958,-1.5011475086212158,-0.4506024718284607,-0.041505295783281326,-1.9970853328704834,0.12483015656471252,-0.1215188279747963,-0.42143428325653076,-0.8639019131660461,-1.312219500541687,0.6894062161445618,-1.8262715339660645,0.09839175641536713,-2.2565906047821045,-1.2831026315689087,-0.5731951594352722,-0.546010434627533,-0.9940117597579956,0.5846061706542969,0.11115629971027374,-0.9992775321006775,0.21166720986366272,-0.9664725661277771,1.686160922050476,-0.511467695236206,1.136732578277588,0.1709253042936325,1.3318395614624023,0.9214545488357544,-0.4824397563934326,0.777211606502533,-0.3979080319404602,-2.636566162109375,-0.7816488742828369,-0.29260706901550293,-0.506004273891449,-1.891798734664917,1.0854601860046387,-1.1198194026947021,0.25240325927734375,-0.6245642900466919,0.9448081254959106,-1.0225886106491089,1.7740589380264282,0.0694967582821846,-0.6245028376579285,-1.0646283626556396,-0.703528642654419,-0.65046626329422,-1.2824524641036987,0.2963728904724121,0.4170580804347992,1.1613272428512573,1.2353709936141968,0.040956784039735794,-1.2732691764831543,-1.6355993747711182,1.3189928531646729,-2.218074321746826,-0.7688267230987549,-0.25565609335899353,-1.5442475080490112,0.03363273665308952,0.25645706057548523,-0.036407340317964554,-1.0761363506317139,-0.8138720989227295,-0.7386903166770935,-1.1273560523986816,-2.699422597885132,0.4059843420982361,-1.7112895250320435,-1.1636124849319458,0.2915409207344055,-0.899028480052948,-1.071264386177063,-0.6771273016929626,0.04760127142071724,-2.1579172611236572,0.2399926334619522,1.8692160844802856,-1.8177067041397095,-2.590254783630371,-1.4748936891555786,1.227150797843933,-0.723979651927948,0.7166983485221863,1.3569384813308716,-1.3688111305236816,0.7525421380996704,2.562490463256836,0.010663948021829128,0.5528781414031982,-2.750124216079712,0.030360793694853783,-1.663984775543213,0.33003175258636475,0.2146831750869751,0.8338433504104614,1.846921682357788,0.3944303095340729,0.4281946122646332,-0.7711473107337952,-1.9104400873184204,0.5535323619842529,0.7153499722480774,1.22071373462677,-0.6483241319656372,-2.7568347454071045,-0.7030583024024963,1.4659467935562134,1.188672661781311,-0.9503828883171082,-1.4755862951278687,-0.5585434436798096,1.0945775508880615,-0.4065842032432556,0.8484103679656982,0.8513521552085876,0.8316243886947632,0.6592733263969421,-1.3116967678070068,-1.3712626695632935,1.1728214025497437,0.9448103904724121,0.5306073427200317,1.0897148847579956,-0.39909714460372925,1.387142539024353,-0.8940629363059998,0.4632100462913513,-0.5083509683609009,-1.4169294834136963,-0.09113429486751556,-0.28499504923820496,-1.1466939449310303,0.3179660737514496,0.37932878732681274,-0.6332549452781677,0.5280129313468933,0.8419292569160461,1.0663151741027832
