word,0,1,2,3,4,5,6,7,8,9,10,11,12,13,14,15,16,17,18,19,20,21,22,23,24,25,26,27,28,29,30,31,32,33,34,35,36,37,38,39,40,41,42,43,44,45,46,47,48,49,50,51,52,53,54,55,56,57,58,59,60,61,62,63,64,65,66,67,68,69,70,71,72,73,74,75,76,77,78,79,80,81,82,83,84,85,86,87,88,89,90,91,92,93,94,95,96,97,98,99,100,101,102,103,104,105,106,107,108,109,110,111,112,113,114,115,116,117,118,119,120,121,122,123,124,125,126,127,128,129,130,131,132,133,134,135,136,137,138,139,140,141,142,143,144,145,146,147,148,149,150,151,152,153,154,155,156,157,158,159,160,161,162,163,164,165,166,167,168,169,170,171,172,173,174,175,176,177,178,179,180,181,182,183,184,185,186,187,188,189,190,191,192,193,194,195,196,197,198,199,200,201,202,203,204,205,206,207,208,209,210,211,212,213,214,215,216,217,218,219,220,221,222,223,224,225,226,227,228,229,230,231,232,233,234,235,236,237,238,239,240,241,242,243,244,245,246,247,248,249,250,251,252,253,254,255,256,257,258,259,260,261,262,263,264,265,266,267,268,269,270,271,272,273,274,275,276,277,278,279,280,281,282,283,284,285,286,287,288,289,290,291,292,293,294,295,296,297,298,299,300,301,302,303,304,305,306,307,308,309,310,311,312,313,314,315,316,317,318,319,320,321,322,323,324,325,326,327,328,329,330,331,332,333,334,335,336,337,338,339,340,341,342,343,344,345,346,347,348,349,350,351,352,353,354,355,356,357,358,359,360,361,362,363,364,365,366,367,368,369,370,371,372,373,374,375,376,377,378,379,380,381,382,383,384,385,386,387,388,389,390,391,392,393,394,395,396,397,398,399
很强,-0.41045618057250977,0.45216870307922363,-0.216253861784935,-1.6739145517349243,-1.027137041091919,0.9830739498138428,-0.42513352632522583,0.06214216724038124,0.3504549562931061,-1.130793809890747,-0.41719192266464233,1.3558108806610107,0.10339954495429993,-1.2478324174880981,0.7982817888259888,-0.09294212609529495,-0.38694220781326294,1.2859431505203247,-0.7132799029350281,-1.0150004625320435,1.0225608348846436,-1.4300559759140015,0.5017319917678833,-0.26797494292259216,-0.9137406349182129,-0.8108968734741211,-0.9214000105857849,0.6782671213150024,-1.4872198104858398,0.532966136932373,1.0074291229248047,-0.37733861804008484,-0.4220007658004761,1.0696927309036255,0.916378915309906,0.26640784740448,0.5211460590362549,-0.039779841899871826,-0.8686381578445435,0.6961929798126221,0.4173608124256134,1.5415828227996826,-0.3898058533668518,0.1905665099620819,-1.8569865226745605,0.4592609107494354,0.8981995582580566,-0.1665986329317093,-0.3318121135234833,0.8643804788589478,0.09508952498435974,-0.08397296816110611,0.196389302611351,0.6358169317245483,0.5873642563819885,-1.5863460302352905,0.5655558705329895,0.17680777609348297,0.17493636906147003,-0.46153420209884644,0.044680405408144,-0.14394818246364594,-0.09914285689592361,-0.6227463483810425,1.5758371353149414,-0.36903518438339233,-1.3327288627624512,0.868580162525177,-0.02038341946899891,1.3914673328399658,-0.42307189106941223,0.4449882209300995,0.6906414031982422,-1.4011962413787842,0.44604119658470154,-0.9893394112586975,-0.269126832485199,-0.17955391108989716,-1.0386078357696533,0.6853811740875244,0.59969562292099,-1.3591675758361816,-0.17393846809864044,1.5111174583435059,-0.5032564997673035,-0.6260048151016235,0.9713373184204102,1.592474341392517,-0.6452654600143433,-0.060134995728731155,-1.797722578048706,0.7036046981811523,-1.3574939966201782,-0.27326473593711853,-0.11264091730117798,-0.03381692245602608,-1.5241471529006958,0.3079812526702881,-0.47511714696884155,0.30658242106437683,-0.07010124623775482,1.092793345451355,-0.2968886196613312,0.3706541061401367,-0.28010106086730957,-0.05529118329286575,0.6924806833267212,-1.2714037895202637,0.3784305155277252,0.3599933087825775,0.34678077697753906,0.4315658509731293,-0.4240429997444153,0.8363040089607239,-0.9551061391830444,-0.486915647983551,1.5738447904586792,-0.8913436532020569,-0.7111409306526184,0.2643943727016449,-1.7347947359085083,0.9422564506530762,-1.0657639503479004,-1.3561598062515259,0.26348382234573364,-1.4126677513122559,-0.4240815341472626,0.6522247195243835,-0.30438077449798584,-0.14476929605007172,0.001253538765013218,1.3161306381225586,0.7258323431015015,-0.9257918000221252,1.2097376585006714,0.17193518579006195,0.8178380727767944,0.03522312268614769,2.660745143890381,2.013901710510254,-0.8424180150032043,0.42406517267227173,-0.6132800579071045,-0.28317344188690186,-0.777612030506134,-0.9030851125717163,-0.8192467093467712,1.3010274171829224,-0.6422915458679199,-0.011725354939699173,-0.4046159088611603,-0.09478127956390381,-0.2512713074684143,-0.6541936993598938,-1.2503663301467896,-1.0029990673065186,1.4315780401229858,0.33444273471832275,1.172327995300293,-0.09942903369665146,-0.24511049687862396,-1.6420124769210815,-0.17693686485290527,-0.13256844878196716,0.35450804233551025,1.2971806526184082,0.9346336126327515,0.32205086946487427,0.1286836415529251,-0.3100939393043518,-0.2513968050479889,0.556538462638855,-0.3679264187812805,-0.5063822269439697,-0.6794295907020569,-1.1387985944747925,-0.016123559325933456,0.9175652265548706,0.07913202047348022,0.23729370534420013,1.7053141593933105,2.146174907684326,-1.1316643953323364,-0.803876519203186,0.33220165967941284,-0.4446333646774292,-0.0011716815643012524,1.0889513492584229,0.5453575253486633,-0.2165830284357071,1.15435791015625,-0.01987542025744915,-0.3801342248916626,1.027408480644226,1.140797734260559,1.0614877939224243,-0.02951720543205738,0.3726908564567566,-0.9913174510002136,-0.2674266993999481,0.11606697738170624,-0.1975318044424057,0.21426959335803986,0.6725268959999084,0.36743324995040894,0.2758479118347168,1.29291832447052,0.498496949672699,-0.6605689525604248,-0.4104451537132263,0.33938974142074585,1.5569783449172974,0.4440471827983856,-2.0370306968688965,-1.1402673721313477,-1.2959065437316895,-1.4540189504623413,0.48754456639289856,0.10268893092870712,-0.18584078550338745,0.5306517481803894,-0.2936793565750122,-0.18791386485099792,-0.6813030242919922,-0.21864169836044312,-1.675947666168213,-0.9955564141273499,0.15798716247081757,0.24687381088733673,-0.7276596426963806,0.5312255620956421,0.2644205689430237,0.35709989070892334,-0.09982912242412567,-0.05870824307203293,0.9755988717079163,0.23092851042747498,-1.7250854969024658,-0.07361193746328354,0.4206096827983856,-0.9523909091949463,-0.37405624985694885,-0.25256720185279846,-1.212052583694458,-1.7048559188842773,0.40318089723587036,1.1376926898956299,0.6661397218704224,0.32192227244377136,-0.14140060544013977,-1.2301563024520874,0.4452956020832062,-0.6594333648681641,0.03839830681681633,-0.6905023455619812,0.6327087879180908,-0.913181483745575,0.3833771049976349,2.5794904232025146,-0.3423050343990326,-1.4812939167022705,-0.6226065158843994,0.36445558071136475,0.7592601776123047,-0.14922374486923218,0.4018635153770447,1.812001347541809,-1.601615309715271,-0.6325618028640747,-0.9564081430435181,0.843012273311615,-0.17991988360881805,0.7057083249092102,0.7702794075012207,0.3669818639755249,1.419539213180542,0.2401796579360962,-0.6111228466033936,0.2574831247329712,-0.14668790996074677,0.1416664570569992,0.6143499612808228,0.841966450214386,0.5112738609313965,-0.18255378305912018,-0.17004384100437164,-0.22543483972549438,-0.6900442242622375,-0.5193497538566589,-1.1063257455825806,-2.0180578231811523,0.5885326862335205,0.2176390290260315,-0.17207591235637665,-1.3456913232803345,2.011178970336914,-0.7431824207305908,0.07305669784545898,0.19366562366485596,1.248108148574829,1.0361295938491821,-0.41118693351745605,0.3028866648674011,-0.46730056405067444,-0.06305015087127686,1.530205488204956,-0.4328535795211792,-0.9959939122200012,0.39850538969039917,1.192781925201416,0.003155646612867713,1.5045912265777588,0.07515520602464676,-0.9742603302001953,-0.7597641348838806,1.0783214569091797,0.31304287910461426,1.4862942695617676,0.30783185362815857,-0.3987748920917511,0.9227625131607056,0.14641961455345154,0.3914269506931305,-0.19629861414432526,0.2692468762397766,-1.0982903242111206,0.018730277195572853,0.44883498549461365,1.5771886110305786,0.17303122580051422,-0.5545255541801453,0.8275836110115051,-0.5881987810134888,-0.6411051154136658,-1.2980942726135254,0.020219877362251282,0.044946469366550446,0.3309958875179291,-0.03457612544298172,-1.6289843320846558,-0.67499178647995,-0.5453997850418091,0.0739886537194252,-0.24643918871879578,-0.44216179847717285,0.8498528003692627,-0.6818076968193054,1.0015619993209839,0.1740024834871292,-0.7661807537078857,-0.9198063015937805,-1.233541488647461,-0.3889288902282715,-0.6273128390312195,-0.7070517539978027,0.6687905192375183,-0.30850905179977417,0.2853662073612213,-1.6838033199310303,-0.5991696119308472,-1.158665418624878,-0.03331034258008003,0.5007609724998474,-0.11909393966197968,-0.6901774406433105,1.1300623416900635,-0.1238318458199501,-0.24943168461322784,0.44536978006362915,0.8002999424934387,-1.8245445489883423,0.028639156371355057,0.6905255913734436,-0.4003439247608185,0.36169058084487915,0.05366078391671181,0.22283338010311127,0.22668254375457764,-0.45816749334335327,-0.47325047850608826,-0.2438012659549713,0.5168355703353882,0.4194208085536957,-1.692553162574768,0.4666803777217865,1.050277829170227,0.39347827434539795,2.1389498710632324,-0.6895041465759277,-0.38583433628082275,-0.2815834879875183,-1.4535266160964966,-0.018819356337189674,-0.04487953707575798,-0.10879255086183548,-1.2666317224502563,-0.04105760157108307,1.3169173002243042,0.915378749370575,0.493782103061676
挡住,-1.1972566843032837,1.1147162914276123,-0.7400659918785095,-0.09581486880779266,-0.522584080696106,0.6905916929244995,-0.5238487720489502,1.8168097734451294,-1.2261371612548828,0.007893644273281097,0.6513174176216125,1.0922974348068237,0.2860037088394165,0.12484767287969589,0.09080871939659119,-1.9518885612487793,0.2840566039085388,0.21614862978458405,0.18537698686122894,0.359963595867157,0.19846224784851074,-0.5396628379821777,-0.6479118466377258,0.034922800958156586,-0.6371769905090332,-0.5784056782722473,-1.7416393756866455,0.032118480652570724,-1.7385852336883545,-0.6523749828338623,-0.8713226318359375,-1.4073867797851562,-0.8081476092338562,-1.1442397832870483,0.9258385300636292,0.4512999951839447,0.6309190988540649,0.15900292992591858,-0.8495380282402039,0.3168991804122925,-0.21245497465133667,0.3706216812133789,0.22925327718257904,-0.06276313215494156,-0.8456797003746033,0.6126555800437927,-0.08769603818655014,-0.1284937709569931,0.7313399314880371,-0.2833133637905121,0.3558734953403473,-0.407995343208313,-0.011238080449402332,0.1928759515285492,0.1217036321759224,0.2870104908943176,1.3331135511398315,0.4857405424118042,-1.6052130460739136,-0.2892453968524933,0.1783805787563324,-0.8179293870925903,0.38774386048316956,-1.0652413368225098,-0.7342628240585327,-0.9283251762390137,1.8481029272079468,0.7010959386825562,-0.571242094039917,0.6297434568405151,0.06758707016706467,-1.2531230449676514,1.0089569091796875,-0.9920431971549988,-0.4222625195980072,0.2211586833000183,-0.35422345995903015,0.3272302746772766,0.45590806007385254,-0.05474796146154404,-1.0953667163848877,0.16367550194263458,-0.34579092264175415,-0.09867441654205322,-0.6897487044334412,-0.9811380505561829,-0.12310174852609634,0.3477836847305298,-0.44786539673805237,0.998662531375885,-0.7062823176383972,-1.2335596084594727,-0.3703753352165222,-1.9780457019805908,0.1502932608127594,0.6938631534576416,0.19327136874198914,-0.008110263384878635,1.3241766691207886,0.5561488270759583,0.08665389567613602,1.0307204723358154,0.18810422718524933,0.07882554829120636,-1.3776485919952393,1.1354185342788696,0.5841699838638306,0.4117671549320221,-0.027458319440484047,0.7115325927734375,0.17569062113761902,-0.30777689814567566,-0.21966838836669922,-0.6485504508018494,-0.362959086894989,-0.06223905831575394,-0.7665719985961914,0.28566083312034607,-0.1689094752073288,0.02824937179684639,-0.8010149598121643,1.0851081609725952,0.5759530663490295,0.9000577926635742,-1.4498772621154785,-0.5556396245956421,-0.47845950722694397,0.5813722014427185,0.5826846361160278,0.9734609127044678,0.18193545937538147,0.40087011456489563,1.197852373123169,0.7262452244758606,0.4074206054210663,0.7828112840652466,-0.13076035678386688,0.9500241279602051,0.3209540545940399,0.3985219895839691,-0.30862367153167725,0.08136855065822601,-1.353527545928955,0.05218251794576645,0.27870801091194153,-0.80757075548172,-0.2612764239311218,-0.7421116232872009,0.3263477683067322,-0.8386939764022827,-0.3102053999900818,-0.13547885417938232,-0.11869139969348907,-0.1645275056362152,-1.416281819343567,0.37462082505226135,0.6152381300926208,0.6038597822189331,0.9163858890533447,0.5504127740859985,-0.07940325140953064,-0.46572965383529663,0.16907989978790283,-1.2500636577606201,-0.05796234682202339,0.3695624768733978,0.12031824141740799,-1.1652928590774536,0.9428427219390869,-0.7447587847709656,0.036902472376823425,-0.07371818274259567,-1.2403616905212402,1.6829371452331543,-0.9282687902450562,-0.7474406957626343,-0.36631250381469727,0.255281925201416,0.37311598658561707,0.38573840260505676,0.06266513466835022,0.5827931761741638,-0.19520439207553864,-0.5454425811767578,-0.8523094654083252,0.07195258140563965,-0.7955507636070251,-0.041517384350299835,-0.4940207302570343,-0.992112934589386,0.5154580473899841,-0.4391968250274658,0.11033539474010468,-0.23624174296855927,0.17959482967853546,-0.19524525105953217,0.6123625636100769,-0.8013867735862732,-0.8159367442131042,0.6657859683036804,1.7478179931640625,1.3764673471450806,-0.29799413681030273,0.3850310146808624,-0.23899342119693756,-0.8273348212242126,0.22248192131519318,1.1267963647842407,-1.0845268964767456,-0.36772826313972473,-0.2292330265045166,0.20123200118541718,-0.3218235373497009,0.16355589032173157,0.1179443970322609,0.6800127625465393,0.5010436773300171,-0.10178802907466888,-1.0092190504074097,-0.33956509828567505,0.2097790539264679,0.7922408580780029,-1.1323338747024536,0.06011858955025673,0.394102543592453,-0.5690696239471436,-0.5357633233070374,1.2141029834747314,1.0544604063034058,-0.7539157867431641,-0.5657216906547546,0.44449523091316223,-0.4774358570575714,-0.7730178833007812,-0.5850526690483093,0.14504368603229523,-0.30961713194847107,0.7857260704040527,0.6550843119621277,-0.6829580068588257,1.1598327159881592,0.1652916967868805,-1.2968515157699585,-0.7014858722686768,-0.6856775879859924,1.3155174255371094,-0.28642112016677856,2.394310235977173,0.35987618565559387,0.15445081889629364,-1.3622550964355469,0.19015902280807495,0.3174038827419281,1.1359422206878662,0.6107580065727234,-0.40159597992897034,-0.22067810595035553,-0.8905918002128601,0.581214964389801,0.3074071705341339,-0.2979382276535034,-0.1558527797460556,-0.7091963887214661,0.8465558290481567,-1.149768590927124,-0.9594814777374268,0.7390280365943909,0.9827064275741577,-0.5166139006614685,-0.16405043005943298,-0.9699132442474365,-1.5490846633911133,-0.35621216893196106,0.06891381740570068,0.8081722259521484,0.2809617817401886,0.1915016770362854,-0.3011719286441803,-0.387428343296051,-0.10505873709917068,0.28051403164863586,0.533958911895752,1.241523265838623,-0.7455542087554932,1.0668394565582275,-0.8545322418212891,0.34423020482063293,0.29443544149398804,-0.698815643787384,0.303682416677475,-2.5429275035858154,0.23693405091762543,0.8784857988357544,-0.20141398906707764,-0.4450012743473053,1.217000126838684,-0.1784568876028061,0.48582538962364197,1.2243897914886475,-0.45051831007003784,-0.5072256922721863,0.9091547131538391,0.19859901070594788,0.8453647494316101,0.08895333111286163,-0.36804723739624023,-0.029303863644599915,0.3774377405643463,-1.3137967586517334,1.49828040599823,-0.4793691635131836,-0.17790117859840393,-0.6002550721168518,-0.9562750458717346,-1.7734289169311523,0.8438650369644165,-0.8382287621498108,-0.23055551946163177,0.21250629425048828,-0.0799545869231224,-0.5865969657897949,0.5719828605651855,0.1332128942012787,0.04151169955730438,0.6111031174659729,0.7776905298233032,1.0568451881408691,0.776619017124176,0.3063478171825409,-0.22957943379878998,0.32831817865371704,-0.43115225434303284,1.1588069200515747,-2.519291877746582,-1.3159607648849487,-1.0102722644805908,0.561204731464386,1.596771478652954,0.4194517135620117,-0.0154827069491148,-0.04930221661925316,-0.6990124583244324,0.48910266160964966,-0.5746036767959595,-0.6838517189025879,-0.5384146571159363,0.12598326802253723,0.7218332886695862,-0.6618742942810059,-0.37463074922561646,-0.6546354293823242,0.03009602054953575,-0.5476749539375305,0.6302021741867065,-0.42292800545692444,-0.41364604234695435,0.3068837523460388,-1.2474249601364136,0.18082833290100098,0.9306880831718445,-1.4518182277679443,0.8760335445404053,-0.7130811810493469,0.04463233798742294,-0.4778001010417938,0.20265156030654907,0.396035760641098,1.2723499536514282,-0.21282221376895905,1.09295654296875,-0.5558636784553528,0.29778245091438293,-0.4856486916542053,0.07893116027116776,1.193265438079834,0.14774097502231598,-0.04542967677116394,0.5501643419265747,-0.9813541173934937,-0.90413498878479,0.695243775844574,-1.8856409788131714,-0.5658429861068726,-0.3959895074367523,0.6232625842094421,0.5011671781539917,0.8392767906188965,0.03920362889766693,-0.08478948473930359,0.12587526440620422,-0.40630874037742615,0.49839434027671814,-0.4554368853569031,-0.34367498755455017,-0.37291184067726135,-0.29505735635757446,-0.17163577675819397,-0.7165065407752991,0.11799979209899902,0.036333005875349045
到达,-0.5642758011817932,1.8628095388412476,-0.3663301467895508,-0.33422839641571045,1.27338445186615,0.02527914196252823,-0.9742530584335327,1.3716555833816528,-0.9283781051635742,1.3003932237625122,0.889337420463562,2.175042152404785,0.5457422733306885,-0.46749886870384216,-1.5503342151641846,-2.0656301975250244,0.3290727138519287,0.39363086223602295,-1.5618611574172974,-1.0459301471710205,2.2643096446990967,-3.0417540073394775,-1.5619242191314697,1.6488975286483765,0.43505558371543884,-0.058608703315258026,-3.7191827297210693,-2.1625683307647705,0.828938901424408,0.09740684926509857,-0.30163121223449707,-0.8466391563415527,-0.883751630783081,-0.5490747690200806,2.184807300567627,-0.3906796872615814,0.7969611287117004,0.7192234396934509,-0.09466817229986191,0.4312834143638611,0.9013804197311401,-1.5199756622314453,-1.8042171001434326,0.6265534162521362,-0.2603994309902191,-0.08025507628917694,2.8671553134918213,0.7517097592353821,0.37877994775772095,-0.3191978633403778,1.6307450532913208,1.215345859527588,0.9397615194320679,0.6970031261444092,-0.5459290742874146,-1.1004078388214111,1.1808862686157227,0.29077935218811035,-1.0638837814331055,-0.3576000928878784,-1.6278800964355469,-1.6659088134765625,1.030664086341858,-0.9594923257827759,0.45643389225006104,0.25803396105766296,0.9047985672950745,0.04189441725611687,-1.219273328781128,0.6084434986114502,1.755795955657959,-1.2227134704589844,0.20689794421195984,-0.17442040145397186,-1.8896414041519165,0.7052180767059326,-0.974000096321106,0.7692162394523621,-0.6955532431602478,1.9108330011367798,-1.4662996530532837,-1.003639817237854,1.5108747482299805,1.1469818353652954,-0.3627263605594635,1.5150456428527832,-0.20888057351112366,-0.1869119554758072,0.5667234063148499,0.27816930413246155,-1.1389341354370117,0.8779416084289551,0.12775295972824097,-0.10422781109809875,-0.05708666518330574,-1.5848139524459839,1.0154876708984375,-0.40248042345046997,0.6291519999504089,1.7679741382598877,-0.2516077756881714,1.2391165494918823,0.6673465371131897,0.5336729884147644,-0.5243567824363708,-0.08013707399368286,1.4197498559951782,3.2138495445251465,-1.3998522758483887,0.6953223943710327,-0.11493580043315887,1.5296082496643066,-0.538173258304596,-2.0557308197021484,-0.6592890024185181,0.5849020481109619,0.2835597097873688,-1.0502479076385498,-1.806773066520691,0.6504755020141602,-0.572675347328186,1.4614444971084595,-1.445549726486206,0.39802753925323486,-0.7238880395889282,-0.6509560942649841,2.8582537174224854,2.7698023319244385,0.6415538191795349,1.6737794876098633,2.519618272781372,0.7049742937088013,-0.11774290353059769,-0.505969762802124,1.5697742700576782,2.197312355041504,-0.4197617471218109,-1.6774307489395142,-1.556007981300354,-1.0912772417068481,-0.595398485660553,-0.641377866268158,-0.0454925075173378,-1.1594579219818115,2.306511878967285,-0.6208320260047913,1.3235430717468262,0.31028369069099426,0.14613300561904907,-1.0391366481781006,-1.6389906406402588,1.197669267654419,2.2318670749664307,-2.034900188446045,-2.629441976547241,-0.3818604648113251,0.9079535603523254,-0.40538761019706726,-0.3156137466430664,0.040199730545282364,1.4746333360671997,0.4675848186016083,1.3530818223953247,-2.6388983726501465,-1.7606121301651,-1.3044894933700562,-1.8091362714767456,-2.4566216468811035,0.5249370336532593,-1.739586591720581,0.7109553813934326,-0.48788392543792725,1.0710238218307495,0.5957227349281311,-0.19719849526882172,0.7011657357215881,1.0749895572662354,-0.7408711910247803,1.8401410579681396,0.16953520476818085,-0.7625226378440857,-0.9898589253425598,-1.0189965963363647,-0.7047147750854492,0.9010134935379028,-0.7166119813919067,0.45815616846084595,-1.901215672492981,-0.16016918420791626,-2.132636308670044,0.7249878644943237,-0.7901340126991272,0.4525580108165741,-1.552014946937561,1.2866840362548828,-0.10575292259454727,2.0461153984069824,1.4267373085021973,0.05180399492383003,-0.19692829251289368,-0.3901935815811157,-0.35390913486480713,1.2262864112854004,-0.16175003349781036,-2.510528564453125,-2.522714853286743,-1.5099271535873413,0.26951247453689575,-0.01729402132332325,1.1267682313919067,0.10316640138626099,1.1866410970687866,0.08691797405481339,1.4143917560577393,-0.6126685738563538,-0.908907949924469,-1.361819863319397,0.2656680643558502,0.9548290371894836,-1.4169065952301025,-0.9914918541908264,-0.31092554330825806,-0.03403617814183235,0.1752474308013916,1.5922300815582275,1.1149321794509888,-1.3812874555587769,-0.3526918590068817,3.118218183517456,0.4912651479244232,-1.8199012279510498,1.7314316034317017,1.2280313968658447,0.5267974734306335,-0.9560496807098389,0.0021192936692386866,-0.5051916241645813,0.04503878578543663,0.5838800072669983,0.430507630109787,1.8981343507766724,-0.9100838899612427,-1.2768635749816895,-0.1862604171037674,1.5595312118530273,1.6590245962142944,-0.49271664023399353,1.6955108642578125,0.3303344249725342,-0.6904784440994263,-1.9973887205123901,-0.6113249659538269,-0.13118554651737213,0.3194577693939209,-0.10389691591262817,-0.3454248309135437,-0.8704555034637451,0.8502920269966125,-0.8941783308982849,0.48274150490760803,1.6690226793289185,1.63276207447052,-2.5998055934906006,1.0577658414840698,-1.7071224451065063,-0.8941837549209595,0.536873996257782,0.2571333944797516,0.5861253142356873,-0.27237287163734436,2.445984125137329,-2.233013868331909,-0.2957049012184143,0.21400666236877441,2.2481069564819336,1.9409149885177612,0.39665481448173523,-0.8863587975502014,-2.127542734146118,0.4838125705718994,2.1338961124420166,0.20097266137599945,-0.12409600615501404,-2.1019110679626465,-0.4609684944152832,-0.7737125754356384,0.5447739362716675,0.9210237860679626,-0.6662076711654663,0.030979784205555916,-1.575685977935791,1.9133117198944092,1.2067129611968994,0.9578226804733276,-1.333145260810852,-0.966942548751831,1.0346465110778809,0.7513294219970703,0.4663653075695038,1.6371915340423584,0.023161232471466064,-0.7794280648231506,1.2804827690124512,2.682936906814575,-0.2986578941345215,0.03095492534339428,-0.38034334778785706,1.0353693962097168,-0.65813809633255,1.0063546895980835,-0.11874040961265564,-0.4626144766807556,1.1206529140472412,2.3173844814300537,-1.0554064512252808,-1.2865369319915771,-0.5264500975608826,2.267070770263672,-0.940011203289032,0.4266982078552246,-1.381515622138977,0.730415940284729,-2.0139098167419434,-1.7375273704528809,0.41807863116264343,1.7889937162399292,1.2459372282028198,1.7342805862426758,-0.03224773332476616,0.038557227700948715,0.28514477610588074,-0.818209707736969,0.6866637468338013,-1.1260160207748413,0.04901723191142082,-0.9865903854370117,0.5622078776359558,1.8600839376449585,-1.0341912508010864,-0.09145744144916534,-1.2368582487106323,-0.7248519659042358,-1.269727349281311,-0.3122424781322479,-0.149408221244812,-0.3653195798397064,1.4235998392105103,1.1080355644226074,0.2854193449020386,0.12215212732553482,-1.561476230621338,-0.06957270950078964,-1.6082528829574585,1.9782721996307373,-0.7097024321556091,2.683020830154419,0.37429311871528625,-0.8557012677192688,0.27435120940208435,0.4865441918373108,2.67272686958313,0.02497974783182144,-0.5521857142448425,-1.3834617137908936,0.018111614510416985,-0.9357535243034363,1.0516586303710938,2.003849506378174,-0.6806710958480835,-0.10664793103933334,-0.8956659436225891,0.23213544487953186,-0.3599860668182373,1.267442226409912,0.3576338291168213,-0.20926783978939056,1.2836263179779053,1.5475236177444458,0.5704915523529053,-1.4179158210754395,1.1531821489334106,-2.57655668258667,-0.9122582077980042,-0.26426324248313904,-2.4416544437408447,-1.9953736066818237,-0.41565409302711487,-1.449036717414856,0.8187411427497864,-0.7505357265472412,-2.076005697250366,3.7830655574798584,-0.9649938941001892,0.29198044538497925,0.2524154782295227,-0.09818767011165619,-0.13062633574008942,-0.4030598998069763,-1.2722041606903076,0.3976821303367615
想,1.6595619916915894,1.0110360383987427,0.5118355751037598,-2.235074996948242,0.8887863159179688,-1.4805777072906494,1.765932559967041,-0.22318308055400848,-1.0168585777282715,0.3905137777328491,-0.6573622822761536,-1.076078176498413,0.7035481333732605,-0.5013400912284851,-1.5528613328933716,-1.8878709077835083,-2.869739532470703,1.4821984767913818,1.0535551309585571,-0.11711230129003525,-1.0787444114685059,-1.5645263195037842,-1.3140175342559814,0.03306231647729874,0.02986154891550541,0.21190953254699707,0.6025725603103638,-0.9063485860824585,0.21748696267604828,-0.19111265242099762,0.7482718229293823,0.03773016482591629,1.061921238899231,0.49874910712242126,-0.1104615181684494,-0.3315430283546448,-1.1548645496368408,-0.029069820418953896,0.9909470081329346,0.04245094582438469,0.5561901330947876,-1.210949182510376,1.6838269233703613,-0.3693697452545166,-1.1864768266677856,-0.04371842369437218,0.4546453058719635,-0.2534823715686798,0.44730883836746216,1.393255352973938,1.762723445892334,1.191642165184021,0.3173709511756897,0.5039052963256836,1.0362483263015747,-0.5689525604248047,1.4079737663269043,1.475514531135559,1.5788395404815674,2.015690326690674,0.9796063303947449,0.7627933621406555,0.754666805267334,0.7318827509880066,1.126237154006958,-2.2912983894348145,0.28891226649284363,-0.6745887398719788,-1.673291563987732,0.2759207487106323,-1.6306054592132568,0.014402219094336033,2.237011671066284,0.28804150223731995,1.1171573400497437,-1.3473671674728394,-1.3391035795211792,0.2704446315765381,0.1496705859899521,-0.27814409136772156,-3.1088249683380127,-0.04111834615468979,0.17478720843791962,0.3453435003757477,-0.216138556599617,-0.4361121654510498,-0.24098432064056396,-0.24322520196437836,-1.677339792251587,-1.8975800275802612,-0.3490331470966339,0.6467953324317932,0.293100506067276,-0.7598222494125366,0.2019970864057541,-2.0767388343811035,-0.253135085105896,1.1887916326522827,-0.20799200236797333,1.7164943218231201,1.158413052558899,0.5861779451370239,0.12878304719924927,-1.294769525527954,0.7441139221191406,0.41667142510414124,-0.1735614538192749,-0.16155573725700378,0.8083600997924805,1.224821925163269,-0.2506965398788452,0.7392688393592834,-0.764879584312439,1.594000220298767,1.4173566102981567,-0.5007587671279907,-1.1553337574005127,-0.030230190604925156,0.3707313537597656,-0.3362741470336914,-2.061614751815796,-0.3341297209262848,1.6188395023345947,-1.3624153137207031,-3.186868667602539,-1.2511788606643677,1.220131278038025,-0.257548451423645,0.4964185357093811,-0.8405628204345703,-0.1697826236486435,0.5598195195198059,1.0806715488433838,-0.1542465090751648,2.241610288619995,0.5000719428062439,-0.7236558198928833,1.7071175575256348,1.6296687126159668,-0.56085205078125,-0.597815990447998,-0.8683011531829834,-1.1081383228302002,0.2752349376678467,1.090949296951294,-1.1843879222869873,0.7882028222084045,1.525689959526062,0.5047178864479065,-0.4823830723762512,-0.6753274202346802,-1.1899869441986084,-0.8392557501792908,0.07044041901826859,-1.25312340259552,0.17188283801078796,-0.6874692440032959,0.26698532700538635,1.2099632024765015,1.056516170501709,-0.11960558593273163,0.5494463443756104,1.3752973079681396,-0.8913590312004089,-0.465693861246109,-0.7313681244850159,-0.49037954211235046,0.8233453035354614,-0.6618518829345703,0.3530611991882324,-0.16061006486415863,0.6086293458938599,1.764494776725769,0.8357815146446228,0.47020864486694336,0.18072229623794556,0.5381113290786743,-0.37207120656967163,-1.1917794942855835,0.9933888912200928,0.812574565410614,-0.5135535597801208,-0.5566280484199524,-0.3080688416957855,0.8359159231185913,0.7009701728820801,0.8122031688690186,0.5425055623054504,0.0013381780590862036,0.3240613043308258,1.5957282781600952,-0.8373448252677917,-0.6404520273208618,0.7241120338439941,1.4323586225509644,0.9071568846702576,1.3580050468444824,-0.5352094769477844,0.04568222537636757,0.2963295876979828,-0.40881386399269104,0.20272107422351837,0.9871230125427246,2.0096070766448975,0.38276150822639465,1.8672147989273071,0.8363350033760071,-1.9342238903045654,-0.5006763339042664,0.11194371432065964,1.8382339477539062,-0.15327179431915283,0.9392078518867493,1.6383986473083496,0.8864577412605286,0.5413442850112915,0.0027111032977700233,1.0139930248260498,-1.9101887941360474,-0.5605701208114624,-0.03490564972162247,0.8550615906715393,1.4264785051345825,-1.0784008502960205,0.2076997011899948,-0.6578723788261414,-0.3145799934864044,-0.8629660606384277,-0.26457810401916504,1.298602819442749,0.33029311895370483,-2.011716842651367,-0.23788490891456604,1.3274285793304443,-0.32134032249450684,1.927486777305603,1.804796576499939,-0.8002287149429321,-1.054892659187317,-0.46866002678871155,-0.39469075202941895,-0.9085156321525574,-1.7786937952041626,-0.16686378419399261,-2.9072630405426025,1.1058001518249512,-1.8093276023864746,2.209327220916748,-2.0927774906158447,0.5591825246810913,-0.8611708283424377,0.9343281388282776,-0.2376994788646698,-1.0016560554504395,-0.6117899417877197,0.7352163195610046,-1.1354918479919434,-1.5997726917266846,2.4385569095611572,0.64857017993927,1.6162363290786743,-1.7654032707214355,0.08314208686351776,-1.4439996480941772,0.10508405417203903,1.6680707931518555,1.129225254058838,1.4799094200134277,0.5662987232208252,-0.7343317866325378,0.028680017217993736,-1.1845078468322754,1.0299266576766968,0.8947575688362122,0.08672409504652023,2.4389657974243164,0.5270641446113586,0.41071808338165283,0.2585087716579437,-2.5029759407043457,-0.2605985403060913,0.8311062455177307,-0.578445315361023,1.4231390953063965,-0.5397413372993469,-0.21917025744915009,1.1665526628494263,-1.6659069061279297,0.2119031548500061,0.794093132019043,0.6344531774520874,-0.8937402963638306,-0.9302128553390503,0.4294169545173645,-1.966453194618225,2.907665729522705,2.21109676361084,1.2715563774108887,-0.8465415239334106,0.6590562462806702,-1.8341898918151855,-0.8961107730865479,0.4635213315486908,-0.6254843473434448,0.619008481502533,-0.3687991499900818,0.38570719957351685,-1.1890348196029663,1.1830753087997437,1.4031898975372314,1.0892452001571655,-0.5791455507278442,-0.1704646199941635,-1.1978092193603516,-1.0294559001922607,-0.6248214244842529,0.46357613801956177,0.38596463203430176,-0.9561424255371094,-0.1877211183309555,2.9416933059692383,-0.9879403710365295,1.38323175907135,-1.6079225540161133,-2.050806760787964,-0.19735758006572723,-0.7274296283721924,-0.9529685974121094,-0.2071506530046463,-1.9375301599502563,-2.0993266105651855,1.2846022844314575,-0.022390784695744514,-1.1252057552337646,-1.4215166568756104,-1.669448733329773,-0.19989608228206635,-1.7265238761901855,-0.3628115952014923,0.9630640149116516,-1.970211386680603,-0.39944830536842346,1.4979816675186157,0.397512286901474,0.5976990461349487,-0.5482194423675537,-1.1076854467391968,0.30299410223960876,-1.6483914852142334,0.5272279381752014,0.13099946081638336,1.4811431169509888,-0.19389761984348297,1.8994309902191162,-0.6591936349868774,-0.500617504119873,-0.25932323932647705,0.4253722131252289,-1.4914872646331787,-0.353410005569458,-1.7522187232971191,-0.4549053907394409,-0.9109438061714172,-1.2122093439102173,-2.303983211517334,0.9564176797866821,0.9229192733764648,-1.1267116069793701,0.41542190313339233,0.46853822469711304,-0.463573157787323,-0.4048480689525604,-1.8881385326385498,-1.4449713230133057,1.7499865293502808,-0.0043128859251737595,0.35097381472587585,1.2018622159957886,0.6343238353729248,0.9974647164344788,1.049272060394287,-1.6588560342788696,0.7048001885414124,-0.24190488457679749,1.1244574785232544,-0.1470475047826767,0.20923122763633728,-0.3407958745956421,-0.5244648456573486,1.002551555633545,-1.5051593780517578,0.9505316019058228,0.7367949485778809,-1.003967046737671,-0.7104117274284363,0.42853084206581116,1.3035537004470825,1.1280934810638428,-0.20101240277290344,0.33996960520744324
容易,0.13118624687194824,-2.413954973220825,0.05059278383851051,-0.14758296310901642,0.01253291592001915,0.2841433882713318,-0.04389598220586777,-2.1134021282196045,-1.2355799674987793,-1.6972922086715698,-0.4680253565311432,-1.4241489171981812,1.0382424592971802,-0.10709524154663086,-0.10874248296022415,-0.8444116115570068,0.02001088857650757,-0.6174198389053345,2.2306759357452393,-2.081112861633301,-1.6100897789001465,-0.14227503538131714,-2.823974370956421,-0.10014181584119797,-0.7692810893058777,0.3080443739891052,-0.10563974827528,1.2047401666641235,0.05710148811340332,-0.4573718011379242,0.14512760937213898,-0.8600318431854248,-1.102304220199585,1.419037103652954,-0.2369195818901062,1.579440951347351,-0.6446061134338379,1.0854568481445312,2.9647767543792725,0.031005414202809334,-1.1407661437988281,-1.8602707386016846,1.7108280658721924,-1.0856635570526123,-0.5507171154022217,0.975745439529419,0.6770817637443542,0.1932079792022705,0.6760686039924622,1.5870285034179688,-1.4278936386108398,-0.406662255525589,-1.2485629320144653,2.485689163208008,0.250669002532959,-0.8036262392997742,0.03946880251169205,0.3296835124492645,1.958604097366333,2.044282913208008,-1.5026166439056396,1.5768768787384033,-1.0069342851638794,2.1190388202667236,-0.5929719805717468,-2.274488687515259,0.03300343081355095,0.0771891176700592,-0.24011839926242828,1.873175859451294,1.1624598503112793,0.577941358089447,-0.44019046425819397,-0.6085591912269592,0.9204336404800415,-3.1876018047332764,0.20721860229969025,0.05914544686675072,-1.575385332107544,1.7448805570602417,0.30118685960769653,-0.15053024888038635,-0.8735533952713013,-0.6193021535873413,-0.9573108553886414,-1.4640045166015625,0.442533016204834,1.5032979249954224,0.6585184335708618,0.7941595315933228,0.12403029948472977,0.6472527384757996,1.2044442892074585,1.1012623310089111,1.2973175048828125,-0.25181201100349426,-0.3455958366394043,0.331026166677475,-0.5433943867683411,-0.0816807970404625,0.027795255184173584,3.4765267372131348,0.5498607754707336,0.9121987819671631,-1.4070122241973877,1.7276448011398315,0.20436495542526245,-1.3309180736541748,0.5627305507659912,-1.8766818046569824,0.6149172782897949,-0.7031947374343872,-2.3416380882263184,-0.5032634735107422,-0.7371917366981506,0.10843781381845474,1.3797193765640259,0.4600992798805237,-0.6127132177352905,0.03861459344625473,-1.0916391611099243,-0.31634026765823364,-0.39234399795532227,0.26394855976104736,-1.9201581478118896,-1.4714187383651733,0.9152604341506958,1.605704665184021,2.064897060394287,-1.5079854726791382,-0.01189667172729969,0.6616056561470032,-0.6318526864051819,0.5016562938690186,-0.17620593309402466,-0.05086692050099373,-0.045271292328834534,-1.2948899269104004,1.0336319208145142,-1.0081229209899902,-1.8923577070236206,-1.7886103391647339,-1.8018821477890015,-0.7540496587753296,-0.6366440653800964,-0.9170197248458862,-1.7008514404296875,1.1154831647872925,0.108920156955719,-0.8576350212097168,1.3294974565505981,2.449068784713745,-1.9656790494918823,0.28882646560668945,-0.135285884141922,0.6038610935211182,-0.33695656061172485,-0.8476883769035339,2.0803465843200684,-1.0057764053344727,-1.6608506441116333,-0.9018796682357788,-1.3374847173690796,-1.4170656204223633,0.9626684188842773,0.3956575095653534,-0.25630342960357666,2.849782705307007,0.04552348703145981,0.7267499566078186,0.9590784311294556,0.4770829975605011,-0.9062808752059937,-0.20728416740894318,1.285658359527588,-2.30426287651062,0.6845338344573975,-0.3841884732246399,-0.9931426048278809,0.6077919006347656,0.3185107111930847,1.4441949129104614,-2.5967607498168945,-1.592726469039917,-0.8514256477355957,-0.0447334386408329,-0.5606451630592346,-0.21973733603954315,-0.47589007019996643,-0.145016610622406,0.7897861003875732,1.8049415349960327,0.5156372785568237,-0.26933029294013977,0.2189154028892517,0.38434121012687683,0.12855783104896545,-1.518960952758789,-0.28300178050994873,-0.07344216853380203,-1.6712833642959595,1.1148250102996826,1.0024770498275757,0.8822195529937744,-2.236419677734375,0.1488943248987198,-0.5761290192604065,-1.8605964183807373,1.3427135944366455,1.7437973022460938,0.5128016471862793,1.8188002109527588,0.46610069274902344,0.7858576774597168,-1.513722538948059,0.9930325746536255,0.6275070905685425,-1.9366930723190308,-2.6363368034362793,0.018767759203910828,1.3599119186401367,0.7677819728851318,1.5530740022659302,-0.0281988475471735,-1.41259765625,0.37433338165283203,-0.6124879121780396,1.0928103923797607,1.0555638074874878,-0.05652808025479317,2.0138580799102783,-1.61138916015625,0.03052647039294243,-0.8285672068595886,-2.1947884559631348,1.8294111490249634,2.7629358768463135,0.19274961948394775,-1.6718939542770386,-0.9562250971794128,1.7839467525482178,0.43815797567367554,-1.242047667503357,0.3530859351158142,-3.5908846855163574,2.014329195022583,0.7094859480857849,1.7029905319213867,-0.6245896816253662,2.0490493774414062,-0.7592712044715881,0.21712304651737213,-1.4960362911224365,0.6446515917778015,1.3615648746490479,0.7989583015441895,0.42546528577804565,1.5644645690917969,2.908104181289673,0.012892298400402069,0.10118010640144348,-0.06924882531166077,0.504779577255249,1.2423293590545654,-0.8243844509124756,1.5217549800872803,1.191811203956604,-1.0764617919921875,-0.7553464770317078,-0.6911183595657349,-1.6790403127670288,-1.2322486639022827,0.18096858263015747,-1.606033444404602,-0.6652102470397949,0.9303178191184998,1.8953914642333984,0.6442055702209473,-0.12253689020872116,0.2597130835056305,0.7956511974334717,-0.6813950538635254,0.7673129439353943,-0.9415237903594971,0.9129115343093872,0.943459153175354,1.1458451747894287,0.3783000409603119,-2.920454502105713,-0.7995260953903198,-3.217888593673706,-1.2356164455413818,-0.29330408573150635,-0.07538027316331863,-0.5104683041572571,4.201621055603027,-3.047823429107666,1.2907800674438477,1.3765416145324707,1.501322627067566,-0.4542151689529419,1.4499799013137817,0.09205325692892075,-1.0256677865982056,-0.4659670293331146,-1.0534919500350952,-0.32185253500938416,-2.753276824951172,-0.7805082201957703,0.3416585326194763,0.7774652242660522,-1.5460401773452759,1.0238286256790161,-2.8585522174835205,-0.82908695936203,0.5170911550521851,-1.8564846515655518,1.5562807321548462,1.3628363609313965,0.07416946440935135,0.9458763599395752,-1.9887605905532837,1.8485808372497559,-2.510181188583374,-3.098493814468384,-1.4724832773208618,-1.7578994035720825,-1.1554034948349,-0.8011474013328552,-2.4841012954711914,0.3128403425216675,-0.5962445139884949,0.5242515802383423,-0.36013782024383545,-0.93723464012146,0.06702877581119537,0.3376959562301636,0.7027255892753601,0.5567933917045593,-0.676149845123291,-0.9850054979324341,-0.7657392024993896,1.0337040424346924,0.5043390393257141,1.0186887979507446,-0.05581562593579292,-0.8747603893280029,-1.6900569200515747,1.2040880918502808,0.5386984348297119,-1.5709648132324219,0.9924686551094055,-1.1882888078689575,-0.3744218647480011,0.41126659512519836,0.5527283549308777,0.2961755096912384,0.5303930640220642,-0.31679052114486694,-0.3895125389099121,-1.40229332447052,0.6328485608100891,-2.936330795288086,-2.6467127799987793,0.341958224773407,0.743074893951416,-1.114022970199585,0.037331923842430115,1.3674570322036743,-0.3241595923900604,-0.9207260012626648,-0.3180798292160034,0.2754426896572113,0.5430482625961304,1.1346570253372192,1.445949912071228,0.3716440796852112,1.3256241083145142,-1.1617635488510132,0.6512065529823303,0.01950402930378914,0.6744461059570312,-0.6109581589698792,-0.757779061794281,2.906689405441284,0.7633442878723145,1.2716654539108276,0.368643194437027,0.41920509934425354,0.31520387530326843,-0.829329788684845,0.5647472739219666,1.105887770652771,-1.9453747272491455,-1.4008164405822754,-1.8488527536392212,-1.2640864849090576,1.642262578010559,0.6575139164924622,1.1637728214263916
障碍物,0.4996626675128937,-1.220879077911377,0.741637110710144,0.47460392117500305,1.0791865587234497,0.6919507384300232,-1.0898853540420532,1.0025008916854858,-0.03084513545036316,-0.4204651415348053,0.4531605541706085,0.42584121227264404,-0.48295536637306213,0.5837668776512146,-1.0868085622787476,-0.9922100305557251,-0.3400932550430298,0.984540581703186,0.8887403011322021,0.7348362803459167,-0.803175687789917,-0.10730993002653122,-1.351054310798645,-0.6652487516403198,0.35259097814559937,0.40016788244247437,-1.2840526103973389,-0.8318698406219482,-0.4156520366668701,-0.29249024391174316,0.1779651939868927,-0.6074649095535278,-0.1377509981393814,-0.4253077507019043,0.8157685399055481,0.46860334277153015,-0.041220277547836304,0.1630411297082901,-0.22807306051254272,0.41611745953559875,0.012153982184827328,-0.43625712394714355,0.6305094361305237,0.3543308675289154,-0.4151184856891632,-0.10563220828771591,0.2859770357608795,0.29076865315437317,0.022072726860642433,0.8850914239883423,0.48939192295074463,0.8455291390419006,-0.35351884365081787,-0.6925115585327148,-0.44617801904678345,-0.4414583146572113,0.10232190787792206,0.5380153656005859,-0.2263893336057663,-0.237984761595726,-0.08454696089029312,0.10214478522539139,0.8103771805763245,-0.10528875142335892,0.1483699381351471,-1.3503321409225464,0.9536402225494385,-0.3708001673221588,0.41081953048706055,1.6688604354858398,0.6140616536140442,-0.8081846833229065,0.34892526268959045,0.2153182029724121,-0.00043754305806942284,-1.2172267436981201,-0.11049435287714005,0.2960309088230133,-0.06083240732550621,-0.14151796698570251,-1.0309263467788696,-0.4384922385215759,-0.563153862953186,-0.8893449306488037,-0.029341770336031914,-1.1371477842330933,0.8048732876777649,0.6791294813156128,0.9141607284545898,-0.22212953865528107,-0.49539875984191895,-0.29479265213012695,0.7945265769958496,-0.18005411326885223,-0.15517175197601318,-0.04398069158196449,0.03278433531522751,0.46307361125946045,0.4913063645362854,0.4862777292728424,-0.05635024979710579,1.1816381216049194,-0.5481672286987305,0.47819945216178894,-1.072518229484558,1.2030349969863892,0.42564278841018677,-0.01996777206659317,0.042282331734895706,0.3069773316383362,0.21181124448776245,-0.14385226368904114,-0.17453539371490479,-1.2247623205184937,0.4019426107406616,0.37750372290611267,-0.018157415091991425,-0.02214851602911949,0.4021114110946655,-0.21638531982898712,-0.6486798524856567,0.787348210811615,0.6636108160018921,0.235727921128273,-0.5002967119216919,-0.18945719301700592,0.2427034080028534,1.0294864177703857,0.07499019801616669,0.46651482582092285,1.1151819229125977,-0.4955662190914154,0.701451301574707,0.5710874199867249,-0.5295233726501465,0.02107113227248192,-0.8452740907669067,0.05880646035075188,0.4977504312992096,0.052713215351104736,-0.667090654373169,-1.8189198970794678,-0.2635914981365204,-0.3766377866268158,0.7860715389251709,-0.057025011628866196,-1.3440804481506348,1.083290696144104,0.7372463345527649,-0.5114986896514893,0.16830800473690033,0.47510090470314026,-0.20782358944416046,-0.23951882123947144,-0.11709050089120865,-0.9513150453567505,-0.43991029262542725,-0.9616308808326721,0.02808581478893757,0.5226283073425293,1.2018924951553345,0.36507269740104675,-0.5828958749771118,-0.47689786553382874,-0.7933440804481506,-0.7476422190666199,0.5710776448249817,-0.43038246035575867,0.642258882522583,-1.325323462486267,0.20264285802841187,-0.0018208973342552781,-0.9627657532691956,0.5993176102638245,0.1916879266500473,-0.8188369870185852,0.49497395753860474,0.8104926347732544,0.3636336028575897,0.011720685288310051,0.11705075204372406,0.04733403027057648,-1.176275372505188,-0.5441473722457886,0.28744205832481384,-0.17016303539276123,0.14325696229934692,-0.4358721971511841,1.1940945386886597,-1.5090742111206055,1.1709610223770142,0.7421411871910095,0.4709393084049225,0.37055274844169617,0.7569659948348999,-0.5843276381492615,1.5689356327056885,0.7674972414970398,-0.8295102119445801,-0.6364480257034302,0.46729883551597595,0.8075245022773743,-0.32725027203559875,0.26602211594581604,-0.5565194487571716,-0.9284249544143677,-0.34971654415130615,-0.2755180597305298,0.2810707092285156,0.3679180443286896,1.1922285556793213,1.0603530406951904,0.5983820557594299,0.5800887942314148,0.5009714961051941,0.4396060109138489,0.1612238585948944,-0.27006796002388,-1.0096824169158936,-0.051297303289175034,1.231464147567749,0.3546425402164459,-0.44557154178619385,-0.11437730491161346,-0.0009194588055834174,0.0834304615855217,-0.949005663394928,0.20593154430389404,1.3159855604171753,-0.9469179511070251,-0.29778099060058594,-0.5103907585144043,0.3951515257358551,-0.08801257610321045,-0.8068590760231018,0.3920362889766693,0.11857175827026367,0.2870800793170929,0.7489107251167297,-0.6136796474456787,0.5773741602897644,-0.43202245235443115,-1.4248183965682983,0.06493877619504929,0.06205257773399353,1.6153550148010254,0.3989904224872589,1.110471487045288,-0.28403663635253906,0.4075580835342407,-0.8481959104537964,-0.24500416219234467,0.545184314250946,-0.10628451406955719,0.373564213514328,0.7322994470596313,-0.4022257924079895,-0.4421606659889221,0.32063746452331543,0.5947937965393066,0.4088462293148041,0.20002920925617218,-0.8720465302467346,0.6438344120979309,-0.3465205430984497,-0.6035515069961548,0.3095262348651886,0.1327170878648758,0.5987350344657898,0.3048193156719208,-0.8864580988883972,-0.914838433265686,-0.9068852663040161,0.5962740182876587,-0.08520695567131042,0.3224840462207794,0.12041164934635162,-0.9336994290351868,-0.3294235169887543,0.37180519104003906,0.005532490089535713,0.20433738827705383,0.8013469576835632,-0.17270582914352417,0.5040088295936584,-0.8255994915962219,0.3669058084487915,0.4383968412876129,-0.7727472186088562,0.0850222110748291,-1.4760171175003052,0.3364141881465912,0.6055009961128235,0.49671921133995056,0.05883631110191345,0.7368317246437073,-0.3068966269493103,-0.06766019761562347,0.7462992668151855,0.9602122902870178,-0.1860293596982956,0.4202677607536316,-0.11486635357141495,0.5783254504203796,0.9325140118598938,0.17277894914150238,-0.18274272978305817,0.07987796515226364,-0.8549380302429199,0.9172413349151611,0.5893025994300842,0.5992885828018188,-0.3662090301513672,-0.8004676103591919,-1.0512771606445312,-0.596136212348938,-0.6413314938545227,-0.8109995126724243,0.6130540370941162,0.7774889469146729,-0.22091837227344513,0.8249614238739014,0.4866067171096802,-1.260888695716858,0.01777869462966919,0.7714959383010864,-0.36389514803886414,-0.35918039083480835,-0.003581979777663946,-0.7450791597366333,0.17358775436878204,-0.16155411303043365,2.5705205189296976e-05,-0.5585439205169678,-0.8878173828125,0.06703033298254013,-0.3026728928089142,1.468117117881775,0.7637897729873657,-0.8617624044418335,-0.34720104932785034,-1.4159598350524902,0.35545670986175537,-0.6088290214538574,-0.3820178508758545,0.04744410887360573,-0.108246810734272,0.7774857878684998,-0.32940351963043213,-0.3678610622882843,-0.9014273881912231,-0.37742263078689575,-0.3822343349456787,-0.3029337525367737,-0.5280608534812927,1.1730847358703613,0.5890567898750305,-0.2571861445903778,0.6754505634307861,0.2270096391439438,-0.9553382992744446,0.02355124056339264,0.2654762864112854,-1.5381758213043213,0.18014121055603027,-0.48658591508865356,0.4782024323940277,0.41501232981681824,-0.7088214159011841,0.5346246957778931,0.833486020565033,0.036655690521001816,-1.1236788034439087,1.0135902166366577,-0.2894044816493988,0.8187753558158875,0.11980380117893219,0.21334031224250793,0.06713543087244034,0.3848206400871277,-0.08231750130653381,0.47210973501205444,0.412117063999176,-0.49106359481811523,0.7516717314720154,-0.6738718152046204,0.6570495963096619,0.043020378798246384,-0.1428656131029129,-0.5350766777992249,-0.9499544501304626,1.0991607904434204,0.1987297683954239,-0.13381905853748322,0.4215986430644989,-1.1932556629180908,-1.362169861793518,-0.5521698594093323,-0.14646849036216736,-0.40327203273773193
高,-2.087219476699829,0.10196177661418915,0.5590656995773315,-2.1239213943481445,0.7362352609634399,-1.6638303995132446,-0.13372501730918884,-0.8306772708892822,-0.2535225749015808,-2.1092255115509033,0.509129524230957,-0.963248074054718,1.0104790925979614,0.3276168406009674,0.6943707466125488,-1.881103277206421,1.5463030338287354,-0.11887596547603607,-1.0178635120391846,-0.626353919506073,1.0358268022537231,-0.6659106016159058,1.8279597759246826,-0.7140817642211914,-0.41264232993125916,-1.314488410949707,-2.650728702545166,2.179691791534424,-0.07057854533195496,-0.5727587342262268,-2.746596574783325,-1.3016507625579834,0.9818461537361145,2.1475510597229004,0.5843701958656311,-0.8014903664588928,-0.09976592659950256,0.24290154874324799,0.9787801504135132,-0.8420473337173462,-0.8649522066116333,-0.724879801273346,1.6659184694290161,-1.0583306550979614,-2.324284076690674,1.3500745296478271,1.164424180984497,0.8369300961494446,-0.2964911460876465,-0.14789918065071106,-0.6052179932594299,0.04256102442741394,-1.6913052797317505,1.7653496265411377,3.4694275856018066,-2.6004879474639893,-0.03305032104253769,-1.4849857091903687,2.283665657043457,0.013636205345392227,-2.467278242111206,0.6269376277923584,0.8334976434707642,0.20687831938266754,-1.3518155813217163,0.13891366124153137,-1.9583240747451782,0.9116650223731995,-0.47176942229270935,1.6839960813522339,0.09856868535280228,1.3009685277938843,0.8937087059020996,-0.2363404482603073,2.0641634464263916,-1.4113397598266602,-0.19687813520431519,0.7229076027870178,-0.9832912087440491,-0.7469319105148315,0.37887993454933167,-2.7735772132873535,-2.8489232063293457,1.1353082656860352,0.5392569899559021,0.19724836945533752,0.7215720415115356,3.572920560836792,-0.9573442935943604,0.9354761838912964,-1.6440885066986084,1.1241941452026367,1.9225716590881348,0.15594138205051422,-0.35689204931259155,-0.19912995398044586,-1.1247434616088867,3.343336582183838,2.276207447052002,1.172446608543396,0.10371290147304535,1.9485219717025757,-0.590119481086731,0.7204095125198364,-2.571978807449341,0.8987071514129639,0.6737020015716553,1.8676329851150513,-1.7161189317703247,0.5348221063613892,1.2126959562301636,0.3687434196472168,-1.0780222415924072,0.17146795988082886,-1.5962773561477661,-0.715429425239563,2.5201852321624756,-0.1883596032857895,-0.49127107858657837,3.726870059967041,-0.5033637285232544,-0.4705297648906708,-0.8590648174285889,-1.334355115890503,0.12019884586334229,3.375854015350342,-1.1877466440200806,0.9766594767570496,0.6331635117530823,-1.2405160665512085,1.046617031097412,-1.019509196281433,0.5812597274780273,0.19352032244205475,-0.08957135677337646,-1.4570978879928589,2.3393914699554443,0.5729057192802429,1.3818899393081665,0.5154427289962769,0.023747170343995094,-0.3452916741371155,-0.8586711287498474,-2.0148489475250244,-2.7277400493621826,0.6543449759483337,-1.2772079706192017,1.5492033958435059,-2.2431390285491943,-1.0829013586044312,0.6836915612220764,0.953180193901062,0.6825036406517029,-1.7487362623214722,-0.1401384025812149,0.3821246922016144,-0.5191873908042908,-1.6517797708511353,2.7200262546539307,-1.025197982788086,-0.6036926507949829,-1.1003315448760986,-1.3222804069519043,0.801746129989624,-1.065327525138855,0.8994489312171936,2.813051462173462,-0.4978983402252197,-0.8226326704025269,-0.010056545026600361,-0.830996572971344,0.4323534071445465,-0.6713244318962097,-0.23996253311634064,-1.5600616931915283,0.27770647406578064,0.3116307556629181,0.17089030146598816,-0.4703435003757477,0.6764287948608398,2.1134378910064697,-0.20083238184452057,0.24139246344566345,-2.210160255432129,0.7463942766189575,-1.2398874759674072,-1.9820528030395508,-0.37350815534591675,1.233331561088562,-0.5041254162788391,1.2652153968811035,1.5228623151779175,0.5480058789253235,1.2308396100997925,2.186943292617798,1.3812873363494873,0.28327658772468567,0.46751344203948975,-1.6625425815582275,0.8091437816619873,0.8733574748039246,-0.19500607252120972,-0.6239749789237976,0.5880359411239624,-0.6391686201095581,0.6095216870307922,2.2170538902282715,0.15815187990665436,-0.09338735044002533,2.0211901664733887,1.2477761507034302,2.0174970626831055,0.2953507900238037,0.0732993483543396,-1.3311563730239868,-1.0985479354858398,-1.4112452268600464,0.23847512900829315,0.7089632749557495,-1.652542233467102,0.5248078107833862,0.006165341939777136,1.7248599529266357,0.4032849967479706,0.29948917031288147,2.706913471221924,-1.1719979047775269,-0.3153359293937683,2.431399345397949,1.446705937385559,-0.18965153396129608,2.2183008193969727,0.7686351537704468,-1.0779963731765747,-1.1472795009613037,-0.8981419801712036,1.837499976158142,-1.4594935178756714,-0.09307403117418289,-1.5996555089950562,0.06287027150392532,-0.9113572835922241,0.8131358623504639,1.4102537631988525,-3.0047292709350586,0.8581315875053406,-0.7831990122795105,0.9418695569038391,-0.47232919931411743,0.2819913625717163,-2.4903550148010254,-1.4549016952514648,-0.4531612694263458,-0.9277122020721436,0.25187167525291443,0.07482104748487473,1.219983696937561,-0.5650615096092224,0.9444165229797363,2.1501896381378174,-0.26394298672676086,-0.7842977643013,0.25637316703796387,-0.16420289874076843,-3.473895311355591,1.579756498336792,2.976261854171753,-0.9429928660392761,-0.3288111686706543,-0.5627440214157104,-0.5282413959503174,2.2881669998168945,0.8191829919815063,1.5897361040115356,-0.8541931509971619,0.9244222044944763,-0.7309023141860962,0.3266451358795166,-0.253441721200943,-0.619576096534729,2.7835679054260254,-0.20378580689430237,-0.5825178027153015,-1.0260159969329834,-1.5097553730010986,-0.6208391785621643,2.5360066890716553,1.862433910369873,-0.5017130374908447,-0.20263420045375824,-0.6002338528633118,0.4869256019592285,1.2520934343338013,1.0654723644256592,-1.0228217840194702,0.7618511319160461,-1.8772320747375488,1.6097712516784668,-0.8105359673500061,1.8372924327850342,1.4414373636245728,-1.4737433195114136,-0.49279290437698364,1.1779643297195435,-1.7106276750564575,2.4189035892486572,-0.991944432258606,-0.8219515085220337,0.34793326258659363,-1.2846639156341553,2.370178461074829,0.9828997850418091,1.6171241998672485,-0.7325314283370972,1.5016695261001587,-0.7774279713630676,-1.1252999305725098,0.5523447394371033,0.5358895659446716,-1.2323603630065918,1.1638959646224976,-1.1700083017349243,-0.5907451510429382,-1.0172178745269775,3.5906498432159424,1.7377738952636719,-1.9187572002410889,-0.24857568740844727,0.38694408535957336,0.35914111137390137,1.4929723739624023,-1.1921347379684448,-1.5284920930862427,1.1610774993896484,-0.4575953781604767,0.425110787153244,-0.19119085371494293,1.299260139465332,0.0490303672850132,0.08123274892568588,0.755610466003418,1.6293189525604248,0.09720023721456528,-0.886873185634613,0.9981590509414673,0.10884224623441696,-1.6836612224578857,-1.1725621223449707,-0.44542890787124634,-0.31562554836273193,0.24257855117321014,0.671521782875061,0.03570733964443207,1.186322569847107,-1.6271815299987793,0.6937316656112671,-0.665192186832428,-1.7703046798706055,-2.876039981842041,-1.4238590002059937,-1.6054238080978394,0.7940595149993896,-0.27965161204338074,-0.39151570200920105,0.32295218110084534,0.44407883286476135,0.044999994337558746,1.4192508459091187,1.2904669046401978,0.8238590955734253,-1.0313717126846313,-0.3375537395477295,-0.1583588570356369,0.8013757467269897,-0.1278381496667862,0.7400068044662476,-0.09331880509853363,1.8924237489700317,0.2134777456521988,0.22090360522270203,-0.3119186460971832,-0.8099460601806641,0.23619981110095978,0.07509732991456985,-0.65446937084198,0.9161291718482971,2.7828593254089355,-0.31570446491241455,0.488130658864975,0.8219866156578064,0.6996792554855347,-0.6458620429039001,0.29513630270957947,-0.29521507024765015,-0.8010392189025879,-1.5863827466964722,-0.5160394310951233,0.3846556544303894,1.021924614906311,1.9893293380737305
至少,1.3438520431518555,-1.2298073768615723,0.4516192674636841,0.8655082583427429,0.5581550002098083,-1.0365633964538574,1.6338900327682495,0.8710029125213623,-1.4776582717895508,-2.1087474822998047,-1.1040921211242676,0.21070647239685059,-1.128064751625061,1.1192259788513184,0.39753636717796326,-1.928735375404358,-0.031160453334450722,0.20767833292484283,-0.39323610067367554,-0.9966112375259399,-0.3246927857398987,-0.054051853716373444,-0.6979727745056152,0.08606936037540436,-0.257062166929245,-0.1618485003709793,-1.7644879817962646,0.5509703159332275,0.9252264499664307,1.682106614112854,1.0753364562988281,1.7658238410949707,0.7904428243637085,0.7753458023071289,0.9269829392433167,-0.31801366806030273,-0.5031487345695496,-0.6174089312553406,-0.6273764371871948,-0.09642987698316574,0.27786046266555786,0.9111101627349854,-2.034619092941284,-0.1585344523191452,1.710615634918213,-0.010387171991169453,0.5861892700195312,-1.0229836702346802,-0.5534570217132568,1.0079798698425293,1.48918879032135,-0.7078094482421875,-0.008656938560307026,-0.36446571350097656,-0.8901273608207703,0.11003649979829788,0.531645655632019,1.5801697969436646,0.7129076719284058,-2.285834550857544,-0.5215879082679749,-0.718326210975647,2.550917387008667,0.27845391631126404,-0.28472819924354553,0.3039035201072693,-0.11176487058401108,-0.3687255382537842,0.5046198964118958,1.0426959991455078,0.6903124451637268,-0.1407434642314911,0.8024216890335083,-0.21410343050956726,-1.43722665309906,-0.20306941866874695,1.0827043056488037,3.031935214996338,-0.7176433205604553,0.40881258249282837,-0.36403417587280273,-0.2771053612232208,0.7664692401885986,0.34562334418296814,0.3460981845855713,1.7001056671142578,0.35558274388313293,1.6160684823989868,-0.5117567181587219,1.5857294797897339,1.5124154090881348,0.07829080522060394,0.7039376497268677,-0.9942421913146973,0.9952689409255981,-0.828144371509552,-0.2726285755634308,0.1508626639842987,1.8617278337478638,1.7847659587860107,1.9717096090316772,-0.7334217429161072,-0.09331389516592026,0.6408718228340149,0.896950364112854,0.14065656065940857,0.13284790515899658,-0.2972908914089203,-0.5981361269950867,1.111427903175354,0.3424694836139679,-0.7211520075798035,0.6332401037216187,-0.7620439529418945,0.6328999996185303,0.7119452357292175,1.554336428642273,0.8373692035675049,-0.657679557800293,0.04674531891942024,-0.6666706204414368,-0.8078479766845703,-0.48211798071861267,0.38919663429260254,-0.8007056713104248,-0.23473885655403137,0.46698620915412903,0.39626458287239075,0.9727686047554016,1.1532334089279175,0.26598483324050903,-2.1760032176971436,-0.873489499092102,-0.8150973916053772,-0.7455657720565796,-1.7824785709381104,1.4031623601913452,-0.6980322599411011,0.041084833443164825,-1.408738374710083,1.1142657995224,-1.589706301689148,-0.7517208456993103,0.32336661219596863,0.28702080249786377,0.24072058498859406,-1.0211081504821777,3.3653252124786377,-0.3235636353492737,-0.8589874505996704,0.6702280044555664,0.37375345826148987,-0.03913271799683571,-0.25996091961860657,0.5484224557876587,-0.26943400502204895,0.3736253082752228,0.12055904418230057,-1.7134326696395874,-0.1862855702638626,1.558071255683899,-0.905357837677002,-1.0176324844360352,-1.5708818435668945,0.8780104517936707,0.7181650400161743,0.19710640609264374,-0.3461848795413971,-0.6914296746253967,-1.0046850442886353,-0.5448734164237976,0.5019732117652893,-0.7116357088088989,1.8856170177459717,0.7589011788368225,-1.0850403308868408,-0.8983014225959778,-1.4567972421646118,1.014528512954712,0.021915121003985405,0.7194384336471558,-0.13071216642856598,-0.616516649723053,-0.4779159724712372,0.7252615690231323,-0.6448379755020142,-1.1066745519638062,0.002418707124888897,0.912359893321991,-0.3341793119907379,-0.4516694247722626,-0.17265720665454865,1.518115758895874,0.26483526825904846,0.4294213056564331,0.4047793447971344,1.175623893737793,1.320186972618103,-0.8149161338806152,-0.21045461297035217,-0.5527345538139343,0.2850392758846283,0.399320125579834,1.0107500553131104,-0.7807573676109314,0.06215270236134529,-0.12774723768234253,0.6112629771232605,0.9440418481826782,-0.48617470264434814,0.3598373532295227,2.9157092571258545,-1.661344289779663,-1.5264114141464233,1.3943272829055786,-1.302157998085022,-1.2746652364730835,-0.9191768169403076,1.1227436065673828,-1.8765031099319458,-0.36734968423843384,-1.2134634256362915,0.6859572529792786,-0.9457904696464539,-2.334864377975464,1.2502431869506836,-3.0852248668670654,-0.7327781915664673,0.3478153347969055,-0.9981579780578613,0.2755480408668518,0.5767122507095337,1.7733691930770874,-0.5224221348762512,-1.9972957372665405,-0.7319033741950989,0.14733654260635376,-0.3797746002674103,-0.6133264899253845,0.5738487243652344,1.67368745803833,-0.9314184784889221,-0.36873435974121094,0.7724708318710327,-0.21868407726287842,0.5626774430274963,-1.056191086769104,0.33443665504455566,0.02686118707060814,0.5460681319236755,-0.7374261617660522,1.0596379041671753,-0.9600652456283569,-0.9922131896018982,0.4175681471824646,-1.382610559463501,-0.8230505585670471,-1.366555094718933,0.2203177958726883,-0.06224212050437927,-0.8493953943252563,0.9226003289222717,0.13131357729434967,-0.5972945094108582,-1.1718220710754395,0.19197802245616913,0.8294620513916016,-1.9788535833358765,-0.2577270567417145,-0.6637627482414246,0.2718111574649811,0.4656701385974884,-0.21786366403102875,0.246539905667305,0.6826522350311279,-0.5235687494277954,0.5551016330718994,-0.31547561287879944,-0.49739325046539307,-0.7146655321121216,-1.0303218364715576,-0.06298880279064178,0.5879665613174438,0.718929648399353,1.8479522466659546,1.7568382024765015,2.4316134452819824,0.7492281794548035,0.30032992362976074,-0.048344772309064865,-1.8814667463302612,-1.1657814979553223,0.07610399276018143,0.1307726502418518,-0.4363872706890106,1.2179036140441895,0.23171328008174896,0.6032105684280396,-0.1636245846748352,2.124056577682495,-0.8159970641136169,-1.7267183065414429,0.1417071670293808,-0.4102413058280945,1.4943664073944092,-0.2239103615283966,-1.475766658782959,-1.2002406120300293,1.0939561128616333,-0.37874263525009155,0.6790438890457153,0.8507252931594849,-0.3360999524593353,-1.9109731912612915,-0.47273698449134827,0.37246233224868774,-0.11925847828388214,0.04899808391928673,-0.27733513712882996,-2.0750787258148193,2.476773500442505,-0.7114476561546326,-0.03522193431854248,-2.9626407623291016,-1.6316742897033691,-1.0519500970840454,-2.217348098754883,-1.9844017028808594,1.7684260606765747,-1.4297012090682983,-0.610537052154541,-1.0373672246932983,0.6426315903663635,-0.8433719277381897,-0.8104938864707947,-0.36994022130966187,-1.33217453956604,0.5855963826179504,-0.04715844616293907,0.3039382994174957,0.2285364717245102,0.834155261516571,1.0879104137420654,-0.8085871338844299,0.4346243739128113,2.169572114944458,1.6832903623580933,-0.32151421904563904,0.057704903185367584,-0.9516494274139404,-2.1539955139160156,0.9245104193687439,0.031086809933185577,0.33291110396385193,0.7940553426742554,0.9085504412651062,0.6591949462890625,0.39405661821365356,0.8974515795707703,0.053123198449611664,-0.6105810403823853,1.7238194942474365,1.660157561302185,-0.9919155836105347,0.49300941824913025,-0.9820708632469177,0.2969875931739807,1.1202114820480347,0.5208578109741211,0.8837310671806335,0.1557323932647705,-0.8597239851951599,0.7829213738441467,1.1551923751831055,1.0089093446731567,0.2698591351509094,-1.1409114599227905,-0.12471877038478851,0.8093171119689941,0.8170084357261658,0.9842101335525513,-2.1712443828582764,0.49965670704841614,0.5992987155914307,-0.16289734840393066,-0.6903109550476074,0.4696396291255951,-1.2731702327728271,0.6974091529846191,0.3525751233100891,-0.1716724932193756,0.43441155552864075,-0.284663587808609,-0.14510811865329742,0.8281870484352112,-0.4871758222579956,-1.3196007013320923,-1.1586828231811523,0.17121917009353638,1.0296425819396973
卧室,-0.14182940125465393,-0.6747942566871643,-0.34976300597190857,0.5982455611228943,0.1972835510969162,1.3970072269439697,-0.21439547836780548,0.12306414544582367,-0.7330093383789062,1.2209244966506958,0.6133888959884644,-0.4741133749485016,0.04838705435395241,0.8884349465370178,-0.4694935977458954,0.2978307008743286,-0.023817388340830803,-0.7234256267547607,-1.0845378637313843,0.05891655385494232,-0.9454210996627808,0.10116886347532272,0.3265126049518585,-0.10342526435852051,-1.4547898769378662,1.2092480659484863,-0.2692563235759735,-0.32656124234199524,0.4605100452899933,0.29625457525253296,-0.18554799258708954,-0.700634777545929,-0.0942273661494255,-0.15775920450687408,0.8114352822303772,-0.9165880680084229,-0.21458075940608978,-0.3790489733219147,0.883628249168396,-0.7004044651985168,-0.5240067839622498,1.1087905168533325,-0.3371666669845581,-1.3350211381912231,-0.6953597068786621,0.06201644614338875,-0.37258386611938477,-0.7674380540847778,-0.49173662066459656,1.1795233488082886,0.6688051223754883,0.759667694568634,0.7509374618530273,0.3042810559272766,0.5035808086395264,-0.5378876328468323,-0.3168031573295593,0.03213901072740555,-0.45712965726852417,-1.054894208908081,-0.5798811912536621,0.4482309818267822,0.02617572620511055,-0.6451650857925415,0.08290436863899231,-0.47977688908576965,-0.50102299451828,-1.3448408842086792,-0.21377554535865784,-0.025020543485879898,-0.45372867584228516,0.6159518957138062,1.0495648384094238,0.5600042343139648,0.34946519136428833,0.3361934423446655,0.7626439929008484,1.0251834392547607,1.0187618732452393,-0.8055242896080017,-1.0187369585037231,0.5217733383178711,-0.5128408670425415,-0.09589237719774246,0.15697871148586273,1.2198846340179443,0.4787370264530182,-0.058435242623090744,-0.30767303705215454,-0.2620998024940491,-0.38793477416038513,-0.6412284970283508,0.8724536299705505,-0.0578867644071579,0.6256213188171387,-0.2675692141056061,0.47250667214393616,0.243703231215477,0.41781699657440186,-0.019119249656796455,-0.13925892114639282,0.6885335445404053,-1.1451964378356934,0.10300451517105103,-0.49339836835861206,0.45497000217437744,0.1667063981294632,0.0689673125743866,-0.09577532857656479,0.38459712266921997,-0.19055898487567902,1.6876612901687622,-0.7783424854278564,-0.37871217727661133,1.560699462890625,0.20642432570457458,-1.3008424043655396,-0.7388776540756226,-0.23490698635578156,0.8679060935974121,0.9628612995147705,0.22970470786094666,1.0629396438598633,-1.3238950967788696,-0.8585749268531799,-0.29661598801612854,0.0773451030254364,-0.1514320820569992,-0.6589452028274536,1.2721666097640991,-0.31165921688079834,-1.3472307920455933,0.13698923587799072,0.3481241464614868,0.1436886191368103,0.7611868381500244,0.22289003431797028,-0.3821508586406708,-1.9446899890899658,0.059143658727407455,0.09891419112682343,-1.070688247680664,-0.8755163550376892,-0.8134263753890991,0.300645649433136,-0.3514319360256195,0.4944610595703125,0.44079118967056274,0.0284756887704134,-0.21672309935092926,0.26799941062927246,-1.3336291313171387,-0.3198568522930145,-0.6228345632553101,0.07707725465297699,-0.4419093430042267,0.5393341779708862,0.23290468752384186,-0.5529870986938477,0.9256837368011475,-0.6070679426193237,-0.4009471535682678,-0.04074921831488609,-0.3172767162322998,0.44861316680908203,0.3584851026535034,0.45014485716819763,0.0009217216866090894,0.8169329762458801,-1.2695460319519043,-0.10374531149864197,0.20386408269405365,-0.7251361012458801,-0.853810727596283,-0.08333747088909149,-0.4545387923717499,1.445188045501709,0.10769766569137573,-0.1276128590106964,-0.6635940074920654,-1.205217957496643,-0.8835180401802063,-0.3029750883579254,0.6791215538978577,1.0180500745773315,-0.6666387915611267,-1.0362731218338013,-0.5390780568122864,0.693986713886261,0.12757673859596252,0.7916616797447205,0.6700493097305298,-0.17197205126285553,-1.365928053855896,-0.9077140092849731,-0.8258747458457947,-1.0857166051864624,-0.31261682510375977,-0.4359268844127655,-0.5098817348480225,1.250129222869873,-0.8436928987503052,-0.20132870972156525,0.5849254131317139,0.3057297170162201,0.44739633798599243,-0.49470603466033936,1.1521693468093872,-0.6910736560821533,0.9849846959114075,-0.7098580002784729,0.5113914608955383,-0.34869900345802307,0.6958182454109192,1.0725252628326416,-0.16436299681663513,0.9300006628036499,0.9462886452674866,-0.3784429728984833,-0.7431386113166809,0.9478354454040527,0.7774918675422668,8.295806037494913e-05,-1.2302320003509521,-0.7686004638671875,-0.008993400260806084,-0.5253855586051941,-0.31436607241630554,-0.21579281985759735,-0.35181424021720886,-0.452908456325531,-0.7382238507270813,1.5314514636993408,-0.02085425890982151,-0.7933983206748962,-0.7425847053527832,-0.2673206329345703,0.33836644887924194,0.8391849398612976,0.8243603110313416,-0.17710456252098083,-0.004843368194997311,-0.3370437026023865,-0.060806483030319214,0.247865229845047,0.561492383480072,-0.983171284198761,1.9308061599731445,-0.9508969783782959,-0.04605744779109955,0.058403272181749344,-0.7205358147621155,0.9085128903388977,0.06741391867399216,-0.09568639099597931,-0.8537930250167847,0.522244393825531,-0.1452365517616272,-0.3603844940662384,0.006469509564340115,0.33892711997032166,-0.5297465920448303,-0.5699441432952881,-0.135474294424057,0.8808723092079163,-0.5551051497459412,0.8682813048362732,0.5983461141586304,0.2889050543308258,-0.05351212993264198,0.01963454857468605,-0.07997720688581467,0.05447044596076012,-0.10736352205276489,-0.6385223269462585,-0.5134592652320862,0.4856779873371124,0.10596983134746552,0.19508063793182373,-0.8059679269790649,0.15284188091754913,-0.2275695651769638,-0.07484369724988937,0.36368176341056824,-0.493958443403244,-0.24961228668689728,0.6696401238441467,-0.7578887343406677,-1.6824551820755005,0.4564901888370514,1.2454805374145508,1.1304240226745605,-0.1744929850101471,0.7488728165626526,0.7196895480155945,-0.23929105699062347,0.890857458114624,0.0647650733590126,0.1654869168996811,0.2776060402393341,0.7899131774902344,0.13055795431137085,-0.3882300853729248,1.1044203042984009,-0.30219537019729614,0.2120896279811859,0.21716827154159546,0.40173929929733276,0.010538828559219837,1.0075857639312744,-0.36497217416763306,-0.0409981906414032,-0.7326374053955078,-0.7951769828796387,-0.28597959876060486,-0.14495506882667542,-1.2000560760498047,0.41493526101112366,0.8672029972076416,-0.6672143340110779,0.5615078210830688,0.8854250907897949,-0.2911643385887146,1.3845146894454956,-1.2462412118911743,0.1447734236717224,-1.2185405492782593,1.0677659511566162,-0.7846071720123291,-0.9990625381469727,-1.049986481666565,-0.5034066438674927,0.7316277623176575,-0.7600958943367004,-0.13235391676425934,-1.1070317029953003,0.21194691956043243,1.0874379873275757,-0.5083832740783691,0.9907598495483398,0.17101232707500458,-0.43129169940948486,-0.0004767931532114744,0.33438780903816223,-0.6478779315948486,0.5723639130592346,0.13819345831871033,0.13500653207302094,-1.6408871412277222,0.455803245306015,-0.352455198764801,1.1315932273864746,-0.042211007326841354,0.5448488593101501,-0.2048332542181015,-0.36887434124946594,0.2564566731452942,0.45696380734443665,-0.835414469242096,-0.3678450286388397,-0.9558118581771851,-0.6488893032073975,-0.9589463472366333,-0.9578725099563599,0.15608961880207062,-0.5795238018035889,-0.5346804857254028,-0.33889758586883545,-0.08607275784015656,-0.22879177331924438,0.2162814438343048,0.40812811255455017,-1.3881971836090088,-0.5654245018959045,-0.4111434817314148,0.04185999929904938,0.22532761096954346,0.1266031116247177,0.31748443841934204,-0.3589738607406616,0.28364861011505127,-0.6396214962005615,-0.8217509388923645,1.3519575595855713,0.055785391479730606,-0.13596275448799133,-0.1796245276927948,-0.12243825197219849,0.3328896760940552,1.5166168212890625,-0.43974021077156067,2.2997324466705322,0.10073714703321457,-0.5315431952476501,-0.10383826494216919,0.4950866401195526,0.3119235336780548,-0.16008387506008148,0.9025513529777527,-0.3809552788734436
广播,0.10860614478588104,-0.5468361973762512,-0.8600978851318359,0.42429211735725403,-0.04039322957396507,-2.075167655944824,-0.21170112490653992,1.01681649684906,-1.3846874237060547,-0.5517383217811584,0.84218829870224,-1.2602461576461792,-0.03974089398980141,-0.25885728001594543,-1.418915033340454,0.8664796352386475,1.952035903930664,0.7345231771469116,-1.457069993019104,-0.08028841763734818,1.614003300666809,-2.359747886657715,-2.973053455352783,-0.8072168231010437,1.5219327211380005,0.4288208484649658,-0.08510782569646835,-0.5557398796081543,1.1203237771987915,1.5793355703353882,-0.0442076101899147,-1.4942491054534912,1.6187896728515625,2.033435344696045,1.4261798858642578,-0.806460440158844,-1.449769377708435,-1.2826167345046997,0.8346334099769592,-0.9013910293579102,-0.6275911331176758,-1.1837265491485596,0.37061575055122375,-0.744002640247345,-0.024417685344815254,1.4006327390670776,0.1493070274591446,1.3896020650863647,3.286785840988159,-1.448217749595642,0.19026707112789154,-0.18080930411815643,-0.584905207157135,0.4522963762283325,-0.9896728992462158,-0.8245459198951721,1.9636949300765991,0.8622323870658875,-1.1410999298095703,0.11435733735561371,1.4151616096496582,0.638062596321106,-0.210564985871315,1.6573609113693237,2.3913042545318604,-0.7536031007766724,-0.5745771527290344,-1.0260751247406006,1.1451524496078491,-0.451149046421051,0.4247303307056427,-0.07717394083738327,0.02670380286872387,0.9668633937835693,0.21747393906116486,0.06984465569257736,-0.5647972226142883,-1.228310227394104,0.0013485834933817387,1.22486412525177,-1.524271845817566,0.7889470458030701,0.6296566724777222,0.21948570013046265,1.3048804998397827,0.4701336622238159,2.3448245525360107,0.004217956680804491,2.221501588821411,-0.7033973336219788,-0.22528798878192902,0.6016254425048828,0.4480835497379303,-1.334428310394287,-0.6439807415008545,0.13302278518676758,-0.5967208743095398,0.41571831703186035,-1.456342101097107,1.1016720533370972,1.918583869934082,1.7914735078811646,0.9845668077468872,-0.7979117631912231,0.2980426847934723,1.3885927200317383,-0.30725863575935364,-1.9125725030899048,0.45938774943351746,0.18440383672714233,-0.08673319965600967,0.9761601686477661,1.1894811391830444,-0.7717177867889404,0.5117539167404175,1.6712236404418945,0.7144749760627747,-1.4697848558425903,0.10951147973537445,-0.4209217131137848,1.195905089378357,1.241997480392456,-0.24257923662662506,0.8273512125015259,2.100878953933716,1.0740638971328735,-0.5170394778251648,-0.7002140283584595,0.12426231056451797,-0.686556339263916,1.1149803400039673,-0.2365720272064209,-1.2940133810043335,0.9989904761314392,-2.1367878913879395,0.4814434349536896,-1.2825661897659302,-0.18907548487186432,-1.4539858102798462,1.0624476671218872,0.9366613626480103,-1.3234480619430542,2.14996337890625,-2.185811758041382,-0.5028393864631653,1.2385679483413696,-0.28325706720352173,-0.06894563883543015,0.07530719041824341,2.0283925533294678,0.3913804888725281,-0.06439512968063354,0.6982141733169556,0.1483638882637024,0.6316913366317749,-2.1014881134033203,0.0666143000125885,0.21397608518600464,-2.1995818614959717,0.5699975490570068,0.20330959558486938,0.23431949317455292,-0.4427793323993683,1.9305825233459473,0.019160794094204903,1.2714179754257202,1.3186652660369873,0.1169561892747879,-0.1810918003320694,0.09233749657869339,-1.8442548513412476,-0.21770788729190826,0.5694084167480469,0.3690425455570221,-1.183855414390564,0.2531540095806122,0.011180664412677288,-0.2865620255470276,0.9263523817062378,-1.1473963260650635,-0.8473739624023438,0.6991638541221619,-0.297962486743927,-0.23608343303203583,0.6852511763572693,-0.5900055170059204,0.3328101336956024,0.4530661404132843,-0.8271946907043457,-2.128868818283081,0.7756577730178833,0.9304900765419006,-0.611746609210968,-1.5912264585494995,-0.7427870035171509,1.1229113340377808,0.8857734799385071,1.0711191892623901,1.7703123092651367,0.7243528962135315,0.19271422922611237,1.826430082321167,1.9597126245498657,-1.2440022230148315,1.446336269378662,-0.36353549361228943,-1.2786668539047241,0.6083877086639404,-0.7351003885269165,-0.9781172871589661,-0.48495790362358093,-0.3237091302871704,-0.33491963148117065,0.3602868914604187,0.4596485197544098,-1.7410436868667603,2.2020304203033447,0.9084013104438782,1.4317868947982788,-0.8850089311599731,2.0013911724090576,-0.9063436985015869,0.8290513753890991,-1.6670856475830078,0.7216804623603821,0.7410494089126587,-0.9363488554954529,1.9280447959899902,-0.9119223952293396,-0.2377554029226303,-1.0419952869415283,0.28448981046676636,-0.7906889915466309,0.6839868426322937,-0.9069070816040039,0.1400907039642334,-0.10062532871961594,-2.579745292663574,-0.3573884069919586,-0.8394788503646851,2.6783974170684814,0.3379994332790375,0.4141106903553009,0.1485411375761032,2.472205638885498,-0.6295722126960754,0.705764651298523,-0.5085275173187256,-0.2419043630361557,2.1482937335968018,-0.4937199056148529,1.4224567413330078,-0.030621308833360672,-1.3522883653640747,-0.4790363907814026,1.6722487211227417,-1.4860883951187134,0.9431713223457336,0.6777961254119873,-1.0820670127868652,-0.8056527376174927,-1.6629126071929932,-0.010494532994925976,-0.748529314994812,-1.2769044637680054,1.4295445680618286,-0.5455439686775208,-0.30883368849754333,0.4158792793750763,-2.0818727016448975,-0.4877323806285858,2.956343650817871,0.8380297422409058,-0.5744323134422302,0.5376784801483154,-0.3929954171180725,0.6466262936592102,-1.0888800621032715,-2.0495479106903076,1.48041570186615,-0.6496148705482483,1.5052350759506226,-0.15909945964813232,1.6218525171279907,0.1948080211877823,0.6918253898620605,1.8024485111236572,-0.5304052829742432,-0.28616055846214294,0.5331789255142212,1.4989948272705078,1.4248217344284058,-0.1913023591041565,-0.2262296974658966,-0.11870404332876205,0.0905587300658226,-1.1696858406066895,-1.1838277578353882,-0.31388211250305176,-1.1039241552352905,1.0046175718307495,-1.0599642992019653,-0.41964930295944214,-0.7908591628074646,2.3021581172943115,0.04457426816225052,0.33461716771125793,0.08181891590356827,-1.2601209878921509,-0.8970404863357544,1.8854889869689941,0.4581265449523926,-0.5472785830497742,-0.35198619961738586,2.038017511367798,-0.7241681218147278,1.3795117139816284,0.686367392539978,0.21461305022239685,0.11807901412248611,-0.3308452069759369,-0.5857928991317749,0.3810802400112152,-0.09173382818698883,-0.7378393411636353,-0.5309222340583801,-0.6179779767990112,-0.6697632074356079,2.8551008701324463,0.31294772028923035,-1.3856382369995117,0.9265745282173157,-0.36677971482276917,0.7449044585227966,-0.7988417744636536,1.8298228979110718,-0.43127724528312683,-1.5641982555389404,-0.27666324377059937,-0.10979966074228287,0.05468205362558365,0.6003552675247192,2.6633548736572266,0.3489392399787903,0.19069337844848633,-0.7687474489212036,0.14384998381137848,0.7645244002342224,-1.848122239112854,1.4906972646713257,-0.9613379836082458,2.1748783588409424,-2.075645685195923,1.2639615535736084,0.44945013523101807,0.7392034530639648,1.601618766784668,-0.5632824301719666,0.15551039576530457,1.1407275199890137,-0.38553330302238464,-0.5758672952651978,-0.6886860132217407,0.040239885449409485,-1.5832123756408691,0.05479859933257103,0.3911283016204834,0.6442607641220093,1.1208229064941406,-0.05928593873977661,0.3175220787525177,-1.8582923412322998,0.2161085605621338,-0.027784790843725204,0.077921062707901,0.12188301980495453,0.4822810888290405,-0.46179866790771484,1.1570593118667603,-0.003867399413138628,1.2013261318206787,0.6899860501289368,1.0744712352752686,-1.148669719696045,-1.3655986785888672,-0.3647505044937134,-0.5274115800857544,-0.3892458975315094,1.5323703289031982,-0.598167896270752,-0.4830872118473053,0.08576000481843948,0.36484405398368835,0.903434157371521,0.7025801539421082,1.1777809858322144,-0.26417276263237,1.7357890605926514,1.3727045059204102,2.131977081298828
穿墙,-0.1383112519979477,-0.20514872670173645,-0.0833740234375,0.2221212536096573,-0.15718109905719757,0.1555136889219284,-0.19472172856330872,0.18384705483913422,0.04470405727624893,0.3485897183418274,-0.0062544806860387325,-0.07898535579442978,-0.08546233922243118,0.2579941153526306,0.09024829417467117,-0.20893846452236176,0.03709037974476814,0.1913953572511673,0.6158417463302612,-0.26935622096061707,-0.27686232328414917,0.1914864033460617,-0.30587825179100037,-0.4219356179237366,-0.044963058084249496,-0.15200600028038025,-0.641010582447052,-0.17935700714588165,-0.011479021981358528,0.305766761302948,0.26827484369277954,0.03323891758918762,0.09154589474201202,-0.3209986388683319,0.05131368711590767,-0.3751961290836334,-0.273001492023468,0.22288577258586884,0.07296080887317657,0.19902004301548004,0.07578954845666885,0.008503727614879608,-0.33142343163490295,-0.11735327541828156,-0.08064011484384537,-0.13097572326660156,-0.05897219106554985,-0.06171046942472458,0.33440515398979187,-0.1363491714000702,0.0696527436375618,0.24969834089279175,0.3475886583328247,-0.18601611256599426,0.06601659953594208,0.04048556089401245,-0.20391547679901123,0.024475406855344772,-0.09149503707885742,0.045937445014715195,0.25979185104370117,-0.28209951519966125,-0.10002890974283218,0.4094271957874298,0.27590200304985046,0.019737808033823967,0.5207717418670654,0.023517455905675888,0.19809283316135406,0.3430730700492859,-0.46473202109336853,0.09533479809761047,-0.1899026781320572,-0.11455890536308289,0.24155066907405853,0.3347022235393524,0.24160954356193542,0.19080299139022827,0.07763445377349854,0.19630517065525055,-0.562913715839386,-0.1352056860923767,0.40563762187957764,0.15784940123558044,0.2906261086463928,-0.33100852370262146,0.16525240242481232,-0.13600857555866241,0.4484756588935852,-0.1904403269290924,-0.4597187638282776,-0.09693939983844757,0.32620322704315186,-0.2785712480545044,0.5421080589294434,0.0020238528959453106,-0.32727116346359253,-0.26132091879844666,0.02308785729110241,-0.044132303446531296,0.3668743968009949,-0.13166268169879913,-0.3451206088066101,-0.08581636101007462,-0.4348050653934479,0.06378468871116638,0.0637136697769165,0.3327823281288147,0.27163001894950867,0.151677206158638,-0.11391160637140274,-0.06704000383615494,-0.21878372132778168,-0.44446709752082825,-0.10258633643388748,-0.09584376215934753,0.23448602855205536,0.23486945033073425,0.04940258339047432,-0.29550468921661377,0.20979470014572144,-0.2514340281486511,0.11920076608657837,0.07093588262796402,-0.4942706823348999,-0.7588567733764648,-0.19817587733268738,-0.0544082336127758,0.18901367485523224,0.22349782288074493,-0.3271580934524536,-0.00032118818489834666,-0.13309285044670105,-0.2157561480998993,0.14911116659641266,-0.0002407128195045516,-0.2611549198627472,-0.1187548041343689,0.22433212399482727,-0.04693034291267395,0.12145258486270905,-0.258893221616745,-0.31114622950553894,-0.003795610973611474,-0.017698664218187332,-0.3877865672111511,-0.3582061529159546,0.1380847990512848,-0.24747824668884277,-0.16081750392913818,0.02062687836587429,0.21730053424835205,0.08618462830781937,0.007161404937505722,-0.11069025844335556,-0.09676118195056915,-0.11568773537874222,-0.14282333850860596,0.10656101256608963,0.1695288121700287,-0.13223372399806976,0.1029733419418335,-0.02203585021197796,-0.06029846891760826,0.2145896553993225,-0.039236653596162796,0.360214501619339,0.17259107530117035,0.5066925287246704,-0.7319342494010925,0.03447014093399048,-0.3401726186275482,-0.4731113612651825,0.23606225848197937,0.04922524839639664,-0.5910596251487732,0.43606919050216675,-0.3673309087753296,-0.5047956705093384,-0.26976314187049866,0.06092170998454094,-0.013912164606153965,0.5694749355316162,0.06623051315546036,0.03633422777056694,-0.1494990885257721,-0.27696043252944946,0.04669233039021492,0.32299187779426575,-0.1624877005815506,0.3742949962615967,-0.0933329164981842,-0.13787841796875,-0.0030052100773900747,0.03189334645867348,0.4003804922103882,-0.4606955051422119,0.26627880334854126,0.17330864071846008,0.06869296729564667,0.1899268925189972,-0.03173672407865524,-0.040636006742715836,-0.30260413885116577,-0.025480804964900017,0.3974332809448242,0.019590403884649277,0.49541595578193665,0.19865894317626953,-0.03407472372055054,0.4162227511405945,-0.3324023187160492,-0.02771860733628273,-0.10203253477811813,0.23257510364055634,0.5031376481056213,-0.19637389481067657,0.1372034102678299,-0.08983960002660751,-0.12545472383499146,0.33839333057403564,0.24200426042079926,0.18146595358848572,-0.08586617559194565,-0.28598752617836,-0.23198044300079346,0.19493363797664642,0.7098005414009094,0.2904384434223175,-0.3642224669456482,0.10665564239025116,-0.049031469970941544,0.18456541001796722,0.040320221334695816,-0.14492490887641907,0.34481281042099,0.06777805089950562,-0.0387345515191555,0.24908196926116943,-0.517646074295044,0.4082948863506317,0.19555513560771942,-0.1842157542705536,-0.01764352060854435,-0.3015105724334717,0.0396825410425663,-0.1586475372314453,0.03188471868634224,0.056286342442035675,0.08325549215078354,-0.8741307854652405,0.20708422362804413,0.08941754698753357,0.24240650236606598,0.11383293569087982,-0.05444197729229927,0.060728173702955246,0.06324175745248795,0.732807993888855,-0.040579330176115036,0.0032050530426204205,-0.4474904537200928,0.1273871660232544,-0.11924683302640915,-0.2803032398223877,-0.264330118894577,-0.11439161747694016,-0.022569553926587105,0.2983470857143402,0.337082177400589,-0.29439494013786316,-0.18265549838542938,0.008534597232937813,-0.07415314763784409,-0.20429524779319763,0.46928223967552185,0.10457088053226471,-0.37798935174942017,-0.07095014303922653,-0.17858904600143433,0.0467350147664547,0.15874750912189484,-0.40299397706985474,-0.154588982462883,-0.2197849154472351,-0.11458510160446167,-0.07540561258792877,-0.4856829345226288,-0.15695470571517944,-0.32149937748908997,-0.35022351145744324,-0.08830999583005905,0.03769972175359726,-0.1726764440536499,-0.288584440946579,0.44760948419570923,-0.31709450483322144,0.6835249066352844,-0.04846195876598358,-0.006972514092922211,0.24047932028770447,0.4359874427318573,-0.004112654831260443,0.33053985238075256,0.21609778702259064,0.18614080548286438,0.18922433257102966,-0.13891589641571045,0.5497424006462097,0.36332109570503235,-0.21946299076080322,-0.06544288992881775,0.2679954469203949,0.3135942220687866,0.09807135909795761,-0.2463630884885788,0.12968884408473969,-0.4082399606704712,-0.015663811936974525,-0.19765152037143707,-0.04046837240457535,0.008534279651939869,0.32368004322052,-0.058952491730451584,-0.15001916885375977,-0.11024412512779236,0.31677618622779846,0.09203209728002548,0.28325358033180237,-0.5830809473991394,-0.05277363583445549,-0.22334466874599457,-0.0667138546705246,-0.5330051779747009,0.37778541445732117,-0.3535260856151581,-0.45979511737823486,0.2922184467315674,-0.10086909681558609,-0.5293476581573486,0.12267579138278961,-0.15253767371177673,0.17664343118667603,0.2787106931209564,-0.18137438595294952,0.19687579572200775,0.2802366614341736,0.1450439840555191,0.21728305518627167,0.03160901367664337,-0.4869532585144043,0.21808506548404694,0.018739042803645134,0.5035190582275391,0.229798823595047,0.04638317599892616,0.10807844251394272,-0.10948425531387329,-0.351288765668869,-0.24956969916820526,-0.20444056391716003,0.030818574130535126,0.36717772483825684,0.4436891973018646,-0.10651845484972,-0.21313659846782684,-0.27038702368736267,-0.02825145609676838,-0.016486626118421555,-0.12362144887447357,0.009288578294217587,-0.16941772401332855,0.1900099515914917,-0.011573300696909428,0.35416892170906067,0.279811292886734,-0.1364414542913437,-0.02374882623553276,-0.2006639540195465,0.12841735780239105,-0.17917682230472565,0.06669551879167557,0.3160012662410736,-0.1921985000371933,0.1923101842403412,0.26125240325927734,0.12305407226085663,0.17091181874275208,-0.4750230610370636,-0.09217511117458344,-0.09060291200876236,0.3189068138599396,0.023914258927106857,0.10136955976486206,-0.11837086826562881,-0.47545820474624634,-0.19090275466442108,-0.022998346015810966,0.33352723717689514,0.1356659084558487
波长,0.45456141233444214,-0.6478759050369263,-0.18349915742874146,-0.42072734236717224,-2.9992454051971436,0.5280277729034424,0.6081261038780212,-0.5919150710105896,2.545668363571167,-0.4034980833530426,0.6990310549736023,-1.5558527708053589,1.2812278270721436,2.2256081104278564,0.9857821464538574,1.4494702816009521,1.6838488578796387,-0.06944988667964935,-1.6158888339996338,-0.6072968244552612,4.149077415466309,-0.6442839503288269,-0.6788936257362366,-0.5862488746643066,-0.13617587089538574,-0.8245353102684021,-3.237065315246582,-0.5667198896408081,-1.2792222499847412,0.591679036617279,-0.7430813908576965,-1.8268401622772217,0.7645266652107239,0.6261613965034485,2.1846401691436768,0.1425105631351471,-0.7897511720657349,-1.8377101421356201,-0.6997391581535339,-0.9834414720535278,-1.7134623527526855,-1.005015254020691,-1.988593339920044,-1.1416516304016113,0.05925437808036804,0.34685641527175903,1.580504059791565,-0.060862768441438675,1.0675345659255981,1.9985932111740112,0.7582560181617737,-0.8178867101669312,-1.7895249128341675,-0.6993160247802734,-1.2475745677947998,1.3474448919296265,2.464308261871338,0.9050782918930054,1.747524619102478,-1.7422376871109009,-1.3984346389770508,1.040850043296814,0.15320394933223724,-0.028593197464942932,-0.10060633718967438,-0.837356448173523,-0.34478744864463806,-0.7122265696525574,-1.3226059675216675,1.913671612739563,0.7384346723556519,-1.4598520994186401,0.45119941234588623,-0.7225548028945923,-0.43983539938926697,-1.5690174102783203,0.5365030765533447,-1.3763340711593628,-0.31813210248947144,1.3553568124771118,-1.0448417663574219,-0.15946346521377563,-0.4137357771396637,0.5529870390892029,0.6995483636856079,-0.06963442265987396,1.6763447523117065,1.745872139930725,0.8094525933265686,0.36149606108665466,-0.03473960608243942,-0.07641230523586273,2.2355666160583496,-0.6023517847061157,-0.22485393285751343,-0.4570624828338623,-0.17119604349136353,-1.0948126316070557,-0.7372589111328125,0.6618161201477051,1.02665114402771,1.7636576890945435,0.030495479702949524,-0.1361384391784668,-0.1909034550189972,0.14672498404979706,1.1978399753570557,2.4565720558166504,-2.131070852279663,0.2513847053050995,0.5550857186317444,-0.8168783783912659,0.2422565221786499,-0.9003705978393555,1.0314276218414307,1.541628360748291,1.3886195421218872,0.9945927262306213,-1.5651990175247192,-1.9669088125228882,-0.5925312638282776,-0.21844935417175293,-0.22750204801559448,1.4556363821029663,-1.1621121168136597,-0.3329892158508301,-0.3188699185848236,2.1908984184265137,-0.7324219346046448,-0.006428775377571583,1.1176680326461792,-1.155791163444519,0.3483623266220093,-0.187417671084404,0.4465479254722595,0.9445574879646301,-0.9468258619308472,-0.23965048789978027,-0.19681452214717865,0.8012349605560303,-2.177947759628296,-0.9577063918113708,0.38576942682266235,-1.2665101289749146,-1.650145173072815,-0.5867142081260681,-1.0083860158920288,0.12489800900220871,0.668187141418457,-0.550524115562439,1.2367336750030518,-0.25175508856773376,-0.08408646285533905,-0.9300109148025513,0.8000969886779785,-1.1814519166946411,-0.911837637424469,1.5276820659637451,0.8588370680809021,-0.38990429043769836,0.5864400863647461,0.8637214303016663,1.1661146879196167,2.437605857849121,-0.5047178268432617,1.3361579179763794,-0.13066349923610687,-2.268887996673584,-1.980618953704834,1.0307728052139282,-1.5876567363739014,-0.0547703355550766,-0.6320587396621704,1.443745493888855,0.37246811389923096,-0.22308287024497986,0.994263231754303,0.38135793805122375,-0.5733476877212524,-0.37425103783607483,0.33579447865486145,0.31962722539901733,0.3050534725189209,-2.417086601257324,1.5886361598968506,-0.03786688670516014,-1.9252251386642456,-1.4069491624832153,0.8091002106666565,-2.6275298595428467,1.5695916414260864,0.12720157206058502,1.2655104398727417,2.1408333778381348,-2.1469383239746094,0.8054990768432617,3.6373870372772217,-0.16451218724250793,0.5091702342033386,-1.093188762664795,-1.398921012878418,-0.6473397016525269,0.9471181035041809,0.7850583791732788,0.7050777077674866,-1.090729832649231,0.6477178931236267,1.2957359552383423,-1.8554408550262451,1.34256911277771,0.06543654948472977,1.5169190168380737,-0.37735217809677124,-0.05820456147193909,-1.6419988870620728,-1.2050031423568726,2.088123083114624,-1.296662449836731,-1.0411417484283447,-1.0422357320785522,0.6920066475868225,-0.29427987337112427,1.6991984844207764,-0.5207491517066956,-1.1324793100357056,0.5389876961708069,-0.9311850070953369,-0.1426338404417038,0.8003112077713013,-2.088179588317871,0.9743075966835022,-1.5753148794174194,0.9894383549690247,-2.163111686706543,-2.3854336738586426,-0.10696934163570404,-1.1483427286148071,1.1881725788116455,-0.3888554871082306,0.4955604076385498,-0.029441658407449722,-0.10073046386241913,1.0659993886947632,-2.0841314792633057,-1.2706093788146973,0.8103605508804321,0.773417055606842,-1.4039288759231567,-0.5809935927391052,1.159401774406433,-0.4744894802570343,1.52369225025177,-0.0725829154253006,-0.6673863530158997,-0.3888900876045227,1.3037762641906738,-1.1999332904815674,0.11620375514030457,0.24916434288024902,-0.46407562494277954,0.13957452774047852,0.8783617615699768,0.2296169400215149,0.22765997052192688,0.952687680721283,-1.8322807550430298,0.6154423356056213,-1.5052357912063599,-0.16947154700756073,-1.4425067901611328,0.11833355575799942,0.37123432755470276,-2.656034469604492,-0.18495532870292664,-1.6711419820785522,0.3433723449707031,-0.13266631960868835,-0.47564661502838135,-0.41140156984329224,1.6166281700134277,0.2968756854534149,0.5571499466896057,0.7748801708221436,0.9691317081451416,-0.5119516253471375,-0.13912315666675568,0.6040290594100952,0.6618832349777222,1.3245906829833984,1.327670693397522,-1.010847806930542,0.3020217716693878,-1.3982027769088745,-0.6766788959503174,-0.7206705808639526,0.16232936084270477,-3.114692211151123,-0.7981507778167725,0.037780895829200745,0.7992889881134033,1.4741297960281372,1.2945830821990967,0.6594851016998291,-0.6369488835334778,-1.2539606094360352,-0.4458031952381134,-1.5875805616378784,-0.3795124292373657,0.8263675570487976,1.1641241312026978,-0.3985278010368347,0.2113744169473648,-0.8888816833496094,-2.0822255611419678,-1.70573890209198,0.36404985189437866,0.26456043124198914,2.4621477127075195,-0.3045414984226227,0.0023731638211756945,1.1099671125411987,1.5611778497695923,0.6975278258323669,-1.8572232723236084,-1.4310016632080078,-0.23786525428295135,0.2621572017669678,-1.0672016143798828,0.5867410898208618,-0.16033297777175903,0.4686722457408905,1.2516051530838013,1.434291958808899,-0.06691713631153107,1.843352198600769,-1.0760118961334229,-1.409024953842163,0.8990271091461182,0.5021135807037354,-0.9518427848815918,-1.5732299089431763,-0.8856908082962036,-0.4158623218536377,2.417137861251831,0.6658072471618652,0.6856452822685242,1.0685559511184692,0.34945473074913025,-0.1870834082365036,0.8569942116737366,0.05207586660981178,1.1779848337173462,0.6471577882766724,-0.2220294326543808,0.1467822641134262,1.1490130424499512,0.8173673152923584,0.4711014926433563,-1.0820945501327515,0.7562210559844971,-2.0174643993377686,-0.47556477785110474,-0.6779200434684753,-0.7828428745269775,1.5598634481430054,1.2790071964263916,0.06778261065483093,1.9742344617843628,2.6025147438049316,0.8496148586273193,-0.4643731415271759,1.8949979543685913,-1.5738290548324585,1.4137845039367676,0.46358156204223633,1.3392300605773926,-2.3665385246276855,0.43321505188941956,2.2652599811553955,0.2131928652524948,1.3057687282562256,-0.07763522863388062,-0.35821226239204407,0.01935291476547718,1.1146801710128784,-0.24707451462745667,1.8739869594573975,0.6802940964698792,0.6154145002365112,-0.6704491972923279,-2.470712900161743,1.1450437307357788,0.1950216442346573,-0.8647169470787048,-0.10092449188232422,-1.0120779275894165,0.8977027535438538,-0.2814498543739319,-0.19683797657489777,-0.26054733991622925
